9.604390859603881836e-01
-4.110960662364959717e-02
-5.655770897865295410e-01
2.940380275249481201e-01
8.502160906791687012e-01
3.529112040996551514e-01
5.250045657157897949e-01
1.648769825696945190e-01
-5.200332403182983398e-01
-3.107408285140991211e-01
-6.283789873123168945e-01
1.577200293540954590e-01
2.910160124301910400e-01
-3.709631860256195068e-01
2.251356840133666992e-01
6.695249080657958984e-01
-7.575768232345581055e-01
-2.258677780628204346e-01
-3.148265182971954346e-01
-1.381107091903686523e+00
6.452554464340209961e-01
4.715274274349212646e-01
1.496346443891525269e-01
-1.140694856643676758e+00
-2.693022191524505615e-01
-3.015713393688201904e-01
-3.047559410333633423e-02
-6.434745788574218750e-01
1.084304213523864746e+00
2.834752798080444336e-01
3.082413971424102783e-01
2.986363768577575684e-01
5.861480236053466797e-01
3.642409807071089745e-03
3.945991098880767822e-01
-2.838544130325317383e+00
5.700671672821044922e-01
-3.354674577713012695e-01
7.651789188385009766e-01
3.380578756332397461e-01
5.459750294685363770e-01
1.657290011644363403e-01
1.980919837951660156e-01
3.963148593902587891e-01
-2.210751920938491821e-01
-2.686339616775512695e-01
-2.157065719366073608e-01
-8.603193759918212891e-01
-3.604237437248229980e-01
5.222452282905578613e-01
-3.246520757675170898e-01
7.760425806045532227e-01
-8.196830153465270996e-01
-6.449146270751953125e-01
5.423024296760559082e-01
4.353895783424377441e-01
-5.101555958390235901e-02
-1.039754152297973633e+00
3.882338702678680420e-01
2.590697109699249268e-01
-6.608645915985107422e-01
-8.384445309638977051e-02
-1.564804911613464355e-01
-3.847886621952056885e-01
5.346015095710754395e-01
4.952853024005889893e-01
-8.386026322841644287e-02
5.481137707829475403e-02
3.728642165660858154e-01
-7.314474135637283325e-02
1.162803247570991516e-01
-1.608638018369674683e-01
1.612223312258720398e-02
-7.586876302957534790e-02
-5.379154086112976074e-01
-1.214386597275733948e-01
-2.768005132675170898e-01
3.236843943595886230e-01
-3.261162340641021729e-01
-2.492303550243377686e-01
-3.894426673650741577e-02
1.556361559778451920e-02
-4.262325465679168701e-01
-2.416335791349411011e-01
1.295116692781448364e-01
1.031414121389389038e-01
-1.669823527336120605e-01
-4.379126429557800293e-01
1.649761497974395752e-01
9.865675121545791626e-02
-6.428380012512207031e-01
-1.125596538186073303e-01
-1.840388327836990356e-01
-8.416145294904708862e-02
-2.639372348785400391e-01
-7.761270552873611450e-02
-2.756327390670776367e-01
2.076910734176635742e-01
1.393663417547941208e-02
-2.690878808498382568e-01
-1.689429879188537598e-01
2.825784385204315186e-01
-1.598458886146545410e-01
-1.247003860771656036e-02
-2.394831925630569458e-01
3.768503367900848389e-01
-1.490417495369911194e-02
4.057142436504364014e-01
-3.126876428723335266e-02
3.849077522754669189e-01
2.850418686866760254e-01
-8.506704866886138916e-02
1.836490333080291748e-01
4.987209290266036987e-02
-1.816847175359725952e-01
2.121756076812744141e-01
1.315288152545690536e-02
2.976201176643371582e-01
-6.529703736305236816e-01
3.463280946016311646e-02
5.455268621444702148e-01
-1.206960976123809814e-01
5.479096174240112305e-01
6.311137080192565918e-01
-5.820730924606323242e-01
-4.938647449016571045e-01
1.366769429296255112e-02
-9.383406722918152809e-05
-4.793954789638519287e-01
2.662642300128936768e-01
4.317256212234497070e-01
2.001308649778366089e-01
-3.723081648349761963e-01
-1.485244780778884888e-01
5.386384725570678711e-01
2.690228521823883057e-01
3.019671738147735596e-01
4.356669485569000244e-01
5.128356218338012695e-01
4.114258587360382080e-01
2.410156577825546265e-01
-1.248447820544242859e-01
3.903529345989227295e-01
1.144018173217773438e-01
-4.608854949474334717e-01
-1.212570220232009888e-01
-7.363686710596084595e-02
2.493235319852828979e-01
-1.702349483966827393e-01
6.484224796295166016e-01
2.856346964836120605e-01
1.939754635095596313e-01
-3.209310472011566162e-01
-1.762453615665435791e-01
3.509292602539062500e-01
1.173307225108146667e-01
2.020854204893112183e-01
3.827739357948303223e-01
-1.102130189538002014e-01
1.830300241708755493e-01
-4.758753478527069092e-01
1.089280098676681519e-01
-3.673610389232635498e-01
-4.707852005958557129e-01
2.782994210720062256e-01
3.346254229545593262e-01
8.644654881209135056e-04
-2.168818265199661255e-01
9.154088050127029419e-02
-8.681729435920715332e-02
-1.206827461719512939e-01
-5.564183592796325684e-01
1.738162189722061157e-01
-1.284024566411972046e-01
-8.288905769586563110e-02
-2.385587804019451141e-02
-1.237203404307365417e-01
-4.156167507171630859e-01
-1.701178401708602905e-02
-3.848697841167449951e-01
-4.821448326110839844e-01
-6.457416713237762451e-02
-3.300231993198394775e-01
-5.278735756874084473e-01
2.321335524320602417e-01
-4.763377830386161804e-02
2.159445881843566895e-01
-1.014300808310508728e-01
3.757201135158538818e-01
3.658007383346557617e-01
-1.044096499681472778e-01
9.270837157964706421e-02
1.497106254100799561e-01
1.531631350517272949e-01
-4.609356522560119629e-01
-1.859451532363891602e-01
-1.882286816835403442e-01
8.080622553825378418e-01
1.796639151871204376e-02
-6.368135660886764526e-02
-1.830369532108306885e-01
6.230494379997253418e-02
6.888774782419204712e-02
1.453679520636796951e-03
-4.113754034042358398e-01
1.398196965456008911e-01
-4.202467203140258789e-01
6.958552002906799316e-01
-1.839820742607116699e-01
4.216731190681457520e-01
1.276114583015441895e-01
5.356287956237792969e-01
8.767082542181015015e-02
1.348060071468353271e-01
4.400729760527610779e-02
1.652968674898147583e-01
2.181940674781799316e-01
-2.086912393569946289e-01
-4.742684364318847656e-01
3.333292901515960693e-02
3.166272044181823730e-01
3.133019432425498962e-02
2.425436377525329590e-01
3.854818344116210938e-01
-2.005381286144256592e-01
-2.277154922485351562e-01
-1.488109230995178223e-01
-4.664978012442588806e-02
-1.811055243015289307e-01
9.485214948654174805e-02
2.097937613725662231e-01
-9.601921588182449341e-02
-2.462928146123886108e-01
8.857154101133346558e-02
3.429755866527557373e-01
5.831583589315414429e-02
1.011901646852493286e-01
1.024921145290136337e-02
-1.725563257932662964e-01
-2.160221152007579803e-02
-8.595579117536544800e-02
1.399856805801391602e-02
-6.758759021759033203e-01
3.373401984572410583e-02
2.758337855339050293e-01
-1.794660538434982300e-01
2.465522885322570801e-01
5.836364254355430603e-02
5.208494514226913452e-02
-4.368869364261627197e-01
-1.206159144639968872e-01
-1.512221642769873142e-03
-9.913429617881774902e-02
1.746587157249450684e-01
-2.371761500835418701e-01
-2.054035365581512451e-01
-1.843019723892211914e-01
-2.217598259449005127e-01
-7.838031649589538574e-02
-4.785335958003997803e-01
2.246398329734802246e-01
-3.330046236515045166e-01
-3.122655451297760010e-01
-4.135951101779937744e-01
6.819053292274475098e-01
-9.037534892559051514e-02
1.755645871162414551e-01
-4.679113924503326416e-01
2.587334811687469482e-01
7.548551559448242188e-01
-1.753232479095458984e-01
2.185479998588562012e-01
4.172773659229278564e-01
3.117535114288330078e-01
-3.844296038150787354e-01
-4.501021504402160645e-01
1.991844922304153442e-01
-3.647336661815643311e-01
4.558428481686860323e-04
-6.003316640853881836e-01
-4.263628721237182617e-01
2.417205423116683960e-01
-2.220237553119659424e-01
-6.668110191822052002e-02
1.915756613016128540e-01
3.320864439010620117e-01
-2.683782875537872314e-01
3.430069684982299805e-01
1.103646308183670044e-01
8.234247565269470215e-01
2.593084871768951416e-01
-6.575630307197570801e-01
-1.827841848134994507e-01
1.621158570051193237e-01
-1.244352906942367554e-01
-9.268512949347496033e-03
-5.471026897430419922e-02
2.687346637248992920e-01
-2.023523896932601929e-01
2.114378660917282104e-01
4.212349057197570801e-01
-9.356103092432022095e-02
3.766144514083862305e-01
3.922162652015686035e-01
-2.601117789745330811e-01
-4.600674808025360107e-01
-2.283804491162300110e-02
9.094830602407455444e-03
-5.085896253585815430e-01
2.339570820331573486e-01
4.752598404884338379e-01
1.176824644207954407e-01
4.986640065908432007e-02
7.100366801023483276e-02
3.156619668006896973e-01
1.360257565975189209e-01
-2.607176452875137329e-02
1.819015294313430786e-01
2.074334174394607544e-01
2.470268607139587402e-01
3.238862156867980957e-01
-2.355597168207168579e-01
5.706225037574768066e-01
7.238458991050720215e-01
-7.043275237083435059e-01
-1.884426027536392212e-01
-2.458483725786209106e-01
2.674246132373809814e-01
-6.458691358566284180e-01
2.826103270053863525e-01
2.842308878898620605e-01
2.320712655782699585e-01
-1.698639392852783203e-01
-1.702282577753067017e-01
4.648089110851287842e-01
2.064553648233413696e-01
-5.822219699621200562e-02
5.988983511924743652e-01
4.065367579460144043e-01
4.448804557323455811e-01
2.354500144720077515e-01
6.063190288841724396e-03
4.285109937191009521e-01
4.245361685752868652e-01
-7.968738675117492676e-01
2.040481120347976685e-01
-4.680310487747192383e-01
2.375724464654922485e-01
-3.135657012462615967e-01
-7.678362727165222168e-01
7.666239887475967407e-02
-6.443210244178771973e-01
-3.599072396755218506e-01
-3.456619977951049805e-01
6.109388470649719238e-01
3.647310733795166016e-01
1.142738237977027893e-01
2.121740132570266724e-01
-2.906652912497520447e-02
6.765241026878356934e-01
8.064628243446350098e-01
-7.679628580808639526e-02
-2.454278022050857544e-01
5.657222270965576172e-01
-4.518838226795196533e-02
-3.909193277359008789e-01
1.397147029638290405e-01
-2.582120597362518311e-01
-1.641291081905364990e-01
1.017801642417907715e+00
9.570429474115371704e-02
1.128314137458801270e+00
-5.784374848008155823e-02
-3.015536963939666748e-01
2.318080216646194458e-01
2.010678797960281372e-01
2.047354876995086670e-01
-1.889820583164691925e-02
3.834699988365173340e-01
-1.948817223310470581e-01
3.854501545429229736e-01
-1.236897483468055725e-01
3.056541681289672852e-01
1.241217106580734253e-01
-3.411193192005157471e-01
2.639405988156795502e-02
1.170489471405744553e-02
2.253560870885848999e-01
-1.409149020910263062e-01
-1.328761130571365356e-01
4.342633187770843506e-01
1.320231799036264420e-02
-1.534826010465621948e-01
-1.325190216302871704e-01
2.926189005374908447e-01
1.444371640682220459e-01
-5.908164009451866150e-02
3.905541598796844482e-01
-1.658606634009629488e-04
1.951953619718551636e-01
-3.732556402683258057e-01
8.653682470321655273e-02
-3.061298429965972900e-01
-1.362051963806152344e-01
2.591519355773925781e-01
9.930607676506042480e-02
-4.751073941588401794e-02
-9.173617511987686157e-02
1.681143790483474731e-01
9.824170172214508057e-02
-2.958090901374816895e-01
1.581549942493438721e-01
3.740250319242477417e-02
-6.116541102528572083e-02
-3.114395439624786377e-01
-1.637599766254425049e-01
-2.250770479440689087e-02
2.261454612016677856e-01
6.009810045361518860e-02
2.846423012670129538e-04
-6.650506053119897842e-03
1.192460209131240845e-01
-4.693410545587539673e-02
-1.217543892562389374e-02
2.803847193717956543e-01
1.897424608469009399e-01
-4.305528104305267334e-01
-4.589685052633285522e-02
2.632148563861846924e-01
-5.027973055839538574e-01
1.011766418814659119e-01
-6.428539752960205078e-01
-8.126076310873031616e-02
1.071811020374298096e-01
-4.738678410649299622e-02
-1.778490841388702393e-02
-2.022041678428649902e-01
-1.611419916152954102e-01
-2.801565229892730713e-01
-2.589385807514190674e-01
3.157077133655548096e-01
-9.897569566965103149e-02
2.820564508438110352e-01
2.232048809528350830e-01
-2.869551181793212891e-01
-3.979451358318328857e-01
8.784496039152145386e-02
-2.962522208690643311e-01
-3.828193843364715576e-01
1.090133711695671082e-01
-1.292708218097686768e-01
1.819468438625335693e-01
-2.559995055198669434e-01
8.944635093212127686e-02
4.630938768386840820e-01
3.269157111644744873e-01
1.492333039641380310e-02
1.995986551046371460e-01
2.824330329895019531e-01
7.177359610795974731e-02
1.539354026317596436e-01
2.460901737213134766e-01
2.073780000209808350e-01
4.411346018314361572e-01
1.207782477140426636e-01
-1.700278669595718384e-01
3.336594253778457642e-02
3.582176566123962402e-02
-9.032063931226730347e-02
-2.108944803476333618e-01
-2.846502959728240967e-01
1.298287361860275269e-01
2.718291878700256348e-01
1.247321739792823792e-01
3.885741531848907471e-02
1.055242046713829041e-01
-1.545516550540924072e-01
1.192118972539901733e-01
-1.487474739551544189e-01
-7.248701155185699463e-02
3.583052754402160645e-02
3.876618742942810059e-01
-2.082908898591995239e-01
-2.060772478580474854e-01
1.722564697265625000e-01
-4.084259271621704102e-02
1.329933702945709229e-01
1.375717520713806152e-01
-2.233103290200233459e-02
4.153804481029510498e-02
-2.199592813849449158e-02
4.764245077967643738e-02
2.024653367698192596e-02
-1.185093820095062256e-01
4.832852482795715332e-01
3.763572275638580322e-01
-2.779703438282012939e-01
7.942664623260498047e-01
-2.051417827606201172e-01
-5.288068205118179321e-02
-3.440061211585998535e-01
-2.279096841812133789e-01
-2.523025572299957275e-01
1.068497449159622192e-01
2.377643585205078125e-01
-4.482140839099884033e-01
-4.173172116279602051e-01
-4.730929434299468994e-02
2.233952879905700684e-01
-2.609207034111022949e-01
1.011697053909301758e-01
-4.084964692592620850e-01
1.731103360652923584e-01
2.999867498874664307e-01
1.954999715089797974e-01
7.230473309755325317e-02
4.488204121589660645e-01
-4.361402988433837891e-01
-1.762413531541824341e-01
3.250981569290161133e-01
-2.252400368452072144e-01
-5.445477738976478577e-02
-4.289242252707481384e-02
6.343381851911544800e-02
-3.458449840545654297e-01
1.053264290094375610e-01
-2.966821491718292236e-01
-5.763124227523803711e-01
-1.453402191400527954e-01
1.882474422454833984e-01
3.175637125968933105e-01
-5.067552328109741211e-01
-2.569682002067565918e-01
-4.898307844996452332e-02
6.529993563890457153e-02
5.451729893684387207e-02
1.150924414396286011e-01
-1.496775448322296143e-01
5.134241282939910889e-02
3.582304120063781738e-01
5.473907589912414551e-01
2.332614511251449585e-01
3.969843685626983643e-01
1.380693912506103516e-01
1.206967383623123169e-01
-8.156359195709228516e-02
5.056667923927307129e-01
3.720573782920837402e-01
-4.390996322035789490e-02
-4.313810467720031738e-01
-2.609898746013641357e-01
4.853320121765136719e-01
-5.825819447636604309e-02
-8.399055153131484985e-02
2.316110283136367798e-01
3.143566250801086426e-01
-2.321705222129821777e-01
4.879134595394134521e-01
-1.519899070262908936e-01
-2.477400004863739014e-01
-1.638537496328353882e-01
-2.297138720750808716e-01
9.185912460088729858e-02
5.344167947769165039e-01
2.925579845905303955e-01
-6.033710241317749023e-01
-2.246188521385192871e-01
-9.783034771680831909e-02
-2.573717618361115456e-03
-9.422305226325988770e-02
-2.406207472085952759e-01
-1.413422524929046631e-01
7.091686725616455078e-01
6.404939889907836914e-01
7.891466468572616577e-02
6.637249588966369629e-01
1.739289015531539917e-01
-5.694171786308288574e-01
4.066529497504234314e-02
3.704631626605987549e-01
-4.025423526763916016e-01
1.302514374256134033e-01
1.026332974433898926e-01
2.489850223064422607e-01
9.818045049905776978e-02
9.531131363473832607e-04
-1.187418773770332336e-01
-4.651239216327667236e-01
6.687112152576446533e-02
2.385951578617095947e-01
3.956229984760284424e-01
-2.965902388095855713e-01
9.676195681095123291e-02
3.760259225964546204e-02
-3.710284531116485596e-01
-6.299023330211639404e-02
2.355491816997528076e-01
7.799620181322097778e-02
9.359983354806900024e-02
9.222693741321563721e-03
1.016891449689865112e-01
-8.136649429798126221e-02
7.243301719427108765e-02
-4.589523002505302429e-02
7.248704880475997925e-02
1.527823954820632935e-01
2.546483576297760010e-01
-9.393876791000366211e-02
7.362173497676849365e-02
-3.132903277873992920e-01
-4.980653524398803711e-01
1.880762279033660889e-01
2.444764673709869385e-01
1.477353572845458984e-01
6.105598211288452148e-01
4.651083946228027344e-01
1.269156187772750854e-01
-1.728297024965286255e-02
-1.661324948072433472e-01
3.527839900925755501e-03
3.574559092521667480e-01
1.978234797716140747e-01
1.388769447803497314e-01
-2.709107697010040283e-01
5.722584947943687439e-02
3.031613230705261230e-01
4.968147277832031250e-01
4.272006452083587646e-03
1.627048403024673462e-01
-3.107108473777770996e-01
-2.821039855480194092e-01
2.218921929597854614e-01
-1.003159489482641220e-02
1.794704049825668335e-01
3.699626028537750244e-01
-3.158822357654571533e-01
1.962920278310775757e-01
2.258481644093990326e-02
-1.852731555700302124e-01
-1.678817570209503174e-01
-1.768004745244979858e-01
-2.691416144371032715e-01
1.488004345446825027e-02
7.342163324356079102e-01
2.773713171482086182e-01
-4.663557112216949463e-01
-2.671724855899810791e-01
-1.294988989830017090e-01
3.413415551185607910e-01
-1.415335685014724731e-01
-2.371473312377929688e-01
-9.700292721390724182e-03
5.760689377784729004e-01
3.717158734798431396e-01
3.404033482074737549e-01
4.237979054450988770e-01
2.706264555454254150e-01
-4.076133370399475098e-01
-4.788661301136016846e-01
5.614718794822692871e-01
1.361854076385498047e-01
4.178217947483062744e-01
-2.872901856899261475e-01
8.351988345384597778e-02
3.894017264246940613e-02
2.081405669450759888e-01
2.245865464210510254e-01
-4.582960605621337891e-01
-1.763744950294494629e-01
-2.555492222309112549e-01
-2.001672536134719849e-01
-4.908082783222198486e-01
1.495798528194427490e-01
-1.658724397420883179e-01
2.661825418472290039e-01
8.987100422382354736e-02
-1.475191712379455566e-01
1.270437687635421753e-01
-1.836000680923461914e-01
1.617452949285507202e-01
-4.088235497474670410e-01
-6.339067220687866211e-02
-2.189478650689125061e-02
4.777037799358367920e-01
3.665838539600372314e-01
-2.467066943645477295e-01
1.711875083856284618e-03
1.994168460369110107e-01
1.329875588417053223e-01
1.355573087930679321e-01
-1.555113345384597778e-01
2.725925743579864502e-01
5.205129981040954590e-01
3.889242112636566162e-01
2.415681630373001099e-01
5.419328808784484863e-01
1.002298146486282349e-01
1.500511914491653442e-01
-4.657441973686218262e-01
4.171376824378967285e-01
-3.621359765529632568e-01
-4.505060985684394836e-02
3.118360340595245361e-01
-9.086684137582778931e-02
-2.206289470195770264e-01
-9.849905967712402344e-02
-4.109854400157928467e-01
3.248374760150909424e-01
-1.646687388420104980e-01
3.021811544895172119e-01
5.953159928321838379e-01
-2.970423400402069092e-01
-1.166275888681411743e-01
2.132618576288223267e-01
-5.881310701370239258e-01
-7.018818706274032593e-02
3.588560521602630615e-01
-6.679077446460723877e-02
-3.168849349021911621e-01
5.092138051986694336e-01
1.481736749410629272e-01
1.702326536178588867e-01
7.426118012517690659e-03
-1.595315188169479370e-01
-1.835504174232482910e-01
7.948461174964904785e-02
-5.771805346012115479e-02
-2.084896713495254517e-01
-8.747878670692443848e-02
2.460659295320510864e-01
-8.902850560843944550e-03
-6.953584402799606323e-02
-3.960752487182617188e-01
-4.952108561992645264e-01
-1.483045667409896851e-01
-6.795329451560974121e-01
-1.272741705179214478e-01
8.730603754520416260e-02
7.845783978700637817e-02
-5.279057025909423828e-01
1.296154260635375977e-01
4.746221005916595459e-01
-1.003890335559844971e-01
-9.015067815780639648e-01
-5.098691582679748535e-01
9.636282324790954590e-01
1.557679176330566406e-01
-1.896250396966934204e-01
-3.296180963516235352e-01
3.474439978599548340e-01
3.182983100414276123e-01
9.708464890718460083e-02
-9.797254800796508789e-01
-6.227013468742370605e-01
-4.112292826175689697e-01
-5.636179447174072266e-01
-1.871042400598526001e-01
1.702152937650680542e-01
4.918762743473052979e-01
-7.655311822891235352e-01
4.287505149841308594e-02
3.951743617653846741e-02
-1.740268021821975708e-01
3.710106611251831055e-01
3.796799182891845703e-01
-7.328632473945617676e-01
2.081211358308792114e-01
1.398907881230115891e-02
8.022995293140411377e-02
-1.492536514997482300e-01
-4.388032555580139160e-01
1.820312291383743286e-01
3.486637771129608154e-01
5.549367070198059082e-01
5.024592280387878418e-01
4.494581520557403564e-01
1.485431939363479614e-01
-1.175762489438056946e-01
1.706451550126075745e-02
5.108840465545654297e-01
-5.054306983947753906e-01
-5.838407874107360840e-01
-1.939232051372528076e-01
5.415073037147521973e-01
5.485859513282775879e-01
-6.729844212532043457e-01
-1.818293035030364990e-01
1.687686145305633545e-01
-1.321836113929748535e-01
-2.835478186607360840e-01
-2.447187751531600952e-01
-7.046295702457427979e-02
7.250791192054748535e-01
3.838903903961181641e-01
3.023334145545959473e-01
5.431057214736938477e-01
5.975885987281799316e-01
2.328951358795166016e-01
-4.733636379241943359e-01
4.420455992221832275e-01
-1.818195730447769165e-01
2.347630560398101807e-01
3.754180073738098145e-01
2.996206581592559814e-01
4.001359343528747559e-01
-7.255005091428756714e-02
5.088480114936828613e-01
3.007518351078033447e-01
2.480920851230621338e-01
-5.141369998455047607e-02
1.052730381488800049e-01
4.224076271057128906e-01
8.771963417530059814e-02
4.724844992160797119e-01
3.995973616838455200e-02
5.675923824310302734e-02
3.056937158107757568e-01
3.174715042114257812e-01
-4.524436295032501221e-01
2.145817577838897705e-01
-4.376751482486724854e-01
1.175738684833049774e-02
-1.292716860771179199e-01
5.472304821014404297e-01
2.216305881738662720e-01
-4.712598025798797607e-01
-7.717534154653549194e-02
-6.341632455587387085e-02
2.649842202663421631e-01
-9.360169619321823120e-02
-2.827593386173248291e-01
-4.157942160964012146e-02
5.274139046669006348e-01
5.677097439765930176e-01
4.821899533271789551e-01
8.125174045562744141e-01
3.225572109222412109e-01
-2.545901536941528320e-01
-3.816485106945037842e-01
3.745416104793548584e-01
-4.483004510402679443e-01
2.639501690864562988e-01
-3.332929313182830811e-01
-3.322721421718597412e-01
-3.872665166854858398e-01
7.091759145259857178e-02
-2.088041901588439941e-01
-4.533729851245880127e-01
1.133353933691978455e-01
1.158187165856361389e-01
7.347860187292098999e-02
-3.833207190036773682e-01
-3.791012465953826904e-01
-4.307312667369842529e-01
1.390529125928878784e-01
-1.310538500547409058e-01
-1.847495287656784058e-01
-9.776699542999267578e-02
1.257255789823830128e-03
-6.373140960931777954e-02
3.739182651042938232e-01
2.987174391746520996e-01
6.222281977534294128e-02
-6.725782155990600586e-01
-5.842947363853454590e-01
3.973331153392791748e-01
2.302989661693572998e-01
-4.702433943748474121e-01
-1.352026611566543579e-01
3.079171106219291687e-02
-2.368767708539962769e-01
1.934205442667007446e-01
-6.143183112144470215e-01
-5.709743499755859375e-01
5.922723934054374695e-02
-4.777550101280212402e-01
-2.328721582889556885e-01
4.368928670883178711e-01
4.952654540538787842e-01
-6.200721263885498047e-01
1.517990976572036743e-01
-1.139905117452144623e-02
-1.075737252831459045e-01
2.473542541265487671e-01
1.277401596307754517e-01
-6.854558736085891724e-02
6.011329963803291321e-02
1.474706083536148071e-01
-4.759265854954719543e-02
4.292668700218200684e-01
1.548291742801666260e-01
-2.196769714355468750e-01
6.468619406223297119e-02
-6.629175692796707153e-02
9.963149577379226685e-02
-1.380922794342041016e-01
1.384719759225845337e-01
9.274324029684066772e-02
-1.537810564041137695e-01
1.718736588954925537e-01
-2.683662772178649902e-01
1.112690716981887817e-01
7.210091948509216309e-01
3.248655050992965698e-02
-1.127057820558547974e-01
5.421015024185180664e-01
-2.973363697528839111e-01
-3.304162621498107910e-01
2.320367842912673950e-02
-6.545851826667785645e-01
-2.723304927349090576e-01
9.340420961380004883e-01
1.387391705065965652e-02
-5.883323401212692261e-02
-8.119986951351165771e-02
-2.340385168790817261e-01
9.501391053199768066e-01
1.842241138219833374e-01
-2.169137150049209595e-01
-1.242666542530059814e-01
2.808347344398498535e-01
6.802996993064880371e-02
-1.855643093585968018e-01
-1.694210804998874664e-03
1.425420641899108887e-01
-2.440402358770370483e-01
3.067600727081298828e-01
-3.923825174570083618e-02
-3.541670367121696472e-02
1.885946244001388550e-01
6.031620129942893982e-02
-1.636401936411857605e-02
-7.989250868558883667e-02
-1.716911792755126953e-01
3.887522518634796143e-01
-3.128832578659057617e-02
2.804967463016510010e-01
-4.209771007299423218e-02
-2.482411861419677734e-01
-7.103023584932088852e-03
-1.564211249351501465e-01
2.397747337818145752e-01
3.951908648014068604e-01
-1.000658497214317322e-01
7.743825018405914307e-02
9.286227822303771973e-02
-3.732011020183563232e-01
-2.544346153736114502e-01
-2.174916863441467285e-01
-1.667253375053405762e-01
6.332620233297348022e-02
-1.207734569907188416e-01
1.630036532878875732e-01
1.283531785011291504e-01
-4.221173524856567383e-01
-2.908670306205749512e-01
4.181693657301366329e-04
-5.841886159032583237e-04
2.178576737642288208e-01
1.398444473743438721e-01
-2.170835621654987335e-02
2.050609886646270752e-01
5.109366029500961304e-02
3.004575669765472412e-01
8.433164954185485840e-01
-1.137208268046379089e-01
-9.045325964689254761e-02
-4.902715384960174561e-01
6.443791389465332031e-01
1.072208285331726074e-01
9.110230207443237305e-01
4.526526480913162231e-02
-2.292912155389785767e-01
-2.105074226856231689e-01
2.485343217849731445e-01
3.994329571723937988e-01
2.356773614883422852e-01
7.616488933563232422e-01
-5.903180837631225586e-01
-1.356445550918579102e-01
2.197245955467224121e-01
-2.187544703483581543e-01
-2.155268192291259766e-02
-5.422788858413696289e-01
-3.441772460937500000e-01
2.846605144441127777e-02
-1.673902571201324463e-01
3.633926510810852051e-01
-1.318150162696838379e-01
1.607180833816528320e-01
-9.232284128665924072e-02
3.575121983885765076e-02
6.432541012763977051e-01
3.018175661563873291e-01
-2.412656247615814209e-01
-3.856685459613800049e-01
-5.021168589591979980e-01
-7.381507009267807007e-02
3.892899453639984131e-01
7.912304401397705078e-01
1.342850457876920700e-02
-4.668962061405181885e-01
1.164352372288703918e-01
1.369121968746185303e-01
-5.739494562149047852e-01
9.145580977201461792e-02
-1.041881591081619263e-01
-2.153680771589279175e-01
-5.471075177192687988e-01
1.706923544406890869e-02
-4.508974254131317139e-01
-1.700718998908996582e-01
1.387966871261596680e-01
6.299265027046203613e-01
-5.600656867027282715e-01
-7.036502361297607422e-01
-3.165903687477111816e-02
-2.621019780635833740e-01
2.733002603054046631e-01
1.817136704921722412e-01
-2.535215914249420166e-01
1.906220167875289917e-01
7.020216584205627441e-01
-1.079001903533935547e+00
-2.335140407085418701e-01
2.655641734600067139e-01
2.480121701955795288e-02
-8.769094944000244141e-02
1.657856702804565430e-01
-1.980382502079010010e-01
-2.582271993160247803e-01
-1.825510710477828979e-02
-1.168860793113708496e-01
-9.445988386869430542e-02
-7.253540307283401489e-02
9.402293711900711060e-03
4.546057060360908508e-02
-2.299504727125167847e-01
5.547168254852294922e-01
-1.154911890625953674e-01
-1.690794974565505981e-01
3.661765903234481812e-02
3.694227635860443115e-01
-5.736203789710998535e-01
-6.248886138200759888e-02
7.906504869461059570e-01
-2.932712137699127197e-01
-3.590151369571685791e-01
-5.681840330362319946e-02
-7.899082452058792114e-02
5.944303795695304871e-02
5.377825498580932617e-01
-2.133744508028030396e-01
1.319543421268463135e-01
-2.897624373435974121e-01
-2.045584022998809814e-01
2.568179666996002197e-01
2.094660848379135132e-01
1.563008278608322144e-01
-2.887685596942901611e-01
3.384741842746734619e-01
-3.431909084320068359e-01
5.163292884826660156e-01
3.611023128032684326e-01
-2.509205043315887451e-01
-2.766141295433044434e-01
-1.498599648475646973e-01
2.470762133598327637e-01
-2.335336059331893921e-01
5.029163360595703125e-01
-6.225403547286987305e-01
-2.636808156967163086e-01
5.732725858688354492e-01
2.744944393634796143e-01
-1.324124336242675781e-01
-5.997696518898010254e-01
-3.816957771778106689e-01
-3.991196155548095703e-01
4.259570837020874023e-01
5.993841290473937988e-01
1.078576780855655670e-02
-5.404297709465026855e-01
-2.424927651882171631e-01
3.514594733715057373e-01
-7.698643207550048828e-01
1.205681115388870239e-01
-8.667694777250289917e-02
2.470155209302902222e-01
-6.518148779869079590e-01
1.841128766536712646e-01
-5.637284517288208008e-01
1.742011518217623234e-03
4.785779491066932678e-02
4.522467255592346191e-01
-3.905498683452606201e-01
-4.557135105133056641e-01
-2.263822257518768311e-01
-6.851759552955627441e-01
2.987643480300903320e-01
1.493545770645141602e-01
-2.801154851913452148e-01
-3.862943351268768311e-01
2.102448046207427979e-01
1.811170727014541626e-01
-8.120326995849609375e-01
2.400103509426116943e-01
9.507469832897186279e-03
1.455761343240737915e-01
-3.686510622501373291e-01
-2.569748088717460632e-02
-6.255027055740356445e-01
2.484061010181903839e-02
5.942449569702148438e-01
4.223591387271881104e-01
-1.387533247470855713e-01
-5.311874747276306152e-01
-9.301616251468658447e-02
-4.275401234626770020e-01
8.170541375875473022e-02
2.091177403926849365e-01
-1.197993680834770203e-01
3.452684581279754639e-01
1.132802367210388184e+00
-1.086845397949218750e+00
2.995225414633750916e-02
2.325068414211273193e-01
-3.845901787281036377e-01
-6.903627514839172363e-02
2.635744214057922363e-01
1.554486248642206192e-02
7.497943192720413208e-02
4.189654886722564697e-01
-1.866364032030105591e-01
-3.436470925807952881e-01
-2.574505805969238281e-01
-1.638626307249069214e-01
-1.935064196586608887e-01
-5.573513358831405640e-02
-3.014751709997653961e-02
1.592305675148963928e-02
7.143461611121892929e-03
2.269999086856842041e-01
4.780686274170875549e-02
-1.443803906440734863e-01
8.140206336975097656e-01
2.230224460363388062e-01
8.174069970846176147e-02
-4.672890901565551758e-01
1.069325923919677734e+00
1.237649470567703247e-01
5.316785573959350586e-01
-9.289944171905517578e-02
-3.706610500812530518e-01
-6.648296713829040527e-01
-6.713924556970596313e-02
5.413619875907897949e-01
3.027950227260589600e-01
1.200795292854309082e+00
-2.441418021917343140e-01
8.692554547451436520e-04
-4.275011718273162842e-01
1.116834580898284912e-02
4.250967204570770264e-01
-4.422841370105743408e-01
1.105488911271095276e-01
4.515891671180725098e-01
-3.566508889198303223e-01
-1.691325567662715912e-02
3.708210587501525879e-02
7.937439531087875366e-02
-1.102382168173789978e-01
1.249252483248710632e-01
3.197425305843353271e-01
-1.562988460063934326e-01
-1.988867670297622681e-01
1.686289459466934204e-01
-2.014790624380111694e-01
-3.527751937508583069e-02
2.704913020133972168e-01
-2.854873836040496826e-01
-4.576595127582550049e-01
1.407350003719329834e-01
-5.039183497428894043e-01
-2.633412182331085205e-01
-2.292410582304000854e-01
3.351577222347259521e-01
-1.385958790779113770e-01
-5.308651179075241089e-02
2.488530054688453674e-02
-5.738555788993835449e-01
-1.507867723703384399e-01
-5.830366536974906921e-02
-1.319956481456756592e-01
-2.454597353935241699e-01
-2.162849754095077515e-01
-1.383537054061889648e-01
1.950496435165405273e-01
-2.718409001827239990e-01
-2.624554634094238281e-01
2.607401227578520775e-03
1.561379730701446533e-01
3.743295669555664062e-01
7.814099639654159546e-02
-7.777243852615356445e-02
5.684255361557006836e-01
1.568000316619873047e-01
2.030382603406906128e-01
8.959638886153697968e-03
3.641082048416137695e-01
2.145148515701293945e-01
4.500248134136199951e-01
-2.738215029239654541e-01
-2.464850842952728271e-01
-4.600815474987030029e-01
5.442274212837219238e-01
4.994480907917022705e-01
2.147046476602554321e-01
3.534866273403167725e-01
-6.689509749412536621e-02
-1.147957146167755127e-01
-1.566915065050125122e-01
4.214221239089965820e-02
7.382637262344360352e-01
-2.606886327266693115e-01
1.437537074089050293e-01
3.673672676086425781e-01
-2.373167127370834351e-02
-3.734417855739593506e-01
3.422890603542327881e-01
-8.666236698627471924e-02
-4.169470444321632385e-02
2.304323017597198486e-02
2.174655906856060028e-02
-4.401670694351196289e-01
-6.744283437728881836e-02
2.300819195806980133e-02
9.840573370456695557e-02
1.515234708786010742e-01
1.926745325326919556e-01
3.334034234285354614e-02
-2.631728649139404297e-01
2.160885483026504517e-01
4.719164073467254639e-01
-4.367578029632568359e-01
9.837040305137634277e-02
2.076412178575992584e-02
-4.323014020919799805e-01
-7.209346443414688110e-02
1.030823737382888794e-01
1.384087651968002319e-01
-5.233259499073028564e-02
3.212559223175048828e-01
3.993571102619171143e-01
7.688234001398086548e-02
-6.403944641351699829e-02
-1.390892118215560913e-01
-2.266279160976409912e-01
5.980311706662178040e-02
4.868200421333312988e-01
9.653426706790924072e-02
-3.640957176685333252e-01
-1.915206573903560638e-02
-7.209761142730712891e-01
1.399986743927001953e-01
-1.974244117736816406e-01
-4.626761972904205322e-01
1.455755531787872314e-01
3.379815220832824707e-01
2.802476054057478905e-03
-3.661009669303894043e-01
1.238438021391630173e-02
9.590377658605575562e-02
-1.657053381204605103e-01
2.105991914868354797e-02
-3.876089677214622498e-02
5.033555254340171814e-02
4.735793173313140869e-01
-6.570603698492050171e-02
-1.594439744949340820e-01
-1.250720918178558350e-01
1.510687917470932007e-01
-3.159423172473907471e-01
-7.062292098999023438e-02
-3.297463431954383850e-02
-6.090844273567199707e-01
-1.047489326447248459e-02
3.203509375452995300e-02
-1.666515320539474487e-01
-1.476865559816360474e-01
3.901244699954986572e-01
-5.424500256776809692e-02
-1.920899599790573120e-01
7.844164967536926270e-02
4.523398280143737793e-01
-2.912039458751678467e-01
-4.816963970661163330e-01
-2.316818572580814362e-02
-1.896995604038238525e-01
3.120045661926269531e-01
4.416764080524444580e-01
-3.500050604343414307e-01
4.706447198987007141e-02
-1.513600647449493408e-01
2.207314819097518921e-01
2.796017229557037354e-01
1.471708565950393677e-01
-2.471275255084037781e-02
7.203513383865356445e-02
8.975616842508316040e-02
-1.658960282802581787e-01
-4.989514127373695374e-02
-2.403763085603713989e-01
-1.738764345645904541e-02
-2.152116894721984863e-01
-1.365527212619781494e-01
-1.583297699689865112e-01
-2.626565694808959961e-01
-6.425698101520538330e-02
1.005362048745155334e-01
6.755501497536897659e-03
-9.478580206632614136e-02
2.487263232469558716e-01
-1.019843388348817825e-02
-4.623336717486381531e-02
-2.144367843866348267e-01
1.803348511457443237e-01
-4.412389993667602539e-01
-1.003487229347229004e+00
3.211882114410400391e-01
1.707859188318252563e-01
-1.261173468083143234e-02
-8.690232038497924805e-01
1.508173793554306030e-01
1.109358156099915504e-03
-5.830873847007751465e-01
-2.482970505952835083e-01
-5.847625136375427246e-01
-6.173993349075317383e-01
4.304406940937042236e-01
-7.543868571519851685e-02
-7.603700160980224609e-01
2.287344187498092651e-01
8.731894195079803467e-02
3.443471491336822510e-01
2.032973617315292358e-01
2.474359273910522461e-01
-1.286123394966125488e-01
-7.781439423561096191e-01
8.169951289892196655e-02
-1.856355741620063782e-02
-1.973912268877029419e-01
-4.632639884948730469e-01
9.503099322319030762e-02
3.437651693820953369e-01
-7.203198671340942383e-01
5.240039527416229248e-02
-2.965822815895080566e-01
1.049342870712280273e+00
1.825726777315139771e-01
1.576139926910400391e-01
-2.682096697390079498e-02
-1.286751627922058105e-01
-2.543509602546691895e-01
-1.036173105239868164e-01
3.177350759506225586e-02
-1.059795841574668884e-01
-3.283725082874298096e-01
-6.793534010648727417e-02
2.484233304858207703e-02
-1.942765712738037109e-01
1.098869591951370239e-01
-1.840956062078475952e-01
2.144526988267898560e-01
-1.836442053318023682e-01
1.744568943977355957e-01
1.501204967498779297e-01
-1.772544533014297485e-01
-4.500595331192016602e-01
4.784825444221496582e-01
1.046620309352874756e-02
-2.181647121906280518e-01
1.935065388679504395e-01
-5.112147927284240723e-01
5.259328335523605347e-02
-1.890466511249542236e-01
3.004832863807678223e-01
-5.207058787345886230e-01
-1.030384778976440430e+00
1.283892709761857986e-02
1.704906374216079712e-01
-4.282795637845993042e-02
-4.393639564514160156e-01
-2.177751809358596802e-02
-1.670815497636795044e-01
-9.051461517810821533e-02
-2.431350015103816986e-02
-2.727185143157839775e-03
-8.438583016395568848e-01
1.037753343582153320e+00
-2.982150949537754059e-02
1.125923916697502136e-01
-2.596670687198638916e-01
-5.438376590609550476e-02
-1.340163797140121460e-01
7.986559718847274780e-02
2.014130651950836182e-01
-3.594767674803733826e-02
5.074774622917175293e-01
-2.596091330051422119e-01
-1.582694798707962036e-01
3.405250608921051025e-02
2.505721449851989746e-01
9.834636747837066650e-02
5.578960180282592773e-01
8.493342250585556030e-02
2.176706790924072266e-01
3.068120405077934265e-02
3.912677466869354248e-01
-3.531814813613891602e-01
-5.247738584876060486e-02
1.318955868482589722e-01
-6.736900657415390015e-02
-1.395734548568725586e-01
-2.108670026063919067e-02
4.406051039695739746e-01
5.479542538523674011e-03
1.914914399385452271e-01
3.426145315170288086e-01
5.725389719009399414e-01
-9.018634259700775146e-02
-1.296648234128952026e-01
-3.533626496791839600e-01
2.290343195199966431e-01
3.273440003395080566e-01
-1.525516510009765625e-01
8.965956419706344604e-02
-1.774288266897201538e-01
1.114175677299499512e+00
-7.213332056999206543e-01
2.782667577266693115e-01
-1.471309065818786621e-01
4.985647648572921753e-02
-9.371426887810230255e-03
-4.981753602623939514e-02
1.266187522560358047e-02
-4.256013035774230957e-02
-3.517860779538750648e-03
-1.032845675945281982e-01
2.766358256340026855e-01
-1.347340047359466553e-01
3.888465464115142822e-01
1.485834121704101562e-01
9.230076521635055542e-02
7.523396611213684082e-02
1.707082986831665039e-01
2.332745306193828583e-02
-1.455694157630205154e-02
-3.803636506199836731e-02
3.854087591171264648e-01
-9.497210383415222168e-02
-2.339056730270385742e-01
-1.861969530582427979e-01
7.328552007675170898e-02
4.250112473964691162e-01
6.924480199813842773e-01
-1.068288013339042664e-01
-4.813842475414276123e-01
1.373402401804924011e-02
7.255588769912719727e-01
4.114351049065589905e-02
1.170225068926811218e-01
-5.586089491844177246e-01
-4.191092029213905334e-02
-2.741297781467437744e-01
-2.736218869686126709e-01
1.607906073331832886e-01
-5.294860601425170898e-01
6.571447104215621948e-02
3.324218094348907471e-01
6.360048800706863403e-02
-7.342506945133209229e-02
-2.431910783052444458e-01
1.961417198181152344e-01
-4.850281402468681335e-02
3.130700290203094482e-01
-1.081440001726150513e-01
3.301583826541900635e-01
3.126959800720214844e-01
2.970062792301177979e-01
-5.429579690098762512e-02
-1.631776392459869385e-01
7.673980295658111572e-02
-3.044418245553970337e-02
1.066234931349754333e-01
-4.856073558330535889e-01
2.041779085993766785e-02
2.981808781623840332e-01
3.570049405097961426e-01
-1.451114058494567871e+00
2.073277980089187622e-01
-1.692411750555038452e-01
1.204743608832359314e-01
2.489180415868759155e-01
1.960917711257934570e-01
-4.466591775417327881e-02
-3.072646558284759521e-01
1.309040486812591553e-01
-5.302654579281806946e-02
-5.526832491159439087e-02
-6.538485735654830933e-02
-3.400544226169586182e-01
-1.625375896692276001e-01
1.064315065741539001e-01
-2.118944376707077026e-01
-7.249031215906143188e-02
3.558502495288848877e-01
-1.256685256958007812e-01
-1.008394211530685425e-01
1.329710930585861206e-01
1.587041467428207397e-02
-1.421923339366912842e-01
-2.690985202789306641e-01
2.845865786075592041e-01
-1.414009332656860352e-01
3.361531347036361694e-02
-4.064750671386718750e-02
1.140516251325607300e-01
2.525600194931030273e-01
-1.031951755285263062e-01
3.910631686449050903e-02
-9.683240205049514771e-02
1.710603386163711548e-01
-5.819725990295410156e-02
8.685230612754821777e-01
4.522864893078804016e-02
1.870783120393753052e-01
2.009343951940536499e-01
1.651119440793991089e-01
-4.102283120155334473e-01
-1.800684928894042969e-01
-4.192112537566572428e-04
1.872152090072631836e-01
-1.093416735529899597e-01
1.496331840753555298e-01
4.888617247343063354e-02
1.293780375272035599e-02
-3.941373229026794434e-01
-1.573498696088790894e-01
1.219187006354331970e-01
-2.108608186244964600e-02
-6.483796238899230957e-02
-6.787754297256469727e-01
-6.572902947664260864e-02
-7.369279861450195312e-01
-2.553226947784423828e-01
-1.939041912555694580e-01
-3.453068733215332031e-01
-2.216260582208633423e-01
1.156847476959228516e+00
1.896425783634185791e-01
4.653667807579040527e-01
2.516755163669586182e-01
-2.860082387924194336e-01
-1.333789527416229248e-01
2.211817651987075806e-01
6.481144577264785767e-02
7.644063234329223633e-02
-1.068485155701637268e-01
2.558281421661376953e-01
-1.550680100917816162e-01
-1.656546145677566528e-01
-3.283964693546295166e-01
1.234416142106056213e-01
-1.814624220132827759e-01
-3.006073832511901855e-01
4.992236569523811340e-02
-3.034808039665222168e-01
-1.255764961242675781e-01
7.903799414634704590e-01
1.197365969419479370e-01
-8.163130283355712891e-01
7.962144166231155396e-02
-9.538769721984863281e-02
7.589608430862426758e-02
-1.230355262756347656e+00
4.668449461460113525e-01
-7.813084125518798828e-01
-2.275218218564987183e-01
-9.354254603385925293e-01
3.105750381946563721e-01
-4.332026932388544083e-03
-1.887291967868804932e-01
-1.205284968018531799e-01
-6.438133865594863892e-02
2.789515852928161621e-01
-2.890330851078033447e-01
-3.176483809947967529e-01
-1.336144447326660156e+00
3.714116811752319336e-01
1.091398522257804871e-01
3.923085927963256836e-01
2.385188341140747070e-01
2.787867933511734009e-02
-1.458546817302703857e-01
2.047539502382278442e-02
-5.600986536592245102e-03
8.753433823585510254e-02
3.103171586990356445e-01
-3.184285461902618408e-01
-4.614301025867462158e-03
2.372900694608688354e-01
-2.722323313355445862e-02
-1.419051289558410645e-01
-2.298241853713989258e-01
7.100949287414550781e-01
-1.948882788419723511e-01
1.245049163699150085e-01
-1.039184331893920898e-01
3.465450704097747803e-01
1.047837510704994202e-01
-5.286275967955589294e-02
-2.781389057636260986e-01
1.213291361927986145e-01
-5.164814591407775879e-01
9.832070767879486084e-02
4.025396406650543213e-01
-3.814889192581176758e-01
1.313106995075941086e-02
1.480157524347305298e-01
2.205339074134826660e-01
5.382429957389831543e-01
-1.302713304758071899e-01
-3.011612296104431152e-01
-1.879202276468276978e-01
-1.596164256334304810e-01
-5.326027274131774902e-01
-2.303422093391418457e-01
1.405131220817565918e-01
4.031031578779220581e-02
3.929420709609985352e-01
-4.309235513210296631e-02
-2.126013189554214478e-01
1.656646430492401123e-01
1.034370511770248413e-01
-1.374170780181884766e-01
9.200195223093032837e-02
-1.182620748877525330e-01
1.866199970245361328e-01
-2.744777202606201172e-01
-5.531357228755950928e-02
-2.833810150623321533e-01
-2.033649384975433350e-01
-7.827767729759216309e-02
-5.076924338936805725e-02
1.596774607896804810e-01
1.533655077219009399e-01
-3.357642143964767456e-02
-4.176503419876098633e-01
-7.273189723491668701e-02
-4.099861159920692444e-02
4.495892524719238281e-01
5.474317669868469238e-01
-5.306930541992187500e-01
2.251823693513870239e-01
-1.104106754064559937e-01
7.608193904161453247e-02
-9.082038700580596924e-02
-5.165889859199523926e-01
1.724116504192352295e-01
1.486894637346267700e-01
2.226579040288925171e-01
-1.761919409036636353e-01
-4.467603191733360291e-02
-1.579411625862121582e+00
-2.924477458000183105e-01
-9.781390428543090820e-02
-2.441847771406173706e-01
-7.463877201080322266e-01
3.211669027805328369e-01
-9.593291580677032471e-02
6.635024398565292358e-02
2.239219546318054199e-01
-2.139176726341247559e-01
3.969414532184600830e-01
-3.682373464107513428e-01
-4.462956786155700684e-01
3.325603008270263672e-01
-8.158151060342788696e-02
-3.358788788318634033e-01
-2.724922001361846924e-01
-4.605515003204345703e-01
-2.013737708330154419e-02
3.778123557567596436e-01
-1.833945810794830322e-01
7.508897781372070312e-02
2.934145331382751465e-01
1.483375877141952515e-01
-1.154630407691001892e-01
2.757752686738967896e-02
-4.122726321220397949e-01
8.678334206342697144e-02
-2.066027224063873291e-01
4.453688859939575195e-03
-3.012384772300720215e-01
-1.118879392743110657e-01
2.133827507495880127e-01
-2.177212014794349670e-02
2.139034494757652283e-02
-3.238014644011855125e-03
2.407705783843994141e-01
-8.714240044355392456e-02
-5.519308149814605713e-02
-2.197233736515045166e-01
-7.846681028604507446e-02
-1.519623994827270508e-01
-7.357463240623474121e-02
-1.593209356069564819e-01
1.249374449253082275e-01
-9.219504147768020630e-02
1.499623209238052368e-01
-1.847525835037231445e-01
1.409887969493865967e-01
-1.762761175632476807e-01
-1.722634881734848022e-01
-1.098598912358283997e-01
4.517748206853866577e-02
9.644342958927154541e-02
4.175574779510498047e-01
-1.396964341402053833e-01
-2.243972122669219971e-01
-3.859134316444396973e-01
2.614287137985229492e-01
3.450998365879058838e-01
1.342338323593139648e-01
-4.839773476123809814e-02
-9.484451264142990112e-02
2.531373687088489532e-02
1.661719232797622681e-01
-8.044422417879104614e-02
-1.228973269462585449e-01
3.521825671195983887e-01
1.650286167860031128e-01
5.698538422584533691e-01
4.557831585407257080e-01
-4.047553837299346924e-01
-4.356262087821960449e-01
1.252203285694122314e-01
-1.096980571746826172e-01
-5.986509323120117188e-01
-4.374492168426513672e-02
-2.757967114448547363e-01
1.785143464803695679e-01
1.900703273713588715e-02
4.344641566276550293e-01
7.776401937007904053e-02
-1.467735469341278076e-01
-9.327656775712966919e-02
2.832638025283813477e-01
2.684889733791351318e-01
-2.231759727001190186e-01
-2.085371911525726318e-01
-6.663003563880920410e-02
-6.650484353303909302e-02
-2.296206504106521606e-01
-2.819493412971496582e-01
4.081576466560363770e-01
3.976676166057586670e-01
1.819846406579017639e-02
9.587634354829788208e-02
-2.937225103378295898e-01
-5.163921713829040527e-01
1.511114239692687988e-01
7.612583041191101074e-01
-4.299713671207427979e-01
4.188726544380187988e-01
-8.612087112851440907e-04
-3.138308525085449219e-01
5.033515095710754395e-01
-4.736185669898986816e-01
7.147536426782608032e-02
-2.826891541481018066e-01
-8.401234149932861328e-01
-2.982087731361389160e-01
-1.226869318634271622e-02
1.046487614512443542e-01
-5.504010319709777832e-01
-6.708433479070663452e-02
-4.145361781120300293e-01
1.274727731943130493e-01
-2.698243968188762665e-02
-5.907616019248962402e-02
-5.326865911483764648e-01
-5.393809080123901367e-01
-5.275226235389709473e-01
7.549632191658020020e-01
-2.035030722618103027e-01
-6.685727089643478394e-02
1.552392363548278809e+00
1.632643342018127441e-01
7.531055063009262085e-02
-1.925418674945831299e-01
9.060131311416625977e-01
-2.190932035446166992e+00
