-5.941999554634094238e-01
-5.403602719306945801e-01
6.252048015594482422e-01
2.734651565551757812e-01
9.051973372697830200e-02
-2.870532870292663574e-01
-5.078254938125610352e-01
1.159751892089843750e+00
-2.708747796714305878e-02
-3.779912292957305908e-01
-4.097793400287628174e-01
1.301978081464767456e-01
-3.992925584316253662e-01
-3.239172101020812988e-01
-6.577643752098083496e-01
-8.988380432128906250e-01
-3.267887830734252930e-01
-1.251399636268615723e+00
-2.532880306243896484e-01
-3.093748688697814941e-01
-4.681282863020896912e-02
1.946428298950195312e+00
-3.939042091369628906e-01
5.384534597396850586e-01
-8.238762617111206055e-03
-6.446728706359863281e-01
3.277997076511383057e-01
4.923207163810729980e-01
6.377920508384704590e-01
-6.459890604019165039e-01
2.806592583656311035e-01
-7.781575322151184082e-01
7.472274452447891235e-02
3.739541172981262207e-01
3.938168659806251526e-02
-2.885863184928894043e-01
5.705210566520690918e-01
1.860720068216323853e-01
7.161779403686523438e-01
2.325951308012008667e-01
-4.683816134929656982e-01
3.387011587619781494e-01
-6.822585463523864746e-01
-5.707406401634216309e-01
-9.431251883506774902e-02
-2.683162987232208252e-01
-2.127908468246459961e-01
-4.546480476856231689e-01
-5.523573607206344604e-02
-3.661190867424011230e-01
-1.118200778961181641e+00
-8.573573082685470581e-02
6.153183579444885254e-01
-4.105347022414207458e-02
2.800727188587188721e-01
-2.672004103660583496e-01
-6.133888959884643555e-01
6.372204422950744629e-01
5.284669995307922363e-01
3.486698269844055176e-01
-1.784116029739379883e-01
4.025537669658660889e-01
-6.856393069028854370e-02
-1.369714587926864624e-01
-3.094745576381683350e-01
-2.380451709032058716e-01
-5.984975099563598633e-01
-2.656135261058807373e-01
2.312645018100738525e-01
-2.602866291999816895e-01
-9.558416903018951416e-02
-1.126170158386230469e-01
-3.068016469478607178e-01
6.017757058143615723e-01
2.338836044073104858e-01
1.740399152040481567e-01
-1.973234266042709351e-01
2.027834206819534302e-01
3.492319583892822266e-01
4.004458189010620117e-01
2.797228470444679260e-02
8.272042870521545410e-02
-3.664105199277400970e-03
9.061964601278305054e-02
3.855825662612915039e-01
-2.435823529958724976e-01
1.431467235088348389e-01
1.349193006753921509e-01
3.590856790542602539e-01
-1.696082651615142822e-01
-5.197145417332649231e-02
-3.230659067630767822e-01
-1.429044306278228760e-01
1.100757867097854614e-01
-4.836702346801757812e-02
2.696699500083923340e-01
1.783351898193359375e-01
-2.213431000709533691e-01
-2.199638485908508301e-01
1.532860696315765381e-01
-3.688966631889343262e-01
1.262201219797134399e-01
-2.821124531328678131e-02
2.645190954208374023e-01
-1.659614443778991699e-01
2.429604902863502502e-02
-2.139083594083786011e-01
-5.699757486581802368e-02
-1.095780372619628906e+00
1.322950869798660278e-01
7.638809680938720703e-01
1.379645615816116333e-01
-4.376216828823089600e-01
3.289965093135833740e-01
1.820539832115173340e-01
-1.795918196439743042e-01
-4.460313916206359863e-02
-7.913571596145629883e-02
5.527094472199678421e-03
8.908287435770034790e-02
-4.787055402994155884e-02
6.186139211058616638e-02
3.136790543794631958e-02
-3.421054482460021973e-01
1.941824406385421753e-01
-3.488537073135375977e-01
8.604966104030609131e-02
-6.095882505178451538e-02
-8.029152452945709229e-02
1.974739879369735718e-01
-3.907635062932968140e-02
1.765182986855506897e-02
1.261177957057952881e-01
-1.546405106782913208e-01
2.298416346311569214e-01
-3.060329146683216095e-02
-8.915485441684722900e-02
-1.192674487829208374e-01
2.927537560462951660e-01
1.566478013992309570e-01
2.502484321594238281e-01
-1.770538687705993652e-01
-6.048801913857460022e-02
5.175542831420898438e-01
2.118801474571228027e-01
-1.688344180583953857e-01
4.409150034189224243e-02
-6.962594576179981232e-03
-2.799386084079742432e-01
3.340049460530281067e-02
5.826775729656219482e-02
1.393168419599533081e-01
3.168534040451049805e-01
-1.975383460521697998e-01
-1.493777930736541748e-01
-3.364554792642593384e-02
-1.585920900106430054e-01
3.951511904597282410e-02
-1.953774541616439819e-01
-9.366745501756668091e-02
-3.692800104618072510e-01
3.624277189373970032e-02
1.746072471141815186e-01
3.911640644073486328e-01
-1.297819912433624268e-01
-2.136000432074069977e-03
1.708844602108001709e-01
-4.869858026504516602e-01
-6.765170097351074219e-01
-1.394921094179153442e-01
6.624320745468139648e-01
3.151771128177642822e-01
-6.556066870689392090e-01
1.480879932641983032e-01
-1.627435386180877686e-01
-3.001360595226287842e-01
1.583552509546279907e-01
-2.218885719776153564e-01
1.893958598375320435e-01
-1.256952732801437378e-01
-1.301192492246627808e-01
1.186186298727989197e-01
2.731371819972991943e-01
2.537918090820312500e-01
-1.654263585805892944e-01
4.853289425373077393e-01
1.389053463935852051e-01
-5.846408382058143616e-02
2.307703793048858643e-01
1.728458106517791748e-01
-3.979992121458053589e-02
-1.233456805348396301e-01
-4.259404838085174561e-01
7.412317395210266113e-02
-4.204580485820770264e-01
1.904817372560501099e-01
1.995420455932617188e-01
-3.009206652641296387e-01
-1.642918288707733154e-01
-2.847421765327453613e-01
1.462295949459075928e-01
1.227851137518882751e-01
5.323331430554389954e-02
-2.099185436964035034e-01
-3.927676677703857422e-01
-4.930706694722175598e-02
-1.115177720785140991e-01
-1.148551702499389648e-01
3.189758360385894775e-01
-2.193024307489395142e-01
-3.414744436740875244e-01
-1.195445284247398376e-02
-4.191014468669891357e-01
2.678667902946472168e-01
1.033432409167289734e-01
-1.236977204680442810e-01
8.095557242631912231e-02
-9.360279887914657593e-02
1.400900036096572876e-01
-5.129857920110225677e-03
-3.194964528083801270e-01
2.202963680028915405e-01
1.241700425744056702e-01
6.190593168139457703e-02
-3.232039511203765869e-01
-3.407391952350735664e-03
-4.704764187335968018e-01
-2.791246175765991211e-01
-1.754568368196487427e-01
4.314728453755378723e-02
-4.433533921837806702e-02
-1.338662356138229370e-01
-5.907188057899475098e-01
6.001003384590148926e-01
2.961005456745624542e-02
5.531095713376998901e-02
4.037201702594757080e-01
-1.852186024188995361e-01
-2.098096907138824463e-02
-4.854332283139228821e-02
8.595314621925354004e-02
5.655071511864662170e-02
1.799949631094932556e-02
9.624678641557693481e-02
2.350314855575561523e-01
-1.866864114999771118e-01
7.173835486173629761e-02
1.030795089900493622e-02
-4.080297648906707764e-01
5.263170599937438965e-02
4.800551831722259521e-01
-1.153665632009506226e-01
1.194535717368125916e-01
5.585191026329994202e-02
1.003922671079635620e-01
-1.351483762264251709e-01
6.336300820112228394e-02
7.199117541313171387e-02
6.577300280332565308e-02
6.497469544410705566e-02
2.332801371812820435e-02
1.644507199525833130e-01
7.963684946298599243e-02
2.054627984762191772e-01
3.338985741138458252e-01
-3.331625368446111679e-03
2.767671942710876465e-01
-1.811526417732238770e-01
-2.826728820800781250e-01
1.385212838649749756e-01
1.789504885673522949e-01
-2.528162896633148193e-01
5.405623912811279297e-01
-3.272106051445007324e-01
-7.901222258806228638e-02
7.575712352991104126e-02
1.970767043530941010e-02
1.510145217180252075e-01
1.901132911443710327e-01
1.378622949123382568e-01
4.182431474328041077e-02
-3.017165064811706543e-01
-1.971288584172725677e-02
5.202534794807434082e-01
1.872677356004714966e-01
1.751162111759185791e-01
1.803916841745376587e-01
8.279080502688884735e-03
-2.469191886484622955e-02
2.020243406295776367e-01
3.981082737445831299e-01
1.000063493847846985e-01
3.750758171081542969e-01
-4.119791686534881592e-01
-6.156106945127248764e-03
6.491757929325103760e-02
-1.009309515357017517e-01
1.977630332112312317e-02
-2.536889016628265381e-01
-1.369526088237762451e-01
-3.040544092655181885e-01
3.342295065522193909e-02
-8.068143129348754883e-01
7.208287119865417480e-01
-4.110900461673736572e-01
1.156846508383750916e-01
-1.839256286621093750e-01
-2.773268222808837891e-01
-5.925855636596679688e-01
-2.051596939563751221e-01
5.357409119606018066e-01
6.586354970932006836e-01
-3.111505210399627686e-01
-1.056946739554405212e-01
-3.238242268562316895e-01
-7.474207282066345215e-01
-3.845801353454589844e-01
4.981880187988281250e-01
2.494206875562667847e-01
1.983066946268081665e-01
-9.810601174831390381e-02
8.064098656177520752e-02
-1.086896136403083801e-01
1.002798825502395630e-01
-3.613346815109252930e-01
-9.950406104326248169e-02
-8.901847153902053833e-02
-8.222357183694839478e-02
-3.548840880393981934e-01
-3.669353127479553223e-01
3.226857185363769531e-01
-1.292369365692138672e-01
-6.422854959964752197e-02
7.903582602739334106e-02
-1.249541863799095154e-01
-2.020532339811325073e-01
-9.993467479944229126e-02
1.218590512871742249e-01
1.386631429195404053e-01
9.994704276323318481e-02
1.633919775485992432e-01
1.744345575571060181e-01
9.165544807910919189e-02
-4.041540995240211487e-02
-1.937807649374008179e-01
1.236038133502006531e-01
-1.221316680312156677e-01
-1.511241346597671509e-01
7.027115672826766968e-03
-9.687139093875885010e-02
3.384473621845245361e-01
1.507805734872817993e-01
-1.370843291282653809e+00
3.842674493789672852e-01
-1.914407759904861450e-01
2.029055953025817871e-01
2.999424040317535400e-01
-2.408349961042404175e-01
-1.657956093549728394e-01
1.303376257419586182e-01
1.834133267402648926e-01
1.470976416021585464e-02
1.987774074077606201e-01
9.689053893089294434e-02
2.219060063362121582e-01
-2.165361940860748291e-01
1.770916134119033813e-01
3.866222128272056580e-02
-2.254062741994857788e-01
3.248565644025802612e-02
5.775438547134399414e-01
-1.670259684324264526e-01
6.099608540534973145e-01
-1.040436327457427979e-01
1.846601627767086029e-02
-1.345612481236457825e-02
-1.330259293317794800e-01
-2.460747398436069489e-02
1.630847305059432983e-01
1.886089332401752472e-02
-1.256462931632995605e-01
6.312114596366882324e-01
-3.832104802131652832e-02
-3.830113708972930908e-01
-1.811979264020919800e-01
-6.354571580886840820e-01
-2.359554022550582886e-01
-1.414112597703933716e-01
-4.722248390316963196e-02
-1.228278428316116333e-01
-1.925270706415176392e-01
-3.111151158809661865e-01
2.383032739162445068e-01
1.658653765916824341e-01
3.212714493274688721e-01
3.392378240823745728e-02
6.491761654615402222e-02
2.012443691492080688e-01
4.260631799697875977e-01
3.235523402690887451e-01
2.539825141429901123e-01
-3.943028151988983154e-01
3.574484586715698242e-02
-1.666535437107086182e-01
-1.139108911156654358e-01
4.130164384841918945e-01
1.524831652641296387e-01
5.736182332038879395e-01
6.856800913810729980e-01
1.853854656219482422e-01
-2.364544868469238281e-01
-9.413485229015350342e-02
-2.481659352779388428e-01
1.391823589801788330e-02
-2.735087871551513672e-01
-1.678341925144195557e-01
-3.571672737598419189e-02
-3.044896125793457031e-01
-3.676072061061859131e-01
-4.311351776123046875e-01
-6.919631361961364746e-02
-7.327928207814693451e-03
1.327467411756515503e-01
4.692013263702392578e-01
2.417271286249160767e-01
-1.575349420309066772e-01
1.053472235798835754e-01
7.079853862524032593e-02
1.165001913905143738e-01
7.954335957765579224e-02
3.933240175247192383e-01
-1.371749639511108398e-01
6.033259034156799316e-01
-4.298015534877777100e-01
2.542705833911895752e-01
-2.462744414806365967e-01
-3.568884134292602539e-01
3.012027442455291748e-01
5.594583600759506226e-02
-2.834434807300567627e-01
4.587458819150924683e-02
2.076684087514877319e-01
7.073043962009251118e-04
-4.467375874519348145e-01
-7.259888201951980591e-02
-1.040819659829139709e-01
-2.364863753318786621e-01
-1.589279770851135254e-01
2.823559641838073730e-01
-6.994859874248504639e-02
-1.295720040798187256e-01
-1.945770978927612305e-01
3.344641625881195068e-01
-1.644189357757568359e-01
2.058605104684829712e-01
3.142805695533752441e-01
-2.568627893924713135e-01
-1.608511954545974731e-01
7.629947364330291748e-02
2.386328577995300293e-01
1.005304232239723206e-01
-2.808571755886077881e-01
7.135658711194992065e-02
8.516582846641540527e-02
-1.071279197931289673e-01
-1.645102351903915405e-01
-1.621010750532150269e-01
1.816736161708831787e-02
-1.191325038671493530e-01
-1.892316788434982300e-01
-1.118958368897438049e-01
-1.201097145676612854e-01
3.395302295684814453e-01
-8.568187057971954346e-02
-1.513274461030960083e-01
-1.308264024555683136e-02
3.104313015937805176e-01
-2.677561044692993164e-01
-1.162275224924087524e-01
2.231964021921157837e-01
1.180461570620536804e-01
-1.767220720648765564e-02
3.203648924827575684e-01
-1.208701655268669128e-01
8.062487095594406128e-02
6.008309721946716309e-01
2.157517075538635254e-01
4.813782870769500732e-02
-5.650033429265022278e-02
-1.813153624534606934e-01
-7.421812415122985840e-02
6.282533705234527588e-02
-2.839773893356323242e-01
-1.677681952714920044e-01
-9.351852536201477051e-02
-1.591295748949050903e-01
-1.373018175363540649e-01
-1.010580882430076599e-01
-7.545904815196990967e-02
-1.987412720918655396e-01
-1.041099503636360168e-01
1.334140896797180176e-01
-1.247488781809806824e-01
-1.870801895856857300e-01
2.331986790522933006e-03
1.413651835173368454e-02
3.012635111808776855e-01
-3.617290258407592773e-01
2.955694496631622314e-01
3.258834183216094971e-01
1.719049513339996338e-01
1.430430859327316284e-01
2.532532811164855957e-01
4.969771020114421844e-03
7.278377413749694824e-01
2.864611744880676270e-01
-1.454617232084274292e-01
1.744409054517745972e-01
6.575530767440795898e-02
-1.156741604208946228e-01
-2.061436325311660767e-01
-5.845417454838752747e-02
-3.337644040584564209e-02
1.154925674200057983e-02
3.336577489972114563e-02
-4.867309331893920898e-01
3.841207548975944519e-02
-2.147191204130649567e-02
-6.583384424448013306e-02
-8.511447906494140625e-02
1.565392464399337769e-01
2.925076782703399658e-01
1.498083919286727905e-01
1.010889559984207153e-01
2.929100990295410156e-01
3.479516208171844482e-01
-3.772424533963203430e-02
1.224217265844345093e-01
-7.035656273365020752e-02
8.308093994855880737e-03
2.855235934257507324e-01
-2.069177776575088501e-01
7.206822186708450317e-02
2.734023928642272949e-01
-3.088496923446655273e-01
1.595616154372692108e-02
2.202736884355545044e-01
2.871050536632537842e-01
1.073812842369079590e-01
-1.132617965340614319e-01
-3.372943997383117676e-01
-3.509895503520965576e-01
-5.711985751986503601e-02
1.793724000453948975e-01
-2.260102629661560059e-01
-1.763190329074859619e-01
-1.785322092473506927e-02
8.257973939180374146e-02
-3.922325074672698975e-01
2.437050491571426392e-01
3.662579357624053955e-01
9.136748313903808594e-02
1.975815743207931519e-01
3.953619003295898438e-01
-4.495846629142761230e-01
-2.155337631702423096e-01
-2.554977834224700928e-01
2.912590205669403076e-01
1.505167782306671143e-01
-6.064268946647644043e-02
-2.346230298280715942e-01
-5.561295747756958008e-01
7.222769409418106079e-02
-2.247375100851058960e-01
-2.173617333173751831e-01
-2.527286708354949951e-01
2.621460556983947754e-01
2.801201865077018738e-02
-4.592258110642433167e-02
5.588352084159851074e-01
1.654192954301834106e-01
6.467419117689132690e-02
-8.473297953605651855e-02
6.268098950386047363e-02
2.674074470996856689e-01
-4.778613448143005371e-01
-9.352242201566696167e-02
-1.410398036241531372e-01
-1.539321243762969971e-01
4.448631703853607178e-01
5.721973180770874023e-01
1.524022370576858521e-01
4.627753496170043945e-01
-1.007186099886894226e-01
2.950808405876159668e-02
7.216748595237731934e-01
-1.153818890452384949e-01
-1.324559329077601433e-03
7.911345362663269043e-02
2.317719627171754837e-03
-2.508186101913452148e-01
-2.360307872295379639e-01
1.794598251581192017e-01
-2.007906287908554077e-01
8.687156438827514648e-02
1.830004006624221802e-01
-1.005897745490074158e-01
-1.307213455438613892e-01
-1.399974524974822998e-01
-2.392232865095138550e-01
8.022286929190158844e-03
2.796264886856079102e-01
-5.228379368782043457e-01
-6.632705032825469971e-02
-2.775727212429046631e-01
-5.705037713050842285e-02
-5.984007567167282104e-02
1.728341728448867798e-01
8.755660802125930786e-02
-9.687060862779617310e-02
6.806574016809463501e-02
-4.768738988786935806e-03
-5.131631493568420410e-01
2.784431278705596924e-01
-1.348188817501068115e-01
-3.004102408885955811e-01
2.693311572074890137e-01
-6.888519972562789917e-03
2.890498004853725433e-02
3.118896484375000000e-01
2.368198931217193604e-01
1.384528577327728271e-01
4.220534116029739380e-02
-1.472742557525634766e-01
6.507662683725357056e-02
3.826852440834045410e-01
-1.902136206626892090e-01
4.731813669204711914e-01
-2.701157331466674805e-01
1.120764687657356262e-01
5.633128285408020020e-01
4.010215774178504944e-02
8.391874283552169800e-02
2.615911066532135010e-01
-4.281179010868072510e-01
3.939214944839477539e-01
-1.435350924730300903e-01
4.708115458488464355e-01
3.147773444652557373e-01
-3.748148381710052490e-01
-1.789883077144622803e-01
-3.873257339000701904e-01
-5.932093262672424316e-01
9.660840965807437897e-03
1.700377278029918671e-02
-3.588568270206451416e-01
3.158403337001800537e-01
-1.150152161717414856e-01
-2.522405982017517090e-01
2.634073793888092041e-01
-7.846239022910594940e-03
1.019769608974456787e-01
-2.636321187019348145e-01
1.256236881017684937e-01
-5.384019762277603149e-02
-2.681393623352050781e-01
-1.570639461278915405e-01
7.511715590953826904e-02
1.441279798746109009e-01
3.420002460479736328e-01
3.128089606761932373e-01
-1.167122721672058105e-01
3.203802108764648438e-01
-7.156026363372802734e-02
6.534239053726196289e-01
1.178891420364379883e+00
1.380352526903152466e-01
-1.012210249900817871e-01
1.223163381218910217e-01
1.444821804761886597e-01
-1.561825424432754517e-01
2.322280704975128174e-01
1.821930408477783203e-01
-8.985941857099533081e-02
6.873676180839538574e-02
-1.521311104297637939e-01
-2.860991656780242920e-01
6.053924188017845154e-02
9.343388676643371582e-02
5.551269650459289551e-01
7.150060534477233887e-01
2.389820814132690430e-01
1.406611502170562744e-01
-4.206748902797698975e-01
-4.754431843757629395e-01
1.132645845413208008e+00
9.089886397123336792e-02
-4.113644659519195557e-01
-5.800038203597068787e-02
-1.293658167123794556e-01
-7.496913522481918335e-02
1.080152615904808044e-01
-2.350772321224212646e-01
1.482408940792083740e-01
7.222311943769454956e-02
-3.220025897026062012e-01
1.345596164464950562e-01
2.871217727661132812e-01
-2.784861326217651367e-01
-1.796883791685104370e-01
-9.093120694160461426e-02
1.179780960083007812e-01
1.052976250648498535e-01
-1.953438669443130493e-01
6.872373074293136597e-02
-8.055281639099121094e-02
-8.237782865762710571e-02
2.955873012542724609e-01
-3.325309455394744873e-01
8.744473010301589966e-02
-1.031865365803241730e-03
-1.150412261486053467e-01
3.414662480354309082e-01
1.136734485626220703e-01
1.392655521631240845e-01
3.975593745708465576e-01
-2.007651776075363159e-01
-1.024238951504230499e-02
6.556237488985061646e-02
-4.603414610028266907e-02
4.233863055706024170e-01
-6.014135852456092834e-02
-3.014955818653106689e-01
3.805736601352691650e-01
-1.723365038633346558e-01
2.275887727737426758e-01
5.156418192200362682e-04
-6.153494119644165039e-01
-1.138897314667701721e-01
-2.066440880298614502e-02
6.606709212064743042e-02
4.101812094449996948e-02
-2.640631198883056641e-01
-1.493553668260574341e-01
1.261148154735565186e-01
-7.652086764574050903e-02
-1.087998375296592712e-01
-2.005316317081451416e-01
-3.755149841308593750e-01
-8.130062371492385864e-03
4.794657230377197266e-01
9.300457686185836792e-02
1.840589195489883423e-01
7.807667553424835205e-02
-7.804346084594726562e-02
6.123993992805480957e-01
-2.199279665946960449e-01
-1.855573058128356934e-01
3.911520540714263916e-01
-2.607264518737792969e-01
-1.875966042280197144e-02
-8.770045638084411621e-02
-2.418948858976364136e-01
-6.395161896944046021e-02
-7.172203040681779385e-04
2.239488959312438965e-01
1.747250705957412720e-01
3.734415173530578613e-01
6.778434664011001587e-02
-1.692132502794265747e-01
-4.180005788803100586e-01
-1.423304080963134766e-01
-5.921385288238525391e-01
7.237654924392700195e-02
2.106092423200607300e-01
-7.604464292526245117e-01
-1.795734912157058716e-01
-1.144156008958816528e-01
-3.020791113376617432e-01
-1.413062959909439087e-01
-1.276463568210601807e-01
2.147406898438930511e-02
-2.534780502319335938e-01
-4.368051141500473022e-02
1.477929055690765381e-01
-6.789235025644302368e-02
2.254336476325988770e-01
-1.258189603686332703e-02
-5.307959020137786865e-02
4.025806486606597900e-02
-8.020294457674026489e-02
-1.012512668967247009e-01
1.086780801415443420e-01
1.422015875577926636e-01
6.972903758287429810e-02
-3.534292578697204590e-01
-3.497165143489837646e-01
1.654826104640960693e-01
-3.789741694927215576e-01
-2.141718864440917969e-01
-4.127160906791687012e-01
-2.017940580844879150e-01
-2.318801581859588623e-01
-4.754865467548370361e-01
1.161413192749023438e-01
-2.369303405284881592e-01
1.738376021385192871e-01
-1.538949906826019287e-01
9.740672260522842407e-02
3.168938755989074707e-01
-3.164797127246856689e-01
2.954244017601013184e-01
5.060842260718345642e-03
-9.831346571445465088e-02
3.122511506080627441e-01
7.084561586380004883e-01
-4.875819087028503418e-01
-1.164678763598203659e-02
-5.688259005546569824e-02
-4.778632819652557373e-01
2.675288915634155273e-01
2.467044442892074585e-01
-6.884283572435379028e-02
3.908751159906387329e-02
-2.013957798480987549e-01
-2.275089025497436523e-01
1.029090881347656250e-01
6.377203762531280518e-02
2.596273124217987061e-01
1.437804460525512695e+00
2.098059207201004028e-01
-1.272430568933486938e-01
2.155151814222335815e-01
3.922441899776458740e-01
4.308058321475982666e-01
8.950864076614379883e-01
-1.880142986774444580e-01
-1.446352154016494751e-01
2.932554297149181366e-02
-1.135504096746444702e-01
2.700539529323577881e-01
1.537241041660308838e-02
-2.687912583351135254e-01
-7.898927479982376099e-02
-3.644709587097167969e-01
2.778429090976715088e-01
-1.565348356962203979e-02
5.070493817329406738e-01
2.672738730907440186e-01
-3.809746205806732178e-01
-5.471177697181701660e-01
-1.188293918967247009e-01
-2.845204472541809082e-01
8.169675618410110474e-02
5.693325400352478027e-01
-1.047333598136901855e+00
-2.827099338173866272e-02
1.818682700395584106e-01
-5.384340286254882812e-01
-1.081845685839653015e-01
1.903400123119354248e-01
6.687065958976745605e-02
1.368015408515930176e-01
3.482720851898193359e-01
-2.054710686206817627e-01
1.593947261571884155e-01
-6.295126676559448242e-02
-6.751364469528198242e-02
5.222086310386657715e-01
-6.914795935153961182e-02
1.738908328115940094e-02
-4.127492606639862061e-01
5.466217994689941406e-01
5.217250064015388489e-02
3.277688100934028625e-02
-6.950628757476806641e-02
5.297485589981079102e-01
-2.939434051513671875e-01
-2.987275719642639160e-01
6.542126834392547607e-02
-5.950777977705001831e-02
1.646779775619506836e-01
-8.878662437200546265e-02
-1.191697418689727783e-01
1.906141489744186401e-01
-7.433230429887771606e-02
1.525765061378479004e-01
6.839361041784286499e-02
-7.743006199598312378e-02
-7.212689518928527832e-02
-2.509322762489318848e-01
-2.354031950235366821e-01
2.381030917167663574e-01
-4.230163060128688812e-03
2.328073829412460327e-01
-1.595512181520462036e-01
1.700021028518676758e-01
-1.412408053874969482e-01
-1.211078241467475891e-01
-2.553385198116302490e-01
-3.791166841983795166e-01
1.293893307447433472e-01
-1.664184778928756714e-01
-1.264351904392242432e-01
1.229096204042434692e-01
-2.283612936735153198e-01
-2.276366204023361206e-01
-1.151616498827934265e-01
5.019580572843551636e-02
2.108713835477828979e-01
2.900780737400054932e-01
2.377948760986328125e-01
-1.309234946966171265e-01
-1.217474862933158875e-01
2.598373889923095703e-01
1.095232218503952026e-01
-1.493041962385177612e-01
2.139590531587600708e-01
3.038111887872219086e-02
1.946513913571834564e-02
-3.266546130180358887e-01
-1.141810342669487000e-01
-1.556609421968460083e-01
-4.592653736472129822e-02
-1.301893442869186401e-01
2.335753738880157471e-01
-2.370456010103225708e-01
-6.975439190864562988e-02
-1.159968152642250061e-01
2.287843972444534302e-01
4.203374683856964111e-01
8.606299757957458496e-02
2.798882126808166504e-01
-4.817951470613479614e-03
-1.621405780315399170e-01
1.877480894327163696e-01
2.938197925686836243e-02
1.236492618918418884e-01
5.676824599504470825e-02
-1.515405904501676559e-02
5.624225363135337830e-02
1.635519117116928101e-01
1.766645312309265137e-01
-5.455656051635742188e-01
-8.318315744400024414e-01
2.481696754693984985e-01
4.232637286186218262e-01
2.844055593013763428e-01
-1.186925053596496582e+00
-3.639908730983734131e-01
7.605884075164794922e-01
3.623636662960052490e-01
3.601770848035812378e-02
2.025318592786788940e-01
-3.070726990699768066e-01
3.648668825626373291e-01
5.486905574798583984e-01
-6.489848345518112183e-02
-4.129888713359832764e-01
-2.037344872951507568e-01
-1.363374143838882446e-01
-1.181302145123481750e-01
-7.384851574897766113e-02
1.232592463493347168e-01
2.291727215051651001e-01
-2.237551063299179077e-01
-9.761130809783935547e-02
-6.671176850795745850e-02
-4.383799061179161072e-02
-2.982623875141143799e-01
-4.819351434707641602e-01
2.741537056863307953e-02
2.927039265632629395e-01
-3.171060085296630859e-01
6.352143287658691406e-01
2.643609941005706787e-01
-1.352476142346858978e-02
-3.238761126995086670e-01
8.036056160926818848e-01
1.930204033851623535e-01
-2.195644229650497437e-01
7.326162457466125488e-01
3.050018250942230225e-01
-1.499274186789989471e-02
-1.320527344942092896e-01
4.334335327148437500e-01
-1.766364425420761108e-01
-6.808963418006896973e-02
-1.736682504415512085e-01
4.594890400767326355e-02
2.166119664907455444e-01
1.539407819509506226e-01
-1.052928119897842407e-01
-2.947493828833103180e-02
-1.093726418912410736e-02
1.710646897554397583e-01
1.101137474179267883e-01
2.704145014286041260e-01
-8.289486914873123169e-02
6.622267514467239380e-02
2.654652297496795654e-01
-7.206096779555082321e-03
-2.163424044847488403e-01
3.724679648876190186e-01
-2.429616153240203857e-01
-5.138884186744689941e-01
-4.161080345511436462e-03
-7.275582104921340942e-02
5.140428245067596436e-02
-1.551864147186279297e-01
-3.168331980705261230e-01
6.256859004497528076e-02
-1.096467953175306320e-02
-2.580572664737701416e-01
2.169860899448394775e-01
-1.188446488231420517e-02
-1.154081746935844421e-01
-2.797053195536136627e-02
1.848660707473754883e-01
-2.291937619447708130e-01
-1.521910130977630615e-01
-1.072418913245201111e-01
1.731432676315307617e-01
-2.063168138265609741e-01
5.530991125851869583e-03
1.627389192581176758e-01
1.910399496555328369e-01
1.136989295482635498e-01
-2.286865264177322388e-01
4.941935837268829346e-02
-2.396936155855655670e-02
1.660551689565181732e-02
1.285149902105331421e-01
-2.164166420698165894e-02
-1.855260282754898071e-01
-2.052208781242370605e-01
2.875713706016540527e-01
-2.547509968280792236e-01
-2.889195978641510010e-01
-2.042392641305923462e-02
-9.059300273656845093e-02
3.666638582944869995e-02
2.194878011941909790e-01
4.638337194919586182e-01
-4.036951810121536255e-03
-2.566207051277160645e-01
-3.227718770503997803e-01
2.987879812717437744e-01
4.601043164730072021e-01
-1.761904656887054443e-01
-3.249181509017944336e-01
3.324731588363647461e-01
-4.793371856212615967e-01
4.447036981582641602e-02
3.454741239547729492e-01
2.643302083015441895e-01
-2.021162658929824829e-01
1.163598969578742981e-01
4.737945795059204102e-01
2.486466318368911743e-01
4.063942730426788330e-01
-2.242540568113327026e-01
-2.562990784645080566e-01
-2.941584885120391846e-01
-2.327251583337783813e-01
-1.206960249692201614e-02
3.860045075416564941e-01
-2.724605798721313477e-01
-1.055229827761650085e-01
-2.417930513620376587e-01
-1.456576138734817505e-01
3.328934311866760254e-02
8.863572776317596436e-02
1.589841246604919434e-01
2.538228034973144531e-01
-2.183029502630233765e-01
3.444249927997589111e-01
7.043726742267608643e-02
1.201060414314270020e-01
-5.065748691558837891e-01
-1.736250072717666626e-01
3.872720897197723389e-01
-5.990820005536079407e-02
-3.433844819664955139e-02
-2.274234145879745483e-01
5.228013396263122559e-01
1.998171657323837280e-01
4.042001068592071533e-01
-4.880254268646240234e-01
3.036819994449615479e-01
4.261529147624969482e-01
-1.122522167861461639e-02
-5.255647301673889160e-01
1.794276684522628784e-01
-2.814767956733703613e-01
-1.544990837574005127e-01
2.458140254020690918e-01
8.180606365203857422e-02
-5.658357739448547363e-01
-2.508460357785224915e-02
3.694250481203198433e-03
-9.194837510585784912e-02
-7.325635850429534912e-02
1.439674049615859985e-01
4.627346061170101166e-03
2.925863664131611586e-04
-1.217474415898323059e-01
2.753469944000244141e-01
1.885065138339996338e-01
3.360098898410797119e-01
2.484666407108306885e-01
-1.322142034769058228e-01
-1.954692155122756958e-01
-1.832081079483032227e-01
1.077183634042739868e-01
2.138954252004623413e-01
-4.039966166019439697e-01
2.727142572402954102e-01
-3.193735480308532715e-01
4.695118069648742676e-01
-2.791358232498168945e-01
1.960224844515323639e-02
1.875492781400680542e-01
4.539683088660240173e-02
-3.091797828674316406e-01
3.603594005107879639e-01
-2.446153908967971802e-01
3.351886570453643799e-01
6.854957435280084610e-03
1.775525063276290894e-01
9.082955867052078247e-02
1.344351768493652344e-01
-5.147118568420410156e-01
1.979863494634628296e-01
-2.333970814943313599e-01
3.188745081424713135e-01
7.610910106450319290e-03
-2.462250366806983948e-02
-1.182937696576118469e-01
2.056697607040405273e-01
1.657013595104217529e-01
-2.028171420097351074e-01
1.818104982376098633e-01
-4.013658687472343445e-02
1.140889059752225876e-02
-2.605856657028198242e-01
-4.187808185815811157e-02
-7.847900688648223877e-02
-7.228248566389083862e-02
-2.778021693229675293e-01
-1.647901237010955811e-01
5.634836852550506592e-02
1.876698583364486694e-01
-1.472133696079254150e-01
2.454621940851211548e-01
2.395879328250885010e-01
7.028195261955261230e-02
-3.104430623352527618e-02
-3.126143291592597961e-02
-3.261362314224243164e-01
3.437632620334625244e-01
-2.884280681610107422e-01
-2.341164797544479370e-01
2.449674457311630249e-01
-4.333766177296638489e-02
-2.954784035682678223e-01
2.189312502741813660e-02
2.475308999419212341e-02
-9.199477732181549072e-02
-2.667359411716461182e-01
4.383554309606552124e-02
1.159490272402763367e-02
1.111669614911079407e-01
-1.183694303035736084e-01
1.766358017921447754e-01
4.899640381336212158e-02
-2.160814702510833740e-01
-1.576561927795410156e-01
8.235426992177963257e-02
-2.021551579236984253e-01
6.290517449378967285e-01
8.079346269369125366e-03
-2.309306263923645020e-01
-9.555350989103317261e-02
-1.352445781230926514e-01
-2.862474322319030762e-01
1.284634619951248169e-01
-6.162238717079162598e-01
-9.898751974105834961e-02
-1.313972324132919312e-01
-7.714357972145080566e-02
-2.754505574703216553e-01
6.859413385391235352e-01
2.880593538284301758e-01
5.285513997077941895e-01
-8.098803460597991943e-02
3.140669763088226318e-01
-3.965823650360107422e-01
-3.002267777919769287e-01
-3.015847802162170410e-01
7.356023192405700684e-01
-1.909777522087097168e-01
2.995523624122142792e-03
-9.285312145948410034e-02
-1.704924404621124268e-01
-1.994298771023750305e-02
2.145544141530990601e-01
-3.116157650947570801e-01
-9.329604357481002808e-02
-3.793086409568786621e-01
-9.155383706092834473e-02
-5.586913228034973145e-02
3.161727190017700195e-01
4.563408438116312027e-03
3.463456630706787109e-01
2.648255825042724609e-01
1.254914849996566772e-01
-3.343655169010162354e-01
-3.794138506054878235e-02
-1.707199513912200928e-01
3.371603786945343018e-01
-2.414366602897644043e-01
1.808984279632568359e-01
-3.140430748462677002e-01
-1.255420148372650146e-01
-3.398122191429138184e-01
3.430127799510955811e-01
-2.561408840119838715e-02
-3.663641512393951416e-01
-1.588099300861358643e-01
-2.506868354976177216e-02
9.932129085063934326e-02
3.755890130996704102e-01
8.976073563098907471e-02
4.242878854274749756e-01
-8.896090090274810791e-02
2.646604180335998535e-01
-3.019484877586364746e-01
-1.203179731965065002e-01
-7.132191061973571777e-01
2.371384799480438232e-01
-2.457875162363052368e-01
-1.675774604082107544e-01
-4.307292774319648743e-02
1.352929603308439255e-02
-3.238396644592285156e-01
1.307524889707565308e-01
-5.389281362295150757e-02
1.846290193498134613e-02
-2.962741255760192871e-02
7.444465160369873047e-02
-2.240507006645202637e-01
2.131962031126022339e-01
-2.450135797262191772e-01
2.765169143676757812e-01
5.735471472144126892e-02
1.230280026793479919e-01
1.317247631959617138e-03
3.199537992477416992e-01
-1.589504927396774292e-01
-2.308424711227416992e-01
2.905165255069732666e-01
2.975277900695800781e-01
-2.698933184146881104e-01
-2.061270922422409058e-02
5.450395941734313965e-01
-2.414803653955459595e-01
-3.751030191779136658e-02
-4.864991605281829834e-01
1.881776899099349976e-01
6.393377780914306641e-01
1.846369169652462006e-02
-1.577400565147399902e-01
2.640489935874938965e-01
-5.718671083450317383e-01
2.273649722337722778e-01
-3.548181802034378052e-02
-1.603998243808746338e-02
-4.167365729808807373e-01
-5.621321871876716614e-02
9.865293279290199280e-03
-4.528187811374664307e-01
-2.491643875837326050e-01
3.040968477725982666e-01
-8.025701344013214111e-02
-2.836862206459045410e-01
1.792200058698654175e-01
1.276232749223709106e-01
3.455704823136329651e-02
1.095949113368988037e-01
4.946582615375518799e-01
3.411632031202316284e-02
3.291768133640289307e-01
-4.963128268718719482e-02
2.437736839056015015e-01
-7.541770488023757935e-02
-1.888816952705383301e-01
-9.008421748876571655e-02
4.050972759723663330e-01
2.399575198069214821e-03
-2.115165740251541138e-01
-2.270684987306594849e-01
-1.936091929674148560e-01
1.812308430671691895e-01
-9.862167388200759888e-02
2.300243526697158813e-01
1.785477250814437866e-01
-3.343264758586883545e-01
3.107180595397949219e-01
-4.376814141869544983e-02
-2.529021203517913818e-01
-1.368369013071060181e-01
1.399864256381988525e-01
1.382824331521987915e-01
-2.370684891939163208e-01
-7.806245982646942139e-02
1.699513569474220276e-02
9.404844790697097778e-02
7.788294553756713867e-02
-1.504478603601455688e-01
2.081034034490585327e-01
2.458448410034179688e-01
-2.548024654388427734e-01
8.993126153945922852e-01
-9.622865915298461914e-02
-5.326705053448677063e-02
-9.684213995933532715e-02
-3.837195336818695068e-01
-7.549163699150085449e-02
-4.681967198848724365e-01
-3.699680268764495850e-01
-1.363855451345443726e-01
5.351624917238950729e-03
2.147106379270553589e-01
2.928011715412139893e-01
1.013296246528625488e-01
1.161082740873098373e-02
4.330346882343292236e-01
-2.340069711208343506e-01
7.670096755027770996e-01
5.659691244363784790e-02
-8.914227038621902466e-02
3.312318027019500732e-01
-4.246129393577575684e-01
-2.043246626853942871e-01
-1.388208121061325073e-01
-1.945239782799035311e-04
3.917365968227386475e-01
-3.546522557735443115e-02
-1.806537955999374390e-01
1.954299658536911011e-01
-6.269661709666252136e-03
2.014718763530254364e-02
-1.259752959012985229e-01
-3.034324645996093750e-01
1.900261193513870239e-01
-4.158585965633392334e-01
-1.533406227827072144e-01
1.169286482036113739e-02
-2.403447777032852173e-01
2.030694782733917236e-01
3.262090682983398438e-01
1.657514274120330811e-01
-9.288124740123748779e-02
5.597789883613586426e-01
-7.886192202568054199e-01
1.574330776929855347e-01
-3.273334205150604248e-01
-1.800239272415637970e-02
1.136781945824623108e-01
1.023136973381042480e-01
6.734222918748855591e-02
-2.550492584705352783e-01
-3.349922895431518555e-01
2.734719216823577881e-01
2.097231447696685791e-01
-2.119206041097640991e-01
-3.242955505847930908e-01
3.853612542152404785e-01
2.687948523089289665e-03
-1.286253184080123901e-01
9.966546297073364258e-02
3.040431439876556396e-01
-5.704486966133117676e-01
-2.202999740839004517e-01
-2.763847708702087402e-01
1.110625639557838440e-02
-6.628551334142684937e-02
-6.640160828828811646e-02
9.390363097190856934e-02
1.154315993189811707e-01
6.893920898437500000e-02
-5.077615380287170410e-01
-5.896726623177528381e-02
-1.768178939819335938e-01
-1.134066656231880188e-01
4.247979447245597839e-02
3.384592011570930481e-02
2.523448169231414795e-01
-1.461315304040908813e-01
3.058455884456634521e-02
6.633653491735458374e-02
-2.125147432088851929e-01
1.707044094800949097e-01
2.823144011199474335e-02
-1.998459994792938232e-01
8.645785599946975708e-02
7.462884485721588135e-02
-6.962102651596069336e-02
1.113800704479217529e-01
-6.829635798931121826e-02
-1.614027619361877441e-01
-2.637215554714202881e-01
-3.150884807109832764e-01
-2.890387177467346191e-01
-3.025067150592803955e-01
1.316111683845520020e-01
1.024493649601936340e-01
1.662973165512084961e-01
1.956238448619842529e-01
1.011265367269515991e-01
1.604874879121780396e-01
1.906983852386474609e-01
2.381742596626281738e-01
-2.772607803344726562e-01
2.166674584150314331e-01
-2.116834819316864014e-01
2.812871336936950684e-01
-1.984608471393585205e-01
-3.661924898624420166e-01
1.172681301832199097e-01
-2.882515080273151398e-02
1.113364920020103455e-01
2.044014781713485718e-01
1.720349043607711792e-01
-6.921224296092987061e-02
-5.276549980044364929e-02
2.161474823951721191e-01
3.946113865822553635e-03
4.312502741813659668e-01
3.790362179279327393e-02
2.923316061496734619e-01
6.939763575792312622e-02
-1.625983417034149170e-02
3.708975911140441895e-01
-2.532545328140258789e-01
-9.681619703769683838e-02
1.476328819990158081e-01
9.237126260995864868e-02
1.453128308057785034e-01
2.795131206512451172e-01
-1.825334727764129639e-01
-3.391109406948089600e-01
-1.595455259084701538e-01
-3.242461085319519043e-01
-1.978610455989837646e-01
-2.743800282478332520e-01
-3.261981531977653503e-02
-9.384718537330627441e-02
-1.085852161049842834e-01
-1.102310270071029663e-01
-3.132693767547607422e-01
-2.277513295412063599e-01
3.523743748664855957e-01
-2.034620940685272217e-01
2.045727372169494629e-01
-7.585026323795318604e-02
-4.388600122183561325e-03
2.519235014915466309e-01
-1.461568176746368408e-01
-8.401607722043991089e-02
-2.564114928245544434e-01
-3.138329461216926575e-02
2.933942973613739014e-01
5.006138235330581665e-02
2.769362926483154297e-01
6.713002175092697144e-02
2.942144870758056641e-01
-3.291818797588348389e-01
3.464839160442352295e-01
-2.728664278984069824e-01
-4.183947667479515076e-02
3.065928816795349121e-02
-4.594380035996437073e-03
-9.362195432186126709e-02
1.843622028827667236e-01
-1.322960406541824341e-01
6.179982796311378479e-02
1.950250864028930664e-01
8.446063101291656494e-02
-5.067530646920204163e-02
-4.357517138123512268e-02
3.271333277225494385e-01
3.191047906875610352e-01
1.776441782712936401e-01
5.006454139947891235e-02
2.977127432823181152e-01
2.036113142967224121e-01
-1.996594369411468506e-01
-2.004140242934226990e-02
-3.019309416413307190e-02
-2.330847680568695068e-01
-1.418671905994415283e-01
1.486898064613342285e-01
-1.791797578334808350e-01
1.674720942974090576e-01
1.021363958716392517e-01
-1.477612555027008057e-01
-1.043625771999359131e-01
7.355510443449020386e-02
-2.135999649763107300e-01
-8.125159889459609985e-03
-8.318362385034561157e-02
4.142178893089294434e-01
1.520133111625909805e-02
1.309822797775268555e-01
-2.933350391685962677e-02
1.575978696346282959e-01
-1.131747663021087646e-01
2.693091332912445068e-01
3.861320763826370239e-02
-3.145768642425537109e-01
-1.090012863278388977e-01
-3.612001985311508179e-02
-2.219415605068206787e-01
3.512278795242309570e-01
-2.068660557270050049e-01
-4.177124425768852234e-02
7.140199095010757446e-02
-9.024994820356369019e-02
-2.295791059732437134e-01
8.149720728397369385e-02
1.609662175178527832e-01
2.360722422599792480e-01
-7.202492654323577881e-02
6.564284861087799072e-02
1.507001221179962158e-01
4.759502783417701721e-02
5.925729498267173767e-02
-5.853704363107681274e-02
-7.194010168313980103e-02
-1.905781775712966919e-01
-2.854273915290832520e-01
3.189811110496520996e-01
1.403567939996719360e-01
4.852989315986633301e-01
5.974815785884857178e-02
-2.686212658882141113e-01
1.018442586064338684e-01
-2.970461547374725342e-01
-9.370059520006179810e-02
-2.245629951357841492e-02
4.646014869213104248e-01
2.528470456600189209e-01
4.649100005626678467e-01
5.109889432787895203e-02
2.809349000453948975e-01
3.822504580020904541e-01
-4.310004115104675293e-01
3.282803893089294434e-01
2.112961560487747192e-01
-8.308704197406768799e-02
-1.452083736658096313e-01
-1.106709092855453491e-01
2.970738410949707031e-01
1.044531390070915222e-01
-5.584757924079895020e-01
6.573445200920104980e-01
-1.433849483728408813e-01
-2.453437447547912598e-01
7.877703011035919189e-02
-8.474882692098617554e-02
-3.329539000988006592e-01
-4.562063813209533691e-01
-1.029686406254768372e-01
-1.915845870971679688e-01
-5.303699374198913574e-01
-9.346432983875274658e-02
5.967979878187179565e-02
-4.760406017303466797e-01
-2.155150175094604492e-01
-3.407955765724182129e-01
8.557989448308944702e-02
1.630803048610687256e-01
-7.370834052562713623e-02
-2.884921729564666748e-01
6.083660721778869629e-01
-6.357294321060180664e-01
6.787745654582977295e-02
5.746185779571533203e-02
-4.094719886779785156e-01
-3.948507010936737061e-01
1.771850138902664185e-01
-3.091913461685180664e-01
1.841451823711395264e-01
5.697137489914894104e-02
1.534244120121002197e-01
1.345650404691696167e-01
7.961961627006530762e-02
-3.926286399364471436e-01
-1.284944266080856323e-01
-3.952765092253684998e-02
9.363780617713928223e-01
-3.691434860229492188e-01
-3.096523880958557129e-01
3.484677150845527649e-02
-1.151824183762073517e-02
-1.654250174760818481e-01
1.177829205989837646e-01
7.896166443824768066e-01
1.874714903533458710e-02
2.322072684764862061e-01
6.373658031225204468e-02
3.783172369003295898e-02
1.225922331213951111e-01
6.363705992698669434e-01
3.894522786140441895e-01
4.854905232787132263e-02
6.321800351142883301e-01
8.471271395683288574e-02
5.557143595069646835e-03
-2.779444158077239990e-01
-1.110528707504272461e-01
8.585011959075927734e-02
-4.572177827358245850e-01
3.907692432403564453e-01
-8.271738886833190918e-02
7.274582982063293457e-02
2.044883221387863159e-01
-2.290304899215698242e-01
-2.024916708469390869e-01
-1.116030514240264893e-01
5.753850564360618591e-02
3.473919928073883057e-01
-7.188860327005386353e-02
9.548919647932052612e-02
1.861839890480041504e-01
2.328726947307586670e-01
-3.190604150295257568e-01
3.444631993770599365e-01
2.817216813564300537e-01
1.286537051200866699e-01
4.518494009971618652e-02
-1.841601543128490448e-02
-1.301316320896148682e-01
-1.774978190660476685e-01
-1.822856068611145020e-01
7.852557301521301270e-01
-3.831201493740081787e-01
4.562588408589363098e-02
4.469425082206726074e-01
-2.141179293394088745e-01
-1.196174696087837219e-01
1.418077051639556885e-01
-6.125291064381599426e-02
-2.152674347162246704e-01
-5.357766151428222656e-01
-2.689273282885551453e-02
-1.733167320489883423e-01
7.272456772625446320e-03
4.182617068290710449e-01
7.779229432344436646e-02
2.252511233091354370e-01
5.439540371298789978e-03
1.775703579187393188e-01
3.084831126034259796e-02
6.022354960441589355e-02
5.687842369079589844e-01
-3.674719631671905518e-01
-1.923048943281173706e-01
4.054867029190063477e-01
-1.712515950202941895e-01
-6.112868338823318481e-02
2.423827052116394043e-01
-3.367173075675964355e-01
-2.327546924352645874e-01
-2.023555785417556763e-01
-1.150924712419509888e-01
-2.042210847139358521e-01
4.785859957337379456e-02
-6.094332784414291382e-03
1.409005522727966309e-01
2.419541031122207642e-01
-3.403656184673309326e-01
4.904769361019134521e-02
-2.611091434955596924e-01
-7.263356447219848633e-02
8.167001605033874512e-02
-8.501695841550827026e-02
1.309026964008808136e-03
7.406302541494369507e-02
4.161646589636802673e-02
-3.064470887184143066e-01
-9.127951227128505707e-03
-8.923068642616271973e-02
-1.228206045925617218e-02
-3.837851881980895996e-01
-2.109478414058685303e-01
3.860452026128768921e-02
1.554147601127624512e-01
-2.709803879261016846e-01
-6.683186441659927368e-02
-2.932482063770294189e-01
-3.206009045243263245e-02
-5.249964594841003418e-01
3.549682199954986572e-01
1.016163378953933716e-01
1.454540640115737915e-01
1.257698535919189453e-01
-4.553123414516448975e-01
7.922948896884918213e-02
-3.766755759716033936e-01
1.628127507865428925e-02
8.123273849487304688e-01
-8.954389020800590515e-03
1.752264499664306641e-01
1.040252000093460083e-01
5.966565608978271484e-01
-4.526802003383636475e-01
4.141383767127990723e-01
-2.217721790075302124e-01
-1.388815641403198242e-01
-2.964574098587036133e-01
-2.468792907893657684e-02
1.292325407266616821e-01
-2.290049381554126740e-02
3.995373547077178955e-01
8.793427050113677979e-02
-1.867635734379291534e-02
6.555245816707611084e-02
2.677568197250366211e-01
-3.219586610794067383e-01
-5.455614533275365829e-03
1.945076584815979004e-01
-3.283993899822235107e-01
3.799789249897003174e-01
1.395326554775238037e-01
-1.855083853006362915e-01
-8.931038528680801392e-02
2.301617860794067383e-01
1.586196869611740112e-01
-2.378645688295364380e-01
-2.107746154069900513e-01
-4.202763736248016357e-01
-3.738952875137329102e-01
2.360735833644866943e-01
-2.425244450569152832e-01
4.193940162658691406e-01
3.206211328506469727e-01
2.174683660268783569e-01
1.314245760440826416e-01
2.934002280235290527e-01
-2.895724773406982422e-01
9.217803180217742920e-02
-2.355304211378097534e-01
4.757414162158966064e-01
-1.623556017875671387e-01
-2.471469193696975708e-01
-1.779698729515075684e-01
3.417603373527526855e-01
-3.538011908531188965e-01
2.796896100044250488e-01
-1.358908116817474365e-01
3.830577731132507324e-01
-4.859986901283264160e-01
-1.561986953020095825e-01
-1.890407316386699677e-02
1.879907101392745972e-01
2.694317996501922607e-01
1.154434308409690857e-01
3.484109640121459961e-01
-1.427005082368850708e-01
2.048620581626892090e-01
-2.513268291950225830e-01
4.003087878227233887e-01
2.429100871086120605e-01
1.361160874366760254e-01
-9.539867192506790161e-02
8.180110901594161987e-02
3.861147165298461914e-01
1.097032129764556885e-01
1.228609979152679443e-01
5.161720514297485352e-01
6.454357504844665527e-02
-2.167874723672866821e-01
3.316686749458312988e-01
-1.377401053905487061e-01
2.464673370122909546e-01
-3.043995052576065063e-02
7.203591614961624146e-02
-1.643070280551910400e-01
2.372326701879501343e-01
3.266049176454544067e-02
-4.668717682361602783e-01
3.408754244446754456e-02
-1.851866543292999268e-01
2.842653393745422363e-01
3.741558492183685303e-01
2.453096061944961548e-01
-2.019322477281093597e-02
-2.318386733531951904e-01
1.819150447845458984e-01
-2.254361361265182495e-01
