-7.806401699781417847e-02
1.594441682100296021e-01
1.842084079980850220e-01
9.378575682640075684e-01
-6.520572900772094727e-01
9.354247711598873138e-03
2.474225163459777832e-01
-3.546948730945587158e-01
7.006096094846725464e-02
-1.228393435478210449e+00
-4.522945880889892578e-01
-5.364519357681274414e-01
1.066725403070449829e-01
-2.119843149557709694e-03
1.142044067382812500e-01
-8.942597508430480957e-01
-5.591702461242675781e-02
-5.753491818904876709e-02
-2.552010677754878998e-02
1.026266694068908691e+00
5.843347311019897461e-01
1.949810385704040527e-01
-4.147077852394431829e-04
3.151305615901947021e-01
-5.792114734649658203e-01
-2.902661859989166260e-01
-5.964840054512023926e-01
1.205298662185668945e+00
-3.942747712135314941e-01
-8.065572381019592285e-01
2.021956257522106171e-02
1.000770568847656250e+00
3.441706299781799316e-01
2.246929556131362915e-01
-5.870815515518188477e-01
6.680496931076049805e-01
-2.126838080585002899e-02
2.205223321914672852e+00
-1.280764937400817871e-01
4.190842211246490479e-01
5.125784277915954590e-01
-7.028784155845642090e-01
3.462837934494018555e-01
-4.832305759191513062e-02
8.492476493120193481e-02
1.960418224334716797e-01
7.305321693420410156e-01
1.020456314086914062e+00
-3.752295076847076416e-01
-8.833795785903930664e-01
4.729158282279968262e-01
6.308368444442749023e-01
-3.745948076248168945e-01
-6.096525192260742188e-01
-2.077232599258422852e-01
3.136692643165588379e-01
-4.397611320018768311e-01
6.231906414031982422e-01
4.958643615245819092e-01
8.116436004638671875e-02
-6.635536253452301025e-02
-8.581759035587310791e-02
-1.932535320520401001e-01
1.823914349079132080e-01
-6.075343117117881775e-02
-1.238977983593940735e-01
-1.513100229203701019e-02
2.947505712509155273e-01
-5.028804019093513489e-02
-1.942336559295654297e-01
-3.997665364295244217e-03
2.106914073228836060e-01
-3.309481739997863770e-01
-4.201909303665161133e-01
-2.117001414299011230e-01
2.848110496997833252e-01
3.319104909896850586e-01
1.967539042234420776e-01
6.397752165794372559e-01
-1.026585027575492859e-01
5.541480705142021179e-02
1.067846059799194336e+00
1.264144331216812134e-01
-7.692408561706542969e-02
-5.125215053558349609e-01
-7.101050019264221191e-02
-7.448178529739379883e-02
-9.969335794448852539e-01
8.181847631931304932e-02
5.855290293693542480e-01
1.708727329969406128e-01
1.326255351305007935e-01
3.434998798184096813e-04
5.551784634590148926e-01
-2.663459181785583496e-01
7.187954783439636230e-01
5.364004895091056824e-02
3.060851804912090302e-02
3.474089205265045166e-01
1.160921305418014526e-01
1.533929854631423950e-01
2.763923704624176025e-01
1.635461151599884033e-01
2.743105776607990265e-02
7.923965156078338623e-02
-4.974746108055114746e-01
3.143925368785858154e-01
-3.450805321335792542e-03
-2.221108973026275635e-01
-2.018150389194488525e-01
1.449411064386367798e-01
-3.696251660585403442e-04
-3.540812805294990540e-02
-4.997930228710174561e-01
-8.625703305006027222e-02
9.256533533334732056e-02
3.630694746971130371e-02
1.228549852967262268e-01
-2.657456696033477783e-01
-6.819485872983932495e-02
1.787328720092773438e-02
1.747943460941314697e-01
-1.129479780793190002e-01
-1.055658832192420959e-01
5.095373839139938354e-02
-2.159826308488845825e-01
1.454672515392303467e-01
1.301007717847824097e-01
2.250961065292358398e-01
2.042340189218521118e-01
-1.772284507751464844e-01
-2.162252068519592285e-01
-8.687442541122436523e-02
-8.671052008867263794e-02
-4.511160403490066528e-02
-7.117325812578201294e-02
1.871743053197860718e-01
-1.910882256925106049e-02
4.611024260520935059e-02
-3.893143264576792717e-03
5.720471031963825226e-03
6.428024172782897949e-02
-4.259640723466873169e-02
-3.600864708423614502e-01
-2.228479534387588501e-01
2.252830862998962402e-01
1.935811042785644531e-01
-2.570687234401702881e-01
1.182508468627929688e-01
1.511616632342338562e-02
-3.482312560081481934e-01
8.268233388662338257e-02
1.966285258531570435e-01
3.686709105968475342e-01
2.755219042301177979e-01
-4.026778414845466614e-02
-1.213581487536430359e-01
-1.810566037893295288e-01
-4.752319753170013428e-01
-7.070010900497436523e-02
1.434421241283416748e-01
-3.466680049896240234e-01
1.480671614408493042e-01
7.762835919857025146e-02
8.877698183059692383e-01
2.230350524187088013e-01
2.748481333255767822e-01
7.891394942998886108e-02
-1.624010801315307617e-01
-3.959013223648071289e-01
2.089902758598327637e-03
-2.130039595067501068e-02
-4.192549362778663635e-02
-1.932151764631271362e-01
2.137500047683715820e-01
-9.131337702274322510e-02
-2.351947426795959473e-01
-5.929841101169586182e-02
-6.365635991096496582e-01
-2.542071640491485596e-01
-2.703472077846527100e-01
-1.983384788036346436e-01
2.988247759640216827e-02
1.492412686347961426e-01
3.902731090784072876e-02
5.729094892740249634e-02
-2.891459129750728607e-02
8.783268928527832031e-02
3.972172737121582031e-02
-1.291427016258239746e-01
-1.378777325153350830e-01
-2.465025484561920166e-01
-1.371915042400360107e-01
7.824943214654922485e-02
5.542698875069618225e-02
-1.751287877559661865e-01
1.589325629174709320e-02
-6.454201787710189819e-02
4.615858495235443115e-01
-9.828259050846099854e-02
5.401619523763656616e-02
2.625669725239276886e-02
4.569429531693458557e-02
-7.538758963346481323e-02
7.469823211431503296e-02
-2.018891274929046631e-01
1.751239150762557983e-01
9.827362000942230225e-02
-3.280680477619171143e-01
-1.664017094299197197e-03
-1.526854783296585083e-01
2.362257540225982666e-01
-1.982430070638656616e-01
9.199039638042449951e-02
-7.096926122903823853e-02
1.944564431905746460e-01
2.704457193613052368e-02
1.422238945960998535e-01
-1.958605498075485229e-01
2.670515179634094238e-01
-2.130776643753051758e-01
-6.679863333702087402e-01
4.808089882135391235e-02
1.494247168302536011e-01
4.872216284275054932e-01
2.475788593292236328e-01
-4.867108166217803955e-02
1.135025024414062500e+00
7.593210041522979736e-02
-9.067521095275878906e-01
-3.626762703061103821e-02
-3.767549693584442139e-01
5.408280342817306519e-02
-1.760924458503723145e-01
9.484764188528060913e-03
1.868893206119537354e-02
-1.840848028659820557e-01
1.935478895902633667e-01
7.018826901912689209e-02
-4.060158133506774902e-01
-4.333013296127319336e-01
-1.752813756465911865e-01
-2.101955264806747437e-01
1.691208928823471069e-01
-3.506245315074920654e-01
-6.330966204404830933e-02
1.505495458841323853e-01
5.197474956512451172e-01
-1.259947717189788818e-01
-1.849202513694763184e-01
6.887355446815490723e-02
-2.257166504859924316e-01
2.784797847270965576e-01
8.624137192964553833e-02
-3.946403414011001587e-02
1.209288910031318665e-01
-2.290103286504745483e-01
1.015853285789489746e-01
6.209892034530639648e-01
-8.441603928804397583e-02
1.077698022127151489e-01
2.003469616174697876e-01
-1.349173337221145630e-01
6.654536724090576172e-02
-1.571585237979888916e-02
-2.717205286026000977e-01
-1.091447174549102783e-01
1.446281075477600098e-01
-6.761651486158370972e-02
-6.859709322452545166e-02
1.227018088102340698e-01
1.304080933332443237e-01
-1.212512026540935040e-03
1.568844020366668701e-01
-5.567188560962677002e-02
-1.591341942548751831e-01
-1.140855029225349426e-01
-1.464999616146087646e-01
-2.040706127882003784e-01
3.329281881451606750e-02
2.360572516918182373e-01
3.276838688179850578e-03
-1.498278975486755371e-01
3.358028829097747803e-01
5.032962560653686523e-01
9.874319285154342651e-02
2.271698415279388428e-01
1.143567115068435669e-01
1.638721078634262085e-01
-2.661750614643096924e-01
2.700612507760524750e-02
-2.017387188971042633e-02
-2.158308923244476318e-01
-4.320436716079711914e-01
1.589321643114089966e-01
-2.159835398197174072e-01
2.243117690086364746e-01
-9.214072674512863159e-02
-9.153221845626831055e-01
1.060450598597526550e-01
-1.855189204216003418e-01
-4.785333275794982910e-01
-1.314464211463928223e-01
2.059209197759628296e-01
6.318590790033340454e-02
-1.500995084643363953e-02
5.422691255807876587e-02
2.976028025150299072e-01
-2.004684321582317352e-02
-2.563792169094085693e-01
1.643912941217422485e-01
-1.624392867088317871e-01
1.523623466491699219e-01
-5.137652158737182617e-01
-6.239718571305274963e-02
1.880719512701034546e-01
-1.631693094968795776e-01
1.784662455320358276e-01
4.132750332355499268e-01
-8.569238334894180298e-02
-2.679464221000671387e-01
-2.291507571935653687e-01
8.467520773410797119e-02
1.210085526108741760e-01
4.991004243493080139e-02
1.264483332633972168e-01
-3.958608582615852356e-02
-1.736758649349212646e-01
5.799274519085884094e-02
3.523354977369308472e-02
-1.482792496681213379e-01
3.544932976365089417e-02
-2.008111178874969482e-01
-1.015811190009117126e-01
-5.037298426032066345e-02
-1.876900792121887207e-01
6.277191638946533203e-02
-6.604751944541931152e-02
2.147990316152572632e-01
-1.956824511289596558e-01
-1.143792122602462769e-01
-4.631385207176208496e-01
-4.760533943772315979e-02
1.275900378823280334e-02
-2.830939590930938721e-01
1.988797187805175781e-01
9.148263186216354370e-02
7.799378633499145508e-01
-1.803933233022689819e-01
-6.806318163871765137e-01
2.197051942348480225e-01
-1.108040660619735718e-01
2.137540578842163086e-01
-1.373598352074623108e-02
5.209884420037269592e-02
1.288253068923950195e-01
-2.261840105056762695e-01
-6.452551577240228653e-03
5.211074352264404297e-01
-3.135457336902618408e-01
2.429549396038055420e-01
1.067810282111167908e-01
3.672935068607330322e-02
1.032767444849014282e-01
9.164885431528091431e-02
2.338075190782546997e-01
1.843893378973007202e-01
-6.549932062625885010e-02
1.046506017446517944e-01
1.978799104690551758e-01
-1.162238121032714844e-01
-3.255651146173477173e-02
2.750261127948760986e-01
-5.249307490885257721e-03
-4.006461054086685181e-02
-7.034995406866073608e-02
-3.694584965705871582e-02
-1.314674615859985352e-01
-3.694590032100677490e-01
-2.100894972681999207e-02
-8.526753634214401245e-02
2.660629153251647949e-01
-1.905651539564132690e-01
-2.904311716556549072e-01
-2.254279702901840210e-01
-1.953781098127365112e-01
-2.647457420825958252e-01
-4.031209647655487061e-01
-5.574217066168785095e-02
1.722317039966583252e-01
-4.806298762559890747e-02
-2.199257314205169678e-01
-5.395672097802162170e-02
1.341635584831237793e-01
-1.866433471441268921e-01
8.214618265628814697e-02
7.715445756912231445e-02
4.897214472293853760e-02
-2.211899608373641968e-01
9.518243372440338135e-02
-1.735467761754989624e-01
-4.472640901803970337e-02
2.922737784683704376e-02
-6.484401971101760864e-02
7.077535614371299744e-03
3.225335478782653809e-01
-3.795136511325836182e-01
2.244405895471572876e-01
3.730777204036712646e-01
-2.131423801183700562e-01
-2.413767576217651367e-02
-2.015449702739715576e-01
3.406657278537750244e-01
3.953753709793090820e-01
2.403009384870529175e-01
2.871632277965545654e-01
-5.111239850521087646e-02
2.149422317743301392e-01
7.212659716606140137e-01
3.582474961876869202e-02
6.411577016115188599e-02
1.437652260065078735e-01
-1.932087242603302002e-01
2.613488435745239258e-01
1.862183511257171631e-01
8.126101642847061157e-02
-2.539256811141967773e-01
-1.115792915225028992e-01
2.262668311595916748e-01
-5.114153027534484863e-02
-1.482653915882110596e-01
1.447043120861053467e-01
-1.770266890525817871e-01
-9.948612004518508911e-02
1.876444667577743530e-01
-2.754468321800231934e-01
-8.324250578880310059e-02
1.706039905548095703e-01
1.831960082054138184e-01
-1.049724593758583069e-01
3.120845183730125427e-03
-5.541726201772689819e-02
9.469506144523620605e-02
6.717838346958160400e-02
1.328512560576200485e-02
-1.392078213393688202e-02
1.397106349468231201e-01
-1.608030647039413452e-01
4.653170332312583923e-02
-1.029207464307546616e-02
-1.736877560615539551e-01
1.215272024273872375e-01
1.950823664665222168e-01
-1.724150776863098145e-01
3.723881244659423828e-01
-6.007429212331771851e-02
2.162693440914154053e-01
-2.158712744712829590e-01
4.827563092112541199e-02
-8.722801506519317627e-02
1.243403702974319458e-01
6.153288483619689941e-02
2.066084146499633789e-01
-7.762317359447479248e-02
4.041161760687828064e-02
-5.339318886399269104e-02
-3.169018775224685669e-02
6.579450331628322601e-03
-5.093056336045265198e-02
-3.067415654659271240e-01
2.087760269641876221e-01
1.984798610210418701e-01
-8.818541467189788818e-02
-2.388220727443695068e-01
-5.442086607217788696e-02
-1.157740801572799683e-01
-1.603723615407943726e-01
-2.926434874534606934e-01
-1.081698685884475708e-01
-2.136659026145935059e-01
2.745081484317779541e-01
2.267666310071945190e-01
-1.691511273384094238e-01
-7.837492227554321289e-02
-2.722166180610656738e-01
-1.919226907193660736e-02
1.694655716419219971e-01
-1.413011550903320312e-01
3.813450038433074951e-01
4.704024270176887512e-02
1.015462055802345276e-01
1.427136212587356567e-01
1.843258738517761230e-01
1.374232172966003418e-01
1.391859352588653564e-01
-1.328567415475845337e-01
3.415828943252563477e-02
1.249820217490196228e-01
3.355754166841506958e-02
3.579407231882214546e-03
-2.107375413179397583e-01
5.904582142829895020e-02
-1.431949436664581299e-01
-2.037315070629119873e-01
-3.534066677093505859e-01
-3.387073576450347900e-01
1.698989868164062500e-01
-9.231510758399963379e-02
6.107531189918518066e-01
-7.044002413749694824e-02
1.196412667632102966e-01
-1.050901934504508972e-01
1.797754019498825073e-01
1.842471510171890259e-01
2.018053457140922546e-02
-1.310863196849822998e-01
1.307699382305145264e-01
-3.961535170674324036e-02
-8.170015364885330200e-02
-2.556718587875366211e-01
2.242064476013183594e-01
-3.340514600276947021e-01
-1.773300766944885254e-01
8.942116796970367432e-02
1.800387352705001831e-01
3.911123573780059814e-01
1.509102731943130493e-01
-1.903456449508666992e-01
5.861645936965942383e-02
-2.795487344264984131e-01
-1.227388232946395874e-01
-9.493343532085418701e-02
2.340830415487289429e-01
2.709505259990692139e-01
-2.499645203351974487e-01
2.016680315136909485e-03
2.630553543567657471e-01
-2.152187377214431763e-01
3.057594299316406250e-01
3.477085828781127930e-01
2.666417956352233887e-01
4.808229506015777588e-01
1.217855885624885559e-01
1.484322398900985718e-01
-2.692672014236450195e-01
-7.029868364334106445e-01
1.915341913700103760e-01
4.818924888968467712e-02
6.451461911201477051e-01
5.352819561958312988e-01
3.124797157943248749e-02
-4.111586213111877441e-01
4.076278209686279297e-01
1.539572626352310181e-01
6.408481001853942871e-01
-9.695300459861755371e-02
-4.131396487355232239e-02
9.941145777702331543e-02
1.386921256780624390e-01
-4.625235497951507568e-02
5.126423239707946777e-01
-1.834077090024948120e-01
1.451831907033920288e-01
1.738321185111999512e-01
-4.011782407760620117e-01
-2.050768435001373291e-01
-1.113854944705963135e-01
-2.359509468078613281e-02
-2.747736871242523193e-01
-1.234605014324188232e-01
2.788368053734302521e-02
-1.859075725078582764e-01
-6.391878426074981689e-02
-2.100266329944133759e-02
-1.445552408695220947e-01
-1.243336126208305359e-01
8.045102655887603760e-02
-1.721971333026885986e-01
-3.029189072549343109e-02
1.202196255326271057e-01
4.170050919055938721e-01
-2.974551320075988770e-01
-1.225841343402862549e-01
-2.267604023218154907e-01
-1.902073621749877930e-02
-8.812435716390609741e-02
-1.545603424310684204e-01
4.491829499602317810e-02
-3.955618739128112793e-01
-3.129966259002685547e-01
2.615600824356079102e-02
-4.345174878835678101e-02
1.426239591091871262e-02
-2.138407677412033081e-01
-8.270237594842910767e-02
-4.791527613997459412e-02
6.329915672540664673e-02
-1.994588822126388550e-01
-9.873998910188674927e-02
1.031427159905433655e-01
-1.885711401700973511e-01
-1.028332579880952835e-02
2.623101770877838135e-01
-2.707429528236389160e-01
-5.365288257598876953e-01
-1.491400133818387985e-02
2.278929799795150757e-01
7.736738026142120361e-02
8.125602006912231445e-01
2.601328790187835693e-01
-9.471794962882995605e-02
1.922978088259696960e-02
4.263426661491394043e-01
-9.606207162141799927e-02
4.011640548706054688e-01
-7.487690309062600136e-04
-3.950821980834007263e-02
-1.887621432542800903e-01
-1.792548447847366333e-01
-2.969095706939697266e-01
-1.602945178747177124e-01
4.131189286708831787e-01
1.322726160287857056e-01
-6.491923239082098007e-03
-6.096209958195686340e-02
1.097075566649436951e-01
-6.161209195852279663e-02
-3.072553128004074097e-02
1.886984258890151978e-01
1.681967079639434814e-01
-4.521124437451362610e-02
1.662296205759048462e-01
2.851326018571853638e-02
-1.742150485515594482e-01
4.162054508924484253e-02
-1.120804548263549805e-01
-6.127593666315078735e-02
-1.005882993340492249e-01
-1.085304245352745056e-01
-1.216716691851615906e-01
-9.323696047067642212e-02
-1.738668233156204224e-01
1.660628616809844971e-01
1.987418979406356812e-01
8.391316235065460205e-02
-8.637867867946624756e-02
-1.937778741121292114e-01
2.952623963356018066e-01
-7.049388289451599121e-01
-8.649767935276031494e-02
-6.744042783975601196e-02
-2.006766498088836670e-01
1.819445006549358368e-02
-5.569079145789146423e-02
9.677999466657638550e-02
2.003335207700729370e-01
4.963715001940727234e-02
2.664208114147186279e-01
1.556823998689651489e-01
-1.012835204601287842e-01
-3.901197910308837891e-01
8.813343942165374756e-02
-1.324258148670196533e-01
-2.649002373218536377e-01
3.729371726512908936e-02
-3.306058421730995178e-02
9.554278850555419922e-02
-1.781325340270996094e-01
2.791926637291908264e-02
1.436535567045211792e-01
2.101073414087295532e-01
-2.124119549989700317e-01
-1.825647950172424316e-01
-1.418238580226898193e-01
4.342339187860488892e-02
1.746465414762496948e-01
1.793585270643234253e-01
4.209220111370086670e-01
-2.394650876522064209e-01
-2.117930799722671509e-01
1.529126912355422974e-01
6.902993470430374146e-02
2.325617074966430664e-01
-6.791465729475021362e-02
7.910489290952682495e-02
-2.677788138389587402e-01
-2.114074975252151489e-01
1.980162262916564941e-01
2.567902505397796631e-01
-1.940596252679824829e-01
-4.382388666272163391e-02
-1.367435306310653687e-01
1.072553694248199463e-01
5.186353996396064758e-02
-7.871185988187789917e-02
-1.975718289613723755e-01
9.815692156553268433e-02
-1.130877882242202759e-01
-1.492098569869995117e-01
-2.660266160964965820e-01
3.289889395236968994e-01
-3.318517506122589111e-01
-1.485494226217269897e-01
1.830409653484821320e-02
-2.917672879993915558e-02
-6.573273241519927979e-02
1.424112729728221893e-02
1.914810240268707275e-01
-2.559734284877777100e-01
-2.099368423223495483e-01
-1.469087749719619751e-01
2.531520128250122070e-01
-1.183351352810859680e-01
1.909963786602020264e-01
1.131123676896095276e-01
-9.402299672365188599e-02
2.286619395017623901e-01
1.942755281925201416e-02
-6.988381594419479370e-02
-1.181210204958915710e-01
-5.909772217273712158e-02
-1.590544283390045166e-01
-3.476750850677490234e-02
2.384252101182937622e-01
2.294254302978515625e-01
3.784655630588531494e-01
4.026778787374496460e-02
-1.130886152386665344e-01
-1.291670501232147217e-01
1.223229318857192993e-01
-2.248974144458770752e-01
2.633303701877593994e-01
-8.565735816955566406e-02
1.777239888906478882e-01
1.456246376037597656e-01
-9.750609844923019409e-02
2.407208979129791260e-01
-2.833523321896791458e-03
1.851015537977218628e-01
2.544867694377899170e-01
2.079133093357086182e-01
2.126934565603733063e-02
2.604252696037292480e-01
-7.315122056752443314e-03
-3.321567177772521973e-01
-1.333632320165634155e-01
8.943938463926315308e-02
4.521837085485458374e-02
-4.719170182943344116e-02
-2.570523321628570557e-01
1.750942319631576538e-02
2.475940883159637451e-01
4.677416980266571045e-01
1.194872856140136719e-01
-6.348125934600830078e-01
-1.107975319027900696e-01
6.834074854850769043e-02
-6.234096884727478027e-01
6.267949193716049194e-02
-8.442287147045135498e-02
1.921381652355194092e-01
2.417003661394119263e-01
-2.942917346954345703e-01
7.870211452245712280e-02
-3.081020116806030273e-01
-1.092390298843383789e+00
4.398911297321319580e-01
-9.516158699989318848e-02
7.828338146209716797e-01
3.034011721611022949e-01
-2.701563239097595215e-01
-1.104487776756286621e-01
3.531889915466308594e-01
3.219712376594543457e-01
7.471858859062194824e-01
-2.933650612831115723e-01
-2.363169789314270020e-01
3.785952627658843994e-01
3.094975948333740234e-01
5.412870645523071289e-02
-2.048593451036140323e-04
1.997102648019790649e-01
-1.784570366144180298e-01
1.345720738172531128e-01
1.156372670084238052e-02
-4.412911236286163330e-01
-3.257620707154273987e-02
1.343886256217956543e-01
3.455236852169036865e-01
1.076153293251991272e-01
6.967005133628845215e-02
-7.894825935363769531e-02
-3.582680225372314453e-02
-1.275161504745483398e-01
-4.072861373424530029e-01
-1.499879807233810425e-01
-1.339377462863922119e-01
-1.917038261890411377e-01
-2.580988407135009766e-01
-7.623060792684555054e-02
3.167758509516716003e-02
2.904241979122161865e-01
-1.754842326045036316e-02
-3.189431875944137573e-02
1.729565560817718506e-01
-3.514261245727539062e-01
2.590291760861873627e-02
5.343661829829216003e-02
2.072705477476119995e-01
-1.558439135551452637e-01
-1.066062375903129578e-01
2.232464700937271118e-01
-1.563788019120693207e-02
-9.335146844387054443e-02
-1.045595388859510422e-02
-1.581388562917709351e-01
3.189098462462425232e-02
-4.230644181370735168e-02
7.533041760325431824e-03
7.446938753128051758e-02
-8.478951454162597656e-02
1.084259152412414551e-02
-1.777948588132858276e-01
-1.877512484788894653e-01
1.698086559772491455e-01
-1.403049528598785400e-01
-5.549574643373489380e-02
-3.537868261337280273e-01
7.193606346845626831e-02
-1.587406545877456665e-02
-1.757293045520782471e-01
-4.680981859564781189e-02
-2.797604203224182129e-01
2.512560188770294189e-01
-3.056306540966033936e-01
-7.014843076467514038e-02
-3.022305481135845184e-02
1.256951987743377686e-01
2.260459586977958679e-02
4.836806282401084900e-02
5.651560425758361816e-01
-1.167005151510238647e-01
8.611379861831665039e-01
-1.343095302581787109e-01
-2.901584282517433167e-02
-2.672984637320041656e-02
-1.344260573387145996e-01
4.651891291141510010e-01
4.131793975830078125e-01
-3.926498889923095703e-01
1.254272162914276123e-01
7.301748394966125488e-01
7.851419448852539062e-01
-4.069749265909194946e-02
-1.934823244810104370e-01
-3.864814639091491699e-01
-2.943856418132781982e-01
-8.240308761596679688e-01
1.891818456351757050e-02
-6.555514782667160034e-02
-4.710016399621963501e-02
2.989635244011878967e-02
1.848551332950592041e-01
-2.481907606124877930e-01
-1.616801768541336060e-01
-2.047091126441955566e-01
-2.282126098871231079e-01
-6.341982632875442505e-02
5.429147481918334961e-01
8.313078433275222778e-02
2.400254458189010620e-01
-2.184899449348449707e-01
-1.406858265399932861e-01
-1.881017386913299561e-01
4.196967482566833496e-01
-1.758634746074676514e-01
-1.144854500889778137e-01
1.504336446523666382e-01
-9.853984415531158447e-02
-4.978987574577331543e-02
1.362146437168121338e-01
-1.135582402348518372e-01
-1.867148280143737793e-01
-1.242114081978797913e-01
-2.425649315118789673e-01
-8.950588107109069824e-02
-2.243524976074695587e-02
5.529786273837089539e-02
2.359591275453567505e-01
-1.089405268430709839e-02
1.956055909395217896e-01
2.953417785465717316e-02
8.400283008813858032e-02
2.312397956848144531e-01
-3.186196386814117432e-01
2.113825641572475433e-02
-2.203004509210586548e-01
1.126704290509223938e-01
1.195735260844230652e-01
2.628706209361553192e-02
-3.133275359869003296e-02
1.210374012589454651e-01
-2.317894548177719116e-01
-2.229070067405700684e-01
-3.503774106502532959e-02
-1.032472401857376099e-01
4.665923118591308594e-01
3.066141009330749512e-01
8.395817875862121582e-02
-1.110039055347442627e-01
2.248107343912124634e-01
-1.386078000068664551e-01
1.443549543619155884e-01
8.466701209545135498e-02
-3.985548391938209534e-02
2.236308753490447998e-01
3.555417954921722412e-01
1.567151248455047607e-01
-1.112642586231231689e-01
1.830995529890060425e-01
2.303710673004388809e-03
-2.610840499401092529e-01
6.364738196134567261e-02
-9.124905467033386230e-01
-8.974370360374450684e-02
1.575594767928123474e-02
-2.369274199008941650e-01
1.716313809156417847e-01
-2.627582103013992310e-02
-2.018612176179885864e-01
2.135775089263916016e-01
-1.236067339777946472e-01
-1.554700825363397598e-02
8.180068805813789368e-03
-9.729962944984436035e-01
-2.669476717710494995e-02
-4.864011704921722412e-02
1.093966066837310791e-01
1.601040065288543701e-01
-7.216931134462356567e-02
-3.988873213529586792e-02
3.670078516006469727e-01
-1.987389475107192993e-01
2.182087898254394531e-01
-2.111789286136627197e-01
-4.142162203788757324e-01
2.381419837474822998e-01
2.999700009822845459e-01
2.668080478906631470e-02
4.728426635265350342e-01
1.825212240219116211e-01
-3.505412936210632324e-01
-2.017311900854110718e-01
-3.004010617733001709e-01
5.191958695650100708e-02
2.690695822238922119e-01
-3.983347117900848389e-02
1.715137436985969543e-02
-2.715765312314033508e-02
3.721291720867156982e-01
-1.438015997409820557e-01
-3.371764719486236572e-01
3.238181024789810181e-02
-4.730037748813629150e-01
-6.676050275564193726e-02
1.111736446619033813e-01
-9.522281587123870850e-02
2.229426056146621704e-01
-2.011335939168930054e-01
-2.093305736780166626e-01
7.777335494756698608e-02
1.598044931888580322e-01
-7.320880889892578125e-02
4.708445072174072266e-02
-7.949131131172180176e-01
2.517441511154174805e-01
1.294251382350921631e-01
-1.843091547489166260e-01
-1.300964653491973877e-01
-2.603405416011810303e-01
-1.843053549528121948e-01
9.125819057226181030e-02
7.508269697427749634e-02
4.474012553691864014e-02
-1.332488059997558594e-01
1.144925057888031006e-01
-1.757102012634277344e-01
-2.361652553081512451e-01
1.019080802798271179e-01
-1.018921807408332825e-01
-8.815330266952514648e-02
1.036897450685501099e-01
3.297296538949012756e-02
1.043119430541992188e-01
-4.480723291635513306e-02
-1.183169186115264893e-01
-3.585407137870788574e-01
-8.188868314027786255e-02
-9.940128773450851440e-02
7.909879833459854126e-02
5.055847018957138062e-02
-6.038188934326171875e-02
-2.412162423133850098e-01
3.257592441514134407e-03
-1.287967711687088013e-01
1.135071888566017151e-01
-2.134877294301986694e-01
-1.643830910325050354e-02
-6.508777290582656860e-02
2.052024900913238525e-01
-8.013660460710525513e-02
1.403059959411621094e-01
1.011581718921661377e-01
-7.123801112174987793e-01
3.026094138622283936e-01
2.397538423538208008e-01
-7.209049165248870850e-02
2.447716891765594482e-01
-2.774274721741676331e-02
1.179115548729896545e-01
-4.176967144012451172e-01
-1.916866600513458252e-01
-1.269561052322387695e-01
-3.689172863960266113e-02
-1.319120973348617554e-01
1.686301678419113159e-01
2.009140998125076294e-01
-7.063977420330047607e-03
2.096122056245803833e-01
-1.714564114809036255e-02
-1.816550046205520630e-01
3.338234126567840576e-01
3.305011093616485596e-01
-9.489973634481430054e-02
3.720603883266448975e-01
-3.745672702789306641e-01
-3.186199069023132324e-01
-1.637411117553710938e-02
-7.812619954347610474e-02
-7.293814420700073242e-02
-3.205845654010772705e-01
-1.599345356225967407e-01
7.209224160760641098e-03
-5.471624135971069336e-01
-2.595608234405517578e-01
1.480863690376281738e-01
-5.420340299606323242e-01
-1.631712317466735840e-01
-2.185399830341339111e-01
1.745664179325103760e-01
-4.996847361326217651e-02
-1.817171126604080200e-01
1.426942944526672363e-01
1.862865388393402100e-01
-6.234402656555175781e-01
-8.791405707597732544e-02
7.979652285575866699e-02
2.518725991249084473e-01
3.851056098937988281e-02
-1.280922144651412964e-01
4.800395690836012363e-04
1.618285775184631348e-01
1.149758249521255493e-01
1.869114302098751068e-02
-8.459425717592239380e-02
-3.373234570026397705e-01
-1.146746985614299774e-02
2.583494782447814941e-01
-2.354213595390319824e-01
6.991271674633026123e-02
2.205037772655487061e-01
-1.873603612184524536e-01
1.681479811668395996e-02
-1.235666684806346893e-02
-1.808309257030487061e-01
2.152052670717239380e-01
4.124531447887420654e-01
5.365748330950737000e-02
-2.059563845396041870e-01
-2.088225185871124268e-01
2.755556702613830566e-01
-2.297488301992416382e-01
-1.847857385873794556e-01
2.130867242813110352e-01
4.880125522613525391e-01
5.242050886154174805e-01
-3.062149286270141602e-01
-1.584607213735580444e-01
1.772413104772567749e-01
-3.630655705928802490e-01
-8.701664395630359650e-03
2.411141097545623779e-01
-2.658490091562271118e-02
3.474626541137695312e-01
3.530193865299224854e-01
1.147978603839874268e-01
1.787803918123245239e-01
-4.355752468109130859e-01
2.761907279491424561e-01
-1.928904093801975250e-02
-2.876403331756591797e-01
-5.549037083983421326e-02
2.519487403333187103e-02
6.191949844360351562e-01
1.176673471927642822e-01
-1.869190782308578491e-01
-2.527728676795959473e-01
-3.187982439994812012e-01
2.309521287679672241e-01
1.769613027572631836e-01
-2.149622440338134766e-01
3.070676326751708984e-01
-2.571214549243450165e-02
-5.718551874160766602e-01
2.462714314460754395e-01
-4.270581156015396118e-02
-1.705387830734252930e-01
3.414614796638488770e-01
-1.071596890687942505e-01
9.486317634582519531e-03
-3.007041215896606445e-01
-4.730960428714752197e-01
-9.631818160414695740e-03
-1.238977462053298950e-01
5.323376506567001343e-02
-5.251315981149673462e-02
-4.007296860218048096e-01
-1.696325279772281647e-02
2.117944806814193726e-01
-8.614750951528549194e-02
-1.400167942047119141e-01
-2.347191236913204193e-02
1.791349649429321289e-01
-3.255273997783660889e-01
4.400690495967864990e-01
-2.080426067113876343e-01
-3.353423178195953369e-01
9.183091670274734497e-02
-1.262161582708358765e-01
1.262686848640441895e-01
-8.588436245918273926e-02
-3.397294282913208008e-01
2.366493791341781616e-01
4.467843472957611084e-02
-2.390965968370437622e-01
1.430779546499252319e-01
4.861385747790336609e-02
-2.020946890115737915e-01
3.428075313568115234e-01
4.479040950536727905e-02
-6.196076050400733948e-02
-1.667106896638870239e-01
3.580878973007202148e-01
-2.245273292064666748e-01
1.322239935398101807e-01
-2.052653878927230835e-01
-2.925315797328948975e-01
-1.688517332077026367e-01
1.432341486215591431e-01
-2.642237581312656403e-03
-2.206856012344360352e-01
-3.204628527164459229e-01
2.310041785240173340e-01
-1.444560009986162186e-03
-2.360424697399139404e-01
1.535933762788772583e-01
-1.978243291378021240e-01
1.078191474080085754e-01
3.836112916469573975e-01
2.864194810390472412e-01
-9.497159719467163086e-02
2.182035595178604126e-01
2.254800349473953247e-01
-5.059106945991516113e-01
8.771821856498718262e-02
-1.786291301250457764e-01
1.479770690202713013e-01
2.468976676464080811e-01
2.259574383497238159e-01
-3.514822572469711304e-02
-1.732171177864074707e-01
-6.981626152992248535e-02
2.052675560116767883e-02
2.297839373350143433e-01
1.602066606283187866e-01
2.455818951129913330e-01
9.866234660148620605e-02
-3.457953222095966339e-03
-9.299924969673156738e-02
-2.791264951229095459e-01
-1.562884598970413208e-01
2.928587794303894043e-01
3.302489519119262695e-01
1.129947528243064880e-01
9.188468009233474731e-02
-2.380283772945404053e-01
-3.874332904815673828e-01
-2.647714316844940186e-01
2.867046892642974854e-01
-4.150482639670372009e-02
2.084580659866333008e-01
1.075408309698104858e-01
-1.221661418676376343e-01
-4.873048141598701477e-02
-1.250922530889511108e-01
-1.869291514158248901e-01
1.147188246250152588e-01
1.143538132309913635e-01
-8.605191856622695923e-02
1.587408185005187988e-01
2.412332743406295776e-01
-2.438119202852249146e-01
-1.068170815706253052e-01
2.814725339412689209e-01
-1.753022223711013794e-01
1.594357192516326904e-01
1.953751891851425171e-01
2.922018431127071381e-02
9.838283807039260864e-02
2.471304982900619507e-01
5.301645956933498383e-03
9.330849349498748779e-02
1.549334079027175903e-01
1.823248267173767090e-01
-1.935067176818847656e-01
-4.735231772065162659e-02
8.663573116064071655e-02
-7.577860355377197266e-02
-8.147368580102920532e-02
6.167201995849609375e-01
-5.536586046218872070e-02
-3.489052951335906982e-01
1.221004202961921692e-01
-3.063331842422485352e-01
4.645992517471313477e-01
-1.425096988677978516e-01
1.448073089122772217e-01
1.898608803749084473e-01
-2.798655927181243896e-01
1.168189421296119690e-01
-9.464085847139358521e-02
3.238835930824279785e-02
-9.728760272264480591e-02
-8.996273577213287354e-02
-3.926032781600952148e-01
-2.522764503955841064e-01
2.134677469730377197e-01
2.852591872215270996e-02
-4.437040910124778748e-02
1.911698728799819946e-01
-6.057670712471008301e-02
-1.903590708971023560e-01
5.250571668148040771e-02
-1.897866427898406982e-01
-3.051163852214813232e-01
-2.695867419242858887e-02
-1.334553211927413940e-01
7.975179702043533325e-02
-2.758473753929138184e-01
1.358760148286819458e-01
3.011399805545806885e-01
5.373606085777282715e-02
-1.204770952463150024e-01
-3.718955069780349731e-02
1.677362807095050812e-02
-4.062544405460357666e-01
1.741691827774047852e-01
1.526133120059967041e-01
-2.431380897760391235e-01
-4.396918229758739471e-03
9.962569177150726318e-02
-7.604125142097473145e-02
3.961382433772087097e-02
2.806977741420269012e-02
9.798006713390350342e-02
3.190970122814178467e-01
3.234426975250244141e-01
1.012165769934654236e-01
4.247859865427017212e-02
-1.705636978149414062e-01
-4.783466830849647522e-02
3.139639794826507568e-01
-4.542957991361618042e-02
4.389745891094207764e-01
3.003153502941131592e-01
1.034825146198272705e-01
3.536979481577873230e-02
-2.163688242435455322e-01
2.554929815232753754e-02
-4.913022369146347046e-02
1.081791985780000687e-02
-1.943087130784988403e-01
4.954171553254127502e-02
-1.459214091300964355e-01
2.376757264137268066e-01
8.265899121761322021e-02
-6.300535798072814941e-02
-1.563824862241744995e-01
-1.119969412684440613e-01
1.350157707929611206e-01
-1.287270337343215942e-01
1.248457506299018860e-01
1.098449975252151489e-01
-4.900783672928810120e-02
1.700298637151718140e-01
-1.782776415348052979e-01
-1.353384256362915039e-01
6.271942704916000366e-02
1.975811086595058441e-02
-9.700488299131393433e-02
-6.171831488609313965e-02
-2.421149015426635742e-01
-2.466917037963867188e-01
1.307610422372817993e-01
6.536965072154998779e-02
6.051624193787574768e-02
-1.022924929857254028e-01
1.569863706827163696e-01
-1.291351020336151123e-01
-7.026407122611999512e-02
-3.960001468658447266e-01
1.122506149113178253e-02
1.113416440784931183e-02
-5.442908033728599548e-02
3.584759831428527832e-01
1.336660049855709076e-02
4.242447018623352051e-01
-2.295319437980651855e-01
-2.463442832231521606e-01
-3.530357778072357178e-02
-1.309724748134613037e-01
1.656351089477539062e-01
5.825365707278251648e-02
3.607001006603240967e-01
2.405025511980056763e-01
-8.738810569047927856e-02
1.789577603340148926e-01
-6.003341078758239746e-02
-3.849446773529052734e-01
1.034510880708694458e-01
-6.668832153081893921e-02
-5.166071057319641113e-01
8.446449413895606995e-03
-3.185648024082183838e-01
1.949121505022048950e-01
2.634351141750812531e-02
3.516469299793243408e-01
-1.893018037080764771e-01
-2.956373691558837891e-01
2.414618805050849915e-02
1.932010799646377563e-01
2.080986350774765015e-01
3.475053310394287109e-01
2.979287132620811462e-02
1.756272315979003906e-01
-7.819810509681701660e-02
-4.180936142802238464e-02
-1.191555559635162354e-01
-3.851072788238525391e-01
-1.200279891490936279e-01
3.271805644035339355e-01
1.610963642597198486e-01
-6.455003749579191208e-03
2.355634123086929321e-01
-1.110477186739444733e-02
-7.892496883869171143e-02
-2.460456639528274536e-01
1.350262612104415894e-01
3.001496195793151855e-01
7.935151457786560059e-02
-1.605249345302581787e-01
1.923444122076034546e-02
-2.257506102323532104e-01
-4.273916408419609070e-02
-4.104647785425186157e-02
4.186683148145675659e-02
-1.120869629085063934e-02
6.612153351306915283e-02
9.544662386178970337e-02
-2.144782096147537231e-01
-9.426780790090560913e-02
-1.582626067101955414e-02
3.497703969478607178e-01
7.694179564714431763e-02
1.349507719278335571e-01
9.649455547332763672e-02
-2.976650595664978027e-01
-1.054750159382820129e-01
-9.878567606210708618e-02
-2.156996279954910278e-01
-3.682135790586471558e-02
-5.295242369174957275e-02
-8.219736814498901367e-02
-1.949584484100341797e-01
-2.159074097871780396e-01
4.885759949684143066e-02
-2.164260149002075195e-01
3.255141675472259521e-01
2.064554542303085327e-01
-1.172856707125902176e-02
5.798435583710670471e-02
-4.063696265220642090e-01
1.394481360912322998e-01
-3.657452464103698730e-01
2.301029302179813385e-02
2.762036621570587158e-01
2.854573912918567657e-02
-3.005921542644500732e-01
-9.959647059440612793e-02
1.222865283489227295e-01
2.604604661464691162e-01
2.423548996448516846e-01
1.435209214687347412e-01
7.510024309158325195e-02
-2.033797800540924072e-01
-1.858492642641067505e-01
4.085959494113922119e-01
-3.721305131912231445e-01
-4.266186431050300598e-02
1.810850799083709717e-01
1.710757613182067871e-02
1.371650099754333496e-01
-1.186952441930770874e-01
6.272193193435668945e-01
1.808382719755172729e-01
1.794531792402267456e-01
-2.140602171421051025e-01
1.557935625314712524e-01
6.786990165710449219e-02
1.625521332025527954e-01
2.439803443849086761e-02
-6.255137920379638672e-02
-1.009964421391487122e-01
-2.490741014480590820e-01
-1.138843595981597900e-02
-6.147855892777442932e-03
-1.041742637753486633e-01
8.159303665161132812e-02
2.241997122764587402e-01
-3.355759382247924805e-02
-2.636446952819824219e-01
-4.454257190227508545e-01
1.808113232254981995e-02
-3.172319829463958740e-01
3.250084519386291504e-01
-3.267857059836387634e-02
2.335418313741683960e-01
-8.083835244178771973e-02
-2.794802486896514893e-01
1.352366209030151367e-01
-1.479707509279251099e-01
1.599813699722290039e-01
3.450534343719482422e-01
-2.608002535998821259e-02
-1.379366870969533920e-02
-3.002912700176239014e-01
-1.543789636343717575e-02
-1.595410257577896118e-01
-4.340100586414337158e-01
-1.138273403048515320e-01
2.692896127700805664e-01
1.125735118985176086e-01
-1.588517427444458008e-01
7.632656395435333252e-02
-3.632431924343109131e-01
6.094118952751159668e-02
3.525474667549133301e-02
-2.136772274971008301e-01
3.177703320980072021e-01
-4.755368828773498535e-02
-6.756797432899475098e-02
-1.309055238962173462e-01
-2.770614027976989746e-01
-7.933883368968963623e-02
1.706686466932296753e-01
2.227231413125991821e-01
1.711513102054595947e-01
-7.559499144554138184e-02
2.929921150207519531e-01
3.313770145177841187e-02
-2.864829897880554199e-01
-2.016871720552444458e-01
-2.041973918676376343e-01
2.039707601070404053e-01
2.028245478868484497e-01
-2.398032993078231812e-01
-1.442344933748245239e-01
-2.823458611965179443e-01
2.974024415016174316e-02
3.600683808326721191e-01
-2.675515227019786835e-02
6.968186795711517334e-02
1.971844732761383057e-01
1.747476607561111450e-01
1.704022735357284546e-01
-1.690829694271087646e-01
1.357435286045074463e-01
-2.889216244220733643e-01
-3.284347355365753174e-01
-1.070712283253669739e-01
2.071944065392017365e-02
9.821875393390655518e-02
2.302568703889846802e-01
2.155869752168655396e-01
-2.290716320276260376e-01
1.133322268724441528e-01
2.126124054193496704e-01
6.435178220272064209e-02
1.073821261525154114e-01
-9.244833886623382568e-02
-2.234137654304504395e-01
-1.680055856704711914e-01
8.337610960006713867e-02
7.931375503540039062e-02
-3.664151132106781006e-01
2.603655755519866943e-01
1.250995993614196777e-01
1.765254586935043335e-01
4.309196083340793848e-04
3.011256270110607147e-02
-1.708206236362457275e-01
6.025649234652519226e-02
4.272366166114807129e-01
-2.802350372076034546e-02
2.100585252046585083e-01
1.831927746534347534e-01
-2.470639497041702271e-01
4.975757375359535217e-02
2.696760594844818115e-01
-3.487021327018737793e-01
4.094988405704498291e-01
-8.022090792655944824e-02
-2.819725573062896729e-01
-1.653385013341903687e-01
9.883885085582733154e-02
2.086256891489028931e-01
1.035982444882392883e-01
4.001494646072387695e-01
-6.462961900979280472e-03
-1.128018274903297424e-01
-5.209611356258392334e-02
1.912111416459083557e-02
2.840944230556488037e-01
8.104647696018218994e-02
-1.756080538034439087e-01
-2.499531656503677368e-01
-9.139841794967651367e-02
-1.635919809341430664e-01
-7.714734971523284912e-02
-1.886032968759536743e-01
-1.471538841724395752e-01
-1.894900798797607422e-01
-7.587219029664993286e-02
-3.616124689579010010e-01
-1.778354495763778687e-02
8.962383121252059937e-02
-2.048897743225097656e-01
-3.803183790296316147e-03
9.481170773506164551e-02
4.726916179060935974e-02
3.312338292598724365e-01
4.785743057727813721e-01
2.641247212886810303e-01
2.184161990880966187e-01
-3.198373615741729736e-01
-1.920644193887710571e-01
-2.952374517917633057e-02
2.039823532104492188e-01
-1.313382387161254883e-01
1.584450155496597290e-01
-2.266714125871658325e-01
-2.291590869426727295e-01
-7.962118089199066162e-02
1.267301943153142929e-02
1.096820384263992310e-01
3.452529609203338623e-01
-6.019830331206321716e-02
2.857740521430969238e-01
3.224617242813110352e-01
-2.414040714502334595e-01
6.057125702500343323e-02
-2.607965655624866486e-02
-2.263559252023696899e-01
1.357261240482330322e-01
2.924983203411102295e-01
-6.546372175216674805e-02
2.779114842414855957e-01
-6.324787158519029617e-03
-5.537101998925209045e-02
3.945516943931579590e-01
-2.500627040863037109e-01
-1.290792375802993774e-01
2.795232534408569336e-01
6.919288635253906250e-02
1.169529259204864502e-01
-1.860916763544082642e-01
1.428924798965454102e-01
-3.226456940174102783e-01
-9.793364256620407104e-02
9.109551459550857544e-02
-1.372936218976974487e-01
-2.601759731769561768e-01
-1.962190121412277222e-01
-1.033028308302164078e-02
9.353407658636569977e-03
4.770495295524597168e-01
2.088625431060791016e-01
-1.811378821730613708e-02
-2.102992832660675049e-01
-7.110469788312911987e-02
5.418331623077392578e-01
2.247749716043472290e-01
-3.085810691118240356e-02
5.859208703041076660e-01
8.546011149883270264e-02
-2.244733124971389771e-01
1.105602458119392395e-01
-2.532548904418945312e-01
8.351345360279083252e-02
1.360210217535495758e-02
1.630890071392059326e-01
4.498228058218955994e-02
5.648211836814880371e-01
-8.000723272562026978e-02
-1.445941776037216187e-01
8.155006915330886841e-02
4.879144579172134399e-02
2.030878663063049316e-01
2.373061329126358032e-01
-2.626286447048187256e-01
3.175315558910369873e-01
-1.316461265087127686e-01
3.393688425421714783e-02
3.101600334048271179e-02
-4.137645959854125977e-01
2.016253396868705750e-02
-2.906577587127685547e-01
1.965675503015518188e-01
2.529760301113128662e-01
1.296023875474929810e-01
-9.753120690584182739e-02
-3.571158349514007568e-01
-1.115048378705978394e-01
-2.038706839084625244e-02
4.332407414913177490e-01
-4.545801132917404175e-02
2.485600560903549194e-01
1.304252594709396362e-01
-1.288876086473464966e-01
1.000981479883193970e-01
1.352867186069488525e-01
1.200734227895736694e-01
2.907009720802307129e-01
1.560881137847900391e-01
1.769202351570129395e-01
-3.016909360885620117e-01
3.083467185497283936e-01
-1.696527004241943359e-01
-3.062049746513366699e-01
5.261730030179023743e-02
-1.696747839450836182e-01
1.148525029420852661e-01
1.226178184151649475e-01
-2.013516277074813843e-01
2.163311392068862915e-01
-9.234730899333953857e-02
-2.003616839647293091e-01
-3.831569105386734009e-02
-3.089114427566528320e-01
-4.595773667097091675e-02
3.714010119438171387e-02
-5.736722052097320557e-02
1.924768984317779541e-01
7.930102199316024780e-02
3.137124478816986084e-01
-2.189800441265106201e-01
-1.029753014445304871e-01
-3.205507248640060425e-02
-2.034620195627212524e-01
1.585534214973449707e-01
-2.780450321733951569e-02
-9.028550237417221069e-02
-1.843008846044540405e-01
2.060672082006931305e-02
-1.546036452054977417e-01
1.689607948064804077e-01
9.004489332437515259e-02
6.108066067099571228e-02
6.034413352608680725e-02
1.493534445762634277e-01
-3.199016442522406578e-03
2.575289309024810791e-01
-1.537662744522094727e-01
5.507209897041320801e-02
1.719966530799865723e-02
-1.269059032201766968e-01
-8.378119766712188721e-02
-3.439964652061462402e-01
7.171974983066320419e-03
6.225465610623359680e-02
5.797041952610015869e-02
9.263239055871963501e-02
1.828448176383972168e-01
2.929559051990509033e-01
2.046473920345306396e-01
2.149413712322711945e-02
-3.117881715297698975e-02
2.327161878347396851e-01
-9.555926173925399780e-02
1.021922007203102112e-01
-3.137935996055603027e-01
3.109702281653881073e-02
-1.298115849494934082e-01
-3.523237109184265137e-01
-2.238267064094543457e-01
1.650261431932449341e-01
-1.582858413457870483e-01
5.618099868297576904e-02
9.224839508533477783e-02
1.809406280517578125e-01
7.023342698812484741e-02
-5.138477310538291931e-02
-4.088519141077995300e-03
-6.778658181428909302e-02
1.372944861650466919e-01
-5.902739614248275757e-02
-2.466786094009876251e-02
-6.891861557960510254e-02
-6.498307734727859497e-02
2.489603757858276367e-01
-7.807890325784683228e-02
2.327317297458648682e-01
1.974767446517944336e-01
-1.664812676608562469e-02
-1.547291576862335205e-01
3.307156264781951904e-02
-1.629570126533508301e-01
-1.424900591373443604e-01
-9.909997880458831787e-02
-2.335804700851440430e-02
-3.156327307224273682e-01
-4.158615171909332275e-01
3.441984951496124268e-01
3.321169316768646240e-01
-2.222136855125427246e-01
3.864290192723274231e-02
-2.637883722782135010e-01
4.548687338829040527e-01
-2.660733461380004883e-01
3.258065283298492432e-01
2.194207459688186646e-01
2.330468297004699707e-01
2.479557394981384277e-01
-3.623308539390563965e-01
-2.228862047195434570e-01
2.309199869632720947e-01
-3.162819147109985352e-01
-3.552512228488922119e-01
-1.656609922647476196e-01
1.451376080513000488e-01
1.069259122014045715e-01
3.779725357890129089e-02
1.269152611494064331e-01
-2.855955660343170166e-01
1.848958316259086132e-03
-1.875006109476089478e-01
3.207121044397354126e-02
4.511073604226112366e-02
-2.018580213189125061e-02
3.003409802913665771e-01
-2.483786195516586304e-01
-2.056550532579421997e-01
3.260444402694702148e-01
8.009329438209533691e-02
5.174164846539497375e-02
-3.183283656835556030e-02
-8.478491008281707764e-02
-2.978182137012481689e-01
1.934799998998641968e-01
-3.438345491886138916e-01
-5.068168416619300842e-02
-1.203691884875297546e-01
1.264494806528091431e-01
-2.619930803775787354e-01
2.799319326877593994e-01
9.435116499662399292e-02
-1.395443230867385864e-01
4.598337113857269287e-01
1.450311392545700073e-01
-2.837975025177001953e-01
-2.378980964422225952e-01
-2.495673298835754395e-02
5.509434267878532410e-02
2.130317687988281250e-01
1.015296801924705505e-01
-2.544656991958618164e-01
-6.695902347564697266e-02
-3.355867043137550354e-02
3.414047360420227051e-01
8.252449333667755127e-03
1.302108317613601685e-01
1.835579127073287964e-01
-7.122594863176345825e-02
