5.780421495437622070e-01
-3.450109064579010010e-01
-1.471970379352569580e-01
8.771929144859313965e-02
-5.887962579727172852e-01
6.585473418235778809e-01
-1.561194509267807007e-01
2.202198803424835205e-01
3.300474584102630615e-01
-1.398183941841125488e+00
-2.809367887675762177e-02
2.457610070705413818e-01
1.193357929587364197e-01
-3.534324169158935547e-01
-9.473357349634170532e-02
-8.796732425689697266e-01
-6.051276251673698425e-02
5.562427639961242676e-02
3.550973534584045410e-01
7.866334915161132812e-01
-1.281312108039855957e-02
-1.587178587913513184e+00
6.241315975785255432e-02
-7.028647065162658691e-01
9.369559586048126221e-03
-6.408672928810119629e-01
2.308924645185470581e-01
9.406636953353881836e-01
-5.325068235397338867e-01
6.101840734481811523e-01
-4.993595555424690247e-02
1.340088695287704468e-01
4.598671495914459229e-01
-4.326351284980773926e-01
-4.302094280719757080e-01
-7.458407878875732422e-01
6.923789978027343750e-01
3.503828644752502441e-01
5.852039456367492676e-01
8.088689297437667847e-02
1.031218051910400391e+00
-1.001872181892395020e+00
7.217397689819335938e-01
-4.340201020240783691e-01
-4.917430877685546875e-01
5.769542455673217773e-01
-7.814463376998901367e-01
8.770258426666259766e-01
-5.507703423500061035e-01
3.250040411949157715e-01
-4.917786419391632080e-01
-3.178098499774932861e-01
6.153035759925842285e-01
-7.925156950950622559e-01
1.187510609626770020e+00
-1.806121692061424255e-02
1.620211750268936157e-01
-7.973223328590393066e-01
1.376891613006591797e+00
6.941840052604675293e-01
3.062598109245300293e-01
-2.626196146011352539e-01
-1.216590702533721924e-01
9.797201305627822876e-02
1.639604568481445312e-01
1.534670889377593994e-01
1.554685384035110474e-01
6.878525018692016602e-01
-2.105257362127304077e-01
-6.696276664733886719e-01
1.905045807361602783e-01
-8.731278777122497559e-02
7.291577011346817017e-02
-7.778482437133789062e-01
-5.576843395829200745e-02
1.360425204038619995e-01
4.379749298095703125e-01
1.564679145812988281e-01
9.378424286842346191e-02
5.595770478248596191e-01
-2.297791838645935059e-01
-1.702041476964950562e-01
-2.586838304996490479e-01
-3.816978633403778076e-01
7.753313779830932617e-01
-2.848693132400512695e-01
-7.053068280220031738e-02
3.618955910205841064e-01
-9.897688031196594238e-02
-3.651799261569976807e-01
1.120973348617553711e+00
2.884481549263000488e-01
1.485819071531295776e-01
-1.811828166246414185e-01
-2.557832300662994385e-01
-4.361681342124938965e-01
3.205526769161224365e-01
6.176990866661071777e-01
-3.930070102214813232e-01
-3.747641444206237793e-01
-2.043642848730087280e-01
2.112112343311309814e-01
3.766279220581054688e-01
2.772888839244842529e-01
-4.288201034069061279e-01
-1.270140409469604492e-01
3.601081669330596924e-01
2.074897661805152893e-02
4.397667199373245239e-02
3.545401990413665771e-02
-7.905643433332443237e-02
7.485210429877042770e-03
2.728611528873443604e-01
1.230206191539764404e-01
9.932041168212890625e-02
1.657928228378295898e-01
-2.757738530635833740e-01
2.672339975833892822e-01
-4.880309700965881348e-01
-6.156353950500488281e-01
-3.308789730072021484e-01
2.786058783531188965e-01
1.407500654458999634e-01
3.630792349576950073e-02
2.383074611425399780e-01
-2.751532793045043945e-01
6.707658991217613220e-03
-1.812165826559066772e-01
3.750215172767639160e-01
-1.163861677050590515e-01
6.036363542079925537e-02
1.791778355836868286e-01
-2.257091552019119263e-01
-7.299218326807022095e-02
-7.310507446527481079e-02
8.349514007568359375e-02
-2.720574438571929932e-01
2.514977157115936279e-01
-3.087049908936023712e-02
-4.493429958820343018e-01
-9.725341796875000000e-01
6.993345022201538086e-01
-2.095341533422470093e-01
7.201697230339050293e-01
3.844981193542480469e-01
-2.234150618314743042e-01
1.181614398956298828e-01
-1.168981194496154785e+00
3.795849978923797607e-01
7.080294489860534668e-01
1.293121427297592163e-01
1.775348186492919922e-01
-1.439597249031066895e+00
1.097669720649719238e+00
-3.164918720722198486e-01
5.423585698008537292e-02
-7.407474517822265625e-01
-2.146571576595306396e-01
-8.303704857826232910e-02
-4.605642855167388916e-01
2.878304719924926758e-01
-4.550992548465728760e-01
3.590857982635498047e-01
-2.342966049909591675e-01
-6.863877177238464355e-01
5.026645660400390625e-01
-4.572824835777282715e-01
3.790577352046966553e-01
-7.083305120468139648e-01
1.406457927078008652e-02
-6.042393445968627930e-01
-4.935631155967712402e-01
3.995857834815979004e-01
-3.821995854377746582e-01
5.665332078933715820e-01
6.161251068115234375e-01
4.313369095325469971e-01
-3.848592042922973633e-01
2.294124662876129150e-01
5.546127557754516602e-01
-1.686054021120071411e-01
-3.410530835390090942e-02
-1.097598314285278320e+00
-3.689666688442230225e-01
-8.117111772298812866e-02
5.609574541449546814e-02
6.981279850006103516e-01
-4.259466752409934998e-02
2.594939619302749634e-02
5.228517651557922363e-01
-1.765222847461700439e-01
-5.039690807461738586e-02
-3.616283833980560303e-02
2.874110639095306396e-01
-4.638395607471466064e-01
-5.732982754707336426e-01
1.019477367401123047e+00
-7.211099378764629364e-03
1.443129479885101318e-01
-3.593945875763893127e-02
3.752011656761169434e-01
-4.400593042373657227e-01
3.768735229969024658e-01
-1.088832691311836243e-01
9.342599660158157349e-02
2.201889455318450928e-01
-2.678351700305938721e-01
4.406912922859191895e-01
-1.126220226287841797e-01
-6.995473802089691162e-02
-1.211130097508430481e-01
-6.541614979505538940e-02
1.209659129381179810e-01
-4.791434407234191895e-01
3.781362771987915039e-01
3.763031661510467529e-01
-1.349020898342132568e-01
-3.753694891929626465e-01
1.837369948625564575e-01
2.629764378070831299e-01
-3.849768340587615967e-01
3.020818531513214111e-01
8.512635529041290283e-02
-2.119494080543518066e-01
-4.752976298332214355e-01
-2.517538070678710938e-01
-1.616185717284679413e-02
1.765174604952335358e-02
2.524674683809280396e-02
7.077839970588684082e-01
-7.281122803688049316e-01
-4.909915924072265625e-01
2.839733064174652100e-01
3.110070526599884033e-01
1.861593872308731079e-02
2.853825390338897705e-01
-2.159800231456756592e-01
-1.160248368978500366e-01
3.345073387026786804e-02
9.567275643348693848e-03
2.478538304567337036e-01
-4.522539079189300537e-01
1.160519570112228394e-01
-1.182254105806350708e-01
-5.986826866865158081e-02
3.605988919734954834e-01
-5.109229087829589844e-01
-2.447090484201908112e-02
-4.733206927776336670e-01
5.339941382408142090e-01
-4.567911848425865173e-02
2.068312466144561768e-02
3.068512678146362305e-01
1.161534413695335388e-01
4.106814563274383545e-01
-6.596700847148895264e-02
-1.010594293475151062e-01
-4.054014980792999268e-01
5.130954980850219727e-01
2.816817462444305420e-01
7.351106405258178711e-01
-2.194346040487289429e-01
-1.926200985908508301e-01
-7.128253579139709473e-01
-4.413656890392303467e-01
2.579172886908054352e-02
-1.280270665884017944e-01
5.627813935279846191e-01
-8.763057738542556763e-02
1.649372428655624390e-01
-4.636809229850769043e-01
-1.016772091388702393e-01
5.067182779312133789e-01
-4.801549017429351807e-01
-1.559929847717285156e-01
-3.675892949104309082e-02
5.428718328475952148e-01
-3.059165477752685547e-01
2.805738449096679688e-01
3.385845422744750977e-01
9.434349089860916138e-02
3.465696573257446289e-01
2.159550040960311890e-01
3.578771054744720459e-01
-2.227177098393440247e-02
-6.447144746780395508e-01
1.073257327079772949e-01
5.582429766654968262e-01
3.389100134372711182e-01
-2.902535796165466309e-01
1.081085111945867538e-02
1.897139549255371094e-01
7.001700252294540405e-02
-4.007273018360137939e-01
-5.685393884778022766e-02
-1.758770048618316650e-01
2.787513844668865204e-02
5.002508759498596191e-01
-8.873769640922546387e-01
1.533155441284179688e-01
4.768367856740951538e-02
1.260435022413730621e-02
4.554073214530944824e-01
-5.153321027755737305e-01
-5.611814558506011963e-02
-3.372486531734466553e-01
-3.443686962127685547e-01
8.854286074638366699e-01
-8.274114131927490234e-02
-3.142701461911201477e-02
-1.756116375327110291e-02
8.732758462429046631e-02
1.324206948280334473e+00
-8.190757632255554199e-01
7.791569232940673828e-01
-3.472371995449066162e-01
3.551701307296752930e-01
2.290497571229934692e-01
-6.108172703534364700e-03
1.437612175941467285e-01
-2.456815838813781738e-01
2.717270553112030029e-01
2.870245873928070068e-01
1.099662482738494873e-01
-3.496088087558746338e-01
-1.883095055818557739e-01
-1.243824660778045654e-01
2.448350787162780762e-01
9.589411318302154541e-02
-1.922818124294281006e-01
-9.635880589485168457e-02
-5.199716240167617798e-02
3.596489727497100830e-01
-2.249084711074829102e-01
5.028790235519409180e-02
2.314760908484458923e-02
-5.634606480598449707e-01
-6.695435941219329834e-02
-4.866824671626091003e-02
-3.408219516277313232e-01
2.818688452243804932e-01
-3.674860000610351562e-01
-7.792973518371582031e-02
1.331210285425186157e-01
-1.459414362907409668e-01
2.837559282779693604e-01
-2.336932569742202759e-01
-3.233470022678375244e-01
-2.560841739177703857e-01
7.659326791763305664e-01
-3.875837624073028564e-01
-1.478548198938369751e-01
4.737846180796623230e-02
4.153447747230529785e-01
3.191139698028564453e-01
4.903732538223266602e-01
5.226987600326538086e-01
-8.992961645126342773e-01
8.950950503349304199e-01
5.510029196739196777e-01
2.637885808944702148e-01
-5.782905817031860352e-01
4.462491273880004883e-01
4.743211716413497925e-02
1.659023314714431763e-01
3.596508502960205078e-01
-3.838103413581848145e-01
2.252335250377655029e-01
-1.976833939552307129e-01
-1.087392047047615051e-01
-2.147782295942306519e-01
1.706761121749877930e-02
2.179015725851058960e-01
-3.873156607151031494e-01
4.883408248424530029e-01
1.620130985975265503e-01
-2.678704559803009033e-01
-2.108278274536132812e-01
5.264315009117126465e-01
2.782789170742034912e-01
-2.981119453907012939e-01
-5.010837316513061523e-02
-1.564862430095672607e-01
-7.442495971918106079e-02
2.412697076797485352e-01
-1.725425273180007935e-01
3.164425790309906006e-01
3.263714909553527832e-01
4.906280338764190674e-02
-1.106522440910339355e+00
4.870068132877349854e-01
4.934389889240264893e-01
-7.423795759677886963e-02
-7.073363065719604492e-01
-9.717732667922973633e-02
-2.252098321914672852e-01
-1.542215496301651001e-01
7.405949831008911133e-01
-1.721399575471878052e-01
-3.053347468376159668e-01
2.601541876792907715e-01
-2.723795175552368164e-01
2.727904915809631348e-02
-2.287177443504333496e-01
2.860802114009857178e-01
-1.392410993576049805e-01
-8.557398617267608643e-02
6.228983402252197266e-01
2.812660932540893555e-01
-7.076796293258666992e-01
4.090214967727661133e-01
3.453494608402252197e-01
1.396641880273818970e-02
-1.024981617927551270e+00
1.209503337740898132e-01
-6.017818301916122437e-02
2.344757914543151855e-01
4.673695266246795654e-01
-7.104554772377014160e-02
2.859300971031188965e-01
3.082238435745239258e-01
-1.372206509113311768e-01
3.089876174926757812e-01
-4.838816821575164795e-03
4.152787104249000549e-02
6.352275013923645020e-01
-3.570286929607391357e-01
-1.555349528789520264e-01
-1.898171156644821167e-01
7.909677624702453613e-01
-1.108046025037765503e-01
-3.304327726364135742e-01
2.803379893302917480e-01
1.959741264581680298e-01
4.198827445507049561e-01
-4.835817590355873108e-02
3.571053147315979004e-01
-9.512017965316772461e-01
9.157477617263793945e-01
6.536776423454284668e-01
-3.699535429477691650e-01
5.380252003669738770e-01
-7.500671744346618652e-01
1.144420951604843140e-01
6.828029751777648926e-01
-4.037300646305084229e-01
1.749029457569122314e-01
-1.855254545807838440e-02
1.258095055818557739e-01
-8.654811978340148926e-01
8.736178278923034668e-01
1.007158279418945312e+00
-3.730339696630835533e-03
-1.922205388545989990e-01
-1.375608891248703003e-01
-3.317487835884094238e-01
1.107117086648941040e-01
2.349184453487396240e-01
-6.733200699090957642e-02
-1.385151743888854980e-01
3.902708292007446289e-01
-2.778005897998809814e-01
2.037196308374404907e-01
-3.384069204330444336e-01
-4.730117619037628174e-01
8.633661270141601562e-01
-4.011037349700927734e-01
3.393236100673675537e-01
1.876153945922851562e-01
5.334731340408325195e-01
1.085623279213905334e-01
-3.896384537220001221e-01
2.593544721603393555e-01
1.714840531349182129e-01
4.797504246234893799e-01
7.814047932624816895e-01
-5.570515394210815430e-01
2.246765792369842529e-02
5.083409547805786133e-01
-4.988806545734405518e-01
-2.934452295303344727e-01
9.920663237571716309e-01
2.857182025909423828e-01
1.295311450958251953e-01
-5.679322406649589539e-02
2.044711560010910034e-01
-1.395767807960510254e+00
3.994447886943817139e-01
1.053966283798217773e+00
2.014404058456420898e+00
-6.170391440391540527e-01
1.699622869491577148e-01
2.409936636686325073e-01
1.043823599815368652e+00
5.024912953376770020e-01
4.969852864742279053e-01
-1.664743423461914062e-01
-6.737112998962402344e-01
3.827388882637023926e-01
1.907137632369995117e-01
-2.551291286945343018e-01
-2.372506260871887207e-01
-3.218485116958618164e-01
-2.935214638710021973e-01
-2.712154090404510498e-01
1.685279235243797302e-02
-5.529736727476119995e-02
-1.155594959855079651e-01
4.194319844245910645e-01
-7.665015459060668945e-01
-6.703330576419830322e-02
-1.762874841690063477e+00
-6.078414320945739746e-01
-2.770959958434104919e-02
9.056622534990310669e-02
-7.677098512649536133e-01
-2.412115186452865601e-01
2.061219960451126099e-01
-1.252741813659667969e-01
-3.426551073789596558e-02
-6.088878512382507324e-01
-6.872786581516265869e-02
-1.180935859680175781e+00
-1.512042135000228882e-01
1.667504459619522095e-01
-2.471977621316909790e-01
2.371971905231475830e-01
-5.443653836846351624e-02
-2.776866964995861053e-02
-4.877097532153129578e-02
2.526615560054779053e-01
-2.234388291835784912e-01
-4.445169568061828613e-01
-9.211618900299072266e-01
-1.995899081230163574e-01
-3.371495306491851807e-01
2.087875604629516602e-01
-4.194309189915657043e-02
-3.440303504467010498e-01
3.220885396003723145e-01
8.326382935047149658e-02
-5.029224157333374023e-01
4.343110322952270508e-02
-8.026595711708068848e-01
-1.166225194931030273e+00
4.412889778614044189e-01
-4.568957686424255371e-01
4.721689522266387939e-01
2.431410402059555054e-01
2.676278948783874512e-01
-1.244242861866950989e-01
-4.632783830165863037e-01
3.723500370979309082e-01
2.316063493490219116e-01
2.801503837108612061e-01
3.602327704429626465e-01
-1.050433292984962463e-01
4.912025108933448792e-02
1.629338711500167847e-01
-5.197097659111022949e-01
-2.577136456966400146e-01
-2.790226042270660400e-01
7.510664314031600952e-02
-6.622245907783508301e-01
-3.969395458698272705e-01
8.328597992658615112e-02
-2.532783746719360352e-01
3.360508754849433899e-02
-5.053319782018661499e-02
-3.006457686424255371e-01
-1.919138431549072266e-01
-5.899035334587097168e-01
2.264094538986682892e-02
-5.290138348937034607e-02
1.010879948735237122e-01
7.285241782665252686e-02
-1.996932476758956909e-01
-9.388100355863571167e-03
3.272580206394195557e-01
-1.808686852455139160e-01
5.000596642494201660e-01
1.070010941475629807e-02
5.635268688201904297e-01
8.559152483940124512e-01
4.249625490047037601e-04
-1.571831256151199341e-01
-2.157059758901596069e-01
8.539080619812011719e-02
1.106301322579383850e-01
1.793695986270904541e-01
1.089043915271759033e-01
7.556359171867370605e-01
8.202824592590332031e-01
1.870254725217819214e-01
-3.835899010300636292e-02
2.163665741682052612e-01
5.971606075763702393e-02
5.734528303146362305e-01
-6.885996088385581970e-03
2.878215312957763672e-01
-6.305059194564819336e-01
-6.418728828430175781e-02
1.332611680030822754e+00
3.243400454521179199e-01
-5.748578161001205444e-02
-2.226649075746536255e-01
6.651941686868667603e-02
1.747028827667236328e-01
-1.230271458625793457e-01
1.525923758745193481e-01
-5.641149282455444336e-01
3.216029107570648193e-01
-5.388781428337097168e-02
1.853593438863754272e-01
4.550047963857650757e-02
2.457309365272521973e-01
1.438739597797393799e-01
-1.203664168715476990e-01
1.978324204683303833e-01
1.232796981930732727e-01
9.623411297798156738e-02
-4.409676790237426758e-01
1.908312916755676270e+00
-9.141670167446136475e-02
-1.153879016637802124e-01
5.252096652984619141e-01
-2.451324462890625000e-02
4.769860208034515381e-01
2.978735566139221191e-01
2.569189667701721191e-01
-1.449010614305734634e-02
-4.085966050624847412e-01
6.048185825347900391e-01
6.895574182271957397e-02
1.424972265958786011e-01
2.566046118736267090e-01
-2.988852858543395996e-01
-6.315211653709411621e-01
3.991824015974998474e-02
-2.913123667240142822e-01
5.407941937446594238e-01
8.807583153247833252e-02
-3.137950226664543152e-02
5.249272584915161133e-01
-4.673096165060997009e-02
1.134835034608840942e-01
-3.708362951874732971e-02
1.599005311727523804e-01
-3.361137509346008301e-01
-1.445593088865280151e-01
1.102110445499420166e-01
1.836088746786117554e-01
-2.404137700796127319e-01
-2.143843322992324829e-01
-2.318245768547058105e-01
-1.750820279121398926e-01
1.142358630895614624e-01
1.192569732666015625e+00
-1.145998612046241760e-01
1.289509385824203491e-01
-3.543024361133575439e-01
-7.038667052984237671e-02
3.320598900318145752e-01
-3.987245261669158936e-01
-6.758372187614440918e-01
-5.983806774020195007e-02
9.429613500833511353e-02
-5.398635938763618469e-02
4.588279128074645996e-01
6.959295272827148438e-02
-4.121704399585723877e-01
4.540372192859649658e-01
3.754333406686782837e-02
9.925339818000793457e-01
4.004805982112884521e-01
1.275362074375152588e-01
-6.113404035568237305e-01
-7.776362448930740356e-02
4.111961722373962402e-01
-3.913634121417999268e-01
3.472538888454437256e-01
1.260187506675720215e+00
-4.493494331836700439e-01
6.143576651811599731e-02
1.269888877868652344e-01
-3.348394036293029785e-01
-4.187686443328857422e-01
-2.196655124425888062e-01
-8.579271435737609863e-01
-2.194266170263290405e-01
3.214482069015502930e-01
3.638626933097839355e-01
-2.136589288711547852e-01
-2.636719942092895508e-01
-4.329878985881805420e-01
-3.980518281459808350e-01
8.948045372962951660e-01
4.331397116184234619e-01
-1.445951163768768311e-01
5.622646212577819824e-01
-3.753461539745330811e-01
-1.184548258781433105e+00
6.397013664245605469e-01
-2.744064293801784515e-02
-9.645071625709533691e-01
5.221145749092102051e-01
3.667159676551818848e-01
6.042593121528625488e-01
8.526389002799987793e-01
-1.330561004579067230e-02
-4.992600381374359131e-01
1.240324527025222778e-01
1.285799890756607056e-01
4.777670800685882568e-01
3.381249904632568359e-01
3.438193500041961670e-01
-5.481906533241271973e-01
-1.718484610319137573e-01
3.921377360820770264e-01
-6.892918944358825684e-01
9.185144901275634766e-01
-1.182122230529785156e-01
-1.725116074085235596e-01
-2.975231707096099854e-01
-2.627700865268707275e-01
3.770955204963684082e-01
-1.636120229959487915e-01
1.015120595693588257e-01
2.022378519177436829e-02
-6.206163167953491211e-01
1.705478131771087646e-01
-5.238828808069229126e-02
2.890487909317016602e-01
2.889706194400787354e-01
2.850804030895233154e-01
1.675506681203842163e-01
1.850929260253906250e-01
8.638839125633239746e-01
2.416436821222305298e-01
-2.242814004421234131e-01
3.162843883037567139e-01
-7.195574045181274414e-02
-1.478984504938125610e-01
1.459378898143768311e-01
-9.593859314918518066e-01
-4.827269539237022400e-02
4.704588651657104492e-01
-3.256307914853096008e-02
1.003721430897712708e-01
-1.338635683059692383e-01
7.470535039901733398e-01
1.436364054679870605e-01
-1.999851129949092865e-02
-2.129652053117752075e-01
-6.927530765533447266e-01
-4.332871362566947937e-02
1.131513237953186035e+00
4.642892777919769287e-01
-5.627613663673400879e-01
4.287275969982147217e-01
-4.965943098068237305e-01
-3.910720050334930420e-01
8.966740369796752930e-01
-2.807627059519290924e-02
-2.456432431936264038e-01
1.140937209129333496e-01
-2.335531711578369141e-01
1.591029912233352661e-01
-1.299592703580856323e-01
-8.342117816209793091e-02
-4.764438867568969727e-01
1.345912814140319824e-01
6.950900703668594360e-02
2.417518347501754761e-01
1.573554724454879761e-01
9.187939763069152832e-02
1.721938699483871460e-02
-2.821987271308898926e-01
-9.528213739395141602e-02
-6.413435935974121094e-02
-9.213242530822753906e-01
1.230421289801597595e-01
8.608783483505249023e-01
-2.707422524690628052e-02
-8.855923414230346680e-01
1.799880899488925934e-02
-4.727365374565124512e-01
3.633231297135353088e-02
5.548052787780761719e-01
-8.314183354377746582e-02
-5.770745873451232910e-01
1.538405194878578186e-02
1.686116158962249756e-01
7.411737442016601562e-01
5.178661346435546875e-01
3.011370897293090820e-01
-1.577744185924530029e-01
-6.061362624168395996e-01
2.601556479930877686e-01
-3.140014410018920898e-01
4.172924160957336426e-01
3.547389209270477295e-01
-2.961766421794891357e-01
2.848751246929168701e-01
-1.163796521723270416e-02
-1.010468676686286926e-01
2.042119950056076050e-01
9.082098305225372314e-02
-5.077901482582092285e-01
3.759048506617546082e-02
3.708751499652862549e-01
1.395573168992996216e-01
-1.434847805649042130e-02
-1.606918126344680786e-01
-5.302163958549499512e-01
-3.183440491557121277e-02
1.171152472496032715e+00
4.351907968521118164e-01
-1.554912626743316650e-01
1.750181317329406738e-01
-2.024057149887084961e+00
1.746463775634765625e-01
1.029280424118041992e-01
-8.431194350123405457e-03
-4.484386369585990906e-02
-1.489194333553314209e-01
5.903957411646842957e-02
-7.563590258359909058e-02
4.831181466579437256e-01
2.697483599185943604e-01
-9.459723532199859619e-02
-9.103035181760787964e-02
8.725399523973464966e-02
-9.176788479089736938e-02
2.123486399650573730e-01
-1.092956736683845520e-01
-2.220726013183593750e-01
-7.569376826286315918e-01
1.086768209934234619e-01
-2.306551635265350342e-01
3.505652248859405518e-01
2.434284836053848267e-01
-5.318495631217956543e-01
2.670146822929382324e-01
2.097874402999877930e+00
-5.118559002876281738e-01
-2.885732799768447876e-02
-2.514055371284484863e-01
1.074500828981399536e-01
2.599520087242126465e-01
3.333973884582519531e-01
2.379715442657470703e-02
-1.003611758351325989e-01
-5.058129429817199707e-01
-4.523958563804626465e-01
-2.484484463930130005e-01
-9.298103302717208862e-02
-3.774772956967353821e-02
-4.525221884250640869e-01
4.972573742270469666e-02
-1.356143206357955933e-01
1.288365013897418976e-02
7.854353785514831543e-01
7.260962128639221191e-01
9.684716910123825073e-02
-7.381432503461837769e-02
-3.451003879308700562e-02
-3.322058916091918945e-01
-4.257472977042198181e-02
2.163691371679306030e-01
-9.544987678527832031e-01
3.220182657241821289e-01
6.152628064155578613e-01
-2.358463406562805176e-02
-2.812063694000244141e-01
-2.091274783015251160e-02
3.438688516616821289e-01
2.381303459405899048e-01
-3.516117930412292480e-01
4.544780403375625610e-02
4.830972552299499512e-01
-2.260511815547943115e-01
-4.419705644249916077e-02
5.622248649597167969e-01
4.236197471618652344e-01
-1.791570931673049927e-01
1.786936968564987183e-01
4.388959109783172607e-01
-1.951764710247516632e-02
1.096460297703742981e-01
-4.551567602902650833e-03
6.980321407318115234e-01
4.459675550460815430e-01
-1.175860688090324402e-01
6.672634184360504150e-02
1.360017359256744385e-01
-2.696791887283325195e-01
1.111302003264427185e-01
-6.014266014099121094e-01
-3.300836682319641113e-02
6.333555281162261963e-02
5.405008792877197266e-01
-1.297846138477325439e-01
-9.193442016839981079e-02
5.319430828094482422e-01
-1.316506624221801758e+00
-3.028006255626678467e-01
-2.450079424306750298e-03
-5.046310424804687500e-01
4.317303001880645752e-01
4.142995551228523254e-02
1.977640092372894287e-01
2.511631846427917480e-01
-6.686118245124816895e-02
-3.502209484577178955e-02
2.130628675222396851e-01
7.725293934345245361e-02
2.099206596612930298e-01
-6.626326590776443481e-02
-6.542894244194030762e-01
1.936141401529312134e-01
1.086193695664405823e-01
-4.974147081375122070e-01
5.829349160194396973e-01
7.875545024871826172e-01
-5.321996808052062988e-01
9.481967985630035400e-02
5.882664322853088379e-01
-3.227866291999816895e-01
8.606158494949340820e-01
-2.948195934295654297e-01
1.140623092651367188e-01
1.893788874149322510e-01
1.077628228813409805e-02
9.843712300062179565e-02
5.301380753517150879e-01
-8.182457089424133301e-02
-2.641575634479522705e-01
-2.461621165275573730e-01
-1.469906419515609741e-01
-1.756676658987998962e-02
6.766048073768615723e-01
1.207758113741874695e-01
1.261382102966308594e-01
3.038803339004516602e-01
-3.245132267475128174e-01
-3.461966812610626221e-01
-3.876568982377648354e-03
-3.449434638023376465e-01
2.913620173931121826e-01
2.912711203098297119e-01
-2.029122263193130493e-01
-7.192050218582153320e-01
1.100336387753486633e-01
-5.350174382328987122e-02
-4.545859992504119873e-02
1.998164504766464233e-01
1.465474486351013184e+00
-2.133565694093704224e-01
-1.265097498893737793e+00
-7.400320172309875488e-01
-2.534557878971099854e-01
6.922893971204757690e-02
-4.173141121864318848e-01
-3.419543802738189697e-01
3.523288667201995850e-01
4.935738816857337952e-02
-2.596768140792846680e-01
3.005386292934417725e-01
-4.040383398532867432e-01
2.746689915657043457e-01
-3.775319755077362061e-01
-3.084065318107604980e-01
2.975590825080871582e-01
2.704442441463470459e-01
-2.693568766117095947e-01
2.875864505767822266e-01
2.191917300224304199e-01
3.489285409450531006e-01
-6.622146070003509521e-02
7.943572849035263062e-02
-1.849590241909027100e-02
-1.059729233384132385e-01
2.867311537265777588e-01
-7.307519018650054932e-02
-6.631232053041458130e-02
-5.591275095939636230e-01
4.428304731845855713e-01
-1.854125112295150757e-01
-1.965929716825485229e-01
-2.442899644374847412e-01
4.347045421600341797e-01
1.767657160758972168e+00
-2.271763682365417480e-01
1.055872514843940735e-01
3.031887412071228027e-01
-7.658582180738449097e-02
-1.275831818580627441e+00
-8.535520732402801514e-02
-4.691006541252136230e-01
-5.314800143241882324e-01
-2.792514860630035400e-02
3.871689438819885254e-01
-4.938667118549346924e-01
-1.039402127265930176e+00
-2.541518211364746094e-01
2.422577440738677979e-01
-5.709652900695800781e-01
4.253644943237304688e-01
-1.258422017097473145e+00
5.643262863159179688e-01
-2.309139817953109741e-01
-3.827230632305145264e-01
8.000814318656921387e-01
6.121477577835321426e-03
-5.586565136909484863e-01
8.381951451301574707e-01
2.708640992641448975e-01
4.310015439987182617e-01
-1.059519946575164795e-01
6.804864108562469482e-02
-2.764433622360229492e-01
-3.870662450790405273e-01
2.348406612873077393e-01
5.779243707656860352e-01
-2.582785114645957947e-02
-1.889702379703521729e-01
2.257603108882904053e-01
-7.804223895072937012e-01
3.985792696475982666e-01
-5.306919813156127930e-01
3.448389172554016113e-01
6.988910436630249023e-01
-6.462715268135070801e-01
2.346982993185520172e-02
1.445584893226623535e-01
-8.206679821014404297e-01
-2.333008795976638794e-01
-7.570301890373229980e-01
-1.729085892438888550e-01
-2.253075391054153442e-01
-1.960672140121459961e-01
-3.955767452716827393e-01
5.070954561233520508e-01
6.522104889154434204e-02
-2.041490823030471802e-01
2.332921475172042847e-01
7.324292510747909546e-02
3.955169618129730225e-01
-2.772784531116485596e-01
-1.599052846431732178e-01
-8.284313231706619263e-02
2.013146400451660156e+00
3.586165010929107666e-01
3.494700491428375244e-01
1.292046755552291870e-01
1.905439496040344238e-01
-3.823338449001312256e-01
-5.268763899803161621e-01
-1.289411485195159912e-01
-1.075472608208656311e-01
-9.788829684257507324e-01
-1.107935532927513123e-01
-7.286483794450759888e-02
-2.512225881218910217e-02
1.696092486381530762e+00
3.265668824315071106e-02
-3.603936433792114258e-01
-3.151243329048156738e-01
2.199910581111907959e-01
4.256086349487304688e-01
-2.030754275619983673e-02
1.102735519409179688e+00
-1.475899666547775269e-01
-4.046707749366760254e-01
-1.972811371088027954e-01
-4.290723800659179688e-02
-2.445765137672424316e-01
-2.908258736133575439e-01
-1.623322248458862305e+00
4.912585914134979248e-01
-1.999555826187133789e-01
-1.415896862745285034e-01
6.001307964324951172e-01
7.364864945411682129e-01
-4.218251258134841919e-02
-2.832022607326507568e-01
2.406088113784790039e-01
-3.720576465129852295e-01
6.598763465881347656e-01
-3.359233438968658447e-01
4.905711710453033447e-01
2.991738617420196533e-01
-3.085474073886871338e-01
1.335909217596054077e-01
3.586065471172332764e-01
-4.631724655628204346e-01
-3.045749664306640625e-01
-4.713231921195983887e-01
-3.835666179656982422e-02
5.989276245236396790e-02
-9.350425004959106445e-02
-2.553628981113433838e-01
1.631234437227249146e-01
-7.764269411563873291e-02
7.533609867095947266e-02
3.556368872523307800e-02
3.688265979290008545e-01
4.808192551136016846e-01
-1.464539859443902969e-02
-4.690404534339904785e-01
2.724070847034454346e-01
-2.686514616012573242e+00
5.679148435592651367e-02
-9.196892380714416504e-02
3.282766938209533691e-01
-2.467124760150909424e-01
5.669930577278137207e-02
8.873460814356803894e-03
-3.922268152236938477e-01
2.646622359752655029e-01
1.022068504244089127e-02
-1.822569668292999268e-01
3.846913874149322510e-01
1.998395770788192749e-01
6.485633552074432373e-02
1.962894350290298462e-01
2.718050181865692139e-01
-6.856742501258850098e-01
5.141875743865966797e-01
8.437255397439002991e-03
3.079456984996795654e-01
-2.438917636871337891e+00
-3.637172579765319824e-01
3.985504508018493652e-01
2.457613497972488403e-01
-1.235738396644592285e-01
6.774972677230834961e-01
-3.429512679576873779e-01
4.449323117733001709e-01
-4.656440019607543945e-01
2.172183096408843994e-01
2.991375923156738281e-01
-1.369948089122772217e-01
9.076130390167236328e-02
-1.156619071960449219e+00
-3.860858976840972900e-01
-3.428171277046203613e-01
6.071671470999717712e-02
-1.591165512800216675e-01
2.168108150362968445e-02
-1.816162765026092529e-01
1.997497528791427612e-01
-1.520219147205352783e-01
-1.700444966554641724e-01
-2.741914093494415283e-01
3.414405286312103271e-01
1.807117313146591187e-01
-3.275207877159118652e-01
-1.594384759664535522e-01
-2.977709174156188965e-01
-2.843230776488780975e-02
2.918555215001106262e-02
-1.821571774780750275e-02
2.241300791501998901e-02
1.074051380157470703e+00
3.999927937984466553e-01
1.404835134744644165e-01
-6.315010190010070801e-01
3.629985451698303223e-02
-8.805007487535476685e-02
-2.269545495510101318e-01
3.547062575817108154e-01
-4.309848845005035400e-01
8.289210796356201172e-01
6.362739205360412598e-02
-6.990104913711547852e-02
-2.865200638771057129e-01
-3.594353049993515015e-02
5.186595916748046875e-01
-1.379850953817367554e-01
5.366855859756469727e-01
2.411744790151715279e-04
-1.241948530077934265e-01
9.697435423731803894e-03
-7.734633237123489380e-02
-8.650816082954406738e-01
6.373953819274902344e-02
-2.176643162965774536e-01
7.797387987375259399e-02
2.547727823257446289e-01
2.242763489484786987e-01
-2.495844662189483643e-02
-3.996930420398712158e-01
-1.343408703804016113e+00
8.283299207687377930e-02
-1.053617820143699646e-01
-5.114870518445968628e-02
1.134955763816833496e+00
-8.206233978271484375e-01
-3.544163107872009277e-01
3.758265376091003418e-01
-1.138625964522361755e-01
2.801131010055541992e-01
1.021130323410034180e+00
-5.309501290321350098e-01
-1.401780098676681519e-01
3.125185668468475342e-01
-2.174135446548461914e-01
2.100544571876525879e-01
-1.369072645902633667e-01
1.361603736877441406e-01
-4.258055239915847778e-02
-2.651030421257019043e-01
4.408684074878692627e-01
4.224509000778198242e-01
-1.085342168807983398e-01
-1.356786042451858521e-01
-7.758469134569168091e-02
-4.986461699008941650e-01
-1.360325962305068970e-01
-8.017641901969909668e-01
-5.032963752746582031e-01
8.809459805488586426e-01
-1.251344978809356689e-01
-6.302980780601501465e-01
3.142404258251190186e-01
-2.469983398914337158e-01
5.260936617851257324e-01
-3.701053559780120850e-01
2.778479754924774170e-01
3.110376298427581787e-01
2.322465926408767700e-01
3.175179362297058105e-01
6.393494606018066406e-01
-1.744974553585052490e-01
3.514695167541503906e-01
1.210288330912590027e-01
-1.140445828437805176e+00
3.239662647247314453e-01
4.221407771110534668e-01
-1.041393876075744629e-01
-3.260487616062164307e-01
2.283372282981872559e-01
3.297250270843505859e-01
1.810734122991561890e-01
2.711845934391021729e-01
1.009106755256652832e+00
-2.188408076763153076e-01
1.067418009042739868e-01
-2.325930744409561157e-01
5.130978822708129883e-01
4.598339498043060303e-01
-4.644452035427093506e-01
5.426305532455444336e-01
3.344602286815643311e-01
-4.164371490478515625e-01
-6.502044945955276489e-02
-1.312655955553054810e-01
1.150808259844779968e-01
1.097251549363136292e-01
-4.856392145156860352e-01
-1.616872032172977924e-03
1.094633415341377258e-01
-2.240575104951858521e-02
2.598761953413486481e-02
3.637442290782928467e-01
3.298126161098480225e-01
3.441317975521087646e-01
-1.594060957431793213e-01
-1.657130867242813110e-01
1.710036993026733398e-01
4.315512478351593018e-01
3.096877038478851318e-01
-4.384396374225616455e-01
-3.091918230056762695e-01
2.080702781677246094e-02
-2.243948876857757568e-01
5.086570382118225098e-01
2.791641354560852051e-01
4.192689359188079834e-01
-8.337765932083129883e-02
-2.990465164184570312e-01
4.200983047485351562e-01
5.002354383468627930e-01
1.988935172557830811e-01
-5.635026469826698303e-02
3.125070035457611084e-01
-4.816513955593109131e-01
7.156674265861511230e-01
-1.203613430261611938e-01
3.700973689556121826e-01
6.169074177742004395e-01
-1.008553147315979004e+00
-9.833720326423645020e-02
4.028774201869964600e-01
-7.273509502410888672e-01
-3.158533275127410889e-01
-5.473435521125793457e-01
-2.535959482192993164e-01
-5.335721373558044434e-02
3.064181208610534668e-01
-5.213462561368942261e-02
-1.730999499559402466e-01
3.359214961528778076e-01
-2.870512306690216064e-01
3.518432378768920898e-01
1.496284604072570801e-01
-3.168266713619232178e-01
6.172809600830078125e-01
1.556936353445053101e-01
-8.988076448440551758e-02
-1.695763170719146729e-01
1.110484600067138672e-01
-3.596426919102668762e-02
3.450034558773040771e-01
-3.113395720720291138e-02
4.876832962036132812e-01
1.498393863439559937e-01
8.999088406562805176e-02
-1.626680254936218262e+00
-3.481858223676681519e-02
9.855048358440399170e-02
3.935250341892242432e-01
4.952856898307800293e-01
-3.717396035790443420e-02
6.547512486577033997e-03
1.055598706007003784e-01
3.610836267471313477e-01
1.751555800437927246e-01
1.874948292970657349e-01
1.390966475009918213e-01
-6.473443508148193359e-01
4.496062695980072021e-01
-5.564257502555847168e-01
-5.527054667472839355e-01
2.689107656478881836e-01
4.339226782321929932e-01
-8.137547224760055542e-02
3.696276247501373291e-01
-9.783729910850524902e-02
1.321913152933120728e-01
-5.320603251457214355e-01
-6.000798195600509644e-02
1.151260063052177429e-01
-6.449589133262634277e-02
-2.382849007844924927e-01
3.296472728252410889e-01
-6.206990480422973633e-01
1.433097124099731445e-01
6.913177371025085449e-01
-4.208046495914459229e-01
-9.169043973088264465e-03
-4.633570313453674316e-01
3.745478093624114990e-01
-8.107596635818481445e-02
-9.860026091337203979e-02
3.720623552799224854e-01
2.517144680023193359e-01
-7.431878149509429932e-02
5.647976398468017578e-01
1.880169957876205444e-01
-1.181415691971778870e-01
9.106327593326568604e-02
4.314167499542236328e-01
-8.110555261373519897e-02
2.278629392385482788e-01
1.558136582374572754e+00
-1.669317722320556641e+00
1.843480914831161499e-01
5.534562468528747559e-02
-1.763947457075119019e-01
-3.337410092353820801e-01
-3.670424222946166992e-02
-1.110906340181827545e-02
2.586024403572082520e-01
4.523445069789886475e-01
4.056011438369750977e-01
1.705647259950637817e-01
1.399149000644683838e-01
2.086243152618408203e+00
-1.712403893470764160e-01
3.500266373157501221e-02
2.781490795314311981e-02
-1.576994359493255615e-01
3.841426968574523926e-02
-3.783549964427947998e-01
1.128263920545578003e-01
8.378589153289794922e-01
-4.563128054141998291e-01
-7.287342846393585205e-02
1.810530573129653931e-01
2.982062101364135742e-01
2.453339099884033203e-01
9.287945628166198730e-01
2.543012201786041260e-01
-7.648898959159851074e-01
-4.873831272125244141e-01
-1.205460652709007263e-01
-2.065947800874710083e-01
-2.684811949729919434e-01
-3.706148266792297363e-01
-1.139122843742370605e-01
-1.305342763662338257e-01
9.808690845966339111e-02
1.399250030517578125e-01
-4.586654528975486755e-02
-5.458211898803710938e-01
-2.622732877731323242e+00
5.647106096148490906e-02
2.156319618225097656e-01
3.331269025802612305e-01
-2.671724855899810791e-01
5.026101320981979370e-02
-3.460977599024772644e-02
-2.526895701885223389e-01
8.920977264642715454e-02
7.545827329158782959e-02
5.708784461021423340e-01
-4.544816613197326660e-01
-9.325131773948669434e-03
-2.849558368325233459e-02
3.122756779193878174e-01
2.093146890401840210e-01
1.945766434073448181e-02
2.165073752403259277e-01
-1.546281725168228149e-01
3.006906211376190186e-01
4.914971292018890381e-01
2.279321402311325073e-01
1.220409154891967773e+00
-1.464350223541259766e-01
-1.093900650739669800e-01
-1.710609048604965210e-01
3.941711485385894775e-01
-2.050295025110244751e-01
5.731068253517150879e-01
-4.212151467800140381e-02
3.024283051490783691e-01
-4.748416543006896973e-01
1.495358347892761230e+00
2.927614748477935791e-01
3.899573683738708496e-01
-5.162417292594909668e-01
1.483199000358581543e-02
1.821939945220947266e-01
-2.763006687164306641e-01
6.957858204841613770e-01
4.864847362041473389e-01
-1.663352549076080322e-01
-7.965674623847007751e-03
-1.257165241986513138e-02
-1.760221719741821289e-01
1.378422677516937256e-01
-2.625944316387176514e-01
5.696293115615844727e-01
3.313008248805999756e-01
1.415186077356338501e-01
-3.338649868965148926e-01
-5.632005333900451660e-01
1.614284813404083252e-01
-4.263847693800926208e-02
6.456769108772277832e-01
-4.743474349379539490e-02
-3.387242555618286133e-01
-1.595232039690017700e-01
-2.647116035223007202e-02
-3.131236433982849121e-01
1.185135722160339355e+00
-3.270845115184783936e-01
-3.427817821502685547e-01
4.511274695396423340e-01
3.208323121070861816e-01
-2.998987734317779541e-01
3.213656842708587646e-01
2.845156379044055939e-02
1.573922112584114075e-02
-3.818679749965667725e-01
-4.028644859790802002e-01
8.168009668588638306e-02
-9.193898737430572510e-02
9.377004206180572510e-02
4.214968979358673096e-01
-2.066064924001693726e-01
-3.196322321891784668e-01
-8.358187973499298096e-02
-1.529968231916427612e-01
-3.505219221115112305e-01
1.017230749130249023e+00
-3.554295375943183899e-02
-3.237613737583160400e-01
2.903383374214172363e-01
1.187926828861236572e-01
5.904826894402503967e-02
3.843971788883209229e-01
-1.141202896833419800e-01
-9.402293711900711060e-02
-4.371774792671203613e-01
4.456299245357513428e-01
-3.853651881217956543e-02
-1.059173196554183960e-01
-9.076277166604995728e-02
-6.403994560241699219e-01
4.974686726927757263e-02
-1.440040767192840576e-01
-1.303827296942472458e-02
4.704813007265329361e-03
-3.598669469356536865e-01
9.577331691980361938e-02
-3.608172759413719177e-02
7.907324284315109253e-02
7.287330627441406250e-01
-2.233651131391525269e-01
6.893245577812194824e-01
3.476748988032341003e-02
-1.996723562479019165e-01
-2.076927758753299713e-02
-3.513246774673461914e-02
-1.691080331802368164e-01
-3.483320772647857666e-02
-1.014779284596443176e-01
-1.421538293361663818e-01
1.300182491540908813e-01
-3.563201799988746643e-02
-3.886898756027221680e-01
7.759394496679306030e-02
-1.942698806524276733e-01
-7.758811116218566895e-01
1.145124912261962891e+00
-4.253399074077606201e-01
-4.479687288403511047e-02
3.312338292598724365e-01
1.071102619171142578e-01
2.979623712599277496e-02
1.060961782932281494e-01
-7.444588840007781982e-02
-9.838176518678665161e-02
-2.714093625545501709e-01
-3.439909815788269043e-01
1.442731916904449463e-01
-4.102157428860664368e-02
-2.033463716506958008e-01
-3.912653028964996338e-01
-2.042490839958190918e-01
-5.348173975944519043e-01
6.403060257434844971e-02
-3.058078289031982422e-01
-9.607117772102355957e-01
9.729350209236145020e-01
-1.334873735904693604e-01
-1.382338285446166992e+00
4.045581221580505371e-01
1.248733699321746826e-01
3.343423306941986084e-01
2.640482783317565918e-01
-6.130497157573699951e-02
-4.964199662208557129e-01
-1.383133381605148315e-01
3.668209910392761230e-02
-6.386456638574600220e-02
-1.419574916362762451e-01
3.068746300414204597e-03
1.151941120624542236e-01
2.469049096107482910e-01
-1.039631366729736328e+00
-3.847809508442878723e-02
1.484258938580751419e-02
-8.387506604194641113e-01
5.267470479011535645e-01
-2.289841473102569580e-01
-8.756836503744125366e-02
3.849300742149353027e-01
-1.768950000405311584e-02
-1.563964039087295532e-01
-1.596735045313835144e-02
-1.880099996924400330e-02
-2.111140191555023193e-01
-3.001477718353271484e-01
2.415164560079574585e-01
1.664962917566299438e-01
3.407766819000244141e-01
4.931901991367340088e-01
-2.086110264062881470e-01
-5.083868503570556641e-01
7.845944166183471680e-02
4.915754776448011398e-03
8.846756815910339355e-02
-2.876270413398742676e-01
-1.038855239748954773e-01
3.573483526706695557e-01
-2.357306890189647675e-02
-2.964993119239807129e-01
9.806298464536666870e-02
1.943582743406295776e-01
-3.865999728441238403e-02
4.665884673595428467e-01
-6.196380779147148132e-02
-1.128397695720195770e-02
-1.841085404157638550e-02
-4.079647827893495560e-03
-6.586995124816894531e-01
-1.223127841949462891e-01
-5.324684381484985352e-01
5.439053177833557129e-01
7.453176379203796387e-01
-7.454249262809753418e-02
2.519889175891876221e-01
3.941614031791687012e-01
-1.176993489265441895e+00
1.717870384454727173e-01
6.800267100334167480e-01
-3.326371312141418457e-01
-1.087277680635452271e-01
-1.755720078945159912e-01
-1.076293066143989563e-01
-2.787889838218688965e-01
-9.045516140758991241e-03
3.727877438068389893e-01
3.437647819519042969e-01
-2.376868724822998047e-01
-1.705336123704910278e-01
1.133870959281921387e+00
-8.966242074966430664e-01
-5.942363291978836060e-02
-3.229552507400512695e-01
-6.452733278274536133e-01
2.772947549819946289e-01
1.751702427864074707e-01
-6.746662259101867676e-01
3.730434179306030273e-01
1.369416117668151855e+00
-9.303345680236816406e-01
-6.408546864986419678e-02
-2.856383845210075378e-02
1.162776798009872437e-01
2.681042850017547607e-01
-5.680916458368301392e-02
1.540442556142807007e-01
4.252015147358179092e-03
4.816360175609588623e-01
-4.215480387210845947e-01
2.211453020572662354e-01
-3.325857594609260559e-02
1.369504909962415695e-02
1.026114150881767273e-01
1.398360133171081543e-01
7.547061890363693237e-02
4.045018255710601807e-01
1.078760862350463867e+00
1.748678684234619141e-01
-4.646265208721160889e-01
-3.559201657772064209e-01
-3.747494891285896301e-02
-5.161657929420471191e-02
-5.201764702796936035e-01
8.528684824705123901e-02
7.919054031372070312e-01
9.344851225614547729e-02
-8.893091231584548950e-02
-1.482327133417129517e-01
-4.783292114734649658e-01
7.586900591850280762e-01
-7.765555381774902344e-02
-1.353317499160766602e-02
4.505609571933746338e-01
-6.781649589538574219e-01
6.145433187484741211e-01
4.679277539253234863e-01
-9.063293784856796265e-02
7.217657566070556641e-01
-2.404630631208419800e-01
-1.635900288820266724e-01
-3.874517679214477539e-01
6.740389019250869751e-02
-2.984059453010559082e-01
4.071504175662994385e-01
6.074177473783493042e-02
5.825036764144897461e-01
-7.731371521949768066e-01
7.199993133544921875e-01
4.658578634262084961e-01
1.436913311481475830e-01
5.312369465827941895e-01
5.633957982063293457e-01
-7.592138051986694336e-01
3.204830884933471680e-01
-1.512912064790725708e-01
-9.152083396911621094e-01
-2.138229012489318848e-01
-1.619214713573455811e-01
6.703507304191589355e-01
1.398492902517318726e-01
3.243416547775268555e-01
-5.309548974037170410e-01
6.925621032714843750e-01
3.299327939748764038e-02
-2.859177589416503906e-01
-3.143408000469207764e-01
-3.857135772705078125e-02
-1.209171265363693237e-01
-4.083644151687622070e-01
-1.500825732946395874e-01
-1.182179600000381470e-01
8.057620376348495483e-02
-1.147215962409973145e-01
4.057863652706146240e-01
-1.318485438823699951e-01
-3.042982816696166992e-01
-4.285624250769615173e-02
-1.427559852600097656e-01
-1.217539429664611816e+00
-5.427625030279159546e-02
3.504340946674346924e-01
-1.507247239351272583e-01
-9.803590774536132812e-01
-4.378189444541931152e-01
3.109407424926757812e-01
-2.419440746307373047e-01
4.032183438539505005e-02
-2.368950545787811279e-01
6.271280050277709961e-01
2.540951967239379883e-01
5.319566726684570312e-01
-5.145857930183410645e-01
1.291200518608093262e-01
1.687021404504776001e-01
3.306322991847991943e-01
-2.103400677442550659e-01
-1.220089942216873169e-01
-4.204862117767333984e-01
-2.144058048725128174e-01
3.679265081882476807e-02
-3.206986486911773682e-01
-2.701097168028354645e-02
2.365612983703613281e-01
-6.942983716726303101e-02
1.277868002653121948e-01
1.889001876115798950e-01
-3.091445378959178925e-02
-4.695561230182647705e-01
4.221105277538299561e-01
-1.594209820032119751e-01
-5.792517662048339844e-01
5.622076392173767090e-01
-2.010692805051803589e-01
4.394921287894248962e-02
-6.798518896102905273e-01
2.674069106578826904e-01
6.457189917564392090e-01
3.909958004951477051e-01
2.197107821702957153e-01
8.392540812492370605e-01
6.261438131332397461e-01
-5.953073874115943909e-02
-5.638376250863075256e-02
2.545647919178009033e-01
-4.552228748798370361e-01
9.261585026979446411e-02
-4.851803183555603027e-02
1.543781161308288574e-01
6.086794734001159668e-01
-4.366299510002136230e-01
-6.500003933906555176e-01
1.335829734802246094e+00
-1.280599236488342285e-01
1.858371198177337646e-01
7.664165645837783813e-02
6.445152163505554199e-01
5.137325525283813477e-01
7.727511972188949585e-02
4.307119846343994141e-01
4.728035330772399902e-01
4.062758684158325195e-01
7.769203931093215942e-02
-6.059014201164245605e-01
9.000231623649597168e-01
-1.549567580223083496e-01
-1.892360895872116089e-01
1.930496692657470703e-01
-8.581076562404632568e-02
-9.589619636535644531e-01
-1.192104369401931763e-01
-6.191412210464477539e-01
5.995901226997375488e-01
6.573447585105895996e-02
-1.160435974597930908e-01
5.878937244415283203e-01
3.933870792388916016e-02
2.989765405654907227e-01
1.350125819444656372e-01
1.932459026575088501e-01
1.345162242650985718e-01
1.314710378646850586e-01
3.897120058536529541e-01
-1.947157680988311768e-01
1.364042758941650391e-01
1.044832076877355576e-02
9.157887846231460571e-02
1.552176922559738159e-01
-2.683775499463081360e-02
1.753490924835205078e+00
-2.520022988319396973e-01
-5.404741764068603516e-01
2.501640915870666504e-01
-5.085151642560958862e-02
3.873343169689178467e-01
-2.517238557338714600e-01
2.147208154201507568e-01
3.121804893016815186e-01
4.874782860279083252e-01
4.464279711246490479e-01
5.474966168403625488e-01
4.104364216327667236e-01
-4.091177284717559814e-01
3.899539709091186523e-01
-3.391276299953460693e-01
-1.778084784746170044e-01
-1.656050086021423340e-01
3.757995665073394775e-01
7.160470485687255859e-01
2.068189978599548340e-01
2.428568452596664429e-01
-3.256084024906158447e-01
3.661922514438629150e-01
-2.610529661178588867e-01
-4.187307134270668030e-02
-6.824602484703063965e-01
4.871363937854766846e-02
1.170515790581703186e-01
3.082330822944641113e-01
5.795781686902046204e-02
5.270332694053649902e-01
5.396585464477539062e-01
2.036494314670562744e-01
-3.435430228710174561e-01
5.098978877067565918e-01
-3.876402974128723145e-03
3.656862676143646240e-01
-5.021644011139869690e-02
3.033789694309234619e-01
4.529067575931549072e-01
-2.064876109361648560e-01
3.136887252330780029e-01
-4.008018970489501953e-01
-5.505191683769226074e-01
6.073420867323875427e-02
-3.474023342132568359e-01
-2.858629226684570312e-01
-3.569576144218444824e-01
-4.230791032314300537e-01
-1.195787638425827026e-01
-3.478309214115142822e-01
-2.204043865203857422e-01
2.390785813331604004e-01
-1.747269481420516968e-01
2.510237395763397217e-01
3.666556775569915771e-01
1.645493507385253906e-01
-1.112281754612922668e-01
-2.632282078266143799e-01
6.628998517990112305e-01
7.065052390098571777e-01
8.058884739875793457e-02
-4.280649721622467041e-01
1.251709926873445511e-02
-2.717633843421936035e-01
-1.856900304555892944e-01
-7.761591672897338867e-01
-1.073051691055297852e-01
2.611795067787170410e-01
-3.145597875118255615e-01
-3.660171329975128174e-01
-2.099057435989379883e-01
-4.816995188593864441e-02
7.919922471046447754e-01
4.260581135749816895e-01
6.750606745481491089e-02
1.490767598152160645e-01
3.732952475547790527e-01
7.489863038063049316e-02
3.839404582977294922e-01
2.812078595161437988e-01
6.219227239489555359e-02
-4.800819158554077148e-01
1.649661362171173096e-01
5.756932497024536133e-02
-2.750487029552459717e-01
2.983461022377014160e-01
-3.049333393573760986e-01
-3.804419040679931641e-01
-1.038006991147994995e-01
-9.726939201354980469e-01
-5.652770996093750000e-01
-3.070231154561042786e-02
2.080366462469100952e-01
-1.655870079994201660e-01
1.731051057577133179e-01
-2.645343840122222900e-01
-3.269124031066894531e-01
-2.541770972311496735e-02
-9.275235533714294434e-01
5.897411108016967773e-01
1.198244765400886536e-01
-3.377630114555358887e-01
-7.127524167299270630e-02
-3.962063789367675781e-01
-2.407363615930080414e-03
-4.469648003578186035e-01
-2.085874378681182861e-01
6.803014129400253296e-02
-1.847944408655166626e-01
4.194880276918411255e-02
1.874413043260574341e-01
2.376011461019515991e-01
-8.906628191471099854e-02
2.948757410049438477e-01
-4.206136465072631836e-01
-2.972374856472015381e-01
1.864046454429626465e-01
2.203539945185184479e-02
-1.191997289657592773e+00
-2.617062628269195557e-01
-7.372631132602691650e-02
-1.902990788221359253e-01
-2.912008166313171387e-01
8.734776824712753296e-02
2.338184714317321777e-01
-9.732144325971603394e-02
-9.989125281572341919e-02
-6.350701451301574707e-01
-1.010577529668807983e-01
2.878862805664539337e-02
6.706814169883728027e-01
4.020063877105712891e-01
-3.464114367961883545e-01
2.711115479469299316e-01
-5.642977356910705566e-02
8.090929687023162842e-02
5.001830458641052246e-01
4.002320468425750732e-01
-7.229673862457275391e-01
2.432467788457870483e-01
-2.185289859771728516e-01
1.746073961257934570e-01
1.737473607063293457e-01
2.231450080871582031e-01
-4.774970933794975281e-02
-1.255825310945510864e-01
3.703109622001647949e-01
-1.173605024814605713e-02
1.335896849632263184e-01
1.140591576695442200e-01
-1.856058537960052490e-01
2.062935084104537964e-01
1.228732705116271973e+00
-6.145985722541809082e-01
-1.259858846664428711e+00
-8.852540701627731323e-02
2.723581790924072266e-01
2.998155653476715088e-01
2.142358571290969849e-01
3.876923322677612305e-01
3.498043715953826904e-01
-7.631654739379882812e-01
-1.608800441026687622e-01
-2.277868390083312988e-01
-2.703348360955715179e-02
-1.444587558507919312e-01
-1.986102759838104248e-01
-6.463727355003356934e-01
-4.170185029506683350e-01
-6.863278150558471680e-01
-4.557149708271026611e-01
2.194554060697555542e-01
4.297300875186920166e-01
8.466182649135589600e-02
5.654967427253723145e-01
2.346294969320297241e-01
-2.881137132644653320e-01
-2.553333044052124023e-01
5.011870861053466797e-01
-2.779408991336822510e-01
-5.424428582191467285e-01
5.662373304367065430e-01
-2.192911505699157715e-01
6.922002136707305908e-02
2.109938114881515503e-01
5.945324301719665527e-01
1.167842864990234375e+00
8.239167928695678711e-02
4.627378284931182861e-01
1.289028763771057129e+00
5.576951503753662109e-01
-3.788002133369445801e-01
-3.775422275066375732e-01
3.137831017374992371e-02
-1.580407172441482544e-01
1.084195822477340698e-01
1.782808303833007812e-01
3.502799943089485168e-02
-1.652005761861801147e-01
-6.298700571060180664e-01
-1.791782379150390625e-01
3.173584938049316406e-01
-4.075823128223419189e-01
2.145392149686813354e-01
-9.024309366941452026e-02
8.647934794425964355e-01
1.659055054187774658e-01
6.224983930587768555e-01
3.534691333770751953e-01
-3.130202591419219971e-01
1.047344684600830078e+00
-3.231581151485443115e-01
-8.773899078369140625e-01
-2.839223742485046387e-01
2.214400321245193481e-01
7.917904853820800781e-02
5.035890340805053711e-01
-9.024981260299682617e-01
4.682788252830505371e-01
-6.161534190177917480e-01
4.561999440193176270e-02
6.965251564979553223e-01
-3.255687952041625977e-01
-2.579171955585479736e-01
-5.385395884513854980e-01
-2.625095844268798828e-01
-3.219859302043914795e-02
3.613494709134101868e-02
-3.966904878616333008e-01
3.500698506832122803e-01
-8.574873954057693481e-02
1.930643059313297272e-02
2.816364169120788574e-01
1.193385839462280273e+00
3.736127316951751709e-01
5.169782042503356934e-01
-1.176047623157501221e-01
-5.162445306777954102e-01
6.177329421043395996e-01
-3.384948968887329102e-01
-1.564357280731201172e-01
-2.253838777542114258e-01
-8.256917819380760193e-03
-2.934101819992065430e-01
-6.780747175216674805e-01
-6.903309375047683716e-02
-1.499060541391372681e-01
-9.742188453674316406e-02
-9.053906798362731934e-02
-5.492437630891799927e-02
-1.126344054937362671e-01
-2.330879867076873779e-01
1.270934194326400757e-01
3.528015911579132080e-01
4.033428430557250977e-01
1.527272313833236694e-01
-3.494943380355834961e-01
8.708724379539489746e-02
6.483077406883239746e-01
-4.010211825370788574e-01
-3.631804883480072021e-01
1.115936756134033203e+00
-1.890687495470046997e-01
-1.206166762858629227e-02
9.056490063667297363e-01
1.985379308462142944e-01
-1.472448259592056274e-01
1.189019307494163513e-01
4.057036042213439941e-01
1.639919877052307129e-01
-7.233364880084991455e-02
1.538137942552566528e-01
-6.321477890014648438e-01
-3.724972903728485107e-01
4.926494061946868896e-01
6.392420828342437744e-02
6.895560771226882935e-02
1.290342062711715698e-01
-2.599716000258922577e-02
4.335409700870513916e-01
-2.515114843845367432e-02
2.362852096557617188e-01
2.097249478101730347e-01
5.345057845115661621e-01
2.073056250810623169e-01
4.042189419269561768e-01
3.938630819320678711e-01
-4.851068556308746338e-01
-7.132899016141891479e-02
1.212056502699851990e-01
-4.504894614219665527e-01
-2.355324178934097290e-01
3.739691674709320068e-01
-5.298278927803039551e-01
-3.859233343973755836e-03
-3.038758635520935059e-01
-5.673532485961914062e-01
-9.418430179357528687e-02
8.303273469209671021e-02
2.019557505846023560e-01
-4.016290009021759033e-01
3.685324788093566895e-01
1.361622512340545654e-01
4.155820310115814209e-01
1.369196027517318726e-01
6.148078292608261108e-02
4.905509650707244873e-01
3.649352788925170898e-01
7.165839076042175293e-01
-1.911944895982742310e-02
6.635106205940246582e-01
-4.488034248352050781e-01
2.125887274742126465e-01
-6.486815214157104492e-01
8.533240109682083130e-02
-3.034937977790832520e-01
3.810999095439910889e-01
2.253392487764358521e-01
-1.735058724880218506e-01
8.058871030807495117e-01
2.160840928554534912e-01
-1.238585487008094788e-01
2.069421410560607910e-01
1.772153824567794800e-01
-1.551762223243713379e-01
-3.148145377635955811e-01
-2.371518500149250031e-02
-2.913243770599365234e-01
-1.997846662998199463e-01
-3.550267517566680908e-01
-5.744519457221031189e-02
-2.073350101709365845e-01
7.469059228897094727e-01
-9.460732340812683105e-02
-2.312916070222854614e-01
-4.987947940826416016e-01
2.831907272338867188e-01
-2.113627940416336060e-01
-2.103974670171737671e-01
-3.425300419330596924e-01
-2.821957767009735107e-01
-4.780748784542083740e-01
-2.644522786140441895e-01
5.120281577110290527e-01
3.108412623405456543e-01
3.343676328659057617e-01
6.908974796533584595e-02
-5.606956779956817627e-02
-8.647834509611129761e-02
3.937898278236389160e-01
-4.153457283973693848e-01
-2.274223119020462036e-01
4.606149196624755859e-01
1.813026815652847290e-01
-2.378038875758647919e-02
2.015323340892791748e-01
-3.551103472709655762e-01
-3.974890336394309998e-02
-2.398080378770828247e-01
2.051471024751663208e-01
-2.328408360481262207e-01
-7.098225355148315430e-01
-3.886800110340118408e-01
2.211788296699523926e-01
-5.526776313781738281e-01
5.434609651565551758e-01
-3.406099602580070496e-02
-2.668861448764801025e-01
-2.778619229793548584e-01
8.884793519973754883e-02
-1.020245850086212158e-01
1.592179894447326660e+00
1.888377517461776733e-01
1.425515562295913696e-01
-3.873335421085357666e-01
9.935073256492614746e-01
-1.416635215282440186e-01
1.642609238624572754e+00
-2.331725955009460449e-01
-2.309685647487640381e-01
-2.883097156882286072e-02
2.984472215175628662e-01
-7.261765748262405396e-02
-1.311476677656173706e-01
2.633095905184745789e-02
8.010558784008026123e-02
-6.705341488122940063e-02
-5.926156044006347656e-02
1.428575664758682251e-01
2.135714441537857056e-01
-2.386119067668914795e-01
5.264706537127494812e-02
-3.538138568401336670e-01
-1.902008242905139923e-02
2.615268230438232422e-01
7.585166394710540771e-02
1.403966248035430908e-01
2.248006500303745270e-02
-7.566241919994354248e-02
1.417527496814727783e-01
2.165336608886718750e-01
8.553970605134963989e-02
-4.159511998295783997e-02
-3.911448121070861816e-01
-3.679509833455085754e-02
-1.524236500263214111e-01
2.007464915513992310e-01
6.734423041343688965e-01
-9.910373389720916748e-02
-3.787698596715927124e-02
2.127079665660858154e-01
-9.259296581149101257e-03
-8.349185809493064880e-03
-3.880462646484375000e-01
-8.782313019037246704e-02
2.938134670257568359e-01
1.967689208686351776e-02
7.610268145799636841e-02
-1.329896599054336548e-01
9.027776867151260376e-02
3.827622532844543457e-02
