6.179207563400268555e-01
-2.187540531158447266e-01
-6.835160404443740845e-02
4.467650502920150757e-02
-5.562644004821777344e-01
7.632730007171630859e-01
3.149265795946121216e-02
2.642733156681060791e-01
1.858386546373367310e-01
-1.171352505683898926e+00
-5.524830147624015808e-02
2.476689219474792480e-01
3.004425764083862305e-02
-1.804902851581573486e-01
-6.327639520168304443e-02
-8.884038329124450684e-01
-8.198478608392179012e-04
1.542382757179439068e-03
3.581013977527618408e-01
8.053564429283142090e-01
-9.032995253801345825e-02
-1.630160212516784668e+00
9.092222899198532104e-02
-6.522088050842285156e-01
1.550836395472288132e-02
-6.085671186447143555e-01
1.854823231697082520e-01
9.382323622703552246e-01
-2.056866139173507690e-01
8.453108668327331543e-01
-5.962229147553443909e-02
2.623598873615264893e-01
3.970631361007690430e-01
-6.165319085121154785e-01
-4.509332180023193359e-01
-7.647644877433776855e-01
6.956464648246765137e-01
6.167184114456176758e-01
4.771595895290374756e-01
1.563228070735931396e-01
1.112376332283020020e+00
-9.668861031532287598e-01
7.601339221000671387e-01
-3.848157823085784912e-01
1.748293405398726463e-03
5.256332755088806152e-01
-6.895492076873779297e-01
7.824357151985168457e-01
-5.297878384590148926e-01
2.585112750530242920e-01
-2.655624449253082275e-01
-2.167357504367828369e-01
5.666402578353881836e-01
-6.932500600814819336e-01
1.236389160156250000e+00
-2.911003120243549347e-02
3.739136504009366035e-03
-8.038093447685241699e-01
1.346103310585021973e+00
7.034580707550048828e-01
3.968923985958099365e-01
-3.379980325698852539e-01
-5.393411219120025635e-02
1.385718286037445068e-01
1.312619894742965698e-01
2.169212847948074341e-01
1.422031074762344360e-01
7.602576613426208496e-01
-2.501308321952819824e-01
-5.059366226196289062e-01
9.153992682695388794e-02
-1.488740742206573486e-01
5.448200926184654236e-02
-7.655485272407531738e-01
1.271084509789943695e-02
1.698838919401168823e-01
2.841786742210388184e-01
6.458823382854461670e-02
1.383641660213470459e-01
6.779304146766662598e-01
-2.941018939018249512e-01
-1.873864233493804932e-01
-2.123648077249526978e-01
-2.015428543090820312e-01
7.015555500984191895e-01
-2.551254630088806152e-01
-7.194760441780090332e-02
3.909950852394104004e-01
-8.403158187866210938e-02
-3.648398220539093018e-01
7.993446588516235352e-01
2.916414439678192139e-01
1.637053191661834717e-01
-1.541443318128585815e-01
-2.967768609523773193e-01
-5.933900475502014160e-01
4.339349642395973206e-02
6.639708876609802246e-01
-4.727198779582977295e-01
-4.621788561344146729e-01
1.752726286649703979e-01
-4.095527809113264084e-03
4.109064638614654541e-01
1.065492630004882812e-01
-5.739634633064270020e-01
-1.412456855177879333e-03
3.107549250125885010e-01
-3.190247118473052979e-01
-5.750110745429992676e-02
3.047081232070922852e-01
-1.672219783067703247e-01
-1.730688512325286865e-01
-4.900440201163291931e-02
3.312100172042846680e-01
1.252494156360626221e-01
1.796453744173049927e-01
-3.213931918144226074e-01
-9.987828321754932404e-03
-1.492623090744018555e-01
-3.014024496078491211e-01
-3.248299360275268555e-01
1.394747048616409302e-01
2.614894211292266846e-01
-2.024133652448654175e-01
1.145196557044982910e-01
-1.488085985183715820e-01
-7.210260629653930664e-02
-1.800322830677032471e-01
2.735723853111267090e-01
-4.900873452425003052e-02
-5.708281695842742920e-02
5.092214420437812805e-02
-2.317266315221786499e-01
-8.937376737594604492e-02
3.211840614676475525e-02
1.808979511260986328e-01
-4.127606451511383057e-01
1.665227413177490234e-01
7.209853082895278931e-02
-5.169953703880310059e-01
-1.771339654922485352e+00
5.902637243270874023e-01
-8.270067721605300903e-02
-4.504729509353637695e-01
2.397870868444442749e-01
-1.465992927551269531e-01
3.751846402883529663e-02
-5.544909834861755371e-01
2.195581495761871338e-01
5.138596296310424805e-01
1.185370027087628841e-03
1.589969992637634277e-01
-5.294651985168457031e-01
4.983157813549041748e-01
-1.985920071601867676e-01
1.974385380744934082e-01
-8.852634429931640625e-01
-1.623013615608215332e-01
-4.557662457227706909e-02
-1.034804821014404297e+00
3.132168948650360107e-01
-4.555565118789672852e-01
4.004857242107391357e-01
-2.685236334800720215e-01
-6.344372630119323730e-01
4.975707530975341797e-01
-4.841781556606292725e-01
3.497545123100280762e-01
-6.959442496299743652e-01
-6.548558827489614487e-03
-5.453479290008544922e-01
-4.717608988285064697e-01
3.815145492553710938e-01
-3.700075447559356689e-01
5.917950272560119629e-01
5.549151897430419922e-01
4.203782081604003906e-01
-4.330803155899047852e-01
2.722865343093872070e-01
6.722528934478759766e-01
9.559479355812072754e-02
-3.646922409534454346e-01
-8.382011055946350098e-01
-5.335143804550170898e-01
4.789814352989196777e-01
4.974105060100555420e-01
9.251270443201065063e-02
2.436673082411289215e-02
-3.653392195701599121e-01
3.174145221710205078e-01
5.332749485969543457e-01
-8.120258897542953491e-02
-2.517521195113658905e-02
1.863497495651245117e-02
-7.620968669652938843e-02
-3.216844797134399414e-01
8.194448351860046387e-01
-6.448764353990554810e-02
3.610237538814544678e-01
1.214487552642822266e-01
3.695299029350280762e-01
-3.758144080638885498e-01
2.269787490367889404e-01
-2.111240476369857788e-01
1.789890825748443604e-01
1.538223624229431152e-01
-1.571360826492309570e-01
5.267179608345031738e-01
-2.126337401568889618e-02
-3.426852449774742126e-02
-1.398610025644302368e-01
7.203974295407533646e-03
3.176128566265106201e-01
-4.754114449024200439e-01
3.275225758552551270e-01
1.213183552026748657e-01
-1.111979335546493530e-01
-3.824278116226196289e-01
1.400751471519470215e-01
2.976118326187133789e-01
-5.761281847953796387e-01
3.058862686157226562e-01
-2.957060933113098145e-01
-2.902978658676147461e-01
-3.925480246543884277e-01
-2.620550394058227539e-01
-2.358322404325008392e-02
2.426642030477523804e-01
-1.233610510826110840e-02
6.588623523712158203e-01
-7.629218697547912598e-01
-4.081053137779235840e-01
4.084193408489227295e-01
2.264870516955852509e-02
-1.382509171962738037e-01
2.175320237874984741e-01
-2.667808234691619873e-01
-7.954622805118560791e-02
3.546691313385963440e-02
-1.900207996368408203e-01
1.084461808204650879e-01
-2.255688607692718506e-01
5.396061539649963379e-01
-1.086959242820739746e-02
-1.758348792791366577e-01
2.057300508022308350e-01
-3.591814339160919189e-01
-1.660895049571990967e-01
-2.620759010314941406e-01
8.492656797170639038e-02
4.338134080171585083e-02
-1.836316287517547607e-01
1.614156514406204224e-01
2.505228221416473389e-01
3.083759844303131104e-01
8.913581818342208862e-02
-3.253547847270965576e-01
5.105180665850639343e-02
1.986704766750335693e-01
6.968145072460174561e-02
7.106468677520751953e-01
-1.994286328554153442e-01
-1.379580646753311157e-01
-7.107836604118347168e-01
-4.425279200077056885e-01
2.308405563235282898e-02
-1.231838613748550415e-01
9.360721707344055176e-01
-6.671795248985290527e-02
1.341484934091567993e-01
-4.750747978687286377e-01
-8.440555632114410400e-02
8.293715119361877441e-01
-8.076289296150207520e-01
-1.458147317171096802e-01
-1.039203479886054993e-01
1.310921907424926758e-01
-3.065665662288665771e-01
2.811639904975891113e-01
2.513889968395233154e-01
7.877197116613388062e-02
3.126269280910491943e-01
2.960904538631439209e-01
3.794502317905426025e-01
-7.014640420675277710e-02
-5.997547507286071777e-01
8.623146265745162964e-02
5.331282615661621094e-01
3.385217487812042236e-01
-9.903320670127868652e-02
-6.751403957605361938e-02
1.059770062565803528e-01
4.633347690105438232e-02
-3.891795873641967773e-01
9.265491738915443420e-03
-1.935659945011138916e-01
3.112655505537986755e-02
4.790391921997070312e-01
-8.707105517387390137e-01
2.391787171363830566e-01
-1.446675509214401245e-01
4.989539831876754761e-02
4.314588308334350586e-01
-4.062037765979766846e-01
-9.870242327451705933e-02
-2.635793089866638184e-01
-2.778533697128295898e-01
5.760100483894348145e-01
-8.079449832439422607e-02
-9.985780343413352966e-03
-4.596000164747238159e-02
1.596222072839736938e-02
9.250577688217163086e-01
-5.539096593856811523e-01
7.974120974540710449e-01
-1.994397789239883423e-01
3.079668581485748291e-01
2.270986735820770264e-01
-3.338785469532012939e-02
7.094915956258773804e-02
5.935094505548477173e-02
3.548219427466392517e-02
1.815347671508789062e-01
-1.514219492673873901e-01
-2.500891685485839844e-01
-1.556863728910684586e-02
-2.432513982057571411e-01
1.444712877273559570e-01
-7.705114036798477173e-02
1.667124629020690918e-01
-3.374532461166381836e-01
-1.558749377727508545e-01
3.548812866210937500e-01
-7.861500489525496960e-05
2.141323089599609375e-01
7.401844859123229980e-02
-1.828007102012634277e-01
-4.040389955043792725e-01
2.644611001014709473e-01
8.976953476667404175e-02
3.309345245361328125e-01
-4.216343760490417480e-01
1.650493033230304718e-02
6.155531108379364014e-02
-2.182502299547195435e-01
3.695935010910034180e-01
-2.820571362972259521e-01
-2.675373554229736328e-01
-3.215679824352264404e-01
8.534387946128845215e-01
-2.045659571886062622e-01
-2.184003293514251709e-01
9.871318191289901733e-02
3.546199798583984375e-01
3.805324435234069824e-01
7.435799837112426758e-01
3.478212058544158936e-01
-9.412195086479187012e-01
9.580214023590087891e-01
5.178121924400329590e-01
1.808570921421051025e-01
-5.053110718727111816e-01
6.374664306640625000e-01
1.075187548995018005e-01
3.313519060611724854e-02
3.648918569087982178e-01
-3.102839887142181396e-01
4.308183863759040833e-02
-1.100906282663345337e-01
7.347659766674041748e-02
-3.720699548721313477e-01
-2.527277469635009766e-01
6.813853979110717773e-02
-1.559041589498519897e-01
4.554716348648071289e-01
2.872077524662017822e-01
-3.988872170448303223e-01
-1.110896021127700806e-01
4.161929786205291748e-01
1.765595525503158569e-01
-2.373562902212142944e-01
-1.841208487749099731e-01
-2.701963186264038086e-01
1.909049600362777710e-02
4.488615095615386963e-01
-1.747914403676986694e-01
3.217592239379882812e-01
4.028008282184600830e-01
-3.034074790775775909e-02
-6.980705261230468750e-01
4.049166738986968994e-01
5.742180943489074707e-01
2.643750049173831940e-02
-6.601216197013854980e-01
-7.733528316020965576e-02
-4.314920902252197266e-01
5.365034565329551697e-03
6.482030749320983887e-01
-2.032265216112136841e-01
-2.173327356576919556e-01
2.804543375968933105e-01
-4.056676030158996582e-01
-5.748785287141799927e-02
-4.599275290966033936e-01
4.437659382820129395e-01
-9.346552193164825439e-02
3.147454559803009033e-02
7.197123169898986816e-01
1.871430724859237671e-01
-7.920117974281311035e-01
4.435987174510955811e-01
3.777174651622772217e-01
2.091843187808990479e-01
-1.111868023872375488e+00
1.323576867580413818e-01
1.526494324207305908e-02
3.868688642978668213e-01
3.925102055072784424e-01
9.984137862920761108e-02
3.166484236717224121e-01
4.943069070577621460e-02
8.382379019167274237e-05
2.954432666301727295e-01
1.234032213687896729e-01
-9.103422760963439941e-01
5.618433356285095215e-01
-2.988986968994140625e-01
-3.009050488471984863e-01
-8.816238492727279663e-02
8.996064662933349609e-01
-7.375590801239013672e-01
-6.131693124771118164e-01
1.087016612291336060e-01
2.989694774150848389e-01
3.608458340167999268e-01
5.496985316276550293e-01
-3.965556025505065918e-01
-7.346411943435668945e-01
7.268566489219665527e-01
1.559402793645858765e-01
-5.249726772308349609e-01
6.099696159362792969e-01
-3.694469034671783447e-01
2.644635736942291260e-01
3.790540397167205811e-01
-3.426769375801086426e-01
2.262830883264541626e-01
-8.844793587923049927e-02
1.941356658935546875e-01
-7.143923044204711914e-01
6.045448780059814453e-01
3.068573176860809326e-01
-7.235051691532135010e-02
-1.128027886152267456e-01
-7.976960390806198120e-02
-2.516318261623382568e-01
-1.036290526390075684e-01
4.635090231895446777e-01
-2.651364207267761230e-01
-3.401742577552795410e-01
4.474563002586364746e-01
-2.250830382108688354e-01
2.242797017097473145e-01
-2.356980741024017334e-01
-3.267163634300231934e-01
8.592607378959655762e-01
1.677240943536162376e-04
2.538615465164184570e-01
1.936931908130645752e-01
3.131122589111328125e-01
1.201452463865280151e-01
-3.548871278762817383e-01
2.610355913639068604e-01
3.153886795043945312e-01
5.326060056686401367e-01
7.043290734291076660e-01
-4.232849478721618652e-01
1.596453785896301270e-01
3.714648783206939697e-01
-5.257880687713623047e-01
-1.079677864909172058e-01
-1.194568157196044922e+00
3.637248873710632324e-01
-8.973400294780731201e-02
-2.539918720722198486e-01
4.043281674385070801e-01
-1.220322489738464355e+00
5.950089693069458008e-01
1.094504237174987793e+00
2.278069019317626953e+00
-4.183382987976074219e-01
-2.321633100509643555e-01
4.273296594619750977e-01
6.078926324844360352e-01
7.131419777870178223e-01
7.099886536598205566e-01
-9.402149915695190430e-01
-6.436446905136108398e-01
1.166175961494445801e+00
-4.605821669101715088e-01
-2.953423261642456055e-01
-1.168772131204605103e-01
-1.705396734178066254e-02
-2.952262163162231445e-01
-1.917073279619216919e-01
1.088075153529644012e-02
3.395399451255798340e-02
-1.204608753323554993e-01
2.427366226911544800e-01
-7.515212297439575195e-01
-2.159322947263717651e-01
-1.773950338363647461e+00
-5.431051254272460938e-01
9.801860153675079346e-02
9.011207520961761475e-02
-7.757576107978820801e-01
-2.514432072639465332e-01
3.761829733848571777e-01
-1.104561984539031982e-01
-2.104148268699645996e-02
-5.245566368103027344e-01
-2.311348319053649902e-01
-4.742181301116943359e-02
5.228850245475769043e-01
3.314440846443176270e-01
-2.170565575361251831e-01
4.333294332027435303e-01
-4.542249068617820740e-02
9.545278549194335938e-02
1.423521433025598526e-02
-1.803958602249622345e-02
-3.336556851863861084e-01
-2.389824204146862030e-02
-7.997166365385055542e-02
-1.621600836515426636e-01
-3.004798889160156250e-01
-3.828961402177810669e-02
-5.675720795989036560e-02
-2.897058129310607910e-01
2.809725105762481689e-01
2.854680418968200684e-01
-3.642079532146453857e-01
-1.493351534008979797e-02
-8.135970234870910645e-01
-1.160787343978881836e+00
3.218013942241668701e-01
-4.293620586395263672e-01
3.537746667861938477e-01
4.526544362306594849e-02
1.409897804260253906e-01
-2.090211361646652222e-01
-2.701631188392639160e-01
1.681234091520309448e-01
1.408509910106658936e-01
1.462596803903579712e-01
2.403863817453384399e-01
9.336873888969421387e-02
6.701524555683135986e-02
4.387244582176208496e-03
-4.107177555561065674e-01
-3.314094841480255127e-01
-5.153648257255554199e-01
1.187165528535842896e-01
-6.896517276763916016e-01
-3.817770183086395264e-01
7.046762108802795410e-02
-1.554165929555892944e-01
2.078392356634140015e-02
-1.655025035142898560e-02
-3.142974078655242920e-01
-2.065041661262512207e-01
-6.156905889511108398e-01
4.426969215273857117e-03
-5.402535200119018555e-02
9.839046746492385864e-02
6.144181266427040100e-02
-3.605172932147979736e-01
-9.359741955995559692e-02
1.805393993854522705e-01
-1.509133279323577881e-01
2.880187630653381348e-01
-7.001850754022598267e-02
5.379432439804077148e-01
9.024878144264221191e-01
-9.924911893904209137e-03
-1.364136636257171631e-01
-3.305870294570922852e-01
1.002011373639106750e-01
2.585433721542358398e-01
1.887305974960327148e-01
1.875826567411422729e-01
7.252203822135925293e-01
7.015358209609985352e-01
1.448978036642074585e-01
-3.268045559525489807e-02
2.361473143100738525e-01
-2.304077520966529846e-02
5.815110206604003906e-01
-2.173843793570995331e-03
2.618395090103149414e-01
-3.512245416641235352e-01
1.105612665414810181e-01
8.549648523330688477e-01
5.001252293586730957e-01
2.129587829113006592e-01
-3.733353912830352783e-01
2.740721702575683594e-01
2.992267534136772156e-02
-2.283427417278289795e-01
4.006449133157730103e-03
-7.668241858482360840e-01
4.988155364990234375e-01
-1.245464012026786804e-01
-2.729956805706024170e-02
-1.034821122884750366e-01
9.531415253877639771e-02
2.971625924110412598e-01
-1.010162830352783203e-01
4.648901149630546570e-02
2.765884697437286377e-01
1.540018469095230103e-01
-4.958170354366302490e-01
1.780001044273376465e+00
-1.626035869121551514e-01
-1.730522215366363525e-01
5.883023738861083984e-01
-2.208602987229824066e-02
5.448358654975891113e-01
-1.417683344334363937e-02
3.265561461448669434e-01
4.520780220627784729e-02
-4.717021882534027100e-01
6.575574874877929688e-01
2.328893691301345825e-01
2.131609767675399780e-01
3.188296258449554443e-01
-2.718579769134521484e-01
-5.345041155815124512e-01
1.351829022169113159e-01
-3.394932746887207031e-01
5.571679472923278809e-01
2.092177122831344604e-01
-3.284204602241516113e-01
4.691776931285858154e-01
-1.518416125327348709e-02
8.392830193042755127e-02
1.888664066791534424e-02
1.358694881200790405e-01
-3.846301436424255371e-01
-2.388690859079360962e-01
9.073682129383087158e-02
2.583395838737487793e-01
-2.693704664707183838e-01
-1.707893162965774536e-01
-2.530757486820220947e-01
-2.108449786901473999e-01
2.540133595466613770e-01
1.294399142265319824e+00
-2.195017188787460327e-01
1.626323163509368896e-01
-2.246301323175430298e-01
-8.398886770009994507e-02
1.373455822467803955e-01
-6.291247010231018066e-01
-9.009286761283874512e-01
3.019624948501586914e-01
-3.220914676785469055e-02
3.036160469055175781e-01
4.445912316441535950e-02
4.390444755554199219e-01
-8.179778605699539185e-02
6.821390986442565918e-02
3.146453797817230225e-01
4.816393554210662842e-01
7.769559621810913086e-01
4.956256747245788574e-01
-6.690552234649658203e-01
1.039100214838981628e-01
5.996174216270446777e-01
-7.032924890518188477e-01
1.185908764600753784e-01
6.659377813339233398e-01
9.799602627754211426e-02
3.742785155773162842e-01
3.318179249763488770e-01
-5.405305624008178711e-01
1.535162776708602905e-01
-4.324515163898468018e-01
-2.792935073375701904e-01
-3.842608928680419922e-01
1.170163303613662720e-01
2.482890039682388306e-01
-4.135513901710510254e-01
-5.017685890197753906e-01
-5.611219406127929688e-01
-6.018462181091308594e-01
5.425357818603515625e-01
-2.343248389661312103e-02
-3.452067375183105469e-01
6.037305593490600586e-01
-1.750711947679519653e-01
-7.890028357505798340e-01
-2.680244147777557373e-01
-8.130286335945129395e-01
-1.139641284942626953e+00
6.907322406768798828e-01
-1.538633406162261963e-01
7.814853191375732422e-01
3.821451663970947266e-01
1.366978883743286133e-01
-3.215289413928985596e-01
-7.036986202001571655e-02
2.935769557952880859e-01
5.620448589324951172e-01
4.796167016029357910e-01
5.096729397773742676e-01
-4.523738622665405273e-01
4.132752716541290283e-01
5.574353337287902832e-01
-6.125609278678894043e-01
7.225703001022338867e-01
-8.496789634227752686e-02
-4.475947916507720947e-01
-1.180294081568717957e-01
-1.138662174344062805e-01
3.472657501697540283e-01
1.431226730346679688e-01
6.992672383785247803e-02
3.098060749471187592e-02
-6.547253131866455078e-01
1.423221528530120850e-01
7.417207118123769760e-03
2.823402583599090576e-01
7.600820809602737427e-02
2.548264861106872559e-01
1.371694803237915039e-01
2.134512662887573242e-01
8.814927935600280762e-01
2.120211422443389893e-01
-1.945814788341522217e-01
1.976150870323181152e-01
1.205459311604499817e-01
-7.352051734924316406e-01
1.637010425329208374e-01
-8.468273878097534180e-01
-1.642889827489852905e-01
7.935464382171630859e-01
-1.531589627265930176e-01
-4.922760128974914551e-01
-3.468598723411560059e-01
6.398144364356994629e-01
2.959575057029724121e-01
-1.531436294317245483e-01
-5.485455393791198730e-01
-7.862203121185302734e-01
-1.790072470903396606e-01
9.799830317497253418e-01
6.020624041557312012e-01
-6.957069635391235352e-01
6.425902247428894043e-01
-6.603031158447265625e-01
-3.992975354194641113e-01
7.138422131538391113e-01
-1.278666257858276367e-01
-3.198049962520599365e-01
1.588740795850753784e-01
-2.873742282390594482e-01
2.052663266658782959e-01
-5.746120810508728027e-01
-2.899656631052494049e-02
-4.840697944164276123e-01
5.255529284477233887e-02
-8.546123653650283813e-02
2.855766415596008301e-01
2.091921418905258179e-01
1.290488839149475098e-01
1.082832366228103638e-02
-7.166635394096374512e-01
-6.857328582555055618e-03
-9.678323566913604736e-02
-2.950213253498077393e-01
-3.615345358848571777e-01
-7.535859197378158569e-02
-3.798750042915344238e-01
-1.011081695556640625e+00
1.147244721651077271e-01
-2.623661458492279053e-01
1.420747190713882446e-01
5.254979804158210754e-02
-5.797338671982288361e-04
-4.580861330032348633e-01
-2.677109539508819580e-01
3.063413500785827637e-01
4.312471747398376465e-01
6.744685173034667969e-01
3.963989317417144775e-01
-2.774158120155334473e-01
2.104476541280746460e-01
2.677816748619079590e-01
-3.797782957553863525e-01
8.207016438245773315e-02
4.985097944736480713e-01
1.368172317743301392e-01
6.300275921821594238e-01
2.944026291370391846e-01
-4.060225486755371094e-01
1.060690209269523621e-01
-2.189258635044097900e-01
-1.842655986547470093e-01
-2.489866763353347778e-01
6.375638395547866821e-02
2.056126594543457031e-01
-3.205134868621826172e-01
-4.417575597763061523e-01
-8.090394735336303711e-01
-3.326813280582427979e-01
8.135638236999511719e-01
6.188674643635749817e-02
-4.104840159416198730e-01
5.342454910278320312e-01
-2.150377750396728516e+00
2.024296373128890991e-01
2.334304600954055786e-01
4.586317837238311768e-01
-8.256562799215316772e-02
-1.121244132518768311e-01
-1.076425239443778992e-01
-3.387648239731788635e-02
5.495350956916809082e-01
3.000957667827606201e-01
-5.469566583633422852e-02
-9.092494845390319824e-02
3.183462619781494141e-01
-1.638001352548599243e-01
2.421494722366333008e-01
-7.424403727054595947e-02
-2.350524514913558960e-01
-4.768069982528686523e-01
1.415209919214248657e-01
-2.651932835578918457e-01
3.561070859432220459e-01
4.355187118053436279e-01
-7.820894122123718262e-01
3.322959244251251221e-01
1.778831958770751953e+00
-5.273571014404296875e-01
6.115653514862060547e-01
-2.709942460060119629e-01
-3.349596261978149414e-01
1.910746246576309204e-01
5.130510926246643066e-01
1.717783957719802856e-01
-1.740239262580871582e-01
-5.398136973381042480e-01
-4.682684540748596191e-01
-2.768633961677551270e-01
3.585250303149223328e-02
2.791150473058223724e-02
-3.156836330890655518e-01
8.749277889728546143e-02
-3.628550469875335693e-02
1.263202540576457977e-02
7.343018054962158203e-01
7.524542808532714844e-01
1.961914636194705963e-02
-1.307294471189379692e-03
-1.646739393472671509e-01
-2.570739686489105225e-01
-1.641471870243549347e-02
2.787455916404724121e-01
-8.296414017677307129e-01
2.684027850627899170e-01
8.382554054260253906e-01
4.716386646032333374e-02
-2.140084803104400635e-01
5.037207528948783875e-02
3.147872686386108398e-01
2.849635183811187744e-01
-2.889231741428375244e-01
-1.910027489066123962e-02
6.812057495117187500e-01
-2.319361716508865356e-01
-1.438430324196815491e-02
4.425660967826843262e-01
4.111469388008117676e-01
-1.587835401296615601e-01
2.812272310256958008e-02
4.975545108318328857e-01
-4.778591170907020569e-02
4.724302589893341064e-01
-2.086581140756607056e-01
8.666571974754333496e-01
4.162797033786773682e-01
-2.309755831956863403e-01
1.105312779545783997e-01
2.308505326509475708e-01
-5.729976296424865723e-01
1.473576426506042480e-01
-6.164699792861938477e-01
3.978966176509857178e-02
-1.539930794388055801e-02
4.387484788894653320e-01
-3.876744210720062256e-02
-1.685364991426467896e-01
4.443054199218750000e-01
-1.276039242744445801e+00
-9.993453323841094971e-02
-1.084087938070297241e-01
-3.550485372543334961e-01
3.499754667282104492e-01
1.439394149929285049e-02
1.218399032950401306e-01
1.962637901306152344e-01
5.044151842594146729e-02
1.781863905489444733e-02
2.035196870565414429e-01
1.151632890105247498e-01
1.160201579332351685e-01
1.436646375805139542e-02
-5.406365394592285156e-01
1.634796708822250366e-01
1.173504069447517395e-01
-5.043186545372009277e-01
5.532731413841247559e-01
7.268711328506469727e-01
-4.979462623596191406e-01
1.608089804649353027e-01
4.905552566051483154e-01
-3.942429721355438232e-01
8.424258232116699219e-01
-2.928836643695831299e-01
8.915986865758895874e-02
1.369005143642425537e-01
5.381049588322639465e-02
1.630057692527770996e-01
6.231843233108520508e-01
-7.707346230745315552e-02
-1.919894665479660034e-01
-2.150415331125259399e-01
-3.143054246902465820e-02
5.292506888508796692e-02
3.125858902931213379e-01
9.290690720081329346e-02
1.868859231472015381e-01
3.927307724952697754e-01
-2.411142885684967041e-01
-3.578590154647827148e-01
5.328587815165519714e-02
-6.249091625213623047e-01
3.509094715118408203e-01
2.392063289880752563e-01
-1.468046307563781738e-01
-7.240265011787414551e-01
8.515691012144088745e-02
1.274798810482025146e-01
5.852225422859191895e-02
1.461688280105590820e-01
1.642459273338317871e+00
-2.673268914222717285e-01
-1.132337689399719238e+00
-5.547760725021362305e-01
-8.669950962066650391e-01
-7.584376633167266846e-02
-2.591234743595123291e-01
-1.522904355078935623e-02
5.953577160835266113e-01
-2.552129328250885010e-01
-1.112190913408994675e-02
6.085511445999145508e-01
-2.602245211601257324e-01
2.537024021148681641e-01
-2.425606995820999146e-01
-1.016101390123367310e-01
2.739291787147521973e-01
-7.061326503753662109e-02
-2.746529281139373779e-01
1.717882901430130005e-01
-7.895634323358535767e-02
1.008866950869560242e-01
-4.182773828506469727e-01
3.112501092255115509e-02
-9.407958388328552246e-02
-4.913280531764030457e-02
2.384210526943206787e-01
-1.303285211324691772e-01
-2.453644722700119019e-01
-5.605709552764892578e-01
3.921672403812408447e-01
-1.346880197525024414e-01
-2.448843717575073242e-01
-1.956902891397476196e-01
3.863739967346191406e-01
1.874810695648193359e+00
-1.788152307271957397e-01
2.765621989965438843e-03
2.525682449340820312e-01
-2.780444175004959106e-02
-1.326647758483886719e+00
-3.702534735202789307e-02
-4.841636717319488525e-01
-4.277844727039337158e-01
3.011188097298145294e-02
3.374671041965484619e-01
-3.834040462970733643e-01
-9.254453182220458984e-01
-3.373603522777557373e-01
1.596367955207824707e-01
-4.686979055404663086e-01
4.523463547229766846e-01
-1.170266151428222656e+00
4.997177124023437500e-01
-1.296317428350448608e-01
-3.150658607482910156e-01
4.257509708404541016e-01
-1.125527024269104004e-01
-7.343859076499938965e-01
7.762527465820312500e-01
2.053202092647552490e-01
3.167330026626586914e-01
-2.465144395828247070e-01
-2.860076725482940674e-01
-5.094264745712280273e-01
-7.231347262859344482e-02
-1.225968226790428162e-01
2.016061395406723022e-01
7.406991124153137207e-01
3.148262798786163330e-01
-9.820027649402618408e-02
-7.234744429588317871e-01
5.570751056075096130e-02
-2.043982297182083130e-01
1.596003770828247070e-03
2.058590054512023926e-01
-5.596774220466613770e-01
2.856021523475646973e-01
2.188875339925289154e-02
-5.003712773323059082e-01
4.838155582547187805e-02
-3.954657912254333496e-01
4.770312607288360596e-01
-2.506854236125946045e-01
1.613897085189819336e-01
-1.589613854885101318e-01
4.813837409019470215e-01
4.334676638245582581e-02
-7.695478796958923340e-01
7.688432186841964722e-02
4.725791886448860168e-02
4.248445630073547363e-01
-3.027566969394683838e-01
-1.334532946348190308e-01
-1.085489764809608459e-01
1.521425366401672363e+00
3.836022913455963135e-01
2.196090668439865112e-01
1.042480170726776123e-01
2.170346826314926147e-01
-4.293296635150909424e-01
-5.014901757240295410e-01
-1.385415792465209961e-01
-5.766282603144645691e-02
-8.933624029159545898e-01
-1.993694752454757690e-01
-2.439226955175399780e-02
2.632283978164196014e-02
1.892805337905883789e+00
-5.133426282554864883e-03
-3.140545189380645752e-01
-5.116098523139953613e-01
2.690271735191345215e-01
3.801440000534057617e-01
2.710858546197414398e-02
1.389084935188293457e+00
-2.103592008352279663e-01
-2.393393814563751221e-01
-1.107687354087829590e-01
-9.108566492795944214e-02
-8.197753131389617920e-02
-3.389564454555511475e-01
-1.697583317756652832e+00
4.228636920452117920e-01
-2.732985317707061768e-01
-9.207993745803833008e-02
5.250276923179626465e-01
6.554676294326782227e-01
-6.004020571708679199e-03
-2.587620913982391357e-01
1.892230510711669922e-01
-3.733313381671905518e-01
5.893591046333312988e-01
-2.807182967662811279e-01
4.251361489295959473e-01
2.207422256469726562e-01
-2.598980069160461426e-02
1.021557226777076721e-01
4.472136795520782471e-01
-4.124770164489746094e-01
-2.915862798690795898e-01
-3.951597213745117188e-01
7.613927125930786133e-02
9.301678836345672607e-02
9.360338561236858368e-03
-3.181240558624267578e-01
1.938928365707397461e-01
-5.755408108234405518e-02
-1.173061206936836243e-01
-1.147276610136032104e-01
3.838519752025604248e-01
4.479478299617767334e-01
1.064856722950935364e-02
-4.897308945655822754e-01
2.967232167720794678e-01
-2.692348241806030273e+00
8.681391179561614990e-02
1.647038161754608154e-01
3.306361436843872070e-01
-2.711551785469055176e-01
-2.364042028784751892e-02
-2.323636971414089203e-02
-6.125215291976928711e-01
2.629421055316925049e-01
-3.149304687976837158e-01
-1.400948166847229004e-01
3.816204667091369629e-01
2.146363407373428345e-01
1.114759743213653564e-01
1.981217712163925171e-01
2.475369572639465332e-01
-5.601351261138916016e-01
5.124239325523376465e-01
1.625052839517593384e-02
3.047797381877899170e-01
-2.423989057540893555e+00
-4.362715780735015869e-01
5.270217657089233398e-01
2.929930686950683594e-01
-1.178200244903564453e-01
7.517463564872741699e-01
-3.398326635360717773e-01
5.339889526367187500e-01
-3.992092311382293701e-01
5.174289345741271973e-01
2.768622934818267822e-01
-7.062090188264846802e-02
1.477098613977432251e-01
-1.179385662078857422e+00
-2.698741555213928223e-01
-2.934759259223937988e-01
-1.514852941036224365e-01
-8.714927732944488525e-02
-3.557692468166351318e-02
-1.177599802613258362e-01
-4.982484281063079834e-01
-2.409046143293380737e-01
2.969447895884513855e-02
-1.560989171266555786e-01
2.896437346935272217e-01
1.660360991954803467e-01
-3.940870761871337891e-01
-1.155942901968955994e-01
-3.611538112163543701e-01
-2.439694665372371674e-02
4.197960346937179565e-02
-8.110157400369644165e-02
6.440454628318548203e-03
1.042756199836730957e+00
3.579537570476531982e-01
8.001048117876052856e-02
-6.482062935829162598e-01
-2.730509452521800995e-02
1.556484028697013855e-02
-2.909631729125976562e-01
1.445151925086975098e+00
-4.468227922916412354e-01
1.883829087018966675e-01
-6.600878387689590454e-02
1.395275164395570755e-02
-8.320531845092773438e-01
1.880093850195407867e-02
5.117390155792236328e-01
-4.155002832412719727e-01
4.187420308589935303e-01
3.903956115245819092e-01
-4.016210734844207764e-01
-2.816713750362396240e-01
8.771809935569763184e-02
-3.750077784061431885e-01
-2.044773697853088379e-01
-3.500052690505981445e-01
-2.027838826179504395e-01
5.097334980964660645e-01
-5.752780288457870483e-02
-8.272494077682495117e-01
-1.213812530040740967e-01
-2.966545820236206055e-01
-1.156242638826370239e-01
1.568720489740371704e-01
2.642038762569427490e-01
1.411991834640502930e+00
-3.549430668354034424e-01
-4.658998250961303711e-01
4.695717096328735352e-01
-1.117964461445808411e-02
1.767988502979278564e-01
8.381391763687133789e-01
-4.913957715034484863e-01
4.811184480786323547e-02
2.064074724912643433e-01
-2.376987338066101074e-01
1.094379276037216187e-01
-5.776055157184600830e-02
3.362228721380233765e-02
-1.778176724910736084e-01
-2.423305362462997437e-01
4.901972115039825439e-01
3.665602505207061768e-01
-6.571882870048284531e-03
-3.633153811097145081e-02
4.070318862795829773e-02
-2.276046723127365112e-01
5.802037194371223450e-02
-1.220521256327629089e-01
-1.890491545200347900e-01
1.064495563507080078e+00
7.589825987815856934e-02
-2.619858682155609131e-01
-1.625747084617614746e-01
6.683371216058731079e-02
2.891372740268707275e-01
-1.851870417594909668e-01
4.614982381463050842e-02
5.127421021461486816e-01
-8.315834216773509979e-03
1.282176375389099121e-01
1.939500570297241211e-01
1.294301450252532959e-01
1.435819864273071289e-01
-2.645219564437866211e-01
-1.325491905212402344e+00
-3.021099232137203217e-02
3.290991485118865967e-01
-1.651262193918228149e-01
-2.531622648239135742e-01
1.240689381957054138e-01
2.548201978206634521e-01
1.579629480838775635e-01
3.443797826766967773e-01
1.105137825012207031e+00
-2.791539430618286133e-01
2.296495251357555389e-02
-1.688115149736404419e-01
4.195308983325958252e-01
3.515434861183166504e-01
-1.255444288253784180e-01
7.256109118461608887e-01
4.761408567428588867e-01
-3.664206862449645996e-01
1.722756028175354004e-01
-3.213977441191673279e-02
1.724129468202590942e-01
3.837532177567481995e-02
-5.031601190567016602e-01
-1.354948244988918304e-02
3.244935348629951477e-02
-2.909483611583709717e-01
-1.232544928789138794e-01
4.759076535701751709e-01
2.424980998039245605e-01
4.250940084457397461e-01
-2.349978834390640259e-01
-1.013381183147430420e-01
9.187507629394531250e-02
3.192238509654998779e-01
6.667606234550476074e-01
-4.943063259124755859e-01
-2.160682678222656250e-01
9.266068786382675171e-02
-1.222032904624938965e-01
5.838372707366943359e-01
3.495029509067535400e-01
2.672782540321350098e-01
2.488439977169036865e-01
-2.625937759876251221e-01
2.821308970451354980e-01
4.144174754619598389e-01
2.875585854053497314e-01
2.121431287378072739e-03
2.403176426887512207e-01
-5.156726241111755371e-01
6.137419939041137695e-01
-4.337035864591598511e-02
2.338017374277114868e-01
6.770100593566894531e-01
-5.935965776443481445e-01
1.198309063911437988e-01
6.068955659866333008e-01
-6.617969870567321777e-01
-2.798223495483398438e-01
-4.297166466712951660e-01
-1.614366173744201660e-01
-1.299944818019866943e-01
2.765602171421051025e-01
8.655404672026634216e-03
-1.508033089339733124e-02
2.876021265983581543e-01
-1.765873581171035767e-01
-5.515094380825757980e-03
1.240042299032211304e-01
-2.684090733528137207e-01
5.422771573066711426e-01
1.862305998802185059e-01
-9.258853644132614136e-02
-1.030639857053756714e-01
4.797750338912010193e-02
-3.126733601093292236e-01
2.417491078376770020e-01
1.518703848123550415e-01
3.834746778011322021e-01
7.322987914085388184e-02
-4.863208532333374023e-02
-1.767975091934204102e+00
-9.833765029907226562e-02
-1.307986378669738770e-01
4.235219657421112061e-01
3.972066640853881836e-01
2.545246481895446777e-02
9.175519645214080811e-02
-1.397991329431533813e-01
1.540354788303375244e-01
1.124747321009635925e-01
3.493378683924674988e-02
-3.645489513874053955e-01
-8.307657241821289062e-01
7.056247591972351074e-01
-5.141379237174987793e-01
-6.223368048667907715e-01
2.943958342075347900e-01
3.704180121421813965e-01
-2.524139545857906342e-02
3.052903115749359131e-01
1.736758202314376831e-01
1.106332764029502869e-01
-2.242107987403869629e-01
5.573533475399017334e-03
2.262410521507263184e-02
-4.374324530363082886e-02
-1.744939386844635010e-01
4.831433668732643127e-02
-8.079565763473510742e-01
1.225828751921653748e-01
4.394721090793609619e-01
-8.820614218711853027e-01
-2.261969745159149170e-01
-3.392609357833862305e-01
3.991178274154663086e-01
-2.112163752317428589e-01
3.829673631116747856e-03
3.435772061347961426e-01
3.420003056526184082e-01
-9.815423935651779175e-02
1.078759193420410156e+00
3.058848083019256592e-01
-9.032157808542251587e-02
-2.184539288282394409e-02
6.465408205986022949e-01
-1.962005645036697388e-01
3.294889628887176514e-01
1.531166434288024902e+00
-1.479117870330810547e+00
2.995584905147552490e-01
1.829144507646560669e-01
-1.467160433530807495e-01
-4.262457489967346191e-01
-5.852856487035751343e-02
-7.231695950031280518e-02
4.439382553100585938e-01
6.426655054092407227e-01
5.235118269920349121e-01
-6.085221171379089355e-01
2.550345063209533691e-01
1.964484453201293945e+00
-1.715349853038787842e-01
1.690153628587722778e-01
1.137013640254735947e-02
1.272676736116409302e-01
3.826049342751502991e-02
-3.173351585865020752e-01
3.671110570430755615e-01
7.410323023796081543e-01
-4.562236368656158447e-01
-2.721103131771087646e-01
2.772018909454345703e-01
6.617797613143920898e-01
5.561855807900428772e-02
2.346658110618591309e-01
2.848609983921051025e-01
-2.956145107746124268e-01
-4.944287538528442383e-01
-1.564980298280715942e-01
-2.024197578430175781e-01
-3.061775267124176025e-01
-3.946863114833831787e-01
-7.248464226722717285e-02
-1.281287372112274170e-01
2.497663535177707672e-02
1.640140712261199951e-01
-5.121582001447677612e-02
-1.055499315261840820e+00
-2.348513126373291016e+00
3.236079216003417969e-02
9.422185271978378296e-02
2.520016431808471680e-01
1.828366369009017944e-01
-3.015962541103363037e-01
1.539476495236158371e-02
-2.358549684286117554e-01
-6.103995256125926971e-03
5.209983140230178833e-02
5.049155950546264648e-01
-4.784180819988250732e-01
5.381277576088905334e-02
-9.998949617147445679e-02
-4.665903374552726746e-02
2.691717743873596191e-01
-7.637784630060195923e-02
2.861310541629791260e-01
-4.929369091987609863e-01
1.966253221035003662e-01
2.768020331859588623e-01
1.582258045673370361e-01
7.438974380493164062e-01
-4.320227205753326416e-01
1.117152050137519836e-01
-1.559993773698806763e-01
5.094618797302246094e-01
-3.020254969596862793e-01
3.718841075897216797e-01
-1.196081265807151794e-01
3.178166151046752930e-01
-5.456413030624389648e-01
1.418966889381408691e+00
8.944735676050186157e-02
2.992816865444183350e-01
-3.436164855957031250e-01
-1.340949386358261108e-01
3.861137330532073975e-01
-2.926775217056274414e-01
7.938132286071777344e-01
1.698627918958663940e-01
-3.702827394008636475e-01
-1.259355843067169189e-01
-5.726896598935127258e-02
1.129654943943023682e-01
1.118403449654579163e-01
-3.133330941200256348e-01
2.985734939575195312e-01
2.364121526479721069e-01
-9.967821650207042694e-03
9.051155298948287964e-02
-7.637681365013122559e-01
-6.897834688425064087e-02
-1.568933427333831787e-01
1.790067404508590698e-01
6.026896461844444275e-02
-3.754701018333435059e-01
-4.645385220646858215e-02
-1.408226937055587769e-01
-1.199930608272552490e-01
9.963047504425048828e-01
-4.402195513248443604e-01
-2.698774039745330811e-01
1.211585551500320435e-01
3.314415812492370605e-01
-3.088813722133636475e-01
3.276185989379882812e-01
-1.012116447091102600e-01
-1.337558217346668243e-02
-4.944339692592620850e-01
-2.067249566316604614e-01
-3.132529556751251221e-02
-2.523622512817382812e-01
-3.270309418439865112e-02
1.246918886899948120e-01
-9.844383597373962402e-02
-4.711362421512603760e-01
4.063953459262847900e-02
-2.450838536024093628e-01
-4.451136887073516846e-01
6.034896373748779297e-01
-1.598140299320220947e-01
-3.232738971710205078e-01
3.087081909179687500e-01
2.563168108463287354e-01
1.431550085544586182e-01
2.445478290319442749e-01
-2.824944257736206055e-01
-2.068278491497039795e-01
-5.607666373252868652e-01
5.708035230636596680e-01
-1.623609215021133423e-01
-2.523087263107299805e-01
-1.699154675006866455e-01
-6.556081175804138184e-01
1.108377128839492798e-01
-1.848225444555282593e-01
6.430441886186599731e-02
-3.921587020158767700e-02
-3.453634679317474365e-01
-2.616028115153312683e-02
-1.135083287954330444e-01
6.616240739822387695e-02
5.687040090560913086e-01
-1.070385277271270752e-01
1.474463194608688354e-01
2.834294736385345459e-01
-2.980662286281585693e-01
-1.268245279788970947e-01
-9.472949057817459106e-02
-5.275259166955947876e-02
-1.130471006035804749e-01
-4.027979373931884766e-01
-3.182833194732666016e-01
-1.101723760366439819e-01
1.314047276973724365e-01
-5.925821065902709961e-01
2.509063482284545898e-01
-3.424981236457824707e-01
-8.139768242835998535e-01
8.269332051277160645e-01
-5.986698865890502930e-01
-1.343419849872589111e-01
2.123237401247024536e-01
3.133422434329986572e-01
-1.654221676290035248e-03
1.610276848077774048e-01
-3.147096037864685059e-01
-4.014073908329010010e-01
-4.494962096214294434e-01
2.073337733745574951e-01
-2.919951640069484711e-02
-7.590029388666152954e-02
-2.239660620689392090e-01
-2.806590497493743896e-01
-1.903995126485824585e-01
-6.005529761314392090e-01
8.355028182268142700e-02
-3.159160315990447998e-01
-9.001811146736145020e-01
8.688583374023437500e-01
-1.530748307704925537e-01
-1.564033269882202148e+00
3.381586074829101562e-01
1.568776220083236694e-01
2.460389435291290283e-01
1.511503905057907104e-01
-8.587457984685897827e-02
-3.744339048862457275e-01
-1.596012264490127563e-01
8.006606996059417725e-02
-8.336890488862991333e-02
-3.882574141025543213e-01
1.445121020078659058e-01
1.540771126747131348e-01
1.194440573453903198e-01
-9.160924553871154785e-01
-1.767996996641159058e-01
1.786728054285049438e-01
-4.366358816623687744e-01
6.883558630943298340e-01
-9.061109274625778198e-02
-7.610993981361389160e-01
5.516808629035949707e-01
1.769309788942337036e-01
-4.233371615409851074e-01
-1.021483168005943298e-01
1.436893045902252197e-01
-3.794172033667564392e-02
-1.576474308967590332e-01
7.986213266849517822e-02
3.047513961791992188e-01
4.379013776779174805e-01
5.429905056953430176e-01
-1.083565205335617065e-01
-5.335536599159240723e-01
1.300163269042968750e-01
-4.507971182465553284e-02
1.149152219295501709e-01
-2.189785838127136230e-01
-3.169311955571174622e-02
4.073134958744049072e-01
1.066797226667404175e-01
-2.494840472936630249e-01
8.880274742841720581e-02
1.369996517896652222e-01
7.955954642966389656e-04
4.415293335914611816e-01
-1.012496650218963623e-01
3.893195837736129761e-02
-2.200796827673912048e-02
4.598764702677726746e-02
-2.364859282970428467e-01
-1.219450607895851135e-01
-6.186483502388000488e-01
5.547993779182434082e-01
7.210792899131774902e-01
-7.431559264659881592e-02
1.694667637348175049e-01
2.365356087684631348e-01
-8.984149098396301270e-01
1.715790629386901855e-01
7.979965806007385254e-01
-5.207883119583129883e-01
-3.892156183719635010e-01
-2.757869958877563477e-01
2.348083853721618652e-01
-2.892955839633941650e-01
1.113139763474464417e-01
3.657783567905426025e-01
4.335795342922210693e-01
-2.390614748001098633e-01
-1.860399693250656128e-01
1.033862948417663574e+00
-1.200030446052551270e+00
2.946568280458450317e-02
-3.727875053882598877e-01
-5.464621186256408691e-01
1.825226098299026489e-01
-2.064132839441299438e-01
-1.934790313243865967e-01
2.742751836776733398e-01
1.621981859207153320e+00
-3.453898429870605469e-01
1.962170749902725220e-01
-6.227487325668334961e-01
1.995295882225036621e-01
1.199263110756874084e-01
-6.048822775483131409e-02
4.336167499423027039e-02
1.350382715463638306e-01
3.828549683094024658e-01
-4.403381645679473877e-01
2.222748249769210815e-01
-5.884658545255661011e-02
1.146763097494840622e-02
4.888788610696792603e-02
1.387194842100143433e-01
7.850056886672973633e-02
3.869023174047470093e-02
7.246091365814208984e-01
1.759593486785888672e-01
1.664572209119796753e-01
-4.080834686756134033e-01
-2.621743679046630859e-01
-6.471576541662216187e-02
-6.080609560012817383e-01
8.935041725635528564e-02
4.983214735984802246e-01
9.341394901275634766e-02
-5.882522463798522949e-02
-1.472967565059661865e-01
-6.651495099067687988e-01
3.443930447101593018e-01
-2.046017795801162720e-01
4.069406986236572266e-01
7.518128752708435059e-01
-2.602861821651458740e-01
1.630537360906600952e-01
4.987168908119201660e-01
1.280145347118377686e-01
3.037999868392944336e-01
-4.396713078022003174e-01
-4.887924790382385254e-01
-7.372385859489440918e-01
7.471744418144226074e-01
-3.414568006992340088e-01
9.214299917221069336e-02
-3.591138124465942383e-01
1.749564707279205322e-01
-5.083051919937133789e-01
3.023798465728759766e-01
4.016829431056976318e-01
2.224746644496917725e-01
7.587813138961791992e-01
4.901441335678100586e-01
-8.638490438461303711e-01
2.423480302095413208e-01
-2.653861604630947113e-02
-7.462338805198669434e-01
4.338976442813873291e-01
-8.383437246084213257e-02
6.541234850883483887e-01
3.036620318889617920e-01
-3.366542160511016846e-01
3.876450061798095703e-01
2.879988551139831543e-01
9.700374305248260498e-02
-4.806989058852195740e-02
-2.359162271022796631e-01
-9.178213775157928467e-02
-4.284211248159408569e-02
-4.120236337184906006e-01
-1.674719303846359253e-01
-2.500725090503692627e-01
9.071955084800720215e-02
-3.086827397346496582e-01
4.219991266727447510e-01
-1.375950574874877930e-01
-3.060484230518341064e-01
-4.324540495872497559e-02
-1.590019166469573975e-01
-1.244541287422180176e+00
-1.205377280712127686e-01
3.719348907470703125e-01
-1.875733435153961182e-01
-9.593525528907775879e-01
-5.272554755210876465e-01
2.885591983795166016e-01
-2.564778029918670654e-01
1.331701427698135376e-01
-2.529799640178680420e-01
5.644512176513671875e-01
2.333801090717315674e-01
6.469434499740600586e-01
-5.144037604331970215e-01
1.050314754247665405e-01
9.906392544507980347e-02
1.266396343708038330e-01
-3.234145939350128174e-01
-2.462272047996520996e-01
-4.978215396404266357e-01
-3.877367079257965088e-01
1.726732216775417328e-02
-1.823499500751495361e-01
2.298829331994056702e-02
2.363474220037460327e-01
-1.681249737739562988e-01
1.289054751396179199e-01
-2.290071845054626465e-01
4.718348383903503418e-02
-4.857705235481262207e-01
4.620989859104156494e-01
-3.217314779758453369e-01
-4.984870254993438721e-01
2.652274072170257568e-01
-2.826657593250274658e-01
3.711881488561630249e-02
-6.360269784927368164e-01
3.620731830596923828e-01
3.642292916774749756e-01
5.259961485862731934e-01
1.357128024101257324e-01
4.366941750049591064e-01
6.970297098159790039e-01
5.376779008656740189e-03
-1.136393174529075623e-01
-8.665753901004791260e-02
-3.985295891761779785e-01
2.129229158163070679e-01
-2.712984979152679443e-01
6.129633262753486633e-02
5.239677429199218750e-01
-2.363592386245727539e-01
-6.349692344665527344e-01
-3.284216225147247314e-01
-1.432836353778839111e-01
-6.177775561809539795e-02
3.015961498022079468e-02
5.299853682518005371e-01
4.287128746509552002e-01
-2.624951303005218506e-02
4.145976901054382324e-01
3.679380118846893311e-01
1.517189502716064453e+00
7.596704363822937012e-02
-7.417193055152893066e-01
-9.916967898607254028e-02
-2.367416769266128540e-01
-6.061250716447830200e-02
5.125177502632141113e-01
-8.184782415628433228e-02
-9.538055658340454102e-01
-5.569778680801391602e-01
-5.101147890090942383e-01
7.601559162139892578e-01
9.455164521932601929e-02
-1.127521544694900513e-01
6.430084109306335449e-01
1.381895840167999268e-01
2.939522266387939453e-01
2.119549922645092010e-02
9.126639366149902344e-02
-1.096585532650351524e-03
-5.142603516578674316e-01
4.882505834102630615e-01
1.721261143684387207e-01
5.152344107627868652e-01
4.592252522706985474e-02
3.658731579780578613e-01
-5.003706738352775574e-02
-1.475534588098526001e-01
1.818826794624328613e+00
-3.411434590816497803e-01
-4.471075832843780518e-01
-1.579294800758361816e-01
-1.377707421779632568e-01
-1.828667074441909790e-01
-8.821432292461395264e-02
2.915883064270019531e-01
1.740542054176330566e-01
3.763993084430694580e-01
3.543387949466705322e-01
4.041046202182769775e-01
-5.518538355827331543e-01
-2.429658472537994385e-01
9.046682119369506836e-01
1.141236722469329834e-01
-1.009362190961837769e-01
-6.781423091888427734e-02
5.312322378158569336e-01
5.799800753593444824e-01
3.916290402412414551e-01
-2.193250358104705811e-01
-2.923525571823120117e-01
9.735369682312011719e-02
-2.976549565792083740e-01
-2.985395863652229309e-02
-7.226198315620422363e-01
2.216660082340240479e-01
1.496446579694747925e-01
4.210800826549530029e-01
2.667232975363731384e-02
2.883397936820983887e-01
6.394724845886230469e-01
2.439837753772735596e-01
-4.191692173480987549e-01
4.714825153350830078e-01
2.122087962925434113e-02
6.276119351387023926e-01
6.636356562376022339e-02
2.373715490102767944e-01
2.538863420486450195e-01
-4.449501633644104004e-02
3.122068643569946289e-01
-6.289954781532287598e-01
-5.312653779983520508e-01
-4.371114075183868408e-02
-3.560614883899688721e-01
-3.596722781658172607e-01
-3.411324322223663330e-01
-4.011396467685699463e-01
-1.167643740773200989e-01
-3.703861534595489502e-01
-2.906590327620506287e-02
2.326117455959320068e-01
-1.842215359210968018e-01
5.818200111389160156e-01
1.811709702014923096e-01
8.924271166324615479e-02
-2.895059529691934586e-03
-3.008912503719329834e-01
9.995979070663452148e-01
6.254884600639343262e-01
-6.028905510902404785e-02
-2.628519237041473389e-01
1.959552019834518433e-01
1.250338554382324219e-01
-4.391636550426483154e-01
-4.232560992240905762e-01
5.408098921179771423e-02
4.193862676620483398e-01
-1.572103798389434814e-01
-3.630841076374053955e-01
-1.007688283920288086e+00
-1.403980404138565063e-01
1.279352545738220215e+00
2.624980211257934570e-01
2.776699662208557129e-01
-3.045102395117282867e-02
7.866571545600891113e-01
2.575012445449829102e-01
2.621042430400848389e-01
2.485731244087219238e-01
2.780591249465942383e-01
-2.992043197154998779e-01
-6.064694374799728394e-03
6.246142089366912842e-03
-1.348440349102020264e-01
-4.047023952007293701e-01
-4.205564558506011963e-01
-4.614640474319458008e-01
-3.207356929779052734e-01
-1.111591339111328125e+00
-4.563862681388854980e-01
1.546978354454040527e-01
3.453907668590545654e-01
5.677101761102676392e-02
1.824347525835037231e-01
-1.803498268127441406e-01
7.728926092386245728e-02
-2.280040681362152100e-01
-3.073159158229827881e-01
2.233749814331531525e-02
2.292457967996597290e-01
1.065545201301574707e+00
-1.418765783309936523e-01
-4.402727782726287842e-01
3.311224877834320068e-01
-7.874158024787902832e-02
-2.883119583129882812e-01
6.607904564589262009e-03
-2.992067039012908936e-01
-1.044984310865402222e-01
5.139459297060966492e-02
3.781681656837463379e-01
-1.363929063081741333e-01
2.387836575508117676e-01
-4.367279633879661560e-02
-1.652867496013641357e-01
1.938217580318450928e-01
-6.303545832633972168e-02
-1.257351636886596680e+00
-4.082889258861541748e-01
-2.325778640806674957e-02
-3.961606919765472412e-01
-2.196528315544128418e-01
-2.077018618583679199e-01
2.731591761112213135e-01
1.657466888427734375e-01
-2.934238500893115997e-02
-5.661512613296508789e-01
-1.432147473096847534e-01
-6.416366249322891235e-02
6.431102156639099121e-01
4.564886093139648438e-01
-1.398058384656906128e-01
4.031179249286651611e-01
-1.048125028610229492e-01
1.227666363120079041e-01
5.664886832237243652e-01
3.507526516914367676e-01
3.350453972816467285e-01
-3.847727179527282715e-01
-1.569791287183761597e-01
6.236607432365417480e-01
2.595483064651489258e-01
-3.021229505538940430e-01
3.411059677600860596e-01
-2.086126357316970825e-01
2.656459510326385498e-01
-1.321337819099426270e-01
7.038681209087371826e-02
3.972284868359565735e-02
-1.031021714210510254e+00
3.119418025016784668e-01
1.301911771297454834e-01
-8.020555973052978516e-01
-6.586055159568786621e-01
2.016278803348541260e-01
1.119915395975112915e-01
2.052327543497085571e-01
3.156210184097290039e-01
3.786956071853637695e-01
4.220429658889770508e-01
-6.189042329788208008e-01
-2.247530370950698853e-01
-2.752386629581451416e-01
2.717963606119155884e-02
-3.676792383193969727e-01
-4.161430001258850098e-01
-8.028809428215026855e-01
-4.844202101230621338e-01
-7.205538749694824219e-01
-5.374864935874938965e-01
2.976259589195251465e-01
3.545880019664764404e-01
1.533341854810714722e-01
6.104061007499694824e-01
3.246122002601623535e-01
-3.517356514930725098e-01
-3.296357095241546631e-01
1.959732472896575928e-01
7.914746552705764771e-02
-6.560963988304138184e-01
9.887499362230300903e-02
-9.429625421762466431e-02
2.817579805850982666e-01
1.008301898837089539e-01
7.526801228523254395e-01
8.269184231758117676e-01
2.561381757259368896e-01
5.699959993362426758e-01
7.501963376998901367e-01
5.228999853134155273e-01
-5.372684597969055176e-01
-9.899143129587173462e-02
-4.903670400381088257e-02
-2.822059392929077148e-01
5.904517322778701782e-02
-7.957100868225097656e-02
1.480038017034530640e-01
-1.661276519298553467e-01
-4.916434586048126221e-01
-1.787583678960800171e-01
9.276115149259567261e-02
-3.787645697593688965e-01
2.331301569938659668e-01
-1.535434741526842117e-02
5.148315429687500000e-01
-9.592708200216293335e-03
6.389839053153991699e-01
3.473957180976867676e-01
-3.812547922134399414e-01
8.739707469940185547e-01
-3.058489263057708740e-01
-5.800944566726684570e-01
-5.621562600135803223e-01
2.522168755531311035e-01
2.466370724141597748e-02
2.346818894147872925e-01
-9.139689803123474121e-01
6.990738511085510254e-01
-8.811141550540924072e-02
9.776413207873702049e-04
-2.136228047311306000e-02
-2.440067231655120850e-01
-5.662598013877868652e-01
-5.508806109428405762e-01
-3.601929843425750732e-01
-1.542939394712448120e-01
9.385133534669876099e-02
-3.675332963466644287e-01
3.094185888767242432e-01
-2.261334359645843506e-01
-2.522970549762248993e-02
-1.487081795930862427e-01
6.782378554344177246e-01
-1.157570108771324158e-01
1.575325489044189453e+00
3.996659517288208008e-01
-4.768437147140502930e-01
1.606389433145523071e-01
-4.366517066955566406e-01
-1.630342304706573486e-01
-6.303702592849731445e-01
-3.566680476069450378e-02
-2.775292396545410156e-01
-7.621643543243408203e-01
1.203050604090094566e-03
-1.484268158674240112e-01
-2.243685349822044373e-02
-8.651708811521530151e-02
-6.367879360914230347e-02
1.693198084831237793e-01
-2.341611236333847046e-01
2.802156209945678711e-01
1.217573210597038269e-01
2.951901853084564209e-01
-1.073658391833305359e-01
1.439892798662185669e-01
7.916969805955886841e-02
-2.046635895967483521e-01
-1.340791434049606323e-01
-5.586902499198913574e-01
7.989950180053710938e-01
1.499815732240676880e-01
2.840542793273925781e-01
7.370947003364562988e-01
4.024519920349121094e-01
8.802205324172973633e-02
6.673651188611984253e-02
6.029399633407592773e-01
3.379257321357727051e-01
-1.580579876899719238e-01
-5.131985992193222046e-02
-1.976234018802642822e-01
9.108283370733261108e-02
1.429505348205566406e-01
1.390964239835739136e-01
2.247344106435775757e-01
3.380520343780517578e-01
-7.211185991764068604e-02
4.258046448230743408e-01
2.178073674440383911e-02
2.160274684429168701e-01
1.641132086515426636e-01
2.953789532184600830e-01
2.745879292488098145e-01
-6.948201358318328857e-02
2.495331019163131714e-01
-5.673056244850158691e-01
-1.310194432735443115e-01
7.434603571891784668e-02
-3.421437740325927734e-01
-1.445049494504928589e-01
-7.619883865118026733e-02
-2.987858355045318604e-01
7.974425703287124634e-02
-1.654225438833236694e-01
-6.119078397750854492e-01
-1.384821385145187378e-01
7.710056751966476440e-02
2.682383172214031219e-03
-2.626449465751647949e-01
5.412248969078063965e-01
-2.129236963810399175e-05
4.722927212715148926e-01
2.908580005168914795e-01
3.752609789371490479e-01
4.182686209678649902e-01
3.134962916374206543e-01
5.774273872375488281e-01
-1.080889105796813965e-01
3.071345388889312744e-01
-3.113292455673217773e-01
-2.186105959117412567e-02
-8.790626525878906250e-01
2.228576391935348511e-01
-8.615197986364364624e-02
5.553545355796813965e-01
9.376226365566253662e-02
-3.500317931175231934e-01
1.087677597999572754e+00
3.146079182624816895e-01
-7.699257135391235352e-02
1.277397871017456055e-01
5.025057122111320496e-02
-2.967603504657745361e-02
-2.724298536777496338e-01
-1.043281033635139465e-01
-3.917184174060821533e-01
-3.040181100368499756e-01
-4.611857533454895020e-01
1.386027485132217407e-01
-8.666672557592391968e-02
4.757662117481231689e-01
-4.108300805091857910e-01
-2.127931416034698486e-01
-6.351843476295471191e-01
2.529225349426269531e-01
-3.181710243225097656e-01
-1.295752972364425659e-01
-3.394369781017303467e-01
-1.732427924871444702e-01
-3.851208388805389404e-01
-2.324571460485458374e-01
5.110833048820495605e-01
1.715833544731140137e-01
5.494857430458068848e-01
1.781573444604873657e-01
-4.862139932811260223e-03
-2.635288238525390625e-02
4.700758755207061768e-01
-5.388222336769104004e-01
-2.244694530963897705e-01
4.165216684341430664e-01
1.797679662704467773e-01
-2.119371891021728516e-01
2.461404949426651001e-01
-2.231794148683547974e-01
6.269269436597824097e-02
-1.754177957773208618e-01
1.250183731317520142e-01
-4.242683053016662598e-01
-5.965074896812438965e-01
-3.456261754035949707e-01
1.583697646856307983e-01
-6.157923340797424316e-01
5.093976259231567383e-01
-1.470991075038909912e-01
-6.848067045211791992e-01
2.078485637903213501e-01
2.276922948658466339e-02
-4.264240339398384094e-02
1.295100331306457520e+00
1.777379959821701050e-01
1.598026901483535767e-01
-2.072373330593109131e-01
6.212885379791259766e-01
-7.582316547632217407e-02
1.278914570808410645e+00
-2.313625365495681763e-01
-1.601223200559616089e-01
-1.105489674955606461e-02
3.182678222656250000e-01
-7.235428690910339355e-02
-1.344494372606277466e-01
1.152204945683479309e-01
7.479291409254074097e-02
5.559240281581878662e-02
6.639280915260314941e-02
1.046374216675758362e-01
2.091836333274841309e-01
-2.341669797897338867e-01
7.742878049612045288e-02
-3.543888032436370850e-01
-3.007862530648708344e-02
1.296191811561584473e-01
-4.266615584492683411e-02
1.468412727117538452e-01
3.635881096124649048e-02
-4.809961467981338501e-02
-2.566099464893341064e-01
2.699304223060607910e-01
7.395942229777574539e-03
-1.194850425235927105e-03
-4.149764180183410645e-01
-5.202905461192131042e-02
-1.437308043241500854e-01
7.552986592054367065e-02
9.176643192768096924e-02
6.645406782627105713e-02
-6.088683381676673889e-02
2.064836174249649048e-01
-9.326095879077911377e-02
2.114644348621368408e-01
-2.545509636402130127e-01
6.232303380966186523e-02
4.678613543510437012e-01
5.977486819028854370e-02
-3.749223425984382629e-02
-2.000138312578201294e-01
8.486958593130111694e-02
2.946451131720095873e-04
