5.392611622810363770e-01
-2.150315344333648682e-01
-1.369684189558029175e-01
1.939260959625244141e-01
-4.651901721954345703e-01
7.193039059638977051e-01
-8.412048220634460449e-03
3.473240435123443604e-01
1.453882008790969849e-01
-1.445106625556945801e+00
1.341210771352052689e-02
1.819017380475997925e-01
3.818186819553375244e-01
-4.415568709373474121e-02
-1.395945698022842407e-01
-1.031490683555603027e+00
-2.186204865574836731e-02
7.789112627506256104e-02
4.273361861705780029e-01
8.046619296073913574e-01
-7.649354636669158936e-02
-1.601987004280090332e+00
2.610778063535690308e-02
-5.985097289085388184e-01
-4.052275791764259338e-02
-6.369020342826843262e-01
2.635036408901214600e-01
1.006044864654541016e+00
-3.575669527053833008e-01
5.080403089523315430e-01
7.188429124653339386e-03
2.069579213857650757e-01
4.603710770606994629e-01
-5.749682784080505371e-01
-4.342184960842132568e-01
-8.088491559028625488e-01
6.472278833389282227e-01
6.545584797859191895e-01
4.885090887546539307e-01
4.856404289603233337e-02
1.021736621856689453e+00
-8.274341225624084473e-01
7.519865036010742188e-01
-2.665701508522033691e-01
-3.727422654628753662e-01
3.979744911193847656e-01
-8.581399321556091309e-01
8.161346912384033203e-01
-4.967689812183380127e-01
3.133020997047424316e-01
-5.031942129135131836e-01
-3.097139000892639160e-01
6.376528739929199219e-01
-7.404773235321044922e-01
1.194402933120727539e+00
-1.751152984797954559e-02
7.622478157281875610e-02
-7.786560058593750000e-01
1.377991557121276855e+00
6.642504930496215820e-01
2.703621685504913330e-01
-2.333441674709320068e-01
-1.372999697923660278e-01
1.664074361324310303e-01
2.177098989486694336e-01
1.344719976186752319e-01
2.062292844057083130e-01
7.353965044021606445e-01
-1.520317345857620239e-01
-6.935459375381469727e-01
2.407922446727752686e-01
-5.669582262635231018e-02
4.973785206675529480e-02
-7.857623696327209473e-01
-2.341001480817794800e-02
1.482915878295898438e-01
3.946046531200408936e-01
1.915155351161956787e-01
7.132898271083831787e-02
5.262455940246582031e-01
-3.864347636699676514e-01
-8.672575652599334717e-02
-2.260775715112686157e-01
-2.076831758022308350e-01
4.937046170234680176e-01
-2.977401018142700195e-01
-2.397976815700531006e-02
2.701789736747741699e-01
-1.734927482903003693e-02
-1.949239671230316162e-01
5.739561915397644043e-01
2.121574282646179199e-01
3.095489367842674255e-02
-1.098038256168365479e-01
-3.209337890148162842e-01
-4.309941828250885010e-01
2.958699762821197510e-01
5.768316388130187988e-01
-4.654932022094726562e-01
-4.781335592269897461e-01
1.897478848695755005e-01
-3.793316707015037537e-02
3.820795714855194092e-01
2.391599267721176147e-01
-6.067247986793518066e-01
-2.158207260072231293e-02
3.141417205333709717e-01
-2.628479301929473877e-01
-1.150612607598304749e-01
2.760282456874847412e-01
-2.659173309803009033e-01
-1.947623193264007568e-01
1.395061612129211426e-01
4.409290552139282227e-01
1.822971403598785400e-01
1.650137603282928467e-01
-3.017952442169189453e-01
8.085680194199085236e-03
-1.463209986686706543e-01
-3.199963271617889404e-01
-1.827803999185562134e-01
1.683153361082077026e-01
2.638343274593353271e-01
-8.419505506753921509e-02
1.426391154527664185e-01
-1.746771335601806641e-01
-1.504469811916351318e-01
-9.579062461853027344e-02
2.753863334655761719e-01
-5.383413657546043396e-02
-3.588930144906044006e-02
7.525858283042907715e-02
-7.204414904117584229e-02
-1.158284917473793030e-01
2.302189916372299194e-02
1.041293293237686157e-01
-4.936673641204833984e-01
1.711276173591613770e-01
4.032953828573226929e-02
-3.154718279838562012e-01
-1.395159363746643066e+00
8.256095647811889648e-01
-2.559475600719451904e-01
5.542584657669067383e-01
3.898743987083435059e-01
-3.741410374641418457e-01
1.440841257572174072e-01
-4.054488837718963623e-01
3.888106346130371094e-01
4.101948142051696777e-01
1.272175312042236328e-01
3.402680456638336182e-01
-2.188959270715713501e-01
4.694780707359313965e-01
-3.514846265316009521e-01
-1.086521148681640625e-01
-6.451135873794555664e-01
-6.356645375490188599e-02
-1.888158619403839111e-01
-1.144524335861206055e+00
7.814043015241622925e-02
-2.027304470539093018e-01
3.243418037891387939e-01
-1.634377287700772285e-03
-7.396678924560546875e-01
3.097235560417175293e-01
-2.866419851779937744e-01
1.073082759976387024e-01
-4.506664872169494629e-01
-9.858547151088714600e-02
-6.755944490432739258e-01
-4.851664304733276367e-01
1.241014376282691956e-01
-1.470339447259902954e-01
4.106163084506988525e-01
5.833192467689514160e-01
3.558019101619720459e-01
-2.347940504550933838e-01
4.178259521722793579e-02
3.844713568687438965e-01
-1.686807423830032349e-01
-1.256111264228820801e-02
-7.855316996574401855e-01
-3.146378695964813232e-01
5.235642790794372559e-01
4.637534543871879578e-02
5.932747721672058105e-01
-1.761126071214675903e-01
1.958977058529853821e-02
2.781958281993865967e-01
4.927416443824768066e-01
1.518090665340423584e-01
-2.359572499990463257e-01
1.655444800853729248e-01
-4.724976420402526855e-01
-4.981334805488586426e-01
7.520084381103515625e-01
1.065707430243492126e-01
1.141098961234092712e-01
-8.217734843492507935e-02
3.018231391906738281e-01
-4.200252890586853027e-01
3.390175402164459229e-01
1.051175128668546677e-02
-2.886025421321392059e-02
2.354351431131362915e-01
-1.576641201972961426e-01
3.366444110870361328e-01
-1.164953708648681641e-01
5.990398302674293518e-02
-3.286428153514862061e-01
-1.603754907846450806e-01
8.656183630228042603e-02
-3.346503973007202148e-01
3.745844960212707520e-01
4.155831336975097656e-01
-1.167341172695159912e-01
-5.047587752342224121e-01
2.729068100452423096e-01
2.494388222694396973e-01
-3.560384213924407959e-01
1.000125706195831299e-01
-1.186067014932632446e-01
-3.327781260013580322e-01
-4.867779612541198730e-01
-1.937619969248771667e-02
-2.068728953599929810e-01
2.841491103172302246e-01
-2.010850310325622559e-01
8.791503906250000000e-01
-9.595999121665954590e-01
-5.633926987648010254e-01
5.127798318862915039e-01
3.298427164554595947e-02
8.221143484115600586e-02
3.161511719226837158e-01
-1.807843744754791260e-01
-3.269690275192260742e-01
1.531958729028701782e-01
8.930306881666183472e-02
2.884524762630462646e-01
-4.305783510208129883e-01
4.253268539905548096e-01
-6.779428571462631226e-02
-2.922713458538055420e-01
3.625488281250000000e-01
-4.827623665332794189e-01
-5.790458247065544128e-02
-4.397688806056976318e-01
4.193586409091949463e-01
-8.520492166280746460e-02
-3.798702061176300049e-01
2.916639149188995361e-01
1.793310195207595825e-01
4.470263421535491943e-01
6.499553471803665161e-02
-2.778774201869964600e-01
-2.917151153087615967e-01
4.869362413883209229e-01
3.660524487495422363e-01
5.170054435729980469e-01
-1.512457132339477539e-01
-2.174797207117080688e-01
-5.334678292274475098e-01
-4.053355753421783447e-01
3.486282425001263618e-03
-8.552195131778717041e-02
9.242162704467773438e-01
-5.221789330244064331e-02
9.000924229621887207e-02
-4.329586923122406006e-01
-4.490141570568084717e-02
8.287048935890197754e-01
-7.724655270576477051e-01
-1.791852861642837524e-01
-6.430784612894058228e-02
3.137622773647308350e-01
-2.593691051006317139e-01
2.328182458877563477e-01
1.225599572062492371e-01
2.570775151252746582e-01
1.873588562011718750e-01
3.091785609722137451e-01
1.347370445728302002e-01
-6.643161177635192871e-02
-5.199595093727111816e-01
1.529608998680487275e-04
8.579359054565429688e-01
1.848731338977813721e-01
-2.878993153572082520e-01
-4.345463216304779053e-02
1.244554147124290466e-01
3.575230538845062256e-01
-6.454052925109863281e-01
6.221076473593711853e-02
-2.709723412990570068e-01
-2.654176950454711914e-02
4.116080105304718018e-01
-7.624792456626892090e-01
2.222405225038528442e-01
-3.032022714614868164e-02
-2.057557366788387299e-02
6.039535999298095703e-01
-3.159608840942382812e-01
-1.417998671531677246e-01
-2.244711220264434814e-01
-5.238692760467529297e-01
6.403703689575195312e-01
-1.417158842086791992e-01
5.279270932078361511e-02
-9.362603724002838135e-02
-2.094282023608684540e-02
1.060403108596801758e+00
-6.592113971710205078e-01
8.824949860572814941e-01
-2.033328115940093994e-01
1.436255276203155518e-01
1.530620157718658447e-01
6.032000482082366943e-02
1.279451251029968262e-01
1.169962361454963684e-01
-1.137742623686790466e-01
2.764288783073425293e-01
-2.026490569114685059e-01
-7.662098109722137451e-02
1.724924445152282715e-01
-4.481006264686584473e-01
2.177912443876266479e-01
-2.715535759925842285e-01
1.860507875680923462e-01
-1.038588657975196838e-01
-1.468703150749206543e-01
4.576483070850372314e-01
-5.398675426840782166e-02
3.505521714687347412e-01
1.477281749248504639e-01
-1.701300442218780518e-01
-4.383863210678100586e-01
3.252899944782257080e-01
8.900337666273117065e-02
3.719894886016845703e-01
-3.944100737571716309e-01
-1.278140395879745483e-01
1.047898828983306885e-01
7.754290103912353516e-02
3.276480138301849365e-01
-2.238210439682006836e-01
-3.301504254341125488e-01
-2.835993766784667969e-01
8.576281070709228516e-01
-4.818581417202949524e-02
-6.085760146379470825e-02
5.592598393559455872e-02
4.217352271080017090e-01
3.209898173809051514e-01
3.113875687122344971e-01
1.077574372291564941e+00
-1.106054306030273438e+00
1.106071949005126953e+00
7.628809809684753418e-01
3.025028407573699951e-01
-6.022856831550598145e-01
5.408487319946289062e-01
3.127744048833847046e-02
1.065283939242362976e-01
3.752301633358001709e-01
-3.887611925601959229e-01
1.871660947799682617e-01
-2.127002179622650146e-01
1.958207935094833374e-01
-4.540923535823822021e-01
-2.488826364278793335e-01
2.072629183530807495e-01
-2.974297404289245605e-01
4.956309497356414795e-01
2.215318530797958374e-01
-2.334592938423156738e-01
-3.045228719711303711e-01
5.520368814468383789e-01
3.333722352981567383e-01
-4.403296709060668945e-01
9.491161257028579712e-02
-1.199690476059913635e-01
9.127516299486160278e-02
1.524930000305175781e-01
-2.255134433507919312e-01
3.843239545822143555e-01
1.988695710897445679e-01
1.680431365966796875e-01
-1.053166866302490234e+00
3.523120284080505371e-01
4.168441593647003174e-01
-2.017593234777450562e-01
-5.846612453460693359e-01
-1.283203214406967163e-01
-2.614159286022186279e-01
-1.373783946037292480e-01
7.380574941635131836e-01
-3.312870264053344727e-01
-3.218210935592651367e-01
2.188995778560638428e-01
-5.964349582791328430e-02
-1.495942622423171997e-01
-1.872087270021438599e-01
4.833222031593322754e-01
-2.992417812347412109e-01
1.379661858081817627e-01
3.756005764007568359e-01
4.829304516315460205e-01
-6.793255805969238281e-01
5.376147031784057617e-01
5.414000749588012695e-01
-1.403815001249313354e-01
-7.834115624427795410e-01
-5.893692001700401306e-02
-1.585565805435180664e-01
3.012190163135528564e-01
4.746525585651397705e-01
-1.769447475671768188e-01
3.042870759963989258e-01
3.072556853294372559e-01
-3.758998215198516846e-02
1.188160628080368042e-01
1.984455734491348267e-01
1.811258047819137573e-01
5.715838670730590820e-01
-2.096519321203231812e-01
-4.584614336490631104e-01
-9.055829048156738281e-02
1.197657346725463867e+00
-7.898677140474319458e-02
-1.962261497974395752e-01
6.105198338627815247e-02
5.074300765991210938e-01
2.918687462806701660e-01
-8.802431635558605194e-03
6.469784975051879883e-01
-1.052258729934692383e+00
9.667369127273559570e-01
7.048819065093994141e-01
-3.974244892597198486e-01
5.659669637680053711e-01
-5.989756584167480469e-01
2.256511002779006958e-01
6.374063491821289062e-01
-3.409771919250488281e-01
2.305823862552642822e-01
-7.435289770364761353e-02
1.314129233360290527e-01
-4.754954874515533447e-01
8.420879244804382324e-01
5.803133845329284668e-01
-4.567442461848258972e-02
-1.259749978780746460e-01
-1.301361769437789917e-01
-9.321082383394241333e-02
1.057933419942855835e-01
3.040650784969329834e-01
-1.070355698466300964e-01
-1.902327090501785278e-01
3.818703293800354004e-01
-3.474468290805816650e-01
3.503840565681457520e-01
-2.584132552146911621e-01
-4.776065945625305176e-01
6.286107301712036133e-01
-3.917016088962554932e-01
3.204413950443267822e-01
4.207291007041931152e-01
5.019531250000000000e-01
8.652675896883010864e-02
-2.605026364326477051e-01
3.271656036376953125e-01
5.477230548858642578e-01
4.997440576553344727e-01
8.005315065383911133e-01
-6.622525453567504883e-01
-1.462651193141937256e-01
4.063069224357604980e-01
-5.056446194648742676e-01
-2.009628415107727051e-01
-8.014159798622131348e-01
2.207934558391571045e-01
1.340650487691164017e-03
-1.632763296365737915e-01
3.141126930713653564e-01
-8.820695877075195312e-01
5.086134672164916992e-01
5.058378577232360840e-01
2.128755807876586914e+00
-5.099005699157714844e-01
6.181488744914531708e-03
3.406995832920074463e-01
4.915903210639953613e-01
6.186643242835998535e-01
6.086484193801879883e-01
-5.540739893913269043e-01
-6.907353401184082031e-01
4.968434274196624756e-01
-3.426301777362823486e-01
-4.083909988403320312e-01
-4.910379275679588318e-02
-1.024426892399787903e-01
-3.084244430065155029e-01
-1.819297969341278076e-01
-2.901724353432655334e-02
5.391456931829452515e-02
-1.587855219841003418e-01
2.474063634872436523e-01
-8.209960460662841797e-01
-1.892200261354446411e-01
-1.819146037101745605e+00
-4.847972691059112549e-01
6.270627677440643311e-02
4.929698631167411804e-02
-8.183517456054687500e-01
-1.768440753221511841e-01
3.148324191570281982e-01
-1.709242761135101318e-01
1.572983525693416595e-02
-5.830181241035461426e-01
1.372369825839996338e-01
-8.335711434483528137e-03
2.198356240987777710e-01
3.358501493930816650e-01
-4.009626805782318115e-01
3.783682882785797119e-01
-2.111722975969314575e-01
-1.940076500177383423e-01
-2.023334354162216187e-01
2.291628420352935791e-01
-1.015681400895118713e-01
-9.146507829427719116e-03
-2.518233060836791992e-01
-3.580458164215087891e-01
-4.902932941913604736e-01
3.565963208675384521e-01
9.158435463905334473e-02
-4.927739799022674561e-01
4.779637455940246582e-01
2.985658645629882812e-01
-5.560022592544555664e-01
1.430043727159500122e-01
-5.823612213134765625e-01
-1.173425436019897461e+00
3.787006735801696777e-01
-4.558826684951782227e-01
4.125112295150756836e-01
2.222279757261276245e-01
2.032295316457748413e-01
-1.766492277383804321e-01
-1.998404115438461304e-01
3.341453373432159424e-01
2.048724442720413208e-01
2.160514891147613525e-01
2.980847656726837158e-01
-3.619870170950889587e-02
1.280041225254535675e-02
9.943903237581253052e-02
-4.675602912902832031e-01
-2.229653149843215942e-01
-2.635445892810821533e-01
1.780257076025009155e-01
-9.891057610511779785e-01
-3.542098402976989746e-01
4.298096150159835815e-02
-2.184823453426361084e-01
-6.905671209096908569e-03
-1.552535034716129303e-02
-3.385387659072875977e-01
-2.077849507331848145e-01
-1.013040542602539062e+00
-2.125048264861106873e-02
-8.146397024393081665e-02
1.403149366378784180e-01
2.950858324766159058e-02
-1.852714270353317261e-01
-1.205400004982948303e-01
3.400292992591857910e-01
-1.439550966024398804e-01
4.322023987770080566e-01
-8.522626012563705444e-03
6.010170578956604004e-01
9.311158657073974609e-01
-4.973854124546051025e-02
-1.154745966196060181e-01
-1.794711798429489136e-01
1.268054246902465820e-01
9.832535684108734131e-02
2.212874144315719604e-01
2.894615530967712402e-01
7.636624574661254883e-01
8.516439795494079590e-01
1.651260852813720703e-01
-5.349279846996068954e-03
2.579510807991027832e-01
8.291844278573989868e-02
4.394488334655761719e-01
3.253221139311790466e-02
2.585138976573944092e-01
-1.135112792253494263e-01
6.895465310662984848e-03
9.576721787452697754e-01
1.922599077224731445e-01
1.260056495666503906e-01
-2.750211358070373535e-01
1.736086457967758179e-01
1.255550086498260498e-01
-1.637025922536849976e-01
1.019531637430191040e-01
-8.318135142326354980e-01
4.975560307502746582e-01
-2.222507745027542114e-01
6.665394455194473267e-02
-3.606997057795524597e-02
1.936716139316558838e-01
2.176883667707443237e-01
-2.225059121847152710e-01
1.213427111506462097e-01
1.789179891347885132e-01
-1.197254844009876251e-02
-2.898772656917572021e-01
2.347932100296020508e+00
7.642459124326705933e-02
-1.542599592357873917e-02
4.295883774757385254e-01
-1.326832622289657593e-01
3.791235387325286865e-01
1.962285637855529785e-01
1.831992566585540771e-01
-1.150568127632141113e-01
-3.559762537479400635e-01
5.007181763648986816e-01
7.646580785512924194e-02
3.881957009434700012e-02
1.590604633092880249e-01
-1.766984164714813232e-01
-9.704335331916809082e-01
-4.688350111246109009e-02
-1.863339245319366455e-01
4.760018587112426758e-01
1.641049087047576904e-01
-4.107619524002075195e-01
5.784231424331665039e-01
1.753342337906360626e-02
4.736748337745666504e-02
-1.167538985610008240e-01
9.414228051900863647e-02
-3.182226717472076416e-01
-1.911304891109466553e-01
4.932140186429023743e-02
1.929308325052261353e-01
-3.042806684970855713e-01
-2.147892266511917114e-01
-2.873648107051849365e-01
-2.358843088150024414e-01
9.686120599508285522e-02
1.081475377082824707e+00
-1.686353832483291626e-01
1.753623038530349731e-01
-1.993198990821838379e-01
-1.550976186990737915e-01
3.543093204498291016e-01
-7.266073822975158691e-01
-8.180011510848999023e-01
2.137053459882736206e-01
-1.041652634739875793e-01
2.185180336236953735e-01
3.159160614013671875e-01
3.309755027294158936e-01
-1.439933329820632935e-01
2.850703895092010498e-01
2.455530464649200439e-01
3.939409554004669189e-01
6.757404208183288574e-01
4.032418727874755859e-01
-7.542645335197448730e-01
1.435423642396926880e-02
7.014778256416320801e-01
-6.341705918312072754e-01
2.778044342994689941e-01
4.787478148937225342e-01
-2.259544432163238525e-01
3.018755838274955750e-02
1.907064467668533325e-01
-3.977540135383605957e-01
3.094995319843292236e-01
-2.845939099788665771e-01
-4.153339564800262451e-01
-2.705349028110504150e-01
2.602852880954742432e-01
5.599317699670791626e-02
-2.754417359828948975e-01
-3.640618622303009033e-01
-4.103893339633941650e-01
-4.608173668384552002e-01
5.169106125831604004e-01
2.618831992149353027e-01
-1.909911632537841797e-01
4.704710245132446289e-01
-4.120530784130096436e-01
-6.046828627586364746e-01
-1.369887143373489380e-01
-1.000965759158134460e-01
-9.747800827026367188e-01
5.277818441390991211e-01
-3.473935425281524658e-01
6.136613488197326660e-01
4.898760914802551270e-01
-1.322805997915565968e-03
-4.843187928199768066e-01
4.743320122361183167e-02
1.370781213045120239e-01
4.022391140460968018e-01
3.157009780406951904e-01
3.495113849639892578e-01
-4.126747250556945801e-01
-1.565504446625709534e-02
3.972239196300506592e-01
-4.642662107944488525e-01
9.880543351173400879e-01
-7.409714907407760620e-02
-3.973962068557739258e-01
-2.603833973407745361e-01
-7.562094181776046753e-02
3.394832015037536621e-01
-2.014973461627960205e-01
8.194890618324279785e-02
-8.882404305040836334e-03
-6.570152640342712402e-01
4.402902349829673767e-02
-1.364839728921651840e-03
-6.097082421183586121e-02
9.136774390935897827e-02
2.225887477397918701e-01
1.311036944389343262e-01
2.235325276851654053e-01
8.979736566543579102e-01
1.870839893817901611e-01
-1.866757422685623169e-01
3.574952110648155212e-02
3.710866272449493408e-01
-7.585565447807312012e-01
2.524068355560302734e-01
-7.008274793624877930e-01
-3.103159964084625244e-01
6.585269570350646973e-01
-2.945778369903564453e-01
-3.268474638462066650e-01
-3.850377202033996582e-01
4.959464669227600098e-01
1.317899078130722046e-01
-2.837900221347808838e-01
-6.848535537719726562e-01
-9.018000364303588867e-01
-3.108403384685516357e-01
1.131939888000488281e+00
3.483843505382537842e-01
-8.262226581573486328e-01
7.350752353668212891e-01
-5.804329514503479004e-01
-1.718932539224624634e-01
7.227307558059692383e-01
-2.007496803998947144e-01
-2.622671723365783691e-01
1.019544824957847595e-01
3.631163761019706726e-02
1.524082571268081665e-01
-3.109054565429687500e-01
-1.138675361871719360e-01
-4.674416184425354004e-01
2.000806629657745361e-01
-1.121418923139572144e-01
2.404530197381973267e-01
1.931616365909576416e-01
6.445124000310897827e-02
1.441660225391387939e-01
-4.847574532032012939e-01
-4.137409478425979614e-02
-1.869403943419456482e-02
-5.066971778869628906e-01
-2.704325318336486816e-01
1.659306585788726807e-01
-5.209585651755332947e-02
-8.204025030136108398e-01
-7.166510075330734253e-02
-3.509330749511718750e-01
-5.190759897232055664e-02
2.014352828264236450e-01
-1.588074564933776855e-01
-6.479701399803161621e-01
-1.429074704647064209e-01
1.316114217042922974e-01
2.509102821350097656e-01
4.956508576869964600e-01
2.087825685739517212e-01
-2.703690826892852783e-01
-1.846013069152832031e-01
1.846596002578735352e-01
-2.203944921493530273e-01
3.032734394073486328e-01
5.344650745391845703e-01
1.294275075197219849e-01
3.035673797130584717e-01
1.088721081614494324e-01
-2.198713421821594238e-01
2.706798017024993896e-01
-2.882204391062259674e-02
-3.173177838325500488e-01
-7.700618356466293335e-02
2.528956830501556396e-01
-1.120908856391906738e-01
-1.344779133796691895e-01
-2.632280290126800537e-01
-6.437643170356750488e-01
-1.494634002447128296e-01
8.292655348777770996e-01
2.273411154747009277e-01
-2.640270888805389404e-01
3.437818288803100586e-01
-1.908871293067932129e+00
4.166443273425102234e-02
1.685996055603027344e-01
-1.217070892453193665e-01
-1.513080298900604248e-01
-4.286348819732666016e-02
-1.461418271064758301e-01
3.449253365397453308e-02
5.105149745941162109e-01
3.539117872714996338e-01
1.182759366929531097e-02
-1.034873947501182556e-01
1.864903569221496582e-01
-8.939505368471145630e-02
3.323450982570648193e-01
-7.511674892157316208e-03
-2.913288772106170654e-01
-7.599512934684753418e-01
2.248544245958328247e-01
-3.308644294738769531e-01
2.442452013492584229e-01
6.096358895301818848e-01
-6.769265532493591309e-01
4.036276340484619141e-01
1.904849171638488770e+00
-6.541794538497924805e-01
3.612432181835174561e-01
-3.968909680843353271e-01
-6.100639700889587402e-02
1.221231371164321899e-01
3.684515953063964844e-01
6.339649111032485962e-02
-3.038931787014007568e-01
-6.664296984672546387e-01
-5.920490026473999023e-01
-3.933522999286651611e-01
2.219486422836780548e-02
5.107208155095577240e-03
-6.025493144989013672e-01
1.974155753850936890e-01
6.647967547178268433e-02
-3.891181945800781250e-02
7.695134282112121582e-01
6.284219026565551758e-01
-1.429825369268655777e-02
2.778977341949939728e-02
-1.656032353639602661e-01
-2.094107270240783691e-01
-5.906645581126213074e-02
3.165016472339630127e-01
-7.833615541458129883e-01
3.266305923461914062e-01
8.175574541091918945e-01
8.937972038984298706e-02
-2.250372022390365601e-01
9.037178754806518555e-02
2.639588713645935059e-01
1.720933169126510620e-01
-2.690286338329315186e-01
-4.438108205795288086e-02
5.904648900032043457e-01
-2.720695137977600098e-01
-1.972241401672363281e-01
4.979543089866638184e-01
3.841484189033508301e-01
-1.366721242666244507e-01
1.261949837207794189e-01
3.400505483150482178e-01
-8.366058021783828735e-02
3.814654648303985596e-01
-6.788634508848190308e-02
7.049583196640014648e-01
4.084912240505218506e-01
-3.774534165859222412e-01
5.363725870847702026e-02
4.438223689794540405e-02
-3.879224658012390137e-01
2.133793979883193970e-01
-7.415582537651062012e-01
6.735032796859741211e-02
-4.652709141373634338e-02
5.511367321014404297e-01
-5.569871049374341965e-03
-1.993107199668884277e-01
4.326676726341247559e-01
-1.180388450622558594e+00
-8.819567039608955383e-03
-1.773885488510131836e-01
-4.550637304782867432e-01
3.191869258880615234e-01
4.597607627511024475e-02
9.103499352931976318e-02
2.171914428472518921e-01
3.375342115759849548e-02
8.582069538533687592e-03
1.706179976463317871e-01
1.457278728485107422e-01
2.220433205366134644e-01
4.128387197852134705e-02
-6.332527399063110352e-01
1.532003004103899002e-02
1.731443107128143311e-01
-3.568083941936492920e-01
4.049176275730133057e-01
5.953192710876464844e-01
-5.848529338836669922e-01
2.259235382080078125e-01
3.830148279666900635e-01
-3.967404365539550781e-01
6.940386891365051270e-01
-1.389629989862442017e-01
-5.922665074467658997e-02
4.458204284310340881e-02
1.719924360513687134e-01
9.081546962261199951e-02
4.548842906951904297e-01
7.699423283338546753e-02
-1.892225891351699829e-01
-6.827498227357864380e-02
-1.402533799409866333e-01
4.556376487016677856e-02
5.872802138328552246e-01
9.777983278036117554e-02
1.807892769575119019e-01
3.380729258060455322e-01
-1.873555928468704224e-01
-4.063809216022491455e-01
-9.194388054311275482e-03
-3.459200561046600342e-01
3.449052274227142334e-01
2.461492866277694702e-01
-1.529466509819030762e-01
-5.799999833106994629e-01
3.627499565482139587e-02
-1.065975129604339600e-01
3.482861444354057312e-02
1.578242331743240356e-01
1.272590041160583496e+00
-2.674831449985504150e-01
-1.335333228111267090e+00
-6.535428762435913086e-01
-4.181795716285705566e-01
1.478593144565820694e-02
-3.482841551303863525e-01
-3.046904206275939941e-01
2.831076979637145996e-01
-7.086996734142303467e-02
-2.075657695531845093e-01
5.490590929985046387e-01
-3.498236536979675293e-01
3.501397669315338135e-01
-3.317176997661590576e-01
-2.660503387451171875e-01
2.570996582508087158e-01
-1.712325811386108398e-01
-3.863534629344940186e-01
2.648450136184692383e-01
1.252496731467545033e-03
2.800501585006713867e-01
-1.481125652790069580e-01
-1.183541938662528992e-01
-1.187334582209587097e-01
1.002830937504768372e-01
8.908849954605102539e-02
-2.717510461807250977e-01
4.215916618704795837e-02
-3.936673104763031006e-01
2.324518114328384399e-01
-6.496739661088213325e-05
-3.943657279014587402e-01
-4.633276164531707764e-02
2.369622737169265747e-01
1.324433922767639160e+00
-2.933744154870510101e-02
-2.669092416763305664e-01
1.017993688583374023e-01
1.211383342742919922e-01
-1.441173672676086426e+00
1.124542802572250366e-01
-4.220245182514190674e-01
-3.467923998832702637e-01
-1.056399289518594742e-02
2.567519247531890869e-01
-3.028325140476226807e-01
-8.143492341041564941e-01
-3.225289881229400635e-01
6.316550821065902710e-02
-3.806155323982238770e-01
6.123812794685363770e-01
-1.089688539505004883e+00
4.191905558109283447e-01
-4.911416396498680115e-02
-2.034202367067337036e-01
6.409931182861328125e-01
-1.962588280439376831e-01
-6.546882390975952148e-01
6.915139555931091309e-01
1.995061039924621582e-01
2.406069785356521606e-01
-3.437299430370330811e-01
-7.467598468065261841e-02
-2.137283831834793091e-01
-2.724190354347229004e-01
8.280669152736663818e-02
4.210625290870666504e-01
-8.072055131196975708e-02
-4.925359040498733521e-02
1.468155235052108765e-01
-9.963405132293701172e-01
2.607293128967285156e-01
-4.103350043296813965e-01
2.069301009178161621e-01
3.552983999252319336e-01
-5.169610977172851562e-01
1.490972340106964111e-01
2.193567007780075073e-01
-7.027654647827148438e-01
-6.443195790052413940e-02
-6.053194403648376465e-01
6.338405609130859375e-02
-1.509735435247421265e-01
-1.752913892269134521e-01
-2.636208832263946533e-01
5.811901688575744629e-01
1.408019810914993286e-01
-1.933981925249099731e-01
1.773916929960250854e-01
1.442371904850006104e-01
3.284564912319183350e-01
-2.030503302812576294e-01
-2.329120934009552002e-01
-8.843561634421348572e-03
2.307975292205810547e+00
2.838796973228454590e-01
2.852080464363098145e-01
2.026815712451934814e-01
1.175034344196319580e-01
-3.044777214527130127e-01
-6.011046171188354492e-01
-1.118259355425834656e-01
-1.945525966584682465e-02
-8.799683451652526855e-01
-2.341591864824295044e-01
1.366053335368633270e-02
6.537196785211563110e-02
1.644067049026489258e+00
2.894536219537258148e-02
-2.763962149620056152e-01
-5.442277789115905762e-01
3.072288930416107178e-01
3.419449329376220703e-01
6.530538946390151978e-02
1.106483817100524902e+00
-2.376627773046493530e-01
-2.108918279409408569e-01
-7.276346534490585327e-02
-1.292286217212677002e-01
-5.821217224001884460e-02
-3.770897388458251953e-01
-1.692728757858276367e+00
3.817480504512786865e-01
-2.925179004669189453e-01
-4.944819957017898560e-02
4.825890958309173584e-01
5.756263732910156250e-01
1.007346361875534058e-01
-9.973276406526565552e-02
1.427455842494964600e-01
-5.104863643646240234e-01
5.469906926155090332e-01
-2.355970591306686401e-01
3.826778233051300049e-01
1.039054989814758301e-01
-2.020577043294906616e-01
1.840876489877700806e-01
3.958329260349273682e-01
-3.643842637538909912e-01
-2.184110879898071289e-01
-3.545529246330261230e-01
1.543574929237365723e-01
3.845584765076637268e-02
-1.052972376346588135e-01
-2.630471587181091309e-01
1.388160437345504761e-01
-9.669139981269836426e-02
6.162476539611816406e-02
4.426080361008644104e-02
3.423826098442077637e-01
3.283653259277343750e-01
-4.426074400544166565e-02
-4.344930648803710938e-01
2.417616546154022217e-01
-2.900742769241333008e+00
9.456890076398849487e-02
9.564310312271118164e-03
2.764195501804351807e-01
-2.154849618673324585e-01
-4.023521021008491516e-02
3.268016129732131958e-02
-4.079863429069519043e-01
2.417466193437576294e-01
4.956967756152153015e-02
-1.212148442864418030e-01
3.608982264995574951e-01
1.434399485588073730e-01
1.012838780879974365e-01
2.626812160015106201e-01
3.065932691097259521e-01
-5.288839936256408691e-01
4.915642440319061279e-01
3.481743857264518738e-02
2.840494811534881592e-01
-2.493521928787231445e+00
-3.390612006187438965e-01
4.754146933555603027e-01
2.829334139823913574e-01
-9.868671000003814697e-02
7.067103385925292969e-01
-3.193254768848419189e-01
6.172511577606201172e-01
-5.380848050117492676e-01
1.452730655670166016e+00
4.114002287387847900e-01
-2.087630182504653931e-01
2.612884715199470520e-02
-3.161400079727172852e+00
3.321100175380706787e-01
-4.155305922031402588e-01
4.059836640954017639e-02
-2.254275679588317871e-01
1.015866100788116455e-01
-2.560129463672637939e-01
-8.527294732630252838e-03
-7.961351424455642700e-02
-1.482258737087249756e-01
-2.903732657432556152e-01
4.266207516193389893e-01
3.612088039517402649e-02
-2.554041147232055664e-01
4.586152359843254089e-02
4.195707663893699646e-02
4.898308962583541870e-02
-3.662408590316772461e-01
3.224885165691375732e-01
3.662455379962921143e-01
6.887168288230895996e-01
-1.143454164266586304e-01
4.808679521083831787e-01
-9.027879238128662109e-01
3.763336837291717529e-01
-3.894811272621154785e-01
1.129400953650474548e-01
4.435293972492218018e-01
-7.525115609169006348e-01
5.988429188728332520e-01
3.434007465839385986e-01
-3.923147618770599365e-01
-8.284936100244522095e-02
-3.757663667201995850e-01
4.575846344232559204e-02
-5.598187446594238281e-01
4.369218349456787109e-01
5.012640953063964844e-01
-5.453227162361145020e-01
-4.115498661994934082e-01
7.143644988536834717e-02
-2.485031932592391968e-01
-3.158586323261260986e-01
-1.746921688318252563e-01
-3.470399379730224609e-01
6.527394056320190430e-01
-2.018466740846633911e-01
-4.903369545936584473e-01
3.579769283533096313e-03
-2.576799094676971436e-01
-2.521903216838836670e-01
3.000213205814361572e-01
1.507082432508468628e-01
1.556654810905456543e+00
-3.020792603492736816e-01
-4.995439946651458740e-01
3.989035487174987793e-01
2.646228671073913574e-02
1.391715258359909058e-01
9.104874730110168457e-01
-5.046336054801940918e-01
3.746171668171882629e-02
1.603602766990661621e-01
-2.078263759613037109e-01
7.193633168935775757e-02
-1.925192214548587799e-02
-4.032497294247150421e-03
-2.003000974655151367e-01
-1.265996396541595459e-01
3.360971808433532715e-01
3.178268373012542725e-01
3.124608285725116730e-02
-1.904148459434509277e-01
6.335394829511642456e-02
-5.628781318664550781e-01
1.003884971141815186e-01
-2.615417242050170898e-01
-2.362992912530899048e-01
1.106637239456176758e+00
1.101049855351448059e-01
-1.207332089543342590e-01
2.467998419888317585e-04
9.473066776990890503e-02
2.521904408931732178e-01
-1.428076922893524170e-01
5.606281571090221405e-03
5.551542639732360840e-01
5.788661241531372070e-01
8.536460995674133301e-02
1.491000056266784668e-01
1.630315929651260376e-01
1.021074950695037842e-01
-2.435390502214431763e-01
-1.367229580879211426e+00
1.651328355073928833e-01
1.577253192663192749e-01
-3.396419808268547058e-02
-8.120897412300109863e-02
-4.781345278024673462e-02
1.070966124534606934e-01
5.868684127926826477e-02
5.337560176849365234e-01
9.850530028343200684e-01
-4.685539007186889648e-01
-1.489448994398117065e-01
-8.265839889645576477e-03
2.476604729890823364e-01
1.894434839487075806e-01
-2.139895707368850708e-01
8.131900429725646973e-01
3.218852281570434570e-01
-1.937483996152877808e-01
5.531632304191589355e-01
1.443868130445480347e-01
4.292059242725372314e-01
1.523931324481964111e-01
-3.328865170478820801e-01
-1.285570412874221802e-01
1.473280340433120728e-01
2.825676836073398590e-02
-1.909180283546447754e-01
4.339873194694519043e-01
4.091065824031829834e-01
2.273496836423873901e-01
-1.204466447234153748e-01
-2.165969908237457275e-01
2.063612788915634155e-01
6.639800667762756348e-01
2.767286896705627441e-01
-3.055204451084136963e-01
-9.002427011728286743e-02
-2.244807966053485870e-02
1.332930475473403931e-02
4.700918495655059814e-01
2.330720424652099609e-01
2.240334600210189819e-01
-1.204442828893661499e-01
-2.123892307281494141e-01
2.311846315860748291e-01
3.190915584564208984e-01
3.061133027076721191e-01
-4.212685525417327881e-01
1.956128776073455811e-01
-7.087801098823547363e-01
5.626580119132995605e-01
6.683933082967996597e-03
1.834685951471328735e-01
2.061595767736434937e-01
-8.843446373939514160e-01
2.280350774526596069e-01
5.582162141799926758e-01
-6.041552424430847168e-01
-4.745033755898475647e-02
-3.588888049125671387e-01
-6.386046111583709717e-02
-1.607861667871475220e-01
1.282483637332916260e-01
2.708443440496921539e-03
-1.039949730038642883e-01
1.381681561470031738e-01
-9.607524424791336060e-02
1.998190283775329590e-01
2.237128615379333496e-01
-2.301941066980361938e-01
4.999286830425262451e-01
1.312844753265380859e-01
-1.133688837289810181e-01
-2.413472980260848999e-01
4.517583549022674561e-01
-4.570100903511047363e-01
2.040732651948928833e-01
1.942507773637771606e-01
2.116150259971618652e-01
1.876923441886901855e-01
-9.895390272140502930e-02
-1.906234502792358398e+00
-8.853361755609512329e-02
1.227954123169183731e-02
4.469671845436096191e-01
3.808245360851287842e-01
1.602855511009693146e-02
-4.682799056172370911e-02
-1.041876450181007385e-01
-4.288861528038978577e-02
1.219059228897094727e-01
-1.987176015973091125e-02
-6.107539311051368713e-02
-6.703653931617736816e-01
3.324377536773681641e-01
-5.235384702682495117e-01
-6.412335634231567383e-01
3.034635484218597412e-01
3.915319442749023438e-01
-8.360672742128372192e-02
3.162742555141448975e-01
-7.998375594615936279e-02
1.476721614599227905e-01
-4.725288450717926025e-01
-7.823351770639419556e-02
1.867998242378234863e-01
-8.262546360492706299e-02
-2.204056084156036377e-01
2.858084142208099365e-01
-7.464933395385742188e-01
1.614015847444534302e-01
3.967621326446533203e-01
-6.033058762550354004e-01
-1.773058176040649414e-01
-2.034568041563034058e-01
3.603646457195281982e-01
-4.631464555859565735e-02
4.103643447160720825e-02
3.933552801609039307e-01
1.506659537553787231e-01
-5.601273477077484131e-02
4.446583986282348633e-01
2.452776134014129639e-01
-1.623817086219787598e-01
3.347936272621154785e-02
4.686695635318756104e-01
-1.386612802743911743e-01
2.855499982833862305e-01
1.755789399147033691e+00
-1.873019099235534668e+00
2.419350892305374146e-01
7.130435109138488770e-02
-2.020696997642517090e-01
-5.114697813987731934e-01
1.053483858704566956e-01
-1.481470745056867599e-02
2.820550501346588135e-01
5.828081965446472168e-01
4.647829234600067139e-01
7.081370800733566284e-02
1.974886506795883179e-01
2.105016231536865234e+00
-2.592040002346038818e-01
5.759876593947410583e-02
1.162165626883506775e-01
-1.976446658372879028e-01
1.257194131612777710e-01
-4.660271108150482178e-01
1.078219190239906311e-01
8.814888000488281250e-01
-5.436223149299621582e-01
-2.362625896930694580e-01
1.868353337049484253e-01
5.049414038658142090e-01
1.418807208538055420e-01
3.220799267292022705e-01
1.585772484540939331e-01
-3.862560987472534180e-01
-5.816842317581176758e-01
9.263370931148529053e-02
-2.946456372737884521e-01
-5.677213072776794434e-01
-5.137479305267333984e-01
-2.993722558021545410e-01
1.238802541047334671e-02
-9.902494400739669800e-02
2.828798890113830566e-01
-1.890567243099212646e-01
-1.238821744918823242e+00
-2.705052614212036133e+00
-8.650227636098861694e-02
-3.805121406912803650e-02
6.541005522012710571e-02
-3.519497066736221313e-02
-6.413964927196502686e-02
1.324974298477172852e-01
-4.509911239147186279e-01
-1.337315887212753296e-01
-6.663655489683151245e-02
8.287736177444458008e-01
-5.977261662483215332e-01
6.406312435865402222e-02
-9.109759330749511719e-02
2.539972066879272461e-01
2.732091248035430908e-01
-9.050147980451583862e-02
2.799206376075744629e-01
-2.178791910409927368e-01
3.599480986595153809e-01
3.980562984943389893e-01
1.645528674125671387e-01
9.127081632614135742e-01
-8.397259563207626343e-02
1.844550967216491699e-01
-2.955514192581176758e-02
5.031321644783020020e-01
-2.425172477960586548e-01
3.779683411121368408e-01
-8.126086741685867310e-02
3.113501965999603271e-01
-5.384380817413330078e-01
1.274093389511108398e+00
1.326457560062408447e-01
3.381071388721466064e-01
-3.572670817375183105e-01
-3.828854858875274658e-02
3.412302732467651367e-01
-4.352062940597534180e-01
5.925752520561218262e-01
4.463935494422912598e-01
-3.254068493843078613e-01
-8.017927408218383789e-02
-3.743404150009155273e-02
6.597325205802917480e-02
1.199249774217605591e-01
-3.583643734455108643e-01
3.055143654346466064e-01
2.816571593284606934e-01
1.696896366775035858e-02
-3.956810757517814636e-02
-7.219985127449035645e-01
1.104540899395942688e-01
-1.013571098446846008e-01
2.313238978385925293e-01
1.174259744584560394e-02
-4.518522024154663086e-01
-1.005490049719810486e-01
-8.554673194885253906e-02
-4.839003682136535645e-01
1.000705122947692871e+00
-3.861277103424072266e-01
-2.864837050437927246e-01
2.522230148315429688e-01
4.592993259429931641e-01
-1.334998458623886108e-01
2.742337584495544434e-01
-4.888224229216575623e-02
4.169798269867897034e-02
-4.409510791301727295e-01
-3.027385473251342773e-01
2.275423891842365265e-02
-1.970726102590560913e-01
-1.803337014280259609e-03
1.462472528219223022e-01
-1.116848513484001160e-01
-4.477367997169494629e-01
1.119316741824150085e-02
-2.477674484252929688e-01
-3.323272168636322021e-01
7.145456075668334961e-01
-1.303268671035766602e-01
-2.822732627391815186e-01
3.879953324794769287e-01
2.894189059734344482e-01
7.209154218435287476e-02
2.150948345661163330e-01
-3.289611339569091797e-01
-1.745671182870864868e-01
-5.525167584419250488e-01
5.109810829162597656e-01
-1.332545131444931030e-01
-1.716925948858261108e-01
-2.713268250226974487e-02
-5.487033128738403320e-01
-1.403601095080375671e-02
-2.286859005689620972e-01
-7.766446471214294434e-02
6.901739537715911865e-02
-3.398160636425018311e-01
1.002179905772209167e-01
2.850541658699512482e-02
5.942375212907791138e-02
7.725054025650024414e-01
-2.351377904415130615e-01
1.583830863237380981e-01
1.414388418197631836e-01
-1.235367655754089355e-01
1.687105000019073486e-02
3.420075029134750366e-02
-5.178267601877450943e-03
2.945184148848056793e-02
-3.019353151321411133e-01
-1.887404173612594604e-01
-4.100991040468215942e-02
1.428237836807966232e-02
-5.502022504806518555e-01
1.274648308753967285e-01
-2.442602068185806274e-01
-5.947389602661132812e-01
1.213349699974060059e+00
-4.751141071319580078e-01
9.875992685556411743e-02
3.239611387252807617e-01
2.991314828395843506e-01
-5.978737026453018188e-02
3.755404055118560791e-02
-1.393219828605651855e-01
-2.771286368370056152e-01
-3.143979609012603760e-01
-4.982797428965568542e-02
9.435570240020751953e-02
-2.793329767882823944e-02
-2.326254546642303467e-01
2.081464231014251709e-02
-1.877368390560150146e-01
-5.184438228607177734e-01
7.896955311298370361e-02
-3.214010000228881836e-01
-9.908902645111083984e-01
9.540725946426391602e-01
-1.485284268856048584e-01
-1.369720101356506348e+00
5.082603096961975098e-01
2.078623622655868530e-01
1.605048924684524536e-01
1.465644836425781250e-01
-4.205858334898948669e-02
-3.681282997131347656e-01
-1.638996601104736328e-01
-6.238848343491554260e-02
-7.877299934625625610e-02
7.596620172262191772e-02
4.085262492299079895e-02
7.055781781673431396e-02
2.130604088306427002e-01
-9.187505841255187988e-01
-7.202924042940139771e-02
4.847909137606620789e-02
-8.558360934257507324e-01
3.247131407260894775e-01
-1.954482942819595337e-01
-2.943520843982696533e-01
5.137945413589477539e-01
4.187134653329849243e-02
-2.206522822380065918e-01
2.684389473870396614e-03
1.015283167362213135e-01
-1.413762271404266357e-01
-2.634700834751129150e-01
-2.284870110452175140e-02
1.999321132898330688e-01
4.595152437686920166e-01
5.636932253837585449e-01
3.874720260500907898e-02
-5.794436335563659668e-01
1.748994737863540649e-01
-6.618387252092361450e-02
1.597330421209335327e-01
-2.446485906839370728e-01
-4.475638270378112793e-03
4.283930063247680664e-01
-1.102955080568790436e-02
-1.436104774475097656e-01
4.640825092792510986e-02
1.804875582456588745e-01
-2.029723674058914185e-02
5.447543859481811523e-01
-7.980518043041229248e-02
3.266144916415214539e-02
-1.850934177637100220e-01
6.706742942333221436e-02
-4.301914870738983154e-01
-5.907778069376945496e-02
-4.443963766098022461e-01
4.795822203159332275e-01
9.233062267303466797e-01
-1.384761631488800049e-01
3.156903386116027832e-01
5.273814201354980469e-01
-8.654251694679260254e-01
2.356384396553039551e-01
5.999551415443420410e-01
-4.893353283405303955e-01
-3.089601993560791016e-01
-3.702220022678375244e-01
1.705705970525741577e-01
-1.647874899208545685e-02
1.741368174552917480e-01
4.490322768688201904e-01
3.003181517124176025e-01
-1.739694774150848389e-01
-4.845477640628814697e-02
1.329090714454650879e+00
5.366925150156021118e-02
-2.470072209835052490e-01
6.817949563264846802e-02
-8.324992656707763672e-01
4.648125767707824707e-01
2.993890643119812012e-01
6.165830884128808975e-03
5.604433417320251465e-01
9.026506543159484863e-02
-1.148742288351058960e-01
-2.808265686035156250e-01
-9.175988286733627319e-02
-8.630254119634628296e-02
5.920909047126770020e-01
2.254290729761123657e-01
3.724977374076843262e-01
-7.519475370645523071e-02
6.687873601913452148e-01
-3.760417401790618896e-01
2.133565694093704224e-01
-7.049380242824554443e-02
2.133624441921710968e-02
2.470731586217880249e-01
1.474989503622055054e-01
6.790552288293838501e-02
6.950724720954895020e-01
6.872708201408386230e-01
1.671911925077438354e-01
1.583967506885528564e-01
-3.916675746440887451e-01
-5.488619208335876465e-02
-2.284207791090011597e-01
-5.994583368301391602e-01
5.509771406650543213e-02
4.931378960609436035e-01
8.405603468418121338e-02
-1.381686795502901077e-02
-1.558915078639984131e-01
-5.573201775550842285e-01
6.341195106506347656e-01
5.751015245914459229e-02
1.109092235565185547e-01
1.292828619480133057e-01
-5.528812408447265625e-01
4.892524778842926025e-01
2.709956467151641846e-01
-3.785759955644607544e-02
5.964727997779846191e-01
-2.453416772186756134e-02
-1.675358414649963379e-01
-5.923415422439575195e-01
3.492859005928039551e-01
-6.340065598487854004e-01
3.063611984252929688e-01
-6.871090084314346313e-02
4.400641322135925293e-01
-7.738363146781921387e-01
5.948696136474609375e-01
3.488355875015258789e-01
2.384095340967178345e-01
7.217488288879394531e-01
4.692614674568176270e-01
-5.984200239181518555e-01
2.262018769979476929e-01
-5.746402963995933533e-02
-9.965274930000305176e-01
3.044486641883850098e-01
-6.763630360364913940e-02
4.185051620006561279e-01
1.689688861370086670e-01
-3.555495664477348328e-02
-1.037127748131752014e-01
2.719424068927764893e-01
3.402485847473144531e-01
-3.419896960258483887e-02
-2.108674794435501099e-01
-8.902492374181747437e-02
-2.672257646918296814e-02
-3.645996153354644775e-01
-1.292501240968704224e-01
-1.632415805943310261e-03
6.444776058197021484e-02
1.488244384527206421e-01
3.897680640220642090e-01
-1.155015528202056885e-01
-2.825645208358764648e-01
-4.362819716334342957e-03
-1.267437785863876343e-01
-1.362605333328247070e+00
7.854797691106796265e-02
3.434958755970001221e-01
-1.518718153238296509e-01
-9.915199875831604004e-01
-3.173005282878875732e-01
3.203017711639404297e-01
-2.125014364719390869e-01
2.205028980970382690e-01
-2.208517640829086304e-01
5.739741325378417969e-01
2.722269296646118164e-01
5.895306468009948730e-01
-6.018322706222534180e-01
-1.382857933640480042e-02
1.052741855382919312e-01
1.716106981039047241e-01
-2.693297863006591797e-01
-2.167862206697463989e-01
-3.558142185211181641e-01
-2.642791867256164551e-01
2.189066819846630096e-02
-2.870993018150329590e-01
4.409123212099075317e-02
3.004894256591796875e-01
1.177336573600769043e-01
1.201418265700340271e-01
6.369666010141372681e-02
6.332433968782424927e-02
-4.535627365112304688e-01
1.424318701028823853e-01
-3.755230903625488281e-01
-5.016033053398132324e-01
3.563899397850036621e-01
-2.261914461851119995e-01
-1.373696327209472656e-01
-4.657127857208251953e-01
3.877783715724945068e-01
3.141274154186248779e-01
4.385423958301544189e-01
1.133042722940444946e-01
5.636430978775024414e-01
4.592942595481872559e-01
2.021033316850662231e-02
-1.064050421118736267e-01
-1.023644804954528809e-01
-4.084550142288208008e-01
2.114635109901428223e-01
-1.516937166452407837e-01
3.088468313217163086e-01
-6.029777228832244873e-02
1.513121463358402252e-02
-7.468839883804321289e-01
7.925457954406738281e-01
3.208220377564430237e-02
8.214596658945083618e-02
-1.963603496551513672e-02
6.832477450370788574e-01
4.270244538784027100e-01
2.848963625729084015e-02
4.597570300102233887e-01
4.745562672615051270e-01
3.907017409801483154e-01
-7.523827254772186279e-02
-3.616139292716979980e-01
-2.888065576553344727e-01
-4.546304941177368164e-01
-3.402030169963836670e-01
1.403419226408004761e-01
7.055784016847610474e-02
-9.567465186119079590e-01
-1.473515629768371582e-01
-3.820015192031860352e-01
6.778525114059448242e-01
7.097912579774856567e-02
-9.286140650510787964e-02
7.143796682357788086e-01
7.401474565267562866e-02
1.210540607571601868e-01
-5.944482237100601196e-02
-1.825973413360770792e-05
-6.117942184209823608e-02
-2.096358686685562134e-01
6.137377023696899414e-01
1.398568004369735718e-01
2.327029556035995483e-01
1.017919853329658508e-01
2.939934432506561279e-01
-2.503249645233154297e-01
-1.170940697193145752e-01
1.800296306610107422e+00
-4.396214187145233154e-01
-4.997449219226837158e-01
2.922565340995788574e-01
-1.808480769395828247e-01
2.968966364860534668e-01
-1.174638792872428894e-01
3.088844716548919678e-01
1.558932811021804810e-01
2.263287305831909180e-01
3.191074430942535400e-01
4.604919254779815674e-01
1.986744701862335205e-01
-3.208737671375274658e-01
1.684496104717254639e-01
-3.425753414630889893e-01
7.849162817001342773e-02
-7.346003502607345581e-02
3.250758945941925049e-01
7.241611480712890625e-01
1.056150048971176147e-01
4.700009524822235107e-02
-3.695477843284606934e-01
1.956836730241775513e-01
-2.095154374837875366e-01
-1.052784919738769531e-01
-5.481051206588745117e-01
2.891933917999267578e-01
1.307321637868881226e-01
1.880340129137039185e-01
3.183821588754653931e-02
4.423255026340484619e-01
5.725906491279602051e-01
2.039908170700073242e-01
-4.596409797668457031e-01
1.673871837556362152e-02
-1.036461591720581055e-01
3.565851449966430664e-01
7.398337125778198242e-02
3.922173976898193359e-01
3.098419010639190674e-01
7.859147340059280396e-02
1.127640306949615479e-01
-4.269079864025115967e-01
-8.096787929534912109e-01
9.218814782798290253e-03
-6.467950940132141113e-01
-2.317727953195571899e-01
-1.792568564414978027e-01
-4.267005324363708496e-01
1.145092304795980453e-02
-1.780639737844467163e-01
-8.461881428956985474e-02
6.086679548025131226e-02
-1.546516716480255127e-01
3.784198462963104248e-01
-5.831466987729072571e-02
9.459429420530796051e-03
1.043127775192260742e-01
-1.614603400230407715e-01
3.101802766323089600e-01
3.642357140779495239e-02
2.976007759571075439e-01
-6.967973709106445312e-01
-1.589569449424743652e-01
-2.646533846855163574e-01
-4.807815887033939362e-03
-6.667332649230957031e-01
-3.000255823135375977e-01
1.253684461116790771e-01
-4.923670291900634766e-01
-6.228511333465576172e-01
-3.287838399410247803e-01
2.924912869930267334e-01
1.080741882324218750e-01
5.419195890426635742e-01
6.141509413719177246e-01
3.836269974708557129e-01
3.392780125141143799e-01
-1.197135075926780701e-02
3.048201203346252441e-01
5.117192268371582031e-01
9.471965953707695007e-03
-2.239124476909637451e-01
2.396294474601745605e-01
2.198966592550277710e-01
-2.622815370559692383e-01
-2.027171999216079712e-01
-1.956259608268737793e-01
-4.175214171409606934e-01
-1.671417057514190674e-02
-9.180919528007507324e-01
-3.714685142040252686e-01
-6.556864827871322632e-02
4.785981178283691406e-01
-1.315803974866867065e-01
-7.246329635381698608e-02
-2.963323891162872314e-01
-1.524524241685867310e-01
-9.575588628649711609e-04
-1.968101114034652710e-01
1.052204519510269165e-01
2.191179990768432617e-01
3.829244151711463928e-02
-1.100052446126937866e-01
-1.123831421136856079e-01
4.791484177112579346e-01
-9.414283931255340576e-02
-4.125234484672546387e-01
-2.562175877392292023e-02
-2.666101753711700439e-01
-1.580328196287155151e-01
1.510514765977859497e-01
4.404329359531402588e-01
-1.776178628206253052e-01
4.384980797767639160e-01
-4.010826721787452698e-02
-1.584346592426300049e-01
1.811835616827011108e-01
1.355845667421817780e-02
-1.239217877388000488e+00
-1.770332902669906616e-01
4.023143276572227478e-02
-8.514539897441864014e-02
-3.655377924442291260e-01
-2.125386595726013184e-01
3.608940839767456055e-01
6.352993100881576538e-02
-2.437675893306732178e-01
-6.847539544105529785e-01
-2.789748311042785645e-01
-1.604159176349639893e-01
4.131145775318145752e-01
5.631989836692810059e-01
-1.799128651618957520e-01
1.158428713679313660e-01
-5.857504531741142273e-02
1.955775469541549683e-01
3.022941946983337402e-01
3.850764930248260498e-01
-7.027927041053771973e-01
3.868948519229888916e-01
-1.547221243381500244e-01
1.667564511299133301e-01
5.019966363906860352e-01
2.454115748405456543e-01
6.223316118121147156e-02
-1.813561469316482544e-01
3.667239844799041748e-01
2.060529440641403198e-01
5.828270688652992249e-02
2.384148351848125458e-02
8.165213465690612793e-02
2.500475347042083740e-01
3.528037667274475098e-01
-5.521195530891418457e-01
-1.164827585220336914e+00
-3.569511696696281433e-02
5.138059854507446289e-01
2.518703639507293701e-01
1.802586019039154053e-01
4.306955337524414062e-01
3.989011049270629883e-01
-6.737396121025085449e-01
-4.129026457667350769e-02
-1.914277672767639160e-01
2.978186681866645813e-02
-2.796391248703002930e-01
-3.491519987583160400e-01
-5.984151959419250488e-01
-4.189099967479705811e-01
-7.006226181983947754e-01
-5.957404971122741699e-01
2.098250985145568848e-01
4.883050322532653809e-01
1.651440411806106567e-01
4.795928001403808594e-01
2.376283705234527588e-01
-5.077491402626037598e-01
-2.688406407833099365e-01
1.239883806556463242e-02
-1.795350462198257446e-01
-7.097061276435852051e-01
1.190429925918579102e-01
-1.545758098363876343e-01
1.774414628744125366e-01
6.331259012222290039e-01
8.403235673904418945e-01
6.041260361671447754e-01
1.069985106587409973e-01
5.885740518569946289e-01
7.292543053627014160e-01
8.082039356231689453e-01
-4.065848886966705322e-01
-4.227136671543121338e-01
-1.848330534994602203e-02
-2.136200964450836182e-01
5.238668993115425110e-02
3.787408173084259033e-01
5.738401785492897034e-02
-3.313734754920005798e-02
-7.061524391174316406e-01
-1.321344673633575439e-01
1.994499415159225464e-01
-4.838936626911163330e-01
2.683098912239074707e-01
7.168706972151994705e-03
4.849439561367034912e-01
6.840995047241449356e-04
6.773446202278137207e-01
3.525581657886505127e-01
-3.525975048542022705e-01
1.015488266944885254e+00
-2.298868745565414429e-01
-7.654048204421997070e-01
-1.388347148895263672e-01
3.285476565361022949e-01
1.287278085947036743e-01
3.159756958484649658e-01
-8.735073208808898926e-01
2.466367036104202271e-01
-2.775229215621948242e-01
1.752960383892059326e-01
-1.835394501686096191e-01
-4.769301712512969971e-01
-5.463399291038513184e-01
-4.018792510032653809e-01
-4.111483693122863770e-01
-3.480203449726104736e-01
-3.342579305171966553e-02
-5.434509515762329102e-01
1.341922432184219360e-01
-2.312899082899093628e-01
1.516021639108657837e-01
1.928554177284240723e-01
9.046776890754699707e-01
1.029825508594512939e-01
6.425059437751770020e-01
-4.862390086054801941e-02
-6.110920310020446777e-01
3.127401769161224365e-01
-3.169062435626983643e-01
-2.622666656970977783e-01
-2.994373142719268799e-01
-2.188681624829769135e-02
-1.154337227344512939e-01
-7.978374958038330078e-01
-1.227346733212471008e-01
-4.662520810961723328e-02
-4.698057845234870911e-02
-9.623241610825061798e-03
2.388312667608261108e-02
-9.237869083881378174e-02
-3.770070374011993408e-01
2.372380197048187256e-01
9.612857550382614136e-02
2.065167427062988281e-01
3.624371811747550964e-02
-2.431946098804473877e-01
1.446880996227264404e-01
2.217979170382022858e-03
-2.949227690696716309e-01
-4.018261134624481201e-01
6.972627043724060059e-01
2.107835933566093445e-02
4.847297444939613342e-02
9.560347795486450195e-01
2.966808974742889404e-01
-3.577515110373497009e-02
-1.339487880468368530e-01
4.330082833766937256e-01
1.115545555949211121e-01
4.571607336401939392e-02
8.294731378555297852e-02
-2.964927554130554199e-01
-1.204449459910392761e-01
2.398436069488525391e-01
1.508673001080751419e-02
-1.297221798449754715e-02
1.779001057147979736e-01
3.993535414338111877e-02
3.194403946399688721e-01
6.735231727361679077e-02
1.018267869949340820e-01
1.252917647361755371e-01
2.780294418334960938e-01
3.495489358901977539e-01
-4.688639566302299500e-02
2.704486548900604248e-01
-4.479156434535980225e-01
-1.364552378654479980e-01
2.896566316485404968e-02
-6.315587759017944336e-01
-1.318450570106506348e-01
-4.966814815998077393e-02
-1.873545348644256592e-01
1.950362324714660645e-01
-2.208531796932220459e-01
-8.310508131980895996e-01
-1.855377554893493652e-01
2.245222181081771851e-01
5.427213385701179504e-02
-2.407545596361160278e-01
6.274330019950866699e-01
1.494588050991296768e-02
3.927703797817230225e-01
3.011807501316070557e-01
3.481576144695281982e-01
4.566099345684051514e-01
1.202494874596595764e-01
5.404320359230041504e-01
-1.736864447593688965e-01
4.674960672855377197e-01
-3.248181641101837158e-01
3.115382045507431030e-02
-6.392286419868469238e-01
2.599819898605346680e-01
-1.677133589982986450e-01
1.085935980081558228e-01
7.232545316219329834e-02
-1.364885121583938599e-01
4.520071446895599365e-01
3.128023743629455566e-01
-2.150759994983673096e-01
2.138091921806335449e-01
7.004331052303314209e-02
-8.903587609529495239e-02
-2.603878080844879150e-01
-1.769133955240249634e-01
-2.935065627098083496e-01
-2.785857617855072021e-01
-5.339580774307250977e-01
-1.035728380084037781e-01
-5.315556377172470093e-02
5.157610774040222168e-01
-9.870135039091110229e-02
-2.731880545616149902e-01
-4.153376817703247070e-01
1.656043082475662231e-01
-2.344952672719955444e-01
-9.163320064544677734e-02
-4.932692348957061768e-01
-7.988232374191284180e-02
-3.860264718532562256e-01
-2.734378278255462646e-01
3.573482334613800049e-01
5.444348454475402832e-01
3.026660084724426270e-01
2.077614963054656982e-01
5.850660055875778198e-02
-3.340388089418411255e-02
3.968938887119293213e-01
-4.713638126850128174e-01
-1.771713793277740479e-01
5.858448147773742676e-01
6.544288992881774902e-02
-7.276243716478347778e-02
2.846960127353668213e-01
-2.194931209087371826e-01
4.389701038599014282e-02
-2.242095321416854858e-01
7.919646799564361572e-02
-1.850877404212951660e-01
-6.797379255294799805e-01
-3.069866597652435303e-01
1.599052995443344116e-01
-1.563408225774765015e-01
5.892801880836486816e-01
-1.417291313409805298e-01
-3.423166573047637939e-01
1.032723188400268555e-01
7.473363727331161499e-02
-8.972261101007461548e-02
1.017061591148376465e+00
1.283562481403350830e-01
1.983453482389450073e-01
-2.832726538181304932e-01
6.109812259674072266e-01
-1.109657138586044312e-01
8.223768472671508789e-01
-2.267840057611465454e-01
-1.720215827226638794e-01
4.958834033459424973e-03
3.156130313873291016e-01
-8.839481323957443237e-02
-1.402286738157272339e-01
9.398457407951354980e-02
8.647697418928146362e-02
4.123565554618835449e-02
-2.393198013305664062e-02
7.198418676853179932e-02
2.246023416519165039e-01
-2.120208293199539185e-01
-4.658944159746170044e-02
-3.627747595310211182e-01
-9.966205805540084839e-03
1.229412555694580078e-01
-1.057632789015769958e-01
1.504963189363479614e-01
-3.433088585734367371e-02
-6.656053662300109863e-02
-1.495122015476226807e-01
1.707068979740142822e-01
7.110553979873657227e-02
-7.027642428874969482e-02
-3.634520173072814941e-01
9.057141141965985298e-06
-1.027080044150352478e-01
1.568164825439453125e-01
3.431335985660552979e-01
-8.977845311164855957e-02
-1.951729319989681244e-02
7.628747075796127319e-02
2.157593332231044769e-02
-1.817719079554080963e-02
-2.356411963701248169e-01
9.180071204900741577e-02
2.912647724151611328e-01
2.783685922622680664e-02
1.134008988738059998e-01
-1.990106403827667236e-01
8.102226257324218750e-02
5.346984416246414185e-02
