2.617798447608947754e-01
-1.814342848956584930e-02
-5.360936522483825684e-01
1.725475639104843140e-01
-7.888604998588562012e-01
8.515584468841552734e-02
6.612113118171691895e-01
1.777058094739913940e-02
1.354172229766845703e-01
1.057021617889404297e-01
2.419897466897964478e-01
-1.989417076110839844e-01
1.874452382326126099e-01
9.114767611026763916e-02
1.734898239374160767e-01
5.619194731116294861e-02
8.068241924047470093e-02
-2.211315482854843140e-01
-4.518105387687683105e-01
5.773954465985298157e-02
-2.617815732955932617e-01
-1.143029332160949707e+00
8.196494579315185547e-01
-8.480253219604492188e-01
1.216476485133171082e-01
-2.904857397079467773e-01
-8.257459849119186401e-02
5.358912944793701172e-01
-9.051573872566223145e-01
7.193714976310729980e-01
-5.806079506874084473e-01
4.974092841148376465e-01
-3.426870703697204590e-01
-2.365565150976181030e-01
2.841706573963165283e-01
-6.976372003555297852e-01
2.044860363006591797e+00
-1.206115260720252991e-01
3.332697153091430664e-01
-1.029726386070251465e+00
1.172666907310485840e+00
5.611040592193603516e-01
2.357394844293594360e-01
-3.662284612655639648e-01
6.598211824893951416e-02
-1.028364822268486023e-01
1.358179003000259399e-01
1.004497885704040527e+00
-3.982137203216552734e+00
1.575070470571517944e-01
1.689140498638153076e-02
-4.888521730899810791e-01
-6.161712408065795898e-01
-5.742869973182678223e-01
-1.818021684885025024e-01
1.725650392472743988e-02
3.776381313800811768e-01
-2.196896374225616455e-01
-1.029953241348266602e+00
3.399699460715055466e-03
1.039539217948913574e+00
2.310243248939514160e-01
5.191829800605773926e-01
4.015016555786132812e-02
-3.133770525455474854e-01
2.770667374134063721e-01
-1.851624995470046997e-01
4.350264370441436768e-02
-1.208189502358436584e-01
-8.961270749568939209e-02
-4.279680848121643066e-01
-2.889391779899597168e-01
4.654850661754608154e-01
2.712005563080310822e-02
5.413162112236022949e-01
4.558586478233337402e-01
-8.758490532636642456e-02
-4.106180071830749512e-01
-4.649285376071929932e-01
1.038585826754570007e-01
-2.065158821642398834e-02
4.743700325489044189e-01
2.291050553321838379e-01
-1.122776493430137634e-01
2.358510941267013550e-01
-4.347572624683380127e-01
-3.838052749633789062e-01
6.879762411117553711e-01
7.891494631767272949e-01
4.406147897243499756e-01
3.560643196105957031e-01
-3.511746823787689209e-01
-6.686722040176391602e-01
-2.426751554012298584e-01
4.462189078330993652e-01
6.671171188354492188e-01
-9.356664121150970459e-02
-6.968001127243041992e-01
-1.273996353149414062e+00
-5.500254034996032715e-02
1.151113390922546387e+00
5.774965286254882812e-01
-2.201563268899917603e-01
4.796548783779144287e-01
-8.427243828773498535e-01
4.080743193626403809e-01
-2.126242667436599731e-01
-5.459894239902496338e-02
-2.061589360237121582e-01
-5.640056133270263672e-01
-8.984043449163436890e-02
2.531866431236267090e-01
1.113331794738769531e+00
8.144442737102508545e-02
2.617512643337249756e-01
-6.314536333084106445e-01
2.369930148124694824e-01
1.291335523128509521e-01
-6.612601876258850098e-02
2.552766203880310059e-01
-7.274798154830932617e-01
-3.330419659614562988e-01
1.636441200971603394e-01
-5.220990628004074097e-02
3.972398340702056885e-01
-7.770740389823913574e-01
-6.553418040275573730e-01
5.676181912422180176e-01
-2.173229902982711792e-01
4.925581216812133789e-01
2.820013165473937988e-01
-2.562017142772674561e-01
-3.716576993465423584e-01
4.297104775905609131e-01
-2.262750267982482910e-01
-9.255221486091613770e-02
3.024488687515258789e-01
2.513778805732727051e-01
-3.467883765697479248e-01
-1.462901234626770020e-01
6.626057624816894531e-01
-2.405259609222412109e-01
-1.563995331525802612e-02
-1.003709957003593445e-01
-5.893797874450683594e-01
8.505771756172180176e-01
2.803887724876403809e-01
-1.483267694711685181e-01
1.338775604963302612e-01
2.589596509933471680e-01
-4.658526778221130371e-01
-5.874481201171875000e+00
-8.151283860206604004e-02
6.800183057785034180e-01
5.204491019248962402e-01
1.275766044855117798e-01
1.320746839046478271e-01
2.116888947784900665e-02
2.388187497854232788e-02
1.422186046838760376e-01
-8.962334990501403809e-01
2.283928915858268738e-02
2.783136665821075439e-01
-1.427037362009286880e-02
2.324144840240478516e-01
-1.716155886650085449e+00
-8.445730060338973999e-02
1.552674293518066406e+00
-5.432950258255004883e-01
4.785150587558746338e-01
2.671660780906677246e-01
1.457405090332031250e+00
4.180203974246978760e-01
-3.462008535861968994e-01
1.151472568511962891e+00
1.059124693274497986e-01
-1.788147330284118652e+00
1.270709037780761719e-01
-6.457558274269104004e-01
-5.127187371253967285e-01
-9.022530913352966309e-01
-1.048232316970825195e+00
3.581507205963134766e-01
-5.523223280906677246e-01
4.580880999565124512e-01
-4.677888154983520508e-01
-7.557873725891113281e-01
-4.840435385704040527e-01
8.038039803504943848e-01
3.810335323214530945e-02
-1.646446734666824341e-01
5.465230345726013184e-01
1.940347909927368164e+00
1.817524582147598267e-01
2.861323654651641846e-01
5.512913465499877930e-01
2.749268114566802979e-01
-6.904921680688858032e-02
-1.926015913486480713e-01
-6.105741262435913086e-01
-7.257450371980667114e-02
1.320544928312301636e-01
-3.428545892238616943e-01
-1.939610987901687622e-01
-9.407949447631835938e-01
3.858032226562500000e-01
3.698747158050537109e-01
-5.099173784255981445e-01
4.607359170913696289e-01
1.527873128652572632e-01
-1.046867370605468750e-01
1.050117850303649902e+00
-7.906383275985717773e-02
3.981112837791442871e-01
-2.454168498516082764e-01
7.864423394203186035e-01
7.519575953483581543e-01
2.439054995775222778e-01
1.168322563171386719e-01
1.276230216026306152e-01
8.431337028741836548e-02
3.428793847560882568e-01
-9.862281382083892822e-02
-7.668149471282958984e-02
-1.167356133460998535e+00
-9.059000760316848755e-02
7.425423264503479004e-01
2.358163893222808838e-01
4.096037745475769043e-01
3.818362057209014893e-01
2.784046232700347900e-01
1.385542154312133789e-01
-1.611504852771759033e-01
3.885942399501800537e-01
-5.981108546257019043e-01
1.539292931556701660e-01
-1.525519490242004395e-01
-7.098156809806823730e-01
6.203420758247375488e-01
-4.833959639072418213e-01
-9.044493734836578369e-02
6.140569448471069336e-01
-1.869174391031265259e-01
4.365535676479339600e-01
-8.268099278211593628e-02
-5.775859355926513672e-01
5.694073811173439026e-02
-2.594310641288757324e-01
-2.839083075523376465e-01
2.884764596819877625e-02
-2.810841202735900879e-01
3.290348052978515625e-01
-2.261940687894821167e-01
3.750018179416656494e-01
3.925600647926330566e-01
6.985143423080444336e-01
9.469173848628997803e-02
-3.151302412152290344e-02
-2.296469211578369141e-01
7.201887369155883789e-01
-1.156972646713256836e+00
9.634225815534591675e-02
7.358278632164001465e-01
1.969044208526611328e-01
4.218586385250091553e-01
-1.012514472007751465e+00
1.873522549867630005e-01
9.403534531593322754e-01
2.910456359386444092e-01
-3.324237167835235596e-01
-3.224678933620452881e-01
-8.247630000114440918e-01
-1.072250828146934509e-01
-5.031504631042480469e-01
-4.594503045082092285e-01
-2.810022234916687012e-01
2.888226509094238281e-01
-1.428182840347290039e+00
1.413832664489746094e+00
-1.390973567962646484e+00
4.412520229816436768e-01
-4.347660243511199951e-01
1.360528707504272461e+00
1.515599846839904785e+00
-1.442782729864120483e-01
1.641985625028610229e-01
-6.099091768264770508e-01
1.755626559257507324e+00
-2.689579963684082031e+00
4.054883122444152832e-01
-9.759442210197448730e-01
-2.657219767570495605e-01
-9.285762906074523926e-01
3.822895884513854980e-01
4.997465759515762329e-02
-3.271444737911224365e-01
3.518689870834350586e-01
7.454865574836730957e-01
8.006244897842407227e-01
-1.166224122047424316e+00
4.228693544864654541e-01
-4.323439002037048340e-01
5.116247534751892090e-01
3.963026031851768494e-02
8.834911137819290161e-02
-3.599872291088104248e-01
1.974127590656280518e-01
5.751076340675354004e-01
-7.824833691120147705e-02
6.066088080406188965e-01
8.211269974708557129e-01
7.395748496055603027e-01
-2.820852100849151611e-01
7.827540636062622070e-01
1.088519215583801270e+00
2.277777194976806641e-01
6.319169402122497559e-01
-4.858825504779815674e-01
-4.479064941406250000e-01
6.019257903099060059e-01
-5.892151594161987305e-01
6.183334067463874817e-02
-5.606473684310913086e-01
-4.329102039337158203e+00
5.440552905201911926e-02
-3.087690472602844238e-01
-9.179675579071044922e-02
6.150823831558227539e-01
1.074695944786071777e+00
6.607352495193481445e-01
-2.634961128234863281e+00
-9.089224338531494141e-01
5.885131359100341797e-01
5.026529431343078613e-01
-1.427940964698791504e+00
-1.388985961675643921e-01
-8.840469121932983398e-01
3.171383142471313477e-01
1.560540646314620972e-01
6.067237257957458496e-01
1.218668580055236816e+00
-3.818357288837432861e-01
-1.214858651161193848e+00
-5.123785734176635742e-01
7.295298576354980469e-01
-4.881774187088012695e-01
-3.347157537937164307e-01
1.727870255708694458e-01
4.841608554124832153e-02
6.980330348014831543e-01
-1.585933566093444824e-02
-2.169144004583358765e-01
2.836376726627349854e-01
7.361974567174911499e-02
2.943032421171665192e-02
-4.018210768699645996e-01
-1.558953523635864258e-01
2.428849786520004272e-01
-1.020913049578666687e-01
-9.146589040756225586e-02
-3.164239823818206787e-01
-4.241547286510467529e-01
-7.685840874910354614e-02
-2.923512160778045654e-01
-1.587649136781692505e-01
-4.774478971958160400e-01
-2.341234236955642700e-01
-1.638113617897033691e+00
