6.496228277683258057e-02
8.321937918663024902e-02
-1.926644891500473022e-01
1.040075659751892090e+00
-5.942345857620239258e-01
-6.567071080207824707e-01
9.198142886161804199e-01
3.739599287509918213e-01
2.385590225458145142e-01
-2.391390949487686157e-01
1.886728107929229736e-01
-4.752016440033912659e-02
4.554776102304458618e-02
-2.068922072649002075e-01
-2.884900569915771484e-01
7.948791235685348511e-02
-1.833397448062896729e-01
-6.826624274253845215e-02
-5.297695994377136230e-01
1.772704422473907471e-01
-8.568093776702880859e-01
-9.583702683448791504e-01
9.722241759300231934e-01
-6.183671355247497559e-01
1.201541274785995483e-01
-3.786911666393280029e-01
-2.491396218538284302e-01
5.345053672790527344e-01
-9.618647694587707520e-01
4.329501688480377197e-01
-5.165067315101623535e-01
4.233614727854728699e-02
-7.562813758850097656e-01
-4.809082746505737305e-01
4.485731422901153564e-01
-7.713124155998229980e-01
1.868587374687194824e+00
3.711173236370086670e-01
4.293482005596160889e-01
-7.428849935531616211e-01
9.735687375068664551e-01
-1.198530942201614380e-01
8.389813303947448730e-01
-4.140387475490570068e-01
-3.637362718582153320e-01
-4.412301182746887207e-01
5.406340956687927246e-02
2.031942605972290039e+00
-5.138443112373352051e-01
5.695839524269104004e-01
1.544867157936096191e-01
1.417593121528625488e+00
6.005892157554626465e-01
-1.002406597137451172e+00
2.518606185913085938e-01
-3.357484191656112671e-02
1.733172535896301270e+00
-1.544473409652709961e+00
-1.025275349617004395e+00
-2.003079652786254883e-01
1.417774677276611328e+00
-1.077230811119079590e+00
7.219855785369873047e-01
-8.595350384712219238e-02
-9.543205797672271729e-02
2.874705195426940918e-01
-3.449527025222778320e-01
2.075153440237045288e-01
-2.053062617778778076e-01
1.302713900804519653e-01
-5.173181295394897461e-01
-5.405015945434570312e-01
4.028480350971221924e-01
-1.537826657295227051e-01
6.795700192451477051e-01
3.990398943424224854e-01
1.911817491054534912e-02
-3.343183398246765137e-01
4.315757155418395996e-01
1.829398274421691895e-01
1.203762460500001907e-02
4.196089506149291992e-01
5.790854096412658691e-01
-3.279366195201873779e-01
5.813350081443786621e-01
-6.113622784614562988e-01
-2.913352549076080322e-01
-1.222410559654235840e+00
1.680147647857666016e-01
9.097718633711338043e-03
3.333739936351776123e-01
9.216058254241943359e-01
-2.085825353860855103e-01
-4.107266962528228760e-01
-7.223429530858993530e-02
4.434857368469238281e-01
-1.498059868812561035e+00
-1.026226520538330078e+00
-1.305739283561706543e+00
4.752873480319976807e-01
9.495082497596740723e-01
-9.954174160957336426e-01
-1.404166221618652344e+00
3.234001100063323975e-01
-1.267286576330661774e-02
4.021424949169158936e-01
3.569124639034271240e-01
1.609296202659606934e-01
-7.766246795654296875e-01
-3.211134374141693115e-01
2.535517811775207520e-01
1.439299821853637695e+00
6.089738607406616211e-01
-9.777042865753173828e-01
5.508541464805603027e-01
1.555528193712234497e-01
2.402481883764266968e-01
4.782371819019317627e-01
-8.070643246173858643e-02
3.060933053493499756e-01
-6.032298207283020020e-01
-7.383606582880020142e-02
1.638233661651611328e-01
-2.187110781669616699e-01
6.318969130516052246e-01
-2.522609531879425049e-01
-5.465078353881835938e-01
4.546568989753723145e-01
-2.662175893783569336e-01
3.855063319206237793e-01
3.536820411682128906e-01
-3.362787067890167236e-01
1.992320269346237183e-02
4.081763029098510742e-01
-3.421473205089569092e-01
-1.147332414984703064e-01
3.256802856922149658e-01
-7.995606064796447754e-01
-2.763830423355102539e-01
-5.081996917724609375e-01
5.568987131118774414e-01
-1.643879711627960205e-01
-1.266097903251647949e+00
-2.535380125045776367e-01
1.571194171905517578e+00
8.218911290168762207e-01
6.868160367012023926e-01
-2.034260332584381104e-01
-2.785162031650543213e-01
9.497418403625488281e-01
-1.592604368925094604e-01
-3.328505039215087891e+00
3.453488945960998535e-01
-1.082595467567443848e+00
6.969313025474548340e-01
1.413613080978393555e+00
-6.209939718246459961e-02
3.193331956863403320e-01
-1.623892039060592651e-01
1.155744269490242004e-01
-1.143575787544250488e+00
2.656781971454620361e-01
4.168646037578582764e-01
6.132052540779113770e-01
4.903798699378967285e-01
-2.162574529647827148e+00
4.467536509037017822e-01
7.574966549873352051e-01
-1.242244839668273926e-01
4.015137851238250732e-01
6.822927389293909073e-03
1.002396464347839355e+00
1.461744755506515503e-01
-3.428294658660888672e-01
-1.739565372467041016e+00
1.235403537750244141e+00
8.562055826187133789e-01
-7.310695052146911621e-01
1.120569348335266113e+00
-7.389400601387023926e-01
-2.758126854896545410e-01
1.031588762998580933e-01
2.776369154453277588e-01
-6.348651647567749023e-01
4.319992065429687500e-01
-4.135866761207580566e-01
-6.441590189933776855e-01
-8.170159161090850830e-02
4.206669032573699951e-01
8.836123347282409668e-02
-2.074247971177101135e-02
3.490614891052246094e-02
7.309248447418212891e-01
2.827924191951751709e-01
7.181209921836853027e-01
5.088975429534912109e-01
3.871106505393981934e-01
-2.499586530029773712e-02
-2.397060990333557129e-01
-6.485792994499206543e-01
-1.261621415615081787e-01
-1.385131597518920898e+00
9.659551829099655151e-02
-1.571595817804336548e-01
-8.885980844497680664e-01
1.755949854850769043e+00
6.930000782012939453e-01
-8.688040971755981445e-01
5.581688880920410156e-01
2.137603014707565308e-01
-4.519476741552352905e-02
-4.699030146002769470e-02
1.916650831699371338e-01
2.042985558509826660e-01
1.429202854633331299e-01
-4.661599397659301758e-01
-7.164643406867980957e-01
9.439345002174377441e-01
6.804033368825912476e-02
3.866576850414276123e-01
-6.459991633892059326e-02
-4.325734674930572510e-01
-8.559135198593139648e-01
6.475146412849426270e-01
-1.042413711547851562e+00
1.292315959930419922e+00
-2.945972681045532227e-01
-5.742663741111755371e-01
2.864943146705627441e-01
9.906471520662307739e-02
-1.247215986251831055e+00
3.361793160438537598e-01
-5.397769808769226074e-01
5.807387828826904297e-01
-3.028955757617950439e-01
-7.000043392181396484e-01
-6.957005709409713745e-02
4.125811159610748291e-02
4.916180372238159180e-01
-2.158658027648925781e+00
-1.031116303056478500e-02
9.116458892822265625e-02
1.225559115409851074e+00
4.194679558277130127e-01
-4.057492911815643311e-01
-3.042668402194976807e-01
-8.207581043243408203e-01
-1.111920550465583801e-01
-4.650649428367614746e-01
-3.931701481342315674e-01
-5.265951752662658691e-01
-2.133803255856037140e-02
4.887581467628479004e-01
1.126821786165237427e-01
6.659144163131713867e-01
5.965777635574340820e-01
3.730531036853790283e-01
4.550806805491447449e-02
-7.733558118343353271e-02
5.569876432418823242e-01
-2.171579934656620026e-02
-5.135429650545120239e-02
-1.013141870498657227e-01
-3.503693044185638428e-01
1.017129540443420410e+00
-7.889905571937561035e-01
3.343770802021026611e-01
3.501366451382637024e-02
-2.049048542976379395e-01
-4.719648957252502441e-01
-9.790486097335815430e-01
-5.799856781959533691e-01
-5.221344232559204102e-01
-7.006508111953735352e-01
-3.031649589538574219e-01
-3.743010461330413818e-01
2.091614753007888794e-01
-2.241605997085571289e+00
-5.999785065650939941e-01
-5.952516794204711914e-01
8.829309791326522827e-02
-6.551909446716308594e-01
5.649203062057495117e-01
2.307408303022384644e-01
-5.870358943939208984e-01
9.473810195922851562e-01
9.148547798395156860e-02
7.774028778076171875e-01
1.704583019018173218e-01
-6.923924684524536133e-01
-1.748732328414916992e+00
8.608728051185607910e-01
-1.692103385925292969e+00
-1.529470831155776978e-01
2.247945547103881836e+00
-1.229944348335266113e+00
1.121787905693054199e+00
1.085237860679626465e-01
1.283855199813842773e+00
-1.520969390869140625e+00
6.605805456638336182e-02
-1.005494594573974609e+00
2.278879731893539429e-01
-2.023584693670272827e-01
-1.304242312908172607e-01
5.462062358856201172e-01
1.573487371206283569e-01
2.285006940364837646e-01
-2.289734184741973877e-01
9.573975801467895508e-01
2.119455635547637939e-01
4.355380684137344360e-02
-1.839736104011535645e-01
3.720594346523284912e-01
1.416606664657592773e+00
-1.045607961714267731e-02
7.463473677635192871e-01
-6.800024509429931641e-01
-2.110211104154586792e-01
6.604105234146118164e-01
-3.228625059127807617e-01
1.482814431190490723e+00
1.104634881019592285e+00
9.103762358427047729e-02
1.257672756910324097e-01
-1.042718291282653809e+00
-3.380490839481353760e-01
1.104353517293930054e-01
1.106817960739135742e+00
-1.908787339925765991e-01
-4.815984725952148438e+00
-1.110138058662414551e+00
-1.695854902267456055e+00
8.057798147201538086e-01
-2.880047798156738281e+00
1.505298614501953125e+00
1.829798698425292969e+00
2.125750631093978882e-01
5.414115190505981445e-01
-1.552402134984731674e-02
1.253151655197143555e+00
-2.074123173952102661e-01
-1.306372165679931641e+00
-7.295320630073547363e-01
1.907834768295288086e+00
-7.417565584182739258e-01
-3.760191500186920166e-01
3.702525794506072998e-01
3.047357499599456787e-01
1.423301100730895996e+00
-9.459689259529113770e-02
-2.905926108360290527e-01
3.632525503635406494e-01
-1.034398823976516724e-01
-5.820287764072418213e-02
-2.413044124841690063e-01
-4.016398489475250244e-01
1.999334692955017090e-01
3.760410547256469727e-01
-3.148928284645080566e-01
-7.339444160461425781e-01
-5.072869732975959778e-02
2.389324456453323364e-01
2.414833605289459229e-01
3.792127221822738647e-02
-9.405948519706726074e-01
5.201372876763343811e-02
-1.262003540992736816e+00
