2.903457880020141602e-01
-3.110536560416221619e-02
-5.236072540283203125e-01
5.424848292022943497e-03
-3.481926918029785156e-01
5.299493670463562012e-02
5.650541186332702637e-01
-3.717260062694549561e-02
6.480173021554946899e-02
1.572957485914230347e-01
1.279482152312994003e-02
-6.483846157789230347e-02
-2.613126859068870544e-02
-2.253792248666286469e-02
-4.862379729747772217e-01
-1.379423141479492188e-01
2.391209155321121216e-01
-6.303697228431701660e-01
3.427308201789855957e-01
2.413423359394073486e-01
-5.625130534172058105e-01
-7.086415290832519531e-01
9.367514252662658691e-01
-8.532878756523132324e-01
6.324893832206726074e-01
-1.933482438325881958e-01
-6.641967892646789551e-01
4.807287454605102539e-01
-7.860665917396545410e-01
5.398210287094116211e-01
-5.432052612304687500e-01
2.429100573062896729e-01
-6.021551489830017090e-01
-3.156930208206176758e-01
3.361968696117401123e-01
-5.587431788444519043e-01
1.830120563507080078e+00
-2.919324859976768494e-02
4.024483263492584229e-01
-8.912394046783447266e-01
1.325628519058227539e+00
5.864562988281250000e-01
3.390368521213531494e-01
-4.765306115150451660e-01
-2.507886663079261780e-02
-2.247668653726577759e-01
4.756156206130981445e-01
1.376502156257629395e+00
-1.913491487503051758e+00
4.014733061194419861e-02
-3.634428977966308594e-02
1.051401734352111816e+00
3.646149337291717529e-01
-7.340860962867736816e-01
1.543839722871780396e-01
-4.810487106442451477e-02
1.583295941352844238e+00
-4.651819467544555664e-01
1.081400394439697266e+00
-9.717892110347747803e-02
1.658771276473999023e+00
-3.084307610988616943e-01
5.906202793121337891e-01
-4.016229510307312012e-02
-2.983942627906799316e-01
2.060277760028839111e-01
-1.693766564130783081e-02
8.212063461542129517e-02
-1.669374406337738037e-01
-2.275291131809353828e-03
-5.091605782508850098e-01
-3.686754405498504639e-01
5.108472108840942383e-01
6.225239485502243042e-03
6.409022808074951172e-01
3.577381074428558350e-01
-1.494446769356727600e-02
-4.429574608802795410e-01
7.237198352813720703e-01
1.615644991397857666e-01
-2.676169872283935547e-01
5.160641670227050781e-01
3.887924551963806152e-01
-6.547142565250396729e-02
3.271895945072174072e-01
-4.057652652263641357e-01
-1.037554264068603516e+00
6.632224321365356445e-01
-1.584949374198913574e+00
5.535551309585571289e-01
3.427067101001739502e-01
1.996146515011787415e-02
-3.426086604595184326e-01
-2.465116828680038452e-01
1.763667725026607513e-02
6.085200309753417969e-01
1.025586366653442383e+00
-1.923409104347229004e+00
-2.247042655944824219e-01
-8.554869145154953003e-02
7.397164702415466309e-01
-1.363076567649841309e+00
8.636888265609741211e-01
5.726109147071838379e-01
-6.030408740043640137e-01
-3.445918262004852295e-01
1.151329278945922852e-01
4.238450527191162109e-02
-4.701324105262756348e-01
-1.830880194902420044e-01
-1.751337572932243347e-02
9.403850436210632324e-01
-3.129054605960845947e-01
-1.043227791786193848e+00
2.132549285888671875e-01
-1.308570027351379395e+00
-1.543752104043960571e-01
2.408484369516372681e-01
-3.408702909946441650e-01
4.837123677134513855e-02
7.340863347053527832e-01
-6.182916760444641113e-01
8.678527921438217163e-02
-1.249968931078910828e-01
3.512854278087615967e-01
-3.569278120994567871e-01
-6.381144523620605469e-01
5.540189146995544434e-01
-2.359023839235305786e-01
4.485555589199066162e-01
2.805557250976562500e-01
-2.541112601757049561e-01
-1.137599050998687744e-01
3.594476878643035889e-01
-2.326851189136505127e-01
-1.154522970318794250e-01
3.643769025802612305e-01
1.227979362010955811e-01
-3.627483248710632324e-01
-2.210666686296463013e-01
6.527661681175231934e-01
-2.581889927387237549e-01
8.659041523933410645e-01
-1.876143962144851685e-01
-5.736774802207946777e-01
1.044068038463592529e-01
5.317430496215820312e-01
-1.100333034992218018e-01
7.319657504558563232e-02
3.803429603576660156e-01
-2.217225283384323120e-01
-8.342615127563476562e+00
-4.625105559825897217e-01
4.372224956750869751e-02
4.433452785015106201e-01
4.355193376541137695e-01
-9.914285689592361450e-02
5.114964675158262253e-03
-1.493037939071655273e-01
3.159566596150398254e-02
1.406328678131103516e+00
-1.120247095823287964e-01
4.393203556537628174e-01
-5.005557537078857422e-01
8.788611739873886108e-02
3.105158805847167969e-01
2.304768115282058716e-01
-9.332715868949890137e-01
2.416444569826126099e-01
5.575250983238220215e-01
4.530446529388427734e-01
2.410526871681213379e-01
8.094924688339233398e-01
-4.965444803237915039e-01
-8.909324407577514648e-01
1.244517922401428223e+00
2.626564800739288330e-01
4.343571662902832031e-01
-3.081505000591278076e-01
-1.209524348378181458e-01
-4.025063216686248779e-01
8.821009397506713867e-01
3.661482334136962891e-01
-3.926489651203155518e-01
4.521980285644531250e-01
-4.629266858100891113e-01
-7.192214131355285645e-01
-4.633719474077224731e-02
5.982139110565185547e-01
4.655324518680572510e-01
-1.277158707380294800e-01
-3.335924148559570312e-01
6.866316199302673340e-01
7.386078238487243652e-01
4.379880726337432861e-01
5.478355884552001953e-01
8.569725751876831055e-01
-6.185229495167732239e-02
-1.960496008396148682e-01
-5.716872811317443848e-01
-8.901137858629226685e-02
2.549725472927093506e-01
7.922193408012390137e-02
3.908102810382843018e-01
1.243376359343528748e-01
-4.591143131256103516e-01
6.266484260559082031e-01
-1.421250551939010620e-01
2.928765416145324707e-01
2.172947674989700317e-01
-4.373782277107238770e-01
4.381958246231079102e-01
-3.222120404243469238e-01
1.100830957293510437e-01
-5.092770978808403015e-02
9.950827062129974365e-02
2.768757343292236328e+00
3.170369863510131836e-01
1.534468084573745728e-01
2.109629511833190918e-01
-3.659543991088867188e-01
-6.528586745262145996e-01
-1.427591323852539062e+00
3.825045526027679443e-01
-3.800679370760917664e-02
-4.999361932277679443e-02
-5.068402886390686035e-01
5.198484659194946289e-01
-3.321988880634307861e-02
1.334738284349441528e-01
-2.729558050632476807e-01
1.234062016010284424e-01
1.255949884653091431e-01
1.232935041189193726e-01
-6.492751240730285645e-01
-3.356806933879852295e-01
-2.893230020999908447e-01
-1.224886894226074219e+00
-5.730728432536125183e-02
1.683455586433410645e+00
2.756330668926239014e-01
3.126501142978668213e-01
6.858648061752319336e-01
4.822822213172912598e-01
-1.184141188859939575e-01
-3.590230643749237061e-02
4.969400465488433838e-01
-1.148529350757598877e-02
-2.696779072284698486e-01
-1.116905137896537781e-01
-4.103611707687377930e-01
3.624379634857177734e-01
-5.172898769378662109e-01
2.981633245944976807e-01
3.369004130363464355e-01
4.286940991878509521e-01
3.170170783996582031e-01
5.640962719917297363e-01
-2.144945859909057617e-01
6.513916254043579102e-01
-8.108319044113159180e-01
9.695398062467575073e-02
2.445230484008789062e-01
4.153953790664672852e-01
5.322908163070678711e-01
-7.368394136428833008e-01
-3.595299720764160156e-01
3.893718123435974121e-01
-1.720223389565944672e-02
-4.132525324821472168e-01
-4.168677926063537598e-01
-5.379676818847656250e-01
-2.274884730577468872e-01
1.475151441991329193e-02
-4.360554516315460205e-01
1.060912385582923889e-01
2.521399855613708496e-01
-4.554449021816253662e-02
-1.794476956129074097e-01
9.190717935562133789e-01
2.836934328079223633e-01
-7.061866521835327148e-01
-5.758370161056518555e-01
1.168985128402709961e+00
-5.452094674110412598e-01
2.365209758281707764e-01
-1.534283310174942017e-01
4.802756607532501221e-01
5.989785790443420410e-01
1.312008947134017944e-01
2.524065017700195312e+00
1.321045160293579102e+00
-6.102152466773986816e-01
1.307912915945053101e-01
1.033433437347412109e+00
-1.388855338096618652e+00
8.552842736244201660e-01
-2.896628677845001221e-01
7.393664121627807617e-01
-8.939887583255767822e-02
-8.278782963752746582e-01
-7.023275494575500488e-01
6.458809226751327515e-02
-2.233731001615524292e-01
5.536022409796714783e-02
2.175140976905822754e-01
1.112379953265190125e-01
5.592115521430969238e-01
-1.211674287915229797e-01
8.353276848793029785e-01
4.865916073322296143e-01
4.446932673454284668e-01
-2.426170259714126587e-01
4.582396447658538818e-01
1.241145730018615723e+00
3.227227032184600830e-01
6.654007434844970703e-01
-3.996194303035736084e-01
-9.669685736298561096e-03
3.015426695346832275e-01
-7.754400372505187988e-02
1.390979737043380737e-01
1.898480355739593506e-01
-1.005882620811462402e+00
9.429533779621124268e-02
2.439128700643777847e-03
-3.793686926364898682e-01
4.906525611877441406e-01
-5.439186692237854004e-01
3.170309364795684814e-01
7.648683190345764160e-01
-6.645931601524353027e-01
-2.465881109237670898e-01
3.192178308963775635e-01
-1.308421492576599121e+00
-3.178430348634719849e-02
5.720537900924682617e-01
1.068165898323059082e-01
-1.489699631929397583e-01
3.012580573558807373e-01
4.631564021110534668e-01
6.243078783154487610e-02
-1.196267247200012207e+00
-5.889576673507690430e-01
8.648101091384887695e-01
-4.674484729766845703e-01
-2.860997617244720459e-01
2.616523504257202148e-01
2.715795636177062988e-01
4.145619869232177734e-01
-3.369295597076416016e-02
-4.049869477748870850e-01
5.914680361747741699e-01
2.623422443866729736e-02
3.235002979636192322e-02
-7.000785320997238159e-02
-2.091230750083923340e-01
1.888551861047744751e-01
1.609819531440734863e-01
-4.944812357425689697e-01
-2.678868174552917480e-01
-1.013268157839775085e-01
5.237085819244384766e-01
-9.187190979719161987e-02
-6.950374692678451538e-02
-4.305383265018463135e-01
-8.945260941982269287e-02
-6.925627589225769043e-02
