3.224837481975555420e-01
-8.873095363378524780e-02
-2.977653443813323975e-01
3.260320425033569336e-02
-4.454310238361358643e-01
5.146830677986145020e-01
4.688746854662895203e-02
-4.622343927621841431e-02
6.941394507884979248e-02
-2.027986943721771240e-02
1.728006303310394287e-01
-2.790713906288146973e-01
-1.460706740617752075e-01
3.240676969289779663e-02
-1.072775870561599731e-01
-6.679735332727432251e-02
2.440868020057678223e-01
-5.127417668700218201e-02
1.128931418061256409e-01
1.321903914213180542e-01
-3.570679426193237305e-01
-8.521869778633117676e-01
1.014923810958862305e+00
-9.845771193504333496e-01
4.989453256130218506e-01
-2.829182446002960205e-01
-5.814746022224426270e-01
3.760542571544647217e-01
-4.306409955024719238e-01
6.296381950378417969e-01
-6.274482607841491699e-01
3.706025481224060059e-01
-2.776130139827728271e-01
-2.566142082214355469e-01
2.356489449739456177e-01
-6.075664162635803223e-01
1.514366626739501953e+00
3.929386660456657410e-02
4.651738330721855164e-02
-9.514248967170715332e-01
1.525979638099670410e+00
5.739651322364807129e-01
4.277224540710449219e-01
-6.282000541687011719e-01
3.141274303197860718e-02
-9.219063818454742432e-02
6.673739552497863770e-01
-8.626277744770050049e-02
-1.755313515663146973e+00
2.421602755784988403e-01
-1.395759582519531250e-01
-2.602452337741851807e-01
2.403108775615692139e-02
-8.049441576004028320e-01
1.173402592539787292e-01
-3.078036382794380188e-02
-1.749308258295059204e-01
-8.483175635337829590e-01
4.648272991180419922e-01
-4.148021340370178223e-02
-5.427162647247314453e-01
1.039968207478523254e-01
5.618379116058349609e-01
-8.734101057052612305e-02
-4.487523436546325684e-01
1.476280242204666138e-01
-5.675727501511573792e-02
1.206948161125183105e-01
-1.972649097442626953e-01
8.090466260910034180e-03
-5.807276964187622070e-01
-4.627943634986877441e-01
5.074048042297363281e-01
-8.081509917974472046e-02
6.959773898124694824e-01
4.270147383213043213e-01
2.290285378694534302e-02
-4.887250363826751709e-01
2.810564637184143066e-01
1.316410303115844727e-01
-2.161981165409088135e-01
4.327018558979034424e-01
4.136912524700164795e-01
-1.479263603687286377e-01
5.072398781776428223e-01
-4.297536015510559082e-01
-6.932390332221984863e-01
6.056773662567138672e-01
-9.291403293609619141e-01
6.148214340209960938e-01
-6.281049549579620361e-02
2.076660990715026855e-01
-3.521079123020172119e-01
-3.847962617874145508e-01
3.023381531238555908e-01
5.226685404777526855e-01
1.261435389518737793e+00
-1.791735172271728516e+00
-6.090729832649230957e-01
2.211904227733612061e-01
2.318138778209686279e-01
1.698027700185775757e-01
-1.031952381134033203e+00
6.048895120620727539e-01
-1.247871592640876770e-01
-1.015205830335617065e-01
1.026960182934999466e-02
1.029759645462036133e-02
-7.521443963050842285e-01
-1.635110937058925629e-02
8.996130526065826416e-02
-4.159050881862640381e-01
1.760796010494232178e-01
-1.091133832931518555e+00
2.726964354515075684e-01
-4.478825032711029053e-01
4.497478157281875610e-02
2.639868557453155518e-01
-8.041132688522338867e-01
8.573897182941436768e-02
-5.769712328910827637e-01
-5.003469586372375488e-01
5.149473547935485840e-01
-1.414602696895599365e-01
3.305733799934387207e-01
-2.878359556198120117e-01
-5.739446878433227539e-01
4.875071644783020020e-01
-3.563083708286285400e-01
3.970434963703155518e-01
2.750351130962371826e-01
-2.966501116752624512e-01
1.478365659713745117e-01
4.247906506061553955e-01
-3.578859269618988037e-01
-1.621393859386444092e-01
2.816913723945617676e-01
3.618889749050140381e-01
-4.669193625450134277e-01
-2.250669598579406738e-01
5.872291326522827148e-01
-1.995639503002166748e-01
-2.156573295593261719e+00
-1.562012135982513428e-01
-1.367343366146087646e-01
3.213500082492828369e-01
3.498119711875915527e-01
-2.863495051860809326e-01
-1.431063860654830933e-01
5.124478936195373535e-01
-2.209168672561645508e-01
-2.184765815734863281e+00
-2.973555773496627808e-02
1.059345901012420654e-01
4.942683279514312744e-01
6.220507025718688965e-01
2.262672176584601402e-03
6.025179103016853333e-02
-4.972325563430786133e-01
1.658073067665100098e-02
-8.444889783859252930e-01
-1.550419442355632782e-02
7.342565655708312988e-01
4.299564361572265625e-01
-1.946615800261497498e-02
-4.245056807994842529e-01
1.887360364198684692e-01
-1.346927523612976074e+00
-2.739664018154144287e-01
5.843702554702758789e-01
2.730766832828521729e-01
8.808628320693969727e-01
5.209584236145019531e-01
-4.315755069255828857e-01
-1.103012442588806152e+00
-6.609936952590942383e-01
4.481083452701568604e-01
3.798122107982635498e-01
-4.820567965507507324e-01
-2.112332135438919067e-01
1.970383077859878540e-01
9.267402291297912598e-01
3.862853646278381348e-01
-1.939111948013305664e-01
4.557080864906311035e-01
-4.664077758789062500e-01
-7.205089926719665527e-01
1.303624510765075684e-01
5.916937589645385742e-01
4.069600701332092285e-01
-7.995835691690444946e-02
-6.062220782041549683e-02
7.030606865882873535e-01
1.022667527198791504e+00
2.852972447872161865e-01
5.511883497238159180e-01
2.294785380363464355e-01
-6.832885742187500000e-02
-1.916303038597106934e-01
-6.214232444763183594e-01
-7.497895509004592896e-02
3.939276635646820068e-01
-3.164772987365722656e-01
1.197247952222824097e-01
-2.048701196908950806e-01
9.365075081586837769e-02
7.823220491409301758e-01
-7.457236200571060181e-02
3.805723488330841064e-01
2.212825417518615723e-01
-3.645451664924621582e-01
4.779817163944244385e-01
-1.215980872511863708e-01
3.316071256995201111e-02
-3.384576737880706787e-02
7.935175895690917969e-01
1.705897599458694458e-02
3.235462903976440430e-01
2.803222537040710449e-01
1.250025779008865356e-01
-1.019392311573028564e-01
-6.938139796257019043e-01
-1.265345335006713867e+00
-6.264336705207824707e-01
-2.039383351802825928e-01
-1.149965673685073853e-01
5.224173069000244141e-01
5.181443095207214355e-01
3.262021243572235107e-01
2.061764299869537354e-01
-8.105403780937194824e-01
3.691553473472595215e-01
-1.088946461677551270e+00
-1.215658783912658691e-01
-8.681725859642028809e-01
-3.048989772796630859e-01
-1.195554509758949280e-01
-9.046867489814758301e-01
-5.270891189575195312e-01
-1.279114484786987305e-01
3.470113277435302734e-01
2.412400841712951660e-01
7.697603106498718262e-01
5.264461636543273926e-01
-8.456820994615554810e-02
-2.192902751266956329e-02
4.091499447822570801e-01
-9.419976174831390381e-02
-2.790354788303375244e-01
-7.515832781791687012e-02
-1.295170038938522339e-01
6.931586861610412598e-01
-1.248604357242584229e-01
1.035919785499572754e-01
9.782705456018447876e-02
6.675483584403991699e-01
2.179897427558898926e-01
3.316604793071746826e-01
-2.223465442657470703e-01
5.799841284751892090e-01
-2.756339013576507568e-01
2.776803672313690186e-01
8.120727539062500000e-02
7.075840234756469727e-02
7.976218461990356445e-01
-7.217040061950683594e-01
-6.884250640869140625e-01
5.431542396545410156e-01
-2.554380297660827637e-01
-5.067324042320251465e-01
-1.386772394180297852e-01
-6.005602478981018066e-01
-3.933835327625274658e-01
-1.858762651681900024e-01
-3.376311957836151123e-01
2.615098953247070312e-01
4.184069931507110596e-01
-7.803375720977783203e-01
9.848407655954360962e-02
2.259594649076461792e-01
5.460694432258605957e-01
-6.847449541091918945e-01
4.670656099915504456e-02
1.123498439788818359e+00
-1.985395103693008423e-01
7.283811569213867188e-01
-1.524360030889511108e-01
2.001320272684097290e-01
6.314873695373535156e-01
2.267466038465499878e-01
2.046116352081298828e+00
1.012637138366699219e+00
-4.972252547740936279e-01
4.167316854000091553e-02
7.346572279930114746e-01
-7.301619648933410645e-01
7.675939798355102539e-01
-3.390681445598602295e-01
6.157961487770080566e-01
-4.428644180297851562e-01
8.297530561685562134e-02
-8.844171762466430664e-01
2.642833888530731201e-01
-8.148563653230667114e-02
-7.151795178651809692e-02
6.598674505949020386e-02
1.153147444128990173e-01
2.010857909917831421e-01
-9.989756159484386444e-03
1.711973994970321655e-01
4.913297891616821289e-01
1.110619679093360901e-01
-2.927595376968383789e-01
6.624974608421325684e-01
1.366294860839843750e+00
3.188839554786682129e-01
6.652578711509704590e-01
-6.067507863044738770e-01
2.120763361454010010e-01
3.844447433948516846e-01
5.146856904029846191e-01
1.319205015897750854e-01
-1.591172665357589722e-01
-1.212609410285949707e+00
-4.050417616963386536e-02
-7.936038374900817871e-01
-3.727251291275024414e-01
1.262699216604232788e-01
-5.318738147616386414e-02
2.392582744359970093e-01
9.639908671379089355e-01
-6.631408333778381348e-01
-9.176796674728393555e-01
3.848964869976043701e-01
-7.502570748329162598e-01
-2.528966069221496582e-01
5.234655737876892090e-01
-2.518565766513347626e-02
-3.642836213111877441e-02
1.430943608283996582e-01
1.822872459888458252e-01
8.204859495162963867e-02
-9.962190985679626465e-01
-6.845926642417907715e-01
1.274369120597839355e+00
-4.819351136684417725e-01
-2.726197838783264160e-01
4.004130065441131592e-01
2.750320732593536377e-01
6.907145977020263672e-01
1.163395047187805176e-01
-1.880435198545455933e-01
5.836696624755859375e-01
8.943907916545867920e-02
9.885030984878540039e-02
3.796817734837532043e-02
-1.527776718139648438e-01
2.288656532764434814e-01
3.962863609194755554e-02
-4.750701189041137695e-01
-3.532598018646240234e-01
-1.728962212800979614e-01
5.118660330772399902e-01
-1.618964225053787231e-01
-5.934815108776092529e-02
-4.285110533237457275e-01
-7.283485680818557739e-02
-4.873676970601081848e-02
