1.141430735588073730e+00
-1.019713208079338074e-01
-8.067310452461242676e-01
-8.991770446300506592e-02
-4.019058644771575928e-01
1.061904072761535645e+00
-3.290877640247344971e-01
-1.549847573041915894e-01
3.271969258785247803e-01
-5.865835025906562805e-02
8.256314992904663086e-01
8.347912132740020752e-02
1.106523647904396057e-01
1.344263851642608643e-01
-1.444269567728042603e-01
-1.188113391399383545e-01
9.766263514757156372e-02
5.363651551306247711e-03
8.741123676300048828e-01
2.466077655553817749e-01
-9.612881541252136230e-01
-1.244215965270996094e-01
-7.591780424118041992e-01
-1.295789182186126709e-01
-1.738032847642898560e-01
-1.071586385369300842e-01
4.898450374603271484e-01
9.278503060340881348e-02
-6.457024216651916504e-01
8.392222225666046143e-02
2.081798017024993896e-01
1.023907139897346497e-01
2.462851256132125854e-01
1.114810183644294739e-01
-1.233679771423339844e+00
-1.770161539316177368e-01
1.167506575584411621e+00
1.127629727125167847e-01
8.491199016571044922e-01
4.789643362164497375e-02
6.425129771232604980e-01
-3.672411441802978516e-01
-4.520615339279174805e-01
-2.275791205465793610e-02
-3.236958757042884827e-02
3.863365054130554199e-01
-3.013023408129811287e-03
4.562684893608093262e-02
-3.224011510610580444e-02
3.570279777050018311e-01
-4.580992162227630615e-01
-3.122129738330841064e-01
-3.186211688444018364e-04
1.475124806165695190e-01
-1.280257701873779297e-01
2.300253957509994507e-01
1.183298230171203613e-01
-5.333603620529174805e-01
6.195329427719116211e-01
4.043808281421661377e-01
-5.190595388412475586e-01
3.603628277778625488e-01
4.318365752696990967e-01
2.409943193197250366e-01
-1.028311401605606079e-01
-3.288100063800811768e-01
2.808959782123565674e-02
1.035618633031845093e-01
-2.607070803642272949e-01
-2.798442244529724121e-01
3.336172699928283691e-01
3.193992003798484802e-02
1.881806738674640656e-02
-2.317307330667972565e-02
4.317097365856170654e-03
3.164805844426155090e-02
1.102863904088735580e-02
5.559387803077697754e-01
-8.296144604682922363e-01
-2.050473988056182861e-01
4.501364529132843018e-01
-5.921080112457275391e-01
1.378855258226394653e-01
-4.843802005052566528e-02
-1.482277512550354004e-01
4.921701252460479736e-01
2.817142605781555176e-01
-5.577116459608078003e-02
-1.073077097535133362e-01
1.070493817329406738e+00
-3.081637024879455566e-01
-5.347148776054382324e-01
-1.197514384984970093e-01
3.129227459430694580e-01
-1.580621860921382904e-02
2.182186394929885864e-01
3.022913634777069092e-01
-9.643724560737609863e-01
9.556272625923156738e-01
6.544106006622314453e-01
-1.207684949040412903e-01
1.065681949257850647e-01
2.706791162490844727e-01
3.619704023003578186e-02
-2.427229434251785278e-01
-4.340066313743591309e-01
2.462650686502456665e-01
6.371065229177474976e-02
1.360179930925369263e-01
-1.143363863229751587e-01
2.648699283599853516e-01
2.348421365022659302e-01
6.671150773763656616e-02
-1.294717490673065186e-01
-6.566963344812393188e-02
1.326787620782852173e-01
9.156672656536102295e-02
6.593674421310424805e-01
-7.949714064598083496e-01
-4.023576974868774414e-01
-6.409800648689270020e-01
2.789229452610015869e-01
6.942847967147827148e-01
-3.672655671834945679e-02
-7.707748562097549438e-02
-5.427920222282409668e-01
-8.387637883424758911e-02
3.466965258121490479e-02
2.284007146954536438e-02
-1.036957800388336182e-01
1.336758881807327271e-01
2.498050630092620850e-01
1.333903074264526367e-01
-4.303757846355438232e-02
1.131207123398780823e-01
3.707021102309226990e-02
7.579438388347625732e-02
7.458738088607788086e-01
-9.105544090270996094e-01
-5.489448904991149902e-01
-1.080886088311672211e-02
-7.734979689121246338e-02
-1.347029507160186768e-01
-1.694964617490768433e-01
1.782031357288360596e-01
6.872138381004333496e-02
-2.550629526376724243e-02
-2.450698018074035645e-01
2.062936276197433472e-01
8.222486078739166260e-02
-1.882397532463073730e-01
1.499374657869338989e-01
1.002047881484031677e-01
-1.647164695896208286e-03
-1.005462780594825745e-01
1.210229471325874329e-01
1.756349056959152222e-01
-2.319104075431823730e-01
2.330451160669326782e-01
-4.130974784493446350e-02
-5.570180416107177734e-01
1.280820071697235107e-01
2.818786352872848511e-02
-1.181073263287544250e-01
-8.814191073179244995e-02
-1.281888037919998169e-01
4.529085755348205566e-02
-4.403111711144447327e-02
-2.553815841674804688e-01
-8.667059242725372314e-02
4.330442100763320923e-02
3.357710316777229309e-02
-2.264372259378433228e-01
1.751252561807632446e-01
1.230479031801223755e-01
2.124118655920028687e-01
2.345912009477615356e-01
3.301397860050201416e-01
-5.956196784973144531e-01
-6.779313832521438599e-02
4.991569221019744873e-01
-1.838096380233764648e-01
-1.657517552375793457e-01
9.054979681968688965e-02
-1.212095767259597778e-01
5.001252889633178711e-01
-5.070538520812988281e-01
3.218775987625122070e-01
-2.678924798965454102e-01
-2.322463132441043854e-02
-1.445939540863037109e-01
-2.025461345911026001e-01
2.000339180231094360e-01
1.417914964258670807e-02
8.524755388498306274e-02
-1.331777125597000122e-01
-1.152875423431396484e-01
-1.987266689538955688e-01
6.746243834495544434e-01
2.473788410425186157e-01
-4.780038297176361084e-01
8.643530309200286865e-02
5.640439391136169434e-01
-1.632787659764289856e-02
-1.450608670711517334e-01
-3.711490929126739502e-01
5.559462308883666992e-02
-6.798680871725082397e-02
4.206093400716781616e-02
-2.298017591238021851e-01
2.875548899173736572e-01
2.212702631950378418e-01
-1.531405150890350342e-01
5.885126069188117981e-02
2.388425916433334351e-01
7.691607624292373657e-02
6.183772534132003784e-02
4.680062532424926758e-01
-9.034484028816223145e-01
-2.676803767681121826e-01
-2.253204584121704102e-01
-5.476312711834907532e-03
6.556302309036254883e-01
-2.541674077510833740e-01
-1.550147682428359985e-01
1.909291148185729980e-01
1.681356132030487061e-01
1.354995369911193848e-01
6.787436455488204956e-02
6.206293702125549316e-01
-4.005385041236877441e-01
-4.556653797626495361e-01
1.195164173841476440e-01
6.359736621379852295e-02
5.154203772544860840e-01
2.185286432504653931e-01
1.133868247270584106e-01
-3.085829317569732666e-01
7.533996701240539551e-01
-1.389641463756561279e-01
-7.260970473289489746e-01
-7.473807036876678467e-02
-3.480860218405723572e-02
2.553110383450984955e-02
-8.451719582080841064e-02
-1.049797460436820984e-01
-5.371846631169319153e-02
-1.441646367311477661e-01
-3.302780389785766602e-01
2.667920105159282684e-02
2.149183750152587891e-01
-3.733697906136512756e-02
1.571117201820015907e-03
-1.406346708536148071e-01
1.889122128486633301e-01
-1.103483662009239197e-01
8.244961500167846680e-02
1.118260324001312256e-01
-1.560545861721038818e-01
-3.026069700717926025e-01
8.980517387390136719e-01
-2.186786681413650513e-01
-5.783906579017639160e-01
5.939446389675140381e-02
2.608453929424285889e-01
2.918257117271423340e-01
1.354390406049787998e-03
-2.179141342639923096e-02
1.277280002832412720e-01
9.004861116409301758e-02
-2.712670862674713135e-01
-1.478215605020523071e-01
1.121798232197761536e-01
1.680265516042709351e-01
-1.430974453687667847e-01
1.190795898437500000e-01
-6.200733780860900879e-02
-6.500772237777709961e-01
6.863322854042053223e-01
5.699583888053894043e-01
-3.070279359817504883e-01
1.545267403125762939e-01
4.700393080711364746e-01
3.262252360582351685e-02
-1.250677108764648438e-01
-3.882166743278503418e-01
-8.441793918609619141e-02
1.883829981088638306e-01
-1.680279523134231567e-01
-1.340619623661041260e-01
1.593457162380218506e-01
-4.186709225177764893e-02
1.087380796670913696e-01
9.040842764079570770e-03
-8.322989940643310547e-02
-1.725389063358306885e-01
-2.061396278440952301e-02
5.331462621688842773e-01
-6.513684391975402832e-01
-2.168868929147720337e-01
-1.207026094198226929e-01
6.069057062268257141e-02
1.853470653295516968e-01
1.310737878084182739e-01
-3.148895502090454102e-01
-2.093854993581771851e-01
-7.071666419506072998e-02
1.160209551453590393e-01
1.981850899755954742e-02
1.562149375677108765e-01
-1.067019924521446228e-01
3.037922456860542297e-02
7.665905356407165527e-02
-2.631436586380004883e-01
7.389405369758605957e-01
-2.429759502410888672e-01
-2.106692790985107422e-01
5.009689182043075562e-02
1.622452400624752045e-02
-2.387759238481521606e-01
-6.490739583969116211e-01
2.344944030046463013e-01
-2.937733829021453857e-01
-2.446694970130920410e-01
2.334679812192916870e-01
-3.405510187149047852e-01
1.370419859886169434e-01
-1.989839375019073486e-01
-2.214006781578063965e-01
2.092103511095046997e-01
2.040314674377441406e-01
1.386902481317520142e-01
-1.141150742769241333e-01
1.507804393768310547e-01
-5.464824661612510681e-02
1.019159331917762756e-01
-5.098491907119750977e-02
-2.018800079822540283e-01
-1.802356392145156860e-01
-4.154118001461029053e-01
-1.242289170622825623e-01
8.042799681425094604e-02
-2.171169221401214600e-01
7.294237613677978516e-01
9.823247790336608887e-02
-4.934257268905639648e-02
-1.938649117946624756e-01
2.362887114286422729e-01
-2.216195464134216309e-01
1.775815486907958984e-01
6.762787699699401855e-02
1.352213919162750244e-01
1.015681922435760498e-01
-2.385980635881423950e-02
2.574675679206848145e-01
1.240985244512557983e-01
-1.210499256849288940e-01
-3.710852861404418945e-01
3.297547996044158936e-01
-3.067688643932342529e-01
-6.521392464637756348e-01
6.652140617370605469e-02
4.335873723030090332e-01
-3.157419711351394653e-02
-6.859023123979568481e-02
-3.719131052494049072e-01
-1.023445799946784973e-01
-1.110221147537231445e-01
3.357550501823425293e-02
-3.789643645286560059e-01
5.524835735559463501e-02
2.385248243808746338e-01
-5.536133050918579102e-02
-1.271034330129623413e-01
6.332758814096450806e-02
-7.323750108480453491e-02
-1.824157238006591797e-01
9.149932265281677246e-01
-7.033799886703491211e-01
-3.913154602050781250e-01
1.278351247310638428e-01
-4.586561322212219238e-01
-1.147581543773412704e-02
-2.754969596862792969e-01
-4.844829440116882324e-01
3.107680678367614746e-01
1.286281049251556396e-01
-2.672741115093231201e-01
-6.445743143558502197e-02
1.587420410942286253e-04
-1.255856603384017944e-01
-1.679127216339111328e-01
-3.080495595932006836e-01
6.786715984344482422e-02
8.875060826539993286e-02
4.707768931984901428e-02
2.107062935829162598e-01
5.772870033979415894e-02
1.948769092559814453e-01
4.371339082717895508e-01
-5.804771184921264648e-01
4.024948775768280029e-01
3.828263878822326660e-01
-4.263680800795555115e-02
-1.434609144926071167e-01
-5.637994408607482910e-01
-6.680655479431152344e-02
-2.487142011523246765e-02
1.494144275784492493e-02
-6.712432205677032471e-02
2.082486301660537720e-01
2.329522669315338135e-01
5.380393937230110168e-02
-1.364649981260299683e-01
3.508560732007026672e-02
3.320336714386940002e-02
-2.641038298606872559e-01
6.563022136688232422e-01
-7.728874683380126953e-01
-4.400628209114074707e-01
-7.698520421981811523e-01
4.512659311294555664e-01
1.045265328139066696e-02
-1.869635581970214844e-01
6.361841224133968353e-04
-1.942714750766754150e-01
2.983897328376770020e-01
-3.885025382041931152e-01
1.899693310260772705e-01
-1.482913792133331299e-01
1.800291538238525391e-01
-2.815219759941101074e-02
-1.862930655479431152e-01
8.438740670680999756e-02
1.961926370859146118e-01
-8.512025326490402222e-02
2.875349819660186768e-01
3.158470690250396729e-01
-3.983160853385925293e-01
-2.952123880386352539e-01
-6.090992689132690430e-01
8.294394016265869141e-01
-1.621570348739624023e+00
-7.400128990411758423e-03
3.220224082469940186e-01
-8.028147220611572266e-01
-3.243279084563255310e-02
8.949637413024902344e-02
-1.537165939807891846e-01
-1.996193170547485352e+00
5.928543806076049805e-01
1.105725288391113281e+00
1.650887578725814819e-01
-8.795943260192871094e-01
1.281301677227020264e-01
2.393042147159576416e-01
1.389314830303192139e-01
1.651823043823242188e+00
-5.569218993186950684e-01
-6.579107046127319336e-01
-1.862973868846893311e-01
5.121535435318946838e-02
-3.808011114597320557e-02
-2.279792279005050659e-01
6.632108986377716064e-02
-4.948658123612403870e-02
2.556907944381237030e-03
-2.253015339374542236e-01
6.891382336616516113e-01
-1.290317773818969727e-01
1.537802368402481079e-01
-3.815852999687194824e-01
5.447155833244323730e-01
9.467791020870208740e-02
3.517248928546905518e-01
-9.244944900274276733e-03
-3.605348467826843262e-01
-2.423078715801239014e-01
-2.167263440787792206e-02
-4.016017019748687744e-01
-5.582743883132934570e-02
1.843963265419006348e-01
-4.203880727291107178e-01
4.265135526657104492e-02
5.817738827317953110e-03
-2.593968212604522705e-01
6.545796524733304977e-03
-2.054926455020904541e-01
-8.908415585756301880e-02
-6.537069380283355713e-02
7.813479304313659668e-01
5.975588783621788025e-02
-3.089129552245140076e-02
-2.480036318302154541e-01
-1.195471063256263733e-01
-3.171598315238952637e-01
3.583333790302276611e-01
-1.342399716377258301e-01
-4.300283491611480713e-01
9.679033756256103516e-01
-4.339930713176727295e-01
-4.572837352752685547e-01
-2.078501433134078979e-01
-4.727944135665893555e-01
-2.681471407413482666e-01
-8.316821604967117310e-02
-1.754911541938781738e-01
-3.137958943843841553e-01
1.571830958127975464e-01
4.425722360610961914e-01
5.177479982376098633e-02
-1.075203865766525269e-01
2.124173194169998169e-01
2.741397321224212646e-01
3.013649582862854004e-01
-2.508810758590698242e-01
-1.375526636838912964e-01
-4.051984548568725586e-01
4.450800418853759766e-01
-2.252510786056518555e-01
-5.416949391365051270e-01
-5.440734028816223145e-01
1.454989761114120483e-01
-6.035363078117370605e-01
-1.701385378837585449e-01
-8.756136149168014526e-02
3.645531088113784790e-02
-1.553494483232498169e-01
-1.164136230945587158e-01
1.785297393798828125e-01
3.404077589511871338e-01
-2.276978492736816406e-01
4.450628757476806641e-01
2.829611599445343018e-01
1.547954231500625610e-01
-2.366949468851089478e-01
1.036353856325149536e-01
-3.079749345779418945e-01
1.418453752994537354e-01
-2.009364031255245209e-02
4.741799235343933105e-01
-8.771035820245742798e-02
2.721810042858123779e-01
1.512243747711181641e-01
-5.828960612416267395e-02
2.942116558551788330e-01
-3.057530522346496582e-01
4.713038206100463867e-01
-5.025004744529724121e-01
2.587411180138587952e-02
-2.220077365636825562e-01
6.831496953964233398e-02
-1.127408221364021301e-01
1.488872021436691284e-01
-1.897267550230026245e-01
1.497994363307952881e-01
4.644212424755096436e-01
2.125629037618637085e-01
-1.927275955677032471e-01
1.769597083330154419e-01
-4.949492961168289185e-02
-9.040898680686950684e-01
1.882436871528625488e-01
-1.839485317468643188e-01
1.494398415088653564e-01
2.617180645465850830e-01
-2.955739498138427734e-01
1.653575338423252106e-02
-2.936435341835021973e-01
-2.873537130653858185e-03
1.539341956377029419e-01
-6.123905628919601440e-02
-1.383392605930566788e-02
2.379102408885955811e-01
-5.101710930466651917e-02
1.715223491191864014e-02
1.246296167373657227e-01
-3.850903827697038651e-03
3.225291669368743896e-01
4.891052842140197754e-01
2.359158247709274292e-01
-1.974757015705108643e-01
1.513345837593078613e-01
3.168177232146263123e-02
-1.954305171966552734e-01
9.578973054885864258e-02
-1.567687466740608215e-02
-3.272756934165954590e-01
-4.357710182666778564e-01
1.335641890764236450e-01
6.345698237419128418e-01
3.974792361259460449e-01
-1.976131349802017212e-01
7.722756266593933105e-02
-4.210196137428283691e-01
5.446079745888710022e-02
4.357303678989410400e-01
1.097650974988937378e-01
-1.694737970829010010e-01
1.342010498046875000e+00
2.908689379692077637e-01
1.957382857799530029e-01
1.178617104887962341e-01
3.412528336048126221e-01
2.733569741249084473e-01
-4.328239262104034424e-01
2.828859686851501465e-01
1.579894721508026123e-01
5.663220956921577454e-02
-2.244403362274169922e-01
-1.097579952329397202e-02
4.427435994148254395e-02
-2.054698765277862549e-01
-1.480034440755844116e-01
5.121314525604248047e-02
1.675885468721389771e-01
-5.742917954921722412e-02
2.549605369567871094e-01
-8.426746726036071777e-02
1.390717625617980957e-01
2.711245715618133545e-01
-2.874893695116043091e-02
3.242419064044952393e-01
2.413357496261596680e-01
7.954144477844238281e-02
9.899552166461944580e-02
-1.109127923846244812e-01
1.566152321174740791e-03
-1.911507397890090942e-01
1.326734572649002075e-01
1.503920108079910278e-01
9.180705994367599487e-02
1.794402152299880981e-01
1.410122774541378021e-02
-6.462062895298004150e-02
1.132979094982147217e-01
-1.698772162199020386e-01
1.084883362054824829e-01
-1.489331871271133423e-01
4.109634459018707275e-01
-7.433950901031494141e-02
3.328726589679718018e-01
-1.032702922821044922e-01
5.099720507860183716e-02
1.395718567073345184e-02
-2.589415609836578369e-01
2.913381457328796387e-01
-2.189917266368865967e-01
-6.587622314691543579e-02
-2.059005349874496460e-01
2.810316979885101318e-01
1.556315571069717407e-01
-7.399896979331970215e-01
-1.210384890437126160e-01
-2.876538597047328949e-02
-4.741784930229187012e-01
-3.702820837497711182e-02
2.076698392629623413e-01
-6.616315245628356934e-01
1.705627441406250000e-01
7.203391194343566895e-02
1.389860063791275024e-01
2.570208311080932617e-01
1.848829835653305054e-01
-8.969810605049133301e-02
2.912252247333526611e-01
-3.233430087566375732e-01
4.082198143005371094e-01
-4.099236726760864258e-01
2.884270846843719482e-01
-3.950129449367523193e-01
1.932474523782730103e-01
1.205812022089958191e-01
8.487494289875030518e-02
-1.498228013515472412e-01
4.512800276279449463e-01
1.531532965600490570e-02
1.023910790681838989e-01
6.361840963363647461e-01
2.162553071975708008e-01
7.812172770500183105e-01
-1.102643728256225586e+00
4.199782609939575195e-01
2.755844295024871826e-01
-1.065186113119125366e-01
4.829066395759582520e-01
-3.446680903434753418e-01
-1.964289397001266479e-01
-1.851516127586364746e+00
3.425993919372558594e-01
5.074974894523620605e-01
7.482361197471618652e-01
-7.254368066787719727e-01
1.630568057298660278e-01
-1.032297611236572266e+00
-5.711558833718299866e-02
7.375522851943969727e-01
6.688520908355712891e-01
4.883864820003509521e-01
2.142666816711425781e+00
4.104335606098175049e-01
-1.021607667207717896e-01
1.168322786688804626e-01
7.793011665344238281e-01
9.803604334592819214e-04
-1.360021531581878662e-01
-1.361680477857589722e-01
4.112766981124877930e-01
-6.963642686605453491e-02
-1.253081671893596649e-02
-4.813954234123229980e-01
3.475216031074523926e-01
1.676142960786819458e-01
-2.147544175386428833e-01
-2.335953712463378906e-01
4.859080016613006592e-01
-7.672882080078125000e-02
5.549966096878051758e-01
7.460082322359085083e-02
2.634029686450958252e-01
4.759027957916259766e-01
3.043473064899444580e-01
2.858973145484924316e-01
2.401679158210754395e-01
-6.400737166404724121e-02
1.580659002065658569e-01
-6.650272011756896973e-02
6.165360100567340851e-03
9.226500242948532104e-02
-5.853637307882308960e-02
-1.511973291635513306e-01
3.854210674762725830e-01
1.727533936500549316e-01
-2.070622146129608154e-01
1.909364759922027588e-01
4.223738014698028564e-01
-1.661816984415054321e-01
7.831175625324249268e-02
1.026370301842689514e-01
3.030014038085937500e-01
6.143277883529663086e-02
-7.390282303094863892e-02
1.688083708286285400e-01
5.122305750846862793e-01
-3.167016431689262390e-02
1.496175080537796021e-01
1.448863893747329712e-01
3.590050637722015381e-01
1.850080043077468872e-01
1.464686244726181030e-01
-3.839395195245742798e-02
2.803244888782501221e-01
2.136838883161544800e-01
-2.404022663831710815e-01
-1.007298603653907776e-01
5.078597664833068848e-01
-3.517031669616699219e-02
3.470196127891540527e-01
1.901442110538482666e-01
3.471599221229553223e-01
1.040269155055284500e-02
-1.450563818216323853e-01
3.758768737316131592e-01
1.470708698034286499e-01
2.798993326723575592e-02
5.669303536415100098e-01
-5.183839797973632812e-01
6.196093559265136719e-01
-3.469543755054473877e-01
9.064786881208419800e-02
-5.942949056625366211e-01
1.541766375303268433e-01
-5.061616301536560059e-01
3.611630797386169434e-01
5.210886895656585693e-02
1.866652667522430420e-01
1.452107727527618408e-01
-1.126525178551673889e-02
5.862638354301452637e-02
1.659268140792846680e-01
3.841552734375000000e-01
-2.905991375446319580e-01
6.051629781723022461e-01
6.719960570335388184e-01
-1.309679150581359863e-01
4.552430510520935059e-01
-5.357456803321838379e-01
6.743605732917785645e-01
-6.736136227846145630e-02
2.053174227476119995e-01
-8.266099691390991211e-01
1.397447735071182251e-01
2.032959759235382080e-01
3.170540034770965576e-01
1.974864006042480469e-01
8.601607680320739746e-01
6.623852998018264771e-02
2.396839708089828491e-01
5.641921162605285645e-01
1.858423501253128052e-01
-4.142633974552154541e-01
4.144425988197326660e-01
-2.141207605600357056e-01
-4.123258590698242188e-01
-9.518335014581680298e-02
-4.992563724517822266e-01
6.493414044380187988e-01
-6.432348489761352539e-01
8.562321215867996216e-02
-2.976311147212982178e-01
7.279633283615112305e-01
-4.169004857540130615e-01
6.523010134696960449e-02
-3.907828629016876221e-01
-2.276969142258167267e-02
-3.981479704380035400e-01
3.064211308956146240e-01
-1.260327249765396118e-01
-4.200279712677001953e-01
-3.476108983159065247e-02
-1.780037954449653625e-02
-8.624204993247985840e-02
-3.068173825740814209e-01
-1.881285160779953003e-01
3.508076071739196777e-01
-1.039916798472404480e-01
2.668154425919055939e-02
5.014736577868461609e-02
-1.847992688417434692e-01
-1.079409494996070862e-01
3.105553090572357178e-01
5.789694562554359436e-02
-2.337029278278350830e-01
-6.315470486879348755e-02
-3.314936161041259766e-02
-2.806320190429687500e-01
3.016950190067291260e-01
-3.502965271472930908e-01
1.601299084722995758e-02
-1.387491673231124878e-01
3.557228744029998779e-01
2.328452914953231812e-01
-9.360461682081222534e-02
4.968137145042419434e-01
1.641306467354297638e-02
-4.129347950220108032e-02
-3.955813646316528320e-01
1.323723495006561279e-01
8.947381377220153809e-02
3.363358378410339355e-01
-5.868287086486816406e-01
1.934485137462615967e-01
1.105916202068328857e-01
-2.185828685760498047e-01
-9.880288690328598022e-02
3.012950420379638672e-01
-2.635972201824188232e-01
-5.378494504839181900e-03
1.683656126260757446e-02
1.748649775981903076e-01
7.918819785118103027e-02
-9.871874749660491943e-02
-2.585622370243072510e-01
1.030036131851375103e-03
8.274721354246139526e-02
-8.823011070489883423e-02
-2.260238863527774811e-02
-3.339709937572479248e-01
-7.379563152790069580e-02
6.045478209853172302e-02
8.308140188455581665e-02
1.166355162858963013e-01
-1.884461045265197754e-01
-1.986630856990814209e-01
-1.982463598251342773e-01
-2.434679418802261353e-01
-1.409460604190826416e-01
9.554653614759445190e-02
-2.800212204456329346e-01
-5.094720721244812012e-01
-3.717777132987976074e-01
-5.766538670286536217e-04
2.282219231128692627e-01
6.026120856404304504e-03
1.481389254331588745e-01
-2.240222543478012085e-01
1.070142239332199097e-01
2.381056100130081177e-01
-3.215503096580505371e-01
-5.234571173787117004e-02
-6.096255779266357422e-01
2.650177478790283203e-01
1.743805557489395142e-01
1.016484349966049194e-01
-1.607663333415985107e-01
4.044466093182563782e-02
-6.011172756552696228e-02
1.831904426217079163e-02
-1.452032625675201416e-01
-1.059692427515983582e-01
-1.479821801185607910e-01
1.342162862420082092e-02
-8.075175434350967407e-02
7.828791439533233643e-02
2.342860400676727295e-02
-2.312735915184020996e-01
-5.212287604808807373e-02
6.068246066570281982e-02
-7.197974324226379395e-01
4.645062386989593506e-01
-9.182031452655792236e-02
4.812831878662109375e-01
2.503206729888916016e-01
5.380901098251342773e-01
2.074555307626724243e-01
5.073189735412597656e-01
-3.649234771728515625e-02
-1.085728853940963745e-01
1.627521216869354248e-01
-3.302849531173706055e-01
2.506282627582550049e-01
-1.620169542729854584e-02
-2.479421347379684448e-01
-6.424660235643386841e-02
3.138058781623840332e-01
-2.529036402702331543e-01
1.527334749698638916e-01
3.531138598918914795e-01
-1.044271066784858704e-01
5.600889772176742554e-02
-1.600162237882614136e-01
1.145487055182456970e-01
3.509164154529571533e-01
4.370403885841369629e-01
-2.068131268024444580e-01
1.093007102608680725e-01
1.498465389013290405e-01
-1.515685617923736572e-01
3.564858436584472656e-02
-1.750210374593734741e-01
3.600950241088867188e-01
-3.874337673187255859e-01
-2.124299257993698120e-01
5.831351280212402344e-01
1.859585344791412354e-01
6.441386342048645020e-01
3.350233137607574463e-01
5.791087150573730469e-01
-2.287642210721969604e-01
4.273776113986968994e-01
1.676212906837463379e+00
1.684377789497375488e-01
1.002100229263305664e+00
8.336825370788574219e-01
3.784916996955871582e-01
4.343396127223968506e-01
1.587015390396118164e-01
-5.310332775115966797e-01
2.347689419984817505e-01
-7.799487709999084473e-01
4.387102127075195312e-01
-4.209862947463989258e-01
-3.550522029399871826e-01
-4.227301850914955139e-02
2.060441374778747559e-01
7.831801772117614746e-01
2.620539069175720215e-01
3.349512219429016113e-01
1.512636393308639526e-01
1.008153427392244339e-02
2.852789163589477539e-01
-3.409453481435775757e-02
2.140653431415557861e-01
1.942756026983261108e-01
2.131821513175964355e-01
-8.875147253274917603e-02
3.253394961357116699e-01
-3.621913194656372070e-01
1.229040622711181641e-01
-4.381554722785949707e-01
-2.311113625764846802e-01
5.612817779183387756e-02
9.469851106405258179e-02
6.289638876914978027e-01
5.372496694326400757e-02
-2.407558858394622803e-01
-1.160822957754135132e-01
3.218963742256164551e-02
-7.143245935440063477e-01
4.291151165962219238e-01
-4.189680814743041992e-01
4.063111543655395508e-01
-4.217823222279548645e-02
1.657160744071006775e-02
1.529923677444458008e-01
5.819818377494812012e-01
-1.609862595796585083e-01
7.755409926176071167e-03
-3.978085145354270935e-02
-1.340843588113784790e-01
-5.568967014551162720e-02
-4.702864885330200195e-01
-5.179927945137023926e-01
-1.073916926980018616e-01
-2.281198501586914062e-01
3.034683465957641602e-01
4.773759245872497559e-01
3.730599880218505859e-01
-2.626898325979709625e-02
-1.429982781410217285e-01
3.751016780734062195e-02
5.926299095153808594e-01
9.384283423423767090e-01
6.191677451133728027e-01
-8.473031967878341675e-02
6.903789937496185303e-02
5.744528770446777344e-02
-7.521775960922241211e-01
3.760474622249603271e-01
-3.634537160396575928e-01
-1.770564615726470947e-01
4.333019256591796875e-01
4.894366860389709473e-01
-8.307530730962753296e-02
1.399693489074707031e-01
-2.530437409877777100e-01
-5.693136453628540039e-01
-1.128299534320831299e-01
-7.334457635879516602e-01
1.424547284841537476e-01
-1.505086272954940796e-01
4.619594290852546692e-02
1.812649667263031006e-01
1.470362246036529541e-01
1.938438229262828827e-02
-8.525472134351730347e-02
-5.609972476959228516e-01
2.937096543610095978e-02
-2.541681826114654541e-01
1.808515638113021851e-01
-5.026969313621520996e-01
6.455835103988647461e-01
5.864145755767822266e-01
2.026008367538452148e-01
4.485478103160858154e-01
-2.318032532930374146e-01
-3.572865426540374756e-01
-8.285339921712875366e-02
-6.442835927009582520e-01
-1.454775631427764893e-01
-4.240895509719848633e-01
-4.529289305210113525e-01
-2.119684666395187378e-01
-2.006708234548568726e-01
-2.334820628166198730e-01
-1.465633809566497803e-01
-1.732678115367889404e-01
1.082808896899223328e-01
-5.307534933090209961e-01
2.885557413101196289e-01
1.527844369411468506e-01
3.237591683864593506e-01
-2.766553163528442383e-01
-1.050271838903427124e-01
-4.348939955234527588e-01
1.267013847827911377e-01
-1.782488375902175903e-01
-2.320188134908676147e-01
-9.551912546157836914e-01
9.746786206960678101e-03
4.190948605537414551e-01
2.450125962495803833e-01
3.643549606204032898e-02
-2.650699950754642487e-02
-2.049841433763504028e-01
-7.788337022066116333e-02
-5.368827581405639648e-01
4.559045284986495972e-02
1.296008229255676270e-01
9.767746925354003906e-02
3.795458972454071045e-01
-1.238133944571018219e-02
1.041040569543838501e-01
3.245094418525695801e-02
-2.215242981910705566e-01
3.907171189785003662e-01
-1.324492543935775757e-01
-6.589729338884353638e-02
-2.731007039546966553e-01
-4.955625906586647034e-02
4.194248318672180176e-01
2.446014136075973511e-01
4.689266905188560486e-03
7.219103723764419556e-02
3.983952105045318604e-01
7.459878921508789062e-03
-1.062204092741012573e-01
-1.601052582263946533e-01
8.653678745031356812e-02
-3.551030457019805908e-01
-4.787847399711608887e-01
6.961984634399414062e-01
4.987335801124572754e-01
2.532343864440917969e-01
2.135998457670211792e-01
-9.964813590049743652e-01
-6.056159138679504395e-01
-3.047505617141723633e-01
-5.748955998569726944e-03
4.158529639244079590e-02
-2.452196598052978516e+00
-2.370764128863811493e-02
-7.705227732658386230e-01
-4.432859718799591064e-01
-1.203496530652046204e-01
4.628334343433380127e-01
-3.896738290786743164e-01
1.867440491914749146e-01
-6.686891317367553711e-01
4.077237844467163086e-01
2.776072025299072266e-01
7.126657664775848389e-02
1.585829257965087891e-01
4.323166310787200928e-01
-1.578239537775516510e-02
4.356133937835693359e-01
-8.374133706092834473e-02
2.041165232658386230e-01
3.258244320750236511e-02
2.289317846298217773e-01
5.964599847793579102e-01
2.693642675876617432e-01
5.618239194154739380e-02
1.101280469447374344e-02
-1.170951128005981445e-01
4.039064049720764160e-02
4.331317842006683350e-01
-2.427054196596145630e-02
-3.226001560688018799e-01
-4.043924808502197266e-02
-1.733889281749725342e-01
4.872046411037445068e-01
6.604775190353393555e-01
-2.515898784622550011e-03
2.137353718280792236e-01
-1.894674301147460938e-01
-3.171268999576568604e-01
4.309354349970817566e-02
-7.068886160850524902e-01
-5.030105262994766235e-02
-2.150996327400207520e-01
-1.413779705762863159e-01
1.170813217759132385e-01
-8.073204755783081055e-02
-2.763231983408331871e-03
-1.780811995267868042e-01
-1.207404956221580505e-01
-1.554117053747177124e-01
-3.023111224174499512e-01
-6.665706038475036621e-01
-2.477159500122070312e-01
4.053652882575988770e-01
3.429602384567260742e-01
-2.674497067928314209e-01
8.118485659360885620e-02
5.694111809134483337e-02
-3.838943243026733398e-01
-1.530401259660720825e-01
-1.006704866886138916e-01
-6.045963168144226074e-01
1.085210312157869339e-02
-3.358882665634155273e-01
-1.732741296291351318e-01
-4.713862240314483643e-01
-7.402555644512176514e-02
-2.632241845130920410e-01
3.676806017756462097e-02
3.550235629081726074e-01
-3.299105167388916016e-02
1.448316723108291626e-01
-3.288824558258056641e-01
5.758277177810668945e-01
5.677487254142761230e-01
1.781147122383117676e-01
3.606504499912261963e-01
1.713417321443557739e-01
-3.390628099441528320e-01
-2.751486897468566895e-01
-6.435395032167434692e-02
-2.204108424484729767e-02
7.805722206830978394e-02
-2.963806092739105225e-01
-5.100598335266113281e-01
-5.473598241806030273e-01
-6.237931251525878906e-01
-7.627134025096893311e-02
1.591228507459163666e-02
4.529778659343719482e-01
-6.739474534988403320e-01
6.080973148345947266e-01
1.333819925785064697e-01
3.140348196029663086e-02
6.995718460530042648e-03
1.132916957139968872e-01
5.034483075141906738e-01
-3.456025421619415283e-01
5.948787555098533630e-02
2.831911146640777588e-01
-5.110629200935363770e-01
9.361387044191360474e-02
-2.236787974834442139e-01
4.957983195781707764e-01
1.399732828140258789e-01
5.341725349426269531e-01
1.702048927545547485e-01
4.088637232780456543e-01
-1.856056600809097290e-01
3.674902766942977905e-02
1.906207650899887085e-01
-3.474247455596923828e-01
-1.132562234997749329e-01
-4.571160674095153809e-01
-1.534089893102645874e-01
1.614480018615722656e-01
9.997079521417617798e-02
9.946300834417343140e-02
2.179899662733078003e-01
5.456289649009704590e-01
-6.751430034637451172e-02
-2.438730299472808838e-01
-1.102678701281547546e-01
3.669429421424865723e-01
7.874071598052978516e-01
4.374871850013732910e-01
4.147843420505523682e-01
-7.933261245489120483e-02
-6.203366443514823914e-02
-5.024945139884948730e-01
1.587850004434585571e-01
-7.632288336753845215e-01
1.092339158058166504e-01
-4.245949685573577881e-01
-1.822985410690307617e-01
1.342036724090576172e-01
-3.085071146488189697e-01
-6.284456700086593628e-02
5.544096827507019043e-01
1.115307435393333435e-01
-2.075150609016418457e-01
8.052256703376770020e-02
2.704336121678352356e-02
7.251189947128295898e-01
4.788079559803009033e-01
2.498489916324615479e-01
2.862498462200164795e-01
5.960946679115295410e-01
-1.512278467416763306e-01
-2.891042530536651611e-01
4.715527296066284180e-01
9.736881591379642487e-03
8.351098895072937012e-01
-2.394459098577499390e-01
-4.143776595592498779e-01
-5.203322768211364746e-01
-1.805584728717803955e-01
6.153206825256347656e-01
2.290920466184616089e-01
4.110033810138702393e-01
-1.026406418532133102e-02
-2.412787824869155884e-01
2.573187053203582764e-01
1.648234874010086060e-01
2.086243331432342529e-01
1.830873936414718628e-01
-3.056920468807220459e-01
-1.405889689922332764e-01
1.075799539685249329e-01
-1.037370637059211731e-01
4.074796140193939209e-01
1.240334883332252502e-01
-9.042692370712757111e-03
-2.598364353179931641e-01
-2.649912536144256592e-01
-1.407402902841567993e-01
-1.019344329833984375e-01
6.269634515047073364e-02
5.192807912826538086e-01
2.359514124691486359e-02
9.490805119276046753e-02
-7.577260024845600128e-03
9.711549431085586548e-02
5.756502598524093628e-02
7.237172722816467285e-01
1.005861237645149231e-01
-7.001143693923950195e-02
1.383778601884841919e-01
-9.742914140224456787e-02
-4.829635918140411377e-01
3.468452095985412598e-01
-3.369238078594207764e-01
4.762693122029304504e-02
-1.905370317399501801e-02
-2.680704295635223389e-01
-1.221059411764144897e-01
5.026522278785705566e-01
1.675623357295989990e-01
2.875263988971710205e-01
4.752912223339080811e-01
-2.412938326597213745e-01
2.571558356285095215e-01
7.507578730583190918e-01
-4.052518308162689209e-01
1.120571270585060120e-01
3.593418747186660767e-02
6.813810765743255615e-02
2.964457273483276367e-01
3.035486638545989990e-01
3.765322864055633545e-01
1.185024529695510864e-01
-4.249288141727447510e-01
1.720782816410064697e-01
1.214066147804260254e-01
-2.372392117977142334e-01
1.709493994712829590e-01
6.768835186958312988e-01
5.551604032516479492e-01
-5.101423710584640503e-02
-8.965020626783370972e-02
-3.937930613756179810e-02
-2.633961439132690430e-01
3.290384113788604736e-01
-1.321197599172592163e-01
-1.539644896984100342e-01
-5.186412483453750610e-02
-5.317409634590148926e-01
7.905594706535339355e-01
3.758666515350341797e-01
4.934767484664916992e-01
-6.354892998933792114e-02
1.662224978208541870e-01
-8.681020140647888184e-01
-1.456613987684249878e-01
-4.683769047260284424e-01
-5.460985377430915833e-02
-1.010059237480163574e+00
-1.512171477079391479e-01
-1.616289168596267700e-01
4.416448622941970825e-02
3.663190305233001709e-01
-2.434502243995666504e-01
3.325824066996574402e-02
-5.295630097389221191e-01
-2.782177925109863281e-01
1.341072320938110352e-01
3.964428007602691650e-01
-3.289428055286407471e-01
-7.549416422843933105e-01
-1.480364948511123657e-01
-4.311745241284370422e-02
-5.864184722304344177e-02
3.201472163200378418e-01
8.105733990669250488e-02
-3.551837429404258728e-02
5.404295027256011963e-02
6.879287958145141602e-01
-5.797359347343444824e-02
2.641634047031402588e-01
1.511393934488296509e-01
-1.532443910837173462e-01
1.394624412059783936e-01
-4.517941921949386597e-02
-2.492227591574192047e-02
-1.549025326967239380e-01
-1.958407759666442871e-01
3.857616335153579712e-02
6.763001680374145508e-01
5.220598578453063965e-01
2.477276772260665894e-01
2.736316323280334473e-01
1.536326706409454346e-01
-2.803785204887390137e-01
-1.856558471918106079e-01
1.618657559156417847e-01
6.805001292377710342e-03
-6.868056058883666992e-01
-3.925941586494445801e-01
-8.028151094913482666e-02
8.644684404134750366e-02
2.942566871643066406e-01
-1.532454192638397217e-01
-2.956525683403015137e-01
-6.349183619022369385e-02
9.363208711147308350e-02
5.517598390579223633e-01
-1.443863809108734131e-01
-5.868670344352722168e-01
-2.872539162635803223e-01
-3.020508587360382080e-01
8.701872080564498901e-02
-3.010329231619834900e-02
-3.172324299812316895e-01
-2.700577676296234131e-01
2.920036613941192627e-01
-5.189449191093444824e-01
1.978538557887077332e-02
-4.765442907810211182e-01
5.267468094825744629e-01
3.060377240180969238e-01
-2.083880305290222168e-01
3.632708787918090820e-01
5.854506492614746094e-01
-2.652876265347003937e-02
5.177484452724456787e-02
1.127121821045875549e-01
-2.264186590909957886e-01
-3.515927195549011230e-01
-3.496112823486328125e-01
-9.664725512266159058e-03
-2.555745653808116913e-02
-7.491042613983154297e-01
2.550864219665527344e-01
3.509638085961341858e-02
-3.218797594308853149e-02
-3.080259263515472412e-01
1.001705408096313477e+00
1.979588717222213745e-01
3.119540810585021973e-01
5.152327418327331543e-01
2.049522548913955688e-01
3.826086819171905518e-01
5.064666271209716797e-01
-1.021476089954376221e-01
2.886463403701782227e-01
-7.240591943264007568e-02
1.651393175125122070e-01
2.327825874090194702e-01
8.214709348976612091e-03
5.653505027294158936e-02
1.614225804805755615e-01
-2.875271737575531006e-01
5.440000891685485840e-01
6.902597844600677490e-02
5.220264792442321777e-01
-4.506122171878814697e-01
-5.259867310523986816e-01
-2.143109031021595001e-02
4.118565618991851807e-01
2.503761351108551025e-01
6.366611123085021973e-01
1.773975938558578491e-01
-1.523644896224141121e-04
3.686004281044006348e-01
1.618201732635498047e+00
2.041740715503692627e-01
-2.062857002019882202e-01
-1.403317004442214966e-01
2.367144674062728882e-01
4.609314724802970886e-02
-3.199441432952880859e-01
-2.698643207550048828e-01
-4.009844362735748291e-01
-9.293524920940399170e-02
-4.994698762893676758e-01
1.544055342674255371e-01
-4.993090927600860596e-01
-1.033453419804573059e-01
4.657434821128845215e-01
-1.567682772874832153e-01
-4.244777560234069824e-01
-4.753745794296264648e-01
-2.868497371673583984e-01
-3.092815577983856201e-01
-2.584304846823215485e-02
-8.077055215835571289e-02
5.104202032089233398e-01
-4.618117809295654297e-01
-2.180937305092811584e-02
-4.463268816471099854e-01
-1.228221431374549866e-01
2.042551487684249878e-01
1.579779088497161865e-01
3.470738530158996582e-01
5.593267679214477539e-01
-6.226501464843750000e-01
-6.822493392974138260e-03
-2.920239865779876709e-01
8.331393599510192871e-01
1.255250275135040283e-01
4.478099942207336426e-01
3.397390246391296387e-01
2.663420438766479492e-01
3.292396366596221924e-01
1.635226845741271973e+00
4.036578238010406494e-01
1.135207414627075195e-01
2.440298795700073242e-01
3.682671859860420227e-02
-3.022129237651824951e-01
8.545508980751037598e-02
-2.632001042366027832e-01
1.611127406358718872e-01
-6.568851321935653687e-02
-1.785352528095245361e-01
-1.226763874292373657e-01
1.779610514640808105e-01
2.753556072711944580e-01
1.119044870138168335e-01
-2.114583551883697510e-02
-2.104597836732864380e-01
5.518019199371337891e-02
-1.835031993687152863e-02
1.604333072900772095e-01
-9.015760570764541626e-02
-2.396215796470642090e-01
1.571418493986129761e-01
2.150868773460388184e-01
3.016851544380187988e-01
3.177624940872192383e-01
-1.709794402122497559e-01
3.319037258625030518e-01
3.894240856170654297e-01
1.479437947273254395e-01
-4.367073476314544678e-01
-1.996877789497375488e-02
7.553275823593139648e-01
8.627331852912902832e-01
1.213326826691627502e-01
1.846490502357482910e-01
2.633303105831146240e-01
1.720939874649047852e-01
4.120143949985504150e-01
-1.340786647051572800e-02
-3.275029659271240234e-01
-6.220849156379699707e-01
-1.796472668647766113e-01
6.352844238281250000e-01
3.744202554225921631e-01
3.867351114749908447e-01
3.129450082778930664e-01
1.010065525770187378e-01
8.669975213706493378e-03
3.717060983180999756e-01
-2.081266492605209351e-01
-1.370447129011154175e-01
-5.258226990699768066e-01
7.681433111429214478e-02
-3.195764124393463135e-02
-2.615166902542114258e-01
-5.835225060582160950e-02
8.637943863868713379e-01
-3.966580927371978760e-01
4.448096156120300293e-01
-1.979608535766601562e-01
-3.458770811557769775e-01
-6.073848009109497070e-01
4.263862967491149902e-01
6.330922245979309082e-01
6.175831556320190430e-01
4.826224744319915771e-01
6.602388620376586914e-02
1.863458156585693359e-01
3.923629224300384521e-01
-3.633187413215637207e-01
3.234022557735443115e-01
-2.433411478996276855e-01
2.504246234893798828e-01
9.120668284595012665e-03
-5.243752598762512207e-01
2.413197308778762817e-01
1.051160320639610291e-01
-9.388187527656555176e-01
1.460891515016555786e-01
-2.457021772861480713e-01
-4.098100960254669189e-01
-4.960022866725921631e-02
6.658613681793212891e-01
2.984138131141662598e-01
-5.119874328374862671e-02
2.478248775005340576e-01
7.192445993423461914e-01
5.634058117866516113e-01
2.680131196975708008e-01
-1.045541930943727493e-02
-5.543151125311851501e-02
-2.203672379255294800e-01
3.318350315093994141e-01
-7.991090416908264160e-02
-5.100103020668029785e-01
-3.787415102124214172e-02
2.554993629455566406e-01
-9.529047459363937378e-02
-1.361650526523590088e-01
-2.824426293373107910e-01
-3.700981438159942627e-01
-5.591243505477905273e-01
-5.491256341338157654e-02
5.129834413528442383e-01
4.598404765129089355e-01
3.573334515094757080e-01
2.055332362651824951e-01
-1.420965641736984253e-01
-5.161865949630737305e-01
5.201826691627502441e-01
6.776944547891616821e-02
1.343894749879837036e-02
-2.833867073059082031e-01
1.406638473272323608e-01
3.408915102481842041e-01
-9.715801477432250977e-02
-4.520868957042694092e-01
7.296510338783264160e-01
-1.872421056032180786e-01
2.551754117012023926e-01
9.568773210048675537e-02
1.765116490423679352e-02
-6.796422600746154785e-01
-6.076866388320922852e-01
2.515130341053009033e-01
-2.293723225593566895e-01
-4.753898084163665771e-01
-5.247792005538940430e-01
7.906284928321838379e-02
-3.547627925872802734e-01
2.605657093226909637e-02
-4.218636751174926758e-01
-3.972906768321990967e-01
1.845846474170684814e-01
-8.464307337999343872e-02
2.697652280330657959e-01
-3.322635293006896973e-01
-8.329656720161437988e-02
-4.537700414657592773e-01
-4.082711413502693176e-02
5.011628270149230957e-01
-9.504902362823486328e-02
-2.475455254316329956e-01
-4.447240531444549561e-01
-9.036647528409957886e-02
-1.127869263291358948e-01
-1.161514967679977417e-01
-1.029350399971008301e+00
-4.395183920860290527e-02
-1.684059500694274902e-01
1.288762986660003662e-01
-4.475924670696258545e-01
-1.678433082997798920e-02
-4.023394882678985596e-01
2.094687074422836304e-01
-4.413031041622161865e-01
-5.563077926635742188e-01
-7.499784231185913086e-02
-3.156044185161590576e-01
2.212966680526733398e-01
2.004318088293075562e-01
3.949738144874572754e-01
-1.184609532356262207e-01
-1.522880792617797852e-01
-5.571725368499755859e-01
-1.343871802091598511e-01
-2.084230333566665649e-01
-4.001508057117462158e-01
4.746106266975402832e-01
-5.124114751815795898e-01
-3.564755320549011230e-01
-4.293166995048522949e-01
2.329919934272766113e-01
-4.399159252643585205e-01
1.165419742465019226e-01
-5.530829429626464844e-01
-6.342019438743591309e-01
-3.342216014862060547e-01
-4.376283586025238037e-01
-5.882639884948730469e-01
1.177448257803916931e-01
1.983743011951446533e-01
2.451166510581970215e-01
1.265895217657089233e-01
9.292212873697280884e-02
-6.932710111141204834e-02
7.727164030075073242e-02
6.996288895606994629e-01
3.606963157653808594e-02
-6.027305126190185547e-02
-1.196574717760086060e-01
6.837791204452514648e-01
3.973442018032073975e-01
8.842826634645462036e-02
-7.991474866867065430e-02
-3.758015576750040054e-03
2.085584551095962524e-01
1.975181102752685547e-01
7.762292027473449707e-02
-3.478535264730453491e-02
-4.421965479850769043e-01
-2.957787811756134033e-01
7.774102091789245605e-01
2.653641700744628906e-01
1.305290460586547852e-01
-2.063008695840835571e-01
2.436711788177490234e-01
-4.760619699954986572e-01
-2.947032749652862549e-01
1.621943712234497070e-01
-8.976534008979797363e-02
-4.073730707168579102e-01
2.188114970922470093e-01
9.071550518274307251e-02
5.106769204139709473e-01
2.830291688442230225e-01
-3.404200673103332520e-01
1.269597560167312622e-01
-7.725907117128372192e-02
2.780231535434722900e-01
2.945348322391510010e-01
4.657767340540885925e-02
-5.806930661201477051e-01
-1.877828501164913177e-02
7.094246149063110352e-02
1.507465541362762451e-02
-5.244996398687362671e-03
5.232633352279663086e-01
1.901092976331710815e-01
1.954426318407058716e-01
-4.489863514900207520e-01
7.006919980049133301e-01
6.590108871459960938e-01
4.300528205931186676e-03
-3.328887522220611572e-01
1.559692621231079102e-01
-2.576895654201507568e-01
2.610521316528320312e-01
1.102991402149200439e-01
-7.218351364135742188e-01
-2.956320643424987793e-01
4.724231660366058350e-01
-2.024347335100173950e-01
1.039335038512945175e-02
-4.883565902709960938e-01
4.134787917137145996e-01
9.270454198122024536e-02
1.278403550386428833e-01
-1.973578333854675293e-01
-2.075032740831375122e-01
9.937954135239124298e-03
-3.667905032634735107e-01
4.847386777400970459e-01
2.211577445268630981e-01
7.007202506065368652e-01
-7.419285923242568970e-02
2.723575234413146973e-01
1.188037246465682983e-01
-1.176308393478393555e-01
6.117540001869201660e-01
1.235248614102602005e-02
-3.829878866672515869e-01
-1.616437286138534546e-01
1.075232587754726410e-02
8.874187618494033813e-02
4.922039061784744263e-02
-1.081388071179389954e-01
1.128693103790283203e+00
-6.089903414249420166e-02
3.223210275173187256e-01
-1.349950879812240601e-01
-1.304398030042648315e-01
3.943455517292022705e-01
-3.757324218750000000e-01
-3.165421783924102783e-01
-2.430432140827178955e-01
1.795413047075271606e-01
5.248749852180480957e-01
4.819035828113555908e-01
-2.397068217396736145e-02
6.956721544265747070e-01
-8.437313139438629150e-02
-2.791770696640014648e-01
-2.324415892362594604e-01
-1.145363971590995789e-01
1.211978316307067871e+00
-5.636370927095413208e-02
-2.576305866241455078e-01
-2.766370177268981934e-01
-4.760937988758087158e-01
9.819611907005310059e-01
1.789511442184448242e-01
-4.946681559085845947e-01
5.592963099479675293e-01
3.631148636341094971e-01
5.182741880416870117e-01
-9.116642922163009644e-02
-1.073928356170654297e+00
-5.796116311103105545e-03
-5.861924961209297180e-02
2.631984949111938477e-01
-1.134479697793722153e-02
6.534144878387451172e-01
4.448921978473663330e-02
7.841844856739044189e-02
-6.294550895690917969e-01
2.946076393127441406e-01
9.574315547943115234e-01
1.396996229887008667e-01
9.980256855487823486e-02
-3.534919619560241699e-01
-2.161830216646194458e-01
9.067634344100952148e-01
-2.223067730665206909e-01
-1.461868733167648315e-01
-2.223432362079620361e-01
2.085843086242675781e-01
4.375783503055572510e-01
-2.881035804748535156e-01
5.025381967425346375e-02
-6.704590320587158203e-01
2.985875904560089111e-01
-6.967688202857971191e-01
-1.002729162573814392e-01
-3.831694275140762329e-02
9.687784910202026367e-01
-2.195529192686080933e-01
7.316920906305313110e-02
-9.844530373811721802e-02
8.659411966800689697e-02
-2.272269874811172485e-01
-4.014899134635925293e-01
2.711243629455566406e-01
-5.476834177970886230e-01
2.485345155000686646e-01
-1.319442093372344971e-01
2.552618682384490967e-01
4.861325323581695557e-01
7.910266518592834473e-02
5.386379957199096680e-01
4.170165359973907471e-01
-7.357741594314575195e-01
-3.156993687152862549e-01
-7.826784253120422363e-02
4.899865090847015381e-01
1.428409069776535034e-01
-3.713165819644927979e-01
6.582672595977783203e-01
-4.526498019695281982e-01
2.012154459953308105e-01
-5.610473826527595520e-02
7.058304548263549805e-01
1.353455305099487305e+00
4.109900593757629395e-01
-9.193509817123413086e-01
3.170258998870849609e-01
-3.209626078605651855e-01
5.402034521102905273e-01
2.725803852081298828e-01
-6.355059742927551270e-01
-4.144519194960594177e-02
5.544856786727905273e-01
2.403088808059692383e-01
-7.476356029510498047e-01
-8.787531852722167969e-01
6.117989420890808105e-01
2.798120379447937012e-01
6.052688360214233398e-01
2.071069367229938507e-02
8.105559647083282471e-02
-3.593502938747406006e-01
2.671523690223693848e-01
7.454604506492614746e-01
-2.740511596202850342e-01
-3.667724728584289551e-01
-5.795285850763320923e-02
-7.469396293163299561e-02
4.312723875045776367e-01
8.312258124351501465e-02
-5.251233577728271484e-01
2.527367472648620605e-01
2.320608496665954590e-01
-7.760587334632873535e-02
-5.125182867050170898e-01
-2.407037764787673950e-01
5.611827373504638672e-01
-4.477546811103820801e-01
-2.955364994704723358e-02
4.359143972396850586e-02
1.397860515862703323e-02
1.729704290628433228e-01
1.422823965549468994e-01
3.749657049775123596e-02
3.755557583644986153e-03
-6.707387566566467285e-01
1.847527548670768738e-02
-2.748061120510101318e-01
-1.701852977275848389e-01
4.558459669351577759e-02
-5.217689871788024902e-01
8.088164031505584717e-02
4.213314056396484375e-01
1.236825659871101379e-01
-3.751288652420043945e-01
-3.037590980529785156e-01
-2.635889649391174316e-01
8.670035749673843384e-02
1.995093934237957001e-02
8.561063557863235474e-02
9.608514606952667236e-02
-1.687947769823949784e-05
-3.043073713779449463e-01
9.988801926374435425e-02
-2.704650759696960449e-01
4.935653507709503174e-01
-5.833240970969200134e-02
1.522905826568603516e-01
2.080302126705646515e-02
-1.211326345801353455e-01
4.815568923950195312e-01
6.052103638648986816e-02
-4.874944388866424561e-01
1.168199330568313599e-01
-2.917635254561901093e-02
7.720079421997070312e-01
1.021931841969490051e-01
9.429126977920532227e-02
4.121654853224754333e-02
3.787013590335845947e-01
3.548547253012657166e-02
-1.425922214984893799e-01
-5.297725796699523926e-01
-1.164261102676391602e+00
-2.649613022804260254e-01
3.619089424610137939e-01
-3.437332808971405029e-01
1.477925479412078857e-01
-2.639551162719726562e-01
-3.320919573307037354e-01
3.033632338047027588e-01
-2.283607237040996552e-02
-3.742487728595733643e-01
3.010642528533935547e-01
9.268138408660888672e-01
5.689297318458557129e-01
-4.086565375328063965e-01
-1.395511776208877563e-01
-3.331787288188934326e-01
-1.881440132856369019e-01
-1.991809010505676270e-01
6.389737725257873535e-01
1.471751481294631958e-01
-3.650798797607421875e-01
5.510716438293457031e-01
1.393108218908309937e-01
6.059921979904174805e-01
-3.324675261974334717e-01
-4.023973941802978516e-01
1.374073326587677002e-01
-3.340297043323516846e-01
2.198972404003143311e-01
-2.218640595674514771e-02
5.850784182548522949e-01
1.138619929552078247e-01
-2.597517892718315125e-02
-4.694394469261169434e-01
8.038107752799987793e-01
-8.164488673210144043e-01
1.929893195629119873e-01
-1.771635264158248901e-01
4.197624623775482178e-01
-9.640446864068508148e-03
-6.270942091941833496e-01
3.459078371524810791e-01
4.829337000846862793e-01
4.856293797492980957e-01
2.013901323080062866e-01
-5.476509332656860352e-01
1.805294305086135864e-01
1.757805943489074707e-01
3.179754912853240967e-01
-1.814787536859512329e-01
-1.173569937236607075e-03
1.991882026195526123e-01
2.176724523305892944e-01
-6.106109023094177246e-01
1.617850512266159058e-01
8.436764776706695557e-02
-6.967544555664062500e-02
2.217824757099151611e-01
-4.446422159671783447e-01
-5.438988804817199707e-01
-3.311384469270706177e-02
-1.374226063489913940e-01
2.776049971580505371e-01
-5.604843795299530029e-02
5.631188750267028809e-01
5.035743117332458496e-01
2.607123851776123047e-01
6.731184124946594238e-01
1.905186474323272705e-01
-6.559661626815795898e-01
-7.343072444200515747e-02
-1.813173443078994751e-01
3.791364431381225586e-01
1.458820700645446777e-01
-4.343230724334716797e-01
1.041923090815544128e-01
-1.953356862068176270e-01
2.745757699012756348e-01
-9.683968126773834229e-02
-7.233710885047912598e-01
3.892481029033660889e-01
-3.389860093593597412e-01
2.355033308267593384e-01
-3.574894070625305176e-01
5.374734401702880859e-01
4.725885391235351562e-01
1.171164810657501221e-01
8.324840068817138672e-01
1.473480165004730225e-01
-7.357997894287109375e-01
-3.084554374217987061e-01
-1.924412101507186890e-01
3.928760290145874023e-01
2.376536577939987183e-01
-5.578816533088684082e-01
-1.420350790023803711e+00
-2.320479787886142731e-02
-8.908652663230895996e-01
7.187498211860656738e-01
-6.994592398405075073e-02
-1.030162811279296875e+00
-1.376548707485198975e-01
5.030223727226257324e-01
-1.152969524264335632e-02
-1.413121223449707031e-01
-1.214971303939819336e+00
5.426507592201232910e-01
1.750124543905258179e-01
2.849185653030872345e-02
-8.871361613273620605e-03
2.982194721698760986e-01
3.887281119823455811e-01
4.049939215183258057e-01
-1.424941539764404297e+00
-4.243877530097961426e-02
-4.714402183890342712e-02
-4.569205343723297119e-01
-1.893654167652130127e-01
-1.522002369165420532e-01
1.956487894058227539e-01
2.585713565349578857e-01
-5.502281785011291504e-01
-6.308767199516296387e-01
-4.677297770977020264e-01
1.346730291843414307e-01
5.348932147026062012e-01
6.558530330657958984e-01
-1.722304522991180420e-01
1.500054001808166504e-01
3.786913156509399414e-01
-2.048113644123077393e-01
-5.987306237220764160e-01
-6.780830770730972290e-02
7.288806885480880737e-02
4.157421737909317017e-02
-4.921915531158447266e-01
-1.880524456501007080e-01
-4.160868525505065918e-01
3.464832603931427002e-01
-1.332243382930755615e-01
-5.069696307182312012e-01
6.396884918212890625e-01
4.177707433700561523e-01
1.681129187345504761e-01
-6.702536344528198242e-02
-2.226445972919464111e-01
2.230795845389366150e-02
-1.219378113746643066e-01
1.527705192565917969e-01
-1.845446676015853882e-01
2.301756590604782104e-01
3.600846827030181885e-01
1.578456759452819824e-01
-2.878510057926177979e-01
2.766357958316802979e-01
-1.223322153091430664e-01
3.052126467227935791e-01
1.379054877907037735e-02
-6.603921204805374146e-02
-3.755500018596649170e-01
8.138518333435058594e-01
5.242717862129211426e-01
5.700681358575820923e-02
1.023572534322738647e-01
8.162270486354827881e-02
-1.223307922482490540e-01
-9.583533974364399910e-04
2.837259769439697266e-01
5.539027974009513855e-02
-3.869857490062713623e-01
-9.147074818611145020e-02
2.398602515459060669e-01
2.402333915233612061e-01
-8.697994053363800049e-03
3.621045127511024475e-02
1.013781785964965820e+00
-1.984336227178573608e-01
4.795978367328643799e-01
-1.629265993833541870e-01
-2.758522033691406250e-01
5.721079707145690918e-01
7.965996861457824707e-02
-2.622444927692413330e-01
1.555975973606109619e-01
2.028986066579818726e-01
4.884693324565887451e-01
-6.287879943847656250e-01
2.012919783592224121e-01
-5.712363868951797485e-02
-2.112369053065776825e-02
-3.862721920013427734e-01
3.968285769224166870e-02
8.191504515707492828e-03
9.263835549354553223e-01
6.568495184183120728e-02
-6.590766310691833496e-01
4.323128163814544678e-01
-1.521461308002471924e-01
4.084267616271972656e-01
-1.811069101095199585e-01
-7.141380906105041504e-01
1.421198844909667969e-01
2.709886133670806885e-01
7.603581994771957397e-02
-3.289680778980255127e-01
-5.504421591758728027e-01
-6.049080565571784973e-02
2.952249646186828613e-01
2.115546166896820068e-02
-2.910258173942565918e-01
4.943911731243133545e-01
3.223366439342498779e-01
-2.848662436008453369e-02
-4.693874120712280273e-01
3.286889288574457169e-03
-5.039917230606079102e-01
1.346514821052551270e-01
1.410931069403886795e-02
-8.488170802593231201e-02
-7.461227178573608398e-01
9.438731670379638672e-01
3.168509602546691895e-01
6.778908967971801758e-01
-2.234181165695190430e-01
-2.928619682788848877e-01
2.034507840871810913e-01
-1.095681414008140564e-01
-6.697893142700195312e-01
-5.370461344718933105e-01
1.251857429742813110e-01
2.831546068191528320e-01
1.484798341989517212e-01
-2.131319493055343628e-01
3.005714341998100281e-02
-2.701023519039154053e-01
-1.881212368607521057e-02
4.484032467007637024e-02
-2.441366203129291534e-02
-3.750054836273193359e-01
2.116503426805138588e-03
9.820277094841003418e-01
-3.734616935253143311e-01
8.877636492252349854e-02
-1.949553005397319794e-02
-1.771124452352523804e-01
-9.502260014414787292e-03
4.103141725063323975e-01
-4.271590150892734528e-03
1.581804305315017700e-01
4.721119403839111328e-01
-1.060790643095970154e-01
2.019059658050537109e-01
2.400324791669845581e-01
-3.822753131389617920e-01
3.804411888122558594e-01
-5.348267555236816406e-01
3.604074120521545410e-01
-1.544188559055328369e-01
3.486582040786743164e-01
-3.939770460128784180e-01
-8.704730868339538574e-01
4.195077717304229736e-01
4.251160919666290283e-01
-3.451894223690032959e-01
-1.481927335262298584e-01
-1.393779665231704712e-01
-4.413741230964660645e-01
-5.626279711723327637e-01
-3.902206718921661377e-01
-4.732514023780822754e-01
2.422959208488464355e-01
-2.667163312435150146e-01
-2.516348361968994141e-01
3.857472538948059082e-01
-4.465420246124267578e-01
6.176872253417968750e-01
-3.329739570617675781e-01
4.726774096488952637e-01
-1.076119393110275269e-01
8.644005060195922852e-01
-1.295835733413696289e+00
-4.847193956375122070e-01
-6.417896151542663574e-01
6.376797556877136230e-01
1.471927523612976074e+00
2.215827256441116333e-01
-1.543851802125573158e-03
9.132344126701354980e-01
5.839238166809082031e-01
-5.557842850685119629e-01
-6.527092456817626953e-01
3.229865729808807373e-01
2.191302180290222168e-01
-9.846245497465133667e-02
2.461812794208526611e-01
-1.686710864305496216e-01
5.150305628776550293e-01
-6.727628707885742188e-01
