3.261170089244842529e-01
-4.931916892528533936e-01
1.165006831288337708e-01
-4.201124310493469238e-01
-4.207151234149932861e-01
-1.003249287605285645e-01
-3.801902383565902710e-02
-1.281515061855316162e-01
-6.698697805404663086e-01
-2.150537632405757904e-02
6.989315748214721680e-01
2.890587151050567627e-01
-3.870732784271240234e-01
6.939822435379028320e-01
9.922673553228378296e-02
4.441041946411132812e-01
-6.858459115028381348e-01
-1.329731494188308716e-01
1.467480212450027466e-01
-1.856040716171264648e+00
-2.565388381481170654e-01
-1.598473787307739258e-01
-2.430780231952667236e-01
-1.124397158622741699e+00
8.984957635402679443e-02
1.364592552185058594e+00
-2.119733691215515137e-01
1.390897631645202637e+00
-4.029569327831268311e-01
-1.181703209877014160e+00
4.003589227795600891e-02
1.657064557075500488e+00
-9.961766749620437622e-02
3.528239130973815918e-01
-5.500508546829223633e-01
-8.868922591209411621e-01
-2.179626077413558960e-01
7.791955955326557159e-03
-5.606598854064941406e-01
8.383141756057739258e-01
7.450623512268066406e-01
-6.731840372085571289e-01
3.127523958683013916e-01
-5.697521567344665527e-01
1.425520982593297958e-02
3.216475844383239746e-01
-1.061492443084716797e+00
-2.538597881793975830e-01
-3.831849396228790283e-01
-1.381711363792419434e-01
-6.819387078285217285e-01
-6.615195274353027344e-01
-1.087152004241943359e+00
-2.793333828449249268e-01
3.837463259696960449e-01
-3.068853020668029785e-01
4.931195378303527832e-01
-2.489704489707946777e-01
-3.740261122584342957e-02
-4.737361147999763489e-02
-6.872930377721786499e-02
8.277687430381774902e-02
-1.397305279970169067e-01
3.023913130164146423e-02
6.019111722707748413e-02
-2.388837337493896484e-01
-1.974581480026245117e-01
-2.159896492958068848e-01
1.378346234560012817e-01
2.244580835103988647e-01
1.203730106353759766e-01
5.824060365557670593e-02
7.016295939683914185e-02
-1.981521993875503540e-01
3.510263264179229736e-01
-2.382710576057434082e-01
3.309937566518783569e-02
3.366361558437347412e-01
1.279695890843868256e-02
-9.573552012443542480e-02
9.379217773675918579e-02
1.019073575735092163e-01
-1.472563594579696655e-01
3.805741369724273682e-01
-5.489068105816841125e-02
2.085429616272449493e-02
-1.361061632633209229e-01
3.559362590312957764e-01
-1.302384734153747559e-01
-1.748015135526657104e-01
1.301739513874053955e-01
-2.310544997453689575e-01
-1.806462109088897705e-01
2.609608881175518036e-02
-2.222814708948135376e-01
3.411593735218048096e-01
-1.951288282871246338e-01
1.495566666126251221e-01
-4.551606625318527222e-02
1.028705164790153503e-01
-1.319510955363512039e-02
1.586528420448303223e-01
1.495836973190307617e-01
-8.250810950994491577e-02
-2.716320566833019257e-02
-1.830943077802658081e-01
-5.622929707169532776e-02
-1.585825234651565552e-01
2.664895355701446533e-01
-1.121354848146438599e-01
2.073625028133392334e-01
-8.719506859779357910e-02
-8.453389406204223633e-01
-3.896203041076660156e-01
3.949728906154632568e-01
-3.666594028472900391e-01
-8.595310151576995850e-02
7.244443893432617188e-02
-1.349510103464126587e-01
-5.828727502375841141e-03
-1.061965748667716980e-01
-5.518082529306411743e-03
9.181338548660278320e-02
-1.190489679574966431e-01
1.366914212703704834e-01
1.806285232305526733e-01
2.614133954048156738e-01
1.670527756214141846e-01
-1.820607036352157593e-01
4.710699617862701416e-01
1.917769610881805420e-01
2.342604100704193115e-01
9.334611892700195312e-01
-3.422826528549194336e-01
-2.761704921722412109e-01
-1.676124036312103271e-01
2.757853865623474121e-01
-1.652102172374725342e-02
8.922356367111206055e-02
1.844842433929443359e-01
-5.559540390968322754e-01
1.591902077198028564e-01
-1.545797940343618393e-02
1.356388479471206665e-01
1.284846961498260498e-01
-2.526802197098731995e-02
6.521918177604675293e-01
7.536663413047790527e-01
-9.680780768394470215e-02
1.069343686103820801e-01
2.151173502206802368e-01
-1.205173730850219727e-01
6.591919064521789551e-01
1.228561028838157654e-01
-7.986217737197875977e-01
3.628310561180114746e-01
8.592876791954040527e-02
-3.492138683795928955e-01
-9.012888371944427490e-02
9.065555781126022339e-02
3.801516592502593994e-01
1.458017081022262573e-01
-1.354793608188629150e-01
-1.458822041749954224e-01
-6.853166222572326660e-02
1.648762375116348267e-01
-4.568346738815307617e-01
-4.197298362851142883e-02
-3.476935029029846191e-01
5.046516060829162598e-01
-9.321024268865585327e-02
1.247825324535369873e-01
-1.418968439102172852e-01
-3.826960921287536621e-01
1.398297399282455444e-01
-1.154698897153139114e-02
-2.683188579976558685e-02
-1.525403410196304321e-01
8.492828905582427979e-02
-2.846619784832000732e-01
6.452518701553344727e-02
2.019152790307998657e-01
-2.778088860213756561e-02
1.365885436534881592e-01
-3.830771893262863159e-02
-2.886254191398620605e-01
-1.744697801768779755e-02
-1.648932509124279022e-02
3.240073844790458679e-02
9.374924004077911377e-02
1.964269876480102539e-01
1.597629189491271973e-01
-2.889376282691955566e-01
-1.117800399661064148e-01
-1.230087801814079285e-01
-1.923249810934066772e-01
-1.336691528558731079e-01
-6.260894704610109329e-03
4.743472114205360413e-02
1.410053670406341553e-01
2.039113938808441162e-01
2.046249806880950928e-01
1.325577944517135620e-01
1.544797271490097046e-01
-2.081207334995269775e-01
-1.667090207338333130e-01
-8.884233981370925903e-02
-1.904292851686477661e-01
1.807439625263214111e-01
-6.030932068824768066e-01
-7.772009819746017456e-02
3.763644769787788391e-02
-2.444963902235031128e-01
1.983964443206787109e-01
1.116290166974067688e-01
2.400285154581069946e-01
1.424669027328491211e-01
9.891009330749511719e-02
1.569997519254684448e-01
2.321853637695312500e-01
-1.504553854465484619e-01
1.820269525051116943e-01
2.886025048792362213e-02
1.634065210819244385e-01
1.099578514695167542e-01
-2.554634213447570801e-01
1.074441894888877869e-01
-1.175786629319190979e-01
1.805337369441986084e-01
-6.645240783691406250e-01
3.054959774017333984e-01
-1.953215301036834717e-01
-1.670411229133605957e-01
2.779069542884826660e-01
9.431608021259307861e-02
-3.739108890295028687e-02
-7.650887966156005859e-02
6.609396636486053467e-02
-9.869056753814220428e-03
-3.601910546422004700e-02
-1.316634705290198326e-03
-1.098510697484016418e-01
-1.710581779479980469e-01
-5.925644934177398682e-02
7.657323032617568970e-02
8.396264910697937012e-02
2.837367951869964600e-01
1.151073910295963287e-02
2.249221056699752808e-01
1.116620004177093506e-01
-1.005177125334739685e-01
-4.688486084342002869e-02
3.785340189933776855e-01
3.750526905059814453e-01
-3.255657851696014404e-02
1.079753756523132324e+00
-1.635921001434326172e-01
6.784014403820037842e-02
2.186495661735534668e-01
-3.154505789279937744e-02
2.339854137971997261e-03
-9.807758033275604248e-02
-5.914051458239555359e-02
-8.277206122875213623e-02
1.236599534749984741e-01
2.285604327917098999e-01
-4.552299976348876953e-01
-2.934777140617370605e-01
-6.114735826849937439e-02
-1.866372972726821899e-01
-1.271589398384094238e-01
-2.343809157609939575e-01
-2.986970543861389160e-01
-1.870601177215576172e-01
3.415846824645996094e-02
-1.598042696714401245e-01
-1.792754232883453369e-01
-1.624584794044494629e-01
-1.481882669031620026e-02
9.493423998355865479e-02
-1.074359714984893799e-01
2.474309317767620087e-02
2.081741765141487122e-02
-1.420779228210449219e-01
-8.564356714487075806e-02
-2.275195717811584473e-02
2.559740543365478516e-01
-9.776365756988525391e-02
1.790416687726974487e-01
-8.292109705507755280e-03
-1.789544075727462769e-01
1.075972914695739746e-01
-1.313864532858133316e-02
-1.099595800042152405e-01
-1.996746659278869629e-01
2.845431864261627197e-01
-1.611047238111495972e-01
-1.859801411628723145e-01
6.886158138513565063e-02
2.170297801494598389e-01
3.739985823631286621e-01
-1.725879162549972534e-01
-1.685851067304611206e-01
-1.259534806013107300e-01
-3.333453834056854248e-01
3.045679032802581787e-01
-2.443929016590118408e-01
1.798529028892517090e-01
-3.374419510364532471e-01
-1.204152554273605347e-01
8.308532834053039551e-02
-1.276268064975738525e-01
-4.604949057102203369e-01
1.411719992756843567e-02
-4.913729801774024963e-02
2.797250747680664062e-01
1.304908245801925659e-01
-1.926849037408828735e-01
1.021963078528642654e-02
2.592086419463157654e-02
-1.141289398074150085e-01
-1.777911931276321411e-02
-7.406844943761825562e-02
4.950553923845291138e-02
1.971810460090637207e-01
1.169993877410888672e-01
4.552977979183197021e-01
-3.248983621597290039e-02
-1.878899037837982178e-01
1.104573979973793030e-01
1.832550466060638428e-01
2.396480888128280640e-01
3.259388208389282227e-01
1.235420405864715576e-01
-3.418852090835571289e-01
-1.171078905463218689e-01
-9.767597168684005737e-02
1.387572288513183594e-01
-1.622416451573371887e-02
2.115430682897567749e-01
2.613910473883152008e-02
-1.069832593202590942e-01
6.480925530195236206e-02
-1.669069379568099976e-01
-1.528774052858352661e-01
3.051801323890686035e-01
-1.377317756414413452e-01
-1.374274492263793945e-01
-2.866797447204589844e-01
-9.215131402015686035e-02
-2.697190828621387482e-02
-1.691291667520999908e-02
-1.491886377334594727e-01
6.084074079990386963e-02
2.642045617103576660e-01
-3.302942961454391479e-02
-4.721936210989952087e-02
1.193053051829338074e-01
-7.048029452562332153e-02
3.084519319236278534e-02
-2.221057862043380737e-01
5.640737339854240417e-02
2.556574642658233643e-01
1.000164896249771118e-01
2.009628415107727051e-01
3.833900392055511475e-02
-1.786175853339955211e-04
-2.825689911842346191e-01
1.388143897056579590e-01
8.483057618141174316e-01
1.745100915431976318e-01
3.559503257274627686e-01
5.313427448272705078e-01
-4.357340335845947266e-01
-1.086817681789398193e-01
-4.802259802818298340e-01
-1.905536949634552002e-01
2.317634373903274536e-01
-1.149239167571067810e-01
-2.495577186346054077e-01
-4.416397586464881897e-02
2.202795892953872681e-01
3.324180543422698975e-01
-1.955941170454025269e-01
-5.898617953062057495e-02
-2.498574107885360718e-01
3.180846273899078369e-01
6.133727729320526123e-02
4.057368263602256775e-02
4.465774297714233398e-01
-1.231032684445381165e-01
5.509246587753295898e-01
3.201033174991607666e-01
-2.594173848628997803e-01
6.463298946619033813e-02
-1.117174699902534485e-01
7.143459469079971313e-02
1.046743765473365784e-01
1.709100455045700073e-01
-9.308347105979919434e-02
-1.406708210706710815e-01
2.536297142505645752e-01
1.862907782196998596e-02
1.811493337154388428e-01
-6.876121740788221359e-03
-2.659245133399963379e-01
-1.176463440060615540e-01
7.754933834075927734e-02
2.782579362392425537e-01
-4.646250605583190918e-01
1.833606213331222534e-01
-8.688557147979736328e-02
-1.904157996177673340e-01
-1.882962286472320557e-01
-1.603652909398078918e-02
-2.655206322669982910e-01
3.546644374728202820e-02
-2.915670536458492279e-02
-1.319678276777267456e-01
-1.726264357566833496e-01
3.992844745516777039e-02
1.474981606006622314e-01
-8.935125917196273804e-02
1.227194070816040039e-01
-1.838438361883163452e-01
-1.887048482894897461e-01
2.295706421136856079e-01
-7.028418034315109253e-02
1.330319885164499283e-02
2.515821456909179688e-01
1.391560286283493042e-01
-4.182268306612968445e-02
4.833148419857025146e-01
-1.093356087803840637e-01
-1.405083239078521729e-01
9.719730913639068604e-02
-1.662976145744323730e-01
-1.282903598621487617e-03
-5.441701412200927734e-02
9.640065580606460571e-02
1.241291873157024384e-03
5.627446621656417847e-02
-5.188382416963577271e-02
-3.212826792150735855e-03
-1.765990555286407471e-01
-7.087000645697116852e-03
7.790141552686691284e-02
1.639468818902969360e-01
-2.036013752222061157e-01
1.697097788564860821e-03
-1.341910809278488159e-01
-9.257365018129348755e-02
-1.211459040641784668e-01
-8.411858230829238892e-02
1.862192451953887939e-01
-5.028053522109985352e-01
-1.730624586343765259e-01
2.177414596080780029e-01
-8.364789187908172607e-02
6.934209167957305908e-02
1.044934168457984924e-01
6.907843984663486481e-03
-5.274340137839317322e-02
9.876622259616851807e-02
6.998037546873092651e-02
1.429292932152748108e-02
1.218147948384284973e-01
-2.982968688011169434e-01
-7.091479003429412842e-02
8.479076623916625977e-02
1.548222601413726807e-01
5.788063630461692810e-02
-1.117717102169990540e-01
-1.544030308723449707e-01
2.439089119434356689e-01
1.041625142097473145e-01
2.049912326037883759e-02
-2.748313248157501221e-01
-1.369351297616958618e-01
-3.321630880236625671e-02
1.878100037574768066e-01
-2.036341726779937744e-01
-2.280478179454803467e-02
-3.199122250080108643e-01
3.149458467960357666e-01
-2.773086130619049072e-01
1.456289589405059814e-01
1.057512536644935608e-01
3.290064632892608643e-01
-2.291677147150039673e-01
-6.117080524563789368e-02
6.475519388914108276e-02
-1.712051928043365479e-01
-7.807140052318572998e-02
7.052072882652282715e-02
-3.166607618331909180e-01
-9.799288213253021240e-02
2.497474849224090576e-01
6.879612058401107788e-02
2.461570352315902710e-01
1.303038299083709717e-01
-3.450988233089447021e-02
-1.764685958623886108e-01
1.907538063824176788e-02
4.422827363014221191e-01
-1.480308640748262405e-02
1.328673064708709717e-01
-5.967759341001510620e-02
-7.854787260293960571e-02
-2.584474086761474609e-01
2.484524436295032501e-02
9.901142120361328125e-02
-1.592170596122741699e-01
1.481055766344070435e-01
5.068039894104003906e-02
-3.933557271957397461e-01
-1.154267713427543640e-01
-6.397841125726699829e-02
-9.417338669300079346e-02
1.502213627099990845e-01
5.812920331954956055e-01
-3.325978219509124756e-01
2.362371385097503662e-01
-2.535256445407867432e-01
2.490099817514419556e-01
2.199769765138626099e-01
2.310438454151153564e-01
6.578851491212844849e-02
2.430330365896224976e-01
2.448332868516445160e-02
-5.889620631933212280e-02
-2.572679817676544189e-01
-2.230091094970703125e-01
1.724435836076736450e-01
-5.073378235101699829e-02
2.210281044244766235e-01
4.212037622928619385e-01
-6.283552944660186768e-02
1.249152719974517822e-01
1.734655946493148804e-01
-1.550651043653488159e-01
4.836200177669525146e-02
-1.957845240831375122e-01
3.420732021331787109e-01
-3.093807101249694824e-01
1.316911429166793823e-01
-3.091017603874206543e-01
-3.059644699096679688e-01
-3.008489683270454407e-02
-6.257572770118713379e-02
1.418223083019256592e-01
7.905441522598266602e-02
2.159304618835449219e-01
-2.068955749273300171e-01
-6.221843883395195007e-02
-2.289235964417457581e-02
-2.567458152770996094e-01
-2.326116561889648438e-01
-6.324131041765213013e-02
-2.501372992992401123e-01
-3.949473500251770020e-01
1.232536137104034424e-01
5.157361030578613281e-01
-1.337358474731445312e+00
-2.122125029563903809e-01
-1.587130874395370483e-01
1.831440329551696777e-01
4.654307961463928223e-01
4.979177564382553101e-02
-1.644614487886428833e-01
3.725102543830871582e-01
-1.743463575839996338e-01
2.119125127792358398e-01
-4.101930558681488037e-01
2.418302595615386963e-01
-2.617855370044708252e-01
-3.798895180225372314e-01
2.738146185874938965e-01
-4.297000169754028320e-01
-1.178458109498023987e-01
1.396087706089019775e-01
2.068685889244079590e-01
3.810179531574249268e-01
-8.105816841125488281e-01
-4.610908627510070801e-01
4.166398197412490845e-02
1.818915456533432007e-01
-6.427554762922227383e-04
4.678491037338972092e-03
9.690965712070465088e-02
2.895947396755218506e-01
-1.549964398145675659e-01
-6.596250832080841064e-02
-4.203191399574279785e-01
1.923215389251708984e-01
2.064858824014663696e-01
1.015249639749526978e-02
8.290582150220870972e-02
-4.332877397537231445e-01
-1.567051708698272705e-01
7.638452202081680298e-02
-4.091918841004371643e-02
3.265495300292968750e-01
-1.739182323217391968e-01
3.589100390672683716e-02
-7.507464289665222168e-02
3.243626281619071960e-02
7.039844989776611328e-02
1.435758173465728760e-01
-1.227998062968254089e-01
-1.448153704404830933e-01
-5.475151538848876953e-02
-1.085643544793128967e-01
-1.524891406297683716e-01
-1.130150705575942993e-01
-1.617770344018936157e-01
2.588062360882759094e-02
-3.424542397260665894e-02
-1.418253756128251553e-03
2.612640857696533203e-01
-7.221157103776931763e-02
-3.102281093597412109e-01
-9.647300094366073608e-02
5.131371617317199707e-01
2.091930359601974487e-01
2.190484404563903809e-01
1.980089955031871796e-02
-2.384196221828460693e-02
-2.147302478551864624e-01
-9.734654426574707031e-02
5.552488565444946289e-02
5.050948634743690491e-02
-2.692584991455078125e-01
5.694425106048583984e-02
-8.768112957477569580e-02
3.442260622978210449e-01
4.890507459640502930e-01
-2.723137736320495605e-01
-2.973750233650207520e-04
7.336758822202682495e-02
2.931044697761535645e-01
-5.703375488519668579e-02
3.032931387424468994e-01
4.466911032795906067e-02
1.514176130294799805e-01
2.003296166658401489e-01
-1.452419459819793701e-01
-1.421037167310714722e-01
4.713928699493408203e-02
-3.728358447551727295e-01
1.010372415184974670e-01
2.152603119611740112e-03
2.328971475362777710e-01
7.519702613353729248e-02
2.449362352490425110e-02
-2.344829291105270386e-01
-1.996358856558799744e-02
-5.027237534523010254e-02
-1.683040708303451538e-01
2.454137802124023438e-01
-1.315690875053405762e-01
1.762310266494750977e-01
-1.455828398466110229e-01
-4.999739825725555420e-01
-8.011612296104431152e-02
-2.939229905605316162e-01
-8.927935361862182617e-02
3.590645492076873779e-01
1.671843081712722778e-01
-7.384749501943588257e-02
2.540522813796997070e-01
5.171766038984060287e-03
1.375501044094562531e-02
-3.716025650501251221e-01
-1.437778025865554810e-01
-3.405927419662475586e-01
-3.239876329898834229e-01
7.758580893278121948e-02
-2.862243652343750000e-01
-5.829082429409027100e-02
-1.518702656030654907e-01
1.733677387237548828e-01
3.626203909516334534e-02
-9.016796946525573730e-01
-2.017576247453689575e-01
-3.591068089008331299e-01
-7.594066113233566284e-02
4.282615482807159424e-01
2.487334609031677246e-01
1.261845529079437256e-01
7.629266940057277679e-03
-7.667773216962814331e-02
1.867762058973312378e-01
-5.888982117176055908e-02
1.198337525129318237e-01
-1.338248252868652344e-01
-3.333530724048614502e-01
2.182682417333126068e-02
2.091367840766906738e-01
-1.307398676872253418e-01
1.816104948520660400e-01
-1.757867634296417236e-01
2.256424576044082642e-01
5.092589259147644043e-01
2.952917218208312988e-01
1.647541821002960205e-01
1.285676956176757812e-01
-1.876668632030487061e-01
-1.263951063156127930e-01
3.359175473451614380e-02
2.667046384885907173e-03
-2.102499902248382568e-01
1.738662868738174438e-01
-1.593428552150726318e-01
1.360664218664169312e-01
-4.394253194332122803e-01
8.350558578968048096e-03
1.480342149734497070e-01
-5.721254646778106689e-02
2.336722463369369507e-01
2.589818537235260010e-01
-2.690848410129547119e-01
4.482735693454742432e-02
3.066502213478088379e-01
6.302235722541809082e-01
1.649719104170799255e-02
-1.454699486494064331e-01
2.994116246700286865e-01
1.474896222352981567e-01
-1.003509014844894409e-02
-2.721566557884216309e-01
-6.862270832061767578e-02
-7.883033901453018188e-02
2.655258476734161377e-01
1.311753690242767334e-01
-2.277503758668899536e-01
-1.388012766838073730e-01
-1.207644343376159668e-01
-5.679058283567428589e-02
1.196974515914916992e-01
-2.748552523553371429e-02
2.966192960739135742e-01
-2.334259748458862305e-01
4.963970184326171875e-01
-3.020751774311065674e-01
-1.159403696656227112e-01
-1.100592166185379028e-01
1.005884706974029541e-01
-4.638239741325378418e-02
3.615468740463256836e-01
-1.955954432487487793e-01
1.198440939188003540e-01
5.312281847000122070e-02
2.000205814838409424e-01
1.618916913866996765e-02
5.310460925102233887e-02
-1.814264431595802307e-02
-1.469808369874954224e-01
2.135140150785446167e-01
-3.049606084823608398e-02
-2.180546671152114868e-01
-2.484086602926254272e-01
-4.186044633388519287e-02
-3.317867964506149292e-02
5.569319799542427063e-02
-2.540968358516693115e-01
-1.052070260047912598e-01
-1.511961072683334351e-01
9.200952947139739990e-02
-5.742320045828819275e-02
2.823066711425781250e-01
-4.189029335975646973e-02
-6.260809302330017090e-02
-2.379221171140670776e-01
1.442541927099227905e-01
7.648821175098419189e-02
-1.082194410264492035e-02
-3.143288493156433105e-01
-2.278666049242019653e-01
-2.317655086517333984e-01
2.436095029115676880e-01
-2.080283313989639282e-01
-1.411103606224060059e-01
1.209333166480064392e-01
4.837912917137145996e-01
-1.418051421642303467e-01
2.098629474639892578e-01
2.104496955871582031e-01
-1.419343352317810059e-01
-4.297837242484092712e-02
2.213364467024803162e-02
-4.885781928896903992e-02
1.466222852468490601e-01
1.079334765672683716e-01
-2.620285153388977051e-01
-3.248673677444458008e-01
1.142338961362838745e-01
-8.474206924438476562e-02
1.045531481504440308e-01
-9.828287363052368164e-02
1.796018034219741821e-01
-1.967825293540954590e-01
3.049327433109283447e-01
-1.478379070758819580e-01
2.150910943746566772e-01
-5.921291112899780273e-01
4.029301702976226807e-01
7.561966776847839355e-02
3.359736204147338867e-01
1.603711843490600586e-01
-1.276777088642120361e-01
1.467408686876296997e-01
-4.557923376560211182e-01
1.825454831123352051e-01
-4.167774617671966553e-01
1.761862188577651978e-01
1.154284104704856873e-01
4.744432494044303894e-02
-8.377598971128463745e-02
-2.226689159870147705e-01
2.781089842319488525e-01
-2.417694181203842163e-01
7.574295252561569214e-02
3.890687823295593262e-01
-1.000869646668434143e-01
-1.586473733186721802e-01
2.045669779181480408e-02
3.122452497482299805e-01
-6.429357826709747314e-02
2.047864049673080444e-01
-9.607169032096862793e-02
5.080909654498100281e-02
-5.507177114486694336e-01
-1.253176778554916382e-01
1.881784051656723022e-01
1.719556748867034912e-01
6.779856085777282715e-01
-1.664153933525085449e-01
3.644897416234016418e-02
-2.967744767665863037e-01
1.913380920886993408e-01
-1.144002228975296021e-01
4.048217087984085083e-02
-1.101378351449966431e-01
-3.721656650304794312e-02
-1.750591397285461426e-01
5.431181192398071289e-02
1.651815921068191528e-01
5.415760353207588196e-02
2.339615523815155029e-01
-4.562226682901382446e-02
2.854533791542053223e-01
-4.562005698680877686e-01
-1.689061969518661499e-01
-3.804424777626991272e-02
3.771492093801498413e-02
3.023398220539093018e-01
2.628683671355247498e-02
-2.003963589668273926e-01
-1.608942449092864990e-02
-1.660247296094894409e-01
2.205652743577957153e-01
-1.837725192308425903e-01
-1.131419166922569275e-01
3.671257793903350830e-01
1.182848215103149414e-01
2.900400012731552124e-02
-1.318950802087783813e-01
-1.103190034627914429e-01
-1.752380430698394775e-01
-1.751192361116409302e-01
-8.206547796726226807e-02
1.115179853513836861e-03
-7.479232270270586014e-03
2.430892176926136017e-02
-4.202323406934738159e-02
-1.807522475719451904e-01
1.726395636796951294e-01
6.447122246026992798e-02
1.577799022197723389e-01
-3.087368421256542206e-02
-1.776986271142959595e-01
-2.180557399988174438e-01
-2.786638215184211731e-02
3.892470896244049072e-02
1.198039483278989792e-02
-9.553310275077819824e-02
2.832035422325134277e-01
-9.676187485456466675e-02
-8.386355638504028320e-02
-2.391837090253829956e-01
-6.745183467864990234e-02
-1.606065034866333008e-01
1.520998924970626831e-01
2.626601420342922211e-02
-1.237641870975494385e-01
8.199410885572433472e-02
6.410868465900421143e-02
2.066955268383026123e-01
1.937573403120040894e-02
2.943806722760200500e-02
3.046381473541259766e-01
9.001687169075012207e-02
-1.219326853752136230e-01
-1.290386468172073364e-01
-1.103726699948310852e-01
3.208671212196350098e-01
-4.683241546154022217e-01
2.946131825447082520e-01
4.530787467956542969e-02
8.277417719364166260e-02
4.084247946739196777e-01
2.794003486633300781e-01
1.193209365010261536e-01
-1.847169548273086548e-01
-3.366806730628013611e-02
-1.496105343103408813e-01
-5.323768779635429382e-02
7.388999313116073608e-02
-8.945006877183914185e-02
-9.023829549551010132e-02
-2.486482858657836914e-01
-1.360267549753189087e-01
1.043506115674972534e-01
-2.339875847101211548e-01
2.399269044399261475e-01
-1.632872372865676880e-01
1.592036336660385132e-01
2.405205741524696350e-02
1.764007657766342163e-01
6.785426288843154907e-02
-1.848472841084003448e-02
4.594189673662185669e-02
2.031836472451686859e-02
1.856994181871414185e-01
-1.969950050115585327e-01
2.323121130466461182e-01
8.515301346778869629e-02
-1.089791730046272278e-01
-4.248113930225372314e-01
-1.869090199470520020e-01
-3.002968430519104004e-02
-2.994270026683807373e-01
1.451824307441711426e-01
-5.130506306886672974e-02
6.292635202407836914e-02
-3.168071433901786804e-02
-4.462588578462600708e-02
-3.274899125099182129e-01
3.335034102201461792e-02
-8.136651478707790375e-03
-2.741347849369049072e-01
-5.054687708616256714e-02
7.210861146450042725e-02
1.806498914957046509e-01
-1.077968925237655640e-01
-3.563279286026954651e-02
-1.096938773989677429e-01
2.432895898818969727e-01
-1.444154083728790283e-01
8.941744267940521240e-02
2.157594449818134308e-02
4.171384572982788086e-01
-1.058641169220209122e-02
1.826735734939575195e-01
1.382528245449066162e-01
1.593860089778900146e-01
-1.881456673145294189e-01
-9.404284507036209106e-02
-1.992152482271194458e-01
-1.726969629526138306e-01
3.963956981897354126e-02
2.069513797760009766e-01
-2.715716660022735596e-01
-7.169835269451141357e-02
2.257303148508071899e-01
-2.088311761617660522e-01
-2.896321378648281097e-02
8.597006089985370636e-03
2.429419010877609253e-01
-2.897672653198242188e-01
-3.428686410188674927e-02
-6.461609899997711182e-02
2.772815525531768799e-01
-4.413526356220245361e-01
1.444843262434005737e-01
8.177025243639945984e-03
5.873731803148984909e-03
1.489923596382141113e-01
-3.413034975528717041e-01
-2.993918359279632568e-01
2.030942738056182861e-01
2.986201550811529160e-03
2.029728889465332031e-01
2.629629075527191162e-01
-1.365427970886230469e-01
-2.680250704288482666e-01
1.367531716823577881e-01
6.442137062549591064e-02
1.367508023977279663e-01
-4.670549929141998291e-01
1.666748225688934326e-01
2.287379279732704163e-02
2.380530387163162231e-01
-1.031667828559875488e+00
-7.275254726409912109e-01
-5.132958292961120605e-01
7.695941627025604248e-02
7.393003255128860474e-02
-2.976607680320739746e-01
-6.433118581771850586e-01
3.619688153266906738e-01
2.761843800544738770e-01
2.549470663070678711e-01
-1.562601625919342041e-01
4.854832589626312256e-01
-2.843047678470611572e-02
9.298221208155155182e-03
-1.377932727336883545e-01
2.844063043594360352e-01
-3.461268916726112366e-02
-5.373749136924743652e-01
2.005390971899032593e-01
-2.692734897136688232e-01
-4.116226732730865479e-01
3.350330889225006104e-01
6.989630311727523804e-02
-6.776852905750274658e-02
-2.403897196054458618e-01
-1.674406528472900391e-01
-1.250138282775878906e-01
-3.521567881107330322e-01
-3.418213725090026855e-01
4.902153275907039642e-03
-9.808620810508728027e-02
-4.214420020580291748e-01
3.310005962848663330e-01
9.920360147953033447e-02
1.484366953372955322e-01
-4.863291382789611816e-01
-9.849132597446441650e-02
3.800182044506072998e-01
8.758520334959030151e-02
-1.554543673992156982e-01
3.140022158622741699e-01
-9.481515735387802124e-03
2.311162501573562622e-01
-1.076113060116767883e-01
2.529705464839935303e-01
1.087397113442420959e-01
-7.728986442089080811e-02
1.532786041498184204e-01
1.104886755347251892e-01
3.135809302330017090e-02
-1.112247854471206665e-01
2.043377459049224854e-01
-1.276708245277404785e-01
6.244828179478645325e-02
1.738423556089401245e-01
2.774461507797241211e-01
1.580341905355453491e-01
8.396298438310623169e-02
-5.660558119416236877e-02
1.079563647508621216e-01
-7.407770305871963501e-02
-1.813058257102966309e-01
5.849754810333251953e-02
1.936678141355514526e-01
-1.908012479543685913e-01
7.829489558935165405e-02
-1.922621726989746094e-01
-4.663967713713645935e-02
-8.590066432952880859e-02
1.501231938600540161e-01
1.480769366025924683e-01
-1.200435869395732880e-02
-9.860326349735260010e-02
2.796473205089569092e-01
1.494034826755523682e-01
-2.928081452846527100e-01
9.803576767444610596e-02
7.442323118448257446e-02
-1.104973703622817993e-01
-4.393824189901351929e-02
-1.645494252443313599e-01
-2.741735279560089111e-01
1.916947960853576660e-01
3.674120828509330750e-02
2.477005720138549805e-01
2.100058086216449738e-02
3.431403338909149170e-01
1.564203351736068726e-01
2.149027884006500244e-01
-2.288066595792770386e-02
-1.118443906307220459e-01
2.461321353912353516e-01
-1.211203709244728088e-01
-1.441907286643981934e-01
-2.397117167711257935e-01
-1.593956947326660156e-01
-2.776753008365631104e-01
-7.865678519010543823e-02
-9.434743970632553101e-02
2.586518526077270508e-01
-9.256917983293533325e-02
9.476036764681339264e-03
-1.803773641586303711e-01
-3.528331592679023743e-02
-3.860734403133392334e-02
-3.104019165039062500e-01
-4.262454509735107422e-01
-7.456458359956741333e-02
-3.255314230918884277e-01
1.406516283750534058e-01
-1.621047109365463257e-01
-1.640488207340240479e-01
-3.852821588516235352e-01
-3.989849984645843506e-01
-3.263804912567138672e-01
1.211512908339500427e-01
-1.808105707168579102e-01
-8.553565293550491333e-02
-6.170770153403282166e-02
-1.003080159425735474e-01
-2.094067484140396118e-01
1.649970412254333496e-01
1.779520064592361450e-01
8.699852973222732544e-02
2.812330424785614014e-02
1.404021382331848145e-01
7.524237036705017090e-02
-1.338536292314529419e-01
-3.095019161701202393e-01
2.615198194980621338e-01
-4.891248047351837158e-02
-1.055385768413543701e-01
4.793183878064155579e-02
2.055524438619613647e-01
1.521835923194885254e-01
-3.814200460910797119e-01
-2.311874926090240479e-02
-2.985992729663848877e-01
-2.749741077423095703e-01
2.182096093893051147e-01
-2.820768654346466064e-01
1.703514158725738525e-01
6.855262815952301025e-02
-1.428411155939102173e-02
-4.393835365772247314e-02
-1.329051703214645386e-01
7.976382225751876831e-02
-6.481322646141052246e-02
-4.697938263416290283e-01
1.636620908975601196e-01
6.418164074420928955e-02
-4.005088210105895996e-01
-2.219303399324417114e-01
-2.149896323680877686e-01
-7.044006139039993286e-02
7.990126311779022217e-02
8.927956223487854004e-02
5.330763757228851318e-02
6.182556971907615662e-02
-8.342452347278594971e-02
4.622448235750198364e-02
-6.985832005739212036e-02
-8.122456818819046021e-02
1.457047909498214722e-01
-3.129021525382995605e-01
2.608982026576995850e-01
-1.075491607189178467e-01
-1.045027300715446472e-01
-8.609576523303985596e-02
3.850262165069580078e-01
-4.601841047406196594e-02
-6.218526512384414673e-02
2.344159930944442749e-01
8.054982870817184448e-03
2.565006017684936523e-01
-2.159930206835269928e-02
-5.973111093044281006e-02
-3.920003771781921387e-01
-4.885236546397209167e-02
8.790469169616699219e-02
1.426952183246612549e-01
2.813204228878021240e-01
7.770929485559463501e-02
-1.742903292179107666e-01
-1.124041303992271423e-01
-3.511708229780197144e-02
-9.258868545293807983e-02
-3.343927208334207535e-03
-1.050971001386642456e-01
8.051570504903793335e-02
2.198153138160705566e-01
-6.026453152298927307e-02
-1.354905962944030762e-01
-1.030634418129920959e-01
2.754953205585479736e-01
-2.480576187372207642e-01
1.168535500764846802e-01
2.294154614210128784e-01
3.856845665723085403e-03
-2.054968625307083130e-01
6.945565342903137207e-01
-1.195556521415710449e-01
-6.674668192863464355e-02
-3.287525475025177002e-01
-6.526951328851282597e-04
9.078840911388397217e-02
4.854551851749420166e-01
4.581127688288688660e-02
1.534100174903869629e-01
-1.437779366970062256e-01
3.629564642906188965e-01
-1.901908218860626221e-02
-1.523224078118801117e-02
-1.954435855150222778e-01
1.062061190605163574e-01
-8.286900818347930908e-02
-1.742274165153503418e-01
-3.233607709407806396e-01
1.244328618049621582e-01
7.674811035394668579e-02
2.012500725686550140e-02
1.439873278141021729e-01
-1.443460732698440552e-01
3.159103989601135254e-01
-2.784012854099273682e-01
-4.042380154132843018e-01
-1.316010951995849609e-01
-5.495433509349822998e-02
-2.204263508319854736e-01
1.375461667776107788e-01
3.165159523487091064e-01
-2.091491371393203735e-01
-6.913990713655948639e-03
-1.593089997768402100e-01
-1.850138977169990540e-02
-3.448751196265220642e-02
1.437005549669265747e-01
-2.352135442197322845e-02
-1.361463963985443115e-01
-5.369213595986366272e-02
6.139158606529235840e-01
3.716070577502250671e-02
2.828361690044403076e-01
-5.003873109817504883e-01
2.995057404041290283e-01
3.551386892795562744e-01
3.755422532558441162e-01
-3.652225807309150696e-02
-2.591318190097808838e-01
-1.501583009958267212e-01
-1.606060713529586792e-01
3.956529125571250916e-02
2.265450544655323029e-02
-4.825330674648284912e-01
-2.679020762443542480e-01
3.090031743049621582e-01
-1.723908819258213043e-02
-3.262334764003753662e-01
-3.191702365875244141e-01
2.171519845724105835e-01
-1.701732538640499115e-02
6.517110764980316162e-02
-2.056184262037277222e-01
3.210126236081123352e-02
-3.168310523033142090e-01
-1.615093201398849487e-01
-9.083127975463867188e-02
-1.548334956169128418e-01
-2.164323329925537109e-01
1.458391696214675903e-01
-2.193327061831951141e-02
1.348687410354614258e-01
1.992698609828948975e-01
1.338346302509307861e-01
1.809920966625213623e-01
1.290727853775024414e-01
-1.456152945756912231e-01
-3.748902678489685059e-01
-2.361090630292892456e-01
2.915675938129425049e-01
6.009244918823242188e-02
-1.176859438419342041e-01
-1.356974542140960693e-01
3.387106060981750488e-01
-2.660178840160369873e-01
-1.509649455547332764e-01
-1.115781962871551514e-01
-2.847113311290740967e-01
-6.454213708639144897e-02
3.302145376801490784e-02
1.791600137948989868e-01
-2.681779861450195312e-01
6.104813143610954285e-02
-1.000389456748962402e-01
-3.243232890963554382e-02
-2.821369171142578125e-01
-1.221084296703338623e-01
1.198180541396141052e-01
-1.269101351499557495e-01
-8.748652786016464233e-02
2.734492719173431396e-01
-8.357252925634384155e-02
-2.253899276256561279e-01
-2.049806863069534302e-01
1.438562124967575073e-01
-1.747964471578598022e-01
9.887435287237167358e-02
1.106565520167350769e-01
1.022855341434478760e-01
1.113843619823455811e-01
2.879047393798828125e-01
-8.785267174243927002e-02
2.643731832504272461e-01
1.467062681913375854e-01
-2.826429717242717743e-02
1.291993260383605957e-02
1.230261847376823425e-01
-1.511977016925811768e-01
-6.298535317182540894e-02
1.015088334679603577e-01
-4.313861429691314697e-01
-1.133172139525413513e-01
-2.327871620655059814e-01
-9.878091514110565186e-02
-2.807652056217193604e-01
3.008665740489959717e-01
4.421371221542358398e-02
-3.193626701831817627e-01
-3.107861578464508057e-01
-1.859085857868194580e-01
-5.521583370864391327e-04
2.108163572847843170e-02
-4.628385901451110840e-01
7.333196699619293213e-02
-7.511536031961441040e-02
-2.779892683029174805e-01
-4.761426895856857300e-02
1.307362318038940430e-01
1.347340345382690430e-01
-1.774264127016067505e-02
-6.437255442142486572e-02
2.662824690341949463e-01
1.347027570009231567e-01
1.259233057498931885e-01
2.342657893896102905e-01
-1.541209816932678223e-01
-1.218608394265174866e-01
1.971041858196258545e-01
9.331060945987701416e-02
5.921863913536071777e-01
9.854543954133987427e-02
-8.731857687234878540e-02
1.753592640161514282e-01
7.504892349243164062e-02
2.526371777057647705e-01
-1.490580439567565918e-01
-2.625349350273609161e-02
3.654887974262237549e-01
1.920416504144668579e-01
6.853414326906204224e-02
-5.562602356076240540e-02
1.554807126522064209e-01
5.881232619285583496e-01
-2.088687121868133545e-01
-1.455813944339752197e-01
-2.473739087581634521e-01
-1.286287158727645874e-01
1.525578051805496216e-01
-3.414532169699668884e-02
1.215017884969711304e-01
6.399720907211303711e-02
-1.865583956241607666e-01
-2.600462548434734344e-02
-2.557665705680847168e-01
1.412694901227951050e-01
1.012977659702301025e-01
2.036100775003433228e-01
-8.078785985708236694e-02
-2.466797083616256714e-01
-1.185404956340789795e-01
-1.867407187819480896e-02
5.556653067469596863e-02
9.077643603086471558e-02
2.589782886207103729e-02
4.998361319303512573e-02
1.217839121818542480e-01
-9.324811398983001709e-02
3.235122933983802795e-02
7.717891037464141846e-02
-3.729713857173919678e-01
1.546328663825988770e-01
-2.931038439273834229e-01
1.932914108037948608e-01
-2.610011994838714600e-01
2.414675243198871613e-02
4.297671839594841003e-02
1.979044228792190552e-01
-2.016484737396240234e-01
-2.478062808513641357e-01
1.780034750699996948e-01
-2.761889994144439697e-01
-4.568863511085510254e-01
-3.635768890380859375e-01
1.873498857021331787e-01
-2.286866307258605957e-01
-4.994333907961845398e-02
-2.705546915531158447e-01
5.454074591398239136e-02
-3.809830248355865479e-01
-1.366705298423767090e-01
1.185506731271743774e-01
7.007460296154022217e-02
-1.031454876065254211e-01
-1.353841871023178101e-01
-1.594758629798889160e-01
-3.574014604091644287e-01
-2.875907421112060547e-01
5.291212201118469238e-01
2.435568124055862427e-01
-3.282658159732818604e-01
9.592115134000778198e-02
2.534849941730499268e-01
1.796196401119232178e-01
-3.874289095401763916e-01
1.348192542791366577e-01
9.810546040534973145e-02
3.874299824237823486e-01
4.413070082664489746e-01
4.070424437522888184e-01
8.435628563165664673e-02
1.578799039125442505e-01
-3.255227804183959961e-01
1.648779362440109253e-01
-4.136838316917419434e-01
3.288984298706054688e-01
3.242989182472229004e-01
-3.558149337768554688e-01
1.688842475414276123e-01
2.888854742050170898e-01
-2.700301706790924072e-01
4.537584781646728516e-01
2.945989668369293213e-01
-7.247833907604217529e-02
-2.820790112018585205e-01
1.576149761676788330e-01
-2.296282649040222168e-01
3.497242927551269531e-01
3.579098582267761230e-01
6.104808449745178223e-01
-1.066855490207672119e-01
2.227628976106643677e-01
-1.624384373426437378e-01
2.569431662559509277e-01
-2.738559842109680176e-01
2.731551975011825562e-02
4.122776389122009277e-01
2.374491989612579346e-01
4.850256443023681641e-01
1.475733220577239990e-01
-3.149404525756835938e-01
1.235169395804405212e-01
4.210452362895011902e-02
1.312832534313201904e-01
-1.597938537597656250e-01
3.519947528839111328e-01
-5.949230492115020752e-02
-4.481182694435119629e-01
1.328672766685485840e-01
9.745121747255325317e-02
2.029528468847274780e-01
-9.693927317857742310e-02
-1.060482021421194077e-02
5.484878271818161011e-02
-4.468353465199470520e-02
-1.255954056978225708e-01
-1.205087155103683472e-01
-1.371599435806274414e-01
-1.245314031839370728e-01
-2.423682063817977905e-01
1.904129236936569214e-01
-1.668979078531265259e-01
-4.130604863166809082e-01
-3.662405014038085938e-01
1.821990907192230225e-01
3.553868085145950317e-02
5.367897450923919678e-02
-2.180893160402774811e-02
-2.570706605911254883e-01
-9.267615526914596558e-02
-2.277308106422424316e-01
-1.065718531608581543e-01
-2.915271818637847900e-01
1.068527773022651672e-01
1.358194053173065186e-01
-4.702429845929145813e-02
-2.042751610279083252e-01
-6.617780029773712158e-02
-2.251593917608261108e-01
2.498746514320373535e-01
-4.475522413849830627e-02
1.316548734903335571e-01
2.490112632513046265e-01
2.184442877769470215e-01
-1.476353853940963745e-01
-2.770492136478424072e-01
-2.583797872066497803e-01
2.998726069927215576e-01
1.536938697099685669e-01
3.353700935840606689e-01
-8.612074702978134155e-02
-6.817771494388580322e-02
-2.316199541091918945e-01
1.045199930667877197e-01
2.506019733846187592e-02
-2.830752357840538025e-02
2.900286316871643066e-01
-6.734548807144165039e-01
3.081333935260772705e-01
8.248919248580932617e-02
-2.175137214362621307e-02
-3.089404106140136719e-01
-3.873853087425231934e-01
1.977309882640838623e-01
-2.129750102758407593e-01
5.366917327046394348e-02
-6.283602118492126465e-01
-3.698387444019317627e-01
1.043180972337722778e-01
-1.320693343877792358e-01
4.474800229072570801e-01
4.833487272262573242e-01
5.057718157768249512e-01
3.835732340812683105e-01
5.186074376106262207e-01
1.391438841819763184e-01
3.381207883358001709e-01
-2.241845801472663879e-02
-1.443580538034439087e-01
3.257780075073242188e-01
-1.299951970577239990e-01
-2.417792566120624542e-02
1.476864665746688843e-01
2.982524782419204712e-02
8.232124894857406616e-02
1.364634037017822266e-01
-1.862606406211853027e-01
1.194123029708862305e-01
1.654072105884552002e-01
2.634751498699188232e-01
1.571820229291915894e-01
1.871026605367660522e-01
9.601149708032608032e-02
8.155141025781631470e-02
-2.120139636099338531e-02
2.085135430097579956e-01
-7.007147371768951416e-02
1.995686143636703491e-01
-2.424881011247634888e-01
-1.359671056270599365e-01
2.000199109315872192e-01
-3.764743357896804810e-02
-3.222012519836425781e-01
-1.228307485580444336e-01
3.527719676494598389e-01
-3.184134885668754578e-02
-9.168152511119842529e-02
-2.933294177055358887e-01
-3.033569455146789551e-02
-3.429077863693237305e-01
9.756411612033843994e-02
-2.540238015353679657e-02
1.617149859666824341e-01
9.909679740667343140e-02
1.727910786867141724e-01
-3.813775479793548584e-01
-3.597481548786163330e-01
-1.865220814943313599e-01
1.753079742193222046e-01
6.778445839881896973e-02
-1.404974982142448425e-02
4.420584812760353088e-02
4.169543385505676270e-01
9.132484346628189087e-02
-1.263897120952606201e-01
2.656854987144470215e-01
-2.924426198005676270e-01
2.308687567710876465e-01
2.648223936557769775e-01
4.704975783824920654e-01
3.447359055280685425e-02
3.538696169853210449e-01
-1.458736509084701538e-01
6.139678955078125000e-01
-1.000055149197578430e-01
2.327208667993545532e-01
3.481647670269012451e-01
-2.500276826322078705e-02
-2.022452801465988159e-01
-4.264991357922554016e-02
4.240803793072700500e-02
9.632272273302078247e-02
4.348568618297576904e-02
-4.656329751014709473e-01
2.408602088689804077e-01
-3.222856819629669189e-01
-2.522016689181327820e-02
2.843693196773529053e-01
-2.207863330841064453e-01
2.723753154277801514e-01
8.593172580003738403e-02
9.819550067186355591e-02
-1.466290950775146484e-01
8.779495209455490112e-02
2.410900145769119263e-01
4.773623123764991760e-02
-2.598625719547271729e-01
-1.114076226949691772e-01
1.267228126525878906e-01
2.065598517656326294e-01
-2.448959946632385254e-01
1.457994431257247925e-01
4.511314928531646729e-01
3.569439947605133057e-01
-2.851666808128356934e-01
1.607630103826522827e-01
5.718259606510400772e-03
2.236398011445999146e-01
-1.338082924485206604e-02
1.890445649623870850e-01
-1.129182130098342896e-01
2.142453789710998535e-01
7.155130803585052490e-02
1.963989585638046265e-01
-1.446163058280944824e-01
3.172692358493804932e-01
1.623069941997528076e-01
3.843286335468292236e-01
-1.716981977224349976e-01
7.650834321975708008e-02
-1.857593841850757599e-02
-2.278431951999664307e-01
1.007611602544784546e-01
-5.734622478485107422e-03
2.371311038732528687e-01
6.109090521931648254e-02
3.336680829524993896e-01
-8.182870596647262573e-02
-9.402630850672721863e-03
-4.092891514301300049e-01
-1.048099398612976074e-01
-1.252969056367874146e-01
5.041019618511199951e-02
-4.395894408226013184e-01
2.336073517799377441e-01
-8.097659796476364136e-02
-2.282159179449081421e-01
4.044317305088043213e-01
-1.415132135152816772e-01
-2.762088775634765625e-01
8.832632750272750854e-02
1.414387207478284836e-02
6.243245676159858704e-02
-2.429398745298385620e-01
-7.429045438766479492e-02
-2.290859669446945190e-01
1.669530421495437622e-01
-1.189669445157051086e-01
-1.706033349037170410e-01
-1.854846924543380737e-01
2.443964034318923950e-02
5.020909756422042847e-02
4.096513688564300537e-01
-4.744020998477935791e-01
4.770695567131042480e-01
-5.038440823554992676e-01
-2.903573960065841675e-02
-2.642804756760597229e-02
-4.169245362281799316e-01
-2.868087887763977051e-01
2.666900455951690674e-01
-1.730868816375732422e-01
-1.846943944692611694e-01
-3.030121028423309326e-01
2.249859720468521118e-01
-1.548026204109191895e-01
-3.499395772814750671e-02
3.259652527049183846e-03
-1.377045959234237671e-01
-3.692924231290817261e-02
6.294988840818405151e-02
-4.758832231163978577e-02
1.274488270282745361e-01
4.356665164232254028e-02
3.276792168617248535e-02
1.183689832687377930e-01
-1.964766681194305420e-01
-9.146340191364288330e-02
-3.002480566501617432e-01
-3.879741579294204712e-02
-6.423427909612655640e-02
-7.959837466478347778e-02
-1.848062425851821899e-01
-2.169065475463867188e-01
8.259002864360809326e-02
-2.580551803112030029e-01
9.839426726102828979e-02
1.411024481058120728e-01
-1.775175482034683228e-01
-2.646299600601196289e-01
-1.546484231948852539e-01
-1.645534485578536987e-01
-2.293815165758132935e-01
-2.434717118740081787e-01
1.501146256923675537e-01
-2.392452359199523926e-01
-3.443664684891700745e-02
-1.479672640562057495e-01
-1.936086714267730713e-01
-1.084133759140968323e-01
-2.040893137454986572e-01
3.174603357911109924e-02
2.410098761320114136e-01
-6.568725407123565674e-02
5.318128503859043121e-03
-1.230274438858032227e-01
-3.037223126739263535e-03
1.869785338640213013e-01
8.525537699460983276e-02
-8.165223151445388794e-02
4.239492490887641907e-02
-9.708580374717712402e-02
-4.898824915289878845e-02
2.249214053153991699e-02
1.476487666368484497e-01
-3.183931810781359673e-03
5.540051311254501343e-02
-2.755959331989288330e-01
2.953259348869323730e-01
2.669566571712493896e-01
-3.768632709980010986e-01
-4.973331689834594727e-01
2.675618529319763184e-01
3.831560313701629639e-01
2.589688301086425781e-01
-2.847774326801300049e-01
1.223280504345893860e-01
4.021348655223846436e-01
2.451942563056945801e-01
-2.309258729219436646e-01
2.698661088943481445e-01
-2.844841182231903076e-01
4.237582683563232422e-01
-2.581714391708374023e-01
-1.876474171876907349e-01
-2.857961952686309814e-01
-2.266903966665267944e-01
-1.917803585529327393e-01
3.641053438186645508e-01
-1.713860780000686646e-01
-1.682353466749191284e-01
5.800452083349227905e-02
-1.151708886027336121e-01
3.359244437888264656e-03
5.346594005823135376e-02
2.933379635214805603e-02
-2.044758759438991547e-03
-3.429029881954193115e-01
-7.444289326667785645e-02
2.102326601743698120e-01
4.744754731655120850e-02
9.419592469930648804e-02
-6.606084853410720825e-02
-3.768854141235351562e-01
-1.204581037163734436e-01
2.114618569612503052e-01
7.671079132705926895e-03
2.622886300086975098e-01
-3.329321742057800293e-01
-1.017425507307052612e-01
-7.110400497913360596e-02
-2.466112226247787476e-01
-1.316567808389663696e-01
-5.391402170062065125e-02
-6.245986819267272949e-01
6.544988602399826050e-02
3.386140167713165283e-01
-2.561516761779785156e-01
1.620405912399291992e-01
-2.653993070125579834e-01
-1.049715653061866760e-01
4.074891507625579834e-01
1.716297566890716553e-01
-1.380351930856704712e-01
-1.498910635709762573e-01
5.601629242300987244e-02
1.434963196516036987e-01
-3.697553277015686035e-02
1.374090909957885742e-01
-3.952938616275787354e-01
