5.051807165145874023e-01
1.878241002559661865e-01
-2.040296941995620728e-01
3.141321241855621338e-01
-5.543536543846130371e-01
3.145604431629180908e-01
7.963155210018157959e-02
1.040931344032287598e+00
1.586018688976764679e-02
1.386509388685226440e-01
1.151860728859901428e-01
2.508731326088309288e-03
2.075034379959106445e-01
4.928217828273773193e-01
-1.348007768392562866e-01
-6.598916649818420410e-01
1.361687034368515015e-01
7.797945737838745117e-01
4.678583145141601562e-01
4.624733626842498779e-01
-6.178131699562072754e-02
-1.245312243700027466e-01
-5.588609725236892700e-02
-1.642614603042602539e-01
-1.514221131801605225e-01
-6.066260337829589844e-01
3.376480937004089355e-01
8.347176313400268555e-01
-4.023907780647277832e-01
-1.776900738477706909e-01
1.220911741256713867e-01
1.198706775903701782e-01
3.256103396415710449e-01
-7.163866162300109863e-01
-4.721377491950988770e-01
-3.085362911224365234e-01
6.688010692596435547e-01
-2.429589033126831055e-01
4.265622794628143311e-01
-5.117323398590087891e-01
1.031581282615661621e+00
-6.789970993995666504e-01
2.630838155746459961e-01
-2.957051694393157959e-01
-7.484529018402099609e-01
6.331413388252258301e-01
-5.910856723785400391e-01
-1.742629855871200562e-01
-4.286848902702331543e-01
4.436100125312805176e-01
-1.166750550270080566e+00
-7.264530062675476074e-01
2.795490622520446777e-01
-1.259703934192657471e-01
1.087036728858947754e+00
7.376323938369750977e-01
4.256239831447601318e-01
-8.756065964698791504e-01
9.232466220855712891e-01
6.337680220603942871e-01
-2.059622555971145630e-01
3.586773946881294250e-02
1.974399983882904053e-01
4.779250547289848328e-02
-8.576228469610214233e-02
3.928015008568763733e-02
1.186773777008056641e-01
2.894136123359203339e-03
-4.607127904891967773e-01
-2.932099401950836182e-01
2.691435217857360840e-01
-3.796790912747383118e-02
1.040451228618621826e-01
-3.132455646991729736e-01
-6.816931068897247314e-02
-3.077028319239616394e-02
-3.795094415545463562e-02
2.372016012668609619e-01
-1.246817559003829956e-01
7.989042997360229492e-02
-5.172281861305236816e-01
1.321485340595245361e-01
-2.765236496925354004e-01
8.324593305587768555e-02
3.839455842971801758e-01
-4.084683358669281006e-01
1.255705952644348145e-01
2.186602354049682617e-02
1.310038268566131592e-01
-1.043683439493179321e-01
4.156201481819152832e-01
3.094063326716423035e-02
-2.355438470840454102e-01
2.115137688815593719e-02
-4.788348078727722168e-01
-3.830027282238006592e-01
2.190643996000289917e-01
2.889923155307769775e-01
-3.893432021141052246e-01
-3.010407686233520508e-01
-1.557400226593017578e-01
4.933877885341644287e-01
1.120313555002212524e-01
5.539313554763793945e-01
6.293033957481384277e-01
-5.209954977035522461e-01
1.014839291572570801e+00
-3.683590888977050781e-01
2.000381469726562500e+00
4.261307120323181152e-01
7.250173687934875488e-01
4.300776422023773193e-01
-8.902000188827514648e-01
8.573276996612548828e-01
-5.388755798339843750e-01
-2.270991653203964233e-01
-5.073504447937011719e-01
1.914343833923339844e-01
-2.938343882560729980e-01
-7.454980015754699707e-01
-5.623980164527893066e-01
2.653802335262298584e-01
2.018227875232696533e-01
7.081645727157592773e-02
3.169798851013183594e-01
-2.453665137290954590e-01
5.044955760240554810e-03
-3.391689658164978027e-01
2.883055210113525391e-01
1.826345026493072510e-01
1.128888204693794250e-01
1.118797212839126587e-01
-1.145891472697257996e-01
1.041099429130554199e-01
-3.385291248559951782e-02
6.832323223352432251e-02
-1.709807366132736206e-01
1.227893456816673279e-01
-2.565746605396270752e-01
-4.706678986549377441e-01
-2.502053678035736084e-01
1.200520545244216919e-01
9.516688063740730286e-03
1.085214614868164062e+00
-1.072173416614532471e-01
-1.255367230623960495e-02
-2.360425740480422974e-01
-5.890492200851440430e-01
2.387581467628479004e-01
6.529083251953125000e-01
-1.700540035963058472e-01
3.055263869464397430e-02
1.720256954431533813e-01
4.051747620105743408e-01
-6.064099445939064026e-02
3.845113143324851990e-02
-8.044076561927795410e-01
-3.866992294788360596e-01
-5.355441942811012268e-02
-6.307722926139831543e-01
-2.864277362823486328e-01
3.589580357074737549e-01
4.421553015708923340e-01
-2.028851509094238281e-01
1.428266614675521851e-01
-2.238943874835968018e-01
-2.809029445052146912e-02
1.548407375812530518e-01
-1.925743371248245239e-01
1.071653664112091064e-01
1.811825186014175415e-01
3.477701842784881592e-01
5.079044401645660400e-02
2.989650145173072815e-02
3.254437446594238281e-01
-2.022397518157958984e-02
-5.930850654840469360e-02
4.831473156809806824e-02
-1.199726834893226624e-01
-1.325794756412506104e-01
-2.441444247961044312e-01
1.140700727701187134e-01
-4.207938015460968018e-01
1.363180279731750488e-01
1.704603731632232666e-01
4.191217571496963501e-02
5.491457581520080566e-01
-5.806912183761596680e-01
2.579713463783264160e-01
6.238071247935295105e-02
3.490697443485260010e-01
6.119974330067634583e-02
-7.336930632591247559e-01
6.201828122138977051e-01
-5.991066694259643555e-01
-3.583670854568481445e-01
3.300334811210632324e-01
3.151775300502777100e-01
1.883794814348220825e-01
-1.829177737236022949e-01
9.711752086877822876e-02
-1.906917840242385864e-01
4.040239453315734863e-01
-5.451479554176330566e-01
2.370609492063522339e-01
2.603199705481529236e-02
-1.182974800467491150e-01
4.391812980175018311e-01
-1.807865500450134277e-01
-1.245289295911788940e-01
6.160059198737144470e-02
5.759910866618156433e-02
6.136561930179595947e-02
-3.609169423580169678e-01
3.134516775608062744e-01
1.668226122856140137e-01
1.649147272109985352e-01
-2.049110680818557739e-01
-6.603901833295822144e-02
9.317573904991149902e-02
4.090188443660736084e-01
-2.860310375690460205e-01
5.964872241020202637e-02
-2.983190119266510010e-01
-1.430947333574295044e-01
3.040072321891784668e-01
-3.606724441051483154e-01
2.888643145561218262e-01
3.337356448173522949e-02
5.247147679328918457e-01
-4.506327807903289795e-01
-6.192489862442016602e-01
5.374043583869934082e-01
4.411657899618148804e-02
2.294241636991500854e-01
3.293797671794891357e-01
-2.762813307344913483e-02
-2.789771258831024170e-01
6.612431406974792480e-01
4.568992257118225098e-01
6.072723865509033203e-01
-6.196419000625610352e-01
2.278550714254379272e-01
-2.171970903873443604e-01
-2.967368066310882568e-01
5.677509307861328125e-01
-3.587486743927001953e-01
1.042388975620269775e-01
-1.555757075548171997e-01
4.186779260635375977e-01
-1.263027787208557129e-01
-5.725101828575134277e-01
6.336779892444610596e-02
1.622430086135864258e-01
2.696707844734191895e-01
1.158186346292495728e-01
3.930053114891052246e-01
-2.582099437713623047e-01
7.520676255226135254e-01
9.235008955001831055e-01
3.706720843911170959e-02
5.832746028900146484e-01
2.741793692111968994e-01
8.187696933746337891e-01
2.612354755401611328e-01
-4.344846904277801514e-01
2.430694401264190674e-01
-6.900637745857238770e-01
1.332204937934875488e+00
2.481727451086044312e-01
4.101375937461853027e-01
2.785475552082061768e-01
-8.868660330772399902e-01
1.009119272232055664e+00
1.157250553369522095e-01
-3.166724443435668945e-01
-6.451582312583923340e-01
-1.751116104423999786e-02
-2.753494083881378174e-01
-6.758579015731811523e-01
-8.865457773208618164e-01
7.875770926475524902e-01
1.977112293243408203e-01
2.458346337080001831e-01
1.185797378420829773e-01
-8.569031953811645508e-01
-1.899974420666694641e-02
1.146080419421195984e-01
2.367115393280982971e-02
-1.734257340431213379e-01
3.510843217372894287e-01
4.116291701793670654e-01
-4.775357991456985474e-02
5.654832348227500916e-04
-1.271484941244125366e-01
-2.364819496870040894e-01
-4.686030447483062744e-01
5.947270393371582031e-01
-1.513671278953552246e+00
-1.262973308563232422e+00
2.688061892986297607e-01
-4.522083997726440430e-01
1.581498533487319946e-01
-4.721164703369140625e-01
-4.427111148834228516e-01
2.080989032983779907e-01
-1.109684705734252930e+00
5.146141648292541504e-01
-1.780373901128768921e-01
-2.078550308942794800e-02
-3.948274254798889160e-01
-3.103276193141937256e-01
5.633301138877868652e-01
-8.495613932609558105e-01
1.053830504417419434e+00
6.644929200410842896e-02
-2.475933432579040527e-01
-1.097750663757324219e-01
1.453586518764495850e-01
3.509298563003540039e-01
-6.672641038894653320e-01
4.210827350616455078e-01
3.410273492336273193e-01
-7.883046567440032959e-02
2.787364423274993896e-01
-6.340991258621215820e-01
-2.354319095611572266e-01
1.042823195457458496e+00
-6.673245429992675781e-01
-9.935154318809509277e-01
4.845063984394073486e-01
6.719852089881896973e-01
6.579154133796691895e-01
-8.770980834960937500e-01
1.263798922300338745e-01
-4.938149452209472656e-01
-7.361266613006591797e-01
5.897964835166931152e-01
-7.481436729431152344e-01
-4.925501346588134766e-01
3.925910592079162598e-01
-5.257357954978942871e-01
1.277201175689697266e-01
7.880828529596328735e-02
-3.621200919151306152e-01
3.972297608852386475e-01
-5.111661553382873535e-01
-5.045467615127563477e-02
-4.393608570098876953e-01
5.075914040207862854e-02
-3.003804981708526611e-01
-2.977862060070037842e-01
2.514477372169494629e-01
5.729761347174644470e-02
5.202018618583679199e-01
5.136930942535400391e-01
1.253026872873306274e-01
-2.090875953435897827e-01
4.108494222164154053e-01
2.156120836734771729e-01
1.017152369022369385e-01
-4.534687995910644531e-01
6.327148079872131348e-01
2.052077651023864746e-02
-2.401161342859268188e-01
1.973678767681121826e-01
-8.648713827133178711e-01
2.260047346353530884e-01
-3.771618008613586426e-01
-7.663994282484054565e-02
-4.552049338817596436e-01
-9.556954354047775269e-02
5.915277004241943359e-01
-4.769923090934753418e-01
6.829686760902404785e-01
2.403683513402938843e-01
-2.936055660247802734e-01
-7.054382585920393467e-04
3.389937579631805420e-01
2.326627671718597412e-01
-3.754182159900665283e-01
1.113437563180923462e-01
-4.792048782110214233e-02
-1.439145058393478394e-01
6.312195956707000732e-02
-3.566927276551723480e-03
3.273348212242126465e-01
-1.172858178615570068e-01
3.945167735219001770e-02
-2.151241898536682129e-01
3.406416773796081543e-01
2.650989890098571777e-01
-2.122949212789535522e-01
-1.847570538520812988e-01
-5.622871592640876770e-02
-1.909558475017547607e-01
2.119307368993759155e-01
2.393805682659149170e-01
-8.188055455684661865e-02
-8.979716151952743530e-02
-1.114321053028106689e-01
-1.023837402462959290e-01
-4.617250859737396240e-01
-1.077729105949401855e+00
2.174820452928543091e-01
-2.452587783336639404e-01
2.497761398553848267e-01
3.940332829952239990e-01
-1.881469637155532837e-01
-6.549999117851257324e-01
3.524647653102874756e-01
4.914920032024383545e-01
-1.504717320203781128e-01
-5.996177196502685547e-01
-3.298253715038299561e-01
-1.124189123511314392e-01
4.830988943576812744e-01
7.701358795166015625e-01
1.053146198391914368e-01
8.091343045234680176e-01
-7.617490738630294800e-02
2.261838763952255249e-01
3.677992522716522217e-01
1.530728936195373535e+00
-2.225599884986877441e-01
2.574238181114196777e-01
-2.611494958400726318e-01
-5.285137891769409180e-01
3.365796208381652832e-01
3.255205154418945312e-01
-3.465065658092498779e-01
-3.261492550373077393e-01
-1.071328949183225632e-02
4.190838634967803955e-01
4.309967458248138428e-01
1.352349221706390381e-01
-7.350289225578308105e-01
-2.709465324878692627e-01
1.787790209054946899e-01
-1.196906939148902893e-01
-7.379454374313354492e-01
6.040890216827392578e-01
-4.919074773788452148e-01
1.305137574672698975e-01
2.934840023517608643e-01
-3.806233406066894531e-01
1.949108690023422241e-01
2.316693030297756195e-02
1.282234094105660915e-03
-4.342293441295623779e-01
4.752362966537475586e-01
5.353720784187316895e-01
-5.693278461694717407e-02
-2.150430083274841309e-01
-1.307176500558853149e-01
-1.371172815561294556e-01
-7.632268965244293213e-02
2.127673625946044922e-01
-3.369660675525665283e-01
-4.982603788375854492e-01
-5.514196678996086121e-02
-5.257356166839599609e-01
-7.441747784614562988e-01
-2.058651447296142578e-01
4.526694491505622864e-02
-8.869912475347518921e-02
-5.132965445518493652e-01
-1.080771610140800476e-01
4.027034044265747070e-01
1.724576801061630249e-01
-5.081371665000915527e-01
-4.451192617416381836e-01
6.503075957298278809e-01
-3.430291637778282166e-02
6.057308316230773926e-01
4.778723418712615967e-01
-5.372484326362609863e-01
-2.889588475227355957e-01
4.840355217456817627e-01
-5.651758313179016113e-01
1.505662351846694946e-01
-4.410084187984466553e-01
8.655886054039001465e-01
2.383148297667503357e-03
-2.680363059043884277e-01
4.243981540203094482e-01
-8.097897768020629883e-01
8.948006629943847656e-01
1.816378682851791382e-01
1.844441443681716919e-01
-3.454388380050659180e-01
-2.597046196460723877e-01
1.210962295532226562e+00
-1.079731732606887817e-01
3.319779932498931885e-01
6.677015423774719238e-01
-1.650245115160942078e-02
-3.144950866699218750e-01
1.607020050287246704e-01
-6.455130130052566528e-02
-1.012926325201988220e-01
-4.549695551395416260e-01
-1.056141033768653870e-01
-3.963423669338226318e-01
1.258060336112976074e-02
1.560744494199752808e-01
-3.681926429271697998e-01
9.309144318103790283e-02
6.506910920143127441e-01
1.763562709093093872e-01
-4.559291005134582520e-01
-2.489995211362838745e-01
1.481769979000091553e-01
3.671918809413909912e-01
4.020714461803436279e-01
2.885229326784610748e-02
-6.783933639526367188e-01
-7.312246561050415039e-01
4.848596155643463135e-01
-4.054703116416931152e-01
-7.840533256530761719e-01
-1.788426749408245087e-02
2.005105763673782349e-01
-2.793561220169067383e-01
-3.226701319217681885e-01
-8.736891150474548340e-01
4.176431149244308472e-02
-3.791261911392211914e-01
7.666696608066558838e-02
1.545398775488138199e-02
2.369420975446701050e-01
-7.132542878389358521e-02
1.015744730830192566e-01
-9.507790952920913696e-02
-1.618239730596542358e-01
-2.792774140834808350e-01
1.815516948699951172e-01
9.176086187362670898e-01
-1.777168750762939453e+00
1.977576911449432373e-01
-8.456264622509479523e-03
-3.486870229244232178e-01
-1.277845501899719238e-01
-4.830698072910308838e-01
-2.205490916967391968e-01
4.187729060649871826e-01
-4.460922479629516602e-01
5.183414220809936523e-01
2.417403757572174072e-01
7.937302812933921814e-03
-3.537378609180450439e-01
-8.674240708351135254e-01
2.908380925655364990e-01
1.193111315369606018e-01
3.935465589165687561e-02
2.362171709537506104e-01
1.001821234822273254e-01
-5.281049609184265137e-01
-3.269153088331222534e-02
-5.383601188659667969e-01
-5.006878972053527832e-01
-3.639776408672332764e-01
-3.040745854377746582e-02
-5.453225970268249512e-01
4.077540040016174316e-01
1.508441567420959473e-01
-3.843242526054382324e-01
1.339054405689239502e-01
5.282480120658874512e-01
5.243125185370445251e-02
-1.283401697874069214e-01
-6.710472702980041504e-01
-1.169278547167778015e-01
-8.519936352968215942e-02
1.864442825317382812e-01
1.691894084215164185e-01
-3.541741669178009033e-01
-4.789689481258392334e-01
2.064867466688156128e-01
-5.924465656280517578e-01
5.543317794799804688e-01
-4.354161396622657776e-02
1.147351935505867004e-01
3.353039622306823730e-01
1.834546178579330444e-01
2.256784886121749878e-01
-3.416419923305511475e-01
7.010990381240844727e-01
1.545340120792388916e-01
3.648724853992462158e-01
1.095898523926734924e-01
2.777708470821380615e-01
7.655049562454223633e-01
7.561424970626831055e-01
5.998992919921875000e-02
3.372432291507720947e-01
4.030568525195121765e-02
2.453936785459518433e-01
-3.813562169671058655e-02
1.786871999502182007e-01
-4.704929888248443604e-01
-1.308028250932693481e-01
1.205451250076293945e+00
3.229609131813049316e-01
6.540721058845520020e-01
-6.673589944839477539e-01
6.960130482912063599e-02
1.278001517057418823e-01
-1.031610518693923950e-01
-1.587901115417480469e-01
2.959585487842559814e-01
2.314375787973403931e-01
-8.333923220634460449e-01
-4.907583892345428467e-01
2.068108469247817993e-01
4.004130661487579346e-01
3.845027089118957520e-02
1.209831386804580688e-01
2.196335196495056152e-01
-2.741444110870361328e-02
-1.711037592031061649e-03
-3.146439194679260254e-01
5.182589888572692871e-01
-8.436430245637893677e-03
-1.518830005079507828e-02
4.192079901695251465e-01
-4.924430847167968750e-01
6.044646501541137695e-01
5.304178595542907715e-02
2.692167460918426514e-01
-1.276425272226333618e-01
-3.571337461471557617e-01
5.027067065238952637e-01
2.055304944515228271e-01
1.365282982587814331e-01
7.032887935638427734e-01
-1.400172859430313110e-01
-2.285892665386199951e-01
-1.435484737157821655e-01
-3.078628778457641602e-01
2.975029945373535156e-01
2.028485834598541260e-01
-2.419665828347206116e-02
5.329729318618774414e-01
9.247002005577087402e-02
-1.591854989528656006e-01
1.110729575157165527e-01
-1.191963553428649902e-01
-1.016220092773437500e+00
-3.189136981964111328e-01
1.060232296586036682e-01
6.883688569068908691e-01
-3.960654735565185547e-01
-3.106014728546142578e-01
-3.670188486576080322e-01
-4.081088006496429443e-01
2.272445857524871826e-01
7.266200184822082520e-01
-2.950209975242614746e-01
6.815904378890991211e-01
-3.254663646221160889e-01
6.286720037460327148e-01
3.662041723728179932e-01
-6.567326933145523071e-02
2.455010116100311279e-01
-1.442777812480926514e-01
4.681069254875183105e-01
-2.096807658672332764e-01
-2.759836018085479736e-01
-2.630237936973571777e-01
2.847869694232940674e-01
2.480108290910720825e-01
-1.915577292442321777e+00
-5.778651311993598938e-02
-4.296582639217376709e-01
-4.747569262981414795e-01
8.888468146324157715e-02
1.806438155472278595e-02
-1.170625537633895874e-01
1.942482739686965942e-01
4.423427283763885498e-01
6.746705770492553711e-01
-3.268668353557586670e-01
3.501824801787734032e-03
7.350848615169525146e-02
-3.157861232757568359e-01
3.437322378158569336e-01
-2.738543450832366943e-01
-4.776808321475982666e-01
-4.151967465877532959e-01
3.345632255077362061e-01
3.739844858646392822e-01
-3.778781890869140625e-01
-2.169614136219024658e-01
-7.255440354347229004e-01
-5.130021572113037109e-01
3.684979975223541260e-01
1.388416886329650879e-01
-2.381628900766372681e-01
6.432808637619018555e-01
-2.047355771064758301e-01
-4.686865806579589844e-01
3.174971938133239746e-01
3.416988253593444824e-01
4.805531799793243408e-01
2.238411158323287964e-01
-1.793932355940341949e-02
2.609696984291076660e-01
1.882548332214355469e-01
-1.197336390614509583e-01
-1.450354903936386108e-01
-6.948462873697280884e-02
2.264206409454345703e-01
2.326517552137374878e-01
1.389600485563278198e-01
3.510883450508117676e-01
-1.349295973777770996e-01
-1.723353415727615356e-01
1.003858566284179688e+00
-2.559984326362609863e-01
1.896979659795761108e-01
-1.305595785379409790e-01
2.254576534032821655e-01
3.747082054615020752e-01
9.225677847862243652e-01
5.150729417800903320e-01
-1.476470828056335449e-01
2.559149265289306641e-01
-1.097311526536941528e-01
-2.966936230659484863e-01
1.741103641688823700e-02
8.466415405273437500e-01
-7.752370089292526245e-02
-1.451136469841003418e-01
3.342944383621215820e-01
2.984918057918548584e-01
-1.142021045088768005e-01
-7.893218994140625000e-01
1.224218130111694336e+00
-1.118846759200096130e-01
6.088721007108688354e-02
4.388850554823875427e-02
-8.914294838905334473e-01
3.876378536224365234e-01
2.887556552886962891e-01
2.688913606107234955e-03
3.282541632652282715e-01
9.664369747042655945e-03
1.129842549562454224e-01
1.490450054407119751e-01
9.746446013450622559e-01
9.944212436676025391e-01
-1.386314351111650467e-02
-4.528636038303375244e-01
-2.172243744134902954e-01
-1.375140249729156494e-01
2.501944005489349365e-01
2.219233065843582153e-01
-3.804800286889076233e-02
1.923836469650268555e-01
-2.906909584999084473e-01
-4.235784709453582764e-01
3.919039666652679443e-01
-3.297392129898071289e-01
-1.823433190584182739e-01
2.586426436901092529e-01
-4.054883420467376709e-01
3.064249753952026367e-01
5.168504118919372559e-01
2.165907323360443115e-01
-3.831798434257507324e-01
-5.295076966285705566e-01
-1.301163248717784882e-02
3.521654307842254639e-01
5.572265982627868652e-01
1.814106702804565430e-01
-1.254061460494995117e-01
-3.153072893619537354e-01
2.140113115310668945e-01
-6.993654370307922363e-01
-5.124219655990600586e-01
-1.686245799064636230e-01
-1.197300329804420471e-01
-9.914675354957580566e-01
-1.384601116180419922e+00
5.827203392982482910e-02
-4.135688543319702148e-01
7.453553378582000732e-02
7.208684682846069336e-01
1.149298191070556641e+00
-4.578683078289031982e-01
-2.459885597229003906e+00
1.422519236803054810e-01
2.229804098606109619e-01
3.985467851161956787e-01
3.007809817790985107e-01
3.076142370700836182e-01
1.444135010242462158e-01
-1.312538702040910721e-02
-3.896462619304656982e-01
2.472808063030242920e-01
5.980064272880554199e-01
1.168556883931159973e-01
2.150113284587860107e-01
-8.093635737895965576e-02
-7.986818253993988037e-02
3.885624706745147705e-01
-7.609480619430541992e-02
-4.286570847034454346e-01
-2.665930390357971191e-01
3.691245913505554199e-01
1.239538118243217468e-01
-2.291686385869979858e-01
-5.169916152954101562e-02
-4.483506381511688232e-01
-2.358507513999938965e-01
4.880799353122711182e-01
5.955946445465087891e-01
-7.439321875572204590e-01
3.706613183021545410e-01
1.433608233928680420e-01
2.657132446765899658e-01
8.458899855613708496e-01
-1.297799497842788696e-01
1.023930191993713379e+00
1.800140291452407837e-01
-2.762260101735591888e-02
7.320093456655740738e-03
-8.862499892711639404e-02
-2.699049413204193115e-01
-8.417782187461853027e-01
3.033504188060760498e-01
1.943523734807968140e-01
-9.532663971185684204e-02
3.488954529166221619e-02
-1.252846270799636841e-01
1.009378358721733093e-01
-3.326864242553710938e-01
1.281177997589111328e-01
1.833435893058776855e-01
1.775386035442352295e-01
-2.726546823978424072e-01
-7.967372238636016846e-02
-4.923892915248870850e-01
-8.033370971679687500e-02
-9.469592478126287460e-04
-4.204392433166503906e-01
2.277445942163467407e-01
7.458791732788085938e-01
7.797821760177612305e-01
-4.581044912338256836e-01
-7.344239950180053711e-01
1.003890484571456909e-02
1.759902685880661011e-01
1.142076477408409119e-01
2.697747349739074707e-01
-2.673490047454833984e-01
-3.945155069231987000e-02
-7.718051224946975708e-02
-6.979748606681823730e-01
5.713420510292053223e-01
8.134757727384567261e-02
6.135622859001159668e-01
3.697972297668457031e-01
-9.222559332847595215e-01
1.676331162452697754e-01
-2.753832750022411346e-02
-1.142354756593704224e-01
-2.002634257078170776e-01
-1.641782820224761963e-01
-1.648093909025192261e-01
2.013458758592605591e-01
2.327680587768554688e-01
2.365592479705810547e+00
-1.365505754947662354e-01
-1.057492569088935852e-01
3.694799914956092834e-02
-1.036116853356361389e-02
-2.671797573566436768e-01
-5.577556788921356201e-02
2.466702461242675781e-01
7.280658930540084839e-02
-8.038962632417678833e-02
3.660582005977630615e-01
4.973824918270111084e-01
-6.231057271361351013e-02
2.654364705085754395e-01
3.689265847206115723e-01
-2.470762878656387329e-01
-3.411634564399719238e-01
-2.312718033790588379e-01
5.344375371932983398e-01
4.226000905036926270e-01
-1.014828085899353027e-01
1.909753233194351196e-01
1.287627667188644409e-01
-4.704063236713409424e-01
6.964096426963806152e-02
5.943256616592407227e-02
-2.419634908437728882e-02
-2.518105804920196533e-01
4.231171682476997375e-02
1.024392172694206238e-01
-3.221041262149810791e-01
3.397637009620666504e-01
-1.313872337341308594e+00
7.527351379394531250e-01
-1.661347299814224243e-01
-2.885113656520843506e-01
1.370103478431701660e+00
1.637309938669204712e-01
1.557190995663404465e-02
3.722404539585113525e-01
-1.764776557683944702e-01
-9.040005505084991455e-02
5.034254491329193115e-02
2.277225404977798462e-01
2.418012171983718872e-01
1.222774945199489594e-02
-2.082417160272598267e-01
-1.888338327407836914e-01
4.483118951320648193e-01
-1.222868710756301880e-01
2.429058961570262909e-02
3.957305252552032471e-01
-1.491620779037475586e+00
-4.351104199886322021e-01
-4.470517486333847046e-02
-1.296156346797943115e-01
7.145152091979980469e-01
1.569773852825164795e-01
-1.640646308660507202e-01
-2.712735235691070557e-01
1.941195428371429443e-01
-2.258081287145614624e-01
2.330316603183746338e-01
4.154032468795776367e-02
-1.657836288213729858e-01
7.291908562183380127e-02
-3.765141665935516357e-01
-2.045912295579910278e-01
2.656573951244354248e-01
1.235928088426589966e-01
1.373082771897315979e-02
1.463954746723175049e-01
-9.093558192253112793e-01
-1.365063071250915527e+00
-6.738478690385818481e-02
-1.557670086622238159e-01
-6.194290518760681152e-01
2.772147059440612793e-01
-1.352529823780059814e-01
1.628210544586181641e-01
1.918964236974716187e-01
-2.805554866790771484e-01
-1.084934771060943604e-01
3.198041021823883057e-01
-4.891711771488189697e-01
1.667376756668090820e-01
-1.184245109558105469e+00
-1.391311436891555786e-01
-8.703400492668151855e-01
5.318045616149902344e-02
-3.811120390892028809e-01
-3.439488410949707031e-01
7.013614177703857422e-01
2.868705987930297852e-01
-1.948211491107940674e-01
5.737101435661315918e-01
-3.740425780415534973e-02
2.962157130241394043e-01
-3.591432869434356689e-01
-2.865917384624481201e-01
1.468043625354766846e-01
-1.738970428705215454e-01
-8.954547643661499023e-01
3.311594128608703613e-01
5.403959751129150391e-02
-1.152201667428016663e-01
1.328595634549856186e-02
5.518436059355735779e-02
-1.989323496818542480e-01
3.899954259395599365e-02
2.586953043937683105e-01
-1.743035912513732910e-01
5.101423859596252441e-01
-9.677888453006744385e-02
2.370824813842773438e-01
-1.950083076953887939e-01
-1.565482467412948608e-01
-1.753818430006504059e-02
1.164647936820983887e-01
6.544801406562328339e-03
-2.617182135581970215e-01
-1.009999811649322510e-01
2.847911715507507324e-01
1.420922875404357910e-01
-3.825601935386657715e-01
-3.514542058110237122e-02
3.684279918670654297e-01
-2.909248173236846924e-01
-5.582435131072998047e-01
-4.646910727024078369e-02
-6.533319950103759766e-01
-1.535868763923645020e+00
3.130966722965240479e-01
1.799189001321792603e-01
-2.662000656127929688e-01
8.640919327735900879e-01
-1.051220968365669250e-01
2.704414129257202148e-01
2.675191760063171387e-01
5.415031909942626953e-01
7.150582075119018555e-01
-2.800129354000091553e-01
-4.014088511466979980e-01
3.095943331718444824e-01
6.054158881306648254e-02
-4.732249081134796143e-01
-2.421072572469711304e-01
-2.616646885871887207e-01
-2.157752588391304016e-02
-2.133352160453796387e-01
-7.775298357009887695e-01
7.595525383949279785e-01
2.870838344097137451e-01
-2.663397789001464844e-01
-7.630849629640579224e-02
1.515946686267852783e-01
-1.171721220016479492e-01
-2.142144441604614258e-01
2.161512225866317749e-01
9.867941141128540039e-01
6.346381306648254395e-01
1.809998005628585815e-01
-5.967218279838562012e-01
-4.791856706142425537e-01
-8.482756614685058594e-01
-9.043495059013366699e-01
4.061481952667236328e-01
9.272549301385879517e-02
-4.672423005104064941e-02
-2.797350883483886719e-01
3.776097297668457031e-01
2.103951573371887207e-01
3.478056788444519043e-01
1.765644311904907227e+00
3.190882205963134766e-01
-3.255690261721611023e-02
-1.608050763607025146e-01
-3.039477169513702393e-01
-1.650208085775375366e-01
-5.959551930427551270e-01
2.059507966041564941e-01
3.650407493114471436e-01
2.786691188812255859e-01
-1.819085627794265747e-01
-1.027829051017761230e+00
-9.732440859079360962e-02
5.906488895416259766e-01
1.041215509176254272e-01
2.091114223003387451e-01
-3.316257596015930176e-01
-1.574145443737506866e-02
-3.078441917896270752e-01
2.650456726551055908e-01
2.032122947275638580e-02
-2.975546121597290039e-01
-5.534981489181518555e-01
-1.789829432964324951e-01
3.156717717647552490e-01
1.570142209529876709e-01
-8.980494737625122070e-01
-2.582463622093200684e-01
-2.952861189842224121e-01
3.679332882165908813e-02
4.344595074653625488e-01
1.502609968185424805e+00
1.162893846631050110e-01
-3.268690705299377441e-01
2.929345965385437012e-01
6.907605379819869995e-02
1.511080376803874969e-02
8.274028301239013672e-01
8.728445768356323242e-01
-1.440455019474029541e-01
4.640565067529678345e-02
9.064908325672149658e-02
-5.574859380722045898e-01
-7.094923406839370728e-03
-1.440449506044387817e-01
2.361892759799957275e-01
-8.563135564327239990e-02
-4.041084349155426025e-01
4.869648218154907227e-01
1.465692967176437378e-01
-4.952346384525299072e-01
-2.350600063800811768e-01
3.849437832832336426e-01
7.957995682954788208e-02
2.582609355449676514e-01
-2.084504514932632446e-01
-2.564067840576171875e-01
1.508800983428955078e-01
-1.005882993340492249e-01
6.686872839927673340e-01
7.810088992118835449e-01
3.851294815540313721e-01
2.174393236637115479e-01
4.086803272366523743e-02
-3.820331692695617676e-01
1.798686012625694275e-02
-5.270828008651733398e-01
1.315565407276153564e-01
2.023273408412933350e-01
4.074739813804626465e-01
-1.562016159296035767e-01
-1.042276740074157715e+00
-6.948383152484893799e-02
4.522677063941955566e-01
2.357847988605499268e-01
4.138079285621643066e-01
-6.055354326963424683e-02
8.565588295459747314e-02
-7.589557021856307983e-02
-1.488846838474273682e-01
-1.285371661186218262e+00
8.172447979450225830e-02
-3.013485372066497803e-01
-7.358809113502502441e-01
1.250005215406417847e-01
3.186666965484619141e-01
-1.937892585992813110e-01
1.508793532848358154e-01
-1.292469203472137451e-01
1.023365780711174011e-01
1.935443133115768433e-01
6.039046049118041992e-01
5.243797320872545242e-03
-1.800801277160644531e+00
-8.957886099815368652e-01
2.839674353599548340e-01
2.339591085910797119e-01
-1.161049976944923401e-01
1.250783652067184448e-01
-1.245805621147155762e+00
-1.451549887657165527e+00
-2.011564522981643677e-01
-1.310362368822097778e-01
2.212386578321456909e-01
-6.279016286134719849e-02
-6.440192461013793945e-02
3.043170459568500519e-02
-3.693599700927734375e-01
-8.658873289823532104e-02
-1.877007484436035156e-01
2.577894628047943115e-01
-2.257738448679447174e-02
-6.319296360015869141e-02
-3.304979205131530762e-01
2.763503789901733398e-01
4.410837888717651367e-01
1.046119406819343567e-01
3.191411122679710388e-02
9.819417595863342285e-01
8.138529658317565918e-01
-4.313444793224334717e-01
1.777110844850540161e-01
-7.397897839546203613e-01
-1.361825704574584961e+00
-7.049499452114105225e-02
2.171799913048744202e-02
3.678771480917930603e-02
-3.938774168491363525e-01
1.160138323903083801e-01
5.827803909778594971e-02
-8.253832161426544189e-02
9.286680072546005249e-02
3.743820488452911377e-01
-1.247704625129699707e-01
-6.127635836601257324e-01
2.780725359916687012e-01
3.359037041664123535e-01
-1.646298617124557495e-01
-4.762832224369049072e-01
8.351258188486099243e-02
-1.050881445407867432e-01
-4.098828136920928955e-01
3.497686088085174561e-01
4.215016663074493408e-01
7.327367663383483887e-01
-1.421769857406616211e-01
-3.298068046569824219e-01
1.524581462144851685e-01
-5.605592727661132812e-01
-2.655347883701324463e-01
6.633768081665039062e-01
3.563302457332611084e-01
-1.412307471036911011e-01
-1.544312387704849243e-01
2.149091064929962158e-01
4.158989340066909790e-02
-7.124831527471542358e-02
4.944979846477508545e-01
4.474137723445892334e-01
-4.378536343574523926e-01
1.672071665525436401e-01
3.140063285827636719e-01
-6.162878870964050293e-01
-3.208391070365905762e-01
-1.195476204156875610e-01
3.497039079666137695e-01
1.901801079511642456e-01
-2.150811702013015747e-01
4.278789758682250977e-01
1.431645601987838745e-01
-1.050223708152770996e-01
-2.946142256259918213e-01
4.143572151660919189e-01
3.879873454570770264e-02
2.984386086463928223e-01
-3.436942994594573975e-01
-4.330126941204071045e-01
3.096075654029846191e-01
1.940439939498901367e-01
5.220244526863098145e-01
1.489198058843612671e-01
3.478607833385467529e-01
-1.177587360143661499e-01
-3.161683976650238037e-01
-1.944819241762161255e-01
4.321146011352539062e-01
1.037477374076843262e+00
-2.141494303941726685e-01
5.134217143058776855e-01
2.683111429214477539e-01
-4.030463695526123047e-01
-3.217347562313079834e-01
-2.038854919373989105e-02
2.753220796585083008e-01
6.860187649726867676e-02
-5.057114362716674805e-01
-3.656272888183593750e-01
-6.044854968786239624e-02
-2.522737383842468262e-01
6.992868185043334961e-01
4.289495050907135010e-01
3.184008896350860596e-01
-1.022835820913314819e-01
3.294801339507102966e-02
4.238144680857658386e-02
-1.081218570470809937e-02
6.365542411804199219e-01
7.146317046135663986e-03
2.244253158569335938e-01
2.839103043079376221e-01
6.191098690032958984e-02
2.019434571266174316e-01
1.056510284543037415e-01
1.271227896213531494e-01
2.858895063400268555e-01
-3.034379146993160248e-02
-2.976608276367187500e-01
1.708095371723175049e-01
4.138561785221099854e-01
-1.667656898498535156e-01
2.365588992834091187e-01
5.352405309677124023e-01
-3.161506056785583496e-01
-1.164709925651550293e-01
-4.068322479724884033e-01
1.265492588281631470e-01
1.695889085531234741e-01
-7.826922833919525146e-02
2.378083169460296631e-01
2.041558325290679932e-01
-4.401222765445709229e-01
-5.047745108604431152e-01
2.806499600410461426e-01
-1.077075395733118057e-02
2.845147848129272461e-01
-1.657046973705291748e-01
-2.964524030685424805e-01
4.124021530151367188e-01
-1.216541156172752380e-01
2.430168986320495605e-01
3.702532947063446045e-01
2.058490812778472900e-01
-6.819519996643066406e-01
-1.435474902391433716e-01
4.180216416716575623e-02
1.067034378647804260e-01
3.866873979568481445e-01
-9.425285458564758301e-01
1.420899182558059692e-01
3.385134041309356689e-01
-1.995450407266616821e-01
-2.118509262800216675e-01
1.307580828666687012e+00
1.702472269535064697e-01
-2.806110382080078125e-01
-1.516120135784149170e-01
-3.746002539992332458e-02
-5.332695320248603821e-02
1.212070956826210022e-01
3.207087889313697815e-02
1.965558901429176331e-02
2.536396682262420654e-01
-2.572497725486755371e-01
4.541741609573364258e-01
6.054763868451118469e-02
-1.908065676689147949e-01
-9.343693405389785767e-02
1.465234607458114624e-01
-4.382185339927673340e-01
2.527052760124206543e-01
3.295353353023529053e-01
3.355844020843505859e-01
3.567318022251129150e-01
-1.558509767055511475e-01
-1.303915381431579590e+00
-1.569958627223968506e-01
-1.188537105917930603e-01
5.800073146820068359e-01
4.353771731257438660e-02
3.279096782207489014e-01
-6.479695439338684082e-01
-1.153626292943954468e-02
2.428365796804428101e-01
-1.885529905557632446e-01
8.191115222871303558e-03
-1.376426666975021362e-01
-1.068559065461158752e-01
2.690773010253906250e-01
-2.171223461627960205e-01
-2.936483547091484070e-02
1.740266233682632446e-01
-4.299981892108917236e-01
-1.540163457393646240e-01
-2.039166167378425598e-02
8.333319425582885742e-02
5.958848595619201660e-01
-6.135110259056091309e-01
4.007949680089950562e-02
-1.423227135092020035e-02
3.641360998153686523e-02
9.116978198289871216e-02
8.366167545318603516e-01
2.213707193732261658e-02
6.854527443647384644e-02
5.010920763015747070e-01
-5.331395268440246582e-01
-8.403592705726623535e-01
-2.115224748849868774e-01
-1.670463569462299347e-02
-3.836678713560104370e-02
-3.641082672402262688e-03
8.131625652313232422e-01
2.441971898078918457e-01
3.839458804577589035e-03
-9.378276765346527100e-02
2.997000217437744141e-01
-5.769539475440979004e-01
3.346718251705169678e-01
3.594910204410552979e-01
8.115149289369583130e-02
-8.228378295898437500e-01
3.418488502502441406e-01
7.549232840538024902e-01
1.193401813507080078e-01
-4.911967739462852478e-02
-3.931574523448944092e-01
-3.838866651058197021e-01
-1.198233962059020996e-01
1.142794936895370483e-01
2.742701470851898193e-01
2.102113813161849976e-01
8.466205745935440063e-02
8.852061629295349121e-02
8.562603592872619629e-02
2.453590482473373413e-01
7.080790400505065918e-01
-1.626101732254028320e-01
-1.196642994880676270e+00
1.188671439886093140e-01
-6.456571817398071289e-01
-1.447068005800247192e-01
2.452369779348373413e-01
1.709979325532913208e-01
2.333776950836181641e-01
6.966210156679153442e-02
-1.759012937545776367e-01
-1.930379271507263184e-01
5.944898724555969238e-01
-4.003918766975402832e-01
5.417178273200988770e-01
-1.292261928319931030e-01
-1.503446251153945923e-01
9.222044050693511963e-02
3.368821740150451660e-01
4.199514091014862061e-01
2.116199135780334473e-01
3.698697388172149658e-01
-3.369757533073425293e-01
-1.472711861133575439e-01
-1.373808532953262329e-01
1.448235034942626953e+00
-6.373722851276397705e-02
-9.015631079673767090e-01
4.405716955661773682e-01
2.806346490979194641e-02
3.183971941471099854e-01
7.692584395408630371e-02
-2.181844562292098999e-01
-1.026892289519309998e-01
-2.678752243518829346e-01
1.478784233331680298e-01
2.182912267744541168e-02
2.683749198913574219e-01
-2.691933214664459229e-01
-7.726982235908508301e-03
3.580415993928909302e-02
-1.533706784248352051e-01
6.720300018787384033e-02
3.289449810981750488e-01
9.513031691312789917e-02
-1.670928746461868286e-01
5.203882455825805664e-01
-4.641548171639442444e-02
4.197088479995727539e-01
2.106790542602539062e-01
-2.536026239395141602e-01
-7.752485275268554688e-01
1.339033097028732300e-01
-1.024252772331237793e-01
9.756226837635040283e-02
4.953889250755310059e-01
2.614639401435852051e-01
3.573346436023712158e-01
-4.751637578010559082e-02
8.322151750326156616e-02
1.074656605720520020e+00
2.002359777688980103e-01
-2.946309149265289307e-01
7.113241404294967651e-02
4.630426764488220215e-01
-4.740474224090576172e-01
3.013371527194976807e-01
-1.792155653238296509e-01
-2.882101535797119141e-01
1.337011754512786865e-01
-1.084214225411415100e-01
-4.562363028526306152e-02
-4.202841222286224365e-01
-2.793636918067932129e-01
-4.436675906181335449e-01
3.832241296768188477e-01
2.140266299247741699e-01
2.145030647516250610e-01
-2.870743870735168457e-01
1.565749645233154297e-01
-6.588632613420486450e-02
2.681308686733245850e-01
2.373569086194038391e-02
-3.305083811283111572e-01
-2.375455349683761597e-01
-4.472036659717559814e-02
-1.724636256694793701e-01
3.575038909912109375e-01
-2.912673056125640869e-01
-2.249201536178588867e-01
1.862258613109588623e-01
2.372068315744400024e-01
-5.094760563224554062e-03
2.367152273654937744e-01
-2.080157697200775146e-01
-6.643185019493103027e-02
-3.978306353092193604e-01
-2.654241919517517090e-01
1.480936110019683838e-01
-5.224841833114624023e-02
1.110615372657775879e+00
3.764451444149017334e-01
-4.678359329700469971e-01
-1.923486739397048950e-01
-8.666954934597015381e-02
-1.684965193271636963e-01
-3.014921844005584717e-01
4.923668503761291504e-01
-4.206998273730278015e-02
-2.303389012813568115e-01
3.310060501098632812e-01
1.027736783027648926e+00
1.058393001556396484e+00
1.257690042257308960e-01
-2.966388128697872162e-02
7.604526821523904800e-03
-2.310561835765838623e-01
2.157551981508731842e-02
-1.677797921001911163e-02
1.264265477657318115e-01
-1.618612110614776611e-01
2.168536186218261719e-01
-1.058773249387741089e-01
-3.883726596832275391e-01
-6.909319013357162476e-02
9.765431284904479980e-02
-4.162528514862060547e-01
2.143800258636474609e-01
-1.457414180040359497e-01
-5.523074269294738770e-01
3.308288753032684326e-01
5.156182646751403809e-01
3.618219494819641113e-02
5.560502409934997559e-01
-2.525077760219573975e-01
-1.359338164329528809e-01
1.964494027197360992e-02
-3.390556573867797852e-01
-2.614229917526245117e-01
1.978067755699157715e-01
-2.375591546297073364e-01
-9.057307988405227661e-02
1.176756918430328369e-01
-2.879483997821807861e-01
6.282212734222412109e-01
-6.362749338150024414e-01
3.740153089165687561e-02
1.901230961084365845e-01
-4.817154705524444580e-01
-1.635112166404724121e-01
1.391547322273254395e-01
1.125676929950714111e-01
-2.783215939998626709e-01
-2.943112142384052277e-02
-3.680686056613922119e-01
-1.779332906007766724e-01
3.041651844978332520e-02
1.772052347660064697e-01
-3.749486207962036133e-01
3.829689025878906250e-01
-3.223461508750915527e-01
-1.574813574552536011e-01
-5.543994903564453125e-01
-2.280705124139785767e-01
-2.030041813850402832e-01
-1.040436029434204102e+00
-1.673203706741333008e-01
1.018474936485290527e+00
1.542722433805465698e-01
-3.191996216773986816e-01
3.792060613632202148e-01
-1.207077130675315857e-02
8.865442872047424316e-02
2.206313908100128174e-01
1.064727753400802612e-01
7.721901684999465942e-02
2.519978880882263184e-01
-4.967518895864486694e-02
1.833449155092239380e-01
1.553256064653396606e-01
3.758370578289031982e-01
5.381923913955688477e-01
-1.107933223247528076e-01
-5.913687944412231445e-01
-1.726954132318496704e-01
-1.992540061473846436e-01
-8.147013187408447266e-01
6.645363569259643555e-02
-2.561243772506713867e-01
-9.378057122230529785e-01
3.629179596900939941e-01
7.071232199668884277e-01
-2.433975972235202789e-02
2.273140102624893188e-01
-9.887076914310455322e-02
-3.128449022769927979e-01
-1.761050820350646973e-01
1.852550776675343513e-04
6.004340015351772308e-03
7.488391399383544922e-01
5.966728329658508301e-01
-8.736275136470794678e-03
-4.805047810077667236e-01
-5.599755048751831055e-02
7.175934314727783203e-02
-5.384678766131401062e-02
-3.063383698463439941e-01
3.592905700206756592e-01
3.277951180934906006e-01
9.203487075865268707e-03
6.247791647911071777e-02
1.586299389600753784e-01
-5.863169580698013306e-02
4.224819317460060120e-02
1.354056000709533691e-01
1.634618341922760010e-01
-3.056688606739044189e-01
2.374970465898513794e-01
-6.740593910217285156e-02
-1.558692574501037598e+00
-3.374172747135162354e-01
-5.152336359024047852e-01
2.986708879470825195e-01
3.627741932868957520e-01
-1.750860363245010376e-01
4.553508460521697998e-01
3.392767906188964844e-01
-9.331644177436828613e-01
1.779214441776275635e-01
3.792970776557922363e-01
-5.108518600463867188e-01
-8.188114315271377563e-02
-1.037034988403320312e+00
-6.638673692941665649e-02
5.692649260163307190e-02
3.314298689365386963e-01
6.375405192375183105e-01
1.480246186256408691e-01
-1.627238094806671143e-01
-4.918848872184753418e-01
1.577170938253402710e-01
5.473496317863464355e-01
1.369003653526306152e-01
-1.564075946807861328e-01
-1.898572593927383423e-01
1.030514955520629883e+00
-1.410414278507232666e-01
-7.878690958023071289e-01
2.560477256774902344e-01
5.021553635597229004e-01
-3.041386008262634277e-01
-1.856456100940704346e-01
6.202471908181905746e-03
-5.596496909856796265e-02
4.373074769973754883e-01
-1.580290347337722778e-01
-3.095153570175170898e-01
-3.811520636081695557e-01
3.884450495243072510e-01
-7.134137749671936035e-01
3.331508934497833252e-01
4.794716835021972656e-01
2.777791917324066162e-01
1.180316209793090820e-01
9.003245830535888672e-02
5.911419987678527832e-01
1.873724311590194702e-01
-9.801765680313110352e-01
9.100963920354843140e-02
1.595882177352905273e-01
-3.410454988479614258e-01
4.365342557430267334e-01
-4.571103677153587341e-02
-9.849035739898681641e-02
-3.637081757187843323e-02
4.282772243022918701e-01
-6.149672344326972961e-02
-4.552742466330528259e-02
8.943097293376922607e-02
2.338866442441940308e-01
6.897749304771423340e-01
7.524371147155761719e-01
-1.973259687423706055e+00
-1.709922850131988525e-01
-6.116932034492492676e-01
-6.087762713432312012e-01
-1.848648488521575928e-01
4.896882474422454834e-01
3.438600525259971619e-02
-3.215159177780151367e-01
9.148378372192382812e-01
-1.386231034994125366e-01
2.352251261472702026e-01
1.073754429817199707e-01
-1.328789442777633667e-01
9.174490720033645630e-02
1.780696809291839600e-01
-1.503144651651382446e-01
-1.307836081832647324e-02
2.475741505622863770e-01
4.642157852649688721e-01
-7.795135490596294403e-03
1.711663305759429932e-01
-3.291432857513427734e-01
1.088965177536010742e+00
-8.703560233116149902e-01
-2.537465393543243408e-01
1.375880241394042969e-01
-5.666596889495849609e-01
-1.989393830299377441e-01
-2.395784482359886169e-02
6.566369533538818359e-02
-4.132510721683502197e-01
-8.253908157348632812e-02
-1.977035850286483765e-01
-1.478593349456787109e-01
-2.202183455228805542e-01
-1.729454100131988525e-01
-2.830230593681335449e-01
-2.454178929328918457e-01
-2.648209333419799805e-01
-1.765306852757930756e-02
6.712022423744201660e-01
-2.489143284037709236e-03
4.075486361980438232e-01
2.652244567871093750e+00
-8.012818545103073120e-02
-4.727514088153839111e-01
-6.363914161920547485e-02
1.583286188542842865e-02
-4.376513361930847168e-01
4.113665521144866943e-01
-3.144505321979522705e-01
-1.584849357604980469e-01
-2.259359508752822876e-01
2.388677150011062622e-01
1.923371255397796631e-01
5.470824614167213440e-02
1.736067049205303192e-02
2.242767512798309326e-01
2.414088547229766846e-01
3.659062683582305908e-01
-1.354162693023681641e-01
1.152359396219253540e-01
2.999303638935089111e-01
2.529047429561614990e-01
-1.656118482351303101e-01
-8.102466911077499390e-02
-5.015846490859985352e-01
-1.880693435668945312e-01
2.384072840213775635e-01
-3.762639164924621582e-01
-7.372704148292541504e-02
3.705217838287353516e-01
-2.257634401321411133e-01
1.127298101782798767e-01
-4.086408615112304688e-01
1.114971749484539032e-02
-1.385867446660995483e-01
-6.742876023054122925e-02
-6.249516606330871582e-01
-5.808807611465454102e-01
2.272117286920547485e-01
-1.882793754339218140e-01
-2.234836220741271973e-01
-1.596855223178863525e-01
4.618732035160064697e-01
1.166437864303588867e-01
4.020607173442840576e-01
1.176941916346549988e-01
-3.957836329936981201e-02
4.536279737949371338e-01
-3.588377535343170166e-01
-1.224498599767684937e-01
-1.336175203323364258e-01
5.392007157206535339e-02
2.126484662294387817e-01
3.914384171366691589e-02
4.686815738677978516e-01
-3.405996831133961678e-03
-4.203527867794036865e-01
-6.009754538536071777e-01
2.108035683631896973e-01
-4.224830865859985352e-01
-5.025987029075622559e-01
-1.156284287571907043e-01
4.406900405883789062e-01
2.135069370269775391e-01
5.666832327842712402e-01
2.920860648155212402e-01
1.324965506792068481e-01
4.897152781486511230e-01
-8.969409018754959106e-02
-5.761112570762634277e-01
-1.510453224182128906e-01
1.555309891700744629e-01
5.540133267641067505e-02
2.930331230163574219e-01
2.457383722066879272e-01
-5.504152178764343262e-01
9.266707301139831543e-02
-3.997783660888671875e-01
8.855953067541122437e-02
6.186411529779434204e-02
-2.776209115982055664e-01
3.047769367694854736e-01
1.446665972471237183e-01
2.193412929773330688e-01
6.724140048027038574e-02
-3.416614979505538940e-02
9.986520558595657349e-02
-7.781124114990234375e-02
6.588581204414367676e-01
-2.038156054913997650e-02
1.805700175464153290e-02
-9.820767492055892944e-02
2.170305140316486359e-02
4.629667103290557861e-01
2.053430527448654175e-01
-1.065409705042839050e-01
4.203254822641611099e-03
-1.849288642406463623e-01
2.389416545629501343e-01
-3.689739108085632324e-01
8.918986655771732330e-03
2.723578810691833496e-01
1.999259740114212036e-01
9.882412850856781006e-03
8.322972804307937622e-02
6.234171390533447266e-01
1.096929758787155151e-01
1.858109831809997559e-01
1.753800958395004272e-01
1.381577085703611374e-02
-8.533585071563720703e-01
-6.578521728515625000e-01
1.842703223228454590e-01
6.090158224105834961e-01
1.399499177932739258e-01
6.210585832595825195e-01
-3.533366918563842773e-01
-2.504458725452423096e-01
2.582860887050628662e-01
-4.110296666622161865e-01
-1.116774082183837891e-01
1.698673963546752930e-01
3.246917128562927246e-01
9.175198674201965332e-01
6.371685862541198730e-02
1.431624591350555420e-01
1.151899620890617371e-01
1.819687932729721069e-01
4.595393836498260498e-01
-2.660225629806518555e-01
-3.490652143955230713e-02
4.640663415193557739e-02
2.760069370269775391e-01
4.371835663914680481e-02
2.614361941814422607e-01
6.992341578006744385e-02
8.349259942770004272e-02
2.906633019447326660e-01
-4.406512901186943054e-02
3.500816598534584045e-02
2.908088862895965576e-01
-6.072549819946289062e-01
-2.023635059595108032e-01
-7.711917161941528320e-01
7.542619854211807251e-02
-9.338527172803878784e-02
2.223072499036788940e-01
2.101795747876167297e-02
-3.839198052883148193e-01
7.566446810960769653e-02
6.882238388061523438e-02
6.892507523298263550e-02
1.878801137208938599e-01
-1.784263402223587036e-01
-4.193939864635467529e-01
-2.166933715343475342e-01
-7.273200154304504395e-02
-5.275945067405700684e-01
-3.859488666057586670e-01
3.850379884243011475e-01
-1.410141289234161377e-01
-2.576969563961029053e-01
-2.472187951207160950e-02
3.190322816371917725e-01
1.003659963607788086e-01
5.785271897912025452e-02
-5.154802799224853516e-01
-5.829061567783355713e-02
-9.317329525947570801e-01
-5.981327295303344727e-01
1.514935493469238281e-01
3.468816578388214111e-01
-3.305124342441558838e-01
1.348220705986022949e-01
1.244577858597040176e-02
4.540415406227111816e-01
4.175597429275512695e-01
-4.394055530428886414e-02
2.538739470764994621e-03
-2.870406806468963623e-01
2.292121648788452148e-01
-6.194744706153869629e-01
-3.936550617218017578e-01
-4.734441936016082764e-01
-2.815502882003784180e-01
4.636347293853759766e-03
-1.096945628523826599e-01
-3.894809186458587646e-01
-3.151629492640495300e-02
5.950560569763183594e-01
2.279697209596633911e-01
1.738837957382202148e-01
-5.531369894742965698e-02
-1.577597856521606445e-01
-1.496354788541793823e-01
-6.387609839439392090e-01
-4.148148372769355774e-02
-2.141628712415695190e-01
5.468069314956665039e-01
1.081444323062896729e-01
1.169484257698059082e-01
-1.601927727460861206e-01
-3.349575027823448181e-02
-7.834125310182571411e-02
-3.426359966397285461e-02
-2.790192663669586182e-01
-2.861406505107879639e-01
2.469298243522644043e-02
3.352860510349273682e-01
-2.710026875138282776e-02
6.342188715934753418e-01
2.608743906021118164e-01
-1.791346222162246704e-01
1.598297953605651855e-01
5.482324957847595215e-01
3.770192712545394897e-02
-1.002083569765090942e-01
-4.854563474655151367e-01
-2.874312400817871094e-01
1.936111450195312500e-01
5.374107975512742996e-03
8.696187287569046021e-02
6.250943243503570557e-02
-1.651100628077983856e-02
-1.520059406757354736e-01
-3.228258788585662842e-01
-6.253708600997924805e-01
-1.593094319105148315e-01
2.437945920974016190e-03
9.181888401508331299e-02
4.037799537181854248e-01
7.710056900978088379e-01
-4.385549426078796387e-01
-1.418359857052564621e-02
3.528861403465270996e-01
-2.307788133621215820e-01
1.585256680846214294e-02
-9.459457546472549438e-02
3.076996207237243652e-01
2.843198776245117188e-01
6.426725536584854126e-02
5.040893554687500000e-01
-3.296787738800048828e-01
3.449460268020629883e-01
-1.760198324918746948e-01
4.612743854522705078e-01
-2.733908221125602722e-02
-3.102897107601165771e-01
7.973765730857849121e-01
6.308947503566741943e-02
-3.252618908882141113e-01
3.663374111056327820e-02
-4.545847326517105103e-02
7.371753454208374023e-01
4.381636902689933777e-02
3.737665116786956787e-01
4.846012890338897705e-01
1.523327380418777466e-01
-3.106980621814727783e-01
6.787508726119995117e-01
4.290896356105804443e-01
1.743011772632598877e-01
-1.763518303632736206e-01
7.101325690746307373e-02
-1.557155698537826538e-01
1.434224098920822144e-02
-6.911812424659729004e-01
-6.014841422438621521e-02
-1.402048394083976746e-02
6.372598558664321899e-02
-2.656348943710327148e-01
3.897107392549514771e-02
-4.351286590099334717e-01
6.797403842210769653e-02
6.839264184236526489e-02
-2.131043225526809692e-01
-4.290155470371246338e-01
-3.764870464801788330e-01
-2.123194634914398193e-01
-4.712198972702026367e-01
-5.767138004302978516e-01
3.692976832389831543e-01
5.995507240295410156e-01
4.832773506641387939e-01
6.187818050384521484e-01
2.082575261592864990e-01
3.609259380027651787e-03
5.655406117439270020e-01
-4.675571024417877197e-01
-3.770727813243865967e-01
9.607709199190139771e-02
-5.564236268401145935e-02
1.344868689775466919e-01
2.001545578241348267e-02
1.483156085014343262e-01
-1.840398013591766357e-01
-3.110644519329071045e-01
-2.185053527355194092e-01
4.440794587135314941e-01
-1.622737646102905273e-01
-9.370924532413482666e-02
-8.426930010318756104e-02
2.938069999217987061e-01
2.718979120254516602e-01
2.544423341751098633e-01
1.855905055999755859e-01
2.636509537696838379e-01
1.933321207761764526e-01
-7.030984014272689819e-02
-2.674182057380676270e-01
9.324088692665100098e-02
3.457917869091033936e-01
4.139812588691711426e-01
7.471638917922973633e-02
-3.642391860485076904e-01
-2.973451018333435059e-01
-2.051008641719818115e-01
-2.101751565933227539e-01
9.363340735435485840e-01
-3.251288235187530518e-01
-3.362947702407836914e-01
-2.803232669830322266e-01
5.386716872453689575e-02
-7.909104228019714355e-02
2.645685970783233643e-01
-2.073590010404586792e-01
6.335290074348449707e-01
1.586409509181976318e-01
5.191952586174011230e-01
9.125160425901412964e-02
2.565490640699863434e-02
-4.495486021041870117e-01
6.244922876358032227e-01
-1.330411583185195923e-01
-5.199123024940490723e-01
-3.083679080009460449e-01
-2.680246829986572266e-01
-1.974337995052337646e-01
9.261554479598999023e-02
7.067096829414367676e-01
-1.946745216846466064e-01
-1.270971745252609253e-01
-1.190633475780487061e-01
-3.099862039089202881e-01
1.977770626544952393e-01
1.543249934911727905e-01
-3.182948529720306396e-01
1.265789661556482315e-02
-3.866477683186531067e-02
-2.094978988170623779e-01
-3.706169873476028442e-02
4.741464182734489441e-02
4.029651284217834473e-01
-9.546882472932338715e-03
7.208327054977416992e-01
-5.966427326202392578e-01
-2.544004917144775391e-01
-2.706529796123504639e-01
4.954646527767181396e-02
-7.924486994743347168e-01
-2.478640824556350708e-01
-1.154586747288703918e-01
3.461528718471527100e-01
-3.748099207878112793e-01
-3.464642167091369629e-02
5.262973308563232422e-01
-7.285191863775253296e-02
1.434877607971429825e-02
4.301870167255401611e-01
-2.342415302991867065e-01
-1.668791919946670532e-01
-5.283719897270202637e-01
-5.964202061295509338e-02
2.709346115589141846e-01
2.464800179004669189e-01
3.440470248460769653e-02
3.591231703758239746e-01
4.121633172035217285e-01
-9.263237565755844116e-02
-2.229925394058227539e-01
2.668750286102294922e-01
1.505868285894393921e-01
-1.393602490425109863e-01
4.326406419277191162e-01
-2.790331542491912842e-01
3.122715465724468231e-02
-7.136803120374679565e-02
-2.582512497901916504e-01
3.037925958633422852e-01
6.071151793003082275e-02
-1.251420229673385620e-01
-1.946752145886421204e-02
-2.746419310569763184e-01
1.153258904814720154e-01
-2.445016503334045410e-01
-2.186191231012344360e-01
-1.922242492437362671e-01
-1.826819628477096558e-01
1.055783405900001526e-01
-2.786174118518829346e-01
-2.860648930072784424e-01
2.180037647485733032e-01
1.678169816732406616e-01
2.809791862964630127e-01
1.991386711597442627e-01
4.039146900177001953e-01
-3.819600641727447510e-01
3.957327306270599365e-01
-1.407574862241744995e-01
-2.713552713394165039e-01
-5.816962718963623047e-01
6.701623648405075073e-02
-6.351989507675170898e-02
3.786657154560089111e-01
9.437983483076095581e-02
2.306156605482101440e-01
4.689517319202423096e-01
4.527587592601776123e-01
8.208527229726314545e-03
9.052654355764389038e-02
1.059319823980331421e-01
-1.166740208864212036e-01
-2.236824482679367065e-01
-2.598429322242736816e-01
-3.832396566867828369e-01
-1.825554668903350830e-01
-1.949166953563690186e-01
-1.942410916090011597e-01
2.296300083398818970e-01
2.979612052440643311e-01
8.167506009340286255e-02
-9.368877857923507690e-02
-4.923535883426666260e-01
2.450866848230361938e-01
-1.128167957067489624e-01
-1.582129299640655518e-01
-2.521249651908874512e-01
-5.514256283640861511e-02
-2.554157376289367676e-01
-3.615498840808868408e-01
2.819021940231323242e-01
-1.105042472481727600e-01
4.337207078933715820e-01
1.525320410728454590e-01
9.985628724098205566e-02
1.862386018037796021e-01
1.959632486104965210e-01
-4.227392971515655518e-01
-1.781254559755325317e-01
1.189730465412139893e-01
9.094706177711486816e-02
-1.417940855026245117e-02
2.705509960651397705e-01
-7.673362642526626587e-02
-3.445257619023323059e-02
-2.062440849840641022e-02
1.399817615747451782e-01
-2.266870439052581787e-01
-6.695007532835006714e-02
2.639755904674530029e-01
2.508957982063293457e-01
-5.486211180686950684e-01
2.192470431327819824e-01
-1.232107430696487427e-01
-7.981280088424682617e-01
-1.888255029916763306e-01
-1.722330451011657715e-01
4.898806102573871613e-03
6.691544502973556519e-02
4.653313159942626953e-01
-7.998579740524291992e-01
-4.372281581163406372e-02
-2.802363224327564240e-02
-1.076883822679519653e-01
-3.999787196516990662e-02
-2.942253947257995605e-01
-2.144588381052017212e-01
3.447478637099266052e-02
3.149168193340301514e-01
-6.372687965631484985e-02
-1.418066173791885376e-01
1.956676989793777466e-01
-3.495393693447113037e-02
-1.087915897369384766e-01
3.512793034315109253e-02
1.528361719101667404e-02
7.604039460420608521e-02
-2.972894608974456787e-01
2.826223522424697876e-02
-3.803709149360656738e-01
-3.150386512279510498e-01
1.868504732847213745e-01
2.483866065740585327e-01
2.662940025329589844e-01
5.455134063959121704e-02
-8.249583095312118530e-02
-1.293456554412841797e-01
2.230097800493240356e-01
1.581394486129283905e-02
2.187069356441497803e-01
-3.586145341396331787e-01
-4.900127276778221130e-02
-3.881100937724113464e-02
2.888897657394409180e-01
3.026953898370265961e-02
3.471393287181854248e-01
-1.345569789409637451e-01
2.012201100587844849e-01
5.762833356857299805e-02
-5.866049975156784058e-02
-1.183045208454132080e-01
1.977286040782928467e-01
2.796347439289093018e-01
1.339678093791007996e-02
1.746631264686584473e-01
-1.849486529827117920e-01
1.165835484862327576e-01
2.746395394206047058e-02
