7.674534320831298828e-01
1.199860334396362305e+00
1.377080939710140228e-02
1.339817047119140625e+00
-4.141693115234375000e-01
8.723006248474121094e-01
-2.047143578529357910e-01
-3.677526116371154785e-02
-2.637341916561126709e-01
-2.581104822456836700e-02
3.610712885856628418e-01
-4.460798799991607666e-01
6.818643212318420410e-01
-8.115881085395812988e-01
8.889803290367126465e-01
3.079037666320800781e-01
-1.828452497720718384e-01
-1.504325747489929199e+00
2.820540666580200195e-01
-3.875756859779357910e-01
8.486956357955932617e-01
-5.596294626593589783e-02
-3.997733443975448608e-02
9.042817950248718262e-01
-8.090724349021911621e-01
1.078527808189392090e+00
-3.344826698303222656e-01
-4.955613017082214355e-01
-2.597875297069549561e-01
-7.056249380111694336e-01
-1.119882911443710327e-01
9.759514778852462769e-02
3.681910037994384766e-01
-4.863560199737548828e-02
3.538619279861450195e-01
-1.791060209274291992e+00
-7.910873293876647949e-01
3.136843144893646240e-01
-1.089561104774475098e+00
9.149657189846038818e-02
-3.013955652713775635e-01
-7.199471592903137207e-01
2.863212525844573975e-01
4.021439552307128906e-01
5.972943305969238281e-01
3.920364677906036377e-01
8.800025582313537598e-01
2.108897566795349121e-01
-4.458858370780944824e-01
-7.567755579948425293e-01
3.793249428272247314e-01
-1.188942074775695801e+00
-5.204581618309020996e-01
-3.996382951736450195e-01
2.961948513984680176e-01
8.615577816963195801e-01
5.836025476455688477e-01
-5.574907064437866211e-01
6.888980269432067871e-01
-8.403503298759460449e-01
1.213740482926368713e-01
-2.340943962335586548e-01
-1.310561895370483398e-01
-2.759172618389129639e-01
-2.023439854383468628e-01
-1.909609884023666382e-01
5.379301682114601135e-02
-2.058522403240203857e-01
-2.773742377758026123e-01
1.540780067443847656e-01
-5.033996328711509705e-02
-1.699563860893249512e-02
-4.827248631045222282e-04
-1.166935712099075317e-01
-1.920423805713653564e-01
-1.081766635179519653e-01
-5.506484583020210266e-02
-2.999007105827331543e-01
1.739635616540908813e-01
-5.049011483788490295e-02
-6.289608031511306763e-02
-2.371540367603302002e-01
1.535355746746063232e-01
-1.805942058563232422e-01
-1.442124545574188232e-01
1.130452156066894531e-01
1.053796429187059402e-02
1.430781334638595581e-01
-4.273785054683685303e-01
-1.734734475612640381e-01
-1.417445093393325806e-01
-5.789102911949157715e-01
9.899011254310607910e-02
-6.825049966573715210e-02
1.913959681987762451e-01
-1.198789775371551514e-01
1.935831755399703979e-01
-2.576428353786468506e-01
-1.669937968254089355e-01
-4.201881214976310730e-02
1.395169794559478760e-01
2.485823184251785278e-01
3.359063565731048584e-01
-1.257245689630508423e-01
1.674261391162872314e-01
-9.311696141958236694e-02
-2.256596535444259644e-01
7.000416517257690430e-02
-7.874129414558410645e-01
-6.043538078665733337e-02
-2.550951838493347168e-01
-2.309986576437950134e-02
6.283113360404968262e-01
-9.338845312595367432e-02
-1.155645679682493210e-02
-8.893780410289764404e-02
-2.090232819318771362e-01
-7.659208178520202637e-01
2.218766361474990845e-01
1.847564578056335449e-01
4.686743915081024170e-01
9.922915697097778320e-01
-3.242719173431396484e-02
-2.048435062170028687e-01
-1.306795924901962280e-01
-5.090591907501220703e-01
-4.212973415851593018e-01
-1.013844236731529236e-01
8.001001179218292236e-02
2.777709364891052246e-01
5.265773739665746689e-03
1.025052309036254883e+00
1.164637878537178040e-01
8.534465730190277100e-02
-2.239724844694137573e-01
-2.504945099353790283e-01
-9.487728029489517212e-02
9.627004712820053101e-02
-7.336881011724472046e-02
1.839202642440795898e-02
-3.761058300733566284e-02
1.070214435458183289e-01
1.077906638383865356e-01
1.808019578456878662e-01
-3.809649124741554260e-02
-4.085690155625343323e-02
2.227274924516677856e-01
-5.940985307097434998e-02
-6.999410688877105713e-02
-2.010633945465087891e-01
-2.057946026325225830e-01
-4.800974577665328979e-02
3.115198016166687012e-01
-1.613807082176208496e-01
-3.754173219203948975e-01
-1.196114495396614075e-01
-5.916532874107360840e-02
-4.371608793735504150e-01
2.824547141790390015e-02
-2.056170552968978882e-01
3.904159367084503174e-01
2.175145298242568970e-01
-4.277556017041206360e-02
-1.935285702347755432e-02
-8.647882938385009766e-02
-1.876427382230758667e-01
-1.441502124071121216e-01
2.301728576421737671e-01
3.890388086438179016e-02
1.405605208128690720e-02
1.991190761327743530e-01
2.209808379411697388e-01
-1.875624656677246094e-01
1.265103220939636230e-01
-4.006564319133758545e-01
1.066887527704238892e-01
8.173275738954544067e-02
2.728217542171478271e-01
-3.833597153425216675e-02
1.608572602272033691e-01
-2.558883093297481537e-02
-3.682539761066436768e-01
-3.093257844448089600e-01
-3.765952307730913162e-03
2.634368464350700378e-02
1.470338087528944016e-02
-3.440600261092185974e-02
1.647463738918304443e-01
1.229943335056304932e-01
2.408082783222198486e-02
1.490660607814788818e-01
-1.997792907059192657e-02
-1.773307472467422485e-01
8.890356123447418213e-02
-2.743115089833736420e-02
-1.850408762693405151e-01
-3.361153416335582733e-03
2.953715026378631592e-01
-2.333754897117614746e-01
2.012259140610694885e-02
-4.010479152202606201e-02
-1.928964704275131226e-01
4.797650128602981567e-02
1.913220137357711792e-01
-7.104147225618362427e-02
1.663421690464019775e-01
-1.002946216613054276e-02
-3.513204753398895264e-01
4.733352959156036377e-01
1.440174430608749390e-01
-2.943488061428070068e-01
-1.273809224367141724e-01
-1.277818828821182251e-01
4.488043487071990967e-01
1.718984842300415039e-01
-1.436055451631546021e-01
4.042407497763633728e-02
3.259027600288391113e-01
7.653640210628509521e-02
3.945621252059936523e-01
6.815989315509796143e-02
4.919922053813934326e-01
-4.843933507800102234e-02
6.376306712627410889e-02
1.023304387927055359e-01
-5.601943731307983398e-01
-6.302834153175354004e-01
6.925837695598602295e-02
-3.250516019761562347e-03
-1.314438581466674805e-01
-4.991126060485839844e-02
4.432888627052307129e-01
4.421278238296508789e-01
-2.936453558504581451e-03
-3.660646378993988037e-01
7.963688671588897705e-02
-2.339957356452941895e-01
1.683645099401473999e-01
-2.563832700252532959e-01
3.043685555458068848e-01
2.255212515592575073e-01
1.899550855159759521e-01
8.367265015840530396e-02
1.698862314224243164e-01
-9.719383716583251953e-02
1.280216276645660400e-01
3.306578472256660461e-02
1.917671412229537964e-01
-2.376970835030078888e-02
1.406870931386947632e-01
9.204541146755218506e-02
-2.228389829397201538e-01
-1.972155719995498657e-01
-2.249015718698501587e-01
-2.611488401889801025e-01
-6.846560537815093994e-02
1.521768718957901001e-01
-2.911359369754791260e-01
-5.598410218954086304e-02
-1.545659303665161133e-01
-1.815693378448486328e-01
2.831714451313018799e-01
2.413988560438156128e-01
-4.714856669306755066e-02
-5.875078029930591583e-03
-4.684797823429107666e-01
-4.655687510967254639e-01
-6.472011208534240723e-01
2.346554398536682129e-01
-1.818652078509330750e-02
-8.892266154289245605e-01
1.373153626918792725e-01
2.765283584594726562e-01
1.330673098564147949e-01
-1.504448335617780685e-02
-1.802916973829269409e-01
-1.801312714815139771e-01
9.609805792570114136e-02
-1.909085065126419067e-01
1.030170083045959473e+00
8.434867858886718750e-01
8.191531896591186523e-01
1.640709042549133301e-01
-1.691089421510696411e-01
-1.102222651243209839e-01
-3.028967082500457764e-01
-4.114986658096313477e-01
-5.485527589917182922e-02
-3.316337708383798599e-03
1.896674931049346924e-01
-7.148008793592453003e-02
1.903688758611679077e-01
3.589026927947998047e-01
-1.758791357278823853e-01
-6.010929346084594727e-01
-2.355345040559768677e-01
1.050750538706779480e-01
3.830470889806747437e-02
-8.008774369955062866e-02
-1.537294983863830566e-01
-2.090719789266586304e-01
3.608710169792175293e-01
-1.789935380220413208e-01
1.905097216367721558e-01
1.747784614562988281e-01
-5.805798619985580444e-02
-4.166312813758850098e-01
-3.910779654979705811e-01
-2.244363278150558472e-01
1.176051348447799683e-01
-4.039238095283508301e-01
3.396687805652618408e-01
3.482342660427093506e-01
-3.373432531952857971e-02
-1.354032307863235474e-01
-3.001010715961456299e-01
7.112996187061071396e-03
2.181791514158248901e-02
-9.048545360565185547e-02
1.428335160017013550e-01
1.216000318527221680e-01
7.950349152088165283e-02
1.050394028425216675e-02
-2.973064780235290527e-01
-2.742708027362823486e-01
1.585987396538257599e-02
3.129687011241912842e-01
2.562446296215057373e-01
-4.376620948314666748e-01
-1.939193159341812134e-01
1.840107887983322144e-01
-2.702330350875854492e-01
2.018324285745620728e-01
-1.240636855363845825e-01
-9.326173365116119385e-02
1.106762737035751343e-01
1.786511838436126709e-01
-1.170173520222306252e-03
-1.120087131857872009e-01
-3.587673008441925049e-01
4.309194386005401611e-01
4.763385057449340820e-01
-6.526955217123031616e-02
-1.778910681605339050e-02
1.627576798200607300e-01
2.078698724508285522e-01
-1.835878491401672363e-01
3.287189826369285583e-02
3.502629399299621582e-01
-1.870463341474533081e-01
1.004514694213867188e-01
2.113661020994186401e-01
-1.924981772899627686e-01
-2.930701076984405518e-01
-1.017876788973808289e-01
2.468477785587310791e-01
-1.562826633453369141e-01
5.070186853408813477e-01
1.915336027741432190e-02
-8.880727738142013550e-02
-2.314203083515167236e-01
2.144627645611763000e-02
-1.163552179932594299e-01
-1.049652248620986938e-01
-1.738436073064804077e-01
-2.511215806007385254e-01
-9.770098328590393066e-02
-1.640738099813461304e-01
-1.546782702207565308e-01
-2.804232202470302582e-02
-5.522600188851356506e-02
-7.014963030815124512e-02
5.409407019615173340e-01
1.402108371257781982e-01
2.427841275930404663e-01
-4.000005125999450684e-02
-7.780679315328598022e-02
-5.407917499542236328e-02
1.247588619589805603e-01
4.163253605365753174e-01
7.337334007024765015e-02
2.713862061500549316e-01
1.463871151208877563e-01
-9.556999802589416504e-02
-2.349757254123687744e-01
-2.044364064931869507e-01
8.904694579541683197e-03
-2.824051082134246826e-01
5.984033644199371338e-02
2.081297188997268677e-01
-1.735237389802932739e-01
2.189370840787887573e-01
2.875927984714508057e-01
2.363383769989013672e-01
1.420531123876571655e-01
1.438938360661268234e-02
1.525708660483360291e-02
6.605218350887298584e-02
-2.548370659351348877e-01
2.944796085357666016e-01
-5.280244946479797363e-01
-7.089580893516540527e-01
-1.781238317489624023e-01
-1.167888119816780090e-01
5.025410279631614685e-02
5.298962071537971497e-02
5.698422789573669434e-01
3.420824930071830750e-02
3.897642791271209717e-01
-8.433070778846740723e-02
-8.381686359643936157e-02
-1.468654423952102661e-01
-3.114595711231231689e-01
1.056792065501213074e-01
2.370097339153289795e-01
4.938855767250061035e-02
1.291194111108779907e-01
1.026047989726066589e-01
-4.068205133080482483e-02
4.780008271336555481e-02
3.266022726893424988e-02
-4.569985270500183105e-01
-1.523149758577346802e-01
-9.304978698492050171e-02
6.150378659367561340e-02
2.786546945571899414e-01
3.104912489652633667e-02
-8.747770637273788452e-02
8.542172610759735107e-02
-1.904738321900367737e-02
1.759018152952194214e-01
-2.346056997776031494e-01
-1.725720167160034180e-01
2.051173597574234009e-01
2.302843183279037476e-01
-1.049325689673423767e-01
-1.117487475275993347e-01
-2.649081945419311523e-01
9.920164942741394043e-03
1.145884841680526733e-01
1.457294635474681854e-02
-3.727075457572937012e-02
-5.067732930183410645e-02
1.974069923162460327e-01
7.457328587770462036e-02
1.494673192501068115e-01
-2.095022648572921753e-01
-5.600787326693534851e-02
-6.814948469400405884e-02
-7.908748835325241089e-02
-1.783740967512130737e-01
-4.999432563781738281e-01
3.931400477886199951e-01
-3.155606985092163086e-02
1.894987672567367554e-01
-2.754634320735931396e-01
-2.348258346319198608e-01
6.799539923667907715e-02
1.976070851087570190e-01
2.669107615947723389e-01
-2.538292706012725830e-01
-2.513772249221801758e-01
-2.210779190063476562e-01
-2.337683439254760742e-01
-2.556536905467510223e-02
6.669936329126358032e-02
-2.260230779647827148e-01
9.655877202749252319e-02
-8.304088562726974487e-02
-7.940988987684249878e-02
-1.520746052265167236e-01
-1.842749416828155518e-01
-8.603104948997497559e-02
-9.268308430910110474e-02
2.166581451892852783e-01
-8.982976898550987244e-03
-2.528701722621917725e-01
2.678577899932861328e-01
-6.358729302883148193e-02
-1.025163158774375916e-01
2.092403173446655273e-01
3.173057734966278076e-01
3.427036851644515991e-02
-3.293738141655921936e-02
1.842319965362548828e-01
1.210203673690557480e-02
1.700477451086044312e-01
-1.522743105888366699e-01
1.458051800727844238e-01
9.124917536973953247e-02
-3.203552961349487305e-02
2.031857669353485107e-01
-2.235588282346725464e-01
5.950509756803512573e-02
-2.611685991287231445e-01
-1.189359202980995178e-01
1.452276855707168579e-01
-1.995045095682144165e-01
7.235030084848403931e-02
-6.519172340631484985e-02
-6.140145659446716309e-01
-2.060891985893249512e-01
-9.024319797754287720e-02
-3.283045887947082520e-01
-1.728525310754776001e-01
1.027660518884658813e-01
-3.424390777945518494e-02
1.496274322271347046e-01
2.049718350172042847e-01
-1.008516475558280945e-01
1.790588647127151489e-01
-1.275281906127929688e-01
2.825683355331420898e-01
3.231717646121978760e-02
-5.661269277334213257e-02
2.563114464282989502e-01
-1.534081846475601196e-01
3.071402311325073242e-01
8.935564756393432617e-02
1.613784581422805786e-01
2.161341458559036255e-01
8.159404247999191284e-02
-2.707150019705295563e-02
-8.849939703941345215e-02
1.316139549016952515e-01
-5.604577064514160156e-02
-4.500878229737281799e-02
3.167452812194824219e-01
-4.416986927390098572e-02
-1.704390943050384521e-01
-1.231119856238365173e-01
-6.459554433822631836e-01
-1.099413037300109863e-01
2.301309704780578613e-01
-4.765370786190032959e-01
-1.985875330865383148e-02
-2.061636000871658325e-01
1.571073830127716064e-01
2.341974973678588867e-01
2.254830449819564819e-01
-3.469642996788024902e-01
-1.824827343225479126e-01
-1.190928071737289429e-01
1.279084980487823486e-01
2.587783895432949066e-02
-2.367487400770187378e-01
2.965092957019805908e-01
8.781510591506958008e-01
8.565881848335266113e-02
-3.457828164100646973e-01
5.049174278974533081e-02
-7.869899272918701172e-03
-3.662051856517791748e-01
-6.232807636260986328e-01
-2.208458632230758667e-01
-6.536516547203063965e-02
-2.537719905376434326e-03
1.037007808685302734e+00
3.693486452102661133e-01
-2.566342651844024658e-01
-2.274178713560104370e-01
-2.153321057558059692e-01
-1.585911363363265991e-01
3.643126189708709717e-01
2.346631437540054321e-01
2.136906981468200684e-01
-1.292898207902908325e-01
2.856107652187347412e-01
1.295004487037658691e-01
-2.226609885692596436e-01
3.251569718122482300e-02
-1.744681596755981445e-01
1.884223967790603638e-01
-7.071783393621444702e-02
6.101994961500167847e-02
1.867915093898773193e-01
-3.392640873789787292e-02
-2.453475818037986755e-02
-1.864734850823879242e-02
-1.626149863004684448e-01
-7.121445238590240479e-02
-2.637012004852294922e-01
1.838174760341644287e-01
-1.414268612861633301e-01
2.021505832672119141e-01
1.565549224615097046e-01
-2.310037463903427124e-01
-2.011453174054622650e-02
-4.078024625778198242e-01
8.685074001550674438e-02
-2.804501354694366455e-01
-3.742166161537170410e-01
-1.431670486927032471e-01
1.072957515716552734e-01
-1.649566441774368286e-01
-2.117853760719299316e-01
-2.707877457141876221e-01
3.916195034980773926e-01
-4.917882755398750305e-02
1.583356969058513641e-02
2.629210948944091797e-01
6.404317617416381836e-01
1.923821419477462769e-01
-5.204866528511047363e-01
1.984355598688125610e-01
-3.553794622421264648e-01
6.697689741849899292e-02
3.269854187965393066e-01
-4.633706063032150269e-02
1.699917316436767578e-01
2.070372402667999268e-01
1.437332481145858765e-01
2.565465867519378662e-01
-4.186891764402389526e-02
-4.385604262351989746e-01
-7.528614252805709839e-02
2.312196791172027588e-01
-1.470216363668441772e-01
-5.375816673040390015e-02
4.690604507923126221e-01
-1.151796057820320129e-01
3.598525822162628174e-01
2.130139023065567017e-01
-3.360274136066436768e-01
-2.803741395473480225e-01
2.112255059182643890e-02
2.760121226310729980e-01
-1.009539365768432617e-01
-2.087539806962013245e-02
2.900826930999755859e-01
-2.250629290938377380e-02
1.846645325422286987e-01
1.192617490887641907e-01
-1.133187115192413330e-01
1.833423525094985962e-01
1.039017960429191589e-01
1.981178373098373413e-01
1.832918971776962280e-01
2.793280482292175293e-01
2.391859740018844604e-01
2.290590666234493256e-02
-9.171320497989654541e-02
6.057507395744323730e-01
-2.627356052398681641e-01
-3.510251641273498535e-01
3.879635781049728394e-02
1.686044782400131226e-01
1.838515698909759521e-01
2.505004703998565674e-01
-3.708559572696685791e-01
3.476522266864776611e-01
1.355182081460952759e-01
4.664362594485282898e-02
-4.204030632972717285e-01
-5.342351272702217102e-02
2.829258739948272705e-01
1.374433096498250961e-02
1.540611386299133301e-01
-4.567238688468933105e-02
4.552704393863677979e-01
-9.409046918153762817e-02
1.353277087211608887e+00
4.547950029373168945e-01
-8.509353995323181152e-01
2.599748075008392334e-01
-1.555278599262237549e-01
-9.948293864727020264e-02
1.277154684066772461e-01
-1.500142812728881836e-01
3.410418704152107239e-02
-1.257811039686203003e-01
-3.481753170490264893e-01
-1.917561441659927368e-01
3.504934310913085938e-01
-1.379372030496597290e-01
1.270476877689361572e-01
-4.201983809471130371e-01
2.486322671175003052e-01
2.540675103664398193e-01
-1.027285233139991760e-01
-3.124833703041076660e-01
5.623807758092880249e-02
4.546293616294860840e-01
7.282064110040664673e-02
-1.106031909584999084e-01
-8.478384464979171753e-02
1.589733525179326534e-03
2.261824756860733032e-01
-2.268970906734466553e-01
-2.982582151889801025e-01
2.081289291381835938e-01
-1.753184199333190918e-01
1.306072175502777100e-01
-1.359136104583740234e-01
-1.901608407497406006e-01
1.143660172820091248e-01
1.511903479695320129e-02
2.207801640033721924e-01
2.755745351314544678e-01
-9.728796780109405518e-02
6.868494302034378052e-02
3.695713281631469727e-01
6.830770522356033325e-02
2.537684887647628784e-02
5.676905158907175064e-03
-9.114071726799011230e-02
-6.226966902613639832e-02
7.603535801172256470e-02
-1.215796172618865967e-01
5.962029099464416504e-02
1.025339365005493164e-01
-2.502245903015136719e-01
1.375952363014221191e-02
5.386522412300109863e-02
7.398486137390136719e-02
2.126323878765106201e-01
2.366001158952713013e-01
-1.854197233915328979e-01
1.323021799325942993e-01
4.475514292716979980e-01
-5.682176947593688965e-01
-4.444170743227005005e-02
-4.331948235630989075e-02
9.785171598196029663e-02
-6.058263778686523438e-02
-2.024721354246139526e-01
1.333405673503875732e-01
5.047028660774230957e-01
-3.340160846710205078e-01
-1.603729128837585449e-01
-6.310144066810607910e-02
3.368881717324256897e-02
-3.258471190929412842e-01
-3.371238708496093750e-01
1.753186732530593872e-01
-2.376931756734848022e-01
9.550116956233978271e-02
7.682631015777587891e-01
4.819080531597137451e-01
4.965509101748466492e-02
-4.971991479396820068e-01
1.387843489646911621e-01
1.723987311124801636e-01
-3.311839401721954346e-01
9.372853487730026245e-02
1.617590710520744324e-02
-1.326629817485809326e-01
3.451987802982330322e-01
4.677520096302032471e-01
-7.613714784383773804e-02
9.448336809873580933e-02
3.928241431713104248e-01
-4.653926938772201538e-03
-1.055767461657524109e-01
3.478523492813110352e-01
-7.290454953908920288e-02
1.147551387548446655e-01
-2.872104048728942871e-01
-1.334955245256423950e-01
2.225037813186645508e-01
-1.025859266519546509e-02
-2.573551833629608154e-01
1.361825913190841675e-01
-1.587831974029541016e-01
-2.002306878566741943e-01
8.363186568021774292e-02
1.996418535709381104e-01
-2.279559969902038574e-01
-1.653487831354141235e-01
-1.152763962745666504e-01
-2.093936651945114136e-01
1.157306060194969177e-01
-3.057697117328643799e-01
-8.475544303655624390e-02
-3.157054260373115540e-02
-3.574374616146087646e-01
-1.510563939809799194e-01
-6.428143382072448730e-02
2.382763326168060303e-01
-2.996001541614532471e-01
-2.175283432006835938e-01
-1.401490867137908936e-01
2.975153326988220215e-01
-1.147549524903297424e-01
-1.786466240882873535e-01
-6.600660085678100586e-02
1.223449110984802246e-01
4.887870252132415771e-01
6.643204689025878906e-01
-3.951196968555450439e-01
6.017364263534545898e-01
3.478678166866302490e-01
3.396311104297637939e-01
-4.525169134140014648e-01
1.705346107482910156e-01
3.462356701493263245e-02
4.123437702655792236e-01
1.802469491958618164e-01
-1.294982582330703735e-01
1.779065430164337158e-01
-1.728798002004623413e-01
1.903195381164550781e-01
2.756790518760681152e-01
-6.111821532249450684e-02
-7.580005098134279251e-03
-3.124423027038574219e-01
-1.820689737796783447e-01
9.277550131082534790e-02
2.859856784343719482e-01
-1.576939523220062256e-01
1.499112546443939209e-01
1.050840411335229874e-02
3.794431984424591064e-01
-2.738948166370391846e-01
-4.582715686410665512e-03
1.171624884009361267e-01
-1.471379697322845459e-01
-1.324319392442703247e-01
-1.013627089560031891e-02
5.621791481971740723e-01
-7.081321906298398972e-03
7.455153763294219971e-02
-1.703152060508728027e-01
-3.538295030593872070e-01
-6.232722848653793335e-02
-3.459881544113159180e-01
2.026321589946746826e-01
3.265330195426940918e-01
4.111922979354858398e-01
-3.400424867868423462e-02
4.127061367034912109e-01
3.276716172695159912e-01
4.718316495418548584e-01
-2.823595404624938965e-01
-5.428360104560852051e-01
3.378776311874389648e-01
1.886292546987533569e-01
1.595550477504730225e-01
7.715699076652526855e-02
1.560264527797698975e-01
-1.563044730573892593e-03
-3.168548941612243652e-01
-4.478636384010314941e-01
4.709115028381347656e-01
7.813800126314163208e-02
3.194579780101776123e-01
1.132029667496681213e-01
-1.150458455085754395e-01
-1.478221118450164795e-01
-1.029826998710632324e-01
-1.439266651868820190e-01
-1.419048849493265152e-02
-1.158844586461782455e-02
-1.767476461827754974e-02
2.538544237613677979e-01
-2.017780840396881104e-01
-1.881196200847625732e-01
6.509558111429214478e-02
5.297894775867462158e-02
8.899375796318054199e-03
-7.220771312713623047e-01
-6.265319585800170898e-01
-5.807493329048156738e-01
2.806765735149383545e-01
-3.736397027969360352e-01
-1.299422532320022583e-01
1.788920164108276367e-01
2.646349072456359863e-01
6.016744300723075867e-02
-9.787820279598236084e-02
2.204525768756866455e-01
-7.347212731838226318e-02
1.340853273868560791e-01
-3.453518152236938477e-01
3.569363355636596680e-01
-9.326200187206268311e-02
-2.278703302145004272e-01
2.302186638116836548e-01
-2.055446058511734009e-01
2.381020486354827881e-01
-7.196433097124099731e-02
2.371207028627395630e-01
1.207462698221206665e-01
-4.042182490229606628e-02
2.315421700477600098e-01
-1.035713180899620056e-01
-2.909393608570098877e-01
-6.082005426287651062e-02
8.059549331665039062e-02
2.960562407970428467e-01
-2.274940907955169678e-01
-1.870263367891311646e-01
-1.023963689804077148e-01
1.230878173373639584e-03
-7.660695165395736694e-02
-1.334226578474044800e-01
3.162593543529510498e-01
-1.593601256608963013e-01
2.788600623607635498e-01
1.288891434669494629e-01
9.480436891317367554e-02
1.199449077248573303e-01
4.333129525184631348e-01
-2.932293117046356201e-01
2.722948044538497925e-02
2.501718103885650635e-01
-8.869130164384841919e-02
-1.022169962525367737e-01
2.850643098354339600e-01
1.575428396463394165e-01
3.804292678833007812e-01
1.690762490034103394e-01
-2.221896350383758545e-01
-1.316249556839466095e-02
-1.824703812599182129e-01
-1.175380423665046692e-01
1.226422116160392761e-01
1.709892600774765015e-01
7.445133477449417114e-02
3.277806043624877930e-01
1.178137958049774170e-01
4.775888845324516296e-02
-2.212101221084594727e-01
3.065792322158813477e-01
8.015751838684082031e-02
-1.887961775064468384e-01
-7.327596843242645264e-02
9.512810967862606049e-03
-1.119681522250175476e-01
2.738336920738220215e-01
1.291912198066711426e-01
9.856060892343521118e-02
3.835978209972381592e-01
1.793874949216842651e-01
2.262000441551208496e-01
-1.705889701843261719e-01
5.985297635197639465e-02
-2.060983330011367798e-02
-5.503653362393379211e-02
-4.370566308498382568e-01
5.154248699545860291e-02
-2.674831263720989227e-02
-1.404160168021917343e-02
-7.649396359920501709e-02
8.656197786331176758e-02
6.942008435726165771e-02
3.101230226457118988e-02
-1.830105036497116089e-01
7.637120038270950317e-02
-2.121573090553283691e-01
-2.797825932502746582e-01
1.752730160951614380e-01
-2.197495400905609131e-01
-1.940060108900070190e-01
-2.608984112739562988e-01
-2.915481030941009521e-01
-1.288425624370574951e-01
1.520042568445205688e-01
-1.911502629518508911e-01
2.479312419891357422e-01
-9.364032745361328125e-02
1.119448170065879822e-01
-3.380953371524810791e-01
1.332865208387374878e-01
3.795363903045654297e-01
-1.163548976182937622e-01
-3.527753353118896484e-01
-3.394273519515991211e-01
3.196417167782783508e-02
-5.671901106834411621e-01
-3.747253865003585815e-02
-2.481361925601959229e-01
-1.252218037843704224e-01
1.541760116815567017e-01
7.826827466487884521e-02
2.126130014657974243e-01
-1.111991330981254578e-01
-1.591120511293411255e-01
2.772221565246582031e-01
6.331198811531066895e-01
-6.119220517575740814e-03
3.716237843036651611e-01
2.043294757604598999e-01
-2.229748070240020752e-01
5.706522986292839050e-02
6.367369741201400757e-02
2.968235611915588379e-01
7.550696283578872681e-02
5.762493014335632324e-01
3.588036894798278809e-01
8.424498140811920166e-02
8.948217332363128662e-02
-2.747600078582763672e-01
1.585399061441421509e-01
-4.562508761882781982e-01
2.096702903509140015e-01
3.248839080333709717e-01
-8.740009367465972900e-02
-2.223656028509140015e-01
6.609301269054412842e-02
-2.028139829635620117e-01
2.789996564388275146e-01
5.880384147167205811e-02
-2.630408406257629395e-01
2.393801063299179077e-01
3.035836517810821533e-01
2.036073245108127594e-02
-1.811537444591522217e-01
6.027317047119140625e-02
-1.203127801418304443e-01
1.122791902162134647e-03
1.811372190713882446e-01
-8.048200607299804688e-02
1.514029204845428467e-01
-3.238011002540588379e-01
-9.439691156148910522e-02
2.496968656778335571e-01
1.985555738210678101e-01
1.919940263032913208e-01
4.423496425151824951e-01
2.704199552536010742e-01
-2.260103076696395874e-01
2.213842570781707764e-01
-2.625418901443481445e-01
4.265179112553596497e-02
7.774145901203155518e-02
-1.820173412561416626e-01
-3.084944784641265869e-01
1.184787154197692871e-01
-2.029118388891220093e-01
4.153046905994415283e-01
2.173721194267272949e-01
-1.078800782561302185e-01
-1.061571091413497925e-01
-3.290573880076408386e-02
-1.895231306552886963e-01
5.300412327051162720e-02
-1.536344289779663086e-01
-1.794097423553466797e-01
3.168817460536956787e-01
-1.271335482597351074e-01
3.305733203887939453e-02
2.926016412675380707e-02
-1.765972748398780823e-02
3.874538838863372803e-01
1.572478562593460083e-01
-4.274531602859497070e-01
-7.558745145797729492e-01
-2.634859681129455566e-01
-3.591425120830535889e-01
-2.066163122653961182e-01
-3.267983496189117432e-01
-4.567810893058776855e-02
-4.287943243980407715e-01
1.702937185764312744e-01
-5.038167238235473633e-01
4.038487002253532410e-02
-1.950761377811431885e-01
1.990919709205627441e-01
4.180538952350616455e-01
-2.619997859001159668e-01
2.776586115360260010e-01
1.516609340906143188e-01
1.195571012794971466e-02
1.938786655664443970e-01
-1.014096587896347046e-01
6.382203847169876099e-02
-1.440306752920150757e-01
2.552817165851593018e-01
3.217957913875579834e-01
-1.487733870744705200e-01
2.567711472511291504e-01
-3.386622369289398193e-01
1.456046253442764282e-01
-5.668083950877189636e-02
1.885650753974914551e-01
1.530058681964874268e-01
-1.366794407367706299e-01
5.184849351644515991e-02
-3.862344101071357727e-02
-4.145982563495635986e-01
6.006013602018356323e-02
-2.102714627981185913e-01
3.720241412520408630e-02
1.550793647766113281e-01
-1.957011036574840546e-02
-2.206356823444366455e-01
-6.778470426797866821e-02
1.216785162687301636e-01
1.231937706470489502e-01
1.844814866781234741e-01
-1.848704218864440918e-01
1.517993398010730743e-03
1.880317628383636475e-01
-4.758875072002410889e-02
-2.477625384926795959e-02
1.301422417163848877e-01
-2.721383236348628998e-02
-1.395232509821653366e-02
-1.077805981040000916e-01
3.275014832615852356e-02
4.932871088385581970e-02
2.005547732114791870e-01
-1.427606195211410522e-01
1.228972971439361572e-01
2.268982082605361938e-01
8.044893294572830200e-02
7.976010441780090332e-02
-2.466539591550827026e-01
-4.101899564266204834e-01
-1.148022040724754333e-01
-1.238504871726036072e-01
8.531340956687927246e-02
2.742595970630645752e-01
-2.481339722871780396e-01
7.508257031440734863e-02
6.771837174892425537e-02
3.550804555416107178e-01
-1.875659525394439697e-01
-2.458330057561397552e-02
-1.096413284540176392e-01
3.191204071044921875e-01
2.034230679273605347e-01
-1.658436506986618042e-01
4.328600168228149414e-01
-2.257056981325149536e-01
6.200756505131721497e-02
-1.736354827880859375e-01
2.178374081850051880e-01
-1.665636301040649414e-01
1.823011189699172974e-01
1.481001526117324829e-01
-1.770937889814376831e-01
-3.328527137637138367e-02
-1.681440770626068115e-01
3.867655694484710693e-01
3.116737492382526398e-02
3.132899105548858643e-01
-5.465892329812049866e-02
7.423685193061828613e-01
7.049239426851272583e-02
9.106356650590896606e-02
-1.612507849931716919e-01
2.271877229213714600e-01
-9.659326751716434956e-04
-9.705904871225357056e-02
2.112556099891662598e-01
1.118587329983711243e-01
-8.360212296247482300e-02
2.954613864421844482e-01
1.342191249132156372e-01
1.581670343875885010e-01
-7.986357063055038452e-02
4.551141560077667236e-01
3.556626662611961365e-02
4.930739700794219971e-01
-5.005015805363655090e-02
3.107139170169830322e-01
-1.045843288302421570e-01
1.956167668104171753e-01
1.849562227725982666e-01
-3.808136284351348877e-02
-1.573562473058700562e-01
-1.038465127348899841e-01
-9.692794084548950195e-02
1.244036760181188583e-02
-2.044876366853713989e-01
1.939419358968734741e-01
-3.994359076023101807e-02
1.526059657335281372e-01
-1.008032411336898804e-01
-1.810214072465896606e-01
1.120045483112335205e-01
7.245784997940063477e-02
7.904092967510223389e-02
-1.866724491119384766e-01
-2.137002646923065186e-01
-3.577943742275238037e-01
9.197743237018585205e-02
-3.632714152336120605e-01
-4.461924359202384949e-02
7.639847695827484131e-02
-1.337717752903699875e-02
8.542555570602416992e-02
-8.964277058839797974e-02
-2.200980186462402344e-01
3.155005276203155518e-01
-2.398845367133617401e-02
-9.734809398651123047e-02
1.737353652715682983e-01
-6.359815597534179688e-02
-3.156785368919372559e-01
3.185608088970184326e-01
5.975357890129089355e-01
-3.163193166255950928e-02
6.812644004821777344e-01
-3.182327747344970703e-01
2.137971967458724976e-01
-2.743953764438629150e-01
-1.503713577985763550e-01
-8.803627640008926392e-02
2.606894355267286301e-03
-3.358340561389923096e-01
1.905109286308288574e-01
-1.000878810882568359e-01
-2.836696207523345947e-01
9.975083172321319580e-02
1.991322934627532959e-01
2.307244017720222473e-02
-4.196443781256675720e-02
2.177939936518669128e-02
1.549889612942934036e-02
-6.205604225397109985e-02
2.641488611698150635e-01
-1.417385041713714600e-01
4.605115856975317001e-03
1.657209992408752441e-01
-9.221125394105911255e-02
1.119891256093978882e-01
-7.383146882057189941e-02
-1.436251252889633179e-01
-1.191532164812088013e-01
-1.512730866670608521e-02
-6.480786949396133423e-02
1.290778666734695435e-01
2.630178034305572510e-01
7.083611190319061279e-02
-2.620108425617218018e-01
-2.292133867740631104e-01
1.738696247339248657e-01
-1.536022778600454330e-02
3.525375947356224060e-02
-1.513196676969528198e-01
-3.018462099134922028e-02
-1.748954057693481445e-01
-1.037829965353012085e-01
1.027273386716842651e-02
-8.437590301036834717e-02
4.472361132502555847e-02
8.917990326881408691e-02
3.684673830866813660e-02
5.208047851920127869e-02
-2.298888713121414185e-01
2.743292450904846191e-01
8.574933558702468872e-02
-2.969645559787750244e-01
1.059761419892311096e-01
-1.650030016899108887e-01
1.892564296722412109e-01
9.083726443350315094e-03
3.785932958126068115e-01
1.567738354206085205e-01
3.308457434177398682e-01
6.835541874170303345e-02
-4.121923074126243591e-02
7.237947732210159302e-02
9.625418111681938171e-03
7.038822770118713379e-02
-2.473701685667037964e-01
1.381822824478149414e-01
-3.226559460163116455e-01
3.903953135013580322e-01
1.817603036761283875e-02
-2.946329116821289062e-01
-2.332587093114852905e-01
-2.202248126268386841e-01
1.077280864119529724e-01
8.818522840738296509e-02
3.090969324111938477e-01
1.236680150032043457e-02
-9.786617010831832886e-02
1.427762210369110107e-01
-1.763687878847122192e-01
-4.935339838266372681e-02
-6.456958502531051636e-02
-7.485064864158630371e-02
-3.872481640428304672e-03
-2.833916544914245605e-01
-1.567414849996566772e-01
-1.708869338035583496e-01
-1.877787150442600250e-02
9.331553429365158081e-02
6.454961001873016357e-02
4.312891364097595215e-01
-2.349645942449569702e-01
5.812358483672142029e-02
2.506661117076873779e-01
-7.686563581228256226e-02
-1.070857495069503784e-01
-2.586827278137207031e-01
-2.759363949298858643e-01
-2.336276695132255554e-02
4.094980284571647644e-02
2.565261721611022949e-01
2.512387745082378387e-02
1.272007375955581665e-01
3.656120300292968750e-01
3.135046362876892090e-01
-3.306504786014556885e-01
-7.602252066135406494e-02
-1.487559974193572998e-01
-1.368977576494216919e-01
1.836957037448883057e-01
3.066351413726806641e-01
6.103401780128479004e-01
1.291875839233398438e-01
-6.659977138042449951e-03
-5.295316688716411591e-03
-9.055177122354507446e-02
-1.460579782724380493e-01
1.321889162063598633e-01
1.736406087875366211e-01
-1.350449919700622559e-01
-1.848132461309432983e-01
-5.932036787271499634e-02
-2.577288150787353516e-01
1.625918149948120117e-01
-1.885549277067184448e-01
1.303241848945617676e-01
1.430521458387374878e-01
-3.023406863212585449e-02
4.162065312266349792e-02
-4.672966003417968750e-01
1.315994746983051300e-02
-3.059064149856567383e-01
-2.702782452106475830e-01
2.855417877435684204e-02
9.479579515755176544e-03
-2.281603813171386719e-01
-2.021103650331497192e-01
-1.823776662349700928e-01
-2.276564389467239380e-01
-1.428499966859817505e-01
8.418665081262588501e-02
-4.427700489759445190e-02
-8.775972574949264526e-02
-2.475678324699401855e-01
2.020865082740783691e-01
4.021100327372550964e-02
7.027351856231689453e-02
3.689517974853515625e-01
-1.164550185203552246e-01
-2.108588516712188721e-01
2.599038183689117432e-01
6.548187732696533203e-01
1.546702533960342407e-01
-1.305044144392013550e-01
-2.191447764635086060e-01
3.851752579212188721e-01
2.360912710428237915e-01
2.108535496518015862e-03
2.370719313621520996e-01
3.035793304443359375e-01
-2.929234802722930908e-01
-1.063361205160617828e-02
-1.049154158681631088e-02
8.446997962892055511e-03
-2.912678755819797516e-02
3.622247576713562012e-01
-1.746825873851776123e-01
2.341095954179763794e-01
-6.302945315837860107e-02
2.069757580757141113e-01
-1.528425812721252441e-01
3.649810850620269775e-01
1.625627577304840088e-01
-2.433805763721466064e-01
8.508280664682388306e-02
1.148171946406364441e-01
3.522891700267791748e-01
1.414291858673095703e-01
3.009225130081176758e-01
-4.809448495507240295e-02
2.901453524827957153e-02
2.817530557513237000e-02
-4.782145097851753235e-02
3.244979679584503174e-01
2.417895644903182983e-01
1.285440772771835327e-01
3.220319151878356934e-01
2.327208369970321655e-01
-2.041623294353485107e-01
3.704048395156860352e-01
3.260430097579956055e-01
1.062614396214485168e-01
7.769847661256790161e-02
1.016871780157089233e-01
-1.075251698493957520e-01
-2.094222046434879303e-02
-8.557082619518041611e-04
-3.966030105948448181e-02
2.822091281414031982e-01
-1.048772111535072327e-01
-5.845447257161140442e-02
-2.389756739139556885e-01
-2.605431079864501953e-01
1.671281307935714722e-01
-2.469484359025955200e-01
-3.982638195157051086e-02
-2.447986751794815063e-01
1.116808429360389709e-01
-7.015252113342285156e-02
2.969553768634796143e-01
2.421185374259948730e-01
-2.990259416401386261e-02
2.788184285163879395e-01
2.738179564476013184e-01
1.051302701234817505e-01
-1.857306808233261108e-01
-1.744925789535045624e-02
-6.734462082386016846e-02
2.003086209297180176e-01
-5.400003865361213684e-02
-1.118285730481147766e-01
-1.081473752856254578e-01
-2.635124325752258301e-01
-1.137518286705017090e-01
-3.209798932075500488e-01
-9.765516966581344604e-02
-9.022013843059539795e-02
-8.803380280733108521e-02
2.883485853672027588e-01
-4.566506445407867432e-01
-6.515518575906753540e-02
2.329902797937393188e-01
-2.523100189864635468e-02
-4.344609007239341736e-02
6.662333011627197266e-02
-4.059057682752609253e-02
6.949419975280761719e-01
-2.001726329326629639e-01
1.235805302858352661e-01
-6.543172895908355713e-02
9.454698860645294189e-02
-2.060488611459732056e-02
2.379018515348434448e-01
-3.481910824775695801e-01
2.218720614910125732e-01
4.336341619491577148e-01
-2.077457457780838013e-01
6.173147261142730713e-02
1.009253785014152527e-01
-2.373592704534530640e-01
-5.157098174095153809e-01
5.897286161780357361e-02
3.157079815864562988e-01
-6.272097826004028320e-01
-8.459492027759552002e-02
2.170434035360813141e-02
-1.701800227165222168e-01
5.057049989700317383e-01
2.190198516473174095e-03
3.837445974349975586e-01
-1.688690781593322754e-01
4.675916135311126709e-01
-9.106692671775817871e-02
-2.102649658918380737e-01
-2.453606761991977692e-02
-5.193381905555725098e-01
7.533420324325561523e-01
1.311061382293701172e-01
2.674386799335479736e-01
-5.129215717315673828e-01
6.082511693239212036e-02
8.717297017574310303e-02
-2.001473307609558105e-01
3.605793789029121399e-02
-1.799551844596862793e-01
2.660778760910034180e-01
3.540602922439575195e-01
-3.104242682456970215e-01
1.147763058543205261e-01
-1.281839311122894287e-01
2.227643691003322601e-02
-1.305468007922172546e-02
2.700372040271759033e-01
-1.373286396265029907e-01
2.555466592311859131e-01
6.776358187198638916e-02
-2.994923591613769531e-01
-2.034270316362380981e-01
4.186992049217224121e-01
-2.927469015121459961e-01
-5.973843336105346680e-01
4.071336984634399414e-02
-2.593770623207092285e-01
-1.985285729169845581e-01
1.364553570747375488e-01
-2.156913429498672485e-01
2.003217190504074097e-01
8.028026670217514038e-02
-5.624040961265563965e-01
1.458544731140136719e-01
2.321258746087551117e-02
1.406814754009246826e-01
5.627199411392211914e-01
1.516043543815612793e-01
2.990013360977172852e-01
5.503938999027013779e-03
-7.698187232017517090e-02
-2.412044703960418701e-01
-2.280156686902046204e-02
-4.451760649681091309e-01
-2.947671413421630859e-01
-1.326034218072891235e-01
1.243910379707813263e-02
-1.914473623037338257e-01
-2.698635756969451904e-01
-1.983378678560256958e-01
2.134529352188110352e-01
4.105107393115758896e-03
-1.462916880846023560e-01
1.523044109344482422e-01
2.935684472322463989e-02
2.758330665528774261e-02
2.500145137310028076e-01
-5.213303118944168091e-02
1.726631075143814087e-01
2.378201484680175781e-01
2.049798220396041870e-01
2.381311357021331787e-01
-2.382857948541641235e-01
1.569439470767974854e-01
-9.149168431758880615e-02
1.472780853509902954e-01
2.640441358089447021e-01
2.592440247535705566e-01
4.043602645397186279e-01
-1.071167215704917908e-01
-8.338599652051925659e-02
-1.422630995512008667e-01
1.173791140317916870e-01
-2.829195261001586914e-01
-2.832798361778259277e-01
-2.610026299953460693e-01
-3.479191958904266357e-01
1.535965651273727417e-01
-5.129820853471755981e-02
-1.789961606264114380e-01
-1.405137032270431519e-01
8.477771282196044922e-02
1.599261909723281860e-01
-4.331672489643096924e-01
-2.410297542810440063e-01
-9.248904138803482056e-02
-1.370280534029006958e-01
3.348008170723915100e-02
-2.347329854965209961e-01
8.783766627311706543e-02
7.628657668828964233e-02
-3.258477747440338135e-01
-1.803260147571563721e-01
-6.091548502445220947e-02
-1.081412378698587418e-02
-3.491930291056632996e-02
2.429106682538986206e-01
-1.633373051881790161e-01
2.103375047445297241e-01
2.125833630561828613e-01
-1.397872567176818848e-01
-3.336138725280761719e-01
2.752245068550109863e-01
-2.627595886588096619e-02
5.246841814368963242e-03
-1.016037240624427795e-01
-1.674448996782302856e-01
-3.193121254444122314e-01
-2.218802571296691895e-01
-2.029469162225723267e-01
9.667297452688217163e-02
-9.556426107883453369e-02
-6.400650739669799805e-02
1.677030920982360840e-01
-4.146821424365043640e-02
3.368732929229736328e-01
2.666529715061187744e-01
-7.117978483438491821e-02
-2.039680331945419312e-01
-1.249578520655632019e-01
-9.004284441471099854e-02
1.835808902978897095e-01
-1.934117972850799561e-01
2.838239669799804688e-01
-2.233893238008022308e-02
-3.997355327010154724e-02
-7.845023274421691895e-02
4.683631658554077148e-02
3.199358880519866943e-01
6.748746335506439209e-02
-2.351019345223903656e-02
6.038867402821779251e-03
2.728352546691894531e-01
6.535927206277847290e-02
2.007191181182861328e-01
-2.720707952976226807e-01
-2.120140008628368378e-02
9.294697665609419346e-04
-2.257055044174194336e-01
1.519283503293991089e-01
-4.523032903671264648e-01
1.574739515781402588e-01
-3.800180256366729736e-01
6.270846724510192871e-01
6.164754629135131836e-01
6.172414124011993408e-02
1.328070759773254395e-01
1.491607129573822021e-01
1.869989931583404541e-01
9.543767571449279785e-02
-4.933528900146484375e-01
3.954856097698211670e-01
1.481915861368179321e-01
1.523069441318511963e-01
-3.229157626628875732e-01
-7.166905701160430908e-02
-3.183782994747161865e-01
6.132286787033081055e-02
-3.577630221843719482e-02
8.901019394397735596e-02
2.752667665481567383e-01
9.058587998151779175e-02
-1.691761314868927002e-01
3.280312418937683105e-01
1.655506640672683716e-01
3.160979133099317551e-03
8.565025031566619873e-02
3.498637974262237549e-01
-2.900745719671249390e-02
1.072211116552352905e-01
5.580716580152511597e-02
-6.594985723495483398e-02
1.941774934530258179e-01
-1.707650125026702881e-01
1.277049034833908081e-01
-2.504516392946243286e-02
-1.485997736454010010e-01
1.560843735933303833e-01
-2.703209519386291504e-01
-1.605977863073348999e-01
-1.243607550859451294e-01
-1.855688691139221191e-01
-7.525548804551362991e-03
-7.696637511253356934e-02
1.472229063510894775e-01
-1.047924831509590149e-01
5.295814573764801025e-02
2.025531083345413208e-01
-1.789423972368240356e-01
-8.663485641591250896e-04
1.277499645948410034e-01
2.851407276466488838e-03
9.961523860692977905e-02
-1.481452882289886475e-01
2.178695052862167358e-02
-3.195349872112274170e-02
-2.163947187364101410e-02
1.354021430015563965e-01
1.459407359361648560e-01
-4.759091138839721680e-02
1.780655533075332642e-01
3.131217956542968750e-01
-3.376359939575195312e-01
3.288938999176025391e-01
7.127710580825805664e-01
-2.311019599437713623e-01
2.338294982910156250e-01
1.016888260841369629e+00
5.134750008583068848e-01
-1.595882922410964966e-01
-1.164170950651168823e-01
-1.543008685111999512e-01
-1.641479283571243286e-01
-7.095267176628112793e-01
4.886690527200698853e-02
-3.277020454406738281e-01
-1.973337829113006592e-01
3.404940962791442871e-01
-2.520340085029602051e-01
3.343370556831359863e-02
-6.265644729137420654e-02
-1.676984429359436035e-01
3.385394513607025146e-01
-9.256250411272048950e-02
-5.243948698043823242e-01
-1.655872762203216553e-01
-6.539138406515121460e-02
-3.911685645580291748e-01
-2.405007183551788330e-01
-5.993046984076499939e-02
3.445925116539001465e-01
2.450030855834484100e-02
-3.057127296924591064e-01
1.280563771724700928e-01
-1.286115348339080811e-01
3.965573906898498535e-01
1.066387444734573364e-02
-1.246737688779830933e-02
2.937653362751007080e-01
-1.690298467874526978e-01
3.225792348384857178e-01
2.496263533830642700e-01
5.103140696883201599e-02
9.566783905029296875e-02
1.484843045473098755e-01
3.347334563732147217e-01
6.347325444221496582e-02
1.760239452123641968e-01
1.099129319190979004e-01
-2.553531713783740997e-02
-6.522677093744277954e-02
1.262448914349079132e-02
3.111512660980224609e-01
5.815690383315086365e-02
-3.590797483921051025e-01
-1.240609884262084961e-01
-2.510257661342620850e-01
5.760907009243965149e-02
1.706615090370178223e-01
1.219946667551994324e-01
-1.180962696671485901e-01
6.555739790201187134e-02
7.394143193960189819e-02
1.038578432053327560e-02
-5.340334028005599976e-02
1.064569503068923950e-01
-2.710317373275756836e-01
-2.248167060315608978e-02
5.438525602221488953e-02
9.216128289699554443e-02
-1.076308712363243103e-01
2.640345096588134766e-01
-2.037620246410369873e-01
4.026938974857330322e-02
-1.213333606719970703e-01
-1.081433296203613281e-01
-1.513080298900604248e-02
1.210243552923202515e-01
8.837448805570602417e-02
7.388930767774581909e-02
2.221680730581283569e-01
-1.663910746574401855e-01
1.881566494703292847e-01
1.961826346814632416e-02
3.470410406589508057e-01
3.246296644210815430e-01
-2.911129593849182129e-01
-1.908369213342666626e-01
-3.940006494522094727e-01
-3.049998879432678223e-01
-5.285804271697998047e-01
5.239880084991455078e-01
-1.937405616044998169e-01
-4.324134588241577148e-01
2.302893847227096558e-01
3.112938404083251953e-01
3.634250760078430176e-01
-3.047999553382396698e-02
3.042484819889068604e-01
-4.619392156600952148e-01
2.918704748153686523e-01
-7.978108525276184082e-02
-2.209907323122024536e-01
6.584536284208297729e-02
-6.745050102472305298e-02
1.230602990835905075e-02
-5.599212646484375000e-01
4.201037585735321045e-01
-6.548342704772949219e-01
5.658435449004173279e-02
-2.007041126489639282e-02
7.037290185689926147e-02
-4.506354629993438721e-01
7.494534552097320557e-02
-2.371498048305511475e-01
2.823132276535034180e-01
7.454042881727218628e-02
8.753016591072082520e-02
-1.543778032064437866e-01
2.401053011417388916e-01
-7.104353606700897217e-02
3.253611028194427490e-01
-3.388071060180664062e-01
-3.011558651924133301e-01
9.262558817863464355e-02
1.437814682722091675e-01
-5.793693065643310547e-01
-2.463714331388473511e-01
-4.511805474758148193e-01
-2.254018634557723999e-01
1.526530086994171143e-01
-4.955847263336181641e-01
-9.692788869142532349e-02
1.975427716970443726e-01
-1.999953389167785645e-01
-2.119216173887252808e-01
1.425571739673614502e-01
1.602181047201156616e-02
3.306110948324203491e-02
-6.598408520221710205e-02
-2.530924081802368164e-01
1.783429384231567383e-01
6.674408167600631714e-02
-8.986083865165710449e-01
