5.732491016387939453e-01
-1.783782243728637695e-01
-8.114728331565856934e-02
4.850240349769592285e-01
-2.747862339019775391e-01
6.834801435470581055e-01
-2.094686217606067657e-02
-6.251790523529052734e-01
2.631625719368457794e-02
1.531314402818679810e-01
3.098015487194061279e-02
-3.023338913917541504e-01
7.283339649438858032e-02
-1.955068409442901611e-01
-1.547942608594894409e-01
-5.404943227767944336e-01
1.080875843763351440e-01
7.351753115653991699e-01
3.467738330364227295e-01
5.586388707160949707e-01
-5.723956599831581116e-02
-6.105977669358253479e-02
1.484063565731048584e-01
-1.633402109146118164e-01
-2.911514043807983398e-01
-4.392858147621154785e-01
2.859194874763488770e-01
6.352199912071228027e-01
-3.942187726497650146e-01
4.969638586044311523e-01
2.801385819911956787e-01
1.772391319274902344e+00
1.444719284772872925e-01
-7.920103669166564941e-01
-9.193864464759826660e-02
-1.255642920732498169e-01
6.724982261657714844e-01
1.552445888519287109e-01
3.046285212039947510e-01
-5.039477944374084473e-01
1.021465778350830078e+00
-6.611840724945068359e-01
-1.692829877138137817e-01
6.477738022804260254e-01
-5.051715970039367676e-01
4.922248423099517822e-01
-6.786537170410156250e-01
7.439608126878738403e-02
-8.398240804672241211e-01
4.583205878734588623e-01
-8.857893943786621094e-01
-5.208418369293212891e-01
6.213853955268859863e-01
-1.154444515705108643e-01
8.949971199035644531e-01
1.055659055709838867e+00
9.076474905014038086e-01
-8.558911085128784180e-01
1.161670684814453125e+00
9.174200296401977539e-01
-6.636785343289375305e-03
-8.489479124546051025e-02
-1.207872927188873291e-01
5.571850538253784180e-01
-8.060041069984436035e-02
2.126757651567459106e-01
2.287382185459136963e-01
2.358021140098571777e-01
-3.538451492786407471e-01
-2.291687428951263428e-01
1.468220055103302002e-01
-8.668092638254165649e-02
1.245682835578918457e-01
-2.840310931205749512e-01
-1.534233242273330688e-01
4.902569353580474854e-01
1.115418225526809692e-01
-1.484266817569732666e-01
-1.391030102968215942e-01
2.207095772027969360e-01
-4.384623467922210693e-01
3.651686310768127441e-01
-1.465822905302047729e-01
-1.511782705783843994e-01
3.612523674964904785e-01
-6.228516101837158203e-01
-1.141531206667423248e-02
-5.763344764709472656e-01
3.006285727024078369e-01
4.655398428440093994e-01
3.679745495319366455e-01
1.550608575344085693e-01
-3.766016960144042969e-01
4.325508475303649902e-01
-3.421347737312316895e-01
-1.737603396177291870e-01
-1.467987895011901855e-01
3.046857118606567383e-01
-3.361912965774536133e-01
-4.428894817829132080e-01
-2.447257936000823975e-01
5.848149061203002930e-01
6.659244894981384277e-01
-2.218156158924102783e-01
1.919684261083602905e-01
-5.395936965942382812e-01
2.168430685997009277e-01
5.688777565956115723e-02
4.840212762355804443e-01
-1.473979204893112183e-01
3.665111958980560303e-01
3.399814963340759277e-01
3.966159522533416748e-01
-1.235956400632858276e-01
4.688330739736557007e-02
-2.746800482273101807e-01
-8.731665015220642090e-01
4.684683978557586670e-01
-4.367062747478485107e-01
-1.089254498481750488e+00
-6.193906664848327637e-01
3.743028938770294189e-01
-5.929245613515377045e-03
-7.923496514558792114e-02
4.791679382324218750e-01
-5.337044596672058105e-01
1.978878378868103027e-01
-4.755335394293069839e-03
4.935275912284851074e-01
-2.185125499963760376e-01
2.918484508991241455e-01
3.562885224819183350e-01
-1.910408437252044678e-01
-8.892454206943511963e-02
-2.203839570283889771e-01
-3.857238218188285828e-02
-8.411955088376998901e-02
6.875244975090026855e-01
-1.447429418563842773e+00
-5.149984359741210938e-01
-4.423313140869140625e-01
3.697048425674438477e-01
-4.264883697032928467e-02
-3.839389979839324951e-01
1.957851052284240723e-01
-1.179346516728401184e-01
1.376115679740905762e-01
-5.919604301452636719e-01
1.077806353569030762e+00
3.784006536006927490e-01
1.270174980163574219e-02
5.030148029327392578e-01
-5.739321708679199219e-01
6.392533779144287109e-01
-2.766742110252380371e-01
3.713094815611839294e-02
-9.810009002685546875e-01
-1.188175976276397705e-01
-1.211088597774505615e-01
-6.310238838195800781e-01
2.248940169811248779e-01
-2.682299613952636719e-01
-1.702728420495986938e-01
-5.769670009613037109e-01
8.296466618776321411e-02
9.108586609363555908e-02
8.023232966661453247e-02
9.779834151268005371e-01
-5.533528327941894531e-01
-6.635385155677795410e-01
-1.683513820171356201e-01
2.575428485870361328e-01
2.835278511047363281e-01
-1.116916298866271973e+00
-2.358264178037643433e-01
1.627339422702789307e-01
9.994876980781555176e-01
-2.606561407446861267e-03
-4.272096604108810425e-02
1.002639055252075195e+00
-4.796209931373596191e-01
2.925190031528472900e-01
-2.585140764713287354e-01
2.982078306376934052e-02
-2.012515217065811157e-01
7.983101159334182739e-02
-4.707444608211517334e-01
-9.315593838691711426e-01
2.974896728992462158e-01
2.671006917953491211e-01
1.993843913078308105e-01
4.056599363684654236e-02
-3.669143915176391602e-01
7.094094753265380859e-01
2.296793311834335327e-01
-1.736436486244201660e-01
-4.568674564361572266e-01
1.818024665117263794e-01
-7.296345196664333344e-03
-6.788573861122131348e-01
7.267296910285949707e-01
-1.309661030769348145e+00
2.015903294086456299e-01
1.030028581619262695e+00
-1.558073908090591431e-01
6.302606463432312012e-01
-1.161179468035697937e-01
7.827121019363403320e-01
-1.109880089759826660e+00
-2.088467925786972046e-01
-3.309128582477569580e-01
-2.986936271190643311e-01
3.548336327075958252e-01
-7.959510087966918945e-01
3.650915324687957764e-01
3.387099206447601318e-01
1.093592166900634766e+00
-4.123373329639434814e-01
2.642766237258911133e-01
1.103947162628173828e+00
2.291790246963500977e-01
-2.349660992622375488e-01
1.718342304229736328e-01
-2.842599153518676758e-01
-3.660251200199127197e-01
2.493957728147506714e-01
-5.160220265388488770e-01
1.710298955440521240e-01
-1.501098722219467163e-01
6.907271146774291992e-01
-6.030521988868713379e-01
-6.014041900634765625e-01
6.306692361831665039e-01
4.312128946185112000e-02
3.921486437320709229e-01
2.837592065334320068e-01
-4.809116944670677185e-02
-7.427707314491271973e-01
1.263038992881774902e+00
2.574961483478546143e-01
-4.936880245804786682e-02
-8.390091359615325928e-02
5.918496251106262207e-01
-1.325760930776596069e-01
-2.059607356786727905e-01
1.042024567723274231e-01
-2.551169991493225098e-01
2.571826577186584473e-01
-2.356102168560028076e-01
1.676818579435348511e-01
7.921768724918365479e-02
-7.085213065147399902e-02
1.634884327650070190e-01
-2.935208678245544434e-01
3.543637096881866455e-01
-3.320911824703216553e-01
-3.791974782943725586e-01
3.979330509901046753e-02
1.678666323423385620e-01
-9.886702895164489746e-02
2.311110049486160278e-01
3.033482730388641357e-01
-1.692493796348571777e+00
6.559972167015075684e-01
6.671158969402313232e-02
-3.625436127185821533e-01
-6.551826000213623047e-02
6.779890060424804688e-01
-7.716420292854309082e-01
-2.665395438671112061e-01
2.944342792034149170e-01
1.967896968126296997e-01
9.356784820556640625e-01
-5.087208151817321777e-01
1.807538419961929321e-01
-6.412919759750366211e-01
1.110190510749816895e+00
1.232283189892768860e-01
-2.845314517617225647e-02
3.699347078800201416e-01
2.577594220638275146e-01
-6.425639390945434570e-01
1.129032596945762634e-01
5.671882033348083496e-01
-4.797102212905883789e-01
2.690784633159637451e-01
-7.823852896690368652e-01
4.804563522338867188e-01
-1.044675111770629883e+00
8.744480460882186890e-02
-3.808386325836181641e-01
-2.448969781398773193e-01
1.263361930847167969e+00
-3.164783120155334473e-01
3.515627086162567139e-01
-1.115114316344261169e-01
5.671313405036926270e-01
-2.561055123805999756e-01
-9.854706935584545135e-03
6.561387181282043457e-01
-1.349708735942840576e-01
-6.068231165409088135e-02
6.512136459350585938e-01
-1.072665452957153320e-01
5.858296155929565430e-02
-4.387884214520454407e-02
1.632397025823593140e-01
3.055312335491180420e-01
2.472685426473617554e-01
1.118424162268638611e-01
-8.618895709514617920e-02
8.926369249820709229e-02
-3.397779911756515503e-02
-4.762806594371795654e-01
3.287801742553710938e-01
-2.789532840251922607e-01
-6.050162911415100098e-01
1.086266189813613892e-01
-1.782095991075038910e-02
-5.996596999466419220e-03
-1.891089975833892822e-01
-4.517531767487525940e-02
6.599345207214355469e-01
-3.090755641460418701e-01
-1.528836935758590698e-01
7.709417957812547684e-03
-4.033739268779754639e-01
-2.890266180038452148e-01
-2.115878760814666748e-01
7.858721017837524414e-01
-1.677756607532501221e-01
-3.021037438884377480e-03
2.243030965328216553e-01
3.626624345779418945e-01
5.727928131818771362e-02
9.872393608093261719e-01
-5.620463490486145020e-01
-4.243047833442687988e-01
5.976994521915912628e-03
-2.456110864877700806e-01
1.381164193153381348e-01
-3.524015843868255615e-01
1.395819634199142456e-01
-1.089041754603385925e-01
-3.577077388763427734e-01
2.195307463407516479e-01
-4.029254615306854248e-01
-3.243363797664642334e-01
-3.475714623928070068e-01
4.514889717102050781e-01
-2.512920796871185303e-01
-2.392096072435379028e-01
1.541662663221359253e-01
2.541481554508209229e-01
4.641405045986175537e-01
5.851561427116394043e-01
1.709951311349868774e-01
-5.113281607627868652e-01
7.877840399742126465e-01
7.868420332670211792e-02
-1.300948411226272583e-01
-2.668637931346893311e-01
1.254754662513732910e+00
-1.585325300693511963e-01
1.282406598329544067e-02
1.751144677400588989e-01
1.447891592979431152e-01
-3.501041233539581299e-01
6.871380209922790527e-01
2.484091967344284058e-01
-3.865332901477813721e-01
1.139730289578437805e-01
-5.822270512580871582e-01
2.814481556415557861e-01
5.589786171913146973e-01
1.000173449516296387e+00
-1.123115420341491699e+00
1.299226423725485802e-03
1.266608536243438721e-01
-2.933042049407958984e-01
-1.899893283843994141e-01
-6.282339990139007568e-02
6.098179221153259277e-01
-1.583947688341140747e-01
-4.168127104640007019e-02
-1.315085142850875854e-01
-1.543043833225965500e-02
5.268946290016174316e-02
-1.147285103797912598e-02
-5.655517578125000000e-01
9.512785822153091431e-02
8.020929247140884399e-02
8.243463933467864990e-02
-4.050328135490417480e-01
2.688900530338287354e-01
5.707367062568664551e-01
-5.833319202065467834e-02
6.718316078186035156e-01
-7.058659195899963379e-01
1.433490067720413208e-01
-3.888768553733825684e-01
3.012600541114807129e-01
-7.400876283645629883e-02
-2.905592024326324463e-01
1.753257215023040771e-01
-2.994611263275146484e-01
1.994943022727966309e-01
-3.176689445972442627e-01
3.845816254615783691e-01
-1.588716953992843628e-01
1.600945293903350830e-01
1.874774992465972900e-01
-8.503786474466323853e-02
-2.696082293987274170e-01
-1.119882240891456604e-01
2.362984232604503632e-02
-5.193966031074523926e-01
2.176329642534255981e-01
-2.714731991291046143e-01
-4.422340393066406250e-01
-4.602266848087310791e-01
3.134484589099884033e-01
1.040482044219970703e+00
-5.956884026527404785e-01
-3.570525646209716797e-01
1.817986518144607544e-01
-6.170825362205505371e-01
-9.675872325897216797e-01
1.928738355636596680e-01
5.172371864318847656e-01
-4.905061721801757812e-01
-7.607750296592712402e-01
9.514725208282470703e-02
5.136867165565490723e-01
5.878500342369079590e-01
8.534069657325744629e-01
-7.771593928337097168e-01
-4.062533080577850342e-01
8.465293794870376587e-02
-3.646319210529327393e-01
-3.728194832801818848e-01
4.837013781070709229e-01
-5.244292020797729492e-01
2.323935180902481079e-01
3.947888910770416260e-01
-1.300994306802749634e-01
2.557322084903717041e-01
-6.375993043184280396e-02
2.436671406030654907e-01
-3.554673790931701660e-01
4.866915643215179443e-01
4.585985541343688965e-01
-2.213622778654098511e-01
2.826224826276302338e-02
-1.678028851747512817e-01
-7.471746951341629028e-02
-1.301083117723464966e-01
2.583215534687042236e-01
-4.087055027484893799e-01
-3.765451908111572266e-01
-9.373065829277038574e-02
-4.140206873416900635e-01
-1.103246286511421204e-01
-3.959236145019531250e-01
-6.508786976337432861e-02
2.455774396657943726e-01
-2.135508060455322266e-01
2.028456926345825195e-01
5.769636631011962891e-01
2.399050444364547729e-02
-3.399177491664886475e-01
4.075399637222290039e-01
3.250103294849395752e-01
5.457042455673217773e-01
6.091591715812683105e-01
3.865149617195129395e-01
-3.143725395202636719e-01
-2.202184945344924927e-01
5.824947953224182129e-01
-6.079939603805541992e-01
6.339781284332275391e-01
-3.663122951984405518e-01
4.482147097587585449e-01
1.488909572362899780e-01
8.260104805231094360e-02
-2.038089185953140259e-01
-1.884765177965164185e-01
3.573709726333618164e-01
-8.620463311672210693e-03
1.674799472093582153e-01
2.657927870750427246e-01
1.951405853033065796e-01
6.949239373207092285e-01
-2.267483621835708618e-02
1.607889235019683838e-01
2.997564971446990967e-01
5.451353788375854492e-01
2.629152834415435791e-01
3.502606600522994995e-02
9.710959345102310181e-02
-1.394064277410507202e-01
-1.054334044456481934e-01
-4.411625266075134277e-01
-4.879468381404876709e-01
2.664266824722290039e-01
4.765342772006988525e-01
5.457811430096626282e-02
-4.084251821041107178e-01
3.211725056171417236e-01
2.852136194705963135e-01
-3.652192652225494385e-01
3.330232203006744385e-01
-2.105146348476409912e-01
2.254196554422378540e-01
1.645737588405609131e-01
-2.982880175113677979e-02
-3.138434141874313354e-02
-2.236246764659881592e-01
-1.471479535102844238e-01
-1.741778291761875153e-02
-4.699779450893402100e-01
4.993891343474388123e-02
1.928386837244033813e-01
-6.608946323394775391e-01
2.386709004640579224e-01
-1.301055788993835449e+00
2.579059004783630371e-01
-4.783362448215484619e-01
3.089558780193328857e-01
1.374465674161911011e-01
2.891560792922973633e-01
6.037675216794013977e-02
1.344081461429595947e-01
5.390100926160812378e-02
-2.715843729674816132e-02
-1.343838214874267578e+00
1.210020408034324646e-01
6.452099233865737915e-02
-4.262904226779937744e-01
4.234877973794937134e-02
2.405526936054229736e-01
-2.897166013717651367e-01
9.589371830224990845e-02
-9.387855529785156250e-01
-7.180181145668029785e-01
3.588060438632965088e-01
-2.922360897064208984e-01
3.223624825477600098e-01
6.437038630247116089e-02
1.438831537961959839e-01
-1.354160308837890625e-01
-5.830146074295043945e-01
-4.467970877885818481e-02
-2.459192648530006409e-02
1.611152738332748413e-01
6.613526344299316406e-01
5.792800188064575195e-01
-1.226165518164634705e-01
9.268085658550262451e-02
-3.261995911598205566e-01
-7.511713355779647827e-02
-3.411589562892913818e-01
-7.849113643169403076e-02
-5.997485518455505371e-01
4.447384923696517944e-02
-1.018293946981430054e-02
-3.657923042774200439e-01
1.849723756313323975e-01
1.793534904718399048e-01
-1.489574313163757324e-01
-2.322759032249450684e-01
-1.658869981765747070e-01
-1.820311099290847778e-01
-5.770879983901977539e-02
1.745563596487045288e-01
3.188692629337310791e-01
6.504701972007751465e-01
-1.541460752487182617e-01
3.706826865673065186e-01
-1.732720732688903809e-01
5.200242400169372559e-01
-3.203190267086029053e-01
2.694013416767120361e-01
4.646318256855010986e-01
-2.788273990154266357e-01
1.751213967800140381e-01
-5.823785662651062012e-01
5.072661638259887695e-01
3.857712745666503906e-01
3.722291886806488037e-01
-4.721129238605499268e-01
8.768698573112487793e-01
1.376513600349426270e+00
5.791360139846801758e-01
3.240772783756256104e-01
4.465285837650299072e-01
-2.007795721292495728e-01
3.052082061767578125e-01
4.171944260597229004e-01
-5.563352257013320923e-02
1.330801844596862793e-01
-3.804591596126556396e-01
2.414249479770660400e-01
2.164164744317531586e-02
-6.222110390663146973e-01
1.292930841445922852e-01
-3.316246271133422852e-01
6.243718266487121582e-01
-6.407630443572998047e-02
-2.301194518804550171e-02
-2.597605586051940918e-01
-4.328392744064331055e-01
4.129557684063911438e-02
4.100609421730041504e-01
3.672759830951690674e-01
4.856484234333038330e-01
1.612014174461364746e-01
-1.667170077562332153e-01
3.947528004646301270e-01
-1.838485896587371826e-01
3.820161521434783936e-01
6.321071088314056396e-02
6.841960549354553223e-01
4.171780943870544434e-01
-6.022430658340454102e-01
1.536528110504150391e+00
3.294920176267623901e-02
4.147266447544097900e-01
-3.810982704162597656e-01
-2.449007332324981689e-01
-4.274784028530120850e-01
-2.014881074428558350e-01
6.129412353038787842e-02
-2.417158633470535278e-01
-2.573184967041015625e-01
4.025209844112396240e-01
7.906404882669448853e-02
1.752870678901672363e-01
-3.369977772235870361e-01
1.502980887889862061e-01
2.448397278785705566e-01
1.412946581840515137e-01
-2.449288778007030487e-02
7.110844850540161133e-01
1.986991018056869507e-01
-1.470364928245544434e-01
-1.679124124348163605e-02
-6.281959265470504761e-02
-9.559059739112854004e-01
-5.516636967658996582e-01
5.445902422070503235e-02
-1.108044683933258057e-01
-4.431669414043426514e-01
-4.532233476638793945e-01
-7.451960444450378418e-01
-3.023764193058013916e-01
3.465794026851654053e-01
1.928786337375640869e-01
-2.569816708564758301e-01
5.911226272583007812e-01
-5.677930712699890137e-01
2.470123767852783203e-01
3.480272293090820312e-01
-1.238078832626342773e+00
2.355710119009017944e-01
-3.193169087171554565e-02
2.947418689727783203e-01
-2.059191018342971802e-01
6.818602085113525391e-01
4.082019329071044922e-01
-3.215895295143127441e-01
3.885274529457092285e-01
2.672583758831024170e-01
4.401631951332092285e-01
3.843500614166259766e-01
4.721458852291107178e-01
-3.407729044556617737e-02
-9.354938566684722900e-02
8.019825816154479980e-01
-3.263989686965942383e-01
5.270320773124694824e-01
3.069835305213928223e-01
-5.249937772750854492e-01
-1.882259696722030640e-01
1.225154697895050049e-01
-4.078051447868347168e-01
2.112194746732711792e-01
-2.225824147462844849e-01
-1.723600327968597412e-01
8.475297130644321442e-03
4.692667424678802490e-01
-1.969045251607894897e-01
-3.072583973407745361e-01
-2.475440055131912231e-01
-3.387555181980133057e-01
-1.393480539321899414e+00
3.508267998695373535e-01
-5.197609961032867432e-02
-4.241186678409576416e-01
2.978872060775756836e-01
2.352091521024703979e-01
-1.331820338964462280e-01
-2.309348583221435547e-01
2.816449105739593506e-01
4.329383745789527893e-02
-1.112009957432746887e-01
1.070530712604522705e-01
-4.863477312028408051e-03
-6.407290697097778320e-02
-1.950004696846008301e-01
-9.737884998321533203e-02
6.508479118347167969e-01
6.255157589912414551e-01
-1.801268458366394043e-01
-1.809904277324676514e-01
-5.253648757934570312e-01
7.491530179977416992e-01
9.724665433168411255e-02
-1.814486235380172729e-01
-5.898266285657882690e-02
5.713372230529785156e-01
4.991708323359489441e-02
3.168100416660308838e-01
5.691376700997352600e-02
-9.592565298080444336e-01
8.112676739692687988e-01
-4.618190824985504150e-01
4.183506071567535400e-01
-7.958037406206130981e-02
-9.613619744777679443e-02
3.759974241256713867e-02
9.921413660049438477e-01
-4.864084348082542419e-02
-4.103476181626319885e-02
1.984712332487106323e-01
6.081835627555847168e-01
1.445902734994888306e-01
-5.977922677993774414e-01
1.595870256423950195e-01
-1.803339831531047821e-02
1.575185656547546387e-01
2.372484654188156128e-02
-4.077744781970977783e-01
5.479073524475097656e-01
-3.433708250522613525e-01
-2.720680832862854004e-01
2.497939467430114746e-01
-6.370812654495239258e-02
-7.582516670227050781e-01
-2.099399119615554810e-01
6.886738538742065430e-01
6.332983821630477905e-02
-3.961659669876098633e-01
-8.355688452720642090e-01
-6.348827481269836426e-01
-3.521043956279754639e-01
7.853977084159851074e-01
1.541113257408142090e-01
-8.827196359634399414e-01
4.028600752353668213e-01
-3.707284629344940186e-01
-1.026974320411682129e-01
5.704695582389831543e-01
-5.403842404484748840e-02
-3.781461417675018311e-01
3.007301986217498779e-01
-2.207457572221755981e-01
1.876103729009628296e-01
-9.205849468708038330e-02
5.034673213958740234e-01
-3.733375966548919678e-01
-1.537148356437683105e-01
3.912593424320220947e-01
4.007911980152130127e-01
3.172794580459594727e-01
-2.327774465084075928e-01
3.481174409389495850e-01
-6.042645126581192017e-02
1.127408891916275024e-01
-5.906396731734275818e-02
-5.196545720100402832e-01
-1.177167370915412903e-01
1.418847590684890747e-01
-6.492953002452850342e-02
-2.927855253219604492e-01
1.267646551132202148e-01
-2.768014073371887207e-01
-2.577627636492252350e-02
4.630398750305175781e-01
3.289646208286285400e-01
-5.081728100776672363e-01
9.647444635629653931e-02
2.703187763690948486e-01
5.554414391517639160e-01
6.073841452598571777e-01
4.008656740188598633e-02
1.929775066673755646e-02
-2.484167069196701050e-01
1.318654567003250122e-01
-2.143564671277999878e-01
2.759688198566436768e-01
2.428847104310989380e-01
-2.722007334232330322e-01
7.008805125951766968e-02
1.331779807806015015e-01
-2.473141402006149292e-01
1.286213546991348267e-01
-4.669693484902381897e-02
-2.880665659904479980e-01
-2.517593801021575928e-01
4.341907799243927002e-01
-2.446437440812587738e-02
-3.027685284614562988e-01
-4.320445060729980469e-01
-2.520185708999633789e-01
-2.722518742084503174e-01
-7.090744376182556152e-02
1.407637298107147217e-01
-1.838473826646804810e-01
6.348526477813720703e-02
7.462154626846313477e-01
4.305027127265930176e-01
-1.835168302059173584e-01
2.426034808158874512e-01
1.304724812507629395e-01
-1.981810629367828369e-01
2.451975494623184204e-01
-1.195404380559921265e-01
-2.890654206275939941e-01
-1.136626228690147400e-01
1.878596425056457520e+00
5.234878882765769958e-02
-2.160653173923492432e-01
-4.421479701995849609e-01
-1.610561907291412354e-01
1.370439976453781128e-01
5.982045531272888184e-01
1.807343587279319763e-02
2.702521681785583496e-01
4.870554208755493164e-01
1.162547618150711060e-01
-3.143434226512908936e-01
-9.239230155944824219e-01
1.121731474995613098e-02
3.850179612636566162e-01
5.648123025894165039e-01
-3.513886928558349609e-01
7.417754828929901123e-02
2.423051893711090088e-01
5.032513737678527832e-01
5.337380170822143555e-01
-4.266928136348724365e-02
-9.278255105018615723e-01
-1.936019770801067352e-02
-1.293443590402603149e-01
-9.506431818008422852e-01
-5.564031600952148438e-01
-3.325968682765960693e-01
-2.175917923450469971e-01
-3.162694573402404785e-01
3.816687762737274170e-01
2.726760506629943848e-02
3.077315092086791992e-01
4.047966897487640381e-01
-4.975687339901924133e-02
1.062489390373229980e+00
-2.063694149255752563e-01
-2.274274826049804688e-01
-1.249699220061302185e-01
-6.284033413976430893e-03
-9.933489561080932617e-01
1.783332377672195435e-01
-3.321636915206909180e-01
-7.070147432386875153e-03
-6.257481873035430908e-02
5.014737248420715332e-01
4.502386227250099182e-02
5.503865480422973633e-01
-2.296194583177566528e-01
-9.865010529756546021e-02
6.863712519407272339e-02
-9.878930449485778809e-02
2.892176061868667603e-02
2.749804854393005371e-01
4.792778193950653076e-01
1.941276639699935913e-01
3.539082705974578857e-01
5.870086327195167542e-02
-2.736854255199432373e-01
4.094237685203552246e-01
-4.344446212053298950e-02
1.393251717090606689e-01
2.459424585103988647e-01
-3.747242391109466553e-01
-2.631915360689163208e-02
3.015211522579193115e-01
-2.988712191581726074e-01
-3.879212215542793274e-02
-4.078308865427970886e-02
-1.798754371702671051e-02
-2.024315893650054932e-01
1.717061549425125122e-01
-1.356490850448608398e-01
-5.921490788459777832e-01
3.593829870223999023e-01
-3.813335597515106201e-01
-1.398227512836456299e-01
4.241799935698509216e-02
-5.131177306175231934e-01
4.478972852230072021e-01
-4.848870262503623962e-02
-2.639719545841217041e-01
4.553598463535308838e-01
-8.181639760732650757e-02
1.173240467905998230e-01
1.800122857093811035e-01
8.443817496299743652e-02
4.805099591612815857e-02
6.603305935859680176e-01
-1.744441390037536621e-01
-7.311755418777465820e-01
1.414731442928314209e-01
-3.561339974403381348e-01
3.152510225772857666e-01
4.620671868324279785e-01
-9.446296691894531250e-01
-4.806526005268096924e-02
-3.716535568237304688e-01
-1.368753165006637573e-01
2.606415748596191406e-01
8.848313987255096436e-02
-3.472131192684173584e-01
-3.227275311946868896e-01
3.342248201370239258e-01
-1.924672275781631470e-01
1.991362497210502625e-02
1.753538846969604492e-01
1.712352037429809570e-01
2.101337164640426636e-01
-2.436404488980770111e-02
-5.529251694679260254e-01
1.433989405632019043e-01
6.713949143886566162e-02
1.072592213749885559e-01
2.135497927665710449e-01
-3.143451511859893799e-01
-2.544178366661071777e-01
-1.604894995689392090e-01
1.551287323236465454e-01
-2.237098664045333862e-02
5.298637151718139648e-01
-1.362233459949493408e-01
-3.889690339565277100e-01
3.214512467384338379e-01
-9.935968518257141113e-01
-2.673743665218353271e-01
4.897458851337432861e-01
4.091184437274932861e-01
4.633827507495880127e-01
-1.653802841901779175e-01
5.877733230590820312e-01
-4.167192578315734863e-01
-4.900371134281158447e-01
-1.059805378317832947e-01
-6.855957508087158203e-01
5.390161275863647461e-01
2.607339918613433838e-01
-5.823903903365135193e-02
4.660785794258117676e-01
-1.014449715614318848e+00
3.329614698886871338e-01
-1.316697448492050171e-01
-1.623717844486236572e-01
1.752807646989822388e-01
-1.213273406028747559e-02
-3.043987452983856201e-01
3.416976705193519592e-02
-6.450802087783813477e-02
5.168338418006896973e-01
-9.894044697284698486e-02
3.031309843063354492e-01
-1.893250457942485809e-02
-7.884903997182846069e-02
2.248160243034362793e-01
-6.501112133264541626e-02
3.686073794960975647e-02
3.570785745978355408e-02
5.161209106445312500e-01
-3.203396797180175781e-01
-1.512709408998489380e-01
-1.640604287385940552e-01
6.053545475006103516e-01
6.924338936805725098e-01
-2.077869772911071777e-01
1.800224632024765015e-01
3.224474191665649414e-01
-1.166564822196960449e-01
-5.231287479400634766e-01
-5.594979524612426758e-01
2.837606966495513916e-01
-4.324400052428245544e-02
-5.564356446266174316e-01
-1.157739013433456421e-02
3.739903867244720459e-01
-5.346646308898925781e-01
-2.188297510147094727e-01
5.005252361297607422e-02
-1.904798299074172974e-01
3.176968991756439209e-01
-1.653570294380187988e+00
8.138883113861083984e-01
1.430092751979827881e-01
5.900069605559110641e-03
3.586143255233764648e-01
-5.781891196966171265e-02
-2.369763553142547607e-01
1.026650518178939819e-01
-1.870136335492134094e-02
4.333203136920928955e-01
-6.475453972816467285e-01
-5.354733467102050781e-01
-3.647182881832122803e-02
-1.422212123870849609e-01
1.390865445137023926e-01
5.023709535598754883e-01
-9.135144203901290894e-02
3.187855482101440430e-01
4.751578718423843384e-02
-1.164129018783569336e+00
6.674613337963819504e-03
-2.943316102027893066e-01
-1.652801930904388428e-01
3.832882642745971680e-01
-1.638192385435104370e-01
4.157564938068389893e-01
2.662946581840515137e-01
-6.580746173858642578e-01
-3.548455536365509033e-01
-3.360985517501831055e-01
9.044151008129119873e-02
-2.029609531164169312e-01
4.660874903202056885e-01
-6.563161313533782959e-02
4.508198499679565430e-01
4.788391292095184326e-01
2.102743685245513916e-01
4.222096204757690430e-01
2.552653253078460693e-01
-1.957690529525279999e-02
1.728423982858657837e-01
-2.449094206094741821e-01
5.051563680171966553e-02
4.114633500576019287e-01
-1.466125547885894775e-01
3.581719100475311279e-01
3.960592746734619141e-01
-3.366698622703552246e-01
-6.727234721183776855e-01
-5.132463574409484863e-01
1.747383028268814087e-01
-2.814246416091918945e-01
1.319002807140350342e-01
-2.284264117479324341e-01
-1.160708442330360413e-01
-2.374835014343261719e-01
-5.909776687622070312e-01
-2.814512550830841064e-01
-3.591458797454833984e-01
-2.560578882694244385e-01
-5.587286502122879028e-02
4.707861542701721191e-01
2.309854328632354736e-02
-5.026012659072875977e-01
2.948745898902416229e-02
-8.196585178375244141e-01
-3.457275629043579102e-01
2.842781543731689453e-01
6.944938302040100098e-01
3.984168469905853271e-01
-7.839881628751754761e-02
1.006185486912727356e-01
-5.340785160660743713e-02
1.185297742486000061e-01
3.183918297290802002e-01
3.718072772026062012e-01
-8.801688998937606812e-02
5.698001012206077576e-02
-1.404283344745635986e-01
-9.308720827102661133e-01
1.698031127452850342e-01
-1.381143089383840561e-02
2.421186566352844238e-01
1.255885604768991470e-02
-3.323222696781158447e-01
4.075110852718353271e-01
2.359762191772460938e-01
-5.018118023872375488e-01
-2.685115337371826172e-01
-2.988457679748535156e-01
3.371362015604972839e-02
-5.649539232254028320e-01
1.301611661911010742e-01
-5.116340517997741699e-02
7.197249680757522583e-02
1.013181805610656738e-01
3.034139871597290039e-01
3.348095417022705078e-01
1.920040845870971680e-01
1.056866794824600220e-01
6.904537230730056763e-02
-3.857660293579101562e-01
6.700233556330204010e-03
1.145472601056098938e-01
-5.273880064487457275e-02
2.020619958639144897e-01
5.047246217727661133e-01
-4.645646512508392334e-01
-6.677394509315490723e-01
-4.428780078887939453e-01
2.387491911649703979e-01
-8.223233819007873535e-01
2.992992997169494629e-01
-3.436845839023590088e-01
1.064041256904602051e-01
-1.128464341163635254e-01
-2.566560730338096619e-02
-1.613694876432418823e-01
6.538232564926147461e-01
-1.534284651279449463e-01
1.496336311101913452e-01
1.528502106666564941e-01
-1.502350419759750366e-01
-4.576836824417114258e-01
1.813263446092605591e-01
-4.983294010162353516e-01
-8.615497499704360962e-02
3.741467297077178955e-01
1.242562681436538696e-01
1.056692674756050110e-01
1.569223403930664062e+00
-1.001444339752197266e+00
5.729273557662963867e-01
7.465965747833251953e-01
-9.112010896205902100e-02
5.389943718910217285e-01
-1.069130226969718933e-01
2.645762171596288681e-03
2.773738205432891846e-01
-4.089505672454833984e-01
4.364156723022460938e-01
-1.858630180358886719e-01
2.950684726238250732e-01
6.725434213876724243e-02
-4.405168890953063965e-01
7.547433674335479736e-02
1.246055364608764648e-01
1.649212837219238281e-01
-8.007907867431640625e-01
-7.100638151168823242e-01
4.842678606510162354e-01
-4.136940836906433105e-01
2.192945927381515503e-01
-9.014731040224432945e-05
-1.722475290298461914e-01
-8.620698750019073486e-02
3.538631498813629150e-01
-1.745128929615020752e-01
6.301228404045104980e-01
-2.128378003835678101e-01
-1.376179605722427368e-01
-8.726494759321212769e-02
-6.699236631393432617e-01
5.196127295494079590e-01
-7.291619479656219482e-02
-1.991782486438751221e-01
-2.278215736150741577e-01
1.924452632665634155e-01
3.244418799877166748e-01
-7.212421298027038574e-02
-5.831919312477111816e-01
-3.377379775047302246e-01
6.780011653900146484e-01
9.066646099090576172e-01
-6.417326927185058594e-01
-7.989759556949138641e-03
9.451465010643005371e-01
-5.352991446852684021e-02
3.917799890041351318e-01
-2.185640335083007812e-01
4.089464545249938965e-01
3.429026901721954346e-01
-7.097663730382919312e-02
-1.757872700691223145e-01
-2.050292044878005981e-01
-4.774221032857894897e-02
1.413373053073883057e-01
1.461875140666961670e-01
-2.089086920022964478e-01
3.089193105697631836e-01
5.286290049552917480e-01
-4.127297922968864441e-02
2.643276154994964600e-01
-4.497180506587028503e-02
9.600266814231872559e-01
7.550922632217407227e-01
-5.436558723449707031e-01
2.300061732530593872e-01
1.729323267936706543e-01
-5.572726130485534668e-01
-8.276923745870590210e-02
-2.432541251182556152e-01
1.988397389650344849e-01
6.090195849537849426e-02
-1.849869936704635620e-01
4.027075469493865967e-01
4.460433721542358398e-01
-1.671554297208786011e-01
-2.511202991008758545e-01
-2.181922197341918945e-01
-1.416748482733964920e-02
-3.627102077007293701e-01
1.606862992048263550e-01
-1.762888729572296143e-01
5.634459853172302246e-01
3.816721141338348389e-01
4.934223294258117676e-01
6.217271685600280762e-01
2.222799509763717651e-01
-2.340361326932907104e-01
6.028023362159729004e-02
-3.819667398929595947e-01
2.111031115055084229e-01
6.741700768470764160e-01
-4.598618745803833008e-01
6.264060139656066895e-01
4.590336680412292480e-01
-5.951040983200073242e-01
-6.654121875762939453e-01
-3.827986717224121094e-01
4.530076310038566589e-02
-1.869385540485382080e-01
5.730225890874862671e-02
2.841081283986568451e-02
5.018633231520652771e-02
3.370697498321533203e-01
4.178377389907836914e-01
4.623919725418090820e-01
1.698544323444366455e-01
-5.605178475379943848e-01
9.357992559671401978e-02
-1.521290391683578491e-01
-2.335571497678756714e-02
5.279385447502136230e-01
-4.807123541831970215e-01
4.412702918052673340e-01
5.662120580673217773e-01
-5.104467868804931641e-01
-4.388561844825744629e-01
-1.780697554349899292e-01
-2.166822403669357300e-01
1.550414264202117920e-01
-2.399360835552215576e-01
-1.134795665740966797e+00
-5.569143891334533691e-01
-1.332667171955108643e-01
-3.291119039058685303e-01
1.864209957420825958e-02
-8.203749656677246094e-01
2.541903853416442871e-01
-2.928565740585327148e-01
4.276997447013854980e-01
2.222569882869720459e-01
4.086361825466156006e-01
4.494558572769165039e-01
-1.621836051344871521e-02
-3.533600568771362305e-01
-3.887171298265457153e-02
8.393355607986450195e-01
5.323857069015502930e-01
-1.012891650199890137e+00
1.409596651792526245e-01
-9.178324043750762939e-02
-6.953991651535034180e-01
4.814004991203546524e-03
-9.706374257802963257e-02
2.833371460437774658e-01
1.007387414574623108e-01
-1.179695963859558105e+00
-3.790256083011627197e-01
-6.309015303850173950e-02
4.202390909194946289e-01
2.604201734066009521e-01
-1.227372735738754272e-01
-3.309879601001739502e-01
-6.729235500097274780e-02
1.341187208890914917e-01
-2.394550442695617676e-01
-2.333140000700950623e-02
1.213151067495346069e-01
-6.514564752578735352e-01
-9.011672437191009521e-02
-1.661176681518554688e-01
-1.213619112968444824e-01
6.786714494228363037e-02
1.180406212806701660e-01
3.454071283340454102e-02
1.555482149124145508e-01
4.601254165172576904e-01
-2.671371102333068848e-01
3.857453763484954834e-01
5.011114478111267090e-02
-3.062664866447448730e-01
8.555977046489715576e-02
-6.502900272607803345e-02
-9.353984892368316650e-02
3.482880890369415283e-01
4.804117679595947266e-01
4.274938106536865234e-01
2.273604273796081543e-02
-3.281815946102142334e-01
-3.869260847568511963e-01
-6.082156300544738770e-01
-9.764395654201507568e-03
5.492762923240661621e-01
-5.371677130460739136e-02
7.960134744644165039e-01
-4.608277976512908936e-01
-2.705568075180053711e-01
-2.136472612619400024e-02
-3.250087499618530273e-01
-1.114374771714210510e-01
2.184198983013629913e-02
-5.922210812568664551e-01
2.183055877685546875e-01
-6.170945763587951660e-01
-5.746160149574279785e-01
5.299739539623260498e-03
-3.915923088788986206e-02
-4.531082883477210999e-02
-1.908905953168869019e-01
-2.186842113733291626e-01
-3.766115009784698486e-01
-3.288087844848632812e-01
-2.452092990279197693e-02
4.101399332284927368e-02
-1.141381934285163879e-01
-1.195798963308334351e-01
1.036898121237754822e-01
-1.327774673700332642e-01
1.983922421932220459e-01
2.421095222234725952e-01
-2.334022969007492065e-01
-1.564972996711730957e-01
-5.048325657844543457e-01
1.250429749488830566e-01
-2.418367266654968262e-01
-8.745994418859481812e-03
3.456413447856903076e-01
2.756244838237762451e-01
6.649253517389297485e-02
2.433535642921924591e-02
2.430990040302276611e-01
-3.031342327594757080e-01
5.383769869804382324e-01
4.462177753448486328e-01
2.868664637207984924e-02
3.152421116828918457e-01
3.171694874763488770e-01
-1.301408186554908752e-02
2.284761369228363037e-01
8.259818702936172485e-02
-3.293579816818237305e-01
-3.427937030792236328e-01
-5.525216460227966309e-02
1.651410758495330811e-01
1.481404900550842285e-01
3.921326696872711182e-01
2.568125128746032715e-01
-5.638125911355018616e-02
4.142588973045349121e-01
3.344835638999938965e-01
2.385876774787902832e-01
1.505754142999649048e-01
7.442049682140350342e-02
-2.895707488059997559e-01
-1.464489251375198364e-01
-1.171624660491943359e-01
-5.942016094923019409e-02
4.016078412532806396e-01
-2.245783358812332153e-01
-2.369094192981719971e-01
8.855947107076644897e-02
-2.584125697612762451e-01
1.162317544221878052e-01
-6.912253499031066895e-01
2.688474953174591064e-01
-3.731372952461242676e-01
-3.099637329578399658e-01
-1.838042736053466797e-01
5.703070387244224548e-02
-3.197009861469268799e-01
-1.016890168190002441e+00
-3.451640307903289795e-01
-2.202207893133163452e-01
-5.938800051808357239e-03
-1.409147679805755615e-01
2.767010629177093506e-01
1.002124175429344177e-01
-3.774338662624359131e-01
3.846073746681213379e-01
2.531364262104034424e-01
-1.121962219476699829e-01
-2.006966322660446167e-01
6.411059293895959854e-03
-1.542673110961914062e-01
-2.716188132762908936e-01
1.233847066760063171e-01
3.085486590862274170e-01
1.983609497547149658e-01
-8.096788078546524048e-02
-1.916410285048186779e-03
-6.333955526351928711e-01
-1.952412128448486328e-01
1.956108361482620239e-01
3.822071552276611328e-01
-1.952271349728107452e-02
2.472746521234512329e-01
3.955171406269073486e-01
-2.138032168149948120e-01
5.811610817909240723e-01
2.772358953952789307e-01
-3.211458623409271240e-01
1.463941633701324463e-01
-1.745186895132064819e-01
2.018061727285385132e-01
-4.808556661009788513e-02
4.696439504623413086e-01
1.712715327739715576e-01
1.909336000680923462e-01
-2.203607261180877686e-01
3.403863310813903809e-01
1.199939846992492676e+00
2.090350240468978882e-01
-9.756960719823837280e-02
-2.934699952602386475e-01
2.258252799510955811e-01
-8.644354343414306641e-01
6.500235199928283691e-02
-1.102423518896102905e-01
-6.747596859931945801e-01
-5.622822046279907227e-02
1.629051417112350464e-01
-4.420061409473419189e-02
3.741316124796867371e-02
-5.036947727203369141e-01
1.998636424541473389e-01
8.312454819679260254e-02
-2.340496480464935303e-01
1.369367241859436035e-01
-5.073035955429077148e-01
6.669341772794723511e-02
-1.448075324296951294e-01
3.624571263790130615e-01
1.025248408317565918e+00
-4.683440625667572021e-01
-2.561898902058601379e-03
-1.903707981109619141e-01
-3.025979101657867432e-01
2.209409922361373901e-01
-4.529007375240325928e-01
-3.131232559680938721e-01
2.692572772502899170e-01
-1.111570820212364197e-01
1.471700221300125122e-01
5.542197823524475098e-01
-4.488300383090972900e-01
-1.924421191215515137e-01
-4.444803297519683838e-01
-3.872047066688537598e-01
4.670988768339157104e-02
-4.394632875919342041e-01
1.954962015151977539e-01
-5.652032047510147095e-02
-2.965087816119194031e-02
1.870540529489517212e-01
-7.764065265655517578e-01
1.647588610649108887e-01
1.836992427706718445e-02
-3.218507766723632812e-01
2.508550882339477539e-01
3.509213924407958984e-01
-1.502558887004852295e-01
3.347853720188140869e-01
1.932467520236968994e-01
2.109901905059814453e-01
-6.107396259903907776e-02
3.484036028385162354e-01
3.337390348315238953e-02
1.827856898307800293e-01
4.801968038082122803e-01
1.255290023982524872e-02
-2.197683751583099365e-01
5.115388706326484680e-02
-1.798616200685501099e-01
-8.494884520769119263e-02
-4.482721909880638123e-02
8.560728281736373901e-03
1.910271197557449341e-01
2.688055634498596191e-01
-3.058948367834091187e-02
-1.606724858283996582e-01
4.961480945348739624e-02
-3.805919736623764038e-02
1.316054701805114746e+00
5.830851569771766663e-02
1.261307597160339355e-01
7.592757791280746460e-02
6.106004118919372559e-02
-6.209591031074523926e-01
-1.124803647398948669e-01
2.118922621011734009e-01
-3.910380303859710693e-01
5.175710096955299377e-02
2.155484557151794434e-01
-3.122882544994354248e-01
8.514795452356338501e-02
-3.962716162204742432e-01
-2.363284304738044739e-02
4.141362905502319336e-01
-5.897252559661865234e-01
-2.470832914113998413e-01
2.406423687934875488e-01
4.876963794231414795e-02
1.522779315710067749e-01
3.180269002914428711e-01
-1.802565157413482666e-01
-3.398634195327758789e-01
-2.060451805591583252e-01
-6.880234926939010620e-02
-1.228282004594802856e-01
7.452473640441894531e-01
-7.257106900215148926e-01
-7.585239410400390625e-02
-4.900026619434356689e-01
-3.132858276367187500e-01
-1.336200535297393799e-01
-2.307358570396900177e-02
-2.222101092338562012e-01
2.038770914077758789e-01
1.645273715257644653e-01
-2.528768479824066162e-01
3.266630172729492188e-01
2.459018677473068237e-01
2.870787382125854492e-01
-6.519340723752975464e-02
8.671453222632408142e-03
-8.828797191381454468e-02
8.527367562055587769e-02
-2.982482612133026123e-01
2.199164927005767822e-01
-1.511558052152395248e-02
-8.603992313146591187e-02
3.123371303081512451e-01
2.233474105596542358e-01
-4.692255258560180664e-01
1.412004977464675903e-01
-1.904161870479583740e-01
-3.629905283451080322e-01
4.515286087989807129e-01
-3.888107240200042725e-01
-4.547060132026672363e-01
1.343508809804916382e-01
-9.802749752998352051e-02
7.885625213384628296e-02
2.276838868856430054e-01
2.729987502098083496e-01
-2.670525312423706055e-01
-3.377023339271545410e-01
2.573997527360916138e-02
1.667305380105972290e-01
3.957020938396453857e-01
1.094564676284790039e+00
2.009215950965881348e-01
-6.790071725845336914e-01
-7.101109623908996582e-02
1.029275506734848022e-01
-7.010032981634140015e-02
-2.950941324234008789e-01
2.713723778724670410e-01
2.316780686378479004e-01
-4.802096262574195862e-02
1.036849692463874817e-01
3.039853274822235107e-01
1.452316045761108398e-01
2.818026840686798096e-01
6.002888083457946777e-01
-6.823464063927531242e-04
-1.179830655455589294e-01
-4.257833212614059448e-02
-1.052193995565176010e-02
-2.081242352724075317e-01
-1.161626577377319336e+00
-2.888837754726409912e-01
1.635916978120803833e-01
3.264743387699127197e-01
-2.096477895975112915e-03
3.163375854492187500e-01
3.073954284191131592e-01
-2.326716929674148560e-01
1.546292454004287720e-01
2.804947197437286377e-01
-2.540949583053588867e-01
-1.139012947678565979e-01
-2.602143883705139160e-01
3.137947991490364075e-02
-2.504714429378509521e-01
1.003419235348701477e-01
2.966061830520629883e-01
3.850600123405456543e-02
-2.559570670127868652e-01
3.289524018764495850e-01
6.859936714172363281e-01
1.718775629997253418e-01
-4.672886133193969727e-01
-2.128891497850418091e-01
5.611277222633361816e-01
2.020418047904968262e-01
-3.366027027368545532e-02
1.554049700498580933e-01
1.815374046564102173e-01
2.475677430629730225e-02
-7.644105702638626099e-02
-2.628602087497711182e-01
-6.908663362264633179e-02
-6.795507669448852539e-01
4.899423420429229736e-01
-7.031704485416412354e-02
6.408356130123138428e-02
-2.352014482021331787e-01
4.633020460605621338e-01
-5.836572051048278809e-01
3.239738643169403076e-01
-3.037661612033843994e-01
-1.840085238218307495e-01
2.891137599945068359e-01
-1.757246106863021851e-01
2.543119788169860840e-01
4.386961162090301514e-01
-3.443773388862609863e-01
3.070763051509857178e-01
3.672021031379699707e-01
-2.988472282886505127e-01
3.363915085792541504e-01
-3.177565336227416992e-01
-2.016021460294723511e-01
3.413386046886444092e-01
5.805597901344299316e-01
2.565900981426239014e-01
3.271389007568359375e-01
4.050831869244575500e-02
-3.231799304485321045e-01
3.297140002250671387e-01
8.093904703855514526e-02
-6.519351005554199219e-01
1.028759405016899109e-01
-4.414890706539154053e-01
1.087000221014022827e-01
1.750680059194564819e-01
-6.421574950218200684e-02
2.702243328094482422e-01
-2.327000722289085388e-02
-1.680706441402435303e-01
2.547148764133453369e-01
2.354678884148597717e-02
1.330538839101791382e-01
6.080506443977355957e-01
2.961400747299194336e-01
2.641662359237670898e-01
-3.984031975269317627e-01
2.050288170576095581e-01
2.016767114400863647e-01
9.515029937028884888e-02
8.573991805315017700e-02
8.385325074195861816e-01
-1.967801600694656372e-01
2.984379529953002930e-01
-1.437870860099792480e-01
-2.073690444231033325e-01
1.604210734367370605e-01
1.233444362878799438e-02
-1.237976327538490295e-01
2.358125708997249603e-02
-2.546756267547607422e-01
1.537667363882064819e-01
-2.337575912475585938e+00
5.096731185913085938e-01
2.963520027697086334e-02
-1.135050505399703979e-01
2.897098101675510406e-02
6.068825349211692810e-02
-6.671962738037109375e-01
-5.619125440716743469e-02
-4.556638188660144806e-03
4.950094223022460938e-01
2.114787511527538300e-02
4.510977268218994141e-01
1.590706855058670044e-01
1.699402332305908203e-01
-2.310569137334823608e-01
8.649479597806930542e-02
2.195127904415130615e-01
-2.220194190740585327e-01
-2.671250700950622559e-01
-1.550089754164218903e-02
-9.029152989387512207e-01
7.256384193897247314e-02
3.970713317394256592e-01
2.482552826404571533e-01
2.391789108514785767e-02
5.408965945243835449e-01
1.949084699153900146e-01
1.926548033952713013e-01
4.757846593856811523e-01
-4.163982272148132324e-01
2.585473656654357910e-01
2.515452504158020020e-01
-6.318280100822448730e-02
-3.802189528942108154e-01
1.153992339968681335e-01
-3.249410390853881836e-01
-1.683330386877059937e-01
9.360554069280624390e-02
-2.928415834903717041e-01
-1.344540715217590332e-01
1.878168731927871704e-01
-2.126731723546981812e-01
2.974962890148162842e-01
-1.496230214834213257e-01
1.531052142381668091e-01
3.201114013791084290e-03
-9.670153260231018066e-02
-6.272807717323303223e-01
-5.747741460800170898e-01
5.723837614059448242e-01
-5.376035571098327637e-01
-4.381765723228454590e-01
4.749024510383605957e-01
5.707008838653564453e-01
1.922791637480258942e-02
4.787302911281585693e-01
3.185314834117889404e-01
1.075694039463996887e-01
5.763219594955444336e-01
1.243965625762939453e-01
-3.395927250385284424e-01
-8.538265526294708252e-02
-4.323057532310485840e-01
3.471988141536712646e-01
-2.605440318584442139e-01
1.363024562597274780e-01
3.219867348670959473e-01
-5.308659076690673828e-01
-3.261918425559997559e-01
6.242150068283081055e-01
-5.350320339202880859e-01
-5.870417356491088867e-01
1.443429142236709595e-01
4.732911288738250732e-01
-7.015226781368255615e-02
2.006659805774688721e-01
3.691463768482208252e-01
2.546574771404266357e-01
4.604332447052001953e-01
-2.216072827577590942e-01
-5.307769179344177246e-01
1.611626148223876953e-01
-1.345974653959274292e-01
-1.407388015650212765e-03
2.563933730125427246e-01
2.430433034896850586e-01
-2.361405193805694580e-01
-6.296668201684951782e-02
9.807939827442169189e-02
1.298167556524276733e-01
1.362339705228805542e-01
-1.896008253097534180e-01
6.351022422313690186e-02
2.234664186835289001e-02
2.833504974842071533e-01
-7.418071478605270386e-02
-1.635489761829376221e-01
2.971997112035751343e-02
-9.003949910402297974e-02
9.508498013019561768e-02
-2.149654738605022430e-02
5.954782366752624512e-01
2.903328537940979004e-01
1.313522756099700928e-01
1.562729835510253906e+00
8.298075199127197266e-01
4.419523179531097412e-01
-1.833376437425613403e-01
-2.197435945272445679e-01
4.120602607727050781e-01
-3.969076573848724365e-01
-1.498030573129653931e-01
9.023677557706832886e-02
2.517858147621154785e-01
2.646213583648204803e-02
3.047021571546792984e-03
2.857809662818908691e-01
-4.029490798711776733e-02
3.906783759593963623e-01
-1.815024763345718384e-01
-8.009266853332519531e-02
8.260441571474075317e-02
-2.749324440956115723e-01
-6.161103397607803345e-02
-2.057352662086486816e-02
4.305491447448730469e-01
-1.341850608587265015e-01
-2.030185312032699585e-01
-1.776060909032821655e-01
2.905086278915405273e-01
-1.787267029285430908e-01
-2.004804313182830811e-01
1.884134113788604736e-01
3.687788248062133789e-01
1.816843748092651367e-01
2.305902689695358276e-01
2.984990775585174561e-01
4.691114276647567749e-02
1.723861694335937500e-01
3.006813526153564453e-01
-4.591875672340393066e-01
-2.788419649004936218e-02
9.443961828947067261e-02
4.429905414581298828e-01
-2.549820020794868469e-02
-1.698597706854343414e-02
-1.430617924779653549e-02
8.945526927709579468e-02
2.703409790992736816e-01
-4.303860962390899658e-01
2.168058305978775024e-01
4.972475767135620117e-01
-7.198658585548400879e-01
-4.797786176204681396e-01
-2.177400328218936920e-02
-9.893360733985900879e-02
-1.130325868725776672e-01
-9.495387226343154907e-02
-1.530456840991973877e-01
-8.873331546783447266e-02
1.285526007413864136e-01
-3.960818797349929810e-02
2.589281797409057617e-01
-2.295232862234115601e-01
3.170892894268035889e-01
-1.527691781520843506e-01
-1.135986149311065674e-01
3.900950253009796143e-01
1.453504711389541626e-01
-3.762631416320800781e-01
1.264112442731857300e-01
2.935764193534851074e-01
-4.745368659496307373e-02
-3.412427902221679688e-01
5.521334335207939148e-02
-4.162619411945343018e-01
-2.652920484542846680e-01
-5.946605801582336426e-01
-4.663766920566558838e-01
5.864167958498001099e-02
1.801924407482147217e-01
2.325158119201660156e-01
7.608738541603088379e-01
-2.076439000666141510e-02
-1.192981079220771790e-01
1.558185517787933350e-01
2.783782482147216797e-01
4.967372119426727295e-02
-1.733840405941009521e-01
-1.050661578774452209e-01
-9.907872974872589111e-02
9.094110131263732910e-02
-2.602968215942382812e-01
-1.917038857936859131e-01
-2.510955333709716797e-01
4.109707772731781006e-01
8.659791201353073120e-03
-3.738712668418884277e-01
-1.509797722101211548e-01
6.802572309970855713e-02
7.390277087688446045e-02
-4.470023512840270996e-02
-2.944227159023284912e-01
-2.317916750907897949e-01
-4.294696450233459473e-01
1.372226029634475708e-01
-3.687648847699165344e-02
-6.248761713504791260e-02
1.862028497271239758e-03
2.842951118946075439e-01
-1.726265102624893188e-01
-1.081473082304000854e-01
2.509691715240478516e-01
2.574101388454437256e-01
-9.363635629415512085e-02
3.088088929653167725e-01
2.882520481944084167e-02
2.113576084375381470e-01
3.198424577713012695e-01
4.550968110561370850e-02
-3.686182200908660889e-01
5.911360681056976318e-02
1.887595653533935547e-02
-3.439916670322418213e-01
6.142280697822570801e-01
4.263082444667816162e-01
-4.276222586631774902e-01
-3.616547584533691406e-01
-9.129805862903594971e-02
1.801769994199275970e-02
-3.034202158451080322e-01
-2.166074961423873901e-01
2.520120739936828613e-01
2.655337452888488770e-01
-3.654399141669273376e-02
2.594641149044036865e-01
-7.364155352115631104e-02
-2.225202172994613647e-01
1.015130579471588135e-01
9.478905797004699707e-01
-2.120071649551391602e-01
3.874278664588928223e-01
4.038425683975219727e-01
2.274096161127090454e-01
1.880041807889938354e-01
-4.725170135498046875e-01
6.423941999673843384e-02
-4.593788180500268936e-03
-5.060080438852310181e-02
-7.262317836284637451e-02
1.781102418899536133e-01
1.528093367815017700e-01
6.069705635309219360e-02
-2.747682929039001465e-01
3.100791275501251221e-01
-4.761569499969482422e-01
-6.534627079963684082e-02
-3.142859414219856262e-02
-3.392033278942108154e-01
3.323064148426055908e-01
2.901013195514678955e-02
-4.437089562416076660e-01
2.390474639832973480e-02
-4.557363316416740417e-02
1.102349981665611267e-01
-2.620050609111785889e-01
6.299568712711334229e-02
4.331648051738739014e-01
1.274721771478652954e-01
-4.402664899826049805e-01
4.130012691020965576e-01
3.585219979286193848e-01
1.463838620111346245e-03
-1.441157758235931396e-01
2.230664342641830444e-01
-3.370925486087799072e-01
-1.752251833677291870e-01
-1.115446686744689941e-01
-2.512107491493225098e-01
3.374851047992706299e-01
2.714101076126098633e-01
-5.119790136814117432e-02
1.411601006984710693e-01
-3.463579714298248291e-02
-1.648948788642883301e-01
-1.576761752367019653e-01
-1.095331832766532898e-01
-2.931607067584991455e-01
-1.643602848052978516e-01
1.426748186349868774e-01
-4.969864785671234131e-01
-5.477332472801208496e-01
6.610173583030700684e-01
5.081432461738586426e-01
1.553308367729187012e-01
3.307957351207733154e-01
2.428320199251174927e-01
6.452234089374542236e-02
4.570862650871276855e-01
3.883149027824401855e-01
-4.450823068618774414e-01
4.839134514331817627e-01
-7.631444372236728668e-03
1.793565899133682251e-01
2.814868092536926270e-01
7.201879471540451050e-02
-2.618238888680934906e-02
-2.166944891214370728e-01
-1.063470169901847839e-01
3.263302147388458252e-01
-1.177072823047637939e-01
-2.230025827884674072e-03
-6.181768327951431274e-02
2.160564064979553223e-01
-1.303005367517471313e-01
3.976643979549407959e-01
2.654640078544616699e-01
1.326199807226657867e-02
2.569092512130737305e-01
-3.464584648609161377e-01
-2.846726179122924805e-01
-2.055965662002563477e-01
-3.894142210483551025e-01
3.650029003620147705e-02
3.482447564601898193e-01
-1.612797230482101440e-01
-3.341288268566131592e-01
4.856133833527565002e-02
8.168058469891548157e-03
-2.166333422064781189e-02
1.859567165374755859e-01
-6.792949512600898743e-03
-6.062173843383789062e-01
-3.563415110111236572e-01
-9.802123904228210449e-02
1.596670448780059814e-01
-4.863452315330505371e-01
4.016509056091308594e-01
-1.483518779277801514e-01
-4.201139509677886963e-02
3.581954538822174072e-01
3.210821151733398438e-01
2.409837692975997925e-01
3.211729824542999268e-01
2.274822145700454712e-01
-6.542400121688842773e-01
-4.193330705165863037e-01
-1.315125972032546997e-01
-2.098341435194015503e-01
-7.292017340660095215e-02
6.594095379114151001e-02
-1.827916800975799561e-01
-5.108640193939208984e-01
-1.838914155960083008e-01
-1.122643873095512390e-01
6.342621892690658569e-02
-1.012442111968994141e-01
1.173686757683753967e-01
-3.466408699750900269e-02
-5.225236415863037109e-01
2.240701466798782349e-01
-2.700900733470916748e-01
4.074218496680259705e-02
8.792623877525329590e-02
3.384739533066749573e-02
-1.552166491746902466e-01
-3.492707014083862305e-01
-1.434562355279922485e-01
-1.045191586017608643e-01
2.167139351367950439e-01
-1.207382678985595703e-01
-8.840776234865188599e-02
2.977083623409271240e-01
2.366608083248138428e-01
-3.472875431180000305e-02
-1.781594939529895782e-02
3.640171587467193604e-01
1.808386147022247314e-01
-9.897704422473907471e-02
5.324410200119018555e-01
-2.451991289854049683e-01
4.562270641326904297e-01
2.180620729923248291e-01
3.073924481868743896e-01
2.723237872123718262e-01
2.078111916780471802e-01
-2.235941961407661438e-02
2.412505894899368286e-01
-5.349921435117721558e-02
-7.475613616406917572e-03
5.498322471976280212e-02
3.636690974235534668e-01
-1.512879971414804459e-02
-2.000252604484558105e-01
5.962717905640602112e-02
-6.317146420478820801e-01
-1.968446522951126099e-01
-3.346755802631378174e-01
-2.699443697929382324e-01
8.328354358673095703e-02
5.025651678442955017e-02
-2.726563513278961182e-01
6.364465504884719849e-02
-1.373215019702911377e-01
-2.069492936134338379e-01
-7.975137233734130859e-02
5.140023306012153625e-02
-1.402705758810043335e-01
-5.929439514875411987e-02
4.085103869438171387e-01
-3.659756779670715332e-01
-2.621869444847106934e-01
2.867329418659210205e-01
2.798477113246917725e-01
1.243465915322303772e-01
1.594319939613342285e-01
5.742392539978027344e-01
-2.406713217496871948e-01
4.113708138465881348e-01
-1.301680784672498703e-02
-2.500504255294799805e-01
-4.156737327575683594e-01
6.237094849348068237e-02
2.052788436412811279e-02
1.059502437710762024e-01
-4.534834027290344238e-01
9.970381855964660645e-02
2.186119705438613892e-01
2.259161770343780518e-01
-6.760207563638687134e-02
6.092859059572219849e-02
8.182823657989501953e-02
-2.208946198225021362e-01
-1.509482413530349731e-01
-1.753108203411102295e-01
-8.610927462577819824e-01
-2.838028073310852051e-01
-4.886194169521331787e-01
-7.450931519269943237e-02
3.517776131629943848e-01
1.381920427083969116e-01
-2.165173552930355072e-02
-4.284280911087989807e-02
-6.462737917900085449e-01
3.609105572104454041e-02
2.020766213536262512e-02
-2.899358272552490234e-01
-3.127756416797637939e-01
3.302349895238876343e-02
-3.979574441909790039e-01
-4.183241426944732666e-01
4.999531507492065430e-01
2.169844806194305420e-01
2.699913680553436279e-01
-8.417577296495437622e-02
-5.925602838397026062e-02
2.162492424249649048e-01
1.810793727636337280e-01
-4.145558774471282959e-01
-1.584177017211914062e-01
4.319070577621459961e-01
1.441882699728012085e-01
8.755835890769958496e-02
3.375086188316345215e-01
-5.699964612722396851e-02
-2.351970598101615906e-02
-1.212476864457130432e-01
7.384820841252803802e-03
-2.261025667190551758e+00
-2.024660557508468628e-01
3.299951553344726562e-02
1.141811460256576538e-01
-1.262812465429306030e-01
6.042468361556529999e-03
-2.732748091220855713e-01
-1.573408693075180054e-01
4.732410609722137451e-02
-5.827554687857627869e-02
-8.417101949453353882e-02
5.295651033520698547e-02
2.571496069431304932e-01
1.740181297063827515e-01
-1.789784580469131470e-01
1.158336997032165527e-01
-1.451749354600906372e-02
7.814034074544906616e-02
-2.345227301120758057e-01
-1.562417149543762207e-01
5.871517118066549301e-03
3.636263310909271240e-01
2.788900211453437805e-02
-2.510310709476470947e-01
1.222812458872795105e-01
-1.323117502033710480e-02
-2.867146022617816925e-02
9.842803701758384705e-03
2.217133194208145142e-01
1.313270926475524902e-01
-2.514160275459289551e-01
-1.192110031843185425e-01
-3.748928308486938477e-01
-1.290386170148849487e-01
7.905040681362152100e-02
1.742905378341674805e-01
2.973081469535827637e-01
1.660868972539901733e-01
-1.441494077444076538e-01
-2.057190984487533569e-01
1.754599809646606445e-02
1.258496344089508057e-01
1.126361861824989319e-01
-3.015190064907073975e-01
8.366736024618148804e-02
2.205101251602172852e-01
-2.420490421354770660e-02
5.125886797904968262e-01
2.282967865467071533e-01
4.619361087679862976e-02
1.352218389511108398e-01
-1.291018873453140259e-01
-1.970928758382797241e-01
-3.594891130924224854e-01
1.263866275548934937e-01
2.100289314985275269e-01
-3.588894382119178772e-02
-1.410423517227172852e-01
-7.208049297332763672e-02
6.057860329747200012e-02
9.457404166460037231e-02
