4.843209981918334961e-01
-3.757904171943664551e-01
-2.914258651435375214e-02
1.436028778553009033e-01
-3.220036923885345459e-01
6.620779633522033691e-01
2.860920131206512451e-02
2.578531503677368164e-01
1.486190557479858398e-01
-1.202187776565551758e+00
-5.563724786043167114e-02
2.403582036495208740e-01
1.428677886724472046e-01
-2.903833985328674316e-01
-9.047164022922515869e-02
-1.047997355461120605e+00
-3.641246585175395012e-03
1.916988492012023926e-01
4.786780774593353271e-01
8.183909654617309570e-01
-6.141123920679092407e-02
-1.402557730674743652e+00
5.129108577966690063e-02
-8.690590858459472656e-01
-2.134246565401554108e-02
-6.405752301216125488e-01
1.943741291761398315e-01
9.908109903335571289e-01
-3.944886326789855957e-01
4.599285721778869629e-01
-7.403741590678691864e-03
2.134925425052642822e-01
3.786122500896453857e-01
-5.395274758338928223e-01
-3.341240882873535156e-01
-6.519573330879211426e-01
2.229839265346527100e-01
4.880161285400390625e-01
2.785098850727081299e-01
1.252756267786026001e-01
1.006261348724365234e+00
-8.599534034729003906e-01
8.499537706375122070e-01
-2.520688474178314209e-01
2.015489041805267334e-01
5.395563244819641113e-01
-7.205458283424377441e-01
6.615656614303588867e-01
-5.149052143096923828e-01
3.155010938644409180e-01
-2.245177626609802246e-01
-2.869838178157806396e-01
5.796692967414855957e-01
-6.290632486343383789e-01
1.194071054458618164e+00
-1.784738339483737946e-02
1.490052938461303711e-01
-8.085159659385681152e-01
1.499480605125427246e+00
7.287511229515075684e-01
1.796437948942184448e-01
-3.089620172977447510e-01
-1.620420366525650024e-01
1.302444376051425934e-02
3.147618174552917480e-01
1.084802895784378052e-01
1.873952150344848633e-01
8.737730979919433594e-01
-2.367996871471405029e-01
-8.174811005592346191e-01
2.009965330362319946e-01
2.580210566520690918e-02
2.425760924816131592e-01
-9.272379875183105469e-01
-4.208799824118614197e-02
-5.074139684438705444e-02
4.510675370693206787e-01
2.456400692462921143e-01
2.827157452702522278e-02
5.054414868354797363e-01
-4.168863296508789062e-01
-1.107583194971084595e-01
-1.693384945392608643e-01
-2.671577930450439453e-01
4.717509150505065918e-01
-3.118220567703247070e-01
-7.182238250970840454e-02
3.142112791538238525e-01
-2.731393463909626007e-02
-3.227313756942749023e-01
6.433166861534118652e-01
3.191642165184020996e-01
7.561053335666656494e-02
-1.532691866159439087e-01
-2.577005624771118164e-01
-5.093809962272644043e-01
-1.239581778645515442e-01
8.595851659774780273e-01
-4.462311565876007080e-01
-5.803250074386596680e-01
1.983254104852676392e-01
-1.893469095230102539e-01
5.144075751304626465e-01
1.234486103057861328e-01
-7.622123360633850098e-01
1.369395405054092407e-01
1.931277662515640259e-01
-5.761299282312393188e-02
-3.206247091293334961e-01
2.005667984485626221e-01
-2.022354155778884888e-01
-4.123111963272094727e-01
3.288012444972991943e-01
2.473265826702117920e-01
3.030260503292083740e-01
2.994989752769470215e-01
-3.919619917869567871e-01
-3.829404711723327637e-02
-5.145332776010036469e-03
-2.972805798053741455e-01
-3.052480220794677734e-01
1.236132904887199402e-01
2.495179623365402222e-01
1.198749989271163940e-02
1.904804706573486328e-01
-1.585655510425567627e-01
-9.652896225452423096e-02
-1.550737321376800537e-01
2.316450774669647217e-01
-1.277261823415756226e-01
3.439331054687500000e-02
1.060137301683425903e-01
-1.558557599782943726e-01
-1.144750937819480896e-01
4.835691303014755249e-02
1.133110895752906799e-01
-3.700312077999114990e-01
1.680765897035598755e-01
1.058522760868072510e-01
-2.503970861434936523e-01
-1.748035669326782227e+00
6.902852654457092285e-01
-1.702204048633575439e-01
8.370063900947570801e-01
2.589235603809356689e-01
-2.992717921733856201e-01
1.138293370604515076e-01
-4.276210069656372070e-01
3.662484288215637207e-01
9.335041791200637817e-02
2.308509871363639832e-02
2.650717794895172119e-01
-3.573354482650756836e-01
3.271123170852661133e-01
-2.780970931053161621e-01
-4.342039301991462708e-02
-7.665006518363952637e-01
-7.150205783545970917e-03
-1.466369330883026123e-01
-8.235065937042236328e-01
7.979901880025863647e-02
-1.652313768863677979e-01
5.879812240600585938e-01
-3.241532295942306519e-02
-7.771705985069274902e-01
3.039050698280334473e-01
-3.759431540966033936e-01
2.601030170917510986e-01
-4.782186448574066162e-01
-3.190591037273406982e-01
-4.534991383552551270e-01
-4.659940600395202637e-01
1.928588449954986572e-01
-3.734211623668670654e-01
5.716709494590759277e-01
6.503142714500427246e-01
2.167352586984634399e-01
-7.405868917703628540e-02
-3.777835518121719360e-02
2.995163500308990479e-01
1.321004610508680344e-02
-2.213959246873855591e-01
-1.067804455757141113e+00
-7.646948099136352539e-01
3.575156033039093018e-01
1.999416947364807129e-01
4.569246768951416016e-01
1.588530391454696655e-01
-1.911322176456451416e-01
3.768814206123352051e-01
1.027788445353507996e-01
1.591838747262954712e-01
3.005487620830535889e-01
-1.168312281370162964e-01
-2.584957480430603027e-01
-2.978761196136474609e-01
5.970345139503479004e-01
-7.686277478933334351e-02
3.580465614795684814e-01
1.086351796984672546e-01
3.604587912559509277e-01
-3.047306835651397705e-01
4.407952725887298584e-01
3.032700903713703156e-02
-1.248202249407768250e-01
1.922663003206253052e-01
-1.975612789392471313e-01
3.382398188114166260e-01
-3.842624649405479431e-02
-1.353523582220077515e-01
-1.525585800409317017e-01
-1.233405470848083496e-01
-2.669137530028820038e-02
-4.076780676841735840e-01
3.659454286098480225e-01
4.133950173854827881e-01
-2.298010289669036865e-01
-2.848075032234191895e-01
5.455660074949264526e-02
2.083331048488616943e-01
-4.266887307167053223e-01
2.945460975170135498e-01
-1.065993458032608032e-01
-2.464938759803771973e-01
-5.597258210182189941e-01
-1.670064181089401245e-01
-1.451529562473297119e-01
4.390417411923408508e-02
4.616651684045791626e-03
6.878400444984436035e-01
-9.268706440925598145e-01
-5.229752659797668457e-01
3.077610135078430176e-01
2.396434396505355835e-01
-3.121189214289188385e-02
4.557320848107337952e-02
-2.957170903682708740e-01
-7.366568595170974731e-02
-1.868390850722789764e-02
-6.536447256803512573e-02
-1.228775531053543091e-01
-7.729111611843109131e-02
9.751934558153152466e-02
1.451375335454940796e-01
-9.905963391065597534e-02
-3.764139954000711441e-03
-9.653330594301223755e-02
-2.952648103237152100e-01
-5.496570467948913574e-02
6.155791506171226501e-02
-5.612447857856750488e-02
-1.575567573308944702e-01
8.161540329456329346e-02
4.444013535976409912e-01
8.783980458974838257e-02
-6.211087107658386230e-03
-3.436670005321502686e-01
2.332612127065658569e-01
3.633760148659348488e-03
-1.370090991258621216e-01
5.922954082489013672e-01
-1.236434504389762878e-01
-2.221818268299102783e-01
-4.911339282989501953e-01
-3.603287935256958008e-01
-4.150072112679481506e-02
-8.799958229064941406e-02
7.981945872306823730e-01
6.166573986411094666e-02
2.462335675954818726e-02
-4.074221849441528320e-01
-3.979009017348289490e-02
5.922441482543945312e-01
-7.021139264106750488e-01
-1.867214292287826538e-01
-1.047641504555940628e-02
4.271057546138763428e-01
-1.679433733224868774e-01
1.762996017932891846e-01
1.500075608491897583e-01
2.575912512838840485e-02
3.253332674503326416e-01
2.255543321371078491e-01
3.521230518817901611e-01
-4.510207474231719971e-02
-6.108613014221191406e-01
1.054939404129981995e-01
5.778410434722900391e-01
3.184016644954681396e-01
-1.724306643009185791e-01
-3.330272436141967773e-02
1.468067467212677002e-01
4.911296069622039795e-02
-4.329818189144134521e-01
-1.686175726354122162e-02
-1.772372573614120483e-01
5.310457572340965271e-02
4.159852862358093262e-01
-8.372663855552673340e-01
2.189736068248748779e-01
-1.872311830520629883e-01
5.198799446225166321e-02
5.296809673309326172e-01
-3.641376197338104248e-01
-1.089431792497634888e-01
-2.324151098728179932e-01
-4.132786691188812256e-01
6.565692424774169922e-01
-1.558524370193481445e-01
-4.349280521273612976e-02
-3.464328497648239136e-02
1.960880495607852936e-02
1.090323925018310547e+00
-6.769469976425170898e-01
8.120614290237426758e-01
-2.524188458919525146e-01
1.036261618137359619e-01
2.350259274244308472e-01
-2.720414102077484131e-02
6.808999180793762207e-02
1.331053823232650757e-01
5.239351838827133179e-02
9.076377004384994507e-02
2.733159065246582031e-01
-7.442014664411544800e-02
-8.577548712491989136e-02
-1.598027348518371582e-01
3.811886608600616455e-01
-1.325408369302749634e-01
-2.397066913545131683e-03
5.113517120480537415e-02
2.989054424688220024e-03
6.127416491508483887e-01
-2.413077950477600098e-01
7.819061726331710815e-02
6.381336599588394165e-03
-7.556205987930297852e-02
-2.603127062320709229e-01
1.478612571954727173e-01
-1.250298344530165195e-03
4.370435476303100586e-01
-5.579573512077331543e-01
9.627058357000350952e-02
-7.867580652236938477e-02
9.203922003507614136e-03
4.849025309085845947e-01
-3.969418108463287354e-01
-9.763614088296890259e-02
-4.645892679691314697e-01
3.954058587551116943e-01
4.572600126266479492e-02
-1.987596601247787476e-01
2.721524238586425781e-01
1.891471594572067261e-01
5.026826858520507812e-01
2.114896774291992188e-01
4.832542538642883301e-01
-9.762090444564819336e-01
1.082720994949340820e+00
6.642178893089294434e-01
2.404043227434158325e-01
-5.749458670616149902e-01
4.346847832202911377e-01
9.130462259054183960e-02
7.501749694347381592e-02
3.704319894313812256e-01
-3.001655638217926025e-01
1.014228165149688721e-01
-1.852782517671585083e-01
2.573418319225311279e-01
-3.917603492736816406e-01
-1.821912676095962524e-01
1.281200796365737915e-01
-2.218783050775527954e-01
4.577749073505401611e-01
3.021541535854339600e-01
-2.939624488353729248e-01
-4.499801993370056152e-01
5.782304406166076660e-01
3.647395968437194824e-01
-5.633304715156555176e-01
2.401357442140579224e-01
-2.779507339000701904e-01
2.675535082817077637e-01
2.735800147056579590e-01
-3.582614064216613770e-01
5.263363122940063477e-01
5.376573652029037476e-02
3.146573305130004883e-01
-6.996378302574157715e-01
3.357174098491668701e-01
5.966450572013854980e-01
-3.766748607158660889e-01
-4.416561424732208252e-01
-2.766341567039489746e-01
-2.654049694538116455e-01
-3.554471954703330994e-02
6.518511772155761719e-01
-4.769766032695770264e-01
-3.126286268234252930e-01
6.177527308464050293e-01
-4.422649145126342773e-01
-1.736546158790588379e-01
-3.334205448627471924e-01
5.776801109313964844e-01
-1.703853607177734375e-01
1.412295401096343994e-01
5.658582448959350586e-01
8.889134973287582397e-02
-6.060847640037536621e-01
4.928604066371917725e-01
5.394726395606994629e-01
1.045306324958801270e-01
-8.611891269683837891e-01
2.549167349934577942e-02
-2.832938916981220245e-02
4.798015058040618896e-01
3.140863180160522461e-01
1.402380168437957764e-01
5.335104465484619141e-01
2.634684741497039795e-01
-1.902657300233840942e-01
4.675951302051544189e-01
-2.352790161967277527e-02
-3.516418635845184326e-01
7.564149498939514160e-01
-4.651464819908142090e-01
-8.993914723396301270e-02
-2.660374343395233154e-01
6.052922606468200684e-01
-4.505740702152252197e-01
-6.407116651535034180e-01
3.385280370712280273e-01
1.242033094167709351e-01
5.111069679260253906e-01
1.721516698598861694e-01
-7.644340395927429199e-01
-9.258524775505065918e-01
9.329364895820617676e-01
5.316534042358398438e-01
-2.652709484100341797e-01
6.258142590522766113e-01
-7.075403332710266113e-01
9.192347526550292969e-02
7.272229194641113281e-01
-5.520034432411193848e-01
2.287111431360244751e-01
6.880972534418106079e-02
1.617563813924789429e-01
-6.172223687171936035e-01
1.663925409317016602e+00
1.005516886711120605e+00
9.292486310005187988e-02
-3.284942209720611572e-01
-1.316014677286148071e-01
-5.350390672683715820e-01
1.804153770208358765e-01
3.002189397811889648e-01
-1.282422840595245361e-01
-1.929360479116439819e-01
4.214790761470794678e-01
-3.250384032726287842e-01
4.653396010398864746e-01
-2.317971736192703247e-01
-4.089285135269165039e-01
5.869424939155578613e-01
-1.808549761772155762e-01
1.719579398632049561e-01
2.193005830049514771e-01
1.485815793275833130e-01
8.446082472801208496e-02
-3.785430192947387695e-01
2.511586844921112061e-01
2.859764099121093750e-01
6.632021665573120117e-01
7.640059590339660645e-01
-8.121044635772705078e-01
8.333634585142135620e-02
5.740180015563964844e-01
-5.776730775833129883e-01
-2.340035587549209595e-01
-6.448121666908264160e-01
9.129361510276794434e-01
1.537318974733352661e-01
-1.118245720863342285e-01
2.593133151531219482e-01
-1.255682468414306641e+00
4.582117497920989990e-01
4.336100220680236816e-01
1.976228833198547363e+00
-5.613562464714050293e-01
1.980109363794326782e-01
3.006467521190643311e-01
4.467607438564300537e-01
5.603095889091491699e-01
5.669462084770202637e-01
-4.814052879810333252e-01
-8.222944736480712891e-01
4.343073368072509766e-01
-1.776988655328750610e-01
-3.307427465915679932e-01
1.153800357133150101e-02
-1.631885021924972534e-01
-4.532357752323150635e-01
-1.569940894842147827e-01
-4.885163158178329468e-02
-2.828120999038219452e-02
-1.771935671567916870e-01
1.627631187438964844e-01
-8.505735397338867188e-01
9.378268569707870483e-02
-1.611208915710449219e+00
-5.330986380577087402e-01
1.079032290726900101e-02
2.375031448900699615e-02
-8.347927927970886230e-01
-1.433631330728530884e-01
3.184160590171813965e-01
-1.985840350389480591e-01
4.237064346671104431e-02
-3.396840989589691162e-01
1.485873311758041382e-01
-1.485825031995773315e-01
1.152374967932701111e-01
3.594241142272949219e-01
-4.277355372905731201e-01
2.492258101701736450e-01
-2.412706017494201660e-01
-9.788370132446289062e-02
-1.177678331732749939e-01
8.921694755554199219e-02
-9.643294662237167358e-02
-1.988044381141662598e-01
-3.824463486671447754e-01
-3.779872059822082520e-01
-5.130373239517211914e-01
3.869028985500335693e-01
4.952105134725570679e-02
-5.177665948867797852e-01
4.598087370395660400e-01
1.547148823738098145e-01
-3.971784412860870361e-01
3.774537146091461182e-02
-5.821019411087036133e-01
-1.035085201263427734e+00
2.374460846185684204e-01
-2.238286435604095459e-01
2.717956304550170898e-01
3.562729656696319580e-01
2.737233936786651611e-01
-2.955760359764099121e-01
-2.997641563415527344e-01
1.828431636095046997e-01
4.500342532992362976e-02
7.236572355031967163e-02
1.582737565040588379e-01
9.584651887416839600e-02
1.468125283718109131e-01
-3.526500239968299866e-02
-5.574486255645751953e-01
-2.366522997617721558e-01
-3.288958966732025146e-01
1.431764364242553711e-01
-6.856727600097656250e-01
-4.041974246501922607e-01
9.674406796693801880e-02
-2.361377924680709839e-01
4.724213853478431702e-02
-4.502072930335998535e-02
-3.385447263717651367e-01
-1.803143322467803955e-01
-5.728601813316345215e-01
2.898529171943664551e-02
-3.092608228325843811e-02
1.212200596928596497e-01
8.713067322969436646e-02
-2.309716939926147461e-01
2.124033309519290924e-02
3.409992754459381104e-01
-1.880377531051635742e-01
5.580301880836486816e-01
2.992765977978706360e-02
5.133857727050781250e-01
8.323325514793395996e-01
-3.037039563059806824e-02
-1.396334022283554077e-01
-3.231375515460968018e-01
1.027827560901641846e-01
-3.395984321832656860e-02
1.174217611551284790e-01
-3.064089221879839897e-03
8.326510787010192871e-01
8.410689234733581543e-01
1.414844691753387451e-01
-2.775950729846954346e-02
2.312835305929183960e-01
1.106392443180084229e-01
6.053062081336975098e-01
8.328967727720737457e-03
3.274291753768920898e-01
-2.815307378768920898e-01
2.847186848521232605e-02
9.449043869972229004e-01
4.580792188644409180e-01
1.502889841794967651e-01
-2.930734157562255859e-01
6.990242004394531250e-02
1.119695678353309631e-01
-1.705411672592163086e-01
1.654905080795288086e-01
-6.217994689941406250e-01
4.033830761909484863e-01
-1.528030186891555786e-01
1.978215873241424561e-01
-2.318063005805015564e-02
1.752379387617111206e-01
2.158085107803344727e-01
-1.906194090843200684e-01
1.280211508274078369e-01
1.980940252542495728e-01
1.462566293776035309e-02
-4.498009681701660156e-01
1.993524193763732910e+00
-4.055219516158103943e-02
-3.621764108538627625e-02
4.471689760684967041e-01
-1.096599772572517395e-01
3.991744816303253174e-01
1.377602014690637589e-02
1.653329879045486450e-01
-9.293159097433090210e-02
-3.580258488655090332e-01
5.240371227264404297e-01
9.843566268682479858e-02
8.207459747791290283e-02
1.799359619617462158e-01
-1.928823590278625488e-01
-7.329702377319335938e-01
-1.863814517855644226e-02
-2.095379680395126343e-01
4.279220104217529297e-01
5.470923334360122681e-02
-3.377417325973510742e-01
4.653106033802032471e-01
1.406605588272213936e-03
6.671009957790374756e-02
-1.379772182554006577e-02
1.132141202688217163e-01
-4.694083034992218018e-01
-2.699607908725738525e-01
7.435441762208938599e-02
2.660538852214813232e-01
-2.930493950843811035e-01
-2.065336257219314575e-01
-2.651968002319335938e-01
-2.259024083614349365e-01
3.236282244324684143e-02
1.320657730102539062e+00
-1.533561199903488159e-01
2.732486426830291748e-01
-8.604269474744796753e-02
-1.745870113372802734e-01
2.575764060020446777e-01
-6.632509231567382812e-01
-8.796238899230957031e-01
2.789778113365173340e-01
-1.215370371937751770e-01
2.821896076202392578e-01
2.287493050098419189e-01
2.294465601444244385e-01
-1.069831624627113342e-01
2.367537915706634521e-01
2.037983685731887817e-01
4.405970871448516846e-01
7.319378852844238281e-01
4.674333930015563965e-01
-8.039345145225524902e-01
5.495917797088623047e-01
7.476864457130432129e-01
-5.961058735847473145e-01
3.763190805912017822e-01
4.599623382091522217e-01
-1.209547758102416992e+00
-1.763013005256652832e-01
9.752775728702545166e-02
-3.098968267440795898e-01
8.451097607612609863e-01
-1.958726942539215088e-01
-6.336644291877746582e-01
-6.792036890983581543e-01
3.691279888153076172e-01
-2.729477584362030029e-01
-1.944140493869781494e-01
-2.673652470111846924e-01
-3.064344227313995361e-01
-3.653051257133483887e-01
4.194912612438201904e-01
4.926036894321441650e-01
-7.060042023658752441e-02
1.103719711303710938e+00
-2.736190855503082275e-01
-6.786742806434631348e-01
7.013673782348632812e-01
3.582554683089256287e-02
-1.057080388069152832e+00
6.161952018737792969e-01
-9.663414359092712402e-01
6.977995634078979492e-01
5.840499997138977051e-01
2.787672877311706543e-01
-4.172668457031250000e-01
3.779722154140472412e-01
2.264153659343719482e-01
4.792324602603912354e-01
3.817005753517150879e-01
4.304205179214477539e-01
-4.964433610439300537e-01
3.478855267167091370e-02
4.488279223442077637e-01
-8.768167495727539062e-01
1.024890661239624023e+00
-1.713812649250030518e-01
-3.337472975254058838e-01
-2.643878161907196045e-01
-1.620114594697952271e-01
4.289884567260742188e-01
-2.700463235378265381e-01
1.525717377662658691e-01
7.378580421209335327e-02
-5.133309960365295410e-01
2.892879545688629150e-01
-8.805277943611145020e-02
2.014791667461395264e-01
2.071298211812973022e-01
3.371979594230651855e-01
2.191824316978454590e-01
1.320341080427169800e-01
7.793040871620178223e-01
2.936066091060638428e-01
-2.761466801166534424e-01
-1.170828640460968018e-01
1.363184899091720581e-01
4.537656605243682861e-01
1.039408445358276367e-01
-8.568629026412963867e-01
-1.508005410432815552e-01
8.796311020851135254e-01
-1.400329619646072388e-01
6.336064934730529785e-01
3.422346115112304688e-01
6.381236314773559570e-01
1.567046791315078735e-01
-1.449227780103683472e-01
-6.360142230987548828e-01
-7.755643129348754883e-01
-1.567509174346923828e-01
1.064870357513427734e+00
2.591854631900787354e-01
-7.053175568580627441e-01
3.399873971939086914e-01
-4.604049026966094971e-01
-5.103664398193359375e-01
9.415131807327270508e-01
-3.792974650859832764e-01
-4.947003424167633057e-01
3.366450071334838867e-01
-2.269517183303833008e-01
3.910786509513854980e-01
-1.629435569047927856e-01
-2.013277448713779449e-02
-2.853595018386840820e-01
-5.666271224617958069e-02
1.248282864689826965e-01
4.784323871135711670e-01
3.827342391014099121e-01
3.111468553543090820e-01
-9.363797307014465332e-02
-2.929965555667877197e-01
1.230857223272323608e-01
-1.847458332777023315e-01
-3.672713637351989746e-01
-4.597606658935546875e-01
3.031049966812133789e-01
-1.773141920566558838e-01
-9.285292625427246094e-01
3.594947606325149536e-02
-3.391183912754058838e-01
6.216927245259284973e-02
1.142952740192413330e-01
-1.625222712755203247e-01
-5.380482673645019531e-01
-1.970613598823547363e-01
2.495934665203094482e-01
3.659688830375671387e-01
5.962937474250793457e-01
3.187143802642822266e-01
-3.907758891582489014e-01
-4.346897825598716736e-02
2.842965126037597656e-01
-2.487573921680450439e-01
2.653232812881469727e-01
5.621545314788818359e-01
2.249837815761566162e-01
4.337600469589233398e-01
1.207871064543724060e-01
-2.322905063629150391e-01
1.634417474269866943e-01
-4.067677631974220276e-02
-1.422269046306610107e-01
9.232605993747711182e-02
2.368484437465667725e-01
1.446712464094161987e-01
-1.561976224184036255e-01
-2.970328629016876221e-01
-6.496188640594482422e-01
-1.571077257394790649e-01
8.392315506935119629e-01
3.200491666793823242e-01
-2.960416972637176514e-01
1.575060933828353882e-01
-1.762503385543823242e+00
-6.526333093643188477e-02
4.172051548957824707e-01
-1.704091876745223999e-01
-2.532490491867065430e-01
5.385637283325195312e-02
-3.852511569857597351e-02
1.356812417507171631e-01
5.674253106117248535e-01
4.331012368202209473e-01
9.742955118417739868e-02
-2.563789784908294678e-01
2.868539988994598389e-01
2.566140901762992144e-04
4.176553189754486084e-01
9.719160944223403931e-02
-4.026360511779785156e-01
-1.079517245292663574e+00
3.107631206512451172e-01
-4.920915365219116211e-01
8.926391005516052246e-01
3.787095425650477409e-03
3.318565189838409424e-01
3.070176020264625549e-02
1.568248987197875977e+00
-3.145318329334259033e-01
1.241505891084671021e-01
-5.313811451196670532e-02
4.708092808723449707e-01
5.657246112823486328e-01
8.064830303192138672e-01
-3.210026919841766357e-01
1.738507449626922607e-01
-3.129741251468658447e-01
-2.482171505689620972e-01
-4.734121635556221008e-02
-3.670911192893981934e-01
-8.605762124061584473e-01
-2.540896534919738770e-01
-1.492778211832046509e-01
-2.144271433353424072e-01
4.517986625432968140e-02
7.338659167289733887e-01
8.027824759483337402e-01
5.704971030354499817e-02
-3.867201134562492371e-02
-8.190326392650604248e-02
-2.953415513038635254e-01
-5.031005293130874634e-02
3.404098153114318848e-01
-9.058278203010559082e-01
2.743983864784240723e-01
8.057485222816467285e-01
6.143250316381454468e-02
-2.512250244617462158e-01
1.331310626119375229e-02
3.464125990867614746e-01
1.958932280540466309e-01
-3.163503110408782959e-01
-1.700971834361553192e-02
5.390314459800720215e-01
-2.894177734851837158e-01
-2.242133170366287231e-01
3.576754331588745117e-01
4.378142952919006348e-01
-1.616931110620498657e-01
1.080248132348060608e-01
3.607699573040008545e-01
-6.815858930349349976e-02
4.496115744113922119e-01
2.518188580870628357e-02
7.876985669136047363e-01
4.977741241455078125e-01
-2.228020727634429932e-01
2.893244624137878418e-01
1.526069790124893188e-01
-3.997944891452789307e-01
3.161584734916687012e-01
-4.058837592601776123e-01
1.882677082903683186e-03
-5.650698766112327576e-02
3.886747360229492188e-01
-9.396291524171829224e-02
-1.102013215422630310e-01
5.171002745628356934e-01
-1.127435684204101562e+00
-1.960571855306625366e-01
-6.063672900199890137e-02
-3.778028488159179688e-01
4.084812700748443604e-01
1.002901326864957809e-02
1.801955401897430420e-01
2.253138422966003418e-01
-5.534486100077629089e-02
1.254876703023910522e-01
2.596312165260314941e-01
5.730253830552101135e-02
6.375054270029067993e-02
-2.611507428810000420e-03
-6.475372910499572754e-01
2.388787418603897095e-01
-7.978716865181922913e-03
-4.346953034400939941e-01
4.825288951396942139e-01
6.617568731307983398e-01
-5.364358425140380859e-01
2.237088680267333984e-01
4.372816383838653564e-01
-2.897707521915435791e-01
7.716781497001647949e-01
-2.846436202526092529e-01
1.872597821056842804e-02
9.542439877986907959e-02
9.379086643457412720e-02
1.783515810966491699e-01
5.457107424736022949e-01
-3.476524492725729942e-03
-2.418731898069381714e-01
-1.479607522487640381e-01
8.924740552902221680e-02
-5.791583284735679626e-02
5.389481782913208008e-01
1.327525228261947632e-01
1.464712023735046387e-01
3.228784203529357910e-01
-4.776230081915855408e-02
-2.499038577079772949e-01
-5.305114202201366425e-03
-5.514173507690429688e-01
3.093000650405883789e-01
1.787534356117248535e-01
-1.880750656127929688e-01
-7.590074539184570312e-01
7.369001209735870361e-02
4.458055645227432251e-02
1.332977693527936935e-02
1.870913207530975342e-01
1.641232490539550781e+00
-1.869026124477386475e-01
-1.045039892196655273e+00
-5.402855277061462402e-01
-4.566340148448944092e-01
7.545439153909683228e-02
-4.088906347751617432e-01
-3.537464141845703125e-01
1.225589811801910400e-01
1.847517043352127075e-01
-2.525101304054260254e-01
4.065104126930236816e-01
-4.109756052494049072e-01
3.608706891536712646e-01
-3.925820887088775635e-01
-4.149032831192016602e-01
3.177362084388732910e-01
-2.571307718753814697e-01
-4.413147866725921631e-01
3.230876624584197998e-01
1.909072548151016235e-01
4.012752473354339600e-01
2.070683687925338745e-01
3.353541484102606773e-03
-2.750578224658966064e-01
-2.109503187239170074e-02
2.098456919193267822e-01
-1.635192781686782837e-01
-3.406460583209991455e-02
-3.743996918201446533e-01
3.623249828815460205e-01
-1.160096451640129089e-01
-2.735368907451629639e-01
-1.670267879962921143e-01
3.577543497085571289e-01
1.943740487098693848e+00
-1.503526121377944946e-01
-4.414240643382072449e-02
2.235664874315261841e-01
8.191621163859963417e-04
-1.339853644371032715e+00
1.073081884533166885e-02
-6.291390955448150635e-02
-3.011287450790405273e-01
-9.088253229856491089e-02
2.968291342258453369e-01
-3.430135548114776611e-01
-8.846355080604553223e-01
-3.419577181339263916e-01
1.551367491483688354e-01
-4.331929981708526611e-01
5.078322887420654297e-01
-1.130211949348449707e+00
4.268177747726440430e-01
-8.916845917701721191e-02
-2.680745720863342285e-01
6.820082664489746094e-01
-3.082949817180633545e-01
-6.947174668312072754e-01
7.343084812164306641e-01
2.725487649440765381e-01
2.849411368370056152e-01
-2.378242611885070801e-01
-5.007627010345458984e-01
-7.362082004547119141e-01
7.140143960714340210e-02
-2.632983624935150146e-01
6.102820858359336853e-02
-5.832647085189819336e-01
4.778176546096801758e-01
-2.393471151590347290e-01
-9.020316600799560547e-01
-8.533589541912078857e-02
-6.248212605714797974e-02
-1.392381042242050171e-01
-5.980936810374259949e-03
-1.744433194398880005e-01
-3.413895517587661743e-02
-1.286769658327102661e-01
-3.582156002521514893e-01
2.023974061012268066e-01
-3.069288097321987152e-02
7.361971735954284668e-01
-2.282419949769973755e-01
-2.246138155460357666e-01
-1.867774724960327148e-01
5.043621659278869629e-01
6.357713788747787476e-02
-2.106152474880218506e-01
1.132631972432136536e-01
7.028935104608535767e-02
3.956819772720336914e-01
-2.797505557537078857e-01
-1.559331417083740234e-01
-8.558847010135650635e-02
2.171481370925903320e+00
3.601762652397155762e-01
2.533065080642700195e-01
1.272475123405456543e-01
1.939996927976608276e-01
-3.738001286983489990e-01
-4.992435872554779053e-01
8.610502630472183228e-02
4.275551810860633850e-02
-6.513509154319763184e-01
-2.945974767208099365e-01
7.409086823463439941e-02
1.265436559915542603e-01
1.475147724151611328e+00
-1.158328950405120850e-01
-2.159021794795989990e-01
-6.065932512283325195e-01
3.676853775978088379e-01
2.816511392593383789e-01
1.257509291172027588e-01
9.543585777282714844e-01
-2.981552779674530029e-01
-1.393285989761352539e-01
-1.207396108657121658e-02
-1.897258758544921875e-01
5.115828476846218109e-03
-4.026400446891784668e-01
-2.101093292236328125e+00
7.372516393661499023e-01
1.177336648106575012e-01
1.358159035444259644e-01
3.016552627086639404e-01
4.428827166557312012e-01
-5.898955464363098145e-01
-1.051367297768592834e-01
5.932924896478652954e-02
-1.442715287208557129e+00
3.610080480575561523e-01
1.731836944818496704e-01
1.978239566087722778e-01
-4.547275137156248093e-03
-1.703411526978015900e-02
6.106567382812500000e-02
2.233653962612152100e-01
-1.857235133647918701e-01
8.091033101081848145e-01
-4.435709863901138306e-02
3.107462525367736816e-01
6.763516366481781006e-02
-3.653613477945327759e-02
-2.303089946508407593e-01
1.063248887658119202e-01
-1.463276147842407227e-01
-1.447895020246505737e-01
1.606272161006927490e-01
3.021778464317321777e-01
4.165929555892944336e-01
-7.694529742002487183e-02
-4.180432260036468506e-01
2.091118097305297852e-01
-2.723133563995361328e+00
1.267039179801940918e-01
-6.208700314164161682e-02
2.442052960395812988e-01
-1.835710257291793823e-01
-1.214860454201698303e-01
-4.506139550358057022e-03
-3.236223459243774414e-01
1.934579014778137207e-01
-8.685078471899032593e-03
-5.225257202982902527e-02
2.928949296474456787e-01
7.450897991657257080e-02
4.835735261440277100e-01
2.950357198715209961e-01
1.171894818544387817e-01
-3.971715867519378662e-01
4.235149621963500977e-01
1.050450578331947327e-01
2.159760743379592896e-01
-2.572307348251342773e+00
-2.703324258327484131e-01
3.649150133132934570e-01
1.941295266151428223e-01
-2.702091820538043976e-02
4.515471458435058594e-01
-5.540155768394470215e-01
5.663043856620788574e-01
-2.523815333843231201e-01
8.659638166427612305e-01
2.973732054233551025e-01
-9.439643472433090210e-02
1.325910091400146484e-01
-1.150811076164245605e+00
3.626313060522079468e-02
-3.110871613025665283e-01
-7.719352096319198608e-02
-1.112364232540130615e-01
-9.843596816062927246e-02
-1.415341794490814209e-01
-3.038825392723083496e-01
-1.950825005769729614e-01
-1.884134113788604736e-02
-1.784640699625015259e-01
3.134773671627044678e-01
7.144782692193984985e-02
-5.054287314414978027e-01
-2.654401957988739014e-01
-3.418391346931457520e-01
1.794088333845138550e-01
-3.501842916011810303e-01
3.057000041007995605e-01
3.471944332122802734e-01
7.025830745697021484e-01
1.115479618310928345e-01
4.420138299465179443e-01
-1.059591531753540039e+00
3.608410358428955078e-01
-1.829617917537689209e-01
9.631146490573883057e-02
3.472909331321716309e-01
-7.342377901077270508e-01
5.611292719841003418e-01
3.167431354522705078e-01
-3.734566569328308105e-01
1.440775841474533081e-01
-3.174286186695098877e-01
2.207712382078170776e-01
-3.037354946136474609e-01
3.730537295341491699e-01
2.504844069480895996e-01
-2.950155436992645264e-01
-1.393106728792190552e-01
3.010029196739196777e-01
-6.560311913490295410e-01
-9.844014793634414673e-02
-6.918473839759826660e-01
-9.720858186483383179e-02
3.981429040431976318e-01
4.800984263420104980e-02
3.937555104494094849e-02
-2.510638833045959473e-01
-2.278863191604614258e-01
-3.777203150093555450e-03
4.923865199089050293e-02
5.840280652046203613e-01
1.513846993446350098e+00
-6.291046142578125000e-01
-5.047534108161926270e-01
4.417857229709625244e-01
8.801954798400402069e-03
1.567120850086212158e-01
8.961182832717895508e-01
-5.639295578002929688e-01
6.879864633083343506e-02
1.997490823268890381e-01
-2.383202463388442993e-01
8.964687585830688477e-02
-1.409791223704814911e-02
1.367361843585968018e-02
-2.270771712064743042e-01
-1.444298475980758667e-01
4.367991685867309570e-01
3.506813347339630127e-01
1.232299953699111938e-02
-1.410598605871200562e-01
5.697898566722869873e-02
-2.369917184114456177e-01
1.549610495567321777e-01
-2.074149698019027710e-01
-2.891550660133361816e-01
1.159401655197143555e+00
1.780191361904144287e-01
-3.096211850643157959e-01
-4.576984345912933350e-01
1.660683155059814453e-01
1.919319629669189453e-01
-8.968027681112289429e-02
-5.020569264888763428e-02
6.082713007926940918e-01
9.272197484970092773e-01
3.219066560268402100e-02
3.070537745952606201e-01
2.257798314094543457e-01
4.783347621560096741e-02
-1.606380045413970947e-01
-1.248258352279663086e+00
-2.224253416061401367e-01
2.238541692495346069e-01
-9.419361501932144165e-02
-1.661909669637680054e-01
3.719094395637512207e-02
1.657993644475936890e-01
1.604934483766555786e-01
4.389021396636962891e-01
1.012469172477722168e+00
-3.442334234714508057e-01
-6.392759084701538086e-02
-8.532944321632385254e-02
3.325178027153015137e-01
2.646550536155700684e-01
-2.992251515388488770e-01
8.181117177009582520e-01
3.872263431549072266e-01
-2.779593765735626221e-01
2.267174273729324341e-01
6.120811402797698975e-02
2.658278048038482666e-01
2.909123599529266357e-01
-5.313747525215148926e-01
-5.914147198200225830e-02
7.823010534048080444e-02
-4.307130351662635803e-02
-3.717349767684936523e-01
2.292768508195877075e-01
3.012274205684661865e-01
5.023736953735351562e-01
-1.899539977312088013e-01
-1.979659646749496460e-01
1.369380205869674683e-01
7.216741442680358887e-01
3.461081087589263916e-01
-4.446682631969451904e-01
-1.602905243635177612e-01
4.661976918578147888e-02
-1.055497899651527405e-01
7.622306942939758301e-01
3.335936069488525391e-01
-3.315115869045257568e-01
-1.224445223808288574e+00
7.227598875761032104e-02
-5.913965404033660889e-02
4.139338433742523193e-02
8.150839209556579590e-01
3.582965731620788574e-01
-1.391982585191726685e-01
-4.804236888885498047e-01
2.719232141971588135e-01
2.884788811206817627e-01
-1.075107678771018982e-01
-1.732125133275985718e-01
-5.835225582122802734e-01
-3.240156918764114380e-02
2.657355964183807373e-01
-3.115457296371459961e-01
1.140828877687454224e-01
9.768787771463394165e-02
4.986796081066131592e-01
-7.152427732944488525e-02
2.059503048658370972e-01
-3.291862457990646362e-02
-1.652168333530426025e-01
2.589848935604095459e-01
-1.363726854324340820e-01
-1.463459879159927368e-01
1.469453424215316772e-01
-1.697443127632141113e-01
3.139013648033142090e-01
9.859459847211837769e-02
-1.813937425613403320e-01
-1.271482110023498535e-01
4.362761378288269043e-01
-2.071968466043472290e-01
2.217934280633926392e-01
2.473453581333160400e-01
2.965936064720153809e-01
1.181832998991012573e-01
-3.896648287773132324e-01
-1.706484436988830566e+00
-7.885941118001937866e-02
2.166169136762619019e-01
4.371308684349060059e-01
4.028505980968475342e-01
5.592400673776865005e-03
8.903191238641738892e-02
2.961370721459388733e-02
8.522470295429229736e-02
1.419782936573028564e-01
-8.342575281858444214e-02
-2.885046601295471191e-02
-8.357881307601928711e-01
3.428371846675872803e-01
-4.247200787067413330e-01
-6.215820908546447754e-01
3.160185515880584717e-01
3.873332440853118896e-01
4.849066436290740967e-01
3.603099584579467773e-01
-6.206624582409858704e-02
1.639599204063415527e-01
-6.056560277938842773e-01
-9.116925299167633057e-02
1.779432594776153564e-01
-9.565818309783935547e-02
-2.809763550758361816e-01
3.780115842819213867e-01
-6.958996653556823730e-01
1.758953481912612915e-01
2.896264493465423584e-01
-7.672360539436340332e-01
-1.641442924737930298e-01
-1.904389709234237671e-01
4.959489405155181885e-01
-4.996233060956001282e-02
5.458997189998626709e-02
4.051913619041442871e-01
9.733109176158905029e-02
-2.417547442018985748e-02
6.761953234672546387e-01
1.828168779611587524e-01
-2.534936368465423584e-01
9.697119146585464478e-02
4.920496940612792969e-01
-7.512571662664413452e-02
3.414534032344818115e-01
1.591372251510620117e+00
-1.580229401588439941e+00
1.808977425098419189e-01
-4.190190136432647705e-02
-2.555174827575683594e-01
-5.078924894332885742e-01
4.182177782058715820e-02
5.508175119757652283e-03
2.646770179271697998e-01
5.206633210182189941e-01
4.002141356468200684e-01
7.551208138465881348e-02
2.251445651054382324e-01
1.946972727775573730e+00
-2.779959738254547119e-01
5.035970732569694519e-02
1.343094706535339355e-01
-9.817951917648315430e-02
1.445778012275695801e-01
-2.841698527336120605e-01
2.309396862983703613e-03
8.641156554222106934e-01
-5.564612150192260742e-01
-3.116719424724578857e-01
-1.098065748810768127e-01
4.884394705295562744e-01
1.229946687817573547e-01
7.467971742153167725e-02
1.401083469390869141e-01
-3.979908525943756104e-01
-6.128498315811157227e-01
-2.116573005914688110e-01
-7.003471255302429199e-01
-4.607103765010833740e-01
-5.843245387077331543e-01
-3.103231191635131836e-01
8.285348862409591675e-02
-3.329684957861900330e-02
3.533270955085754395e-01
-2.396568506956100464e-01
-9.570928812026977539e-01
-2.066223621368408203e+00
-1.554776281118392944e-01
-1.016214564442634583e-01
3.878499614074826241e-03
-3.221164271235466003e-02
-1.346440017223358154e-01
1.806710511445999146e-01
-4.692311882972717285e-01
-1.965323537588119507e-01
-1.398972272872924805e-01
8.544201850891113281e-01
-6.596950888633728027e-01
3.935195133090019226e-02
-2.766312658786773682e-02
4.406517148017883301e-01
2.086549401283264160e-01
-4.848183691501617432e-02
2.153232693672180176e-01
-2.365111857652664185e-01
2.692732214927673340e-01
3.627189993858337402e-01
2.250719070434570312e-01
9.053762555122375488e-01
-2.159506976604461670e-01
8.293478190898895264e-02
3.504561632871627808e-02
2.319276779890060425e-01
-2.335449755191802979e-01
4.429064095020294189e-01
-4.228182509541511536e-02
3.019252121448516846e-01
-6.287671923637390137e-01
1.253670930862426758e+00
1.887730658054351807e-01
4.745023548603057861e-01
-4.120480716228485107e-01
-6.289640069007873535e-02
2.864094972610473633e-01
-3.736582100391387939e-01
5.969787836074829102e-01
4.326150119304656982e-01
-2.702921032905578613e-01
-4.268014430999755859e-02
1.473910640925168991e-02
-3.000847995281219482e-02
1.747868061065673828e-01
-4.351615607738494873e-01
4.401412308216094971e-01
3.359336853027343750e-01
6.523898988962173462e-02
-1.023168861865997314e-01
-6.621374487876892090e-01
2.539629116654396057e-02
-1.280398666858673096e-01
2.562748491764068604e-01
3.682546317577362061e-02
-4.733136892318725586e-01
-7.555457949638366699e-02
-3.819577991962432861e-01
-5.359427928924560547e-01
8.324809670448303223e-01
-4.147135019302368164e-01
-1.448287442326545715e-02
2.090549170970916748e-01
4.432556331157684326e-01
-1.584999263286590576e-01
2.740468382835388184e-01
-8.121880888938903809e-02
1.555244717746973038e-02
-4.653819501399993896e-01
-7.175118923187255859e-01
-2.500483393669128418e-01
-2.501052021980285645e-01
-1.525933761149644852e-02
1.655442863702774048e-01
-9.902980178594589233e-02
-4.090960323810577393e-01
2.381527237594127655e-02
-3.338694870471954346e-01
-5.171528458595275879e-01
6.198351383209228516e-01
-1.434825658798217773e-01
-1.528884172439575195e-01
3.826922178268432617e-01
2.135460823774337769e-01
5.946692451834678650e-02
1.706362366676330566e-01
-2.609832286834716797e-01
-1.896449774503707886e-01
-5.420445799827575684e-01
1.699025481939315796e-01
-1.622047573328018188e-01
-1.775646358728408813e-01
-1.365631669759750366e-01
-5.397617220878601074e-01
9.483630955219268799e-02
-1.584655642509460449e-01
3.123299591243267059e-02
-7.780356705188751221e-02
-3.841237127780914307e-01
-3.929918631911277771e-02
-8.111988753080368042e-02
1.052763387560844421e-01
6.833662390708923340e-01
-9.536261856555938721e-02
4.951750114560127258e-02
2.294705957174301147e-01
-2.614591717720031738e-01
-9.304726868867874146e-02
-6.516279280185699463e-02
-4.437280818819999695e-02
-4.196765646338462830e-02
-2.338371425867080688e-01
-1.925424188375473022e-01
8.782287687063217163e-02
1.423809677362442017e-02
-5.222018361091613770e-01
1.273524761199951172e-01
-4.381672143936157227e-01
-8.913889527320861816e-01
9.040538668632507324e-01
-4.776739180088043213e-01
1.364513635635375977e-01
3.031415045261383057e-01
2.680497467517852783e-01
-5.968002229928970337e-02
7.511623948812484741e-02
-1.323628127574920654e-01
-2.765762209892272949e-01
-3.228348493576049805e-01
-3.221879601478576660e-01
-4.237790033221244812e-02
-3.176581114530563354e-02
-1.962479352951049805e-01
3.674039244651794434e-02
-2.106283903121948242e-01
-3.353036642074584961e-01
5.742415785789489746e-02
-3.474264144897460938e-01
-9.453456997871398926e-01
9.094028472900390625e-01
-1.274628192186355591e-01
-1.453985452651977539e+00
5.630457401275634766e-01
-3.498623520135879517e-02
1.820355951786041260e-01
7.483766973018646240e-02
-1.702017337083816528e-02
-3.466045856475830078e-01
-1.286945641040802002e-01
-8.780273795127868652e-02
-1.213591266423463821e-02
-9.789507836103439331e-02
9.934516996145248413e-02
2.309242784976959229e-01
1.520572155714035034e-01
-1.020754575729370117e+00
-1.331103146076202393e-01
-6.384086608886718750e-02
-7.964158058166503906e-01
4.235969185829162598e-01
-1.350439786911010742e-01
-1.431346982717514038e-01
5.269362330436706543e-01
5.328685045242309570e-03
-1.595310121774673462e-01
-6.818670034408569336e-02
8.920420706272125244e-02
-8.050838112831115723e-02
-2.022933512926101685e-01
9.586830437183380127e-02
2.767541706562042236e-01
3.708179295063018799e-01
5.449072718620300293e-01
-4.925017058849334717e-02
-5.600975155830383301e-01
1.473642140626907349e-01
-4.662697017192840576e-02
1.545360237360000610e-01
-2.386976182460784912e-01
-1.192530989646911621e-02
4.061750173568725586e-01
4.511936381459236145e-02
-2.216688096523284912e-01
5.639503896236419678e-02
1.609491556882858276e-01
-1.882816664874553680e-02
5.231280922889709473e-01
-9.972088038921356201e-02
4.042664542794227600e-02
-1.099037155508995056e-01
2.368814311921596527e-02
-5.051442384719848633e-01
-2.925874479115009308e-02
-5.179101824760437012e-01
4.507895708084106445e-01
9.151754379272460938e-01
-1.670740246772766113e-01
2.753686010837554932e-01
5.267402529716491699e-01
-7.546781897544860840e-01
2.658318281173706055e-01
4.409814774990081787e-01
-4.454345703125000000e-01
-2.620026767253875732e-01
-3.416812121868133545e-01
3.488307893276214600e-01
-1.858850121498107910e-01
2.028546929359436035e-01
4.621427059173583984e-01
5.275894999504089355e-01
-1.484806239604949951e-01
-5.383859947323799133e-02
1.260873913764953613e+00
-1.098442971706390381e-01
-1.843724101781845093e-01
4.681675136089324951e-02
-7.702933549880981445e-01
3.838358521461486816e-01
3.113984465599060059e-01
3.074371069669723511e-02
5.000000000000000000e-01
3.233318626880645752e-01
-1.370640993118286133e-01
-1.585912555456161499e-01
-1.539585888385772705e-01
-1.593986526131629944e-02
4.985325038433074951e-01
1.625421345233917236e-01
2.739533185958862305e-01
-7.976663857698440552e-02
5.726255774497985840e-01
-4.126341640949249268e-01
2.433966845273971558e-01
-4.194623604416847229e-02
-8.896754123270511627e-03
4.671043902635574341e-02
1.172684580087661743e-01
5.779770016670227051e-01
4.084017872810363770e-01
5.098342299461364746e-01
1.961185485124588013e-01
4.135076999664306641e-01
-5.005577206611633301e-02
1.315154433250427246e-01
-1.982206851243972778e-01
-1.262799620628356934e+00
1.123351827263832092e-01
5.201799273490905762e-01
1.154651492834091187e-01
-1.389177888631820679e-01
5.923331528902053833e-02
-5.646048784255981445e-01
5.086385607719421387e-01
-1.357577182352542877e-02
2.396362721920013428e-01
3.208694756031036377e-01
-4.239914119243621826e-01
1.778419911861419678e-01
2.286712527275085449e-01
-6.374137103557586670e-02
4.651780724525451660e-01
-3.429891914129257202e-02
-1.075802221894264221e-01
-3.894207477569580078e-01
2.203622460365295410e-01
-6.196051239967346191e-01
2.443528026342391968e-01
-1.965195238590240479e-01
3.411464989185333252e-01
-7.840775847434997559e-01
1.300646662712097168e-01
5.843513011932373047e-01
3.635297715663909912e-01
7.394082546234130859e-01
3.446757495403289795e-01
-7.186458706855773926e-01
1.022104769945144653e-01
1.052136123180389404e-01
-7.258142232894897461e-01
4.314674139022827148e-01
5.939751490950584412e-02
4.759329557418823242e-01
3.514891862869262695e-01
2.541453540325164795e-01
2.026041038334369659e-02
5.460322499275207520e-01
2.500763535499572754e-01
9.398039430379867554e-02
-9.687483310699462891e-02
-1.929555386304855347e-01
-1.438733935356140137e-01
-2.954346835613250732e-01
-6.327807903289794922e-02
3.762035667896270752e-01
-4.465382080525159836e-03
7.276606559753417969e-02
3.207888305187225342e-01
7.454449683427810669e-02
-2.108517140150070190e-01
8.239136636257171631e-02
-5.861681699752807617e-02
-1.270254135131835938e+00
-2.198597341775894165e-01
3.332858160138130188e-02
-8.285247534513473511e-02
-1.061384916305541992e+00
-2.762374877929687500e-01
3.904113173484802246e-01
-1.477888375520706177e-01
4.042887389659881592e-01
-1.930478066205978394e-01
5.844561457633972168e-01
2.852494716644287109e-01
5.258260369300842285e-01
-6.207420825958251953e-01
-8.426320552825927734e-02
1.698974072933197021e-01
2.264607101678848267e-01
-2.943319380283355713e-01
-2.293898910284042358e-01
-4.647226929664611816e-01
-2.641752064228057861e-01
4.339765012264251709e-02
-2.260362356901168823e-01
2.453171648085117340e-02
3.290814161300659180e-01
5.562343820929527283e-02
1.503501981496810913e-01
-6.522952765226364136e-02
1.873225122690200806e-01
-3.845634162425994873e-01
5.356094241142272949e-01
-7.441521286964416504e-01
-4.277756810188293457e-01
-5.773360282182693481e-02
-3.506868183612823486e-01
-4.457021951675415039e-01
-4.553728699684143066e-01
2.836373448371887207e-01
1.082380786538124084e-01
2.085262089967727661e-01
6.701498478651046753e-02
8.019764423370361328e-01
4.221275448799133301e-01
1.105748713016510010e-01
-4.704469442367553711e-01
-7.073888927698135376e-02
-3.741323351860046387e-01
2.762079238891601562e-01
-2.329677045345306396e-01
1.505257189273834229e-01
3.855970203876495361e-01
-1.204046830534934998e-01
-6.541023254394531250e-01
4.410454630851745605e-01
-1.159005463123321533e-01
-3.029224872589111328e-01
4.186251014471054077e-02
5.062543749809265137e-01
4.379537701606750488e-01
-1.609459221363067627e-01
4.301965534687042236e-01
4.887779355049133301e-01
-4.606876522302627563e-02
4.960828274488449097e-02
-6.180912852287292480e-01
-1.689391136169433594e-01
-2.579509019851684570e-01
-2.373998314142227173e-01
1.946299970149993896e-01
-5.636223405599594116e-02
-7.169362306594848633e-01
-3.137123584747314453e-01
-5.007430911064147949e-01
6.820814013481140137e-01
8.191033452749252319e-02
-2.418400645256042480e-01
6.905307769775390625e-01
1.721077114343643188e-01
2.788981497287750244e-01
1.981764286756515503e-02
7.957224547863006592e-02
7.633357308804988861e-03
-4.528025165200233459e-02
4.970014095306396484e-01
1.644629053771495819e-02
1.503420919179916382e-01
7.647652179002761841e-02
2.444019168615341187e-01
-7.599633187055587769e-02
-9.766721725463867188e-02
1.924701929092407227e+00
-4.940544664859771729e-01
-4.478994011878967285e-01
-2.308465391397476196e-01
-1.350674033164978027e-01
3.494122624397277832e-02
-7.553073018789291382e-02
2.647354304790496826e-01
8.432513475418090820e-02
8.307006210088729858e-02
3.505095541477203369e-01
5.796561241149902344e-01
1.871448308229446411e-01
-2.731721401214599609e-01
-5.148562043905258179e-02
-3.437532484531402588e-01
-7.856653630733489990e-02
-4.128514975309371948e-02
-1.701226108707487583e-03
7.924066781997680664e-01
3.833480477333068848e-01
-7.341968417167663574e-01
-3.793101012706756592e-01
9.835090488195419312e-02
-2.100605666637420654e-01
-2.939472794532775879e-01
-6.839964985847473145e-01
3.148371875286102295e-01
1.354584246873855591e-01
2.655898928642272949e-01
1.127975136041641235e-01
7.233960628509521484e-01
5.056802630424499512e-01
1.543644964694976807e-01
-5.036728382110595703e-01
-3.137552738189697266e-02
-6.774042546749114990e-02
3.369050621986389160e-01
-3.037965893745422363e-01
9.234372973442077637e-01
3.845847249031066895e-01
5.871332809329032898e-02
2.361909151077270508e-01
-7.784548401832580566e-01
-4.529159665107727051e-01
-9.885746985673904419e-02
-4.020141065120697021e-01
-2.758436799049377441e-01
-2.514399588108062744e-01
-3.064953684806823730e-01
-3.462152183055877686e-02
-1.250457763671875000e-01
-7.020986080169677734e-02
1.633422523736953735e-01
-2.917353063821792603e-02
4.563645124435424805e-01
1.289032548666000366e-01
1.071908622980117798e-01
1.780675202608108521e-01
-2.501959204673767090e-01
6.118388772010803223e-01
-4.805978238582611084e-01
4.467306286096572876e-02
-1.022266745567321777e+00
8.565466850996017456e-02
-1.843989081680774689e-02
-2.280937284231185913e-01
-3.681703209877014160e-01
4.592691361904144287e-02
3.778896331787109375e-01
-2.570098042488098145e-01
-3.303914964199066162e-01
1.748322881758213043e-02
-4.936179146170616150e-02
-2.133817374706268311e-01
2.769687175750732422e-01
4.020239114761352539e-01
9.389827400445938110e-02
1.058654546737670898e+00
1.148807778954505920e-01
1.761996448040008545e-01
7.737020850181579590e-01
2.969980612397193909e-02
-1.818994134664535522e-01
2.435822635889053345e-01
1.616639941930770874e-01
-3.165591955184936523e-01
-2.300507426261901855e-01
-1.903458237648010254e-01
-2.988515794277191162e-01
-6.478285044431686401e-02
-8.918872475624084473e-01
-4.169407784938812256e-01
-7.063070684671401978e-02
4.802094399929046631e-01
-1.310837119817733765e-01
-5.945235863327980042e-02
-2.999073266983032227e-01
-8.590805530548095703e-02
-3.910017013549804688e-02
-1.532247662544250488e-01
-7.063065655529499054e-03
3.499037027359008789e-01
7.852888852357864380e-02
-2.639907300472259521e-01
-4.750420153141021729e-02
2.211356908082962036e-01
-1.700058430433273315e-01
-4.083734452724456787e-01
-1.102583780884742737e-01
-4.198242425918579102e-01
-3.817044198513031006e-01
6.255660671740770340e-03
4.792137444019317627e-01
-1.552459551021456718e-03
5.299133658409118652e-01
1.116203889250755310e-01
-8.121427148580551147e-02
9.315866976976394653e-02
-6.191807612776756287e-02
-1.368946671485900879e+00
-2.789515554904937744e-01
-1.230926718562841415e-02
3.509959578514099121e-02
-2.302920818328857422e-01
-4.966659098863601685e-02
3.260172903537750244e-01
1.510790288448333740e-01
-7.818812131881713867e-02
-6.633301973342895508e-01
-1.558596938848495483e-01
-3.590760231018066406e-01
4.906994998455047607e-01
4.839347898960113525e-01
-1.168589666485786438e-02
6.251286715269088745e-02
-4.007899388670921326e-02
1.532460153102874756e-01
4.743601977825164795e-01
2.376050204038619995e-01
-2.125467918813228607e-02
-1.648920327425003052e-01
-2.212361544370651245e-01
1.957931518554687500e-01
3.224866092205047607e-01
4.022248089313507080e-01
2.575398655608296394e-03
-1.446617692708969116e-01
3.720586597919464111e-01
-1.961053162813186646e-02
1.334365159273147583e-01
2.830458991229534149e-02
-1.353745907545089722e-01
2.083172649145126343e-01
3.108644187450408936e-01
-6.076443195343017578e-01
-6.356246471405029297e-01
-1.043379157781600952e-01
1.148158237338066101e-01
8.595719933509826660e-01
-1.667754203081130981e-01
3.966088891029357910e-01
3.866586089134216309e-01
-4.471792876720428467e-01
-1.916601806879043579e-01
2.008490413427352905e-01
3.733383258804678917e-03
-2.806079387664794922e-01
-3.620195388793945312e-01
-7.442265748977661133e-01
-4.495957493782043457e-01
-5.958289504051208496e-01
-4.283176958560943604e-01
2.648559510707855225e-01
4.469615519046783447e-01
2.056967318058013916e-01
5.752959847450256348e-01
2.674645185470581055e-01
-1.452495455741882324e-01
-3.103989958763122559e-01
3.682275116443634033e-01
-4.542731866240501404e-02
-6.889011859893798828e-01
-5.546995252370834351e-02
-5.993022769689559937e-02
1.472526416182518005e-02
9.711117297410964966e-02
8.144879341125488281e-01
8.231294751167297363e-01
2.372304201126098633e-01
6.038406491279602051e-01
7.585654258728027344e-01
7.612724900245666504e-01
-5.591230988502502441e-01
-2.352288365364074707e-01
-1.202657222747802734e-01
-3.468074798583984375e-01
-3.947453200817108154e-02
2.798818647861480713e-01
-1.559448093175888062e-01
-1.170977279543876648e-01
-5.603969693183898926e-01
-8.811067789793014526e-02
2.558931410312652588e-01
-4.660101532936096191e-01
1.542410999536514282e-02
4.516028240323066711e-02
4.191943109035491943e-01
-9.650092571973800659e-02
5.548896789550781250e-01
2.577193379402160645e-01
-8.200554549694061279e-02
8.822310566902160645e-01
-1.946449130773544312e-01
-9.264820218086242676e-01
-9.695934504270553589e-02
3.671934306621551514e-01
1.858360916376113892e-01
6.510256528854370117e-01
-8.193686008453369141e-01
7.997246980667114258e-01
-1.297169178724288940e-01
5.595432594418525696e-02
1.320365190505981445e+00
-2.916886806488037109e-01
-7.222314476966857910e-01
-5.316870212554931641e-01
-2.514038681983947754e-01
-2.031133770942687988e-01
7.141683995723724365e-02
-4.194470345973968506e-01
8.516824245452880859e-01
-2.509134411811828613e-01
2.274085208773612976e-02
3.247004151344299316e-01
7.847801446914672852e-01
-7.470859587192535400e-02
5.253531932830810547e-01
-2.728912234306335449e-01
-4.110350012779235840e-01
2.047493755817413330e-01
-3.662472963333129883e-01
-1.234130114316940308e-01
-7.432888150215148926e-01
-6.288231909275054932e-02
-4.603755772113800049e-01
-6.492793560028076172e-01
-2.330726832151412964e-01
-1.111752241849899292e-01
-7.650832086801528931e-02
-1.280472278594970703e-01
1.154248490929603577e-01
-1.079972535371780396e-01
-2.055205106735229492e-01
1.406235247850418091e-01
2.424104511737823486e-01
1.981184780597686768e-01
1.317092031240463257e-01
-1.073329448699951172e-01
-1.049359589815139771e-01
5.863156914710998535e-01
-2.801602482795715332e-01
-4.794499278068542480e-01
6.046863198280334473e-01
6.756558269262313843e-02
4.082731902599334717e-01
7.818500399589538574e-01
3.746308684349060059e-01
-1.256113406270742416e-02
-5.315562710165977478e-03
5.212325453758239746e-01
1.345147788524627686e-01
1.608756929636001587e-02
3.276088461279869080e-02
-1.628813594579696655e-01
-1.789797842502593994e-01
2.402170300483703613e-01
-6.365269422531127930e-02
7.424712926149368286e-02
2.304650843143463135e-01
-2.181870304048061371e-02
2.174211144447326660e-01
1.795361340045928955e-01
1.176172271370887756e-01
7.637083996087312698e-03
2.460752874612808228e-01
4.430112242698669434e-01
-1.691212803125381470e-01
1.161240711808204651e-01
-7.306228280067443848e-01
-2.888480722904205322e-01
-4.858734086155891418e-02
-7.475420236587524414e-01
2.152294106781482697e-02
-4.602099210023880005e-02
-6.954308599233627319e-02
2.738596200942993164e-01
-1.053225398063659668e-01
-5.038869976997375488e-01
-3.269819319248199463e-01
-7.631676793098449707e-01
-7.037203013896942139e-02
-1.848260760307312012e-01
1.797565631568431854e-02
-8.038238435983657837e-02
9.010277986526489258e-01
3.527262806892395020e-01
3.247720599174499512e-01
3.508642613887786865e-01
1.581813097000122070e-01
4.957681000232696533e-01
-4.903591871261596680e-01
5.402289032936096191e-01
-2.275570780038833618e-01
-7.675288617610931396e-02
-5.639845728874206543e-01
3.063677251338958740e-01
-1.295021921396255493e-01
3.704170584678649902e-01
-1.028422117233276367e-01
-2.462662160396575928e-01
7.415466308593750000e-01
2.542254328727722168e-01
-6.271172314882278442e-02
1.941569149494171143e-01
-2.353812940418720245e-02
-5.120474845170974731e-02
-2.663072943687438965e-01
-5.652857571840286255e-02
-3.075583875179290771e-01
-2.429611384868621826e-01
-1.780511140823364258e-01
-9.475175291299819946e-02
-1.472720205783843994e-01
3.839744925498962402e-01
-1.421128362417221069e-01
-2.956957221031188965e-01
-4.243521094322204590e-01
1.486629843711853027e-01
-2.374758571386337280e-01
-6.098050251603126526e-02
-3.658368587493896484e-01
-1.615445911884307861e-01
-3.878806233406066895e-01
-3.203430473804473877e-01
4.342383444309234619e-01
2.802433073520660400e-01
3.001308739185333252e-01
2.998988628387451172e-01
5.570901557803153992e-03
-8.970706909894943237e-02
4.367257356643676758e-01
-5.730310678482055664e-01
-1.367170065641403198e-01
4.663480818271636963e-01
2.081136554479598999e-01
-1.299889385700225830e-01
4.024683833122253418e-01
-1.431575417518615723e-01
-3.225442720577120781e-03
-3.771820664405822754e-01
4.498476162552833557e-02
-1.266471147537231445e-01
-7.815948128700256348e-01
-5.635139942169189453e-01
1.872062683105468750e-01
-1.378016769886016846e-01
6.126832962036132812e-01
-1.056491956114768982e-01
-3.491101264953613281e-01
5.950546264648437500e-02
6.816191971302032471e-02
-8.897853642702102661e-02
9.570965766906738281e-01
1.857428997755050659e-01
1.132913529872894287e-01
-2.875977456569671631e-01
5.811702609062194824e-01
-2.518258094787597656e-01
9.237717986106872559e-01
-2.301857918500900269e-01
-1.688601225614547729e-01
-2.225764282047748566e-02
3.037520945072174072e-01
-7.359148561954498291e-02
-1.257674545049667358e-01
4.859582707285881042e-02
9.109208732843399048e-02
4.675230383872985840e-02
3.458031220361590385e-03
7.071942090988159180e-02
2.037384361028671265e-01
-2.290031015872955322e-01
-1.088573709130287170e-01
-3.626305162906646729e-01
-2.960869856178760529e-02
8.009555190801620483e-02
-1.414962708950042725e-01
1.122762113809585571e-01
-1.031241193413734436e-01
8.155554533004760742e-02
-2.089140191674232483e-02
2.173831760883331299e-01
-1.579795628786087036e-01
6.036547943949699402e-03
-4.949819445610046387e-01
-8.158497512340545654e-02
-6.315106153488159180e-02
4.675810039043426514e-02
3.847697377204895020e-01
1.316902190446853638e-01
-9.961986541748046875e-02
2.383309155702590942e-01
2.817416749894618988e-02
1.043415814638137817e-01
-3.803876936435699463e-01
1.645796895027160645e-01
2.890705466270446777e-01
3.781192749738693237e-02
7.285938411951065063e-02
-1.538497507572174072e-01
7.979528605937957764e-02
-3.169344738125801086e-02
