5.426067113876342773e-01
-2.432543635368347168e-01
-9.969601780176162720e-02
1.750534921884536743e-01
-3.596986234188079834e-01
7.511330842971801758e-01
2.495298534631729126e-02
3.636896014213562012e-01
1.436511576175689697e-01
-1.373475670814514160e+00
-2.225151285529136658e-02
2.154059708118438721e-01
3.338720798492431641e-01
-3.138260841369628906e-01
-1.037476509809494019e-01
-9.972134828567504883e-01
-2.196436561644077301e-02
7.511024177074432373e-02
4.623757302761077881e-01
7.739183902740478516e-01
-1.013383418321609497e-01
-1.692774534225463867e+00
7.901021838188171387e-02
-6.567449569702148438e-01
-3.326779929921030998e-03
-6.893110871315002441e-01
2.246975749731063843e-01
9.472392797470092773e-01
-2.624640762805938721e-01
6.632539629936218262e-01
1.608672551810741425e-02
1.884929984807968140e-01
3.981727361679077148e-01
-5.944756865501403809e-01
-3.828351199626922607e-01
-7.540740966796875000e-01
4.164544343948364258e-01
5.671108365058898926e-01
4.299396872520446777e-01
4.003143683075904846e-02
9.910361766815185547e-01
-8.644654154777526855e-01
8.912625908851623535e-01
-3.666369915008544922e-01
-2.997761666774749756e-01
4.718890488147735596e-01
-9.070420861244201660e-01
7.135070562362670898e-01
-5.086089372634887695e-01
2.777356803417205811e-01
-5.005854368209838867e-01
-4.000515937805175781e-01
6.532341241836547852e-01
-6.518033742904663086e-01
1.423014640808105469e+00
5.203287303447723389e-02
4.491769149899482727e-02
-8.018239736557006836e-01
1.488408446311950684e+00
6.544555425643920898e-01
2.429648339748382568e-01
-2.631694078445434570e-01
-1.848230808973312378e-01
1.951612979173660278e-01
2.619085907936096191e-01
1.531007885932922363e-01
2.356358319520950317e-01
7.779135704040527344e-01
-1.917744874954223633e-01
-7.227748036384582520e-01
1.937331259250640869e-01
-2.730616182088851929e-02
1.161759942770004272e-01
-8.192019462585449219e-01
-4.042121395468711853e-02
1.376118510961532593e-01
3.626200556755065918e-01
1.942690312862396240e-01
6.326476484537124634e-02
5.101559162139892578e-01
-3.983806967735290527e-01
-5.892708525061607361e-02
-3.406744897365570068e-01
-2.029714733362197876e-01
6.184024214744567871e-01
-3.650106191635131836e-01
2.209653519093990326e-02
2.614295780658721924e-01
1.870393753051757812e-02
-2.915755808353424072e-01
7.639931440353393555e-01
4.488129317760467529e-01
2.501596696674823761e-02
-9.630119800567626953e-02
-3.596108555793762207e-01
-5.117260813713073730e-01
7.428208738565444946e-02
6.807583570480346680e-01
-5.141157507896423340e-01
-4.984236955642700195e-01
2.326503098011016846e-01
-1.163797229528427124e-01
4.026611447334289551e-01
1.962522566318511963e-01
-6.352040767669677734e-01
4.811362922191619873e-02
2.591430544853210449e-01
-3.072206079959869385e-01
-1.748305708169937134e-01
4.503821134567260742e-01
-3.146588206291198730e-01
-3.348297476768493652e-01
2.071792073547840118e-02
4.096382260322570801e-01
1.920036375522613525e-01
2.953294515609741211e-01
-2.586499154567718506e-01
-2.043063342571258545e-01
4.487129673361778259e-02
-2.141759991645812988e-01
-3.242042660713195801e-01
1.325657516717910767e-01
2.554970383644104004e-01
-1.534517258405685425e-01
9.777310490608215332e-02
-1.705420911312103271e-01
-1.127119138836860657e-01
-1.194281280040740967e-01
2.507079243659973145e-01
-7.447736710309982300e-02
-5.123215541243553162e-02
5.496286228299140930e-02
-1.245604977011680603e-01
-2.023713141679763794e-01
3.662979230284690857e-02
8.524098247289657593e-02
-4.260652661323547363e-01
1.469634920358657837e-01
9.073608368635177612e-02
-4.222010374069213867e-01
-7.466171979904174805e-01
3.912172913551330566e-01
4.070135578513145447e-02
-2.493654638528823853e-01
5.866198614239692688e-02
-6.512682884931564331e-02
-1.085173562169075012e-01
-5.141909793019294739e-02
1.246406137943267822e-02
9.133489727973937988e-01
-2.004083096981048584e-01
6.595768034458160400e-02
7.552504539489746094e-02
-3.667884767055511475e-01
-5.302135273814201355e-02
1.139126179623417556e-04
-8.625680804252624512e-01
-4.511764347553253174e-01
1.735553294420242310e-01
-4.365223348140716553e-01
1.137121766805648804e-01
-3.040968179702758789e-01
4.140321314334869385e-01
-1.249201074242591858e-01
-7.755875587463378906e-01
3.892169892787933350e-01
-3.947257995605468750e-01
2.172938138246536255e-01
-5.619723796844482422e-01
-1.151180267333984375e-01
-6.265892386436462402e-01
-5.010240674018859863e-01
2.562238574028015137e-01
-2.382372021675109863e-01
5.020351409912109375e-01
6.508199572563171387e-01
3.028882145881652832e-01
-2.573490738868713379e-01
1.181120499968528748e-01
4.083199799060821533e-01
7.734838128089904785e-02
-1.517109721899032593e-01
-8.537632822990417480e-01
-5.166208148002624512e-01
7.678564786911010742e-01
1.807876080274581909e-01
3.264936804771423340e-01
1.364416331052780151e-01
-1.283241808414459229e-01
6.993460059165954590e-01
7.128590345382690430e-01
3.442365825176239014e-01
-1.302493959665298462e-01
-3.890030980110168457e-01
-3.784166574478149414e-01
-9.622643589973449707e-01
4.564769268035888672e-01
-2.462151348590850830e-01
3.420925736427307129e-01
2.189986109733581543e-01
3.685432076454162598e-01
-4.476841986179351807e-01
3.984073400497436523e-01
-5.112040638923645020e-01
1.960595324635505676e-02
2.117827236652374268e-01
-2.673918008804321289e-01
5.998622775077819824e-01
-1.232639774680137634e-01
5.021706689149141312e-03
-2.498877495527267456e-01
-9.891806542873382568e-02
5.395872592926025391e-01
-5.261732935905456543e-01
4.058204591274261475e-01
2.423097342252731323e-01
-9.248094260692596436e-02
-4.200316071510314941e-01
2.033482044935226440e-01
2.723267674446105957e-01
-4.167339801788330078e-01
1.905091255903244019e-01
1.053812727332115173e-01
-2.898092567920684814e-01
-5.878064036369323730e-01
1.022686529904603958e-02
-2.836163341999053955e-01
1.860813349485397339e-01
-1.550655961036682129e-01
6.435011029243469238e-01
-1.024782180786132812e+00
-6.940501928329467773e-01
4.292202889919281006e-01
1.355094462633132935e-01
1.235856562852859497e-01
3.560420572757720947e-01
-3.690837919712066650e-01
-4.674208909273147583e-02
2.339289709925651550e-02
-1.349858045578002930e-01
2.072286307811737061e-01
-3.766466379165649414e-01
1.969660520553588867e-01
-3.057903237640857697e-02
-1.741701960563659668e-01
2.842851877212524414e-01
-3.862224817276000977e-01
-1.326070278882980347e-01
-3.874008953571319580e-01
8.285037279129028320e-01
-1.633715927600860596e-01
-3.338634073734283447e-01
2.202046066522598267e-01
2.408730089664459229e-01
3.613314032554626465e-01
1.391623020172119141e-01
-1.859737634658813477e-01
-2.852902114391326904e-01
3.852546215057373047e-01
2.806476950645446777e-01
4.795243740081787109e-01
-1.046509370207786560e-01
-2.099577933549880981e-01
-4.449102580547332764e-01
-3.990219533443450928e-01
-2.059917524456977844e-02
-1.084623858332633972e-01
9.277872443199157715e-01
-8.811243809759616852e-03
4.476702585816383362e-02
-4.260515570640563965e-01
-4.957410320639610291e-02
7.384502291679382324e-01
-8.455194234848022461e-01
-1.889210045337677002e-01
-8.028300851583480835e-02
3.032600581645965576e-01
-2.242231667041778564e-01
2.018477916717529297e-01
7.203703373670578003e-02
7.552753388881683350e-02
3.238566219806671143e-01
2.121119648218154907e-01
3.557535409927368164e-01
-4.085330665111541748e-02
-5.957385897636413574e-01
7.955741882324218750e-02
5.491273999214172363e-01
3.145562112331390381e-01
-4.648248106241226196e-02
-4.064414277672767639e-02
1.280348300933837891e-01
1.962845958769321442e-02
-4.523282647132873535e-01
-1.348982099443674088e-02
-2.222846150398254395e-01
2.604695409536361694e-02
3.775300383567810059e-01
-8.192774653434753418e-01
2.568084299564361572e-01
4.092813655734062195e-02
-7.045347243547439575e-02
5.860572457313537598e-01
-4.895156621932983398e-01
-1.499577909708023071e-01
-2.155504375696182251e-01
-4.421188831329345703e-01
6.626877188682556152e-01
-1.917307823896408081e-01
3.243184462189674377e-02
-1.006007939577102661e-01
-1.282990537583827972e-02
1.152275085449218750e+00
-6.735070943832397461e-01
8.910196423530578613e-01
-2.681860923767089844e-01
2.915663123130798340e-01
1.615238040685653687e-01
5.647815018892288208e-02
1.943801492452621460e-01
2.322550714015960693e-01
-2.901437878608703613e-01
1.689285188913345337e-01
-3.467022180557250977e-01
-8.680950850248336792e-02
1.296092718839645386e-01
-3.379647433757781982e-01
2.893692255020141602e-01
-3.646536171436309814e-01
2.797129452228546143e-01
-1.396142840385437012e-01
-1.034757494926452637e-01
6.308284401893615723e-01
-1.093718558549880981e-01
3.455133140087127686e-01
5.388804152607917786e-02
-8.361180871725082397e-02
-5.405163168907165527e-01
4.448336362838745117e-01
1.972644329071044922e-01
3.275942206382751465e-01
-3.327405452728271484e-01
-1.877270042896270752e-01
1.963338851928710938e-01
-1.033477410674095154e-01
2.190508395433425903e-01
-1.386867761611938477e-01
-3.806364536285400391e-01
-2.069495469331741333e-01
1.540138959884643555e+00
-4.633201062679290771e-01
-2.753283083438873291e-02
-5.083598196506500244e-03
4.766641259193420410e-01
2.486289292573928833e-01
6.217898726463317871e-01
1.482319474220275879e+00
-1.213355541229248047e+00
9.822412729263305664e-01
7.429863214492797852e-01
2.567624151706695557e-01
-5.630573630332946777e-01
3.944737315177917480e-01
4.097558557987213135e-02
1.168469861149787903e-01
3.674344122409820557e-01
-3.859073519706726074e-01
1.568795740604400635e-01
-1.803424507379531860e-01
1.572011262178421021e-01
-2.444549798965454102e-01
-1.334486603736877441e-01
1.756101101636886597e-01
-2.932870388031005859e-01
4.752549827098846436e-01
1.809386014938354492e-01
-2.895445227622985840e-01
-2.243474870920181274e-01
5.023238658905029297e-01
2.711326181888580322e-01
-2.814361751079559326e-01
-4.027206450700759888e-02
-1.480679064989089966e-01
-1.085222661495208740e-01
4.913095831871032715e-01
-9.379086643457412720e-02
1.715450137853622437e-01
3.821563422679901123e-01
5.025098472833633423e-02
-9.547503590583801270e-01
8.872826099395751953e-01
5.991873741149902344e-01
-3.189478814601898193e-02
-7.796134948730468750e-01
-3.903675358742475510e-03
-5.120071172714233398e-01
4.660649225115776062e-02
7.375959157943725586e-01
-2.494814842939376831e-01
-1.763403266668319702e-01
3.299995660781860352e-01
-2.691325247287750244e-01
-2.545727193355560303e-01
-2.002079039812088013e-01
5.058780908584594727e-01
-2.459249794483184814e-01
2.224791944026947021e-01
3.399452567100524902e-01
3.737118840217590332e-01
-6.659033298492431641e-01
5.473788380622863770e-01
5.320340394973754883e-01
-1.652870699763298035e-02
-6.768247485160827637e-01
-4.072264302521944046e-03
-6.872308906167745590e-03
4.109703004360198975e-01
4.336328804492950439e-01
-5.278558284044265747e-02
4.015391469001770020e-01
3.366725444793701172e-01
-1.337182968854904175e-01
3.131817877292633057e-01
1.353648584336042404e-02
-8.306327462196350098e-02
6.266874074935913086e-01
-3.424834311008453369e-01
-1.543531417846679688e-01
-1.832554340362548828e-01
8.808254599571228027e-01
-3.862647414207458496e-01
-3.460912704467773438e-01
2.828084230422973633e-01
1.972077339887619019e-01
4.142372012138366699e-01
5.203278362751007080e-02
4.679967463016510010e-01
-1.089263677597045898e+00
9.424266815185546875e-01
6.804425120353698730e-01
-4.025508463382720947e-01
5.563488006591796875e-01
-2.255340814590454102e-01
1.948263794183731079e-01
5.696356892585754395e-01
-3.354315459728240967e-01
8.577042073011398315e-02
-1.656049676239490509e-02
1.358702778816223145e-01
-6.886168718338012695e-01
9.195836186408996582e-01
3.905838727951049805e-01
-1.557026873342692852e-03
-2.002160251140594482e-01
-5.946066975593566895e-02
-3.949051797389984131e-01
8.075030893087387085e-02
2.878492772579193115e-01
-1.392281800508499146e-01
-1.392808258533477783e-01
3.981645405292510986e-01
-3.817926645278930664e-01
3.699782490730285645e-01
-2.314630448818206787e-01
-1.667813807725906372e-01
7.294296026229858398e-01
-2.466678619384765625e-01
3.314537405967712402e-01
3.566200733184814453e-01
4.524210691452026367e-01
7.131236046552658081e-02
-3.626580238342285156e-01
3.415462374687194824e-01
6.037905216217041016e-01
4.226163625717163086e-01
7.675507068634033203e-01
-5.403714776039123535e-01
-8.428742177784442902e-03
4.945385456085205078e-01
-4.770753085613250732e-01
-4.349549412727355957e-01
-4.277488589286804199e-01
2.913838028907775879e-01
2.992040216922760010e-01
9.317986667156219482e-02
6.865063309669494629e-02
-1.380790710449218750e+00
2.576330900192260742e-01
5.323805809020996094e-01
1.885219931602478027e+00
-7.531908750534057617e-01
3.421138525009155273e-01
9.573431313037872314e-02
2.461051046848297119e-01
3.496970832347869873e-01
3.637504577636718750e-01
-3.216055929660797119e-01
-1.072908759117126465e+00
2.466891258955001831e-01
-1.069026365876197815e-01
-2.370266020298004150e-01
-1.130046620965003967e-01
8.102893829345703125e-02
-4.061262309551239014e-01
-3.627838194370269775e-01
4.023791477084159851e-02
1.959749497473239899e-02
-9.539850056171417236e-02
3.005288541316986084e-01
-7.400435805320739746e-01
-1.003350019454956055e-01
-1.787848591804504395e+00
-5.376233458518981934e-01
1.300446242094039917e-01
1.363911330699920654e-01
-7.477225065231323242e-01
-2.181215584278106689e-01
3.153096139430999756e-01
-1.015943437814712524e-01
-4.709367454051971436e-02
-7.751430869102478027e-01
1.388679891824722290e-01
-9.415434300899505615e-02
1.553084105253219604e-01
2.542958855628967285e-01
-4.096400141716003418e-01
1.670398712158203125e-01
-2.400445789098739624e-01
-1.824071109294891357e-01
-2.065440565347671509e-01
-2.433487921953201294e-01
3.647446632385253906e-03
-2.791465520858764648e-01
-2.651351988315582275e-01
-3.402653932571411133e-01
-4.979280233383178711e-01
3.020537197589874268e-01
5.952105298638343811e-02
-5.030523538589477539e-01
4.740946292877197266e-01
1.992644518613815308e-01
-5.312305688858032227e-01
1.215085685253143311e-01
-6.189572215080261230e-01
-9.456887245178222656e-01
4.106761217117309570e-01
-5.132576823234558105e-01
4.422321617603302002e-01
2.818202078342437744e-01
2.312371879816055298e-01
-2.158022224903106689e-01
-3.760247826576232910e-01
3.701327443122863770e-01
2.367783486843109131e-01
2.410800307989120483e-01
3.300478160381317139e-01
-6.746168434619903564e-02
-2.193720452487468719e-02
1.312754154205322266e-01
-5.005199313163757324e-01
-3.377320468425750732e-01
-3.078459501266479492e-01
9.721548855304718018e-02
-6.823398470878601074e-01
-4.669270515441894531e-01
6.532095372676849365e-02
-1.566421240568161011e-01
1.373256929218769073e-02
-8.209666609764099121e-02
-3.115377128124237061e-01
-1.973457038402557373e-01
-4.494069218635559082e-01
-1.588810351677238941e-03
-5.944986268877983093e-02
1.396733224391937256e-01
5.635879933834075928e-02
-2.001702189445495605e-01
4.890245571732521057e-02
3.128138780593872070e-01
-1.579606831073760986e-01
3.944658637046813965e-01
8.312956430017948151e-03
4.867129623889923096e-01
9.462453722953796387e-01
1.464535668492317200e-02
-1.122781634330749512e-01
-3.149263262748718262e-01
1.283347457647323608e-01
7.120427489280700684e-02
2.057783156633377075e-01
6.096458807587623596e-02
7.605143785476684570e-01
9.023565649986267090e-01
1.671904325485229492e-01
-1.326449215412139893e-02
2.602428197860717773e-01
7.469903677701950073e-02
4.552803635597229004e-01
3.441638499498367310e-02
2.511482238769531250e-01
-4.380285143852233887e-01
5.522561445832252502e-02
9.141117930412292480e-01
3.284572958946228027e-01
2.098562270402908325e-01
-3.202812075614929199e-01
1.210513934493064880e-01
8.857145160436630249e-02
-1.953050047159194946e-01
5.783428624272346497e-02
-6.524530053138732910e-01
4.224444925785064697e-01
-1.726433187723159790e-01
2.377395890653133392e-02
-5.295037478208541870e-02
1.485597342252731323e-01
2.420164048671722412e-01
-2.025419175624847412e-01
1.006091237068176270e-01
2.234468907117843628e-01
-2.230058424174785614e-02
-3.366720676422119141e-01
2.354412078857421875e+00
1.288500577211380005e-01
-2.905883081257343292e-02
4.144406020641326904e-01
-2.185662686824798584e-01
3.622686564922332764e-01
3.784400224685668945e-01
1.609767675399780273e-01
-1.282734572887420654e-01
-2.080555558204650879e-01
4.905164837837219238e-01
6.262586265802383423e-02
-4.030402004718780518e-02
1.445993334054946899e-01
-1.159454584121704102e-01
-9.719527959823608398e-01
-5.875717103481292725e-02
-1.746172159910202026e-01
5.313463807106018066e-01
9.404779970645904541e-02
-1.247615739703178406e-01
4.396787583827972412e-01
-2.252398245036602020e-02
9.474240988492965698e-02
2.260085381567478180e-02
1.433339267969131470e-01
-1.815769225358963013e-01
-1.698142886161804199e-01
9.564555436372756958e-02
1.402668952941894531e-01
-2.576180696487426758e-01
-1.683919280767440796e-01
-2.934261560440063477e-01
-1.951546967029571533e-01
1.244521439075469971e-01
1.047288656234741211e+00
-1.343230754137039185e-01
1.604980379343032837e-01
-8.207960128784179688e-01
-3.370818449184298515e-03
2.053181976079940796e-01
-1.207991600036621094e+00
-2.084814548492431641e+00
6.093100830912590027e-02
-9.319699555635452271e-02
6.049574539065361023e-02
1.602452993392944336e-01
1.962160170078277588e-01
-7.651022076606750488e-01
2.792733013629913330e-01
8.794464915990829468e-02
2.418959140777587891e-01
5.310425162315368652e-01
2.518138289451599121e-01
-6.109675168991088867e-01
1.866703033447265625e-01
5.369035601615905762e-01
-4.852768778800964355e-01
1.843136698007583618e-01
7.057136893272399902e-01
-2.907888293266296387e-01
1.475464701652526855e-01
2.489035427570343018e-01
-4.822765588760375977e-01
2.716357409954071045e-01
-3.733579814434051514e-01
-5.146234035491943359e-01
-3.429611325263977051e-01
1.762103736400604248e-01
1.678658276796340942e-01
-3.588477671146392822e-01
-4.493740499019622803e-01
-4.415019154548645020e-01
-5.452234148979187012e-01
4.772603809833526611e-01
2.428524792194366455e-01
-2.786769270896911621e-01
5.305789709091186523e-01
-2.770964503288269043e-01
-8.406006693840026855e-01
8.890064060688018799e-02
-2.711335718631744385e-01
-1.018976569175720215e+00
6.610900759696960449e-01
-3.668786883354187012e-01
7.529775500297546387e-01
7.194011211395263672e-01
1.266219615936279297e-01
-3.609545230865478516e-01
1.296686008572578430e-03
2.685801684856414795e-01
5.352637767791748047e-01
3.909014463424682617e-01
4.826712310314178467e-01
-3.932591974735260010e-01
-1.711725294589996338e-01
5.283437371253967285e-01
-5.721583962440490723e-01
8.479457497596740723e-01
-1.120194196701049805e-01
-4.604779183864593506e-01
-2.863358855247497559e-01
-8.738831430673599243e-02
3.769278228282928467e-01
-8.579985052347183228e-02
9.738058596849441528e-02
-1.688248012214899063e-03
-6.202919483184814453e-01
1.124757751822471619e-01
-4.114219918847084045e-02
-1.207189355045557022e-02
1.143507957458496094e-01
2.835974693298339844e-01
1.666722446680068970e-01
1.965130865573883057e-01
8.899520635604858398e-01
2.412978708744049072e-01
-2.221166342496871948e-01
2.649991214275360107e-01
4.514844715595245361e-02
-7.622935771942138672e-01
6.676254421472549438e-02
-9.105410575866699219e-01
-9.660732001066207886e-02
9.027379155158996582e-01
-7.794813066720962524e-02
8.601921051740646362e-02
-1.878997236490249634e-01
7.076215147972106934e-01
4.700632020831108093e-02
-7.099928706884384155e-02
-4.720102846622467041e-01
-6.591833829879760742e-01
-1.018010601401329041e-01
9.283490777015686035e-01
7.756892442703247070e-01
-6.172531247138977051e-01
5.159815549850463867e-01
-6.283779740333557129e-01
-3.308539390563964844e-01
8.840132951736450195e-01
-1.859035491943359375e-01
-3.158757984638214111e-01
1.843123733997344971e-01
-4.233413338661193848e-01
2.311668843030929565e-01
-8.369853347539901733e-02
-2.719647809863090515e-02
-4.210664927959442139e-01
4.781662672758102417e-02
4.274852108210325241e-03
3.230563700199127197e-01
2.722783684730529785e-01
1.548453420400619507e-01
-8.668693155050277710e-02
-5.427213311195373535e-01
-1.119606196880340576e-02
-1.384132057428359985e-01
-3.443972170352935791e-01
-5.301362276077270508e-01
3.427170813083648682e-01
-1.539830863475799561e-01
-9.689021706581115723e-01
1.041139066219329834e-01
-3.319872617721557617e-01
1.311188191175460815e-01
3.526405394077301025e-01
2.273993752896785736e-02
-4.757562875747680664e-01
-2.394960969686508179e-01
3.071063458919525146e-01
4.284688830375671387e-01
6.212099194526672363e-01
3.889605998992919922e-01
-2.949625253677368164e-01
-1.963244378566741943e-01
3.529765307903289795e-01
-3.643949031829833984e-01
1.410466581583023071e-01
7.582077980041503906e-01
3.960733488202095032e-02
6.027421951293945312e-01
1.954631656408309937e-01
-3.399465382099151611e-01
2.228208929300308228e-01
-1.556908488273620605e-01
-3.994185328483581543e-01
-1.947064697742462158e-01
1.313782781362533569e-01
1.248095259070396423e-01
-2.526508271694183350e-01
-3.838247656822204590e-01
-7.250306010246276855e-01
-2.856770753860473633e-01
8.157117366790771484e-01
7.916124165058135986e-02
-3.924074470996856689e-01
4.349386692047119141e-01
-1.865083336830139160e+00
2.276377528905868530e-01
-1.751972883939743042e-01
1.528093963861465454e-01
-6.180607527494430542e-02
-1.041025668382644653e-01
-2.417054213583469391e-02
-3.052812442183494568e-02
4.807470142841339111e-01
2.734214961528778076e-01
-4.328996688127517700e-02
-7.284528762102127075e-02
1.301069110631942749e-01
-1.531915664672851562e-01
2.336490750312805176e-01
-6.625733524560928345e-02
-2.819949090480804443e-01
-5.144861340522766113e-01
1.502170413732528687e-01
-2.877950668334960938e-01
4.084885716438293457e-01
4.396972358226776123e-01
-5.743227005004882812e-01
3.127036988735198975e-01
1.663425803184509277e+00
-6.810244321823120117e-01
8.626871705055236816e-01
-4.200512170791625977e-01
-2.181202173233032227e-01
9.401436895132064819e-02
3.930112421512603760e-01
1.576063483953475952e-01
-3.343114256858825684e-01
-6.933421492576599121e-01
-6.147148609161376953e-01
-4.234143495559692383e-01
6.676421035081148148e-03
1.571891903877258301e-01
-6.211789250373840332e-01
2.216947227716445923e-01
-1.270192712545394897e-01
1.268350146710872650e-02
7.408853173255920410e-01
6.635917425155639648e-01
5.100002884864807129e-02
-3.200099337846040726e-03
-1.483887434005737305e-01
-2.568768858909606934e-01
-5.237555131316184998e-02
2.836050987243652344e-01
-8.852316737174987793e-01
2.675419449806213379e-01
6.544462442398071289e-01
4.604829475283622742e-02
-2.258027344942092896e-01
4.908565059304237366e-02
3.043860793113708496e-01
2.055097073316574097e-01
-2.824987769126892090e-01
-1.818819157779216766e-02
3.475484848022460938e-01
-2.027297019958496094e-01
-2.058046758174896240e-01
5.312659144401550293e-01
4.056890010833740234e-01
-1.338682025671005249e-01
8.109003305435180664e-02
3.277088701725006104e-01
-3.825725242495536804e-02
2.302332222461700439e-01
-1.512062549591064453e-01
8.363038301467895508e-01
4.460284113883972168e-01
-1.666592508554458618e-01
1.504212319850921631e-01
2.197463661432266235e-01
-5.065960288047790527e-01
1.555791944265365601e-01
-7.713354229927062988e-01
3.783106058835983276e-02
1.065987423062324524e-01
6.044511795043945312e-01
-2.514311298727989197e-02
-1.795697510242462158e-01
4.462288916110992432e-01
-1.172326922416687012e+00
-1.504775881767272949e-01
-7.509779930114746094e-02
-3.860462307929992676e-01
3.487752974033355713e-01
2.526570856571197510e-02
1.107662469148635864e-01
1.615628004074096680e-01
3.582819178700447083e-02
5.049629136919975281e-02
1.927847415208816528e-01
1.261518746614456177e-01
-3.199024498462677002e-02
2.156094275414943695e-02
-5.603435039520263672e-01
7.722377777099609375e-02
1.249310299754142761e-01
-4.246560931205749512e-01
4.727258086204528809e-01
6.548779606819152832e-01
-5.360483527183532715e-01
2.352166771888732910e-01
4.277378320693969727e-01
-3.638623356819152832e-01
7.583941817283630371e-01
-2.100846022367477417e-01
8.685391396284103394e-03
8.480694890022277832e-02
1.515980064868927002e-01
1.181428134441375732e-01
5.456057786941528320e-01
5.136926192790269852e-03
-1.475814580917358398e-01
-1.361604630947113037e-01
1.006583869457244873e-01
-2.222810126841068268e-02
4.528965651988983154e-01
1.192844882607460022e-01
1.598036587238311768e-01
3.471180200576782227e-01
-9.713153541088104248e-02
-3.246263861656188965e-01
-4.124043136835098267e-02
-1.771342009305953979e-01
3.255862593650817871e-01
2.673308551311492920e-01
-1.739904284477233887e-01
-7.190825939178466797e-01
2.868470251560211182e-01
9.846919216215610504e-03
2.639828622341156006e-02
1.741543710231781006e-01
1.432984590530395508e+00
-2.462567687034606934e-01
-1.180503726005554199e+00
-5.958616137504577637e-01
-3.335706293582916260e-01
4.457177221775054932e-02
-3.780027627944946289e-01
-3.104354441165924072e-01
2.384064793586730957e-01
1.547622494399547577e-02
-2.124115228652954102e-01
3.911160826683044434e-01
-3.805053532123565674e-01
3.788571655750274658e-01
-3.612979948520660400e-01
-3.531417846679687500e-01
1.277989894151687622e-01
-1.415344625711441040e-01
-4.101332724094390869e-01
2.928226590156555176e-01
1.751882880926132202e-01
3.095844089984893799e-01
-1.312471926212310791e-01
-6.796914152801036835e-03
-2.150767147541046143e-01
-1.114676333963871002e-02
1.997982263565063477e-01
-1.828584820032119751e-01
1.907755732536315918e-01
-4.548361301422119141e-01
3.534259200096130371e-01
-9.468023478984832764e-02
-3.026564419269561768e-01
-1.574002802371978760e-01
3.482073247432708740e-01
1.564853072166442871e+00
-1.406609565019607544e-01
-7.105001807212829590e-02
2.132852077484130859e-01
1.060850266367197037e-02
-1.362185955047607422e+00
1.287974184378981590e-03
-4.109480679035186768e-01
8.037588000297546387e-02
9.078511595726013184e-01
-8.832883089780807495e-02
4.231309890747070312e-02
-5.874270200729370117e-01
-9.267438650131225586e-01
-3.759107589721679688e-01
-1.329699993133544922e+00
6.058518886566162109e-01
-7.593382596969604492e-01
7.818174362182617188e-02
2.961609661579132080e-01
2.150265574455261230e-01
-6.249797940254211426e-01
-2.244298905134201050e-02
-3.195182681083679199e-01
3.498381376266479492e-01
-5.176123380661010742e-01
-1.048036590218544006e-01
-7.412394881248474121e-01
-5.622512102127075195e-02
-2.252356112003326416e-01
-3.000143468379974365e-01
1.101462841033935547e-01
4.416145682334899902e-01
-2.839768677949905396e-02
-5.650273337960243225e-02
1.218351945281028748e-01
-1.019148468971252441e+00
2.875350713729858398e-01
-4.371050000190734863e-01
2.345560342073440552e-01
4.614615142345428467e-01
-5.210708379745483398e-01
1.807660311460494995e-01
2.423048615455627441e-01
-7.313739061355590820e-01
-1.808163523674011230e-01
-6.331714391708374023e-01
5.427478253841400146e-02
-2.102640271186828613e-01
-1.276218593120574951e-01
-2.047421336174011230e-01
5.219511389732360840e-01
7.451631873846054077e-02
-1.302874237298965454e-01
5.532621592283248901e-02
8.807431906461715698e-02
3.877746462821960449e-01
-2.780705392360687256e-01
-1.740773767232894897e-01
-6.792858988046646118e-02
2.218490839004516602e+00
3.432806134223937988e-01
2.683469653129577637e-01
1.444291621446609497e-01
1.764253973960876465e-01
-3.610269427299499512e-01
-5.420690178871154785e-01
-1.271132528781890869e-01
-2.283796854317188263e-02
-7.253453731536865234e-01
-2.342498451471328735e-01
1.453041844069957733e-02
6.247244402766227722e-02
1.558773756027221680e+00
-2.456010691821575165e-02
-2.765129804611206055e-01
-5.403548479080200195e-01
2.897495329380035400e-01
3.415677249431610107e-01
6.568112969398498535e-02
9.904438853263854980e-01
-2.328110188245773315e-01
-2.030200660228729248e-01
-7.237896323204040527e-02
-1.296531558036804199e-01
-6.499375402927398682e-02
-3.774448335170745850e-01
-1.700584650039672852e+00
3.783849477767944336e-01
-2.878096699714660645e-01
-6.534957140684127808e-02
4.981789886951446533e-01
6.176302433013916016e-01
6.336872279644012451e-02
-1.614595949649810791e-01
1.594143211841583252e-01
-5.302325487136840820e-01
5.660508871078491211e-01
-2.537400722503662109e-01
3.985582888126373291e-01
1.780102252960205078e-01
-1.841620653867721558e-01
1.361678242683410645e-01
4.186597466468811035e-01
-3.858046829700469971e-01
-2.950368821620941162e-01
-3.703801929950714111e-01
1.209294497966766357e-01
5.016463994979858398e-02
9.276476502418518066e-02
-2.946695685386657715e-01
1.702370196580886841e-01
-7.237753272056579590e-02
-7.112591713666915894e-02
-2.750997897237539291e-03
3.782623708248138428e-01
3.715092837810516357e-01
-3.908455371856689453e-02
-4.663895666599273682e-01
2.734540700912475586e-01
-2.730821371078491211e+00
1.696288138628005981e-01
-1.081659197807312012e-01
3.058689236640930176e-01
-2.478274554014205933e-01
1.063776910305023193e-01
1.018586102873086929e-03
-3.745347559452056885e-01
2.962219119071960449e-01
-1.994368433952331543e-01
-8.065222948789596558e-02
3.204879164695739746e-01
9.633859246969223022e-02
3.613667190074920654e-01
2.417882084846496582e-01
1.357128173112869263e-01
-5.869096517562866211e-01
4.229355752468109131e-01
7.845910638570785522e-02
2.433511018753051758e-01
-2.441352844238281250e+00
-3.636565804481506348e-01
4.628132879734039307e-01
2.296824157238006592e-01
-5.544096976518630981e-02
7.714105248451232910e-01
-2.786329686641693115e-01
5.774664282798767090e-01
-4.239125847816467285e-01
1.107808351516723633e+00
3.373399078845977783e-01
-1.340333372354507446e-01
9.409949928522109985e-02
-1.405946731567382812e+00
-2.077273726463317871e-01
-3.620745241641998291e-01
-1.686923764646053314e-02
-1.518526524305343628e-01
2.834818884730339050e-02
-1.821211874485015869e-01
-1.015787422657012939e-01
-1.299714595079421997e-01
-4.710445646196603775e-03
-2.158870697021484375e-01
3.536930084228515625e-01
3.082349151372909546e-02
-3.294222652912139893e-01
3.581528365612030029e-02
-1.900392025709152222e-01
-7.440462708473205566e-01
-1.407553851604461670e-01
9.379878640174865723e-02
1.286190301179885864e-01
1.406066060066223145e+00
2.264955490827560425e-01
2.237948775291442871e-01
-6.441332697868347168e-01
1.486815512180328369e-01
-1.622670292854309082e-01
-1.122721210122108459e-01
8.001466989517211914e-01
-4.992330968379974365e-01
3.211828172206878662e-01
1.073185950517654419e-01
-1.635765880346298218e-01
-3.298149406909942627e-01
-1.505125761032104492e-01
3.394634425640106201e-01
-2.863494455814361572e-01
1.315522789955139160e+00
1.935241818428039551e-01
-2.337214946746826172e-01
-8.373995870351791382e-02
-7.855088114738464355e-01
-6.696197390556335449e-01
-5.257000401616096497e-02
-3.362457454204559326e-01
-4.103735834360122681e-02
3.468712866306304932e-01
1.056084707379341125e-01
-6.634920835494995117e-02
-1.708064973354339600e-01
-3.081722855567932129e-01
3.710972890257835388e-02
-7.659839000552892685e-03
3.163248896598815918e-01
1.249323248863220215e+00
-6.698188781738281250e-01
-4.172587692737579346e-01
4.089570045471191406e-01
-5.133520811796188354e-02
2.169139087200164795e-01
9.576423764228820801e-01
-5.236954092979431152e-01
-2.752670086920261383e-02
2.521415352821350098e-01
-2.002365738153457642e-01
1.523511558771133423e-01
-9.938148409128189087e-02
7.374747097492218018e-02
-1.146958768367767334e-01
-1.571444272994995117e-01
4.534043669700622559e-01
4.105314612388610840e-01
-4.732035472989082336e-02
-1.061099097132682800e-01
-1.440257858484983444e-02
-3.147500157356262207e-01
8.956741541624069214e-02
-1.901644766330718994e-01
-2.300249040126800537e-01
1.099976062774658203e+00
1.084679365158081055e-01
-1.699212938547134399e-01
-1.528223752975463867e-01
1.039210110902786255e-01
2.588275372982025146e-01
-1.568584144115447998e-01
1.022425480186939240e-02
5.487915873527526855e-01
2.419330924749374390e-01
9.383016079664230347e-02
2.183518409729003906e-01
1.651763767004013062e-01
1.075977906584739685e-01
-2.392824143171310425e-01
-1.360972642898559570e+00
-1.112275198101997375e-01
2.529915869235992432e-01
-5.331140756607055664e-02
-1.211108416318893433e-01
-7.999562658369541168e-03
1.206711828708648682e-01
1.501963138580322266e-01
4.634119868278503418e-01
9.952020645141601562e-01
-5.211263895034790039e-01
-1.097421422600746155e-01
-3.584565222263336182e-02
2.874811589717864990e-01
2.219891548156738281e-01
-4.545767903327941895e-01
7.407864928245544434e-01
3.416312932968139648e-01
-2.343026399612426758e-01
3.848671019077301025e-01
1.045832484960556030e-01
3.578493297100067139e-01
6.467457115650177002e-02
-4.765103161334991455e-01
-9.379883855581283569e-02
1.123102754354476929e-01
-8.741787169128656387e-04
-5.305102840065956116e-02
2.806766033172607422e-01
3.428720831871032715e-01
1.930419206619262695e-01
-9.623191505670547485e-02
-1.817353963851928711e-01
1.715209484100341797e-01
6.295408606529235840e-01
3.858498632907867432e-01
-4.246069192886352539e-01
-1.264157295227050781e-01
1.187146548181772232e-02
-1.416915804147720337e-01
5.049184560775756836e-01
1.118745133280754089e-01
8.747598528861999512e-01
-4.492051899433135986e-02
-8.677510917186737061e-02
1.046887338161468506e-01
1.823621988296508789e-01
6.665559411048889160e-01
2.866853177547454834e-01
4.376338422298431396e-01
-1.537136197090148926e+00
4.347804188728332520e-01
1.339358836412429810e-01
5.803851038217544556e-02
3.048852384090423584e-01
-2.698281049728393555e+00
4.706442654132843018e-01
4.261654913425445557e-01
-4.770153462886810303e-01
2.860867418348789215e-02
-2.335599511861801147e-01
7.498494535684585571e-02
-1.410654187202453613e-01
1.961585432291030884e-01
-1.851471513509750366e-02
-1.336753219366073608e-01
2.493983060121536255e-01
2.493605762720108032e-01
2.274463772773742676e-01
1.646262407302856445e-01
-2.298060059547424316e-01
5.158632397651672363e-01
1.629872918128967285e-01
-1.540289968252182007e-01
-1.674342304468154907e-01
2.266669571399688721e-01
-1.495697349309921265e-01
2.818353176116943359e-01
1.878744810819625854e-01
2.514348626136779785e-01
1.528502851724624634e-01
-2.244383245706558228e-01
-1.799687385559082031e+00
-1.117411553859710693e-01
3.406430408358573914e-02
4.694022536277770996e-01
1.360377967357635498e-01
4.585819318890571594e-02
-6.964205205440521240e-02
-1.715136021375656128e-01
6.408128142356872559e-02
9.927392005920410156e-02
-1.729779876768589020e-02
-5.537907592952251434e-03
-6.589494943618774414e-01
5.144124627113342285e-01
-6.829544901847839355e-01
-6.465472579002380371e-01
2.775106728076934814e-01
3.444435596466064453e-01
1.656176447868347168e-01
2.959691584110260010e-01
-9.752292931079864502e-02
1.207621172070503235e-01
-5.283723473548889160e-01
-4.955127835273742676e-02
3.001542016863822937e-02
-9.553379565477371216e-02
-2.483489662408828735e-01
2.342344075441360474e-01
-8.291442990303039551e-01
1.331998556852340698e-01
4.524694085121154785e-01
-7.021703124046325684e-01
-1.991946995258331299e-01
-1.350219100713729858e-01
3.106545805931091309e-01
-1.837062239646911621e-01
1.264763250946998596e-02
3.701069056987762451e-01
2.008549422025680542e-01
-8.630820363759994507e-02
3.521365821361541748e-01
2.690821290016174316e-01
-1.471872329711914062e-01
1.048071030527353287e-02
4.502190351486206055e-01
-1.614072322845458984e-01
3.084163367748260498e-01
1.282395720481872559e+00
-2.045703411102294922e+00
2.649177312850952148e-01
9.996494650840759277e-02
-1.774055659770965576e-01
-4.657249152660369873e-01
-1.105524823069572449e-01
-5.738504230976104736e-02
3.388419151306152344e-01
6.061826348304748535e-01
4.863268136978149414e-01
1.878707855939865112e-02
2.201737910509109497e-01
1.968198060989379883e+00
-2.435583323240280151e-01
1.468956470489501953e-02
9.985703974962234497e-02
7.203790545463562012e-02
1.245411857962608337e-01
-4.499288201332092285e-01
7.568293809890747070e-02
7.978375554084777832e-01
-5.279009342193603516e-01
-3.419111371040344238e-01
2.369198650121688843e-01
5.032384395599365234e-01
4.575857892632484436e-02
2.042483687400817871e-01
1.779660433530807495e-01
-3.679623007774353027e-01
-5.680598616600036621e-01
-6.061754748225212097e-02
-2.786960303783416748e-01
-6.208047866821289062e-01
-5.568332672119140625e-01
-3.106557428836822510e-01
5.593039467930793762e-02
-2.064707875251770020e-01
3.256683945655822754e-01
-2.324680238962173462e-01
-1.510140776634216309e+00
-2.569116353988647461e+00
-1.301268190145492554e-01
-7.440704852342605591e-02
2.728106640279293060e-02
-1.929914802312850952e-01
4.278555214405059814e-01
-6.678767502307891846e-02
-4.296924173831939697e-01
-1.779112517833709717e-01
-1.095978692173957825e-01
7.815340161323547363e-01
-6.409326791763305664e-01
-2.616869099438190460e-02
-8.081520348787307739e-02
2.435375750064849854e-01
2.612712383270263672e-01
-3.341280668973922729e-02
2.575345635414123535e-01
-2.056001573801040649e-01
1.972948014736175537e-01
3.973846435546875000e-01
1.770248413085937500e-01
1.005577206611633301e+00
-1.103728860616683960e-01
2.081774324178695679e-01
-1.974252611398696899e-02
4.738207757472991943e-01
-2.937243878841400146e-01
3.906573951244354248e-01
-9.097710251808166504e-02
2.237912118434906006e-01
-5.253289341926574707e-01
1.485014915466308594e+00
1.590089797973632812e-01
5.133090615272521973e-01
-3.821645081043243408e-01
-1.974502354860305786e-01
3.080883324146270752e-01
-4.105872511863708496e-01
4.764678180217742920e-01
2.705000638961791992e-01
-3.005822300910949707e-01
1.945221237838268280e-02
8.939119987189769745e-03
1.067011877894401550e-01
7.835952937602996826e-02
-2.473566383123397827e-01
4.101533293724060059e-01
3.058568239212036133e-01
4.301862046122550964e-02
4.941474273800849915e-02
-6.989375352859497070e-01
8.199539780616760254e-02
-1.836738921701908112e-02
2.521553039550781250e-01
-7.138110697269439697e-02
-4.069872200489044189e-01
-1.731952130794525146e-01
-2.475838176906108856e-03
-4.018194377422332764e-01
1.050212502479553223e+00
-3.031641244888305664e-01
-2.159418761730194092e-01
3.699800968170166016e-01
4.070647060871124268e-01
-1.603847891092300415e-01
2.720034420490264893e-01
7.389157265424728394e-02
1.276881843805313110e-01
-3.565878272056579590e-01
-3.601540625095367432e-01
1.055769324302673340e-01
-1.925252079963684082e-01
6.503629684448242188e-02
2.422903478145599365e-01
-1.784693002700805664e-01
-3.087259531021118164e-01
-5.408030003309249878e-02
-1.810444891452789307e-01
-2.448814362287521362e-01
6.343992948532104492e-01
-6.353392452001571655e-02
-3.781292736530303955e-01
4.800221920013427734e-01
2.501436769962310791e-01
1.015816330909729004e-01
1.812411844730377197e-01
-1.538054794073104858e-01
-1.088823303580284119e-01
-4.670550227165222168e-01
4.835276603698730469e-01
-6.709730625152587891e-02
-2.171977311372756958e-01
1.101208012551069260e-02
-5.896396040916442871e-01
-5.337811633944511414e-02
-1.484103947877883911e-01
-9.599161893129348755e-02
1.083276197314262390e-01
-2.899494171142578125e-01
2.481998056173324585e-01
6.764178723096847534e-02
1.010532304644584656e-01
6.793849468231201172e-01
-1.998895406723022461e-01
1.119342669844627380e-01
2.621618807315826416e-01
-1.117237359285354614e-01
5.747099965810775757e-02
7.168978452682495117e-02
-2.510820031166076660e-01
7.066697627305984497e-02
2.510348334908485413e-02
-2.084768861532211304e-01
-3.711477667093276978e-02
3.035792335867881775e-02
-4.798181653022766113e-01
1.467860043048858643e-01
-2.601893842220306396e-01
-7.241103053092956543e-01
1.423155903816223145e+00
-4.911822676658630371e-01
1.138701569288969040e-02
2.734667658805847168e-01
2.991957366466522217e-01
-1.431515533477067947e-02
1.454097963869571686e-02
-1.379422843456268311e-01
-2.912963926792144775e-01
-3.385808467864990234e-01
-1.156612187623977661e-01
7.862383872270584106e-02
-1.565489321947097778e-01
-1.841975152492523193e-01
3.776403376832604408e-03
-2.217543274164199829e-01
-3.842438757419586182e-01
4.276730492711067200e-02
-2.881537079811096191e-01
-7.925598025321960449e-01
1.001438498497009277e+00
-1.159039437770843506e-01
-1.558823466300964355e+00
6.586350202560424805e-01
1.842923909425735474e-01
1.499067395925521851e-01
1.801201105117797852e-01
4.254189785569906235e-03
-3.362635672092437744e-01
-1.175723895430564880e-01
1.084977909922599792e-01
-4.571131616830825806e-02
-6.414036452770233154e-02
3.866491466760635376e-02
1.009446531534194946e-01
2.132461816072463989e-01
-9.066501259803771973e-01
-7.026175409555435181e-02
4.812745004892349243e-02
-5.124656558036804199e-01
1.887402236461639404e-01
-1.958131790161132812e-01
-2.120496034622192383e-01
4.879854619503021240e-01
4.057189822196960449e-02
-2.706301808357238770e-01
-1.385210305452346802e-01
3.893884643912315369e-02
-1.405188292264938354e-01
-2.630761563777923584e-01
1.943113356828689575e-01
1.995269954204559326e-01
4.231249392032623291e-01
5.196930766105651855e-01
-9.533377736806869507e-02
-5.352239012718200684e-01
7.519210129976272583e-02
-2.254401333630084991e-02
1.152373924851417542e-01
-2.850611805915832520e-01
-4.646945744752883911e-02
3.841075003147125244e-01
-3.989577665925025940e-02
-2.528743445873260498e-01
9.609579294919967651e-02
1.307874023914337158e-01
3.547935187816619873e-02
4.767867326736450195e-01
-1.245427429676055908e-01
1.675985194742679596e-02
-3.232212364673614502e-02
2.255288697779178619e-02
-3.713604807853698730e-01
-9.822136163711547852e-02
-5.341279506683349609e-01
5.191624760627746582e-01
7.562522292137145996e-01
-1.568622142076492310e-01
2.768486440181732178e-01
3.006788790225982666e-01
-9.939938187599182129e-01
1.963626444339752197e-01
7.069736123085021973e-01
-5.909315347671508789e-01
-2.533173859119415283e-01
-3.235646188259124756e-01
9.874412417411804199e-02
-2.850070297718048096e-01
1.348718702793121338e-01
4.148704707622528076e-01
2.175482362508773804e-01
-2.115176320075988770e-01
-4.265181720256805420e-02
1.299857616424560547e+00
1.783827506005764008e-02
-2.202188968658447266e-01
-8.814615011215209961e-02
-7.955923676490783691e-01
4.378540217876434326e-01
2.802908718585968018e-01
-5.304872523993253708e-03
5.331921577453613281e-01
1.032431200146675110e-01
-2.383400946855545044e-01
-2.462902367115020752e-01
-1.411797553300857544e-01
-1.654777862131595612e-02
6.128100752830505371e-01
1.985851377248764038e-01
3.187205791473388672e-01
-9.905559569597244263e-02
6.415886878967285156e-01
-3.999652862548828125e-01
2.627273499965667725e-01
-1.905249617993831635e-02
-2.784547396004199982e-02
3.533591926097869873e-01
9.937638044357299805e-02
1.169478893280029297e-01
5.560295581817626953e-01
8.336986303329467773e-01
2.164107859134674072e-01
2.183338403701782227e-01
-3.543954193592071533e-01
-4.994205757975578308e-02
-2.821659147739410400e-01
-6.669318079948425293e-01
1.339458674192428589e-01
5.444728136062622070e-01
1.344517767429351807e-01
-1.303119808435440063e-01
-1.067998260259628296e-01
-5.458717942237854004e-01
6.943776607513427734e-01
6.622993201017379761e-02
5.066889151930809021e-02
1.448898166418075562e-01
-5.988881587982177734e-01
5.495647192001342773e-01
1.586867868900299072e-01
-1.099283695220947266e-01
6.566885709762573242e-01
2.621224708855152130e-02
-1.339651346206665039e-01
-6.062031984329223633e-01
2.820535302162170410e-01
-6.101868152618408203e-01
3.507719635963439941e-01
-5.677531007677316666e-03
5.148301124572753906e-01
-8.056954741477966309e-01
6.552699208259582520e-01
5.653014183044433594e-01
2.790499925613403320e-01
5.847566723823547363e-01
4.297293722629547119e-01
-1.075696349143981934e+00
1.892387866973876953e-01
-1.818092167377471924e-02
-1.063421607017517090e+00
3.170291483402252197e-01
-2.883258461952209473e-02
9.105754494667053223e-01
1.739729344844818115e-01
-9.503141790628433228e-02
-5.224611610174179077e-02
-3.243047744035720825e-02
1.548257470130920410e-01
6.419984158128499985e-03
-1.796319037675857544e-01
-2.402092814445495605e-01
1.209927815943956375e-02
-4.513192474842071533e-01
-1.099802702665328979e-01
-1.614032387733459473e-01
4.251973330974578857e-02
-2.479587914422154427e-03
3.744646906852722168e-01
-9.379458427429199219e-02
-2.403771281242370605e-01
2.400028891861438751e-02
-1.049484908580780029e-01
-1.717209458351135254e+00
1.398906260728836060e-01
3.256014287471771240e-01
-1.320789903402328491e-01
-9.507037997245788574e-01
-2.579404711723327637e-01
3.427781462669372559e-01
-1.821356862783432007e-01
7.841253280639648438e-02
-1.949582248926162720e-01
5.514954328536987305e-01
2.439490854740142822e-01
6.124638319015502930e-01
-5.861873030662536621e-01
-5.743632465600967407e-02
1.178156957030296326e-01
1.964396685361862183e-01
-1.863997131586074829e-01
-1.499856561422348022e-01
-3.167132735252380371e-01
-2.802850902080535889e-01
5.436933785676956177e-02
-2.875175774097442627e-01
-2.196734858443960547e-04
2.611663341522216797e-01
9.080804139375686646e-02
1.693097949028015137e-01
1.239937320351600647e-01
1.021913737058639526e-01
-4.318257570266723633e-01
6.269292235374450684e-01
-4.866830110549926758e-01
-4.705142974853515625e-01
1.536482945084571838e-02
-2.426029592752456665e-01
-8.532733470201492310e-02
-5.363414883613586426e-01
2.649427652359008789e-01
4.021720886230468750e-01
1.479962468147277832e-01
8.515487425029277802e-03
5.715997219085693359e-01
6.149995326995849609e-01
2.796596102416515350e-02
-3.412374854087829590e-01
-1.385656148195266724e-01
-3.871188759803771973e-01
1.754020303487777710e-01
-3.284110128879547119e-01
1.594918221235275269e-01
1.150510385632514954e-01
-1.107099428772926331e-01
-8.295516967773437500e-01
8.296129703521728516e-01
-3.284594509750604630e-03
6.878841668367385864e-02
-4.713443666696548462e-02
8.090330958366394043e-01
6.262330412864685059e-01
3.213082253932952881e-02
5.674442648887634277e-01
5.800452828407287598e-01
4.326184391975402832e-01
-4.516164958477020264e-02
-3.893358707427978516e-01
-2.577368319034576416e-01
-3.679482340812683105e-01
-3.082960247993469238e-01
1.811278462409973145e-01
2.191396430134773254e-02
-1.036233305931091309e+00
5.529922246932983398e-02
-4.067510664463043213e-01
6.057605743408203125e-01
2.231034450232982635e-02
-5.534299835562705994e-02
6.884543895721435547e-01
1.319964677095413208e-01
2.227431237697601318e-01
7.875731587409973145e-02
5.578432232141494751e-03
-2.128273807466030121e-02
-4.873992875218391418e-03
5.105204582214355469e-01
2.139491587877273560e-01
1.608342677354812622e-01
7.567693293094635010e-02
2.215420752763748169e-01
-2.042014747858047485e-01
-1.333710551261901855e-01
1.347465038299560547e+00
-3.142499029636383057e-01
-4.481519460678100586e-01
4.366433918476104736e-01
-3.081507384777069092e-01
2.489094287157058716e-01
1.417107135057449341e-02
5.723051726818084717e-02
-1.949923671782016754e-02
1.722345948219299316e-01
3.409555256366729736e-01
5.643745660781860352e-01
3.795475140213966370e-02
-1.487525850534439087e-01
3.661230504512786865e-01
-2.189688831567764282e-01
2.041119486093521118e-01
5.014000833034515381e-02
3.072532713413238525e-01
8.056749701499938965e-01
2.754656076431274414e-01
-1.225638836622238159e-01
-2.960961163043975830e-01
-1.544626802206039429e-01
-1.183523908257484436e-01
-5.480095744132995605e-02
-6.148768663406372070e-01
2.378471642732620239e-01
1.785550117492675781e-01
2.470759451389312744e-01
1.564525626599788666e-02
5.000162124633789062e-01
5.756287574768066406e-01
2.409250140190124512e-01
-6.101281642913818359e-01
5.434262380003929138e-02
-1.112681627273559570e-01
3.939649462699890137e-01
-6.947201490402221680e-02
4.364997744560241699e-01
6.362112164497375488e-01
4.033653810620307922e-02
-2.642533555626869202e-02
-4.792036414146423340e-01
-4.562801718711853027e-01
-2.919128164649009705e-02
-4.492906332015991211e-01
-2.603724598884582520e-01
-1.740795820951461792e-01
-3.228583037853240967e-01
9.481055289506912231e-02
-2.685310542583465576e-01
-1.323322206735610962e-01
5.991397798061370850e-02
-1.670770049095153809e-01
3.294919431209564209e-01
6.726925820112228394e-02
-3.803991898894309998e-02
2.530015110969543457e-01
-2.483343780040740967e-01
6.679825782775878906e-01
1.998505443334579468e-01
1.198919564485549927e-01
-1.015104174613952637e+00
1.484077125787734985e-01
-5.448330044746398926e-01
6.626094132661819458e-02
-7.899376153945922852e-01
-2.547032535076141357e-01
-7.816866040229797363e-02
-1.616762578487396240e-01
-3.294236958026885986e-01
-7.892538607120513916e-02
2.756664454936981201e-01
3.629781603813171387e-01
5.530889034271240234e-01
7.467151284217834473e-01
3.937727808952331543e-01
-6.753481924533843994e-02
-1.182446139864623547e-03
2.838143706321716309e-01
4.508517980575561523e-01
4.796979017555713654e-03
2.322659268975257874e-02
1.357954144477844238e-01
2.039978206157684326e-01
-2.908400893211364746e-01
-3.971494734287261963e-01
-2.473292350769042969e-01
-2.501743435859680176e-01
-7.825916260480880737e-02
-9.017384052276611328e-01
-4.749007821083068848e-01
-5.048978328704833984e-02
5.325477719306945801e-01
-1.125437542796134949e-01
-2.212698906660079956e-01
-2.770620286464691162e-01
1.136049777269363403e-01
-5.760432407259941101e-02
-6.304561495780944824e-01
8.135053515434265137e-02
2.398544102907180786e-01
9.892690181732177734e-02
-9.760741377249360085e-04
-3.199810385704040527e-01
5.758485943078994751e-02
-1.153007373213768005e-01
-3.366527259349822998e-01
2.695670425891876221e-01
-3.499621748924255371e-01
-1.198138594627380371e-01
1.078625991940498352e-01
3.299551010131835938e-01
-1.364292856305837631e-02
3.834620416164398193e-01
-1.137974560260772705e-01
-2.135589569807052612e-01
2.274430692195892334e-01
-4.528972133994102478e-02
-1.380037426948547363e+00
-1.573385745286941528e-01
6.295278668403625488e-02
-3.242959082126617432e-02
-3.535165488719940186e-01
-2.489954829216003418e-01
4.449661076068878174e-01
6.248037889599800110e-02
-1.153067499399185181e-01
-7.766455411911010742e-01
-2.374272644519805908e-01
-1.302625536918640137e-01
2.880168557167053223e-01
5.388450026512145996e-01
-1.539810793474316597e-03
1.161698400974273682e-01
-1.536010112613439560e-02
1.958198398351669312e-01
2.974937260150909424e-01
2.105017751455307007e-01
-7.626224160194396973e-01
2.111631035804748535e-01
-1.462494879961013794e-01
1.145271062850952148e-01
7.711428999900817871e-01
1.244321987032890320e-01
1.104243844747543335e-01
-4.040556848049163818e-01
2.550669610500335693e-01
-1.335083097219467163e-01
4.468762874603271484e-02
2.217856608331203461e-02
1.791410744190216064e-01
3.139449954032897949e-01
3.682184517383575439e-01
-5.232519507408142090e-01
-1.206315279006958008e+00
-7.273240480571985245e-03
5.071140527725219727e-01
1.856930404901504517e-01
6.948027014732360840e-01
5.042054653167724609e-01
3.108819425106048584e-01
-8.109688758850097656e-01
8.035530336201190948e-03
-3.631116747856140137e-01
-5.964275076985359192e-02
-4.630244076251983643e-01
-3.091467320919036865e-01
-9.396955966949462891e-01
-2.439647912979125977e-01
-5.257789492607116699e-01
-7.799338549375534058e-02
2.147194892168045044e-01
5.338304042816162109e-01
1.545556783676147461e-01
2.578068971633911133e-01
2.267488241195678711e-01
-3.281784355640411377e-01
-2.387007325887680054e-01
9.840262532234191895e-01
1.159939449280500412e-02
-8.427280187606811523e-01
1.362408399581909180e-01
-1.522979140281677246e-01
2.131077796220779419e-01
8.949825167655944824e-02
8.184936642646789551e-01
8.129326105117797852e-01
3.884925246238708496e-01
6.192992925643920898e-01
8.575513958930969238e-01
1.046104669570922852e+00
-5.580067634582519531e-01
-2.055238783359527588e-01
-1.311391890048980713e-01
-3.371916711330413818e-01
-5.979630351066589355e-02
4.102828726172447205e-02
1.914925426244735718e-01
4.044104367494583130e-02
-7.779344320297241211e-01
-1.885944306850433350e-01
1.596001237630844116e-01
-4.809430539608001709e-01
2.591532766819000244e-01
-3.979437053203582764e-02
4.421802759170532227e-01
-6.559053808450698853e-02
5.536634325981140137e-01
3.595194816589355469e-01
-5.070694684982299805e-01
8.010809421539306641e-01
-2.914234101772308350e-01
-6.329165101051330566e-01
-1.951913833618164062e-01
3.457602858543395996e-01
7.243216782808303833e-02
6.960247159004211426e-01
-8.911789059638977051e-01
1.587419807910919189e-01
-2.360896021127700806e-01
1.491125673055648804e-01
-2.264598384499549866e-03
-1.043777108192443848e+00
-5.268259048461914062e-01
-5.348647236824035645e-01
-3.265160918235778809e-01
-2.215453535318374634e-01
-2.896831370890140533e-02
-5.331999063491821289e-01
2.039785981178283691e-01
-4.952850341796875000e-01
-2.817696193233132362e-03
2.938369214534759521e-01
7.581741213798522949e-01
1.067546531558036804e-01
4.959736764430999756e-01
-2.243919968605041504e-01
-5.066685676574707031e-01
7.000560760498046875e-01
-3.320882618427276611e-01
-2.804355919361114502e-01
-4.733207225799560547e-01
1.441755145788192749e-01
-1.770170181989669800e-01
-7.223099470138549805e-01
-2.093077898025512695e-01
-5.575751140713691711e-02
-3.999660536646842957e-02
8.459027856588363647e-03
1.934732310473918915e-02
6.476443260908126831e-02
-2.679875493049621582e-01
2.380715310573577881e-01
1.860643178224563599e-01
1.610649675130844116e-01
1.266771852970123291e-01
-2.732734978199005127e-01
1.142574325203895569e-01
5.116317793726921082e-02
-2.725666463375091553e-01
-4.727379083633422852e-01
5.781108140945434570e-01
1.739069819450378418e-02
1.368728131055831909e-01
8.134178519248962402e-01
2.784550786018371582e-01
9.757409570738673210e-04
3.130437806248664856e-02
5.188412666320800781e-01
3.149105608463287354e-01
-1.549169514328241348e-02
6.162241101264953613e-02
-2.073650211095809937e-01
-1.549669653177261353e-01
3.598693609237670898e-01
-1.935901492834091187e-02
8.065474778413772583e-02
2.788073420524597168e-01
1.215767711400985718e-01
3.336527347564697266e-01
-1.660711015574634075e-03
1.166624501347541809e-01
1.268725991249084473e-01
3.163327276706695557e-01
2.685082852840423584e-01
-1.395695507526397705e-01
2.512176334857940674e-01
-6.770930290222167969e-01
-1.206931397318840027e-01
-1.758545339107513428e-01
-9.394636154174804688e-01
-1.896581053733825684e-01
1.036400790326297283e-03
-2.783833146095275879e-01
8.111421018838882446e-02
-3.119516372680664062e-01
-6.665791273117065430e-01
-2.299780696630477905e-01
3.021136820316314697e-01
-1.072230190038681030e-01
-2.294954806566238403e-01
4.273270666599273682e-01
-4.714208468794822693e-02
4.033176004886627197e-01
3.074639439582824707e-01
3.599384427070617676e-01
3.118723034858703613e-01
1.718189716339111328e-01
6.594383716583251953e-01
-1.522303819656372070e-01
5.390363335609436035e-01
-2.835254371166229248e-01
1.647943258285522461e-02
-6.180855631828308105e-01
3.553088307380676270e-01
-1.469252258539199829e-01
1.224659010767936707e-01
8.457989245653152466e-02
-1.050657555460929871e-01
4.607213735580444336e-01
2.862202823162078857e-01
-1.529502421617507935e-01
2.230197489261627197e-01
-2.893600240349769592e-02
2.795690856873989105e-02
-2.544397115707397461e-01
-1.572170704603195190e-01
-2.297179698944091797e-01
-2.618073821067810059e-01
-5.452711582183837891e-01
1.604547947645187378e-01
-1.082183718681335449e-01
3.642554581165313721e-01
-1.243556737899780273e-01
-2.780915200710296631e-01
-4.409046173095703125e-01
3.514351546764373779e-01
-3.198803067207336426e-01
-1.278618276119232178e-01
-4.622074067592620850e-01
-1.517991870641708374e-01
-2.625308930873870850e-01
-2.357881814241409302e-01
3.084032535552978516e-01
5.556609630584716797e-01
3.217472732067108154e-01
1.525695472955703735e-01
5.877894163131713867e-02
-4.713385365903377533e-03
3.863452970981597900e-01
-5.839124321937561035e-01
-2.335581779479980469e-01
4.391750395298004150e-01
1.554365903139114380e-01
-1.072312071919441223e-01
1.936188489198684692e-01
-1.984053105115890503e-01
1.824314519762992859e-02
-2.605926692485809326e-01
7.645345479249954224e-02
-2.202130854129791260e-01
-6.665735244750976562e-01
-4.249527454376220703e-01
2.061442136764526367e-01
-1.339058727025985718e-01
5.972479581832885742e-01
-1.286800205707550049e-01
-3.832733631134033203e-01
-2.790844626724720001e-02
4.520395770668983459e-02
-6.646331399679183960e-02
1.117396593093872070e+00
1.494861394166946411e-01
1.793713867664337158e-01
-2.756286561489105225e-01
7.229078412055969238e-01
-1.142133250832557678e-01
7.246771454811096191e-01
-2.281649410724639893e-01
-1.719019711017608643e-01
9.171309066005051136e-04
3.125273287296295166e-01
-7.167313247919082642e-02
-1.361343115568161011e-01
9.445340186357498169e-02
7.416938990354537964e-02
5.015756189823150635e-02
1.313387881964445114e-02
8.632039278745651245e-02
2.076229900121688843e-01
-2.308510094881057739e-01
-6.175409257411956787e-02
-3.624099791049957275e-01
9.639292955398559570e-03
9.144192188978195190e-02
-1.160746663808822632e-01
1.484895795583724976e-01
-9.102188795804977417e-02
-3.815680742263793945e-02
-1.213416829705238342e-01
2.238277494907379150e-01
8.689115196466445923e-02
-2.589308843016624451e-02
-3.717008531093597412e-01
-3.041774965822696686e-02
-1.027051582932472229e-01
1.321811079978942871e-01
3.892896473407745361e-01
-7.622219622135162354e-02
-3.444832190871238708e-02
1.355113238096237183e-01
-5.733162164688110352e-02
-3.106354176998138428e-02
-3.200112581253051758e-01
4.525677487254142761e-02
2.543050944805145264e-01
-5.961250280961394310e-04
1.399486809968948364e-01
-1.797873228788375854e-01
8.144438266754150391e-02
4.601701349020004272e-02
