6.908761858940124512e-01
-3.642258048057556152e-01
-6.683783978223800659e-02
7.157613337039947510e-02
-4.319896996021270752e-01
8.002978563308715820e-01
-1.303692758083343506e-01
2.760957777500152588e-01
1.827080696821212769e-01
-1.423699378967285156e+00
-5.328577011823654175e-02
2.443412095308303833e-01
1.214132383465766907e-01
-2.896747887134552002e-01
-8.163399994373321533e-02
-1.006051659584045410e+00
7.937401533126831055e-02
1.708592027425765991e-01
3.994347453117370605e-01
7.898034453392028809e-01
-8.124557137489318848e-02
-1.496405482292175293e+00
9.875429421663284302e-02
-8.805044293403625488e-01
5.418414250016212463e-02
-8.170676827430725098e-01
1.647581756114959717e-01
1.019258141517639160e+00
-6.601934880018234253e-02
7.607858180999755859e-01
-9.850600361824035645e-02
5.173078551888465881e-02
2.996976375579833984e-01
-5.459057092666625977e-01
-3.634943664073944092e-01
-7.048488259315490723e-01
4.663344919681549072e-01
3.677451014518737793e-01
4.538367688655853271e-01
1.971216946840286255e-01
1.064588308334350586e+00
-8.757923245429992676e-01
7.528892755508422852e-01
-1.567379236221313477e-01
-3.873827680945396423e-02
4.418623745441436768e-01
-6.482774019241333008e-01
8.513194322586059570e-01
-4.381548166275024414e-01
1.583821773529052734e-01
-2.418765127658843994e-01
-1.706891059875488281e-01
5.436417460441589355e-01
-7.310056686401367188e-01
1.104647159576416016e+00
7.539065182209014893e-02
9.365063160657882690e-03
-7.691060900688171387e-01
1.466477274894714355e+00
7.671141624450683594e-01
3.104372024536132812e-01
-3.043352067470550537e-01
-9.261577576398849487e-02
1.262937486171722412e-01
1.612515449523925781e-01
2.505426406860351562e-01
9.316612780094146729e-02
1.033119082450866699e+00
-3.239744603633880615e-01
-6.316438317298889160e-01
8.355083316564559937e-02
-7.378548383712768555e-02
3.528847694396972656e-01
-9.937890172004699707e-01
2.768134139478206635e-02
1.988102197647094727e-01
2.214213609695434570e-01
9.142275899648666382e-02
1.416797041893005371e-01
5.606533885002136230e-01
-3.488331735134124756e-01
-1.464574784040451050e-02
-3.789079189300537109e-01
-3.545548021793365479e-01
9.000313878059387207e-01
-4.387080371379852295e-01
1.026879101991653442e-01
2.531186044216156006e-01
4.486909136176109314e-02
-3.499699234962463379e-01
1.157504677772521973e+00
5.700272321701049805e-01
7.554013282060623169e-02
-9.579576551914215088e-02
-4.717752337455749512e-01
-5.696469545364379883e-01
2.332909554243087769e-01
7.665317654609680176e-01
-5.426988601684570312e-01
-4.945243597030639648e-01
1.703584939241409302e-01
-6.211338192224502563e-02
2.503408789634704590e-01
3.023409843444824219e-01
-5.725091695785522461e-01
2.304731868207454681e-03
3.215404152870178223e-01
-4.521335363388061523e-01
-1.491888314485549927e-01
3.818565905094146729e-01
-2.959526479244232178e-01
-3.222247064113616943e-01
-7.313501834869384766e-02
6.269947886466979980e-01
1.702668368816375732e-01
2.655256986618041992e-01
-2.285325825214385986e-01
-7.086108624935150146e-02
-9.891223162412643433e-02
-2.575048506259918213e-01
-5.646603107452392578e-01
2.181648463010787964e-01
1.516470611095428467e-01
1.239751726388931274e-01
2.087066918611526489e-01
-2.601104378700256348e-01
-1.852544257417321205e-03
-2.003227546811103821e-02
3.230379819869995117e-01
-1.810174733400344849e-01
2.967147901654243469e-02
1.614435613155364990e-01
-1.306971162557601929e-01
-2.081709057092666626e-01
-4.994279891252517700e-02
8.391968905925750732e-02
-2.896772921085357666e-01
2.530527114868164062e-01
-4.513511667028069496e-04
-4.526065587997436523e-01
-1.495428681373596191e+00
5.744327902793884277e-01
-8.607598394155502319e-02
5.111438632011413574e-01
2.177391797304153442e-01
-2.065905481576919556e-01
8.621800690889358521e-02
-1.234054267406463623e-01
2.691921079531311989e-03
5.809580087661743164e-01
-6.992526352405548096e-02
2.125518321990966797e-01
-6.277308613061904907e-02
3.180916607379913330e-01
-1.785639375448226929e-01
3.219719976186752319e-02
-7.478184700012207031e-01
-2.842656672000885010e-01
4.426887631416320801e-02
-7.938608527183532715e-01
-1.825861334800720215e-01
-3.132957965135574341e-02
4.542036652565002441e-01
5.680485367774963379e-01
-1.066386580467224121e+00
3.372571170330047607e-01
-1.914588510990142822e-01
6.265150010585784912e-02
-3.642110228538513184e-01
-4.694812595844268799e-01
-4.849450588226318359e-01
-6.840311288833618164e-01
-3.979329392313957214e-02
-1.582049578428268433e-01
3.240805268287658691e-01
9.960352182388305664e-01
-5.653288960456848145e-01
1.650897115468978882e-01
-1.433865278959274292e-01
1.550078205764293671e-02
-4.012552201747894287e-01
1.086045056581497192e-01
-6.851980686187744141e-01
-2.535113096237182617e-01
2.629981040954589844e-01
-4.136425629258155823e-02
7.230871915817260742e-01
-3.896025121212005615e-01
-2.646491490304470062e-02
1.239034309983253479e-01
3.415947556495666504e-01
-7.821733951568603516e-01
-4.371619522571563721e-01
3.782311379909515381e-01
-5.782323479652404785e-01
-6.164237260818481445e-01
7.343077063560485840e-01
2.390828430652618408e-01
-2.370511181652545929e-02
-2.263118028640747070e-01
2.766843140125274658e-01
-2.205546051263809204e-01
4.227043986320495605e-01
1.734762638807296753e-01
1.165917888283729553e-01
2.044361680746078491e-01
-1.180833652615547180e-01
6.393764615058898926e-01
2.494297549128532410e-02
-1.223721355199813843e-01
-6.518854945898056030e-02
-2.412518113851547241e-02
2.222889512777328491e-01
-6.200440526008605957e-01
2.676774859428405762e-01
5.537774562835693359e-01
-5.015442967414855957e-01
-3.008539974689483643e-01
9.841784834861755371e-02
1.430137008428573608e-01
-3.727254569530487061e-01
9.805372357368469238e-02
1.256174892187118530e-01
-2.715181708335876465e-01
-5.957962274551391602e-01
1.167643070220947266e-01
-3.870337009429931641e-01
2.768543064594268799e-01
-2.509456872940063477e-01
8.591883182525634766e-01
-1.208046078681945801e+00
-7.296509146690368652e-01
4.733417034149169922e-01
4.836083203554153442e-02
2.619597017765045166e-01
3.492612540721893311e-01
-3.015437126159667969e-01
-2.362194806337356567e-01
1.349818557500839233e-01
-1.626911689527332783e-03
-5.502468347549438477e-01
9.160774946212768555e-02
3.861992359161376953e-01
4.332129657268524170e-02
-2.440280467271804810e-01
5.196828395128250122e-02
-2.908069193363189697e-01
-1.062203198671340942e-01
-2.112326771020889282e-01
-1.506333649158477783e-01
-3.102791495621204376e-02
-1.864684075117111206e-01
1.643805503845214844e-01
1.033439412713050842e-01
7.769748568534851074e-02
2.138844132423400879e-01
-5.235755443572998047e-01
3.935198783874511719e-01
-1.001241132616996765e-01
-5.234071016311645508e-01
4.073617160320281982e-01
-1.101385131478309631e-01
-3.115868866443634033e-01
-6.438033580780029297e-01
-3.508335351943969727e-01
-6.457145512104034424e-02
-3.014392033219337463e-02
8.504590988159179688e-01
6.159221380949020386e-02
-7.714378833770751953e-02
-3.733759224414825439e-01
2.178385766455903649e-04
6.981248855590820312e-01
-8.121736049652099609e-01
-2.379951775074005127e-01
-1.534085124731063843e-01
3.890532255172729492e-01
-1.327130794525146484e-01
1.219981014728546143e-01
2.471217885613441467e-02
1.291195899248123169e-01
2.193676680326461792e-01
3.088116645812988281e-01
3.148887455463409424e-01
-1.383879035711288452e-01
-4.896764457225799561e-01
6.654438376426696777e-02
6.642287969589233398e-01
2.189409583806991577e-01
-5.150070041418075562e-02
-1.065091639757156372e-01
7.811889797449111938e-02
9.254904836416244507e-02
-5.150784850120544434e-01
1.637491770088672638e-02
-8.365862816572189331e-02
2.829224616289138794e-02
2.648957967758178711e-01
-7.070845961570739746e-01
3.503783345222473145e-01
-9.594566375017166138e-02
4.235976561903953552e-02
4.079405069351196289e-01
-5.652604103088378906e-01
-2.053167857229709625e-02
-2.844083309173583984e-01
-2.985271811485290527e-01
5.181639194488525391e-01
-3.063493408262729645e-02
8.955383300781250000e-02
-2.577447332441806793e-02
8.472649008035659790e-02
9.967817664146423340e-01
-4.869395792484283447e-01
7.949454784393310547e-01
-3.264617323875427246e-01
4.696100056171417236e-01
1.952627748250961304e-01
-1.099668350070714951e-02
1.562577635049819946e-01
1.678186208009719849e-01
6.181663274765014648e-02
8.259204030036926270e-02
-5.374051928520202637e-01
1.653869003057479858e-01
-2.037977129220962524e-01
-4.146322980523109436e-02
1.404333114624023438e+00
-7.346431165933609009e-02
-4.286866188049316406e-01
3.285551667213439941e-01
2.945985198020935059e-01
1.773970842361450195e+00
-9.713521599769592285e-01
3.380187228322029114e-02
-2.620238661766052246e-01
-4.575541615486145020e-02
9.739290922880172729e-02
-5.743813514709472656e-02
-1.810770779848098755e-01
5.061899423599243164e-01
-4.155055284500122070e-01
-1.440317928791046143e-01
-9.981005638837814331e-02
2.722945511341094971e-01
2.615020573139190674e-01
-2.252025902271270752e-01
-2.683169245719909668e-01
-2.972037494182586670e-01
9.307097196578979492e-01
4.257736355066299438e-02
2.682640850543975830e-01
1.500937044620513916e-01
3.648920357227325439e-01
3.186623454093933105e-01
2.446610853075981140e-02
1.421491384506225586e+00
-9.887613058090209961e-01
9.849402308464050293e-01
7.298756837844848633e-01
1.836928427219390869e-01
-4.946480095386505127e-01
6.161041855812072754e-01
2.933078706264495850e-01
-9.039193391799926758e-03
3.695641756057739258e-01
-3.066308498382568359e-01
2.253074347972869873e-01
-1.825881451368331909e-01
-6.127258017659187317e-02
-2.617671787738800049e-01
-7.045718282461166382e-02
1.608865261077880859e-01
-3.267472088336944580e-01
4.286513924598693848e-01
4.706094563007354736e-01
-7.254405021667480469e-01
-1.824027597904205322e-01
4.798635542392730713e-01
2.127741426229476929e-01
-7.083624601364135742e-02
-2.337676733732223511e-01
-1.780325025320053101e-01
-3.542637526988983154e-01
3.606851994991302490e-01
-5.753104388713836670e-02
3.088731467723846436e-01
4.769817292690277100e-01
-6.636044383049011230e-02
-6.300773620605468750e-01
5.165228247642517090e-01
4.772451519966125488e-01
2.049561142921447754e-01
-7.837533950805664062e-01
8.882434107363224030e-03
-2.948815524578094482e-01
2.138342894613742828e-02
5.258290767669677734e-01
-1.003877893090248108e-01
-1.057293191552162170e-01
5.128706097602844238e-01
-5.227538943290710449e-01
-1.166809424757957458e-01
-4.398724138736724854e-01
5.342640280723571777e-01
-1.714267879724502563e-01
5.208100192248821259e-03
7.938842773437500000e-01
1.565001606941223145e-01
-7.970146536827087402e-01
4.904845654964447021e-01
5.287070870399475098e-01
1.015228390693664551e+00
-1.041196346282958984e+00
1.204404905438423157e-01
-1.259844601154327393e-01
4.654827415943145752e-01
4.067824780941009521e-01
1.910149157047271729e-01
3.605206906795501709e-01
2.999406754970550537e-01
-4.051153734326362610e-02
1.535299271345138550e-01
-3.074744530022144318e-02
8.170888572931289673e-02
4.960972070693969727e-01
-2.347164601087570190e-01
-2.472412586212158203e-01
-8.973400294780731201e-02
8.916003704071044922e-01
-2.037434130907058716e-01
1.485303789377212524e-01
2.184985876083374023e-01
2.895072102546691895e-01
3.035092353820800781e-01
-3.995042443275451660e-01
8.867824673652648926e-01
-8.358559608459472656e-01
8.136382699012756348e-01
5.688005089759826660e-01
-1.670190393924713135e-01
4.820559918880462646e-01
-5.709792971611022949e-01
6.107627972960472107e-02
7.680566310882568359e-01
-3.652013242244720459e-01
1.809681802988052368e-01
5.064803734421730042e-02
1.290885210037231445e-01
-5.493385791778564453e-01
1.034213423728942871e+00
6.808897852897644043e-01
1.660103648900985718e-01
-2.390781342983245850e-01
-1.337423473596572876e-01
-1.513312309980392456e-01
1.736911535263061523e-01
1.446747630834579468e-01
6.507044285535812378e-02
-3.029714152216911316e-02
4.631006121635437012e-01
-4.232768118381500244e-01
3.500781953334808350e-01
-3.119700849056243896e-01
-2.846140563488006592e-01
5.086940526962280273e-01
-5.257331132888793945e-01
1.881326884031295776e-01
4.454359114170074463e-01
5.678186565637588501e-02
2.171795070171356201e-02
-2.861644923686981201e-01
2.569577395915985107e-01
3.172255754470825195e-01
5.087408423423767090e-01
7.271586656570434570e-01
-3.931641280651092529e-01
1.932534873485565186e-01
4.028963148593902588e-01
-4.569565951824188232e-01
-4.862980917096138000e-02
-7.580114603042602539e-01
-4.688921272754669189e-01
-1.628112196922302246e-01
-3.210432529449462891e-01
1.744251847267150879e-01
-7.405301332473754883e-01
6.611384153366088867e-01
2.636962234973907471e-01
1.269023299217224121e+00
-3.493391275405883789e-01
-1.179312542080879211e-01
4.981404840946197510e-01
5.644001960754394531e-01
7.663262486457824707e-01
7.346128821372985840e-01
-1.802251935005187988e-01
-6.565673947334289551e-01
6.479727625846862793e-01
-3.264174163341522217e-01
-2.514657080173492432e-01
-1.732816733419895172e-02
-1.312950551509857178e-01
-2.588206231594085693e-01
-2.987481057643890381e-01
-4.519449546933174133e-02
7.746826112270355225e-02
-1.858786642551422119e-01
1.728065311908721924e-01
-7.313182950019836426e-01
-1.059271097183227539e-01
-1.604934215545654297e+00
-3.704499602317810059e-01
-1.206231117248535156e-01
5.910324398428201675e-03
-8.505377173423767090e-01
3.350398689508438110e-02
2.127219438552856445e-01
-2.105204761028289795e-01
7.397818565368652344e-02
-7.170431613922119141e-01
-4.742420017719268799e-01
-7.899764180183410645e-01
-4.257110059261322021e-01
-2.365410476922988892e-01
1.763792783021926880e-01
-2.391983121633529663e-01
4.465762674808502197e-01
7.968389987945556641e-02
7.466012984514236450e-02
-2.947157025337219238e-01
-6.512430310249328613e-02
-3.980235755443572998e-01
-8.331096172332763672e-01
2.702087759971618652e-01
1.394805908203125000e-01
8.856067657470703125e-01
1.215062499046325684e+00
1.338409483432769775e-01
-1.346769034862518311e-01
-2.094074338674545288e-02
-5.857121944427490234e-01
1.807625740766525269e-01
-5.932600498199462891e-01
-9.313114881515502930e-01
8.610375225543975830e-02
-3.655650019645690918e-01
3.183384835720062256e-01
4.577120840549468994e-01
2.056340426206588745e-01
-4.508501589298248291e-01
-5.634979605674743652e-01
7.146662473678588867e-02
-3.855207189917564392e-02
1.343637853860855103e-01
2.143450379371643066e-01
-1.065090224146842957e-01
-1.381243318319320679e-01
1.937493681907653809e-02
-4.542724490165710449e-01
-4.591287970542907715e-01
-2.634134292602539062e-01
3.727709129452705383e-02
-5.781843662261962891e-01
-2.474835515022277832e-01
1.156487017869949341e-01
-1.449031531810760498e-01
-1.019564568996429443e-01
-1.414008140563964844e-01
-8.152148723602294922e-01
-2.544068396091461182e-01
-4.427989423274993896e-01
-1.046733558177947998e-01
-2.055261284112930298e-01
-1.224563550204038620e-02
-6.623471528291702271e-02
1.831011027097702026e-01
-6.459768861532211304e-03
2.085744440555572510e-01
-1.276607960462570190e-01
5.090873837471008301e-01
2.321208827197551727e-02
5.004390478134155273e-01
8.398908376693725586e-01
6.042272225022315979e-02
-1.488370597362518311e-01
-1.881823390722274780e-01
1.058690845966339111e-01
2.065860852599143982e-02
3.118582814931869507e-02
3.065228164196014404e-01
8.325664401054382324e-01
1.007415533065795898e+00
1.073938980698585510e-01
-2.018793602474033833e-04
2.582809627056121826e-01
1.480943411588668823e-01
6.117340326309204102e-01
3.680962696671485901e-02
2.672620713710784912e-01
-6.869270652532577515e-02
3.814936801791191101e-02
9.242448806762695312e-01
5.285685062408447266e-01
5.976946353912353516e-01
-3.165106177330017090e-01
2.032650113105773926e-01
9.963921457529067993e-02
-2.001040577888488770e-01
7.754765748977661133e-01
-7.588016390800476074e-01
4.565713405609130859e-01
-1.241122782230377197e-01
-6.200024858117103577e-02
-5.210481956601142883e-02
1.466663181781768799e-01
2.477961927652359009e-01
-1.460230499505996704e-01
9.874529391527175903e-02
2.253935039043426514e-01
9.557349234819412231e-02
-7.283706665039062500e-01
1.893387794494628906e+00
-1.335603743791580200e-01
-1.168103292584419250e-01
3.808676004409790039e-01
-2.487436234951019287e-01
4.846076667308807373e-01
1.374729871749877930e-01
7.587414234876632690e-02
-1.405170653015375137e-02
-4.263912141323089600e-01
6.029457449913024902e-01
1.805200278759002686e-01
1.515298336744308472e-01
2.645044922828674316e-01
-7.532122731208801270e-02
-6.092985868453979492e-01
5.439536646008491516e-02
-3.144505321979522705e-01
3.927282691001892090e-01
1.636458933353424072e-01
-5.257152915000915527e-01
5.252010226249694824e-01
9.735348820686340332e-02
-3.647187352180480957e-02
2.441141009330749512e-02
1.260723359882831573e-02
-8.112154603004455566e-01
-4.116623997688293457e-01
-1.345342025160789490e-02
1.300733983516693115e-01
-3.859207630157470703e-01
-2.962518334388732910e-01
-3.234841823577880859e-01
-3.312938511371612549e-01
2.414322495460510254e-01
9.125070571899414062e-01
-1.890397965908050537e-01
3.159927427768707275e-01
2.670469880104064941e-02
-2.407914400100708008e-01
1.896908879280090332e-01
-9.798884391784667969e-01
-9.783305525779724121e-01
3.531729876995086670e-01
-4.089112579822540283e-01
4.745180010795593262e-01
3.299046754837036133e-01
4.085043370723724365e-01
-2.921487204730510712e-02
1.315496861934661865e-01
3.988791704177856445e-01
5.053835511207580566e-01
8.813117146492004395e-01
6.592614054679870605e-01
-6.334201097488403320e-01
2.533494532108306885e-01
9.126649498939514160e-01
-7.957058548927307129e-01
2.504121363162994385e-01
7.449616193771362305e-01
-4.340840876102447510e-01
-6.246701627969741821e-02
2.170422673225402832e-01
-9.949433803558349609e-01
3.613451421260833740e-01
-3.080492019653320312e-01
-1.031172633171081543e+00
-3.437241911888122559e-01
2.467090338468551636e-01
3.302358835935592651e-02
-2.993536591529846191e-01
-3.885250389575958252e-01
-4.614349007606506348e-01
-4.865928590297698975e-01
6.030930876731872559e-01
3.354357182979583740e-01
-2.170766294002532959e-01
7.889304757118225098e-01
-2.040162086486816406e-01
-8.078831434249877930e-01
-1.741539835929870605e-01
-2.616616487503051758e-01
-1.115632772445678711e+00
9.452723264694213867e-01
-5.313067436218261719e-01
8.134217262268066406e-01
4.827350080013275146e-01
-1.318113803863525391e-01
-3.330655395984649658e-01
9.899614751338958740e-02
3.122272789478302002e-01
5.427911281585693359e-01
5.119755268096923828e-01
5.576555132865905762e-01
-2.426984012126922607e-01
-1.109759956598281860e-01
5.945255756378173828e-01
-6.379179358482360840e-01
1.185419082641601562e+00
-1.671618521213531494e-01
-3.311582505702972412e-01
-2.471050769090652466e-01
3.346401825547218323e-02
4.221554398536682129e-01
-2.555501461029052734e-01
6.490741670131683350e-02
6.779407709836959839e-02
-4.494852721691131592e-01
6.160870194435119629e-02
-7.203268259763717651e-02
2.609094381332397461e-01
1.130841299891471863e-01
3.326058983802795410e-01
2.143118679523468018e-01
1.356329023838043213e-01
7.907197475433349609e-01
2.883600890636444092e-01
-2.709122598171234131e-01
-1.711019724607467651e-01
4.590173661708831787e-01
1.031369343400001526e-01
7.605596184730529785e-01
-4.730462729930877686e-01
-3.732028603553771973e-01
7.882215380668640137e-01
-5.017210245132446289e-01
-2.767359316349029541e-01
-2.805458307266235352e-01
3.207440376281738281e-01
3.993211090564727783e-01
-4.710616171360015869e-01
-8.694181442260742188e-01
-1.110226392745971680e+00
-5.236235260963439941e-01
8.550709486007690430e-01
-2.123545408248901367e-01
-1.024941563606262207e+00
8.333647251129150391e-01
-5.658363699913024902e-01
-3.881381154060363770e-01
1.050906538963317871e+00
-2.785697877407073975e-01
-4.116961061954498291e-01
6.044345907866954803e-03
-1.681271493434906006e-01
2.961687743663787842e-01
2.070232778787612915e-01
1.029129922389984131e-01
-3.756543099880218506e-01
1.799536123871803284e-02
3.303389251232147217e-02
4.010969996452331543e-01
2.491961270570755005e-01
2.315481901168823242e-01
-1.766220778226852417e-01
-3.909413814544677734e-01
-1.606667600572109222e-02
-1.091512292623519897e-01
-5.427330136299133301e-01
-3.782442808151245117e-01
4.113841652870178223e-01
-1.561845988035202026e-01
-7.808318734169006348e-01
1.554325222969055176e-01
-3.571076691150665283e-01
-7.409787271171808243e-03
1.418856084346771240e-01
-1.075381040573120117e-01
-7.070029973983764648e-01
-1.471813619136810303e-01
1.132265031337738037e-01
1.486871093511581421e-01
5.396670699119567871e-01
2.607851624488830566e-01
-4.266136586666107178e-01
-5.109421610832214355e-01
2.241038382053375244e-01
-4.497987031936645508e-01
3.723222911357879639e-01
8.373056054115295410e-01
2.833604514598846436e-01
3.019279539585113525e-01
2.536297589540481567e-02
2.134825885295867920e-01
1.920074671506881714e-01
4.801430180668830872e-02
-3.484384119510650635e-01
9.520030766725540161e-02
3.286339938640594482e-01
6.400524973869323730e-01
-6.467453390359878540e-02
-1.817352175712585449e-01
-6.417382359504699707e-01
-7.635115087032318115e-02
6.441878080368041992e-01
5.477740764617919922e-01
-2.342639714479446411e-01
2.871354520320892334e-01
-1.848747730255126953e+00
-6.372933089733123779e-02
4.091653227806091309e-01
-1.973856389522552490e-01
-1.923407167196273804e-01
-2.368331514298915863e-02
-1.842485219240188599e-01
5.184166505932807922e-02
6.898581981658935547e-01
4.244342148303985596e-01
2.143523097038269043e-02
-1.929506659507751465e-01
2.232807576656341553e-01
-3.075614944100379944e-02
3.668105900287628174e-01
2.622458338737487793e-02
-2.878127396106719971e-01
-1.186418652534484863e+00
2.470068037509918213e-01
-4.351452291011810303e-01
2.598337829113006592e-01
9.381364583969116211e-01
-6.637492775917053223e-01
7.063549757003784180e-01
1.945498347282409668e+00
-7.415994405746459961e-01
5.138576626777648926e-01
-5.371127724647521973e-01
-5.451926589012145996e-01
9.382876753807067871e-02
5.247812867164611816e-01
5.529985427856445312e-01
-1.988213211297988892e-01
-5.609157681465148926e-01
-7.530478835105895996e-01
-5.349905490875244141e-01
4.593726992607116699e-02
-3.347450122237205505e-02
-7.525433301925659180e-01
2.921150326728820801e-01
-5.438610911369323730e-02
1.151629164814949036e-02
6.743550896644592285e-01
5.813909173011779785e-01
-1.626834459602832794e-02
3.815411031246185303e-02
-1.313455700874328613e-01
-2.190275043249130249e-01
-2.533199265599250793e-02
3.243670761585235596e-01
-9.074985384941101074e-01
2.553555965423583984e-01
5.821506381034851074e-01
9.185973554849624634e-03
-2.044412791728973389e-01
6.980304419994354248e-02
3.245430290699005127e-01
2.543775737285614014e-01
-2.678650319576263428e-01
-2.736436761915683746e-02
7.488384246826171875e-01
-3.057509958744049072e-01
4.426550567150115967e-01
4.156343638896942139e-01
2.831850051879882812e-01
-1.349052935838699341e-01
7.966028898954391479e-02
4.415795207023620605e-01
-1.681790351867675781e-01
6.424890160560607910e-01
-9.171184152364730835e-02
9.073625802993774414e-01
4.924352169036865234e-01
-5.912591218948364258e-01
2.077663391828536987e-01
9.190417081117630005e-02
-3.156909644603729248e-01
2.468241602182388306e-01
-8.814634680747985840e-01
5.870566144585609436e-02
3.604929894208908081e-02
5.285292267799377441e-01
3.121733367443084717e-01
-1.167607158422470093e-01
5.132433772087097168e-01
-1.215149402618408203e+00
-2.600643336772918701e-01
-4.573118314146995544e-02
-3.608349263668060303e-01
4.011179506778717041e-01
-7.891237735748291016e-02
1.729436069726943970e-01
2.164081186056137085e-01
-4.810092970728874207e-02
3.110704384744167328e-02
2.567719519138336182e-01
6.066344305872917175e-02
5.186226218938827515e-02
-4.065290838479995728e-02
-6.661643981933593750e-01
-6.229083985090255737e-03
2.529890239238739014e-01
-1.043077945709228516e+00
3.836957812309265137e-01
6.038087606430053711e-01
-8.319867849349975586e-01
3.243425786495208740e-01
1.142682433128356934e-01
-8.239807933568954468e-02
6.734680533409118652e-01
-8.936970680952072144e-02
-7.991296052932739258e-02
5.359896458685398102e-03
1.926201879978179932e-01
5.543652514461427927e-05
4.271152615547180176e-01
1.052493974566459656e-01
1.005714178085327148e+00
-4.762915521860122681e-02
1.980797797441482544e-01
5.589226260781288147e-02
5.043007731437683105e-01
2.150478363037109375e-01
1.930448263883590698e-01
2.817791402339935303e-01
-1.159333288669586182e-01
-3.682254254817962646e-01
1.380280554294586182e-01
-5.610038042068481445e-01
3.554444909095764160e-01
1.738667041063308716e-01
-1.423297971487045288e-01
-6.594095230102539062e-01
2.574489824473857880e-02
2.757476568222045898e-01
6.407581269741058350e-02
1.414883285760879517e-01
1.748375535011291504e+00
-2.779951095581054688e-01
-1.145541071891784668e+00
-6.145033836364746094e-01
-3.980631530284881592e-01
-4.288085699081420898e-01
-3.087208271026611328e-01
-2.317253649234771729e-01
-8.794762194156646729e-02
-9.229914844036102295e-02
-8.406936377286911011e-02
2.884081006050109863e-01
-3.109532296657562256e-01
2.795597612857818604e-01
-2.928030490875244141e-01
-1.471875011920928955e-01
2.181616276502609253e-01
2.626505121588706970e-02
-3.321097493171691895e-01
2.047730535268783569e-01
3.727357089519500732e-01
2.411970496177673340e-01
-1.979632973670959473e-01
4.498979076743125916e-02
-3.472900390625000000e-01
-2.683921903371810913e-02
2.518322467803955078e-01
-1.211618110537528992e-01
7.806480862200260162e-03
-3.271321058273315430e-01
4.081129133701324463e-01
-1.489784419536590576e-01
-2.310428470373153687e-01
-2.096517235040664673e-01
4.002712965011596680e-01
1.735421776771545410e+00
-1.926691830158233643e-01
1.309539191424846649e-02
2.659751474857330322e-01
-4.175538942217826843e-02
-1.311195492744445801e+00
-5.088987201452255249e-02
-2.840807735919952393e-01
-2.694847285747528076e-01
-1.280477166175842285e+00
3.371110558509826660e-01
-2.932828366756439209e-01
8.643743395805358887e-01
-8.509736657142639160e-01
-4.128861241042613983e-03
-1.244250178337097168e+00
1.980588197708129883e+00
-1.014497041702270508e+00
-1.613900661468505859e+00
2.903445251286029816e-02
-1.531133204698562622e-01
5.665999650955200195e-01
-1.207711100578308105e+00
-5.761096477508544922e-01
5.832939743995666504e-01
2.517236173152923584e-01
1.653582006692886353e-01
-1.390534400939941406e+00
-4.079628270119428635e-03
-2.117847800254821777e-01
-6.730925291776657104e-02
1.520902067422866821e-01
5.144423246383666992e-01
3.334686905145645142e-02
-1.244465857744216919e-01
1.288860887289047241e-01
-9.892029166221618652e-01
3.305267393589019775e-01
-4.270925521850585938e-01
2.766274511814117432e-01
6.089984774589538574e-01
-5.868090391159057617e-01
1.932131946086883545e-01
2.824881970882415771e-01
-7.470424175262451172e-01
-1.532060950994491577e-01
-6.751573681831359863e-01
-3.803712129592895508e-02
-2.449450194835662842e-01
-2.038709223270416260e-01
-3.584187328815460205e-01
4.872983396053314209e-01
4.070656001567840576e-02
-2.400515079498291016e-01
4.040250554680824280e-02
7.103517651557922363e-02
3.991580307483673096e-01
-2.970508635044097900e-01
-1.545337140560150146e-01
-1.028607115149497986e-01
2.093417644500732422e+00
3.778842687606811523e-01
2.554582357406616211e-01
1.129184812307357788e-01
2.060734480619430542e-01
-3.565067052841186523e-01
-5.070171356201171875e-01
3.250265866518020630e-02
3.315785899758338928e-02
-9.144410490989685059e-01
-3.226460814476013184e-01
6.619196385145187378e-02
1.081925407052040100e-01
1.757556676864624023e+00
6.550740450620651245e-02
-2.233894765377044678e-01
-5.971106886863708496e-01
3.598838150501251221e-01
2.892832159996032715e-01
1.179405301809310913e-01
1.082563042640686035e+00
-2.903067171573638916e-01
-1.488756239414215088e-01
-2.030029892921447754e-02
-1.817982643842697144e-01
-1.127568539232015610e-03
-4.297442436218261719e-01
-1.591728806495666504e+00
4.318538606166839600e-01
-2.031030654907226562e-01
-1.894500665366649628e-02
5.324007868766784668e-01
6.900976300239562988e-01
5.684127286076545715e-02
-3.032142519950866699e-01
1.638173758983612061e-01
-5.198990702629089355e-01
5.970844626426696777e-01
-2.636868953704833984e-01
4.328262507915496826e-01
2.512525618076324463e-01
-2.522398829460144043e-01
2.157801091670989990e-01
4.536962211132049561e-01
-4.178333878517150879e-01
-1.633140146732330322e-01
-4.046506285667419434e-01
2.623636089265346527e-02
7.472006231546401978e-02
5.811323225498199463e-02
-9.752671122550964355e-01
1.753359436988830566e-01
-5.055564269423484802e-02
2.820339500904083252e-01
-9.853430092334747314e-02
3.694559037685394287e-01
2.921435236930847168e-01
-7.982602342963218689e-03
-4.782721996307373047e-01
2.780617475509643555e-01
-2.685739755630493164e+00
5.825389549136161804e-02
1.053657680749893188e-01
3.183067142963409424e-01
-2.639409601688385010e-01
3.390668630599975586e-01
-3.593785222619771957e-03
-5.361186861991882324e-01
2.437730431556701660e-01
-3.735690191388130188e-02
-7.522596418857574463e-02
3.636248409748077393e-01
1.432261466979980469e-01
5.661936849355697632e-02
2.345760315656661987e-01
3.529968559741973877e-01
-7.630337476730346680e-01
4.940651357173919678e-01
3.945626318454742432e-02
2.865266203880310059e-01
-2.476414203643798828e+00
-3.415516912937164307e-01
5.164115428924560547e-01
2.754381895065307617e-01
-9.129198640584945679e-02
1.138357162475585938e+00
-3.218225538730621338e-01
5.387154221534729004e-01
-4.606625139713287354e-01
-3.797683119773864746e-01
8.132629096508026123e-03
-1.313166618347167969e-01
9.261918067932128906e-02
-9.126001596450805664e-01
-4.423086941242218018e-01
-2.870730161666870117e-01
-8.673822879791259766e-02
-1.487281620502471924e-01
9.434428997337818146e-03
-1.793371140956878662e-01
4.128501936793327332e-02
-1.563017070293426514e-01
3.590160235762596130e-02
-2.163830399513244629e-01
3.376279473304748535e-01
1.708272844552993774e-01
-3.320786356925964355e-01
-1.978819072246551514e-01
-2.130538374185562134e-01
-2.672006487846374512e-01
-1.701603680849075317e-01
6.848485767841339111e-02
9.265372902154922485e-02
1.175513386726379395e+00
1.706143915653228760e-01
1.963647753000259399e-01
-6.836835145950317383e-01
1.226916462182998657e-01
-1.306391060352325439e-01
-1.408288031816482544e-01
6.023645997047424316e-01
-4.986985921859741211e-01
3.247222304344177246e-01
7.609353214502334595e-02
-1.286529600620269775e-01
-2.145638614892959595e-01
-1.221409291028976440e-01
3.943149447441101074e-01
-1.190161481499671936e-01
9.183117151260375977e-01
-2.063298076391220093e-01
-1.042829081416130066e-01
9.060408920049667358e-02
7.158076167106628418e-01
-6.996263265609741211e-01
-3.367204964160919189e-02
-7.771901786327362061e-02
9.329561144113540649e-02
2.496703267097473145e-01
2.385142147541046143e-01
-1.803369373083114624e-01
-4.370568990707397461e-01
-2.266752868890762329e-01
1.780943274497985840e-01
-2.204391062259674072e-01
-6.530362367630004883e-02
1.116068482398986816e+00
-9.386079907417297363e-01
-3.916662931442260742e-01
3.821521997451782227e-01
-1.375920791178941727e-02
2.468208819627761841e-01
1.013987898826599121e+00
-4.694339632987976074e-01
-8.390254527330398560e-02
2.518680095672607422e-01
-1.747383177280426025e-01
1.797716915607452393e-01
-1.147057041525840759e-01
1.038207188248634338e-01
-6.140736863017082214e-02
-2.343405783176422119e-01
4.395062029361724854e-01
4.336879253387451172e-01
-8.015038818120956421e-02
-1.467315256595611572e-01
-4.448948428034782410e-02
-4.597034454345703125e-01
-1.083325874060392380e-02
-1.306925117969512939e-01
-5.243355631828308105e-01
9.955301284790039062e-01
2.073095925152301788e-02
-2.679253518581390381e-01
-1.030239984393119812e-01
7.833573222160339355e-02
2.734848856925964355e-01
-2.538813650608062744e-01
7.725404202938079834e-02
4.440822005271911621e-01
5.684409141540527344e-01
1.964852660894393921e-01
1.686836779117584229e-01
7.466169446706771851e-02
2.110477387905120850e-01
-1.169827729463577271e-01
-1.255954504013061523e+00
-9.861890226602554321e-02
2.037134170532226562e-01
-5.700338515453040600e-04
-1.225790753960609436e-01
-2.231677062809467316e-03
1.107152253389358521e-01
1.696337461471557617e-01
4.834305346012115479e-01
8.762534856796264648e-01
-3.828436136245727539e-01
-1.028669625520706177e-01
1.305006742477416992e-01
2.937498092651367188e-01
2.239707857370376587e-01
-2.600981593132019043e-01
8.128103017807006836e-01
3.448772132396697998e-01
-2.932610511779785156e-01
2.608836889266967773e-01
9.830959141254425049e-02
2.889899909496307373e-01
8.092184364795684814e-02
-4.116053879261016846e-01
-6.279011964797973633e-01
7.624151557683944702e-02
-4.840489476919174194e-02
1.508045196533203125e-01
2.361600697040557861e-01
3.573081195354461670e-01
2.833936810493469238e-01
-1.922644525766372681e-01
-1.831316500902175903e-01
1.345491707324981689e-01
4.293437302112579346e-01
3.485144972801208496e-01
-4.179309904575347900e-01
-1.580287516117095947e-01
2.689303457736968994e-02
3.410681709647178650e-02
5.419076681137084961e-01
1.678556203842163086e-01
-1.119415611028671265e-01
-9.882153272628784180e-01
-2.411370128393173218e-01
-1.034302935004234314e-01
-6.650661677122116089e-02
1.751533299684524536e-01
7.548921108245849609e-01
-2.010862529277801514e-01
-4.723871350288391113e-01
2.285940796136856079e-01
3.288460373878479004e-01
-1.505098640918731689e-01
-6.669577211141586304e-02
-5.501924157142639160e-01
-1.564744263887405396e-01
2.177754789590835571e-01
-2.268291115760803223e-01
-3.228075802326202393e-01
-2.496226504445075989e-02
5.545253753662109375e-01
-7.885741442441940308e-02
1.076205149292945862e-01
1.319475471973419189e-02
-6.524416059255599976e-02
3.015157878398895264e-01
-2.078887075185775757e-02
2.695563435554504395e-01
1.296802908182144165e-01
-1.775557696819305420e-01
5.500045418739318848e-01
1.675565540790557861e-01
-1.109064668416976929e-01
-1.646597236394882202e-01
1.981355845928192139e-01
-1.670093648135662079e-02
3.119218051433563232e-01
8.314768224954605103e-02
2.577172517776489258e-01
1.158519163727760315e-01
-4.329515099525451660e-01
-1.398448348045349121e+00
1.793502271175384521e-02
2.107327058911323547e-02
4.133421182632446289e-01
3.933793604373931885e-01
-3.973705321550369263e-02
-1.295046508312225342e-02
1.121196374297142029e-01
2.800207734107971191e-01
1.551213860511779785e-01
1.179399043321609497e-01
6.582470983266830444e-02
-6.287567615509033203e-01
5.170190334320068359e-01
-9.334165453910827637e-01
-5.673327445983886719e-01
3.387182354927062988e-01
4.247042238712310791e-01
1.085870862007141113e-01
6.834851503372192383e-01
-1.605606377124786377e-01
6.386314332485198975e-02
-5.109634399414062500e-01
-5.803433433175086975e-02
1.528937816619873047e-01
-7.177005708217620850e-02
-2.396111637353897095e-01
3.710185885429382324e-01
-7.053837180137634277e-01
1.420527696609497070e-01
9.926010966300964355e-01
-7.174670696258544922e-01
-4.650299251079559326e-01
-4.525711387395858765e-02
2.482029646635055542e-01
-5.144259706139564514e-02
2.300106734037399292e-02
3.740389645099639893e-01
1.588888168334960938e-01
1.866560727357864380e-01
7.089082002639770508e-01
2.454609125852584839e-01
-1.875864565372467041e-01
7.004174590110778809e-02
5.448933243751525879e-01
-1.074786037206649780e-01
2.490086257457733154e-01
1.616252183914184570e+00
-1.551684856414794922e+00
2.054269462823867798e-01
6.697294116020202637e-02
-2.263160496950149536e-01
-4.475286006927490234e-01
1.087158992886543274e-01
9.553944319486618042e-02
2.873769998550415039e-01
5.479206442832946777e-01
4.264260232448577881e-01
-2.626209706068038940e-02
1.566343307495117188e-01
2.120775699615478516e+00
-5.502560734748840332e-01
2.054885178804397583e-01
7.916918396949768066e-02
-1.969993859529495239e-01
6.693014502525329590e-02
-4.293563961982727051e-01
6.534004211425781250e-02
8.023378849029541016e-01
-5.070615410804748535e-01
-4.973414912819862366e-02
1.502054631710052490e-01
5.787674784660339355e-01
1.876497566699981689e-01
2.178865671157836914e-01
2.094518989324569702e-01
-3.482984900474548340e-01
-5.364798307418823242e-01
5.048632994294166565e-02
2.212042808532714844e-01
-2.271986305713653564e-01
-3.373005390167236328e-01
-7.528395950794219971e-02
-1.713481843471527100e-01
7.111268490552902222e-02
9.981457144021987915e-02
-5.169474985450506210e-03
-7.110824584960937500e-01
-2.385413169860839844e+00
9.726733714342117310e-02
-1.297727674245834351e-01
2.611196339130401611e-01
-1.349730640649795532e-01
1.825947463512420654e-01
-1.517136543989181519e-01
-2.098026126623153687e-01
5.484360828995704651e-02
1.160053834319114685e-01
5.890834331512451172e-01
4.317203760147094727e-01
7.883296161890029907e-02
-5.184802785515785217e-02
2.073734104633331299e-01
2.356267571449279785e-01
2.981996349990367889e-02
2.752547264099121094e-01
-1.799029111862182617e-01
2.992385029792785645e-01
5.296019315719604492e-01
2.027267962694168091e-01
8.823266625404357910e-01
-1.844652295112609863e-01
3.316225409507751465e-01
1.506903022527694702e-01
6.503266692161560059e-01
-2.136046588420867920e-01
4.185102283954620361e-01
-7.192312180995941162e-02
1.715124398469924927e-01
-4.823642671108245850e-01
1.268164634704589844e+00
2.353414297103881836e-01
5.489777922630310059e-01
-3.863124549388885498e-01
-8.791762590408325195e-02
2.094593942165374756e-01
-4.064592719078063965e-01
5.727919340133666992e-01
4.077800214290618896e-01
-2.964041829109191895e-01
-4.075970873236656189e-02
4.260883107781410217e-02
-1.703924313187599182e-02
1.476643383502960205e-01
-4.450819492340087891e-01
4.231909215450286865e-01
3.103237152099609375e-01
6.529284268617630005e-02
-1.030121743679046631e-01
-6.080765724182128906e-01
-4.635311663150787354e-02
-4.683625102043151855e-01
1.951717585325241089e-01
9.478357434272766113e-02
-5.000607371330261230e-01
-2.849803119897842407e-02
-1.685602366924285889e-01
-5.032464861869812012e-01
8.225981593132019043e-01
-4.692447185516357422e-01
-4.091761112213134766e-01
1.405311524868011475e-01
3.296659588813781738e-01
-2.085589319467544556e-01
2.294006347656250000e-01
-1.204024106264114380e-01
-4.166275262832641602e-02
-5.108261108398437500e-01
-1.957000344991683960e-01
5.022623538970947266e-01
-2.637969851493835449e-01
6.103638187050819397e-02
2.274301648139953613e-01
-1.435610055923461914e-01
-4.306170046329498291e-01
-1.256737858057022095e-03
-2.160118222236633301e-01
-4.446457326412200928e-01
6.279865503311157227e-01
-9.849236160516738892e-02
-3.513363897800445557e-01
4.122207164764404297e-01
2.980305850505828857e-01
3.871292620897293091e-02
1.044772472232580185e-02
-1.920388936996459961e-01
-1.455011665821075439e-01
-4.989944994449615479e-01
4.089918434619903564e-01
2.844619750976562500e-02
-1.675203442573547363e-01
-2.403622120618820190e-01
-6.890823841094970703e-01
3.501938655972480774e-02
-1.243501380085945129e-01
1.133749037981033325e-01
2.019593119621276855e-02
-3.522967100143432617e-01
2.016789093613624573e-02
-2.047655731439590454e-02
7.514928281307220459e-02
6.505004167556762695e-01
-8.133267983794212341e-03
8.976791054010391235e-02
5.400723591446876526e-02
-1.773679405450820923e-01
-3.365475311875343323e-02
-1.840563118457794189e-02
-6.762450933456420898e-02
2.197586931288242340e-02
-1.898698955774307251e-01
-9.685425162315368652e-01
-7.830658555030822754e-02
-6.639713793992996216e-02
-3.928461074829101562e-01
6.041485071182250977e-02
-1.634964495897293091e-01
-7.526621818542480469e-01
1.074259161949157715e+00
-3.945604264736175537e-01
-1.416032910346984863e-01
5.233443975448608398e-01
1.524791717529296875e-01
7.061104476451873779e-02
-4.109049439430236816e-01
-2.851994708180427551e-02
-1.945326328277587891e-01
-2.299792170524597168e-01
-1.468407958745956421e-01
5.240988135337829590e-01
-1.332881301641464233e-01
-3.179101645946502686e-01
-1.338548660278320312e-01
-2.051001936197280884e-01
-5.900669097900390625e-01
1.513977646827697754e-01
-3.046166598796844482e-01
-9.618505239486694336e-01
8.771600127220153809e-01
-1.323145627975463867e-01
-1.421528339385986328e+00
4.024559557437896729e-01
6.692827492952346802e-02
1.320087313652038574e-01
-1.413402557373046875e-01
-6.326945126056671143e-02
-3.536442518234252930e-01
-1.533595323562622070e-01
1.187453791499137878e-01
2.450404465198516846e-01
-1.563314646482467651e-01
2.742071263492107391e-02
6.654502451419830322e-02
2.709578275680541992e-01
-1.013677835464477539e+00
-1.779719442129135132e-02
-9.261243976652622223e-03
-8.467773199081420898e-01
4.192691743373870850e-01
-2.531202733516693115e-01
-2.730863988399505615e-01
4.436008036136627197e-01
3.972181305289268494e-02
-3.172096312046051025e-01
1.061180755496025085e-01
-4.327927529811859131e-02
-1.991965025663375854e-01
-3.212486505508422852e-01
1.673613339662551880e-01
1.468952298164367676e-01
4.398733973503112793e-01
5.388765931129455566e-01
3.350657597184181213e-02
-5.827400088310241699e-01
1.658314019441604614e-01
-1.015817075967788696e-01
1.623684018850326538e-01
-2.145836502313613892e-01
-3.767940448597073555e-03
4.311667084693908691e-01
-5.082240328192710876e-02
-1.892351955175399780e-01
4.599869996309280396e-02
1.674157679080963135e-01
1.546263461932539940e-03
5.670446753501892090e-01
-7.717393338680267334e-02
7.073576748371124268e-02
-1.417434066534042358e-01
6.100554391741752625e-02
-4.843386113643646240e-01
1.693061441183090210e-01
-4.264452755451202393e-01
4.563442468643188477e-01
8.411082029342651367e-01
-1.972151249647140503e-01
3.395354747772216797e-01
5.045413374900817871e-01
-7.483005523681640625e-01
2.594164907932281494e-01
1.055805683135986328e+00
-2.132583111524581909e-01
-5.313609912991523743e-02
-2.830932140350341797e-01
1.422932744026184082e-01
-1.834068298339843750e-01
1.994542926549911499e-01
4.688438475131988525e-01
2.939984500408172607e-01
-2.309662401676177979e-01
1.320540308952331543e-01
1.091691493988037109e+00
9.798359870910644531e-02
-4.182022809982299805e-01
2.242285311222076416e-01
-9.256310462951660156e-01
6.360366940498352051e-01
5.456377863883972168e-01
2.284271717071533203e-01
7.316527962684631348e-01
-1.334930360317230225e-01
-2.558523118495941162e-01
-3.451426923274993896e-01
3.917090967297554016e-02
-1.537808496505022049e-02
7.861433625221252441e-01
3.961469531059265137e-01
4.945687949657440186e-01
-2.737500667572021484e-01
3.712076544761657715e-01
-2.913086116313934326e-01
-6.031706463545560837e-03
-8.539843559265136719e-02
5.589490290731191635e-03
1.367959473282098770e-02
1.180869191884994507e-01
8.349885046482086182e-02
4.044592976570129395e-01
7.228338718414306641e-01
1.828643083572387695e-01
3.002463877201080322e-01
-8.248879313468933105e-01
5.583159923553466797e-01
-1.893347054719924927e-01
-9.644910097122192383e-01
1.070163771510124207e-01
5.084983706474304199e-01
1.062242910265922546e-01
-4.024367034435272217e-02
-5.157757084816694260e-03
-4.391465783119201660e-01
6.539378166198730469e-01
4.172645881772041321e-02
5.754287354648113251e-03
4.047554731369018555e-01
-5.591118335723876953e-01
5.946362018585205078e-01
4.330806434154510498e-01
3.734561800956726074e-02
7.019116282463073730e-01
-3.025338649749755859e-01
-3.864723443984985352e-01
-4.860801100730895996e-01
3.327315151691436768e-01
-6.283166408538818359e-01
4.240158796310424805e-01
3.712827339768409729e-02
5.470102429389953613e-01
-8.503007292747497559e-01
2.900030016899108887e-01
5.220487713813781738e-01
2.233640998601913452e-01
5.287643074989318848e-01
5.360512733459472656e-01
-7.200773954391479492e-01
2.915242612361907959e-01
-1.237310990691184998e-01
-8.601830005645751953e-01
3.493618667125701904e-01
-1.341780722141265869e-01
1.145630598068237305e+00
8.208558708429336548e-02
2.055900543928146362e-01
-8.946340531110763550e-02
4.443945288658142090e-01
7.191185653209686279e-02
-9.643580764532089233e-02
-2.840492427349090576e-01
-3.726667910814285278e-02
-3.012551069259643555e-01
-4.683616459369659424e-01
-1.872421652078628540e-01
-1.338809877634048462e-01
1.216074302792549133e-01
-2.649713456630706787e-01
4.258719980716705322e-01
-1.731069833040237427e-01
-3.474352061748504639e-01
-2.733357809484004974e-02
-1.839940249919891357e-01
-1.252360939979553223e+00
-9.992752224206924438e-02
3.243803679943084717e-01
-2.136418074369430542e-01
-1.014783143997192383e+00
-4.771580100059509277e-01
2.632452547550201416e-01
-2.783732414245605469e-01
1.542438119649887085e-01
-1.445167958736419678e-01
6.072582006454467773e-01
2.528199851512908936e-01
5.529920458793640137e-01
-5.652813911437988281e-01
1.699963808059692383e-01
1.435018628835678101e-01
2.005550712347030640e-01
-3.524609208106994629e-01
-1.849403679370880127e-01
-4.048501849174499512e-01
-1.836687028408050537e-01
3.799425438046455383e-02
-3.448037505149841309e-01
4.684967547655105591e-02
3.241538107395172119e-01
2.892784476280212402e-01
1.357717365026473999e-01
1.690934300422668457e-01
-3.170767566189169884e-03
-5.108532905578613281e-01
9.132326841354370117e-01
-8.545847535133361816e-01
-4.402550160884857178e-01
-1.035650670528411865e-01
-3.393318057060241699e-01
-4.662000536918640137e-01
-4.472530484199523926e-01
2.344771623611450195e-01
1.716494262218475342e-01
1.184091567993164062e-01
4.994917288422584534e-02
3.376270830631256104e-01
4.395468533039093018e-01
1.158840283751487732e-01
-2.037370204925537109e-01
-8.061248809099197388e-02
-5.994287133216857910e-01
2.342250496149063110e-01
-2.469344884157180786e-01
1.371622458100318909e-02
1.331651210784912109e-01
-2.190529368817806244e-02
-8.401124477386474609e-01
5.166528820991516113e-01
5.906108394265174866e-02
6.383729726076126099e-02
-1.156940162181854248e-01
7.007848620414733887e-01
6.348361968994140625e-01
3.730121254920959473e-01
5.986951589584350586e-01
4.364673793315887451e-01
7.374278306961059570e-01
-1.188691481947898865e-01
-3.710571229457855225e-01
-3.343792557716369629e-01
-3.193694651126861572e-01
-3.857319355010986328e-01
3.250966370105743408e-01
1.053446158766746521e-01
-8.214758038520812988e-01
-3.205049932003021240e-01
-5.152176022529602051e-01
4.445362389087677002e-01
1.434685140848159790e-01
-7.979246973991394043e-02
6.826006174087524414e-01
1.664867848157882690e-01
2.947974801063537598e-01
5.395461246371269226e-02
8.484505861997604370e-02
5.787823721766471863e-02
3.183794021606445312e-02
4.772146046161651611e-01
-1.251250058412551880e-01
1.361635923385620117e-01
-2.124371938407421112e-02
1.957987099885940552e-01
-8.385952562093734741e-02
-6.628460437059402466e-02
1.941691279411315918e+00
-4.970568716526031494e-01
-3.546039462089538574e-01
4.912183582782745361e-01
-2.330162972211837769e-01
-2.463413774967193604e-01
-1.599841006100177765e-02
2.866563796997070312e-01
6.811992824077606201e-02
2.366462349891662598e-01
3.419018983840942383e-01
6.611679196357727051e-01
1.679099202156066895e-01
-2.171175777912139893e-01
-2.977700829505920410e-01
-2.495370805263519287e-01
2.517720162868499756e-01
1.941755041480064392e-02
1.313166022300720215e-01
5.591734051704406738e-01
4.118568301200866699e-01
-9.694952964782714844e-01
-3.058800399303436279e-01
-3.625053167343139648e-01
-2.928037047386169434e-01
-6.197327375411987305e-01
-5.471904873847961426e-01
2.129469662904739380e-01
6.988778710365295410e-02
3.463422134518623352e-02
5.900038778781890869e-02
3.794266283512115479e-01
4.779851436614990234e-01
2.337880134582519531e-01
-5.407409071922302246e-01
4.349510371685028076e-02
-1.005942150950431824e-01
3.834970593452453613e-01
-1.249793469905853271e-01
2.982603013515472412e-01
3.395434319972991943e-01
1.552677527070045471e-02
1.774750351905822754e-01
-4.243836998939514160e-01
-3.616265356540679932e-01
1.266692727804183960e-01
-4.650979638099670410e-01
-3.077556788921356201e-01
-2.334772199392318726e-01
-2.855855226516723633e-01
-8.838276262395083904e-04
-3.258846402168273926e-01
-4.529249668121337891e-02
1.048770099878311157e-01
-2.090192735195159912e-01
3.943251073360443115e-01
4.078914523124694824e-01
2.980242483317852020e-02
6.757382303476333618e-02
-1.983644813299179077e-01
1.172006607055664062e+00
-2.675871551036834717e-01
1.171046216040849686e-02
-2.094974070787429810e-01
1.151775270700454712e-01
1.793434619903564453e-01
-2.615943253040313721e-01
-3.563852012157440186e-01
8.973880857229232788e-02
4.305534660816192627e-01
-2.352325171232223511e-01
-4.053820371627807617e-01
2.915871329605579376e-02
-9.073379635810852051e-02
3.915694653987884521e-01
2.423512339591979980e-01
2.610894739627838135e-01
8.533804118633270264e-02
5.833126306533813477e-01
1.174544543027877808e-01
8.797506242990493774e-02
6.745049953460693359e-01
4.172065481543540955e-02
4.227943122386932373e-01
2.265362590551376343e-01
5.383189320564270020e-01
-2.849587500095367432e-01
-8.500688523054122925e-02
-2.239988595247268677e-01
-3.512754142284393311e-01
-8.263177424669265747e-02
-8.436585068702697754e-01
-5.337175130844116211e-01
-3.811184689402580261e-02
5.952038168907165527e-01
-1.178991571068763733e-01
-1.048614755272865295e-01
-2.822610437870025635e-01
-9.181479364633560181e-02
-3.583639860153198242e-02
-5.893037319183349609e-01
-4.445647001266479492e-01
1.460602283477783203e-01
-1.616654247045516968e-01
-2.283000014722347260e-02
-8.072164058685302734e-01
2.554060518741607666e-02
-1.394134201109409332e-02
-2.516065835952758789e-01
5.919656157493591309e-02
-9.338996559381484985e-02
-9.225054085254669189e-02
1.940382719039916992e-01
2.880059778690338135e-01
8.704101294279098511e-02
3.233790397644042969e-01
1.069031134247779846e-01
-2.706034779548645020e-01
1.942166984081268311e-01
-9.628500789403915405e-03
-1.429569602012634277e+00
-2.347038984298706055e-01
1.546432450413703918e-02
-2.791213393211364746e-01
-2.731643021106719971e-01
6.211084499955177307e-02
3.341450095176696777e-01
6.657571345567703247e-02
-9.018297493457794189e-02
-6.356276869773864746e-01
-1.752282381057739258e-01
-1.314172446727752686e-01
6.797487139701843262e-01
5.028721094131469727e-01
-4.423717409372329712e-02
9.014160931110382080e-02
-1.732547432184219360e-01
1.696760058403015137e-01
3.130440115928649902e-01
3.607867658138275146e-01
1.189334243535995483e-01
6.576522439718246460e-02
-2.394276708364486694e-01
2.850738465785980225e-01
3.254070281982421875e-01
4.499785602092742920e-01
-2.619641087949275970e-02
-8.663623034954071045e-02
4.177211523056030273e-01
3.298224136233329773e-02
1.618759483098983765e-01
1.295228302478790283e-01
-1.513290852308273315e-01
1.940117329359054565e-01
5.146676898002624512e-01
-6.256040930747985840e-01
-1.224378705024719238e+00
-1.080928146839141846e-01
4.089387655258178711e-01
3.169749081134796143e-01
2.148380041122436523e+00
1.278997659683227539e+00
3.249374926090240479e-01
-5.064998865127563477e-01
-1.112578809261322021e-01
2.003239393234252930e-01
-5.794953927397727966e-02
-1.585633307695388794e-01
-1.964803487062454224e-01
-5.716869235038757324e-01
-3.732441663742065430e-01
-2.262229919433593750e-01
-3.926427662372589111e-01
1.912078112363815308e-01
3.438455462455749512e-01
1.466752588748931885e-01
6.094550713896751404e-02
2.208434790372848511e-01
-1.903634369373321533e-01
-2.626959383487701416e-01
4.426343366503715515e-02
-1.095035858452320099e-02
-6.803256273269653320e-01
9.653827548027038574e-02
-7.376459985971450806e-02
1.125692278146743774e-01
9.938143938779830933e-02
7.534366846084594727e-01
8.436192274093627930e-01
1.965259611606597900e-01
5.884435772895812988e-01
6.992516517639160156e-01
7.661256790161132812e-01
-5.389506816864013672e-01
-2.660555541515350342e-01
-1.078066527843475342e-01
-3.225861191749572754e-01
-3.714392706751823425e-02
3.359797298908233643e-01
1.794277131557464600e-01
-8.129036426544189453e-02
-3.184649646282196045e-01
-2.609009146690368652e-01
2.430655807256698608e-01
-2.999461591243743896e-01
2.550956904888153076e-01
-1.887018382549285889e-01
6.040789484977722168e-01
1.108470335602760315e-01
7.762947082519531250e-01
4.229925870895385742e-01
-3.141960501670837402e-01
1.037217736244201660e+00
-4.175198078155517578e-01
-5.170990824699401855e-01
-2.690246701240539551e-01
1.951274573802947998e-01
-1.263605197891592979e-03
6.666843295097351074e-01
-8.294172883033752441e-01
2.299595773220062256e-01
1.380075514316558838e-01
2.173169404268264771e-01
-1.790472269058227539e-01
-4.572589695453643799e-01
-4.588959217071533203e-01
-3.720607161521911621e-01
-4.725634753704071045e-01
-3.817245364189147949e-01
-1.492561846971511841e-01
-5.796071290969848633e-01
1.249380633234977722e-01
-3.129490315914154053e-01
1.788064539432525635e-01
3.423265218734741211e-01
9.483969211578369141e-01
2.847598306834697723e-02
6.851806044578552246e-01
-3.272458314895629883e-01
-6.711455583572387695e-01
9.110410809516906738e-01
-4.979528188705444336e-01
-2.156827747821807861e-01
-2.771844863891601562e-01
6.564859300851821899e-02
-4.664512872695922852e-01
-7.383185625076293945e-01
-1.549826860427856445e-01
-7.481432706117630005e-02
4.291094839572906494e-02
-3.201495483517646790e-02
-9.010884910821914673e-02
-4.407601803541183472e-02
-2.951233386993408203e-01
7.490856945514678955e-02
1.540170609951019287e-01
2.681591808795928955e-01
9.537006914615631104e-02
-2.146345824003219604e-01
8.788815885782241821e-02
1.015361785888671875e+00
-3.699301481246948242e-01
-4.238831698894500732e-01
7.542350888252258301e-01
1.963892951607704163e-02
-1.736996918916702271e-01
8.430762887001037598e-01
4.711286723613739014e-01
-5.007665976881980896e-02
-4.885564371943473816e-02
5.022806525230407715e-01
2.491735517978668213e-01
5.869570304639637470e-04
7.197958230972290039e-02
-3.504842519760131836e-01
-1.298367530107498169e-01
3.534653186798095703e-01
7.521728053689002991e-03
1.384758949279785156e-01
1.727118343114852905e-01
-4.657770693302154541e-02
2.665252685546875000e-01
9.374034404754638672e-02
1.164533197879791260e-01
4.638942331075668335e-02
3.207056224346160889e-01
3.580476939678192139e-01
-1.303964853286743164e-01
1.761788427829742432e-01
-6.384608745574951172e-01
-2.064500004053115845e-01
-4.827667400240898132e-02
-6.442767977714538574e-01
-7.598429918289184570e-02
6.190146878361701965e-02
-1.535417586565017700e-01
2.070357352495193481e-01
-1.876025795936584473e-01
-6.600251793861389160e-01
-2.124785482883453369e-01
6.181917339563369751e-02
-6.857472062110900879e-01
-1.614411473274230957e-01
8.222014307975769043e-01
-9.872858971357345581e-02
4.611885845661163330e-01
3.758457303047180176e-01
3.477989733219146729e-01
3.041763305664062500e-01
-1.322452817112207413e-02
4.666866958141326904e-01
-2.193303555250167847e-01
3.858252465724945068e-01
-2.013129442930221558e-01
1.080855168402194977e-02
-5.429274439811706543e-01
3.794160783290863037e-01
-7.091648876667022705e-02
2.476199865341186523e-01
-5.046023800969123840e-02
-1.548679322004318237e-01
7.880249023437500000e-01
3.212549388408660889e-01
-4.690231978893280029e-01
1.283651441335678101e-01
-1.526375859975814819e-01
-2.888337895274162292e-02
-3.499500155448913574e-01
-1.295563876628875732e-01
-3.330493271350860596e-01
-2.997519075870513916e-01
-5.157734751701354980e-01
-1.600004881620407104e-01
-9.313061833381652832e-02
5.113652348518371582e-01
-7.808406651020050049e-02
-1.806262433528900146e-01
-3.928714096546173096e-01
1.720484048128128052e-01
-3.106871247291564941e-01
-7.122430950403213501e-02
-5.388871431350708008e-01
-1.772540956735610962e-01
-2.928039729595184326e-01
-2.478994280099868774e-01
3.761487305164337158e-01
2.452836483716964722e-01
3.172897398471832275e-01
9.194611757993698120e-02
3.206174075603485107e-02
-1.074243932962417603e-01
3.784922361373901367e-01
-5.612190961837768555e-01
-3.074204027652740479e-01
6.298884153366088867e-01
1.238413304090499878e-01
-8.073110133409500122e-02
3.180851936340332031e-01
-1.246177330613136292e-01
6.378347426652908325e-02
-1.556935459375381470e-01
1.421185433864593506e-01
-3.261620402336120605e-01
-5.892617702484130859e-01
-4.247642755508422852e-01
1.229174956679344177e-01
1.210732012987136841e-01
5.326775312423706055e-01
-2.659732997417449951e-01
-3.574719130992889404e-01
1.406129598617553711e-01
-2.249651961028575897e-02
-4.014932528662029654e-06
8.623648881912231445e-01
8.464473485946655273e-02
1.836913675069808960e-01
-2.273143529891967773e-01
5.573299527168273926e-01
6.287584255915135145e-05
1.305495262145996094e+00
-2.406462281942367554e-01
-1.783263534307479858e-01
2.186154946684837341e-02
3.059273660182952881e-01
-9.848762303590774536e-02
-1.373931169509887695e-01
3.418455272912979126e-02
1.132233738899230957e-01
6.736852228641510010e-02
2.208099327981472015e-02
6.637823581695556641e-02
2.106119394302368164e-01
-2.364583015441894531e-01
-4.958053678274154663e-02
-3.566152751445770264e-01
-9.283358231186866760e-03
1.728882640600204468e-01
-1.102649271488189697e-01
1.439387202262878418e-01
8.715606294572353363e-03
-2.120257541537284851e-02
-1.059324145317077637e-01
1.086874008178710938e-01
6.913919746875762939e-02
8.160472661256790161e-02
-3.884708881378173828e-01
-7.070723921060562134e-02
-6.531324982643127441e-02
4.900256916880607605e-02
5.462723970413208008e-01
7.662661373615264893e-02
-1.033318489789962769e-01
1.997914910316467285e-01
-2.141554281115531921e-02
-6.338772177696228027e-02
-2.914939522743225098e-01
-1.858140714466571808e-02
2.961378693580627441e-01
-3.983964771032333374e-02
1.229538321495056152e-01
-2.427194714546203613e-01
8.725372701883316040e-02
7.011929526925086975e-03
