6.755262613296508789e-01
-3.272758126258850098e-01
-9.138842672109603882e-02
1.505673378705978394e-01
-2.937947511672973633e-01
8.666181564331054688e-01
-9.694677591323852539e-02
3.400866091251373291e-01
2.027399241924285889e-01
-1.174858689308166504e+00
-2.377222478389739990e-02
1.486163586378097534e-01
1.231403499841690063e-01
-2.249126881361007690e-01
-5.869279801845550537e-02
-1.024008631706237793e+00
-3.524657338857650757e-02
2.952132225036621094e-01
4.530380964279174805e-01
9.672192335128784180e-01
-1.056078299880027771e-01
-1.413257837295532227e+00
7.304361462593078613e-02
-5.811447501182556152e-01
4.635729268193244934e-02
-6.897358894348144531e-01
1.659218072891235352e-01
9.843524694442749023e-01
-1.327983289957046509e-01
8.545023202896118164e-01
-8.804661780595779419e-02
1.891832351684570312e-01
3.313290476799011230e-01
-3.356035053730010986e-01
-3.433482348918914795e-01
-7.163129448890686035e-01
5.175980925559997559e-01
3.799767494201660156e-01
3.461307287216186523e-01
9.200139343738555908e-02
1.092040896415710449e+00
-8.212723731994628906e-01
8.258835077285766602e-01
-3.980302810668945312e-01
7.659285515546798706e-02
4.693932533264160156e-01
-8.326224684715270996e-01
8.711841702461242676e-01
-5.107414126396179199e-01
3.007145524024963379e-01
-3.021109998226165771e-01
-1.788823902606964111e-01
6.522713303565979004e-01
-7.163380384445190430e-01
1.294649958610534668e+00
-5.979928746819496155e-02
1.557423770427703857e-01
-8.117901086807250977e-01
1.468948960304260254e+00
7.130594849586486816e-01
2.336005270481109619e-01
-2.850249707698822021e-01
-1.466045379638671875e-01
8.906914293766021729e-02
2.679749727249145508e-01
1.405013948678970337e-01
1.597993075847625732e-01
8.726599216461181641e-01
-1.855895668268203735e-01
-8.921414613723754883e-01
2.249557375907897949e-01
-3.824471787083894014e-04
1.613787561655044556e-01
-9.155819416046142578e-01
-4.712200164794921875e-02
9.876551479101181030e-02
3.319088518619537354e-01
2.865652143955230713e-01
-4.460372030735015869e-03
4.512365460395812988e-01
-4.330831468105316162e-01
-2.212524972856044769e-02
-2.899225652217864990e-01
-3.042287230491638184e-01
7.452933788299560547e-01
-3.783402442932128906e-01
-1.273588370531797409e-02
2.960661649703979492e-01
1.107957097701728344e-03
-4.351294338703155518e-01
1.231680750846862793e+00
3.856451511383056641e-01
8.102039247751235962e-02
-1.928192228078842163e-01
-4.450284242630004883e-01
-4.795941710472106934e-01
6.529252976179122925e-02
6.417369842529296875e-01
-5.430326461791992188e-01
-5.149741172790527344e-01
1.548670977354049683e-01
-9.726271033287048340e-02
4.119012057781219482e-01
3.186393380165100098e-01
-6.599392890930175781e-01
5.304333567619323730e-02
2.354440540075302124e-01
-2.689162790775299072e-01
-2.000272870063781738e-01
2.280369549989700317e-01
-2.504188120365142822e-01
-2.796325981616973877e-01
6.639391928911209106e-02
4.108323752880096436e-01
2.176526188850402832e-01
4.475996792316436768e-01
-4.107442796230316162e-01
-3.939367830753326416e-02
-7.343970239162445068e-02
-3.036277294158935547e-01
-4.795205295085906982e-01
2.390781342983245850e-01
1.730356663465499878e-01
7.030462622642517090e-01
1.775462180376052856e-01
-2.108309715986251831e-01
-2.467611432075500488e-02
-2.636916935443878174e-01
4.254407882690429688e-01
-1.216874867677688599e-01
1.300636678934097290e-02
9.824881702661514282e-02
-4.217725396156311035e-01
5.846120882779359818e-03
-3.785054013133049011e-02
2.169329524040222168e-01
-3.754588365554809570e-01
2.266113758087158203e-01
1.371482200920581818e-02
-4.201912283897399902e-01
-1.359588503837585449e+00
6.027908921241760254e-01
-1.333632469177246094e-01
8.553101420402526855e-01
3.027898073196411133e-01
-2.185983359813690186e-01
6.332735717296600342e-02
-2.937252819538116455e-01
1.718255132436752319e-01
3.209362924098968506e-01
5.905800685286521912e-02
2.553667128086090088e-01
-3.050250411033630371e-01
3.774078786373138428e-01
-2.374746054410934448e-01
1.312339007854461670e-01
-8.547042012214660645e-01
-1.226210892200469971e-01
-7.672498375177383423e-02
-7.677438259124755859e-01
-2.279000580310821533e-01
-1.994565874338150024e-01
6.240580081939697266e-01
1.316326707601547241e-01
-7.749355435371398926e-01
5.103369951248168945e-01
-2.368744313716888428e-01
1.240634694695472717e-01
-4.822691679000854492e-01
-3.086195886135101318e-02
-1.058936238288879395e+00
-9.129905104637145996e-01
1.234827190637588501e-01
-5.917080864310264587e-02
5.680965185165405273e-01
8.567489385604858398e-01
-1.555156260728836060e-01
1.513728052377700806e-01
-1.713106036186218262e-01
7.321684807538986206e-02
-2.085602134466171265e-01
-7.369063794612884521e-03
-4.262441694736480713e-01
-5.055078864097595215e-01
7.157467603683471680e-01
2.994078211486339569e-03
7.161639332771301270e-01
-1.305145621299743652e-01
7.359012961387634277e-03
2.932731509208679199e-01
1.394980847835540771e-01
-2.340619564056396484e-01
-1.477431058883666992e-01
1.651855409145355225e-01
-5.086609125137329102e-01
-1.104645967483520508e+00
9.566954374313354492e-01
9.553618729114532471e-02
1.110471263527870178e-01
-6.849708408117294312e-02
2.277884185314178467e-01
-2.600309252738952637e-01
2.565115690231323242e-01
1.984991878271102905e-02
1.495428830385208130e-01
1.973886489868164062e-01
-8.892782777547836304e-02
1.156933426856994629e+00
-3.289458155632019043e-01
-1.495553851127624512e-01
-9.645634144544601440e-02
5.204885080456733704e-02
3.794592320919036865e-01
-6.400327682495117188e-01
2.834809124469757080e-01
4.621139764785766602e-01
-2.930567264556884766e-01
-3.073337078094482422e-01
8.424624800682067871e-02
1.068938001990318298e-01
-3.608275949954986572e-01
1.417669504880905151e-01
7.200840115547180176e-02
-2.827457487583160400e-01
-5.153031349182128906e-01
1.649237237870693207e-02
-3.047727346420288086e-01
2.473400235176086426e-01
-1.827216148376464844e-01
7.391601204872131348e-01
-1.025084137916564941e+00
-6.371425986289978027e-01
4.707606732845306396e-01
8.079746365547180176e-02
1.637199819087982178e-01
3.539777696132659912e-01
-2.852537333965301514e-01
-1.696666330099105835e-01
1.054299026727676392e-01
-1.205883361399173737e-02
-3.522031903266906738e-01
1.652300357818603516e-02
3.685107827186584473e-01
8.926489204168319702e-02
-2.266853302717208862e-01
8.329719305038452148e-02
-3.204295039176940918e-01
-9.441748261451721191e-02
-1.159320771694183350e-01
-1.911710947751998901e-01
1.601204462349414825e-02
-1.537972539663314819e-01
1.342764198780059814e-01
5.031723156571388245e-02
1.257700324058532715e-01
2.329896092414855957e-01
-5.386364459991455078e-01
3.179024755954742432e-01
2.469425648450851440e-02
-4.253941774368286133e-01
4.948869645595550537e-01
5.183459818363189697e-02
-3.392466306686401367e-01
-6.275879740715026855e-01
-3.065849542617797852e-01
-1.050549522042274475e-01
1.524932309985160828e-02
5.426926612854003906e-01
1.225179210305213928e-01
-2.588582597672939301e-02
-2.864166498184204102e-01
1.910663954913616180e-02
4.898801147937774658e-01
-5.772758126258850098e-01
-3.320268094539642334e-01
-4.870026186108589172e-02
3.201813399791717529e-01
-1.037521511316299438e-01
7.452430576086044312e-02
-6.040022242814302444e-03
9.646173566579818726e-02
3.370282649993896484e-01
2.461461126804351807e-01
4.073627889156341553e-01
-1.865353286266326904e-01
-6.182171702384948730e-01
8.098876476287841797e-02
5.489157438278198242e-01
3.516352176666259766e-01
2.353527396917343140e-02
-1.701046377420425415e-01
8.018899708986282349e-02
-2.464085351675748825e-03
-4.180369079113006592e-01
-4.718452319502830505e-02
-1.299810856580734253e-01
-1.955976709723472595e-02
3.341848850250244141e-01
-8.142653107643127441e-01
2.569391131401062012e-01
3.582792729139328003e-02
-2.917825803160667419e-02
5.233002305030822754e-01
-3.307694196701049805e-01
-1.028063595294952393e-01
-2.297421842813491821e-01
-3.805499374866485596e-01
7.158812284469604492e-01
-7.348057627677917480e-02
5.754773505032062531e-03
-7.263163477182388306e-02
3.153312951326370239e-02
1.236898899078369141e+00
-6.643654108047485352e-01
8.599696159362792969e-01
-1.523920297622680664e-01
2.943715453147888184e-01
1.809102296829223633e-01
3.435086831450462341e-02
1.769706755876541138e-01
7.342225313186645508e-02
-1.055219545960426331e-01
3.004658594727516174e-02
-5.595091581344604492e-01
-7.225794252008199692e-03
-1.542838662862777710e-01
-1.234132125973701477e-01
1.030876994132995605e+00
-1.133155301213264465e-01
-2.281109988689422607e-01
2.899628691375255585e-02
1.296946555376052856e-01
1.820612072944641113e+00
-7.766838669776916504e-01
1.646018177270889282e-01
-1.586097329854965210e-01
-7.824894972145557404e-03
-1.883959323167800903e-01
1.602641493082046509e-01
-5.283286049962043762e-02
5.047374367713928223e-01
-2.881188988685607910e-01
-3.226242661476135254e-01
6.389006972312927246e-02
5.086088776588439941e-01
9.936294704675674438e-02
-3.603160753846168518e-02
-3.666953742504119873e-01
-1.924601495265960693e-01
9.651576876640319824e-01
2.970083951950073242e-01
3.603328764438629150e-01
4.184804856777191162e-02
4.724721610546112061e-01
1.607026904821395874e-01
-4.980375468730926514e-01
1.943721890449523926e+00
-8.470202684402465820e-01
8.396000862121582031e-01
6.377128362655639648e-01
1.562300920486450195e-01
-4.280130267143249512e-01
5.158789157867431641e-01
3.652090728282928467e-01
-5.926812067627906799e-02
2.851236164569854736e-01
-3.123798668384552002e-01
8.210013061761856079e-02
-3.696369379758834839e-02
-2.652030587196350098e-01
-1.343157738447189331e-01
1.515732379630208015e-03
2.941875346004962921e-02
-2.376085817813873291e-01
3.635088503360748291e-01
6.621124148368835449e-01
-6.762921214103698730e-01
-9.821447543799877167e-03
3.734774589538574219e-01
1.075858175754547119e-01
3.250154852867126465e-02
-2.089457213878631592e-01
-5.108201876282691956e-02
-2.645038068294525146e-01
3.342450559139251709e-01
-1.524104177951812744e-02
2.759738564491271973e-01
5.017769336700439453e-01
-1.301798820495605469e-01
-6.336094737052917480e-01
3.799586296081542969e-01
4.252750277519226074e-01
1.747572124004364014e-01
-7.922283411026000977e-01
5.668307468295097351e-02
-2.924020588397979736e-01
3.901996836066246033e-02
5.753988623619079590e-01
-1.029966101050376892e-01
-8.157024532556533813e-02
5.980772376060485840e-01
-3.677701056003570557e-01
-6.542233377695083618e-02
-3.017735183238983154e-01
4.955620765686035156e-01
-1.374775320291519165e-01
7.452537864446640015e-02
6.055985093116760254e-01
9.225007146596908569e-02
-7.245765924453735352e-01
4.528897404670715332e-01
4.829428791999816895e-01
2.023265808820724487e-01
-9.016840457916259766e-01
8.031771332025527954e-02
-1.120095178484916687e-01
4.123994708061218262e-01
3.573531210422515869e-01
9.884279221296310425e-02
4.719217121601104736e-01
1.913000941276550293e-01
2.328245900571346283e-02
1.698571443557739258e-01
1.506395041942596436e-01
-5.839155241847038269e-02
4.720996618270874023e-01
-2.043046951293945312e-01
-3.258703052997589111e-01
-1.927723176777362823e-02
1.054207921028137207e+00
-4.711456000804901123e-01
-3.945034146308898926e-01
1.145960688591003418e-01
3.697032630443572998e-01
2.772190570831298828e-01
-3.554024398326873779e-01
8.479859828948974609e-01
-8.664945960044860840e-01
7.556049823760986328e-01
4.906096458435058594e-01
-2.004751563072204590e-01
4.568448662757873535e-01
-5.725461244583129883e-01
1.723722554743289948e-02
6.736482381820678711e-01
-3.255219161510467529e-01
1.719283014535903931e-01
9.689692407846450806e-02
1.881230436265468597e-02
-5.524392127990722656e-01
1.239550590515136719e+00
6.265872716903686523e-01
1.403825283050537109e-01
-3.046741485595703125e-01
-1.021922379732131958e-01
-2.173277586698532104e-01
1.492450684309005737e-01
1.202050894498825073e-01
7.645421475172042847e-02
-5.772554501891136169e-02
3.773652613162994385e-01
-4.237283468246459961e-01
4.093200862407684326e-01
-3.046956360340118408e-01
-3.612524271011352539e-01
6.599970459938049316e-01
-4.148876070976257324e-01
2.133522629737854004e-01
3.923890888690948486e-01
1.322541087865829468e-01
-7.905871421098709106e-02
-3.839915692806243896e-01
3.233662843704223633e-01
4.662532806396484375e-01
3.531405627727508545e-01
6.570347547531127930e-01
-3.941988050937652588e-01
8.836998790502548218e-02
3.494828343391418457e-01
-4.201798737049102783e-01
7.842380553483963013e-02
-6.429308652877807617e-01
-6.861105561256408691e-01
-2.276163399219512939e-01
-4.595058858394622803e-01
6.183084845542907715e-01
-1.265263557434082031e+00
7.845980525016784668e-01
3.113069832324981689e-01
1.818285465240478516e+00
-2.381749004125595093e-01
-4.228109866380691528e-02
6.239316463470458984e-01
7.357900142669677734e-01
8.799943923950195312e-01
8.671285510063171387e-01
-2.701052427291870117e-01
-3.685378134250640869e-01
7.522532343864440918e-01
-5.344043970108032227e-01
-4.263387024402618408e-01
-2.026769891381263733e-02
-9.168388694524765015e-02
-3.413377404212951660e-01
-2.846172153949737549e-01
-2.324712462723255157e-02
1.161309927701950073e-01
-1.811895668506622314e-01
2.203375995159149170e-01
-8.048640489578247070e-01
-1.738304048776626587e-01
-1.688003659248352051e+00
-4.740801453590393066e-01
1.289646923542022705e-01
8.574084192514419556e-02
-8.040868043899536133e-01
4.788193106651306152e-02
2.074800133705139160e-01
-1.672994792461395264e-01
2.048338949680328369e-02
-1.133709073066711426e+00
-4.112659096717834473e-01
-2.905266284942626953e-01
-4.329977929592132568e-01
-1.953259110450744629e-01
1.882669925689697266e-01
-2.588279545307159424e-01
3.540113270282745361e-01
-1.664731837809085846e-02
2.002899199724197388e-01
-1.020436063408851624e-01
-2.795860767364501953e-01
-3.994808197021484375e-01
-9.991011619567871094e-01
2.146086245775222778e-01
9.107267856597900391e-02
3.572780787944793701e-01
1.330537796020507812e+00
5.830148980021476746e-02
-8.618379384279251099e-02
4.874795079231262207e-01
-2.702849209308624268e-01
-2.088602483272552490e-01
-5.279070734977722168e-01
-1.078119874000549316e+00
1.035933271050453186e-01
-2.132233381271362305e-01
4.807951748371124268e-01
4.965046420693397522e-02
3.413074463605880737e-02
-1.756030470132827759e-01
-2.030332982540130615e-01
-9.804052300751209259e-03
2.412194609642028809e-01
4.012528434395790100e-02
1.115385964512825012e-01
2.305060178041458130e-01
1.954278349876403809e-01
-7.788475602865219116e-02
-2.428832799196243286e-01
-2.969749569892883301e-01
-3.022650480270385742e-01
4.119120910763740540e-02
-7.144712209701538086e-01
-3.959190845489501953e-01
5.105508118867874146e-02
-2.692486047744750977e-01
3.956668078899383545e-02
-7.577714323997497559e-02
-4.367357492446899414e-01
-1.451472491025924683e-01
-5.539532303810119629e-01
2.418816834688186646e-02
-2.965551242232322693e-02
1.418198794126510620e-01
8.225996047258377075e-02
-6.736207753419876099e-02
5.172539874911308289e-02
3.399606049060821533e-01
-1.609811931848526001e-01
4.031968712806701660e-01
-8.024299517273902893e-03
5.996877551078796387e-01
8.065893650054931641e-01
-1.050250791013240814e-02
-6.752500683069229126e-02
-2.283371537923812866e-01
1.171117350459098816e-01
1.063716113567352295e-01
1.796599291265010834e-02
1.253277957439422607e-01
7.074282765388488770e-01
9.126123189926147461e-01
-2.185869403183460236e-02
5.720751360058784485e-02
3.086709976196289062e-01
1.133033707737922668e-01
6.575678586959838867e-01
9.031344205141067505e-02
2.388926148414611816e-01
2.251780033111572266e-02
9.221829473972320557e-02
8.819500207901000977e-01
6.186739802360534668e-01
2.841331958770751953e-01
-3.746002614498138428e-01
2.492002546787261963e-01
1.048864051699638367e-01
-2.503279447555541992e-01
2.563420832157135010e-01
-7.353984713554382324e-01
4.978566765785217285e-01
-9.665069729089736938e-02
1.075539812445640564e-01
-1.658687591552734375e-01
9.416430443525314331e-02
2.920684516429901123e-01
-1.441566944122314453e-01
4.366951808333396912e-02
2.754383981227874756e-01
5.547469854354858398e-02
-5.836727619171142578e-01
1.843818187713623047e+00
-9.474852681159973145e-02
-7.779462635517120361e-02
3.529518842697143555e-01
-2.816220559179782867e-02
4.405435621738433838e-01
9.213069081306457520e-02
2.387695200741291046e-02
-3.296738490462303162e-02
-4.395980834960937500e-01
5.638045072555541992e-01
1.416809260845184326e-01
1.290358006954193115e-01
2.126566618680953979e-01
-1.596589833498001099e-01
-6.461215019226074219e-01
8.956754952669143677e-02
-3.001156151294708252e-01
4.666773378849029541e-01
2.083126306533813477e-01
-4.609852135181427002e-01
5.661082863807678223e-01
2.604275941848754883e-02
1.034376546740531921e-01
-1.243523787707090378e-02
9.007363021373748779e-02
-6.208357214927673340e-01
-3.470901846885681152e-01
2.537964656949043274e-02
1.919290721416473389e-01
-3.102613687515258789e-01
-2.138304859399795532e-01
-3.229208290576934814e-01
-2.699403762817382812e-01
5.355867147445678711e-01
9.587076902389526367e-01
-1.804408580064773560e-01
2.375973612070083618e-01
2.947355434298515320e-02
-1.187465116381645203e-01
1.527220904827117920e-01
-8.707067370414733887e-01
-9.716444015502929688e-01
3.492707610130310059e-01
-3.686382770538330078e-01
4.565315842628479004e-01
2.019123584032058716e-01
4.444313943386077881e-01
1.770384609699249268e-02
2.206591516733169556e-01
6.794074177742004395e-01
6.139329075813293457e-01
8.143596649169921875e-01
6.101712584495544434e-01
-5.712061524391174316e-01
3.164355754852294922e-01
8.386998772621154785e-01
-7.218098640441894531e-01
1.718066483736038208e-01
3.573439121246337891e-01
-8.863873481750488281e-01
7.308974117040634155e-02
2.961133122444152832e-01
-1.088707447052001953e+00
2.804745435714721680e-01
-4.010692536830902100e-01
-5.088338851928710938e-01
-1.157946228981018066e+00
2.099339067935943604e-01
1.334815770387649536e-01
-3.834687173366546631e-01
-4.763516485691070557e-01
-5.592931509017944336e-01
-5.574235320091247559e-01
5.465258955955505371e-01
2.175236493349075317e-01
-3.274975717067718506e-01
4.707416296005249023e-01
-5.284338593482971191e-01
-1.015777587890625000e+00
5.973142758011817932e-02
9.562015533447265625e-02
-7.973437905311584473e-01
2.971690893173217773e-01
-6.480575352907180786e-02
4.374923110008239746e-01
4.624939262866973877e-01
-3.814390897750854492e-01
-5.987732410430908203e-01
2.068457454442977905e-01
-3.394953534007072449e-02
2.332946509122848511e-01
1.621694266796112061e-01
1.623511314392089844e-01
-5.510096549987792969e-01
-4.055909514427185059e-01
2.902616560459136963e-01
-7.418853640556335449e-01
1.070993304252624512e+00
-2.119579613208770752e-01
-2.874765098094940186e-01
-3.181675672531127930e-01
-5.888452008366584778e-02
4.682590067386627197e-01
-3.172528445720672607e-01
2.192190438508987427e-01
1.121349111199378967e-01
-4.616803824901580811e-01
1.485177278518676758e-01
-1.357412487268447876e-01
5.969594717025756836e-01
5.249724388122558594e-01
3.600145280361175537e-01
2.571949660778045654e-01
9.256435930728912354e-02
7.496070861816406250e-01
3.327646851539611816e-01
-3.152751326560974121e-01
-8.739387243986129761e-02
6.949967741966247559e-01
-3.774366974830627441e-01
4.666981995105743408e-01
-6.319937109947204590e-01
-7.964823246002197266e-01
7.608054876327514648e-01
-3.760203123092651367e-01
-1.187869548797607422e+00
-9.819808006286621094e-01
4.205057621002197266e-01
1.489583402872085571e-01
-3.844242990016937256e-01
-8.068417310714721680e-01
-8.960917592048645020e-01
-3.755485415458679199e-01
8.405261635780334473e-01
-4.614407196640968323e-02
-8.239586949348449707e-01
1.119915843009948730e+00
-5.882891416549682617e-01
-6.353387236595153809e-01
1.335088253021240234e+00
-2.368549853563308716e-01
-3.859875500202178955e-01
2.389949113130569458e-01
8.959014713764190674e-02
2.740534842014312744e-01
3.023876249790191650e-01
2.700293660163879395e-01
-4.149407446384429932e-01
6.191537529230117798e-02
3.755094716325402260e-03
3.604721128940582275e-01
2.749590873718261719e-01
1.996273547410964966e-01
8.010855875909328461e-03
-4.426738619804382324e-01
-1.506468746811151505e-02
-3.009914159774780273e-01
-4.583335518836975098e-01
-7.176843285560607910e-01
1.403016895055770874e-01
-1.514327675104141235e-01
-8.693695664405822754e-01
-1.944978535175323486e-01
-2.478296458721160889e-01
-4.044599831104278564e-03
8.929026871919631958e-02
-5.258678197860717773e-01
-5.675404667854309082e-01
-2.095516175031661987e-01
1.814350932836532593e-01
2.981351912021636963e-01
5.606604814529418945e-01
2.542816102504730225e-01
-3.280012011528015137e-01
-1.891518086194992065e-01
2.338827699422836304e-01
-2.987262308597564697e-01
5.449582934379577637e-01
3.280434608459472656e-01
5.252109467983245850e-02
1.696730256080627441e-01
-8.066667616367340088e-02
-1.104478351771831512e-02
-1.262625008821487427e-01
1.711832284927368164e-01
-1.129704564809799194e-01
4.550705105066299438e-02
4.738929271697998047e-01
1.276903599500656128e-01
3.810073062777519226e-02
-1.609886065125465393e-02
-5.113647580146789551e-01
5.576467514038085938e-02
1.020283102989196777e+00
1.157105207443237305e+00
-1.278412640094757080e-01
1.422263234853744507e-01
-1.825833320617675781e+00
6.150080822408199310e-03
2.278198003768920898e-01
-1.243929043412208557e-01
-2.318249046802520752e-01
3.254240378737449646e-02
-1.394971013069152832e-01
1.134727671742439270e-01
5.685497522354125977e-01
4.810230433940887451e-01
5.269687622785568237e-02
-2.414140850305557251e-01
2.686873078346252441e-01
-3.103616647422313690e-02
3.619044125080108643e-01
7.448752969503402710e-02
-4.420115351676940918e-01
-1.269250035285949707e+00
2.776084542274475098e-01
-3.953677415847778320e-01
4.021972119808197021e-01
8.325875401496887207e-01
-5.609511137008666992e-01
5.790485143661499023e-01
1.878494620323181152e+00
-4.211650788784027100e-01
3.312820494174957275e-01
-4.067883193492889404e-01
1.325026303529739380e-01
4.016366958618164062e+00
5.238381624221801758e-01
2.556560933589935303e-01
-2.078496068716049194e-01
-4.852547943592071533e-01
-6.251909136772155762e-01
-3.971912860870361328e-01
3.317631185054779053e-01
5.470522865653038025e-02
-6.463403701782226562e-01
2.545201033353805542e-02
-1.921303421258926392e-01
7.878898829221725464e-02
6.978527903556823730e-01
6.444093585014343262e-01
-2.842649072408676147e-02
-2.781018242239952087e-02
-1.090293452143669128e-01
-2.460124492645263672e-01
-7.601343840360641479e-02
1.650509387254714966e-01
-7.945970892906188965e-01
2.646713554859161377e-01
5.817545652389526367e-01
1.120731011033058167e-01
-2.921836972236633301e-01
1.613587141036987305e-02
3.037214577198028564e-01
2.201416492462158203e-01
-3.239009678363800049e-01
1.704982668161392212e-02
8.880814909934997559e-01
-2.590031027793884277e-01
3.829756379127502441e-01
3.128539025783538818e-01
4.307009577751159668e-01
-8.135905116796493530e-02
2.649397961795330048e-02
4.022425711154937744e-01
-9.214513748884201050e-02
5.929541587829589844e-01
-1.731028407812118530e-01
5.229663252830505371e-01
5.368860960006713867e-01
-4.384170770645141602e-01
1.807755082845687866e-01
9.154253453016281128e-02
-1.964877694845199585e-01
2.956536412239074707e-01
-7.476784586906433105e-01
3.771155606955289841e-03
-9.576240554451942444e-03
4.533881843090057373e-01
-3.341807723045349121e-01
-1.622042953968048096e-01
4.634010195732116699e-01
-1.134715437889099121e+00
-2.071913629770278931e-01
-7.826139032840728760e-02
-3.207284510135650635e-01
3.561444580554962158e-01
-2.891121432185173035e-03
1.184329912066459656e-01
1.627832502126693726e-01
-2.781902672722935677e-03
1.650174409151077271e-01
2.004806250333786011e-01
1.631865203380584717e-01
-7.509412243962287903e-03
6.154731847345829010e-03
-6.355807781219482422e-01
6.636852771043777466e-02
5.902560949325561523e-01
-6.122767329216003418e-01
4.555141329765319824e-01
6.377046108245849609e-01
-6.456728577613830566e-01
2.145547121763229370e-01
1.325256377458572388e-01
2.058879733085632324e-01
7.451952695846557617e-01
3.673386946320533752e-02
-1.291208341717720032e-02
8.277363330125808716e-02
1.233951002359390259e-01
-6.149724721908569336e-01
4.987994134426116943e-01
-7.006846666336059570e-01
6.272464394569396973e-01
-1.230693683028221130e-01
-4.068598151206970215e-02
2.117382548749446869e-02
6.446048021316528320e-01
4.118803441524505615e-01
1.564787328243255615e-01
3.286920785903930664e-01
-2.225521206855773926e-01
-3.228735327720642090e-01
-6.777127087116241455e-02
-2.163912206888198853e-01
3.205554485321044922e-01
3.326988816261291504e-01
-1.962739378213882446e-01
-7.413406968116760254e-01
5.996248498558998108e-02
-2.058740109205245972e-01
5.764639936387538910e-03
-1.251789275556802750e-03
1.589892387390136719e+00
-2.421186119318008423e-01
-1.148869156837463379e+00
-7.330257296562194824e-01
-4.243832826614379883e-01
-1.994920670986175537e-01
-4.279919564723968506e-01
-3.559173643589019775e-01
1.792488396167755127e-01
2.348099090158939362e-02
-3.634502291679382324e-01
3.688345551490783691e-01
-4.292332828044891357e-01
4.090365469455718994e-01
-4.029412567615509033e-01
-2.608163952827453613e-01
3.347579538822174072e-01
-1.156965047121047974e-01
-4.451934397220611572e-01
2.324810773134231567e-01
1.227370351552963257e-01
3.538577556610107422e-01
-1.514190882444381714e-01
6.925023347139358521e-02
-8.306418545544147491e-03
-5.850961059331893921e-02
2.760299742221832275e-01
-9.319057315587997437e-02
-4.717386886477470398e-02
-6.051491498947143555e-01
4.318948388099670410e-01
-1.742622554302215576e-01
-2.067748457193374634e-01
-2.338773906230926514e-01
4.245736598968505859e-01
1.800846576690673828e+00
-2.169250100851058960e-01
3.332729265093803406e-02
2.910540997982025146e-01
-7.483349740505218506e-02
-1.265677094459533691e+00
-7.507675886154174805e-02
-5.477306246757507324e-01
-4.050968885421752930e-01
-7.269986718893051147e-02
1.093665137887001038e-01
-3.610508143901824951e-01
-8.738065361976623535e-01
-2.523918747901916504e-01
1.111659780144691467e-01
-4.216976165771484375e-01
3.915899395942687988e-01
-1.147992253303527832e+00
4.848326742649078369e-01
-1.079100072383880615e-01
-2.171252369880676270e-01
6.994327306747436523e-01
-5.126237124204635620e-02
-7.057538628578186035e-01
6.494061350822448730e-01
6.226742863655090332e-01
3.027972579002380371e-01
-2.080285251140594482e-01
4.053252562880516052e-02
-1.611404716968536377e-01
-5.321765691041946411e-02
1.978731006383895874e-01
5.404013991355895996e-01
1.066807284951210022e-01
-1.346419304609298706e-01
3.050343990325927734e-01
-8.341458439826965332e-01
3.759936988353729248e-01
-4.971994161605834961e-01
3.234141170978546143e-01
6.151150465011596680e-01
-6.318484544754028320e-01
6.131503358483314514e-02
3.291692435741424561e-01
-5.403225421905517578e-01
-4.057429432868957520e-01
-7.250922918319702148e-01
-1.186004653573036194e-01
-2.793669104576110840e-01
-2.956923246383666992e-01
-5.760911703109741211e-01
4.540709257125854492e-01
1.297806669026613235e-02
-5.868219137191772461e-01
1.440300047397613525e-01
2.083121053874492645e-02
4.430135488510131836e-01
-3.314402997493743896e-01
-1.081550046801567078e-01
-1.351993232965469360e-01
1.748521566390991211e+00
4.120422899723052979e-01
2.194838523864746094e-01
7.807008922100067139e-02
2.752068340778350830e-01
-4.047391712665557861e-01
-4.733440279960632324e-01
-1.324199140071868896e-01
-2.520161867141723633e-02
-1.092499256134033203e+00
-1.767912805080413818e-01
6.303948815912008286e-03
5.758329480886459351e-02
1.965174198150634766e+00
1.079296097159385681e-01
-2.817637026309967041e-01
-5.438441634178161621e-01
3.015128076076507568e-01
3.464156389236450195e-01
5.956466868519783020e-02
1.118418574333190918e+00
-2.319679707288742065e-01
-1.987840384244918823e-01
-7.842645794153213501e-02
-1.425946801900863647e-01
-3.887686133384704590e-02
-3.712613284587860107e-01
-1.446720480918884277e+00
4.797493815422058105e-01
-1.048068851232528687e-01
2.632283978164196014e-02
5.807087421417236328e-01
7.348936200141906738e-01
7.425375282764434814e-02
-3.246470987796783447e-01
1.776224821805953979e-01
-4.571887850761413574e-01
6.450628638267517090e-01
-2.995330393314361572e-01
4.814975261688232422e-01
2.854205667972564697e-01
-2.998010814189910889e-01
7.133195549249649048e-02
5.084204673767089844e-01
-2.999048233032226562e-01
-3.183029592037200928e-01
-4.541489183902740479e-01
-3.610794618725776672e-02
9.420251846313476562e-02
1.017772853374481201e-01
-8.186451792716979980e-01
1.949519515037536621e-01
-3.087498433887958527e-02
3.828125596046447754e-01
-1.541330516338348389e-01
3.967098295688629150e-01
2.711675465106964111e-01
1.148694381117820740e-02
-4.871052801609039307e-01
2.989035248756408691e-01
-2.656785964965820312e+00
3.872656077146530151e-02
1.330483108758926392e-01
3.378751873970031738e-01
-4.108535349369049072e-01
2.904477715492248535e-01
-2.411413192749023438e-02
-5.929830670356750488e-01
2.394354194402694702e-01
-2.705524563789367676e-01
-1.480793207883834839e-01
3.587620258331298828e-01
1.795551031827926636e-01
-1.209184527397155762e-01
2.371793091297149658e-01
2.879762351512908936e-01
-8.138787150382995605e-01
4.892456233501434326e-01
2.642015926539897919e-02
2.822634279727935791e-01
-2.480898618698120117e+00
-3.364558517932891846e-01
5.155192017555236816e-01
2.750967144966125488e-01
-1.232780143618583679e-01
5.453616976737976074e-01
-3.197733461856842041e-01
5.419262647628784180e-01
-6.804367899894714355e-01
-1.120199188590049744e-01
1.911394596099853516e-01
-3.509134054183959961e-01
-1.198960766196250916e-01
-7.458534240722656250e-01
-8.751724660396575928e-02
-5.313181877136230469e-01
1.260252743959426880e-01
-3.677564859390258789e-01
2.364016622304916382e-01
-4.078218936920166016e-01
-1.771191358566284180e-01
6.257937103509902954e-02
-1.968844234943389893e-01
-4.414818882942199707e-01
4.672368466854095459e-01
6.660824269056320190e-02
-1.129112988710403442e-01
3.086894936859607697e-02
-1.826647073030471802e-01
-4.891255199909210205e-01
-4.453525692224502563e-02
9.754136204719543457e-02
1.274502128362655640e-01
1.099834203720092773e+00
2.349729686975479126e-01
2.215493917465209961e-01
-8.247562646865844727e-01
1.518206447362899780e-01
-1.670154929161071777e-01
-1.126452907919883728e-01
6.216844320297241211e-01
-5.280041098594665527e-01
4.745193123817443848e-01
1.086035668849945068e-01
-2.520370781421661377e-01
-2.647202089428901672e-02
-1.510397940874099731e-01
4.285268783569335938e-01
-1.366800218820571899e-01
1.107356548309326172e+00
4.062104597687721252e-02
-1.212953999638557434e-01
7.460523396730422974e-02
3.321444690227508545e-01
-7.832571268081665039e-01
8.706782013177871704e-02
-1.988151371479034424e-01
7.609333097934722900e-02
2.214424163103103638e-01
2.162443995475769043e-01
6.342412531375885010e-02
-4.202762246131896973e-01
-2.713792622089385986e-01
1.726984679698944092e-01
-7.598878443241119385e-02
-2.376791834831237793e-01
1.132091879844665527e+00
-8.615402579307556152e-01
-3.792808651924133301e-01
5.116094350814819336e-01
1.779000158421695232e-04
2.596605718135833740e-01
1.004167437553405762e+00
-3.947027921676635742e-01
-7.655452191829681396e-02
3.051015734672546387e-01
-1.426091194152832031e-01
1.922167241573333740e-01
-1.250540465116500854e-01
1.039264947175979614e-01
-8.809813857078552246e-02
-2.447204142808914185e-01
5.155174136161804199e-01
4.382461011409759521e-01
-7.292228937149047852e-02
-1.660012453794479370e-01
-5.604796856641769409e-02
-4.548330903053283691e-01
1.151905581355094910e-02
-8.190062046051025391e-01
-6.600043177604675293e-01
1.026558637619018555e+00
2.281303331255912781e-02
5.626760050654411316e-02
-5.698474869132041931e-02
7.732853759080171585e-03
3.284191787242889404e-01
-2.316300123929977417e-01
1.086109280586242676e-01
4.671072065830230713e-01
5.857424139976501465e-01
1.749652922153472900e-01
1.278400123119354248e-01
8.321241289377212524e-02
9.191666543483734131e-02
-3.965777456760406494e-01
-1.279201030731201172e+00
8.781509846448898315e-02
3.169740736484527588e-01
6.421929225325584412e-03
-2.306838333606719971e-02
1.113639250397682190e-01
2.481212764978408813e-01
2.500515580177307129e-01
3.623412847518920898e-01
1.061511993408203125e+00
-4.595398902893066406e-01
1.025868393480777740e-02
-1.488158553838729858e-01
4.189073443412780762e-01
3.388502299785614014e-01
-3.729695379734039307e-01
8.456527590751647949e-01
4.765791893005371094e-01
-1.544770598411560059e-01
1.211397871375083923e-01
-1.539998594671487808e-02
1.421726197004318237e-01
9.397126850672066212e-04
-3.225962519645690918e-01
-4.676603078842163086e-01
-3.960575442761182785e-03
-1.396039873361587524e-01
-2.916488237679004669e-02
5.118174552917480469e-01
2.316688597202301025e-01
3.074760735034942627e-01
-2.719004154205322266e-01
-6.375233829021453857e-02
6.206835061311721802e-02
2.909289002418518066e-01
4.262598752975463867e-01
-3.904804289340972900e-01
-2.258872538805007935e-01
-2.799895405769348145e-02
-4.839980602264404297e-02
6.139429807662963867e-01
3.563832640647888184e-01
1.480476856231689453e-01
-1.706625938415527344e+00
-1.270698606967926025e-01
1.550551205873489380e-01
2.264310121536254883e-01
2.755350172519683838e-01
1.822057217359542847e-01
-2.150157690048217773e-01
-4.250543415546417236e-01
4.866025149822235107e-01
2.312133759260177612e-01
1.093697622418403625e-01
4.083560109138488770e-01
-8.071603775024414062e-01
-1.471145153045654297e-01
4.720171391963958740e-01
-4.800270497798919678e-01
-3.861976265907287598e-01
-2.818067669868469238e-01
1.946011185646057129e-01
-1.238524243235588074e-01
1.793288886547088623e-01
-2.168018557131290436e-02
-1.835319250822067261e-01
3.257923424243927002e-01
-1.543848812580108643e-01
3.150055110454559326e-01
9.530945122241973877e-02
-2.359275817871093750e-01
5.979866981506347656e-01
1.870266199111938477e-01
-1.156725510954856873e-01
-3.836789429187774658e-01
2.272464036941528320e-01
-3.384805470705032349e-02
3.243731260299682617e-01
1.053855866193771362e-01
3.708592951297760010e-01
3.622902929782867432e-02
-1.749518364667892456e-01
-1.323819756507873535e+00
-1.110625416040420532e-01
3.989913687109947205e-02
4.317987561225891113e-01
4.144376516342163086e-01
1.684913877397775650e-03
-3.561111539602279663e-02
1.482459902763366699e-01
2.046637982130050659e-01
1.362808048725128174e-01
-9.529532492160797119e-02
6.753593683242797852e-02
-6.388926506042480469e-01
3.664512932300567627e-01
-1.356910347938537598e+00
-5.900220274925231934e-01
3.198993504047393799e-01
3.749344944953918457e-01
9.487579762935638428e-02
4.609596431255340576e-01
-1.114232814870774746e-03
1.975084245204925537e-01
-2.888801693916320801e-01
-1.743347197771072388e-01
2.623316049575805664e-01
-1.785998046398162842e-01
-1.239639371633529663e-01
4.263417422771453857e-01
-6.367507576942443848e-01
2.574389278888702393e-01
1.111730456352233887e+00
-5.291030406951904297e-01
-2.938431501388549805e-01
-1.162654608488082886e-01
3.237430453300476074e-01
7.991378754377365112e-02
1.405424773693084717e-01
4.939010143280029297e-01
-4.055321216583251953e-03
3.636311739683151245e-02
7.589688301086425781e-01
2.747575342655181885e-01
-1.049849018454551697e-01
1.666587218642234802e-02
6.065023541450500488e-01
-1.552249044179916382e-01
3.021293580532073975e-01
1.643319964408874512e+00
-1.506842255592346191e+00
2.584755718708038330e-01
7.689921557903289795e-02
-1.826532483100891113e-01
-5.291701555252075195e-01
1.216595992445945740e-01
9.081388264894485474e-02
3.703351914882659912e-01
6.014149785041809082e-01
4.818581342697143555e-01
-1.868339776992797852e-01
2.137546092271804810e-01
2.229549407958984375e+00
-4.880867004394531250e-01
-1.607220023870468140e-01
6.715082377195358276e-02
-1.783192604780197144e-01
7.594928890466690063e-02
-4.148594141006469727e-01
3.221091628074645996e-01
1.009898185729980469e+00
-4.939100742340087891e-01
-6.087643653154373169e-02
4.418723285198211670e-01
4.500255882740020752e-01
2.177714705467224121e-01
1.517536342144012451e-01
2.301383316516876221e-01
-3.242089748382568359e-01
-5.383100509643554688e-01
-3.875780105590820312e-02
-1.980868875980377197e-01
-4.276634156703948975e-01
-5.410173535346984863e-01
-2.757052481174468994e-01
3.693633899092674255e-02
-4.159724712371826172e-02
3.073635697364807129e-01
-2.135308384895324707e-01
-1.067711114883422852e+00
-2.253399610519409180e+00
-1.110721081495285034e-01
-4.313967525959014893e-01
5.910779535770416260e-02
-9.551379084587097168e-02
-9.792050719261169434e-02
4.852741584181785583e-02
-4.183177053928375244e-01
-1.298859268426895142e-01
-9.281303733587265015e-02
7.677534222602844238e-01
-5.652770400047302246e-01
2.994658984243869781e-02
-1.450258791446685791e-01
1.206938549876213074e-01
3.047895729541778564e-01
-7.876594364643096924e-02
3.118904232978820801e-01
-2.498191297054290771e-01
1.631056666374206543e-01
5.968314409255981445e-01
1.325203627347946167e-01
1.499811053276062012e+00
-2.291819453239440918e-01
2.072938829660415649e-01
-6.041286513209342957e-03
6.285324096679687500e-01
-3.087827861309051514e-01
3.493402898311614990e-01
-1.381574720144271851e-01
2.209363132715225220e-01
-5.259550213813781738e-01
1.371658205986022949e+00
2.296382486820220947e-01
4.625736773014068604e-01
-4.232111871242523193e-01
-6.263086944818496704e-02
2.749642729759216309e-01
-3.690058290958404541e-01
6.984300017356872559e-01
4.611704945564270020e-01
-2.591232359409332275e-01
-1.256521791219711304e-01
-2.659957669675350189e-02
-4.131739214062690735e-02
1.744431406259536743e-01
-2.758833765983581543e-01
4.652822017669677734e-01
3.403045833110809326e-01
6.317714601755142212e-02
-3.599018752574920654e-01
-6.748046875000000000e-01
-2.673774212598800659e-02
-1.488933116197586060e-01
1.389512717723846436e-01
1.147922500967979431e-01
-5.177069902420043945e-01
1.565295853652060032e-03
-1.873938441276550293e-01
-4.868985116481781006e-01
8.366288542747497559e-01
-4.882414638996124268e-01
-3.248950839042663574e-01
2.181565314531326294e-01
5.692386627197265625e-01
-2.553198933601379395e-01
1.758701801300048828e-01
-1.423874050378799438e-01
-5.731774494051933289e-02
-5.414903163909912109e-01
-1.857259273529052734e-01
-6.968948245048522949e-02
-1.447304934263229370e-01
2.556518614292144775e-01
3.222073614597320557e-01
-2.099419981241226196e-01
-3.521851301193237305e-01
-8.721182495355606079e-02
-1.493407338857650757e-01
-2.750469744205474854e-01
7.784159183502197266e-01
-3.191997483372688293e-02
-7.628577947616577148e-02
5.590854287147521973e-01
1.908797472715377808e-01
1.643945127725601196e-01
7.370096445083618164e-02
-1.109674498438835144e-01
-5.995468795299530029e-02
-4.289649724960327148e-01
3.157113790512084961e-01
-3.115584701299667358e-02
2.792768646031618118e-03
-3.040628731250762939e-01
-7.873425483703613281e-01
3.983246162533760071e-02
-1.014129295945167542e-01
-2.485249750316143036e-02
1.617667265236377716e-02
-2.222126424312591553e-01
1.364588588476181030e-01
-2.430235594511032104e-02
-1.678036339581012726e-02
7.904940843582153320e-01
-1.244352310895919800e-01
8.415502309799194336e-02
8.773611858487129211e-03
-2.013794034719467163e-01
-4.842516034841537476e-02
-8.701623417437076569e-03
4.433320090174674988e-02
-4.815934970974922180e-02
2.573298811912536621e-01
-5.414227843284606934e-01
-5.271328687667846680e-01
-7.925859093666076660e-02
-3.713208436965942383e-01
3.292456269264221191e-02
-1.496642529964447021e-01
-3.442947566509246826e-01
1.381813764572143555e+00
-3.807000815868377686e-01
1.457726061344146729e-01
2.452836185693740845e-01
2.059047669172286987e-01
5.017222836613655090e-02
-6.321409344673156738e-01
-3.240675106644630432e-02
-1.634740382432937622e-01
-2.275398820638656616e-01
-1.137327253818511963e-01
2.262023091316223145e-01
-1.342444568872451782e-01
-2.415190637111663818e-02
-9.136173874139785767e-02
-1.837645471096038818e-01
-6.398661732673645020e-01
8.420357853174209595e-02
-3.262484669685363770e-01
-1.016336441040039062e+00
8.289864659309387207e-01
-1.537056118249893188e-01
-1.343273043632507324e+00
7.676978707313537598e-01
2.133273631334304810e-01
1.381338983774185181e-01
7.879480719566345215e-02
-1.089589148759841919e-01
-3.843997120857238770e-01
-1.617423444986343384e-01
1.404004395008087158e-01
-8.337854593992233276e-02
-2.010110169649124146e-01
5.116733908653259277e-02
2.550655603408813477e-01
2.107903659343719482e-01
-9.866870045661926270e-01
-7.440360635519027710e-02
5.085667595267295837e-02
-9.274935126304626465e-01
2.502734661102294922e-01
-1.930609792470932007e-01
-6.934435665607452393e-02
6.595422029495239258e-01
1.033376231789588928e-01
-2.381680011749267578e-01
8.578363060951232910e-02
3.278394043445587158e-02
-1.595518738031387329e-01
-2.620014846324920654e-01
1.103345379233360291e-01
1.427790969610214233e-01
3.839102089405059814e-01
6.288853287696838379e-01
1.432967782020568848e-01
-5.454248785972595215e-01
1.205885261297225952e-01
-3.202359378337860107e-02
1.254440993070602417e-01
-2.585262358188629150e-01
-4.447862878441810608e-02
3.943064808845520020e-01
3.050765395164489746e-02
-1.878310739994049072e-01
7.897016406059265137e-02
1.425545215606689453e-01
6.444436311721801758e-02
5.167127251625061035e-01
-1.167891621589660645e-01
2.585825696587562561e-02
-5.328099057078361511e-02
2.866885438561439514e-02
-5.409218072891235352e-01
-8.538356423377990723e-02
-5.432878732681274414e-01
4.342990219593048096e-01
8.645957112312316895e-01
-1.840313822031021118e-01
3.618885874748229980e-01
4.776436090469360352e-01
-9.632904529571533203e-01
2.812851071357727051e-01
1.173443794250488281e+00
-3.999618589878082275e-01
-3.834201395511627197e-01
-2.636590600013732910e-01
2.426610514521598816e-02
-1.582467108964920044e-01
2.228336483240127563e-01
4.868391752243041992e-01
2.887258231639862061e-01
-7.045319676399230957e-02
-1.881242692470550537e-01
1.027182459831237793e+00
-7.312170863151550293e-01
-3.105537593364715576e-01
1.100806966423988342e-01
-8.979787230491638184e-01
5.298393964767456055e-01
3.044717311859130859e-01
-1.945017129182815552e-01
6.258676648139953613e-01
-2.696648538112640381e-01
-7.413471341133117676e-01
-3.419891595840454102e-01
-1.208961009979248047e-01
2.454466372728347778e-02
6.510895490646362305e-01
2.568223476409912109e-01
4.053040742874145508e-01
-1.399839818477630615e-01
6.649254560470581055e-01
-3.653521537780761719e-01
2.981756627559661865e-01
1.593234948813915253e-02
-6.985850632190704346e-02
1.240998581051826477e-01
5.552743747830390930e-02
1.597291231155395508e-01
5.027009248733520508e-01
8.919808864593505859e-01
2.592493891716003418e-01
-2.219443172216415405e-01
-3.558008074760437012e-01
-1.112107783555984497e-01
-9.493323415517807007e-02
-7.824277281761169434e-01
1.732671707868576050e-01
5.944579243659973145e-01
1.751545667648315430e-01
-1.252773702144622803e-01
-4.361394420266151428e-02
-5.118713974952697754e-01
5.010139346122741699e-01
-6.664775311946868896e-02
2.655321657657623291e-01
1.334192752838134766e-01
-3.987711966037750244e-01
3.349974155426025391e-01
6.762163341045379639e-02
-5.623072981834411621e-01
4.423475861549377441e-01
-1.818483829498291016e+00
-2.902844250202178955e-01
-4.313600659370422363e-01
1.026682779192924500e-01
-6.928463578224182129e-01
1.804670244455337524e-01
-2.531817853450775146e-01
3.034628033638000488e-01
-6.181676983833312988e-01
3.614836633205413818e-01
4.123340547084808350e-01
6.701986491680145264e-02
4.494476020336151123e-01
6.306993365287780762e-01
-8.110956549644470215e-01
3.881912529468536377e-01
-2.190710753202438354e-01
-1.090672969818115234e+00
2.460407614707946777e-01
-2.296096980571746826e-01
4.835168719291687012e-01
5.185359343886375427e-02
1.198801100254058838e-01
-1.682408154010772705e-01
4.647813141345977783e-01
-2.773639000952243805e-02
-1.959103047847747803e-01
-3.800813257694244385e-01
5.845080129802227020e-03
-1.916543543338775635e-01
-3.650293052196502686e-01
-1.379167288541793823e-01
5.961905047297477722e-02
-4.112410359084606171e-03
6.619080901145935059e-02
3.211997747421264648e-01
-4.715034738183021545e-02
-1.811324656009674072e-01
2.247003912925720215e-01
-5.814651772379875183e-02
-1.641606211662292480e+00
1.353674978017807007e-01
2.751062512397766113e-01
-7.116790115833282471e-02
-1.575155019760131836e+00
-1.648101061582565308e-01
3.875300288200378418e-01
-1.459464728832244873e-01
1.041024830192327499e-02
-1.522990912199020386e-01
5.883739590644836426e-01
3.681731820106506348e-01
6.059994697570800781e-01
-5.520994067192077637e-01
-3.837709128856658936e-02
7.331085205078125000e-02
2.378208637237548828e-01
-3.714480996131896973e-01
-1.183812767267227173e-01
-4.086778461933135986e-01
-1.697392314672470093e-01
1.662270911037921906e-02
-2.847291827201843262e-01
9.927272796630859375e-03
3.460150063037872314e-01
1.833159923553466797e-01
2.120851278305053711e-01
-9.044849127531051636e-02
-9.862118214368820190e-02
-3.849776983261108398e-01
5.090276598930358887e-01
-4.032230973243713379e-01
-4.737491905689239502e-01
1.029599905014038086e-01
-3.140196800231933594e-01
-5.727349221706390381e-02
-5.129253864288330078e-01
3.195627629756927490e-01
2.914119884371757507e-02
1.302090138196945190e-01
-6.334024667739868164e-02
4.191062748432159424e-01
5.020731687545776367e-01
6.109892576932907104e-02
-3.424857258796691895e-01
-1.140576899051666260e-01
-3.518924713134765625e-01
1.946618407964706421e-01
-1.816731542348861694e-01
-7.001910358667373657e-02
6.137901917099952698e-02
-1.997211128473281860e-01
-7.974491119384765625e-01
5.640050768852233887e-01
1.494859345257282257e-02
2.428347170352935791e-01
-7.056073844432830811e-02
6.838286519050598145e-01
5.461463928222656250e-01
3.413805365562438965e-01
5.770936608314514160e-01
4.475511312484741211e-01
6.896594166755676270e-01
-7.938569784164428711e-02
-3.066370785236358643e-01
-2.881552577018737793e-01
-3.649460971355438232e-01
-3.832489550113677979e-01
2.873473465442657471e-01
5.103966221213340759e-02
-9.057062864303588867e-01
-2.339616417884826660e-01
-5.148721933364868164e-01
5.776482224464416504e-01
1.007833182811737061e-01
-2.399710565805435181e-01
6.837828755378723145e-01
1.680907905101776123e-01
2.761172354221343994e-01
3.589181229472160339e-02
2.873976714909076691e-02
6.857002153992652893e-04
2.625755220651626587e-02
4.842704236507415771e-01
3.369846614077687263e-03
1.332834213972091675e-01
-1.026931554079055786e-01
2.118834257125854492e-01
-1.022337935864925385e-02
-1.371951699256896973e-01
1.910642147064208984e+00
-5.419171452522277832e-01
-3.639589846134185791e-01
4.039012491703033447e-01
-2.196899801492691040e-01
7.712376862764358521e-02
-2.364488132297992706e-02
2.113219350576400757e-01
2.551625370979309082e-01
2.084790468215942383e-01
2.925675213336944580e-01
4.106547832489013672e-01
1.694043725728988647e-01
-2.041342109441757202e-01
-2.481251507997512817e-01
-2.598175704479217529e-01
-1.468336116522550583e-02
2.142546698451042175e-02
1.683934479951858521e-01
8.185284733772277832e-01
3.981317579746246338e-01
-4.180726408958435059e-01
-2.850402891635894775e-01
-5.008136630058288574e-01
-3.060851097106933594e-01
-2.960447371006011963e-01
-4.979000091552734375e-01
1.667755991220474243e-01
-3.342704102396965027e-02
-1.070517897605895996e-01
-4.062223434448242188e-02
2.447821646928787231e-01
4.178611040115356445e-01
2.756569683551788330e-01
-8.027268052101135254e-01
6.491984426975250244e-02
-4.751894995570182800e-02
4.079854488372802734e-01
-1.341380625963211060e-01
2.785036563873291016e-01
2.588497698307037354e-01
8.711633086204528809e-02
2.503675222396850586e-01
-3.494995832443237305e-01
-4.646762907505035400e-01
1.725477874279022217e-01
-3.909288048744201660e-01
-3.918061554431915283e-01
-2.969371676445007324e-01
-3.820759057998657227e-01
-9.483878500759601593e-03
-3.921302855014801025e-01
-1.223513707518577576e-01
1.724730730056762695e-01
-1.528233289718627930e-01
4.710585474967956543e-01
2.237710505723953247e-01
3.097006306052207947e-02
2.393057383596897125e-02
-2.543357312679290771e-01
1.090908527374267578e+00
-1.369005739688873291e-01
5.338180065155029297e-02
-2.245959788560867310e-01
7.263690978288650513e-02
-3.838185667991638184e-01
-2.102362811565399170e-01
-4.245508611202239990e-01
-4.574526473879814148e-02
3.808530867099761963e-01
-2.808395326137542725e-01
-3.419216871261596680e-01
-1.196750532835721970e-02
-4.394469037652015686e-02
2.059644609689712524e-01
2.838220000267028809e-01
3.710727989673614502e-01
1.891344934701919556e-01
4.664503335952758789e-01
1.286444664001464844e-01
5.294752120971679688e-01
6.906908154487609863e-01
-8.878378570079803467e-02
2.651098072528839111e-01
3.568133413791656494e-01
4.405772984027862549e-01
-4.089315831661224365e-01
5.011726543307304382e-02
-1.008069813251495361e-01
-1.738640516996383667e-01
1.438614130020141602e-01
-6.929625272750854492e-01
-4.173386394977569580e-01
-1.782881021499633789e-01
7.225266098976135254e-01
-2.462442815303802490e-01
-2.660161815583705902e-02
-4.120637774467468262e-01
1.378108002245426178e-02
1.109080761671066284e-01
-3.163145482540130615e-01
-7.728509604930877686e-02
9.520065784454345703e-02
3.475984930992126465e-01
1.694177836179733276e-02
-6.232652068138122559e-01
-3.062211349606513977e-02
5.928320810198783875e-02
-3.446627855300903320e-01
1.445603817701339722e-01
-2.751207649707794189e-01
-6.128923967480659485e-02
2.240166217088699341e-01
2.164632976055145264e-01
9.110784530639648438e-02
2.713897824287414551e-01
-2.357941567897796631e-01
-1.652276813983917236e-01
2.328318953514099121e-01
1.175318509340286255e-01
-1.197828292846679688e+00
-3.495861291885375977e-01
4.412330314517021179e-02
-2.983267605304718018e-01
-2.848028242588043213e-01
-1.151219904422760010e-01
3.575269579887390137e-01
5.579245463013648987e-02
-1.108193397521972656e-01
-6.815628409385681152e-01
-3.255589902400970459e-01
-8.114798367023468018e-02
6.974557638168334961e-01
5.236912965774536133e-01
-6.245713308453559875e-02
1.102639436721801758e-01
-7.676306366920471191e-02
1.859136074781417847e-01
3.833106458187103271e-01
3.702576160430908203e-01
7.555568218231201172e-02
-5.538742989301681519e-02
-2.357942014932632446e-01
1.752878725528717041e-01
3.371155261993408203e-01
3.559641540050506592e-01
-2.275103703141212463e-02
-5.200348421931266785e-02
3.934861123561859131e-01
2.369763888418674469e-02
1.613958179950714111e-01
1.525434255599975586e-01
-1.654252707958221436e-01
1.977183222770690918e-01
5.540791153907775879e-01
-6.229886412620544434e-01
-7.158686518669128418e-01
-9.126655012369155884e-02
3.412450850009918213e-01
3.056964874267578125e-01
3.463048636913299561e-01
4.574890136718750000e-01
3.305838704109191895e-01
-6.720303297042846680e-01
-1.325066983699798584e-01
-1.956959217786788940e-01
-5.489897727966308594e-02
-2.377092093229293823e-01
-3.349479734897613525e-01
-6.620865464210510254e-01
-3.916616141796112061e-01
-6.235766410827636719e-01
-4.354057610034942627e-01
2.066896408796310425e-01
4.537990391254425049e-01
1.470115333795547485e-01
5.207509994506835938e-01
2.373526692390441895e-01
-2.556697428226470947e-01
-2.378993034362792969e-01
7.300982624292373657e-02
-1.062197536230087280e-01
-6.427345275878906250e-01
1.870411336421966553e-01
-1.058987975120544434e-01
1.885605156421661377e-01
1.567836403846740723e-01
7.564228177070617676e-01
7.958326339721679688e-01
8.433935791254043579e-02
5.297353863716125488e-01
7.194010019302368164e-01
6.855478286743164062e-01
-4.960211515426635742e-01
-2.973449826240539551e-01
-7.467076182365417480e-02
-2.707038819789886475e-01
-3.883514925837516785e-02
2.642579078674316406e-01
1.280725896358489990e-01
-9.465750306844711304e-02
-4.762560427188873291e-01
-1.968831568956375122e-01
2.263414114713668823e-01
-3.579411208629608154e-01
4.017498493194580078e-01
-1.062421426177024841e-01
5.311163663864135742e-01
5.186476930975914001e-02
6.838719248771667480e-01
3.775562942028045654e-01
-3.817449808120727539e-01
9.373607635498046875e-01
-3.390770554542541504e-01
-4.662750661373138428e-01
-2.062667906284332275e-01
2.636627554893493652e-01
5.176299810409545898e-02
5.760057568550109863e-01
-8.849313259124755859e-01
2.076364159584045410e-01
6.127812340855598450e-02
2.377488315105438232e-01
-2.519119083881378174e-01
-4.748815000057220459e-01
-5.655118227005004883e-01
-3.521008491516113281e-01
-5.360743999481201172e-01
-3.535278737545013428e-01
-2.092995196580886841e-01
-5.912731885910034180e-01
5.404437333345413208e-02
-3.455058634281158447e-01
2.067342698574066162e-01
3.649356365203857422e-01
9.687338471412658691e-01
1.228847503662109375e-01
6.637703180313110352e-01
-3.240466117858886719e-01
-7.081949114799499512e-01
8.424198031425476074e-01
-3.677172660827636719e-01
-2.616119682788848877e-01
-2.163818776607513428e-01
7.013783603906631470e-02
-4.289156198501586914e-01
-7.888438701629638672e-01
-1.281446814537048340e-01
-1.273378133773803711e-01
1.256304234266281128e-01
5.408650636672973633e-02
-5.403245240449905396e-02
-6.418201141059398651e-03
-3.569613099098205566e-01
1.402349472045898438e-01
1.109575405716896057e-01
2.306976616382598877e-01
2.218972444534301758e-01
-2.608723938465118408e-01
7.280185073614120483e-02
4.839937686920166016e-01
-4.888426661491394043e-01
-4.029412269592285156e-01
1.231503367424011230e+00
-2.911510644480586052e-03
-1.587294787168502808e-01
8.626796603202819824e-01
3.836632072925567627e-01
-9.347939491271972656e-02
-4.190795123577117920e-02
4.603853225708007812e-01
2.363095432519912720e-01
-2.796724066138267517e-02
1.067330390214920044e-01
-4.005271196365356445e-01
-1.087181344628334045e-01
3.551978766918182373e-01
6.418031454086303711e-02
9.485524892807006836e-02
2.194385528564453125e-01
8.015593886375427246e-02
4.665137827396392822e-01
-2.269644849002361298e-02
2.496326565742492676e-01
1.953595578670501709e-01
4.914093911647796631e-01
2.429718673229217529e-01
3.695735242217779160e-03
3.468275964260101318e-01
-5.241104960441589355e-01
-8.674263954162597656e-02
7.548109441995620728e-02
-5.134555697441101074e-01
-1.973955482244491577e-01
-1.587872356176376343e-01
-2.701004147529602051e-01
1.354060322046279907e-01
-3.250975012779235840e-01
-5.391924977302551270e-01
-1.210504323244094849e-01
3.889266550540924072e-01
-1.502720266580581665e-01
-1.613142341375350952e-01
1.122937560081481934e+00
-9.711925685405731201e-02
-2.517019808292388916e-01
3.727582395076751709e-01
3.914679288864135742e-01
4.051211178302764893e-01
2.195517718791961670e-02
4.347118437290191650e-01
-1.330598890781402588e-01
3.637074232101440430e-01
-2.097837626934051514e-01
-4.304576516151428223e-01
-5.505719184875488281e-01
3.400158584117889404e-01
-3.286143066361546516e-03
1.697545498609542847e-01
-7.041727192699909210e-03
-1.959092617034912109e-01
7.955018877983093262e-01
2.769975364208221436e-01
-3.076927065849304199e-01
1.705864518880844116e-01
2.433815896511077881e-01
-8.728996664285659790e-02
-2.960738241672515869e-01
-2.269150689244270325e-02
-2.876249849796295166e-01
-2.384722530841827393e-01
-4.637378752231597900e-01
-1.121012493968009949e-01
-1.456937193870544434e-01
5.405949950218200684e-01
-1.229918226599693298e-01
-2.211306989192962646e-01
-4.342554509639739990e-01
2.294435948133468628e-01
-2.944793105125427246e-01
-1.043029353022575378e-01
-4.932117164134979248e-01
-1.772382110357284546e-01
-3.031537234783172607e-01
-2.256735414266586304e-01
4.488313496112823486e-01
2.863223850727081299e-01
1.873716115951538086e-01
4.127422347664833069e-02
6.209639832377433777e-02
-1.042725741863250732e-01
3.788142204284667969e-01
-5.275146365165710449e-01
-2.445163875818252563e-01
6.499021649360656738e-01
7.628957182168960571e-02
-5.982671678066253662e-02
2.022018134593963623e-01
-1.270997673273086548e-01
2.016289159655570984e-02
-1.703188866376876831e-01
1.076316982507705688e-01
-2.428854554891586304e-01
-6.286095976829528809e-01
-4.757832884788513184e-01
1.511099487543106079e-01
-6.741207093000411987e-02
8.427289128303527832e-01
-2.183409631252288818e-01
-2.498204857110977173e-01
1.191031336784362793e-01
1.511088758707046509e-02
-3.447346761822700500e-02
8.241487741470336914e-01
1.190284937620162964e-01
6.016902625560760498e-02
-4.234191179275512695e-01
6.278964281082153320e-01
-7.474445551633834839e-02
1.359484672546386719e+00
-2.349833995103836060e-01
-1.816238909959793091e-01
7.836454361677169800e-02
2.998027503490447998e-01
-1.162011101841926575e-01
-1.325266510248184204e-01
6.802914291620254517e-02
1.058157905936241150e-01
7.082874327898025513e-02
1.778209395706653595e-02
6.047397851943969727e-02
2.143532037734985352e-01
-2.397332489490509033e-01
-5.416396632790565491e-02
-3.533707857131958008e-01
1.838718727231025696e-02
1.438264250755310059e-01
-1.064262092113494873e-01
1.532620340585708618e-01
1.127436663955450058e-02
-4.028633236885070801e-02
-9.995743632316589355e-02
7.436569035053253174e-02
1.093390509486198425e-01
-6.542798597365617752e-03
-4.044078588485717773e-01
-3.340348973870277405e-02
-9.640002250671386719e-02
3.314498811960220337e-02
7.640940546989440918e-01
6.169835105538368225e-02
-6.901616603136062622e-02
2.060160040855407715e-01
2.863537147641181946e-02
-6.962490826845169067e-02
-3.352620899677276611e-01
-4.025023803114891052e-02
2.900828123092651367e-01
1.284252759069204330e-02
1.121524050831794739e-01
-2.082621306180953979e-01
9.056755900382995605e-02
8.249038946814835072e-04
