6.865629553794860840e-01
-3.675032258033752441e-01
-1.186170876026153564e-01
2.356655001640319824e-01
-3.379001915454864502e-01
7.989289164543151855e-01
-5.698772147297859192e-02
2.508259117603302002e-01
3.051237165927886963e-01
-1.165611743927001953e+00
-1.570351305417716503e-03
2.291450947523117065e-01
2.726310789585113525e-01
-2.244693189859390259e-01
-1.051103323698043823e-01
-1.091500639915466309e+00
-8.819914609193801880e-02
3.146456182003021240e-01
5.915392637252807617e-01
9.550694823265075684e-01
-9.934750199317932129e-02
-1.535169720649719238e+00
1.195482537150382996e-01
-5.696265101432800293e-01
-1.511656120419502258e-02
-6.656657457351684570e-01
1.863159686326980591e-01
1.054230570793151855e+00
-2.628823518753051758e-01
7.120886445045471191e-01
-1.037733480334281921e-01
3.024375438690185547e-01
3.408940434455871582e-01
-4.727902412414550781e-01
-4.409917593002319336e-01
-6.078393459320068359e-01
3.165825307369232178e-01
5.149958133697509766e-01
3.925045430660247803e-01
2.240311540663242340e-02
9.594553709030151367e-01
-8.244833946228027344e-01
7.804695367813110352e-01
-2.663885653018951416e-01
4.179179370403289795e-01
5.429478883743286133e-01
-7.775985002517700195e-01
6.987665891647338867e-01
-4.547283053398132324e-01
3.266811072826385498e-01
-2.024113833904266357e-01
-1.165806222707033157e-02
5.486609935760498047e-01
-7.064940929412841797e-01
1.217982649803161621e+00
-2.569949626922607422e-02
2.163165956735610962e-01
-7.613111138343811035e-01
1.463266730308532715e+00
6.472450494766235352e-01
2.467262744903564453e-01
-3.148181736469268799e-01
-1.337336152791976929e-01
9.396825730800628662e-02
2.905655205249786377e-01
1.393596082925796509e-01
1.699331700801849365e-01
9.054604172706604004e-01
-2.249644398689270020e-01
-8.967469930648803711e-01
1.987043768167495728e-01
1.381587609648704529e-02
2.018991261720657349e-01
-9.114745855331420898e-01
-1.057874877005815506e-02
3.800959140062332153e-02
3.795345127582550049e-01
3.491095304489135742e-01
-4.306769929826259613e-03
4.896330535411834717e-01
-7.285376638174057007e-02
-1.657426208257675171e-01
-8.332376927137374878e-02
-2.589685022830963135e-01
5.228816866874694824e-01
-2.209525406360626221e-01
-1.383164674043655396e-01
4.366841912269592285e-01
-9.618753194808959961e-02
-2.523703873157501221e-01
6.891491413116455078e-01
1.025183498859405518e-01
1.727489531040191650e-01
-2.697093784809112549e-01
-1.987592279911041260e-01
-3.965257704257965088e-01
7.079126685857772827e-02
2.891192734241485596e-01
-2.801061868667602539e-01
-3.346026837825775146e-01
2.457871437072753906e-01
-1.029874533414840698e-01
4.198739528656005859e-01
2.959409356117248535e-01
-7.876788973808288574e-01
8.623661845922470093e-02
1.857839673757553101e-01
-3.696006238460540771e-01
-1.874940842390060425e-01
3.530846834182739258e-01
-3.289875388145446777e-01
-2.993481457233428955e-01
-3.349848464131355286e-02
4.832950234413146973e-01
2.051275819540023804e-01
3.555155694484710693e-01
-3.882140517234802246e-01
-1.752844005823135376e-01
1.916586607694625854e-02
-2.527576088905334473e-01
-5.595811605453491211e-01
1.982063800096511841e-01
2.182760536670684814e-01
2.589415907859802246e-01
1.261175125837326050e-01
-1.995155513286590576e-01
-7.427836954593658447e-02
-7.701250910758972168e-02
3.485352098941802979e-01
-1.435702741146087646e-01
-6.112741678953170776e-02
7.873322069644927979e-02
-1.635883152484893799e-01
-1.799708306789398193e-01
3.588660852983593941e-03
1.684811711311340332e-01
-3.887545466423034668e-01
1.989994049072265625e-01
6.544946879148483276e-02
-4.810776710510253906e-01
-2.642435789108276367e+00
7.419823408126831055e-01
-2.557114660739898682e-01
7.823132276535034180e-01
4.002873003482818604e-01
-3.398391902446746826e-01
1.810705512762069702e-01
-4.312362074851989746e-01
3.431335687637329102e-01
2.966526448726654053e-01
1.586349904537200928e-01
3.360697031021118164e-01
-3.558779060840606689e-01
4.858091175556182861e-01
-3.629853427410125732e-01
1.363006420433521271e-02
-7.246401906013488770e-01
-1.572550274431705475e-02
-1.751613020896911621e-01
-8.670951724052429199e-01
-4.408179521560668945e-01
-1.767755299806594849e-01
6.422848105430603027e-01
2.324822098016738892e-01
-1.099257230758666992e+00
4.652892351150512695e-01
-1.840559095144271851e-01
-7.902061194181442261e-02
-4.670544564723968506e-01
-9.631790220737457275e-02
-9.381092190742492676e-01
-1.037510871887207031e+00
-3.302338719367980957e-02
1.144675761461257935e-01
5.058735013008117676e-01
1.203607559204101562e+00
-2.451616525650024414e-01
3.287817537784576416e-01
-1.573464721441268921e-01
4.439666494727134705e-02
-2.200048416852951050e-01
1.767398566007614136e-01
-7.300761938095092773e-01
-1.007426381111145020e-01
4.537601768970489502e-01
-7.200852781534194946e-02
6.198826432228088379e-01
-4.272314310073852539e-01
2.481607645750045776e-01
-1.187219750136137009e-02
6.669017076492309570e-01
1.024456992745399475e-01
-4.739824831485748291e-01
3.964464068412780762e-01
-6.053140163421630859e-01
-4.117938280105590820e-01
6.465253233909606934e-01
1.582280546426773071e-01
-5.880335811525583267e-03
-1.650251746177673340e-01
2.253721654415130615e-01
-2.582254409790039062e-01
4.632689058780670166e-01
1.246885731816291809e-01
-1.604367643594741821e-01
2.341905683279037476e-01
-3.478561937808990479e-01
3.536994755268096924e-01
-4.616691544651985168e-02
-1.898766905069351196e-01
-1.877410560846328735e-01
-2.256125509738922119e-01
-1.021959539502859116e-02
-4.647217690944671631e-01
3.740693032741546631e-01
4.997998476028442383e-01
-3.252398669719696045e-01
-3.032775521278381348e-01
1.162485331296920776e-01
2.355418913066387177e-02
-4.602701663970947266e-01
2.968408763408660889e-01
-1.513249129056930542e-01
-1.711094975471496582e-01
-6.636134386062622070e-01
-2.449386715888977051e-01
-1.295358389616012573e-01
-5.808069929480552673e-02
9.839775413274765015e-02
8.209990262985229492e-01
-1.059385776519775391e+00
-5.669603943824768066e-01
1.646234691143035889e-01
2.774983942508697510e-01
-8.988918364048004150e-02
3.732037246227264404e-01
-3.153159916400909424e-01
-1.427223384380340576e-01
2.594887651503086090e-02
-3.685821965336799622e-02
-2.403941303491592407e-01
-1.106389388442039490e-01
2.814617753028869629e-01
3.113522231578826904e-01
-1.516864746809005737e-01
1.577899456024169922e-01
-2.195265144109725952e-01
-1.412055045366287231e-01
-2.186760455369949341e-01
-1.635699868202209473e-01
-1.320688519626855850e-02
-1.253554075956344604e-01
4.039319232106208801e-02
9.477436542510986328e-02
1.927008777856826782e-01
3.695455491542816162e-01
-5.656563043594360352e-01
2.526821792125701904e-01
1.451811641454696655e-01
-2.856817543506622314e-01
5.583401918411254883e-01
-1.010021716356277466e-01
-2.212813943624496460e-01
-4.706132709980010986e-01
-3.821384310722351074e-01
-3.161074593663215637e-02
-1.027712821960449219e-01
7.459167838096618652e-01
2.727637998759746552e-02
-9.578558057546615601e-02
-3.650010228157043457e-01
-5.838677659630775452e-02
5.306521058082580566e-01
-7.210939526557922363e-01
-2.187582552433013916e-01
-2.407786063849925995e-02
2.982724606990814209e-01
-1.226002275943756104e-01
1.572180837392807007e-01
1.033087223768234253e-01
1.363545358180999756e-01
3.315851688385009766e-01
1.983109712600708008e-01
3.243490159511566162e-01
-2.300290018320083618e-02
-6.463349461555480957e-01
1.284519433975219727e-01
6.043716669082641602e-01
3.255081474781036377e-01
1.423277985304594040e-02
-4.765430465340614319e-02
1.458137035369873047e-01
5.629089102149009705e-02
-4.416336417198181152e-01
-5.238435044884681702e-02
-2.280586510896682739e-01
6.929820030927658081e-02
3.302970528602600098e-01
-8.205453157424926758e-01
2.137836366891860962e-01
-3.539153933525085449e-02
1.136377919465303421e-02
5.132892727851867676e-01
-4.521362781524658203e-01
-1.584109812974929810e-01
-2.670730650424957275e-01
-3.791981041431427002e-01
7.340528368949890137e-01
-1.363959014415740967e-01
-5.264547839760780334e-02
-3.257995098829269409e-02
3.743173927068710327e-02
1.201155304908752441e+00
-7.288585901260375977e-01
8.174838423728942871e-01
-2.913479804992675781e-01
6.239483132958412170e-02
2.362341433763504028e-01
-1.671418175101280212e-02
9.645661711692810059e-02
9.087620377540588379e-01
-1.129826530814170837e-01
-8.799310028553009033e-02
-5.679781436920166016e-01
1.456655114889144897e-01
-2.404789030551910400e-01
5.756662786006927490e-02
-7.802752405405044556e-02
-8.640768378973007202e-02
5.884701609611511230e-01
4.342106729745864868e-02
1.468731015920639038e-01
4.052313864231109619e-01
3.878629803657531738e-01
1.019256860017776489e-01
-4.717196822166442871e-01
2.077147364616394043e-01
-4.780843257904052734e-01
2.744278609752655029e-01
4.555790424346923828e-01
3.696416020393371582e-01
-4.364277124404907227e-01
-4.394416883587837219e-02
6.383197754621505737e-02
3.186999633908271790e-02
3.621806204319000244e-01
-2.840746045112609863e-01
-2.599735558032989502e-01
-3.347018659114837646e-01
7.452843785285949707e-01
-1.031252592802047729e-01
-1.961844116449356079e-01
1.149983182549476624e-01
3.524099588394165039e-01
3.752717375755310059e-01
4.265884757041931152e-01
6.743288040161132812e-01
-1.084219574928283691e+00
1.001549601554870605e+00
6.512665748596191406e-01
2.862875759601593018e-01
-5.076406002044677734e-01
2.732028067111968994e-01
-7.465087175369262695e-01
3.745402693748474121e-01
1.186648383736610413e-01
-4.983364790678024292e-02
3.612597584724426270e-01
-2.833762168884277344e-01
-1.789989918470382690e-01
-1.020783260464668274e-01
3.420704007148742676e-01
5.819859504699707031e-01
-4.045879244804382324e-01
3.016292750835418701e-01
-3.335377573966979980e-01
-1.603170037269592285e-01
-3.866288438439369202e-02
3.740921616554260254e-01
1.577868014574050903e-01
-1.553172022104263306e-01
-2.123045325279235840e-01
-1.523025631904602051e-01
-1.898775547742843628e-01
3.535650372505187988e-01
-6.351377069950103760e-02
3.627833724021911621e-01
4.028296768665313721e-01
-2.993238531053066254e-02
-7.898162007331848145e-01
4.770530760288238525e-01
4.596224129199981689e-01
4.250500351190567017e-02
-7.064799070358276367e-01
-1.115015000104904175e-01
-2.788333296775817871e-01
-8.405795693397521973e-02
6.090124845504760742e-01
-1.192234531044960022e-01
-2.033345550298690796e-01
4.296606481075286865e-01
-3.496212661266326904e-01
-7.553555071353912354e-02
-2.856221795082092285e-01
4.189397692680358887e-01
-9.836021065711975098e-02
6.307183206081390381e-02
6.131651401519775391e-01
9.567347913980484009e-02
-6.183536052703857422e-01
3.423670530319213867e-01
3.848105967044830322e-01
1.258534044027328491e-01
-8.278565406799316406e-01
1.062052026391029358e-01
-1.087585240602493286e-01
4.574550092220306396e-01
3.908205628395080566e-01
3.016975149512290955e-02
4.183900654315948486e-01
2.089682966470718384e-01
-7.035198807716369629e-02
2.788316905498504639e-01
4.318840429186820984e-02
7.402508705854415894e-02
5.911107659339904785e-01
-3.259328007698059082e-01
-2.332388162612915039e-01
-1.343312114477157593e-01
7.685758471488952637e-01
-1.781015396118164062e-01
-3.228729367256164551e-01
2.195162922143936157e-01
2.692515552043914795e-01
3.735462427139282227e-01
-1.366200000047683716e-01
2.406835258007049561e-01
-7.723602056503295898e-01
8.207808732986450195e-01
4.863478839397430420e-01
-1.399064958095550537e-01
6.339741349220275879e-01
-6.877614259719848633e-01
1.279384344816207886e-01
6.998794078826904297e-01
-6.485140919685363770e-01
3.022883832454681396e-01
2.772542648017406464e-02
2.437501698732376099e-01
-6.654143929481506348e-01
2.021275281906127930e+00
7.398229241371154785e-01
4.424706473946571350e-02
-2.723472714424133301e-01
-3.226708471775054932e-01
-3.543397188186645508e-01
1.843113452196121216e-01
2.115837484598159790e-01
-1.197472214698791504e-01
-1.042291149497032166e-01
4.258268773555755615e-01
-2.532128393650054932e-01
3.788217902183532715e-01
-2.687374651432037354e-01
-4.919868707656860352e-01
6.309627890586853027e-01
-5.746654272079467773e-01
2.437920272350311279e-01
2.276399284601211548e-01
2.432892918586730957e-01
3.533445298671722412e-02
-3.875856995582580566e-01
2.741658985614776611e-01
4.276282489299774170e-01
5.437822341918945312e-01
6.535584926605224609e-01
-4.353543519973754883e-01
9.005326777696609497e-02
4.523760676383972168e-01
-6.250854134559631348e-01
-6.286033242940902710e-02
-2.163375616073608398e+00
7.141317427158355713e-02
-8.847936242818832397e-02
-2.996783554553985596e-01
1.168351173400878906e+00
-2.250825405120849609e+00
6.849908828735351562e-01
7.713617086410522461e-01
3.176856517791748047e+00
-3.878030478954315186e-01
-2.293660789728164673e-01
4.789804518222808838e-01
6.220392584800720215e-01
7.579655647277832031e-01
6.966752409934997559e-01
6.767173409461975098e-01
-4.103823900222778320e-01
6.319525837898254395e-01
-4.750740528106689453e+00
-4.118755757808685303e-01
-3.837540745735168457e-02
1.467533130198717117e-02
-5.455669760704040527e-01
-1.894053965806961060e-01
1.214044243097305298e-01
1.830772124230861664e-02
-1.615042686462402344e-01
5.536979809403419495e-02
-9.004832506179809570e-01
2.461560219526290894e-01
-1.600579261779785156e+00
-5.586531758308410645e-01
3.626322448253631592e-01
4.080123826861381531e-02
-8.024910092353820801e-01
1.298420578241348267e-01
2.324174791574478149e-01
-1.861711144447326660e-01
4.537536576390266418e-02
-3.860544562339782715e-01
-3.033038973808288574e-01
5.186781883239746094e-01
6.591478735208511353e-02
2.131964266300201416e-01
-8.282173424959182739e-02
2.972042560577392578e-01
-6.813580542802810669e-02
-5.163384675979614258e-01
5.310512334108352661e-02
1.652124822139739990e-01
-1.604679226875305176e-01
-9.599678218364715576e-02
-2.277719378471374512e-01
-2.279783487319946289e-01
-3.485434055328369141e-01
7.591289933770895004e-03
9.842559099197387695e-01
-3.780521154403686523e-01
5.597569048404693604e-02
6.549030542373657227e-01
-8.717631548643112183e-02
2.462512403726577759e-01
-1.779989898204803467e-01
-8.275236487388610840e-01
-3.020513653755187988e-01
-7.899174839258193970e-02
8.457427471876144409e-02
6.147904992103576660e-01
-1.574390754103660583e-02
-9.214640259742736816e-01
-1.946742534637451172e-01
-6.917147040367126465e-01
-3.128125071525573730e-01
-1.084655970335006714e-01
-1.031128466129302979e-01
6.853137910366058350e-02
6.091606616973876953e-01
-2.597199380397796631e-01
-2.354965060949325562e-01
-1.268938332796096802e-01
-3.031175136566162109e-01
7.385599613189697266e-02
-7.193959951400756836e-01
-4.469786286354064941e-01
2.060942649841308594e-01
-3.476409614086151123e-01
9.025063365697860718e-02
-8.730479329824447632e-02
-2.348711788654327393e-01
-1.326019465923309326e-01
-7.198570966720581055e-01
7.111587375402450562e-02
1.169925928115844727e-02
1.623204946517944336e-01
1.289107203483581543e-01
-1.134681031107902527e-01
9.014602750539779663e-02
3.758513331413269043e-01
-1.897294074296951294e-01
3.537057340145111084e-01
3.207949548959732056e-02
5.505359768867492676e-01
9.137238860130310059e-01
-1.785827875137329102e-01
-1.114127337932586670e-01
-2.654365599155426025e-01
1.743346750736236572e-01
2.339530736207962036e-02
2.295937687158584595e-01
-1.648347452282905579e-02
7.241259813308715820e-01
1.014450788497924805e+00
1.490430831909179688e-01
4.776890575885772705e-02
2.964513897895812988e-01
1.173070222139358521e-01
5.752136111259460449e-01
8.545186370611190796e-02
2.734849154949188232e-01
-6.050921976566314697e-02
1.851556152105331421e-01
7.854339480400085449e-01
5.645042657852172852e-01
3.323688209056854248e-01
-4.839038848876953125e-01
3.434396684169769287e-01
-4.746551811695098877e-02
-3.532266020774841309e-01
-3.260552510619163513e-02
-6.460589766502380371e-01
5.704516768455505371e-01
-4.441554844379425049e-02
-1.406027525663375854e-01
-1.848024427890777588e-01
1.001235283911228180e-02
3.740754127502441406e-01
-3.018598631024360657e-02
-3.413984924554824829e-02
3.741465210914611816e-01
1.287222504615783691e-01
-6.016020774841308594e-01
1.945310115814208984e+00
-1.081748008728027344e-01
-1.491067409515380859e-01
8.019861578941345215e-01
-3.436854481697082520e-01
5.147019028663635254e-01
-8.829487860202789307e-02
5.897397994995117188e-01
1.015900075435638428e-02
-4.026444852352142334e-01
6.364290714263916016e-01
2.386864870786666870e-01
1.885690689086914062e-01
3.007843196392059326e-01
-1.361407786607742310e-01
-5.735013484954833984e-01
9.219072014093399048e-02
-4.545783698558807373e-01
3.643293380737304688e-01
1.796141862869262695e-01
-3.876675963401794434e-01
6.391929984092712402e-01
1.307800114154815674e-01
-4.613266792148351669e-03
-5.617401562631130219e-03
-1.380511932075023651e-02
-6.177348494529724121e-01
-1.754832267761230469e-01
-6.044907495379447937e-02
3.438033461570739746e-01
-4.146860837936401367e-01
-3.175601065158843994e-01
-3.856417536735534668e-01
-3.628109395503997803e-01
3.605765998363494873e-01
8.519403934478759766e-01
-2.553305029869079590e-01
5.232365131378173828e-01
-1.046426296234130859e+00
4.103267490863800049e-01
-8.347066044807434082e-01
-3.612018525600433350e-01
-7.486779093742370605e-01
2.381947487592697144e-01
-1.209947392344474792e-01
1.864382922649383545e-01
-5.720289945602416992e-01
3.201675117015838623e-01
-6.727218031883239746e-01
9.618917703628540039e-01
-7.934701442718505859e-02
3.519419431686401367e-01
3.726856112480163574e-01
3.506441414356231689e-01
1.841320469975471497e-02
8.036009669303894043e-01
3.115724027156829834e-01
-1.862273663282394409e-01
1.479313224554061890e-01
4.843995273113250732e-01
-1.567358076572418213e-01
7.978612929582595825e-02
3.162097632884979248e-01
-1.349224328994750977e+00
5.738698840141296387e-01
-4.140997827053070068e-01
-2.421531826257705688e-01
-8.396125435829162598e-01
1.459129303693771362e-01
2.014068067073822021e-01
-4.025896191596984863e-01
-4.905481934547424316e-01
-5.860931277275085449e-01
-5.968682765960693359e-01
4.430775940418243408e-01
2.248312830924987793e-01
-3.585655093193054199e-01
2.961147129535675049e-01
-1.701353341341018677e-01
-5.287243127822875977e-01
-1.989335864782333374e-01
-2.027176469564437866e-01
-1.171407818794250488e+00
6.852353811264038086e-01
-5.883737802505493164e-01
8.104889988899230957e-01
2.964368164539337158e-01
4.207711517810821533e-01
-2.938479185104370117e-01
-1.120206117630004883e-01
3.349779248237609863e-01
6.045779585838317871e-01
5.156989097595214844e-01
5.666569471359252930e-01
-3.157292678952217102e-02
-7.191089540719985962e-02
6.058356165885925293e-01
-5.522803068161010742e-01
1.199235796928405762e+00
-1.984043270349502563e-01
-3.009893298149108887e-01
-1.296629905700683594e-01
-1.634126603603363037e-01
4.564344882965087891e-01
-2.957929372787475586e-01
1.907074153423309326e-01
1.005603969097137451e-01
-4.348608851432800293e-01
1.961040347814559937e-01
-1.494420021772384644e-01
6.050378084182739258e-01
-1.047798525542020798e-02
3.643339574337005615e-01
2.584611475467681885e-01
1.065032035112380981e-01
7.604594826698303223e-01
3.198851644992828369e-01
-3.030306994915008545e-01
-7.185850292444229126e-02
6.949123740196228027e-02
-2.158196568489074707e-01
2.702542543411254883e-01
-6.134983301162719727e-01
-8.748126029968261719e-01
5.611298084259033203e-01
-3.652053773403167725e-01
-6.449420452117919922e-01
-2.348640710115432739e-01
4.237770736217498779e-01
1.369738578796386719e-01
-3.690960109233856201e-01
-6.471395492553710938e-01
-9.380663037300109863e-01
-3.877051770687103271e-01
2.773841142654418945e+00
-6.447070091962814331e-02
-8.076221942901611328e-01
3.659707903861999512e-01
-5.327537059783935547e-01
-4.562515914440155029e-01
1.082663178443908691e+00
-2.290358096361160278e-01
-4.494108259677886963e-01
1.884928047657012939e-01
-2.121291011571884155e-01
3.386199176311492920e-01
2.935598418116569519e-02
8.834186941385269165e-02
-3.433986604213714600e-01
-1.609501987695693970e-01
7.152729481458663940e-02
3.918847143650054932e-01
3.197136819362640381e-01
2.727322578430175781e-01
-3.426577150821685791e-02
-3.879481256008148193e-01
5.147742852568626404e-02
-3.722230195999145508e-01
-2.910194098949432373e-01
-3.329377770423889160e-01
6.440445780754089355e-02
-2.781520783901214600e-01
-1.019183158874511719e+00
6.003184616565704346e-02
-5.384323596954345703e-01
1.510164439678192139e-01
5.678285285830497742e-02
-1.026402339339256287e-01
-4.471705853939056396e-01
-2.267983853816986084e-01
3.313375413417816162e-01
4.533796906471252441e-01
6.781383752822875977e-01
4.165278375148773193e-01
-5.761214718222618103e-02
-7.471948862075805664e-02
3.644960522651672363e-01
-1.935614943504333496e-01
1.899226307868957520e-01
6.382284760475158691e-01
6.163582205772399902e-01
5.269491672515869141e-01
2.157588154077529907e-01
-1.670530587434768677e-01
3.831684291362762451e-01
-1.307950615882873535e-01
-8.214990049600601196e-02
6.144090294837951660e-01
1.400485783815383911e-01
2.366373687982559204e-01
-2.420157492160797119e-01
-4.131246805191040039e-01
-8.616479039192199707e-01
-2.676256299018859863e-01
6.791737675666809082e-01
4.339727461338043213e-01
-4.685674309730529785e-01
1.156451925635337830e-01
-1.755106925964355469e+00
-5.834412947297096252e-02
1.629098653793334961e-01
-8.760588616132736206e-02
-2.639536857604980469e-01
9.443727880716323853e-02
-1.902757734060287476e-01
1.533512771129608154e-01
3.440472781658172607e-01
5.021161437034606934e-01
1.062738746404647827e-01
-2.728004455566406250e-01
3.088794648647308350e-01
-9.320678561925888062e-02
4.456131458282470703e-01
1.118472889065742493e-01
-4.597345888614654541e-01
-9.096187949180603027e-01
3.103813529014587402e-01
-4.562824368476867676e-01
1.759034097194671631e-01
5.590893626213073730e-01
-4.295192658901214600e-01
5.489172935485839844e-01
2.005451202392578125e+00
-7.120305895805358887e-01
4.598717689514160156e-01
-5.235178470611572266e-01
-1.694848202168941498e-02
-1.822512969374656677e-02
4.060530662536621094e-01
2.617662549018859863e-01
-3.748757541179656982e-01
-6.557498574256896973e-01
-7.245306372642517090e-01
-5.140931606292724609e-01
-1.868866533041000366e-01
-3.591936528682708740e-01
-7.204003334045410156e-01
1.669524759054183960e-01
-1.216480582952499390e-01
-1.407525502145290375e-02
6.757728457450866699e-01
7.017089128494262695e-01
6.938316673040390015e-02
1.141191720962524414e-01
-1.352003365755081177e-01
-2.252466976642608643e-01
-1.090292260050773621e-01
3.546178340911865234e-01
-8.495725393295288086e-01
2.419465780258178711e-01
6.831568479537963867e-01
-1.573572307825088501e-01
-1.883115321397781372e-01
5.014890432357788086e-02
2.990946769714355469e-01
4.110577702522277832e-01
-2.574630677700042725e-01
-9.202649444341659546e-02
7.267539501190185547e-01
-2.604698836803436279e-01
-5.516247823834419250e-02
2.033272981643676758e-01
4.797474145889282227e-01
-8.748634904623031616e-02
-5.285508558154106140e-02
4.736385941505432129e-01
-1.971422582864761353e-01
3.688480257987976074e-01
-1.933058798313140869e-01
9.017983078956604004e-01
5.248316526412963867e-01
-4.646826684474945068e-01
2.444262504577636719e-01
2.426689714193344116e-01
-4.926442801952362061e-01
3.263968229293823242e-01
-8.674208521842956543e-01
6.532255560159683228e-02
7.229551672935485840e-03
5.353782176971435547e-01
-2.554926462471485138e-02
-8.546861261129379272e-02
4.729999899864196777e-01
-1.255066871643066406e+00
-2.388116717338562012e-01
-8.402615040540695190e-02
-3.502565026283264160e-01
3.322959840297698975e-01
-1.557278912514448166e-02
1.380979418754577637e-01
1.801654994487762451e-01
1.595367491245269775e-02
1.120203137397766113e-01
2.156128138303756714e-01
1.118917316198348999e-01
8.449406921863555908e-02
-5.832203198224306107e-03
-7.389211058616638184e-01
1.482118815183639526e-01
1.737027466297149658e-01
-4.681635499000549316e-01
6.023814678192138672e-01
7.274119853973388672e-01
-4.443968236446380615e-01
1.500049382448196411e-01
4.907628297805786133e-01
-4.165058732032775879e-01
7.496762275695800781e-01
-2.586922645568847656e-01
6.134646758437156677e-02
1.422242671251296997e-01
6.280429661273956299e-02
1.901468336582183838e-01
5.891126394271850586e-01
-4.611618071794509888e-02
-1.259161680936813354e-01
-1.890015900135040283e-01
-7.803849130868911743e-02
4.826007783412933350e-02
5.525684952735900879e-01
1.279995441436767578e-01
3.665941655635833740e-01
3.346165418624877930e-01
-2.879606485366821289e-01
-3.474383950233459473e-01
1.150572225451469421e-01
-6.237039566040039062e-01
6.354012489318847656e-01
2.424467802047729492e-01
-1.828524768352508545e-01
-7.445196509361267090e-01
2.603107132017612457e-02
2.628819346427917480e-01
1.980386301875114441e-02
1.706603765487670898e-01
1.330730080604553223e+00
-2.363624274730682373e-01
-9.390637874603271484e-01
-5.297178626060485840e-01
-2.805690467357635498e-01
-1.582467555999755859e-01
-5.425493121147155762e-01
-1.805839538574218750e-01
5.267253518104553223e-01
-1.545125246047973633e-01
2.379224896430969238e-01
4.348775744438171387e-02
-2.609882354736328125e-01
2.240929752588272095e-01
-2.401075512170791626e-01
-4.029275849461555481e-02
8.923416584730148315e-02
2.823683321475982666e-01
-2.872753143310546875e-01
1.553714275360107422e-01
2.722297310829162598e-01
1.896356940269470215e-01
-4.394315779209136963e-01
1.099607646465301514e-01
-7.504651695489883423e-02
-1.261908411979675293e-01
3.088518679141998291e-01
-4.452871158719062805e-02
-8.527622371912002563e-02
-5.892467498779296875e-01
4.772504270076751709e-01
-2.157316654920578003e-01
-1.955691426992416382e-01
-2.748092412948608398e-01
4.652286469936370850e-01
1.726687788963317871e+00
-2.576928436756134033e-01
1.048950925469398499e-01
3.334068059921264648e-01
-1.072523891925811768e-01
-1.238281011581420898e+00
-1.158356368541717529e-01
-3.171913921833038330e-01
-4.197991788387298584e-01
-2.286114916205406189e-02
3.240539133548736572e-01
-3.240454792976379395e-01
-9.382635354995727539e-01
-3.850458860397338867e-01
1.386319398880004883e-01
-5.146493911743164062e-01
7.080507278442382812e-01
-1.016020894050598145e+00
4.854770302772521973e-01
-1.238815560936927795e-01
-2.708083689212799072e-01
7.215858697891235352e-01
-3.782151341438293457e-01
-7.366231083869934082e-01
7.761530876159667969e-01
-9.481163322925567627e-02
3.153959810733795166e-01
-1.700354218482971191e-01
-1.840684860944747925e-01
1.800046861171722412e-01
-4.518939647823572159e-03
8.578744530677795410e-02
1.785114407539367676e-01
-1.510587036609649658e-01
2.348078489303588867e-01
-3.270182907581329346e-01
-1.186698317527770996e+00
1.028845645487308502e-02
-3.163320571184158325e-02
-4.489132016897201538e-02
2.735465466976165771e-01
-4.938623011112213135e-01
4.275273680686950684e-01
-3.544412553310394287e-02
-4.729694128036499023e-01
1.894326955080032349e-01
-3.543400168418884277e-01
3.174527883529663086e-01
-1.476652920246124268e-01
-1.866046637296676636e-01
-2.633599042892456055e-01
4.995853304862976074e-01
1.416343301534652710e-01
-3.184726536273956299e-01
-2.159045077860355377e-02
1.558669507503509521e-01
3.221954107284545898e-01
-2.315892130136489868e-01
-2.331190556287765503e-01
-9.654234163463115692e-03
2.066282033920288086e+00
2.843419909477233887e-01
3.456599414348602295e-01
2.032877057790756226e-01
1.183295100927352905e-01
-3.374921679496765137e-01
-6.001408100128173828e-01
1.087347865104675293e-01
-1.735748164355754852e-02
-9.952510595321655273e-01
-2.489413470029830933e-01
6.239650398492813110e-02
6.738955527544021606e-02
2.006913900375366211e+00
-9.366514533758163452e-02
-2.747370898723602295e-01
-5.455744266510009766e-01
2.559878528118133545e-01
3.398155570030212402e-01
6.740591675043106079e-02
1.293938875198364258e+00
-2.397735714912414551e-01
-1.996247917413711548e-01
-7.052333652973175049e-02
-1.315232515335083008e-01
-5.543092638254165649e-02
-3.792243003845214844e-01
-1.532940506935119629e+00
4.802652597427368164e-01
-2.018535435199737549e-01
-1.204463168978691101e-01
4.856566190719604492e-01
7.443389892578125000e-01
7.396730780601501465e-02
-3.510100543498992920e-01
2.566879689693450928e-01
-5.778548121452331543e-01
5.109444856643676758e-01
-3.244162797927856445e-01
4.737692177295684814e-01
3.354405164718627930e-01
-2.868977487087249756e-01
3.651025295257568359e-01
5.025463700294494629e-01
-4.629364013671875000e-01
-1.379116177558898926e-01
-4.457958042621612549e-01
-3.130799531936645508e-02
8.246468752622604370e-02
1.168974712491035461e-01
-2.996446490287780762e-01
5.154930949211120605e-01
-4.252184554934501648e-02
1.215325072407722473e-01
-8.251575380563735962e-02
3.941478431224822998e-01
2.936380505561828613e-01
-5.923160910606384277e-01
-4.840118587017059326e-01
2.907076776027679443e-01
-2.660463809967041016e+00
5.978247150778770447e-02
9.291742742061614990e-02
3.278629481792449951e-01
-2.618473172187805176e-01
1.914148777723312378e-01
-1.644775085151195526e-02
-7.347940802574157715e-01
2.033288180828094482e-01
-5.179782956838607788e-02
-7.644601166248321533e-02
4.920369982719421387e-01
1.196305453777313232e-01
1.384621560573577881e-01
2.753202319145202637e-01
1.599401384592056274e-01
-6.026293039321899414e-01
1.079132199287414551e+00
8.143360167741775513e-02
2.434211224317550659e-01
-2.535609006881713867e+00
-3.059190809726715088e-01
3.538464009761810303e-01
2.251498848199844360e-01
-6.222076714038848877e-02
6.110295653343200684e-01
-2.785378694534301758e-01
5.218210816383361816e-01
-6.183123588562011719e-01
1.179253697395324707e+00
4.218174815177917480e-01
-2.954970598220825195e-01
4.285906907171010971e-03
-6.951351761817932129e-01
-2.277122437953948975e-01
-3.501685559749603271e-01
-2.875203080475330353e-02
-4.194732904434204102e-01
6.750672310590744019e-02
-2.751712501049041748e-01
-7.997860908508300781e-01
-6.436949223279953003e-02
-1.484845429658889771e-01
-3.138217031955718994e-01
4.462530612945556641e-01
-7.966152578592300415e-02
-2.362961769104003906e-01
-1.502136588096618652e+00
-1.028061732649803162e-01
-3.871553242206573486e-01
-2.148511111736297607e-01
1.404403597116470337e-01
2.068923711776733398e-01
1.110347628593444824e+00
1.921364217996597290e-01
3.087398707866668701e-01
-7.817503809928894043e-01
2.449932694435119629e-01
-2.401512563228607178e-01
-3.125987946987152100e-02
6.780854463577270508e-01
-6.111927032470703125e-01
5.149253606796264648e-01
1.856011450290679932e-01
-2.399284392595291138e-01
-1.237495616078376770e-01
-2.316825836896896362e-01
3.420671522617340088e-01
-1.536109298467636108e-01
1.307532906532287598e+00
1.833873093128204346e-01
-8.744055777788162231e-02
4.107973352074623108e-02
2.908847928047180176e-01
-7.480397224426269531e-01
4.550237208604812622e-02
-2.486244738101959229e-01
-7.278824597597122192e-02
2.295011430978775024e-01
2.024521678686141968e-01
-4.480724781751632690e-02
-3.665564358234405518e-01
-4.908547103404998779e-01
1.594202667474746704e-01
-1.288390308618545532e-01
-1.207010168582201004e-02
1.151733398437500000e+00
-1.065885066986083984e+00
-3.651781082153320312e-01
4.104024767875671387e-01
-7.351689040660858154e-02
2.900516688823699951e-01
1.007866263389587402e+00
-4.290364682674407959e-01
-9.006139636039733887e-02
2.496573030948638916e-01
-1.917686611413955688e-01
2.929936647415161133e-01
-1.579659730195999146e-01
1.241802349686622620e-01
-6.581801176071166992e-02
-2.139195650815963745e-01
4.529486894607543945e-01
4.602110683917999268e-01
-9.104514122009277344e-02
-1.196211650967597961e-01
-6.486201286315917969e-02
-4.530981779098510742e-01
1.331690698862075806e-01
-9.603574126958847046e-02
-2.522505223751068115e-01
1.012389898300170898e+00
1.513001322746276855e-01
-1.493847221136093140e-01
-1.981626600027084351e-01
1.843304783105850220e-01
2.543830573558807373e-01
-1.786976009607315063e-01
-2.575493790209293365e-02
5.823339223861694336e-01
7.498695850372314453e-01
5.147804692387580872e-02
3.360438644886016846e-01
1.985650658607482910e-01
7.758639752864837646e-02
-2.889809608459472656e-01
-1.393894791603088379e+00
-2.864441573619842529e-01
3.453546166419982910e-01
-5.850810557603836060e-02
-2.119571268558502197e-01
6.950656534172594547e-04
2.435870170593261719e-01
2.444413751363754272e-01
3.729273974895477295e-01
9.792962670326232910e-01
-3.665225803852081299e-01
1.213620766066014767e-03
-1.181106790900230408e-01
3.980934619903564453e-01
3.308433294296264648e-01
-3.604748547077178955e-01
8.481044769287109375e-01
4.589985311031341553e-01
-3.471833169460296631e-01
1.392738074064254761e-01
-6.105226464569568634e-03
1.610816866159439087e-01
1.382330358028411865e-01
-2.714809179306030273e-01
-1.355797797441482544e-01
4.956092685461044312e-02
1.533059030771255493e-02
-8.687496185302734375e-02
3.219969272613525391e-01
3.830558061599731445e-01
2.579605877399444580e-01
-6.789767742156982422e-01
-2.110293358564376831e-01
1.945499926805496216e-01
5.087265372276306152e-01
3.115051388740539551e-01
-3.684358894824981689e-01
-1.029281243681907654e-01
-1.792599074542522430e-02
-9.945371001958847046e-02
4.820446074008941650e-01
6.313893944025039673e-02
1.007221788167953491e-01
-5.209109783172607422e-01
-4.635389521718025208e-02
8.061771094799041748e-02
1.787278205156326294e-01
4.512138962745666504e-01
2.626858055591583252e-01
-3.330747410655021667e-02
-5.707981586456298828e-01
1.609229326248168945e+00
1.379871219396591187e-01
6.031610444188117981e-02
2.198405265808105469e-01
-7.627436518669128418e-01
2.532067708671092987e-02
4.241667091846466064e-01
-4.688869416713714600e-01
-2.347165644168853760e-01
-2.357142865657806396e-01
2.521444261074066162e-01
-1.136764213442802429e-01
2.489867657423019409e-01
-2.841704711318016052e-02
-1.365832984447479248e-02
3.664504885673522949e-01
-1.708655804395675659e-01
-5.126874893903732300e-02
2.228269279003143311e-01
-2.281012237071990967e-01
5.911151766777038574e-01
1.803891211748123169e-01
-1.541717946529388428e-01
-2.604453265666961670e-01
3.076805472373962402e-01
-5.213263630867004395e-02
3.322925865650177002e-01
2.211447954177856445e-01
3.621264100074768066e-01
1.757686287164688110e-01
-2.221931219100952148e-01
-1.479880452156066895e+00
-3.390432521700859070e-02
-3.323311731219291687e-02
4.057855904102325439e-01
4.654146134853363037e-01
-3.828754648566246033e-02
1.437205355614423752e-02
8.213608711957931519e-02
2.031152546405792236e-01
1.762516796588897705e-01
5.438770353794097900e-02
1.133485138416290283e-01
-6.955293416976928711e-01
4.123011231422424316e-01
-1.424489140510559082e+00
-5.612328052520751953e-01
3.591609597206115723e-01
4.201610386371612549e-01
-6.642130669206380844e-03
3.315066099166870117e-01
-3.165163472294807434e-02
2.254123687744140625e-01
-3.412954807281494141e-01
-1.682290285825729370e-01
2.302724272012710571e-01
-1.583603024482727051e-01
-1.445994377136230469e-01
4.332461059093475342e-01
-7.900583148002624512e-01
2.371828109025955200e-01
1.214737892150878906e+00
-6.405923962593078613e-01
-2.604361176490783691e-01
-1.402308642864227295e-01
2.992344796657562256e-01
5.760483816266059875e-02
1.176172345876693726e-01
4.760453402996063232e-01
-9.056616574525833130e-03
1.600809209048748016e-02
5.415447950363159180e-01
1.852242201566696167e-01
-2.495126426219940186e-01
1.030368357896804810e-01
4.854243397712707520e-01
-7.810259610414505005e-02
2.253138720989227295e-01
1.578656792640686035e+00
-1.619340419769287109e+00
1.813846826553344727e-01
2.049383223056793213e-01
-2.780143022537231445e-01
-4.441062808036804199e-01
4.187704995274543762e-02
-5.119432881474494934e-02
2.555478215217590332e-01
5.235272645950317383e-01
4.021739661693572998e-01
1.654279232025146484e-01
1.368140280246734619e-01
2.271974086761474609e+00
-2.002214342355728149e-01
3.652123510837554932e-01
3.720974549651145935e-02
-1.983258873224258423e-01
6.745792925357818604e-02
-4.066402912139892578e-01
8.802675455808639526e-02
9.205179214477539062e-01
-4.854145646095275879e-01
-5.428230762481689453e-01
-1.196587532758712769e-01
4.397392570972442627e-01
2.229460477828979492e-01
4.618034958839416504e-01
2.273360192775726318e-01
-3.280345499515533447e-01
-5.319228172302246094e-01
9.038918465375900269e-02
-2.369004189968109131e-01
-4.655857980251312256e-01
-5.566845536231994629e-01
-3.043853342533111572e-01
5.441495031118392944e-02
-6.862629950046539307e-02
3.257873058319091797e-01
-2.317613959312438965e-01
-7.428039908409118652e-01
-2.067764759063720703e+00
-1.294667869806289673e-01
-1.892335414886474609e-01
2.274952828884124756e-02
-7.935708761215209961e-02
-9.403395652770996094e-02
-6.985167860984802246e-01
-4.396375715732574463e-01
-1.675709038972854614e-01
-1.112599596381187439e-01
7.803680896759033203e-01
-6.412793397903442383e-01
-3.409446403384208679e-02
-1.172298043966293335e-01
1.491601578891277313e-02
2.805906236171722412e-01
-7.601074874401092529e-02
3.028841018676757812e-01
-2.408312857151031494e-01
2.145919799804687500e-01
6.183898448944091797e-01
1.415067315101623535e-01
8.202118277549743652e-01
-8.752180337905883789e-01
1.661481261253356934e-01
6.974449381232261658e-03
8.161841034889221191e-01
-3.508388698101043701e-01
3.553576469421386719e-01
-1.273390650749206543e-01
2.491827905178070068e-01
-5.587498545646667480e-01
1.411642789840698242e+00
2.360080033540725708e-01
5.323199629783630371e-01
-4.701292216777801514e-01
-3.370033949613571167e-02
2.387002855539321899e-01
-3.246050179004669189e-01
6.502420902252197266e-01
4.101943373680114746e-01
-2.228542715311050415e-01
3.202485665678977966e-02
5.101310461759567261e-02
-6.716074049472808838e-02
2.127109915018081665e-01
-3.745205104351043701e-01
5.008507370948791504e-01
3.846810162067413330e-01
9.123639762401580811e-02
-3.256932795047760010e-01
-6.189592480659484863e-01
-1.411748584359884262e-03
-1.364662796258926392e-01
3.087691068649291992e-01
2.546728216111660004e-02
-4.551959931850433350e-01
-6.577296555042266846e-02
-1.207758933305740356e-01
-4.489881992340087891e-01
8.872570395469665527e-01
-4.208961427211761475e-01
-4.805763363838195801e-01
2.601649165153503418e-01
4.891954958438873291e-01
-1.681324541568756104e-01
2.478708326816558838e-01
-8.106490224599838257e-02
6.723899859935045242e-03
-4.762442708015441895e-01
-2.763809263706207275e-01
-6.118691060692071915e-03
-2.779946327209472656e-01
1.384063363075256348e-01
2.528345584869384766e-01
-2.914265692234039307e-01
-3.015738427639007568e-01
-1.277313977479934692e-01
-1.089783608913421631e-01
-3.191761076450347900e-01
6.889683604240417480e-01
8.616501465439796448e-03
-8.326917141675949097e-02
5.426374077796936035e-02
1.705133020877838135e-01
2.094327956438064575e-01
7.865046262741088867e-01
-6.065683439373970032e-02
-3.708142787218093872e-02
-3.896229863166809082e-01
2.608346641063690186e-01
1.528312638401985168e-02
-2.172363996505737305e-01
-1.969639211893081665e-01
-6.838454604148864746e-01
1.657135784626007080e-01
-2.247117161750793457e-01
9.457521885633468628e-02
-1.047789081931114197e-01
-4.629459977149963379e-01
-5.239345878362655640e-02
-1.437455415725708008e-01
1.234700977802276611e-01
5.654478669166564941e-01
1.830690912902355194e-02
-2.369504980742931366e-02
2.129600048065185547e-01
-2.768422067165374756e-01
-1.567485183477401733e-01
-1.260244995355606079e-01
4.513055831193923950e-02
-1.449514925479888916e-01
-8.013115078210830688e-02
-1.430637091398239136e-01
6.246075779199600220e-02
-2.288195391884073615e-04
-4.112891256809234619e-01
7.958894968032836914e-02
-1.955623179674148560e-01
-7.730923295021057129e-01
1.130272746086120605e+00
-4.272938370704650879e-01
-1.105248332023620605e+00
4.436889588832855225e-01
2.304202467203140259e-01
3.607648424804210663e-03
-1.152642220258712769e-01
-5.975922197103500366e-02
-2.278317660093307495e-01
-2.709288299083709717e-01
-2.181691229343414307e-01
1.344464868307113647e-01
-6.476952880620956421e-02
-1.676857322454452515e-01
-4.205748736858367920e-01
-2.994218468666076660e-01
-5.129739642143249512e-01
2.889770641922950745e-02
-2.824901342391967773e-01
-9.252415299415588379e-01
9.273046255111694336e-01
-9.837778657674789429e-02
-1.302644968032836914e+00
2.561117112636566162e-01
1.645607650279998779e-01
2.057472169399261475e-01
3.134452998638153076e-01
-2.136750519275665283e-02
-3.194254636764526367e-01
-1.076890602707862854e-01
1.654710620641708374e-01
-2.750951051712036133e-02
-2.843240201473236084e-01
1.373986601829528809e-01
3.035204410552978516e-01
8.509346842765808105e-02
-9.066109657287597656e-01
-1.702759116888046265e-01
1.467107087373733521e-01
-6.620027422904968262e-01
5.361447930335998535e-01
-9.716901928186416626e-02
-1.749504171311855316e-02
9.588254094123840332e-01
2.452214993536472321e-02
-1.323544681072235107e-01
-2.373474836349487305e-01
1.793353110551834106e-01
-4.251723736524581909e-02
-1.666271388530731201e-01
2.145455963909626007e-02
3.107085525989532471e-01
3.557504415512084961e-01
5.479261279106140137e-01
-2.966693416237831116e-02
-5.903033614158630371e-01
1.500229537487030029e-01
-4.923161491751670837e-02
1.439951509237289429e-01
-2.335780858993530273e-01
-1.155390404164791107e-02
4.115106761455535889e-01
4.342630878090858459e-02
-2.061978280544281006e-01
6.964875757694244385e-02
1.614397764205932617e-01
6.492212414741516113e-02
5.492061376571655273e-01
-9.686096012592315674e-02
4.304220899939537048e-02
-1.628891974687576294e-01
5.218800902366638184e-02
-4.543322622776031494e-01
-4.541194438934326172e-02
-5.568013787269592285e-01
4.834670424461364746e-01
8.334611058235168457e-01
-1.519260406494140625e-01
3.295148909091949463e-01
4.737106263637542725e-01
-9.190073013305664062e-01
2.491769641637802124e-01
1.552132368087768555e-01
-8.694344758987426758e-01
-3.982936739921569824e-01
-3.051539063453674316e-01
-1.033603772521018982e-02
-1.858740299940109253e-01
1.889459043741226196e-01
4.535634517669677734e-01
4.551861584186553955e-01
-1.829963177442550659e-01
-4.079765826463699341e-02
1.307465434074401855e+00
1.580017805099487305e-02
-2.374560087919235229e-01
6.554254144430160522e-02
-8.125739693641662598e-01
4.446224570274353027e-01
3.563879132270812988e-01
1.864041574299335480e-02
5.404901504516601562e-01
-6.957304477691650391e-02
-2.745215594768524170e-01
-2.152957916259765625e-01
-1.184506118297576904e-01
-4.876555129885673523e-02
6.509176492691040039e-01
2.056806236505508423e-01
3.283502161502838135e-01
-1.630772799253463745e-01
6.501964330673217773e-01
-3.779114484786987305e-01
2.990954518318176270e-01
-3.808649489656090736e-03
-5.748796463012695312e-02
1.245919018983840942e-01
6.257065385580062866e-02
1.526882797479629517e-01
4.601894617080688477e-01
1.225828766822814941e+00
2.521519064903259277e-01
2.846086919307708740e-01
-4.470088779926300049e-01
3.388868644833564758e-02
-1.818770617246627808e-01
-4.308454096317291260e-01
1.656369119882583618e-01
5.772188901901245117e-01
1.656676530838012695e-01
-1.483957767486572266e-01
-9.018060564994812012e-02
-5.278018116950988770e-01
5.805278420448303223e-01
5.667976662516593933e-02
1.616405844688415527e-01
2.906960248947143555e-01
-4.970489442348480225e-01
4.311076700687408447e-01
3.012163937091827393e-01
-1.217260435223579407e-01
5.405014753341674805e-01
1.706573516130447388e-01
-1.008994281291961670e-01
-4.964100718498229980e-01
2.574662566184997559e-01
-8.190570473670959473e-01
3.183160126209259033e-01
-1.219893172383308411e-01
4.067788124084472656e-01
-7.643814086914062500e-01
5.400949716567993164e-01
4.965814352035522461e-01
1.807465553283691406e-01
7.449400424957275391e-01
4.567687511444091797e-01
-7.201492190361022949e-01
2.839670181274414062e-01
-1.145753189921379089e-01
-8.539357781410217285e-01
5.477216243743896484e-01
-1.254060864448547363e-01
3.234060108661651611e-01
-1.028378866612911224e-02
2.123342826962471008e-02
-9.244340658187866211e-02
6.577560305595397949e-01
6.569671630859375000e-02
-8.689257502555847168e-02
-2.734212875366210938e-01
-1.313782483339309692e-01
-5.326346307992935181e-02
-3.353290855884552002e-01
-3.156933188438415527e-02
1.974689066410064697e-01
1.572512276470661163e-02
1.644722372293472290e-01
2.917988300323486328e-01
-1.823716796934604645e-02
-1.897860020399093628e-01
5.949351936578750610e-02
-2.867389284074306488e-02
-1.223734498023986816e+00
1.153540089726448059e-01
2.404745966196060181e-01
-5.398489907383918762e-02
-1.073675870895385742e+00
-1.088928282260894775e-01
4.194477796554565430e-01
-1.127031743526458740e-01
-7.385633140802383423e-02
-1.227512508630752563e-01
6.282437443733215332e-01
3.479590415954589844e-01
5.289052128791809082e-01
-5.435308814048767090e-01
-5.679146572947502136e-02
8.233378082513809204e-02
2.741807103157043457e-01
-3.041222691535949707e-01
-7.786289602518081665e-02
-5.281082987785339355e-01
-2.164150923490524292e-01
7.192644476890563965e-02
-1.888716816902160645e-01
2.713512815535068512e-02
3.139384388923645020e-01
9.800194203853607178e-02
2.050423175096511841e-01
7.763398811221122742e-03
5.582468118518590927e-03
-3.555763959884643555e-01
5.564438104629516602e-01
-8.843635767698287964e-02
-4.077789485454559326e-01
6.118683516979217529e-02
-3.734684586524963379e-01
9.162832796573638916e-02
-4.470945298671722412e-01
2.414529919624328613e-01
5.465874671936035156e-01
1.847542971372604370e-01
9.292292408645153046e-03
2.534445226192474365e-01
9.358440637588500977e-01
1.255296319723129272e-01
-1.339233815670013428e-01
-4.808679968118667603e-02
-2.483033686876296997e-01
2.665177881717681885e-01
-2.608008086681365967e-01
-5.962939187884330750e-02
-3.386900201439857483e-02
4.081446826457977295e-01
-7.627384066581726074e-01
5.037205219268798828e-01
-1.945829950273036957e-02
2.653041779994964600e-01
-3.862842544913291931e-02
6.418507099151611328e-01
6.872647404670715332e-01
2.484605014324188232e-01
4.937308132648468018e-01
4.321482479572296143e-01
6.862454414367675781e-01
-4.495374485850334167e-02
-2.472176253795623779e-01
-2.537607550621032715e-01
-3.103584647178649902e-01
-3.024930059909820557e-01
2.588475942611694336e-01
1.231830846518278122e-02
-1.097375273704528809e+00
-2.660797834396362305e-01
-5.009356141090393066e-01
7.474314570426940918e-01
8.281616121530532837e-02
-6.273832172155380249e-02
7.064472436904907227e-01
2.201828658580780029e-01
2.701671719551086426e-01
-1.015501096844673157e-02
8.971104025840759277e-02
1.544428616762161255e-02
-2.245828509330749512e-01
5.075290203094482422e-01
1.492610126733779907e-01
1.496931612491607666e-01
-1.840333789587020874e-01
2.050863355398178101e-01
-5.621719756163656712e-04
-1.688143014907836914e-01
1.639235258102416992e+00
-6.082327961921691895e-01
-4.165602624416351318e-01
5.333314538002014160e-01
-1.683611273765563965e-01
1.824527084827423096e-01
-9.096665680408477783e-02
2.880271673202514648e-01
3.276319801807403564e-01
3.158942759037017822e-01
3.523514866828918457e-01
4.142345190048217773e-01
2.910469174385070801e-01
-2.635191380977630615e-01
-1.366595923900604248e-01
-3.116813600063323975e-01
-7.216335088014602661e-02
-4.282993450760841370e-02
2.602348029613494873e-01
6.236498355865478516e-01
3.056649565696716309e-01
-2.128688693046569824e-01
-2.872624695301055908e-01
-2.830998003482818604e-01
-3.039674162864685059e-01
-9.630478173494338989e-02
-4.874482750892639160e-01
1.728622317314147949e-01
1.956228762865066528e-01
5.438828468322753906e-02
-1.890194835141301155e-05
2.532544434070587158e-01
5.114111900329589844e-01
2.696049511432647705e-01
-8.014194965362548828e-01
6.299162656068801880e-02
2.367552183568477631e-02
4.027610719203948975e-01
-9.568533301353454590e-02
1.980134695768356323e-01
2.182923853397369385e-01
1.076080575585365295e-01
3.006493449211120605e-01
-3.968483209609985352e-01
-5.090167522430419922e-01
2.993984147906303406e-02
-3.539805114269256592e-01
-4.253726303577423096e-01
-3.036679923534393311e-01
-3.948146402835845947e-01
-9.336142241954803467e-02
-3.179278075695037842e-01
-1.089685857295989990e-01
2.217317670583724976e-01
-1.006901338696479797e-01
5.203012228012084961e-01
2.736739516258239746e-01
1.582863628864288330e-01
-1.818252960219979286e-03
-2.785103917121887207e-01
1.563356280326843262e+00
-4.910228550434112549e-01
-9.906197898089885712e-03
-7.544573545455932617e-01
1.117789670825004578e-01
-6.774722337722778320e-01
-2.931517362594604492e-01
-3.673111796379089355e-01
-7.656699419021606445e-02
3.511415421962738037e-01
-2.202852219343185425e-01
-4.065700769424438477e-01
7.305688224732875824e-03
-1.335986852645874023e-01
6.198746562004089355e-01
2.215274125337600708e-01
2.332200855016708374e-01
6.318078190088272095e-02
4.646958410739898682e-01
1.360441446304321289e-01
3.391854763031005859e-01
6.090651154518127441e-01
-1.045252457261085510e-01
4.796566814184188843e-02
3.680486679077148438e-01
4.119648635387420654e-01
-4.450599253177642822e-01
3.000799939036369324e-02
-7.899425178766250610e-02
-2.548937201499938965e-01
8.677619695663452148e-02
-6.129238605499267578e-01
-4.330521821975708008e-01
-2.162033617496490479e-01
6.186318397521972656e-01
-2.604536712169647217e-01
-1.428577899932861328e-01
-4.271680712699890137e-01
-4.414488002657890320e-02
2.124211192131042480e-01
-3.122440874576568604e-01
7.520292699337005615e-02
2.670711874961853027e-01
7.166765630245208740e-03
-1.789913028478622437e-01
-5.753190517425537109e-01
1.515144705772399902e-01
-8.446752279996871948e-02
-2.902175188064575195e-01
-5.493964999914169312e-02
-3.652305006980895996e-01
-2.306431233882904053e-01
-8.427850157022476196e-02
3.929515480995178223e-01
-3.986494243144989014e-02
4.430536925792694092e-01
-1.099319234490394592e-01
-1.562658846378326416e-01
1.037369593977928162e-01
-1.332294344902038574e-01
-1.230118155479431152e+00
-3.050612211227416992e-01
6.346243899315595627e-03
-3.368053138256072998e-01
-2.528888583183288574e-01
7.701992988586425781e-02
3.221618533134460449e-01
4.054537788033485413e-02
-1.279391814023256302e-02
-6.772298812866210938e-01
-1.567125618457794189e-01
-9.109949320554733276e-02
5.881703495979309082e-01
4.827367663383483887e-01
-1.947003751993179321e-01
8.190193027257919312e-02
-8.825699239969253540e-02
1.595874428749084473e-01
5.120874643325805664e-01
2.881551384925842285e-01
-2.077765762805938721e-01
1.070646420121192932e-01
-1.383136659860610962e-01
-4.440139234066009521e-01
2.456403672695159912e-01
-7.520679831504821777e-01
6.293731182813644409e-02
-1.837187856435775757e-01
-5.612027272582054138e-02
-1.607891768217086792e-01
7.534526754170656204e-03
-4.153499752283096313e-02
-1.914015263319015503e-01
2.932260930538177490e-01
5.131465196609497070e-01
-5.260608792304992676e-01
-1.003204703330993652e+00
-9.962688200175762177e-03
2.074166387319564819e-01
2.466711550951004028e-01
4.270599782466888428e-01
3.408420979976654053e-01
2.780411243438720703e-01
-7.550173401832580566e-01
-8.395780622959136963e-02
-1.625182181596755981e-01
-1.092871129512786865e-01
-1.796262264251708984e-01
-4.135310947895050049e-01
-5.235948562622070312e-01
-3.291608691215515137e-01
-5.781041383743286133e-01
-3.376148045063018799e-01
1.545127928256988525e-01
4.547533392906188965e-01
9.628970175981521606e-02
4.601668417453765869e-01
1.688092052936553955e-01
-2.082938402891159058e-01
-1.754799485206604004e-01
4.795790612697601318e-01
-9.418982267379760742e-02
-4.213140606880187988e-01
9.750033020973205566e-01
-3.216556906700134277e-01
5.898259878158569336e-01
3.954932689666748047e-01
5.219168663024902344e-01
4.165951907634735107e-01
-1.458463668823242188e-01
3.573793470859527588e-01
6.460809707641601562e-01
6.392394900321960449e-01
-2.714309990406036377e-01
-5.298937559127807617e-01
1.416815817356109619e-01
1.445270027033984661e-03
2.129373103380203247e-01
-3.465928835794329643e-03
-2.681567668914794922e-01
-1.309428215026855469e-01
-4.068436920642852783e-01
-2.972530424594879150e-01
2.436484992504119873e-01
-2.571700811386108398e-01
4.888473451137542725e-01
-2.369505316019058228e-01
6.342710852622985840e-01
3.876591473817825317e-02
7.955164313316345215e-01
4.454923868179321289e-01
-2.853273451328277588e-01
9.997845888137817383e-01
-4.661349356174468994e-01
-4.415781199932098389e-01
-3.054773807525634766e-01
1.669587492942810059e-01
-3.799911588430404663e-02
6.282224059104919434e-01
-7.955914139747619629e-01
2.902423143386840820e-01
9.979418665170669556e-02
1.966111063957214355e-01
-2.481467425823211670e-01
-4.345870912075042725e-01
-4.638226330280303955e-01
-3.893446922302246094e-01
-5.227836370468139648e-01
-3.059886991977691650e-01
-6.002802401781082153e-02
-5.599259734153747559e-01
1.093132197856903076e-01
-1.653661131858825684e-01
1.608356088399887085e-01
4.742937982082366943e-01
9.299029707908630371e-01
1.064290329813957214e-01
6.795996427536010742e-01
-3.096202611923217773e-01
-6.735233068466186523e-01
8.055752515792846680e-01
-2.854474782943725586e-01
-2.327457368373870850e-01
-8.485545963048934937e-02
5.516169220209121704e-02
-3.835304677486419678e-01
-7.599359750747680664e-01
-1.110465079545974731e-01
-1.636599898338317871e-01
7.691453397274017334e-02
-6.332438439130783081e-02
-3.354290965944528580e-03
3.844438120722770691e-02
-3.188715279102325439e-01
2.645164728164672852e-01
1.353701651096343994e-01
1.813362240791320801e-01
8.398783951997756958e-02
-3.276115953922271729e-01
2.074199616909027100e-01
3.728306591510772705e-01
-6.583234667778015137e-01
-4.438904821872711182e-01
9.843752980232238770e-01
3.876483067870140076e-02
-2.753508985042572021e-01
8.258163332939147949e-01
4.038036763668060303e-01
-1.682693064212799072e-01
-3.515834361314773560e-02
4.888555705547332764e-01
2.228633016347885132e-01
-2.754372954368591309e-01
7.421446591615676880e-02
-5.063816308975219727e-01
-1.497781425714492798e-01
2.837640643119812012e-01
-1.831614412367343903e-02
1.876026839017868042e-01
2.110886424779891968e-01
-7.023116946220397949e-02
1.346024394035339355e+00
-9.781154803931713104e-03
2.841128408908843994e-01
1.937995553016662598e-01
4.228975176811218262e-01
2.456371784210205078e-01
-3.187516704201698303e-02
3.086862862110137939e-01
-5.317652821540832520e-01
-1.208701729774475098e-01
5.268406122922897339e-02
-7.019098997116088867e-01
-1.997348815202713013e-01
1.687764674425125122e-01
-2.562889158725738525e-01
1.118991300463676453e-01
-2.911578118801116943e-01
-5.749332308769226074e-01
-1.603411287069320679e-01
9.560319781303405762e-01
-3.218303620815277100e-01
-1.639334708452224731e-01
9.174767136573791504e-01
-9.581593424081802368e-02
-2.680113911628723145e-01
3.723754882812500000e-01
3.081850707530975342e-01
1.230637803673744202e-01
2.407333999872207642e-02
4.924758970737457275e-01
-1.816426068544387817e-01
1.331709325313568115e-01
-2.053408920764923096e-01
-6.251581013202667236e-02
-5.475611090660095215e-01
3.124238848686218262e-01
-7.608874142169952393e-02
1.715678572654724121e-01
1.934756338596343994e-02
-1.686780154705047607e-01
6.531897783279418945e-01
2.478220015764236450e-01
-2.670431137084960938e-01
1.983214020729064941e-01
2.242425382137298584e-01
-1.314332336187362671e-01
-2.749787569046020508e-01
3.398997709155082703e-02
-2.794421315193176270e-01
-2.337924540042877197e-01
-4.015547335147857666e-01
-2.460957318544387817e-01
-1.862865686416625977e-01
4.765582680702209473e-01
-1.512901782989501953e-01
-2.394768595695495605e-01
-4.651189744472503662e-01
2.268262803554534912e-01
-2.313062697649002075e-01
-3.743152320384979248e-02
-4.582405984401702881e-01
-1.629292219877243042e-01
-3.551384210586547852e-01
-2.272092401981353760e-01
4.992860257625579834e-01
2.241564244031906128e-01
1.738787144422531128e-01
2.122389525175094604e-01
2.452713623642921448e-02
-7.372837048023939133e-03
3.281122148036956787e-01
-3.111852705478668213e-01
-3.437578380107879639e-01
6.110550761222839355e-01
1.047224774956703186e-01
-1.020746231079101562e-01
2.157154828310012817e-01
-1.278202235698699951e-01
-8.666307665407657623e-03
-2.179915755987167358e-01
7.654215395450592041e-02
-2.186524271965026855e-01
-6.584208607673645020e-01
-3.335461914539337158e-01
1.843138784170150757e-01
1.782900281250476837e-02
6.622663140296936035e-01
-1.342121660709381104e-01
-3.756740689277648926e-01
-3.659896901808679104e-04
4.587921500205993652e-02
-1.025226488709449768e-01
7.626724839210510254e-01
1.501181721687316895e-01
5.332546308636665344e-03
-2.307364046573638916e-01
8.406623601913452148e-01
-1.206714808940887451e-01
9.843603968620300293e-01
-2.349945306777954102e-01
-1.803267449140548706e-01
1.104445010423660278e-01
3.007273674011230469e-01
-1.482746005058288574e-01
-1.314774304628372192e-01
5.669509246945381165e-02
4.596002027392387390e-02
5.643037334084510803e-02
3.229614719748497009e-02
9.295701235532760620e-02
2.130547165870666504e-01
-2.415886074304580688e-01
-7.009903341531753540e-02
-3.546439707279205322e-01
2.100429870188236237e-02
1.894847154617309570e-01
-8.117439597845077515e-02
1.470636874437332153e-01
-1.185999065637588501e-02
-3.559005632996559143e-02
-8.483771979808807373e-02
8.619247376918792725e-02
1.321570426225662231e-01
9.120989590883255005e-03
-4.266465008258819580e-01
-7.907173037528991699e-02
-5.632178485393524170e-02
5.212616920471191406e-02
5.215277075767517090e-01
-5.711697414517402649e-02
-8.521977066993713379e-02
2.117439359426498413e-01
1.383303385227918625e-02
-8.371233940124511719e-02
-3.806931674480438232e-01
1.939778402447700500e-02
2.275924086570739746e-01
-5.507152527570724487e-02
2.375379353761672974e-01
-1.772976219654083252e-01
8.921846002340316772e-02
-1.243254821747541428e-02
