-1.073741689324378967e-01
-9.099425375461578369e-02
-2.123356163501739502e-01
5.908134579658508301e-01
2.716799378395080566e-01
2.881322205066680908e-01
5.018854737281799316e-01
2.130434811115264893e-01
-2.144755125045776367e-01
-1.417078264057636261e-02
1.427343934774398804e-01
-1.846709996461868286e-01
-1.946117132902145386e-01
-4.619757235050201416e-01
1.503634601831436157e-01
-1.410053670406341553e-01
5.365253686904907227e-01
5.638006925582885742e-01
6.804905533790588379e-01
-2.849649190902709961e-01
-8.061920106410980225e-02
-1.695541143417358398e-01
-8.038949966430664062e-02
-2.041921466588973999e-01
-3.754715621471405029e-01
1.955878436565399170e-01
2.140496671199798584e-01
-4.704572856426239014e-01
-3.356730937957763672e-01
5.318408012390136719e-01
6.679331064224243164e-01
6.972146630287170410e-01
-1.942516416311264038e-01
-3.511831164360046387e-01
-2.753630876541137695e-01
6.577199101448059082e-01
-1.023842319846153259e-01
-4.271461963653564453e-01
-3.983535170555114746e-01
3.348520398139953613e-01
6.206417083740234375e-01
3.810687065124511719e-01
-1.511817723512649536e-01
-2.084011770784854889e-02
6.135049462318420410e-01
6.754121780395507812e-01
6.618548631668090820e-01
4.665488898754119873e-01
-5.715298056602478027e-01
4.653931856155395508e-01
3.952909260988235474e-02
-4.486552178859710693e-01
1.584227532148361206e-01
-5.516316890716552734e-01
2.006446272134780884e-01
-2.032074630260467529e-01
9.074632078409194946e-02
-4.523288309574127197e-01
-1.922899186611175537e-01
6.449877619743347168e-01
9.159263223409652710e-02
-9.122236073017120361e-02
1.518776863813400269e-01
-1.673723608255386353e-01
-1.387712359428405762e-01
-5.082178115844726562e-02
8.873916417360305786e-02
-7.221205160021781921e-03
1.286426037549972534e-01
-7.476554811000823975e-02
7.611825596541166306e-03
-1.101743131875991821e-01
-3.365919366478919983e-02
1.450779139995574951e-01
3.961093351244926453e-02
-1.815361082553863525e-01
-1.214476600289344788e-01
-1.379499733448028564e-01
-7.892582565546035767e-02
-5.180400237441062927e-02
-1.845140568912029266e-02
2.032642662525177002e-01
-2.045489102602005005e-01
1.097307875752449036e-01
1.713237166404724121e-01
3.518530353903770447e-02
1.417546719312667847e-01
-2.244038879871368408e-02
-7.637740112841129303e-03
-2.365652471780776978e-01
1.395339071750640869e-01
-1.036045476794242859e-01
1.603786796331405640e-01
2.664251439273357391e-02
7.671425491571426392e-02
1.639719009399414062e-01
1.756806820631027222e-01
2.721113152801990509e-02
2.030980736017227173e-01
-1.406628787517547607e-01
1.450226157903671265e-01
1.400712728500366211e-01
-1.434337347745895386e-02
1.992061436176300049e-01
1.009077485650777817e-02
-1.900608241558074951e-01
2.226226627826690674e-01
1.329263299703598022e-01
9.315561503171920776e-02
8.629515767097473145e-02
-1.967550367116928101e-01
-4.939218237996101379e-02
-1.363109946250915527e-01
-5.446996912360191345e-02
-6.155630946159362793e-02
-7.226610928773880005e-02
7.812297344207763672e-02
-1.958593875169754028e-01
8.008871972560882568e-02
-1.548782885074615479e-01
-3.080186061561107635e-02
-1.779843568801879883e-01
-1.645141541957855225e-01
1.506997793912887573e-01
-2.165417522192001343e-01
-4.929745942354202271e-02
8.621072024106979370e-02
1.284280419349670410e-01
-1.479166299104690552e-01
1.503931730985641479e-01
-2.076743245124816895e-01
5.566956475377082825e-02
1.627648919820785522e-01
-5.815470218658447266e-02
-1.386467088013887405e-02
1.922619044780731201e-01
1.403848230838775635e-01
-1.810684055089950562e-01
-1.403702050447463989e-01
-4.212117753922939301e-03
-1.702820509672164917e-01
4.152259603142738342e-02
-2.100846171379089355e-01
-3.813065588474273682e-02
7.094908505678176880e-02
-2.017748653888702393e-01
-1.429967880249023438e-01
2.162966877222061157e-01
-1.968301832675933838e-01
6.549676507711410522e-02
-8.230776339769363403e-02
-6.435637176036834717e-02
-1.985431760549545288e-01
-1.690425276756286621e-01
1.309009455144405365e-02
-1.698539406061172485e-01
-1.331213861703872681e-01
2.063632011413574219e-01
1.533575654029846191e-01
-2.280059829354286194e-02
1.137167364358901978e-01
9.340645372867584229e-02
-7.715149968862533569e-02
4.258612543344497681e-02
-1.118831038475036621e-01
9.529806673526763916e-02
-2.082181572914123535e-01
-4.474766179919242859e-02
-2.183513492345809937e-01
3.862815909087657928e-03
-4.062192514538764954e-02
1.668580472469329834e-01
-1.046691387891769409e-01
-1.072754785418510437e-01
4.644503071904182434e-02
-1.556231081485748291e-01
9.360047988593578339e-03
1.159178614616394043e-01
-8.444467931985855103e-02
-1.503374576568603516e-01
5.861593037843704224e-02
1.420097202062606812e-01
1.598432809114456177e-01
-9.230717271566390991e-02
1.851599961519241333e-01
1.792277842760086060e-01
2.189519107341766357e-01
-3.907003998756408691e-02
1.713050007820129395e-01
2.010812461376190186e-01
-8.412239700555801392e-02
-1.007321029901504517e-01
-3.965866938233375549e-02
-9.399159252643585205e-02
3.638474643230438232e-02
1.721892356872558594e-01
7.219687104225158691e-02
-2.246160656213760376e-01
-1.262805461883544922e-01
-1.085554733872413635e-01
-1.478740945458412170e-02
-1.042209640145301819e-01
-1.577119529247283936e-02
-1.692053228616714478e-01
-7.762850821018218994e-02
-1.485685259103775024e-01
2.103008627891540527e-01
6.695253401994705200e-02
1.994794905185699463e-01
5.520574748516082764e-02
-1.657022722065448761e-02
-5.878348648548126221e-02
2.193157970905303955e-01
-1.407441198825836182e-01
-2.113183885812759399e-01
-1.363189220428466797e-01
-1.377012282609939575e-01
-4.264044761657714844e-02
-1.266821175813674927e-01
-2.438470348715782166e-02
1.267155408859252930e-01
-1.606495678424835205e-01
4.122638143599033356e-03
1.234330981969833374e-01
-1.436160528101027012e-03
-1.155624017119407654e-01
-8.957758545875549316e-02
-1.432429403066635132e-01
8.894915133714675903e-02
-7.546608895063400269e-02
-2.338580936193466187e-01
1.766899079084396362e-01
2.100638896226882935e-01
8.105044066905975342e-02
1.201208457350730896e-01
1.584564596414566040e-01
1.484411070123314857e-03
-4.707632958889007568e-02
-1.679768413305282593e-02
-1.136749163269996643e-01
-1.971560567617416382e-01
1.506192684173583984e-01
-3.869025781750679016e-02
2.182960808277130127e-01
-9.946120530366897583e-02
4.524354636669158936e-02
1.705060452222824097e-01
1.023122072219848633e-01
-1.032314673066139221e-01
1.078913658857345581e-01
4.445085674524307251e-02
-7.814805209636688232e-02
-2.159633934497833252e-01
-5.410362780094146729e-02
1.071993634104728699e-01
1.342712193727493286e-01
1.134579479694366455e-01
-1.521501094102859497e-01
2.123585045337677002e-01
-2.614927664399147034e-02
-3.844670206308364868e-02
-6.499315053224563599e-02
1.113115176558494568e-01
-6.459629535675048828e-02
-1.589914970099925995e-02
1.731799170374870300e-02
-9.769763052463531494e-02
1.293012648820877075e-01
5.336078628897666931e-02
9.951280802488327026e-02
1.860607415437698364e-01
6.524399667978286743e-02
-2.140617966651916504e-01
-1.948110908269882202e-01
4.666612297296524048e-02
1.087657362222671509e-02
-1.855762004852294922e-01
1.196736693382263184e-01
-4.596048593521118164e-02
-1.887251883745193481e-01
1.716845333576202393e-01
-1.763239800930023193e-01
1.813158951699733734e-02
-1.377133280038833618e-01
-8.004241436719894409e-02
2.099382877349853516e-01
1.845471858978271484e-01
6.092993542551994324e-02
-4.987246170639991760e-02
7.098077982664108276e-02
-2.072413861751556396e-01
-1.542790681123733521e-01
2.046096771955490112e-01
-1.139395125210285187e-02
-8.472125977277755737e-02
-1.083098649978637695e-01
-4.030014947056770325e-02
-4.514011740684509277e-02
-1.831671744585037231e-01
7.599081844091415405e-02
-1.049305424094200134e-01
-1.369998902082443237e-01
8.339267224073410034e-02
-1.271254271268844604e-01
9.772343188524246216e-02
-4.514991492033004761e-02
3.776813298463821411e-02
-9.968276135623455048e-03
9.307093918323516846e-02
-4.380886442959308624e-03
5.406769737601280212e-02
-1.348944157361984253e-01
-1.552266776561737061e-01
-6.636397540569305420e-02
-4.104364663362503052e-02
-3.328531607985496521e-02
-1.542122066020965576e-01
-2.313180267810821533e-02
1.314658075571060181e-01
1.148997098207473755e-01
-1.777231991291046143e-01
-8.535096794366836548e-02
-6.961084902286529541e-02
-6.613912433385848999e-02
-8.440170437097549438e-02
8.575561642646789551e-02
1.951815932989120483e-01
-1.495900750160217285e-01
-2.877421677112579346e-02
-2.217805832624435425e-01
-2.275864221155643463e-02
-1.846350431442260742e-01
1.686749309301376343e-01
-1.886059194803237915e-01
6.816598773002624512e-02
1.878557503223419189e-01
-6.716257333755493164e-02
-6.276972126215696335e-03
-3.859391435980796814e-02
-1.419966220855712891e-01
1.142949610948562622e-01
-1.920693069696426392e-01
8.391538262367248535e-02
-8.563097566366195679e-03
-6.847927719354629517e-02
-2.125166505575180054e-01
1.113170161843299866e-01
1.659631580114364624e-01
6.085373833775520325e-02
-2.024539113044738770e-01
1.780524402856826782e-01
-1.072349473834037781e-01
4.351728036999702454e-02
7.132451236248016357e-02
1.183934882283210754e-01
-1.126113161444664001e-02
-4.718316346406936646e-02
6.506326794624328613e-02
5.551536753773689270e-02
7.852278649806976318e-02
2.118308395147323608e-01
-7.694344222545623779e-02
5.606283619999885559e-02
1.281802952289581299e-01
-5.303197354078292847e-02
2.115548029541969299e-02
1.447559595108032227e-01
-1.387967020273208618e-01
-8.624406903982162476e-02
-1.172621473670005798e-01
-9.887386858463287354e-02
-1.966881752014160156e-01
-1.175496950745582581e-01
9.781982004642486572e-02
-2.195755541324615479e-01
2.051785401999950409e-02
-1.117448061704635620e-01
-5.747028067708015442e-02
9.121826291084289551e-02
2.371185272932052612e-02
-3.963651508092880249e-02
6.755679845809936523e-02
-1.054410934448242188e-01
-1.553358882665634155e-01
1.108351498842239380e-01
-2.168567180633544922e-01
1.632034331560134888e-01
-8.895192295312881470e-02
1.935834139585494995e-01
-5.881252512335777283e-02
1.382363587617874146e-01
1.771604716777801514e-01
2.338015846908092499e-02
-4.000056907534599304e-02
1.178188472986221313e-01
-1.301195919513702393e-01
-7.127578556537628174e-02
2.300966903567314148e-02
4.717987030744552612e-02
1.374097447842359543e-02
-6.526480615139007568e-02
-2.386529371142387390e-02
2.149679809808731079e-01
-8.256196975708007812e-02
-1.357937604188919067e-01
-1.802399009466171265e-01
-1.689926087856292725e-01
-1.056105867028236389e-01
7.007114589214324951e-02
5.037425830960273743e-02
-1.863801479339599609e-01
1.340392529964447021e-01
-2.093518376350402832e-01
-2.019832134246826172e-01
-1.819235831499099731e-02
3.871433064341545105e-02
-6.143346801400184631e-02
-1.668752282857894897e-01
1.499214470386505127e-01
4.478206485509872437e-02
-1.547293514013290405e-01
6.410265341401100159e-03
-1.136657893657684326e-01
-1.981187909841537476e-01
1.857295483350753784e-01
-1.612743288278579712e-01
-2.269491702318191528e-01
1.476293504238128662e-01
-1.686504781246185303e-01
1.984436213970184326e-01
5.865272507071495056e-02
-5.917695537209510803e-02
-7.220719754695892334e-02
6.439827382564544678e-02
-7.716216146945953369e-02
-1.109922230243682861e-01
1.154413595795631409e-01
1.515410989522933960e-01
1.119168549776077271e-01
-3.384701535105705261e-02
5.837110430002212524e-02
2.172470986843109131e-01
1.607314497232437134e-01
8.404418081045150757e-02
-1.335828900337219238e-01
-1.999012567102909088e-02
-8.711543679237365723e-02
-2.078628689050674438e-01
1.524650007486343384e-01
2.153649479150772095e-01
1.315510571002960205e-01
3.656980395317077637e-02
-4.880242422223091125e-02
-1.634725928306579590e-01
1.733115166425704956e-01
-5.456034094095230103e-02
2.037274986505508423e-01
-1.684651821851730347e-01
-1.312120109796524048e-01
-6.240704283118247986e-02
3.139714151620864868e-02
-3.495028242468833923e-02
3.177975863218307495e-02
1.061966717243194580e-01
-5.577862262725830078e-02
2.424386702477931976e-02
1.766183525323867798e-01
-1.859142333269119263e-01
-1.155305281281471252e-01
1.002456098794937134e-01
1.391046494245529175e-01
1.093237698078155518e-01
1.109321713447570801e-01
-8.136557042598724365e-02
4.772891290485858917e-03
-8.244471997022628784e-02
4.544552415609359741e-02
-5.888303741812705994e-02
-1.227674260735511780e-01
-9.706645458936691284e-02
2.236073315143585205e-01
1.425154656171798706e-01
1.258228272199630737e-01
-5.931327864527702332e-02
-1.003702655434608459e-01
-3.901129588484764099e-02
8.103051781654357910e-02
1.607322692871093750e-01
9.041947312653064728e-03
-2.249529212713241577e-01
4.790270701050758362e-02
-9.433790296316146851e-02
1.588988602161407471e-01
-1.187249273061752319e-01
-8.303406834602355957e-02
1.628288030624389648e-01
1.874481290578842163e-01
-9.170388430356979370e-02
-1.982914358377456665e-01
1.471613198518753052e-01
-3.598533943295478821e-02
-5.613411962985992432e-02
-1.114284247159957886e-01
9.758740663528442383e-02
1.450270116329193115e-01
-1.095108613371849060e-01
-1.327237784862518311e-01
1.962344944477081299e-01
4.159666225314140320e-02
-2.158468216657638550e-01
1.194214671850204468e-01
-1.170267015695571899e-01
-2.095211297273635864e-01
-4.374763742089271545e-02
-1.395189464092254639e-01
1.419385671615600586e-01
-2.260507643222808838e-01
3.535921126604080200e-02
1.179698929190635681e-01
1.763306371867656708e-02
-2.204802632331848145e-01
-2.983418479561805725e-02
1.614755839109420776e-01
2.014892250299453735e-01
-2.057820409536361694e-01
6.210102513432502747e-02
8.667393773794174194e-02
-6.291504949331283569e-02
-1.932547837495803833e-01
1.005051583051681519e-01
5.882296711206436157e-03
-1.236193850636482239e-01
1.014798283576965332e-01
-7.407239754684269428e-04
-1.664514653384685516e-02
-2.044486850500106812e-01
-1.525943875312805176e-01
-9.505894780158996582e-02
1.277503967285156250e-01
1.012908443808555603e-01
2.069849073886871338e-01
2.006607651710510254e-01
-1.490764617919921875e-01
-7.175634056329727173e-02
1.799658983945846558e-01
1.478604525327682495e-01
-3.196036815643310547e-02
8.269611001014709473e-02
-1.095533221960067749e-01
-1.512203216552734375e-01
1.063518226146697998e-01
2.078324258327484131e-01
1.602179408073425293e-01
-1.814535111188888550e-01
1.286468654870986938e-01
-7.854969799518585205e-02
-8.540135622024536133e-02
-2.224309444427490234e-01
-1.402800977230072021e-01
-2.053738571703433990e-02
-3.936627879738807678e-02
8.390913158655166626e-02
1.639068424701690674e-01
5.576000362634658813e-02
-1.123023554682731628e-01
-9.505555965006351471e-03
2.192229181528091431e-01
-1.979432255029678345e-01
1.239205338060855865e-02
3.603356704115867615e-02
1.786197908222675323e-02
-1.169798523187637329e-02
-1.646698415279388428e-01
1.072595641016960144e-01
-1.667580455541610718e-01
-8.528327941894531250e-02
2.421280592679977417e-01
-1.331442445516586304e-01
-2.160525768995285034e-01
-2.060358673334121704e-01
6.809419393539428711e-02
-2.053952515125274658e-01
1.430511027574539185e-01
-9.994199126958847046e-02
1.421937793493270874e-01
5.574829503893852234e-02
-1.856234967708587646e-01
-6.138111650943756104e-02
-2.156023234128952026e-01
-3.045152127742767334e-02
2.117664963006973267e-01
-1.557766944169998169e-01
-5.699804052710533142e-02
9.234422445297241211e-02
-1.918763667345046997e-01
-1.288363188505172729e-01
-3.840980678796768188e-02
1.253568828105926514e-01
-1.255748569965362549e-01
-2.100964263081550598e-02
1.750341206789016724e-01
-4.774144291877746582e-02
-1.483713388442993164e-01
-1.984342038631439209e-01
1.711240410804748535e-01
-2.065889090299606323e-01
9.891288727521896362e-02
-1.573326289653778076e-01
-9.308790415525436401e-02
-1.138489022850990295e-01
9.098239988088607788e-02
1.710712760686874390e-01
1.438008099794387817e-01
8.337035030126571655e-02
-4.142708331346511841e-02
1.177515760064125061e-01
1.273849308490753174e-01
-1.167343184351921082e-02
1.199331358075141907e-01
-8.593647927045822144e-02
-1.624443531036376953e-01
8.864460885524749756e-02
-2.262488938868045807e-02
1.847122013568878174e-01
-5.379293859004974365e-02
-1.086629405617713928e-01
-1.837678700685501099e-01
-2.514908835291862488e-02
3.843642538413405418e-03
6.803318113088607788e-02
1.768185943365097046e-01
4.618695005774497986e-02
-1.495006978511810303e-01
-9.787618368864059448e-02
3.798200190067291260e-02
1.555910557508468628e-01
4.461774975061416626e-02
5.440480308607220650e-04
-5.716172163374722004e-04
-1.195418909192085266e-01
-1.533037722110748291e-01
4.148237779736518860e-02
2.056493908166885376e-01
-6.415187567472457886e-02
7.425521314144134521e-02
2.235758490860462189e-02
-1.149902194738388062e-01
-1.403019428253173828e-01
-9.342128783464431763e-02
-1.137205436825752258e-01
-1.962012983858585358e-02
1.141036823391914368e-01
-4.762515798211097717e-02
-1.490806341171264648e-01
1.381959468126296997e-01
9.682263433933258057e-02
-1.902552247047424316e-01
2.959653548896312714e-02
-5.484332516789436340e-02
-2.250847518444061279e-01
-3.965486213564872742e-02
1.030429750680923462e-01
1.302116066217422485e-01
2.052742391824722290e-01
-1.293419152498245239e-01
-4.502737522125244141e-02
-1.986885666847229004e-01
2.496105991303920746e-02
1.624074280261993408e-01
2.060350328683853149e-01
9.907438606023788452e-02
1.392132639884948730e-01
2.311385236680507660e-02
1.341402903199195862e-02
-1.962401121854782104e-01
-1.053123325109481812e-01
-2.349603325128555298e-01
2.203955054283142090e-01
1.440675463527441025e-03
2.313085347414016724e-01
1.961086988449096680e-01
-1.828534454107284546e-01
9.117354638874530792e-03
-1.853817552328109741e-01
-1.717393100261688232e-02
-2.930812351405620575e-02
1.926465183496475220e-01
-4.609142243862152100e-02
-7.991377264261245728e-03
-3.309836238622665405e-02
-1.231369823217391968e-01
4.226339608430862427e-02
-1.763198524713516235e-01
1.117983311414718628e-01
9.860996901988983154e-02
1.064052730798721313e-01
-8.241547644138336182e-02
8.427875488996505737e-02
1.849371194839477539e-01
9.024811536073684692e-02
1.718132346868515015e-01
1.023610159754753113e-01
-1.575787514448165894e-01
-2.277182647958397865e-03
-2.067123800516128540e-01
-2.000669538974761963e-01
-6.426571309566497803e-02
-1.789481043815612793e-01
-1.140543967485427856e-01
1.319490522146224976e-01
8.983355760574340820e-02
-2.223614156246185303e-01
-1.083010993897914886e-02
1.267917305231094360e-01
1.866672784090042114e-01
-1.371967792510986328e-02
7.599586993455886841e-02
-1.974778920412063599e-01
3.950888291001319885e-02
1.786766499280929565e-01
5.597535893321037292e-02
-1.148205399513244629e-01
1.648689806461334229e-01
-9.444832801818847656e-02
-1.825662106275558472e-01
1.837311685085296631e-01
-1.075582429766654968e-01
2.249243482947349548e-02
1.084431335330009460e-01
1.372364163398742676e-01
-1.544794142246246338e-01
-1.454824674874544144e-02
-9.822452068328857422e-02
-2.325702086091041565e-02
-1.992370784282684326e-01
1.423133313655853271e-01
3.126897290349006653e-02
7.440684735774993896e-02
2.249690443277359009e-01
3.341794386506080627e-02
-2.219306379556655884e-01
-1.531641334295272827e-01
-3.324050689116120338e-03
-1.635731607675552368e-01
6.300988048315048218e-02
-2.724554948508739471e-02
1.451969593763351440e-01
2.846436575055122375e-02
1.855436563491821289e-01
-2.494411915540695190e-02
1.781431287527084351e-01
-2.448299899697303772e-02
1.593434959650039673e-01
1.143676266074180603e-01
-2.328259497880935669e-01
-1.001868471503257751e-01
-2.087568640708923340e-01
-1.396695226430892944e-01
2.066856026649475098e-01
-1.055181175470352173e-01
1.741293668746948242e-01
1.570758521556854248e-01
-1.369461789727210999e-02
2.029969245195388794e-01
-7.798846345394849777e-03
1.305121183395385742e-01
-1.997926533222198486e-01
-1.287063807249069214e-01
-6.862251460552215576e-02
1.710725016891956329e-02
1.222743913531303406e-01
2.023251503705978394e-01
1.729266196489334106e-01
1.973171681165695190e-01
-1.112701743841171265e-01
6.046921014785766602e-03
-2.018897086381912231e-01
-1.222867444157600403e-01
1.383378505706787109e-01
-1.946897059679031372e-01
1.635219785384833813e-03
-1.000153347849845886e-01
8.001317083835601807e-02
-1.352041065692901611e-01
1.805665493011474609e-01
-1.620200723409652710e-01
2.107663452625274658e-01
-5.144478008151054382e-02
1.327467709779739380e-02
-3.501727059483528137e-02
3.367291390895843506e-02
-7.808158546686172485e-02
-1.653946340084075928e-01
-1.622950583696365356e-01
-7.237768918275833130e-02
-4.698636010289192200e-02
-1.330494731664657593e-01
3.488775342702865601e-02
-1.269530206918716431e-01
-1.779297925531864166e-02
1.346199512481689453e-01
1.821150034666061401e-01
2.872420288622379303e-02
-2.202906906604766846e-01
-1.994015276432037354e-01
6.454695761203765869e-02
-4.418964684009552002e-02
-1.296367943286895752e-01
1.862440258264541626e-01
1.770972162485122681e-01
-2.168494313955307007e-01
-6.286501884460449219e-02
1.801893860101699829e-01
-5.321842432022094727e-02
-1.586930602788925171e-01
-9.852632135152816772e-02
7.617248594760894775e-02
1.988528519868850708e-01
-2.454769425094127655e-02
-8.454774320125579834e-02
1.553114131093025208e-02
1.504089236259460449e-01
-9.677059948444366455e-02
5.096024274826049805e-02
3.018988296389579773e-03
-1.239006593823432922e-02
5.402425304055213928e-02
-1.850466281175613403e-01
-1.769095212221145630e-01
-4.076530411839485168e-02
1.418692618608474731e-01
-1.306438297033309937e-01
-1.434890627861022949e-01
-1.883467733860015869e-01
-3.712978959083557129e-02
-1.888026297092437744e-01
3.673677518963813782e-02
1.340474784374237061e-01
5.698296427726745605e-02
-1.154795363545417786e-01
-2.026101648807525635e-01
2.138751894235610962e-01
1.070494204759597778e-01
1.069229021668434143e-01
-2.095278203487396240e-01
-8.416583389043807983e-02
2.161833196878433228e-01
1.596386432647705078e-01
-2.257379293441772461e-01
1.032403931021690369e-01
8.077992498874664307e-02
-1.312981247901916504e-01
2.633111365139484406e-02
6.355299800634384155e-02
-9.335856884717941284e-02
-1.860198974609375000e-01
-4.968210309743881226e-02
1.302488893270492554e-01
-6.153564527630805969e-02
-2.256152480840682983e-01
-9.403122961521148682e-02
2.344598062336444855e-02
-1.524791568517684937e-01
-1.611986160278320312e-01
7.906413823366165161e-02
-2.411163970828056335e-02
9.842921793460845947e-02
2.657135715708136559e-03
1.508900225162506104e-01
-1.582933962345123291e-01
-8.764948695898056030e-02
1.333208680152893066e-01
1.822670102119445801e-01
1.513251513242721558e-01
-5.368355661630630493e-02
2.018390446901321411e-01
-1.738002151250839233e-01
-7.613321300595998764e-03
-4.418251290917396545e-02
1.931115835905075073e-01
-1.119817718863487244e-01
-1.725343614816665649e-01
4.583616182208061218e-02
7.316938787698745728e-02
-6.504139304161071777e-02
-9.817546606063842773e-02
-6.804692745208740234e-02
-1.121987923979759216e-01
-1.219391226768493652e-01
-1.973515748977661133e-01
1.989172995090484619e-01
1.947613507509231567e-01
4.370733350515365601e-02
4.729359969496726990e-02
-1.979243457317352295e-01
-4.902878403663635254e-02
1.917165815830230713e-01
-3.174719586968421936e-02
-6.142021343111991882e-02
-2.026934027671813965e-01
2.081369161605834961e-01
-6.333477795124053955e-02
2.278731167316436768e-01
1.266406625509262085e-01
1.686206310987472534e-01
-1.911449581384658813e-01
-8.124835789203643799e-02
1.908810138702392578e-01
3.936329111456871033e-02
9.842186421155929565e-02
1.819299459457397461e-01
-1.949431151151657104e-01
-1.609928905963897705e-01
-1.872864514589309692e-01
2.001317590475082397e-02
1.606030166149139404e-01
1.802449822425842285e-01
-1.203162372112274170e-01
1.638225466012954712e-01
1.357146538794040680e-02
-1.050868406891822815e-01
1.283855736255645752e-01
-1.131346523761749268e-01
1.557280272245407104e-01
-4.025946836918592453e-03
1.667430698871612549e-01
-1.548213809728622437e-01
-1.548589766025543213e-01
1.375907212495803833e-01
1.661644577980041504e-01
2.178796827793121338e-01
1.984408646821975708e-01
-1.460891515016555786e-01
1.224220395088195801e-01
4.176283720880746841e-03
4.855718929320573807e-03
-6.052353605628013611e-02
-1.094627007842063904e-02
4.355583339929580688e-02
1.219256371259689331e-01
5.593363195657730103e-02
-1.400019675493240356e-01
1.583216190338134766e-01
-1.639898866415023804e-01
-1.316530555486679077e-01
2.518769539892673492e-02
3.301302343606948853e-02
-3.773069754242897034e-02
2.349250577390193939e-02
4.513276368379592896e-02
-1.906130760908126831e-01
1.884060353040695190e-01
1.862513720989227295e-01
2.048985362052917480e-01
-2.117737755179405212e-02
7.308504730463027954e-02
1.081692129373550415e-01
-1.098044589161872864e-01
-2.251407355070114136e-01
3.223548084497451782e-02
5.568341584876179695e-04
-2.077749371528625488e-01
1.329438984394073486e-01
7.556408643722534180e-02
-1.725897639989852905e-01
1.507014930248260498e-01
-2.029253989458084106e-01
-1.237845420837402344e-01
-1.432060450315475464e-02
1.671939045190811157e-01
-8.898924291133880615e-02
2.163811922073364258e-01
1.507172584533691406e-01
-2.306054532527923584e-01
-1.505070477724075317e-01
-2.335065044462680817e-02
2.202211618423461914e-01
1.098784878849983215e-01
1.634360253810882568e-01
-1.183977648615837097e-01
-2.138454020023345947e-01
-1.578477919101715088e-01
-1.994415819644927979e-01
-1.184454560279846191e-01
-1.944620013236999512e-01
1.557948440313339233e-01
1.055760681629180908e-01
7.220507413148880005e-02
2.200753688812255859e-01
1.519973874092102051e-01
-6.834273785352706909e-02
-1.368433050811290741e-02
1.558881849050521851e-01
1.364530622959136963e-01
-7.779731601476669312e-02
2.339520901441574097e-01
-2.159315794706344604e-01
-7.622934877872467041e-02
-1.182613745331764221e-01
-1.195020899176597595e-01
1.983840912580490112e-01
-4.206981137394905090e-02
-1.713758707046508789e-01
-2.183954566717147827e-01
-1.830804497003555298e-01
-1.734377741813659668e-01
1.917070895433425903e-01
-7.187896221876144409e-02
-1.483085155487060547e-01
-2.062708884477615356e-01
1.194625571370124817e-01
3.671552985906600952e-02
-2.297896333038806915e-02
-1.333354711532592773e-01
4.224971681833267212e-02
1.924814656376838684e-02
8.041244000196456909e-02
-1.932897269725799561e-01
1.420787069946527481e-02
-1.861066929996013641e-02
5.909220501780509949e-02
-1.185698807239532471e-01
-1.718042194843292236e-01
1.641430407762527466e-01
1.382976025342941284e-01
1.002307161688804626e-01
-1.796500384807586670e-01
-1.345574855804443359e-01
2.129974216222763062e-01
1.540234833955764771e-01
-6.460246443748474121e-02
-2.341216951608657837e-01
-1.343623846769332886e-01
-3.465199097990989685e-02
-1.455402970314025879e-01
7.374557852745056152e-02
-1.676166802644729614e-01
-4.417578876018524170e-02
-1.186137571930885315e-01
-1.175826191902160645e-01
2.187791913747787476e-01
-2.516351640224456787e-02
1.930481642484664917e-01
-1.813900917768478394e-01
1.287142783403396606e-01
8.810267597436904907e-02
2.359302341938018799e-01
1.601193398237228394e-01
5.781247839331626892e-02
1.451169550418853760e-01
-5.580262467265129089e-02
-1.106195226311683655e-01
2.014354104176163673e-03
2.417388744652271271e-02
1.548113673925399780e-01
-7.330374419689178467e-02
1.057592108845710754e-01
-1.165933310985565186e-01
7.876430451869964600e-02
9.936175495386123657e-02
-1.768449842929840088e-01
-1.112715229392051697e-01
8.655459433794021606e-02
1.034606769680976868e-01
-6.718041747808456421e-02
-1.358087807893753052e-01
-1.153974682092666626e-01
1.467751562595367432e-01
-1.620664298534393311e-01
6.676821410655975342e-02
2.062570601701736450e-01
1.238509193062782288e-01
5.609759688377380371e-02
6.646792590618133545e-02
8.797023445367813110e-02
1.175003562821075320e-04
-2.182429283857345581e-01
-1.636579185724258423e-01
9.626047313213348389e-02
-1.300259381532669067e-01
-1.172669455409049988e-01
1.682742536067962646e-01
1.710875928401947021e-01
-1.409899890422821045e-01
1.544352471828460693e-01
2.144629694521427155e-02
-1.409521698951721191e-01
1.863399446010589600e-01
4.003738239407539368e-02
2.235292643308639526e-02
8.603183180093765259e-02
1.752346158027648926e-01
1.804973483085632324e-01
-1.216955557465553284e-01
2.501971833407878876e-02
-1.049754396080970764e-02
1.290816962718963623e-01
1.520223766565322876e-01
-1.519150882959365845e-01
1.935105621814727783e-01
-2.150657027959823608e-02
-1.673740893602371216e-01
-4.387507215142250061e-02
1.851607859134674072e-01
-2.626421488821506500e-02
1.416075080633163452e-01
-6.064625084400177002e-02
2.164599448442459106e-01
1.437149643898010254e-01
-9.869997203350067139e-02
-1.642260141670703888e-02
1.746211349964141846e-01
-1.043352261185646057e-01
-4.503720626235008240e-02
1.204379275441169739e-01
3.584710881114006042e-02
-2.103235721588134766e-01
1.987112462520599365e-01
-1.646340265870094299e-02
-5.608916655182838440e-02
1.372956782579421997e-01
1.674847453832626343e-01
-1.524278521537780762e-01
-9.658323228359222412e-02
1.180349588394165039e-01
-1.701577901840209961e-01
1.146848723292350769e-01
-1.834057122468948364e-01
-2.207069471478462219e-02
4.878675192594528198e-02
-1.854252815246582031e-01
-1.677296459674835205e-01
-3.777224197983741760e-02
-1.488933712244033813e-01
-2.572830580174922943e-02
-1.861422806978225708e-01
-1.292533278465270996e-01
9.547419846057891846e-02
1.130169034004211426e-01
7.624526973813772202e-03
-1.687384545803070068e-01
-1.633715629577636719e-01
1.793831139802932739e-01
-9.968901425600051880e-02
-1.618494540452957153e-01
2.134801745414733887e-01
-2.406702637672424316e-01
1.192700564861297607e-01
-6.858584284782409668e-02
2.271441072225570679e-01
1.588159501552581787e-01
-5.552559718489646912e-02
1.347626596689224243e-01
1.912966966629028320e-01
1.532980501651763916e-01
-1.171196922659873962e-01
1.060406211763620377e-02
-1.679264158010482788e-01
-2.059365063905715942e-01
2.115909904241561890e-01
-9.212721884250640869e-02
2.503425069153308868e-02
-1.386620104312896729e-01
1.201568990945816040e-01
-7.946366071701049805e-02
1.638327538967132568e-01
2.951664850115776062e-03
8.396113663911819458e-02
-2.892839349806308746e-02
-5.758115649223327637e-02
-3.127143159508705139e-02
6.259728223085403442e-02
-6.704557687044143677e-02
9.725402295589447021e-02
1.765549778938293457e-01
-1.080009154975414276e-02
-9.813905507326126099e-02
-3.197441250085830688e-02
-1.528815478086471558e-01
1.655975729227066040e-01
-9.603045135736465454e-02
8.898224681615829468e-02
-1.744094192981719971e-01
1.774359941482543945e-01
1.755287125706672668e-02
1.192133948206901550e-01
-3.793241828680038452e-02
-1.714219003915786743e-01
4.917616397142410278e-02
-1.424294114112854004e-01
-1.915905028581619263e-01
-1.156375855207443237e-01
-2.986492030322551727e-02
2.178746610879898071e-01
4.363833367824554443e-02
1.164393573999404907e-01
-6.628577411174774170e-02
-2.574955113232135773e-03
1.094057932496070862e-01
6.269239634275436401e-02
6.932386662811040878e-03
2.301956266164779663e-01
-1.398806869983673096e-01
5.778473615646362305e-02
-1.290377676486968994e-01
-6.576377898454666138e-02
-1.090096533298492432e-01
-7.301220297813415527e-02
-1.736599504947662354e-01
2.183095812797546387e-01
8.993607014417648315e-02
1.377355009317398071e-01
-3.903938923031091690e-03
-1.965222507715225220e-01
6.726709753274917603e-02
-1.286582350730895996e-01
1.209438964724540710e-01
1.830201297998428345e-01
1.773929595947265625e-01
-5.575927719473838806e-02
-6.929840892553329468e-02
2.065480053424835205e-01
9.454486519098281860e-02
-2.235402725636959076e-02
-1.254848241806030273e-01
-1.884138882160186768e-01
-1.747776716947555542e-01
-1.068502217531204224e-01
-3.263496980071067810e-02
-1.555862575769424438e-01
1.824609190225601196e-01
-1.716081202030181885e-01
3.886325657367706299e-02
1.137046962976455688e-01
4.039200395345687866e-02
1.659809648990631104e-01
-2.010716348886489868e-01
-1.486631482839584351e-01
-7.932439446449279785e-02
-2.109526693820953369e-01
1.364898085594177246e-01
1.993938088417053223e-01
1.767089515924453735e-01
-5.118178948760032654e-02
-3.404265642166137695e-02
2.037513852119445801e-01
-9.527552872896194458e-02
-4.048329591751098633e-02
-9.520327299833297729e-02
-4.204342141747474670e-02
6.748782843351364136e-02
-5.862859636545181274e-02
4.078363627195358276e-02
1.122947782278060913e-01
-1.366615444421768188e-01
4.026891663670539856e-02
3.675806149840354919e-02
1.886419579386711121e-02
-2.229824662208557129e-02
-1.793538220226764679e-02
-2.254083007574081421e-01
1.418851166963577271e-01
-2.207615785300731659e-02
-5.446220189332962036e-02
-1.167916059494018555e-01
-6.377016752958297729e-02
-6.002840399742126465e-02
-1.725119948387145996e-01
-2.130438238382339478e-01
-2.058823555707931519e-01
-1.866143047809600830e-01
-1.874105632305145264e-01
-1.618262827396392822e-01
-3.192627057433128357e-02
-1.475274264812469482e-01
-7.768236100673675537e-02
-1.225313767790794373e-01
1.370908021926879883e-01
-1.998761147260665894e-01
1.986407488584518433e-01
1.344090402126312256e-01
1.504843682050704956e-01
1.889315992593765259e-01
5.265734717249870300e-02
9.766858816146850586e-02
8.402775973081588745e-02
6.093196943402290344e-02
-9.253317862749099731e-02
3.484953194856643677e-02
3.964514285326004028e-02
1.088159158825874329e-01
4.557925276458263397e-03
1.655370891094207764e-01
-1.771706938743591309e-01
-6.820949167013168335e-02
1.946463137865066528e-01
1.455795764923095703e-01
1.123774945735931396e-01
-1.600707918405532837e-01
2.232602834701538086e-01
2.079397588968276978e-01
-2.015771716833114624e-01
8.200199343264102936e-03
-8.560709655284881592e-02
1.590478867292404175e-01
-1.863094568252563477e-01
7.111025601625442505e-02
2.030531316995620728e-01
-6.472933292388916016e-02
7.275755703449249268e-02
9.064888954162597656e-02
-9.459850192070007324e-02
-1.078824326395988464e-01
1.492594182491302490e-01
-9.846140444278717041e-02
-9.182436764240264893e-02
1.688250154256820679e-02
4.212003573775291443e-02
3.290523588657379150e-02
1.187217757105827332e-01
1.681480854749679565e-01
1.423557549715042114e-01
-1.308728158473968506e-01
-1.512074470520019531e-01
-5.905215069651603699e-02
1.493599861860275269e-01
-1.238396856933832169e-02
1.067204624414443970e-01
5.381664633750915527e-02
-6.950258463621139526e-02
2.015811651945114136e-01
-1.467037051916122437e-01
6.240867450833320618e-02
5.310816317796707153e-02
-2.902197418734431267e-03
-1.818828731775283813e-01
1.993888467550277710e-01
-1.001912131905555725e-01
7.293561846017837524e-02
7.629956305027008057e-02
1.901494860649108887e-01
-1.321582347154617310e-01
-1.241534054279327393e-01
1.989272981882095337e-01
-5.490659270435571671e-03
-2.219110541045665741e-02
-8.908760547637939453e-02
-1.255528628826141357e-01
1.530395001173019409e-01
-1.366172730922698975e-01
-5.112462490797042847e-02
1.354397274553775787e-02
-7.923325028968974948e-05
2.287834733724594116e-01
-1.406245976686477661e-01
-4.035782814025878906e-02
-1.228055953979492188e-01
1.035513132810592651e-01
-1.522362679243087769e-01
2.203582376241683960e-01
-1.091710627079010010e-01
-4.803998395800590515e-02
-1.272918432950973511e-01
1.441718339920043945e-01
-1.174211278557777405e-01
-1.916500478982925415e-01
-2.957144565880298615e-02
1.783388406038284302e-01
4.909295216202735901e-02
-1.059389188885688782e-01
-1.055261120200157166e-01
1.247311942279338837e-02
-1.296118199825286865e-01
-4.975242912769317627e-02
2.004905045032501221e-01
-6.729461252689361572e-02
7.191570103168487549e-02
-1.111210659146308899e-01
-9.056954830884933472e-02
-2.072724550962448120e-01
-1.182157993316650391e-01
-4.766961187124252319e-02
6.001091375946998596e-02
-1.635583192110061646e-01
-1.027894765138626099e-01
-1.037671193480491638e-01
-9.531873464584350586e-02
1.657280623912811279e-01
1.649677008390426636e-01
1.856875419616699219e-01
-2.250357121229171753e-01
-9.879817813634872437e-02
4.689234122633934021e-02
-1.640995442867279053e-01
-1.938260346651077271e-01
-1.822010613977909088e-02
-1.077864691615104675e-01
-1.813114732503890991e-01
-4.071163386106491089e-02
6.486804783344268799e-02
-5.094646010547876358e-03
1.136109232902526855e-01
-3.259661840274930000e-03
9.162224084138870239e-02
4.911690577864646912e-02
1.759989857673645020e-01
-7.603706419467926025e-02
-1.562720090150833130e-01
3.000887297093868256e-02
-9.231279790401458740e-02
-9.992469847202301025e-02
-4.146403446793556213e-02
2.722904272377490997e-02
1.145389899611473083e-01
1.206919103860855103e-01
-3.475559875369071960e-02
-5.195355787873268127e-02
-1.032964512705802917e-01
3.783661127090454102e-02
1.286743432283401489e-01
-1.238171383738517761e-01
-1.702772974967956543e-01
-1.202427521347999573e-01
-6.522821635007858276e-02
-7.403863221406936646e-02
2.122799307107925415e-01
-3.675130382180213928e-02
1.280167233198881149e-02
-4.108211956918239594e-03
-8.880960941314697266e-02
-7.426539808511734009e-02
-1.192783862352371216e-01
1.055178046226501465e-01
3.351961076259613037e-02
-1.026950310915708542e-02
1.962290108203887939e-01
2.633856981992721558e-02
6.973772309720516205e-03
-8.076220750808715820e-03
-2.069107741117477417e-01
-1.672691702842712402e-01
8.393944799900054932e-02
-1.544564217329025269e-01
-2.192167639732360840e-01
1.192576214671134949e-01
-8.361698687076568604e-02
-1.050112247467041016e-01
-3.836992010474205017e-02
2.092753648757934570e-01
-1.574308723211288452e-01
-1.764929592609405518e-01
3.040783479809761047e-02
1.200742721557617188e-01
2.212165743112564087e-01
-1.625331342220306396e-01
1.964273750782012939e-01
3.641215735115110874e-04
7.132710516452789307e-02
1.992051303386688232e-01
-1.398017704486846924e-01
-1.603463478386402130e-02
5.229761451482772827e-02
-4.008961841464042664e-02
-1.835472434759140015e-01
3.641838952898979187e-02
-1.541005223989486694e-01
-1.910143643617630005e-01
1.453395783901214600e-01
-1.920101642608642578e-01
1.133206114172935486e-02
4.789675772190093994e-02
-4.814134538173675537e-02
4.778720811009407043e-02
-1.719454824924468994e-01
-1.724063307046890259e-01
1.099088490009307861e-01
-1.805874258279800415e-01
1.859646588563919067e-01
-2.249908596277236938e-01
-1.666243076324462891e-01
-5.587275605648756027e-03
-1.430230736732482910e-01
1.554968357086181641e-01
-1.759761720895767212e-01
7.716052234172821045e-02
2.073366791009902954e-01
2.759196795523166656e-02
1.030115410685539246e-01
1.216225326061248779e-01
-2.705347351729869843e-02
1.581460684537887573e-01
2.196784913539886475e-01
1.694702357053756714e-01
1.028889715671539307e-01
1.298232227563858032e-01
1.426709592342376709e-01
1.780581325292587280e-01
7.757209241390228271e-02
4.301805514842271805e-03
-1.230103299021720886e-01
-1.180117577314376831e-01
-2.032491266727447510e-01
-1.010409556329250336e-03
-9.602668881416320801e-02
2.400273829698562622e-02
2.042890638113021851e-01
3.677302971482276917e-02
2.039409801363945007e-02
-1.829847246408462524e-01
-2.210054546594619751e-01
9.134357422590255737e-02
-1.709605902433395386e-01
-1.926260888576507568e-01
1.284555047750473022e-01
4.368794336915016174e-02
-9.561302512884140015e-02
9.442441910505294800e-02
1.678720712661743164e-01
1.472754627466201782e-01
1.012148559093475342e-01
9.344618022441864014e-02
-2.789888903498649597e-02
1.564457267522811890e-01
-8.868450671434402466e-02
-1.140411645174026489e-01
9.106962382793426514e-02
1.524857133626937866e-01
-1.076479628682136536e-01
-9.589914232492446899e-02
-1.135631278157234192e-01
4.482494667172431946e-02
-2.272316366434097290e-01
-2.274769991636276245e-01
-6.888144463300704956e-02
1.996557414531707764e-01
-1.458505988121032715e-01
5.453339591622352600e-02
2.738443575799465179e-02
2.089626044034957886e-01
7.098964601755142212e-02
2.203343212604522705e-01
-8.007398247718811035e-02
3.807529341429471970e-03
1.657421588897705078e-01
-2.209077775478363037e-01
1.490250788629055023e-02
1.500283628702163696e-01
-1.500255316495895386e-01
1.134779378771781921e-01
-1.233140081167221069e-01
1.218795403838157654e-01
-4.676731675863265991e-02
-4.626107588410377502e-02
-2.153599262237548828e-01
2.090098708868026733e-01
-1.445603072643280029e-01
-8.650392293930053711e-02
7.683040201663970947e-02
1.605942547321319580e-01
-1.889958530664443970e-01
-1.965683996677398682e-01
-1.289168149232864380e-01
-1.883262395858764648e-01
-2.517836540937423706e-02
-1.614978760480880737e-01
1.909742951393127441e-01
1.590964645147323608e-01
1.600336879491806030e-01
1.651316434144973755e-01
-2.225333899259567261e-01
1.933764666318893433e-01
-1.325110942125320435e-01
1.345897018909454346e-01
-1.314340829849243164e-01
8.222454925999045372e-04
3.580749407410621643e-02
-8.058312535285949707e-02
2.331528067588806152e-01
1.642332971096038818e-01
4.242018982768058777e-02
1.880740374326705933e-01
-1.171408593654632568e-01
1.911589503288269043e-01
1.137967035174369812e-01
1.083561852574348450e-01
8.399686217308044434e-02
2.021799385547637939e-01
-4.594090580940246582e-02
-5.916877835988998413e-02
-3.414030373096466064e-02
1.362215578556060791e-01
7.126674056053161621e-02
-1.842854171991348267e-01
1.726827323436737061e-01
1.923346668481826782e-01
2.355077713727951050e-01
1.783354282379150391e-01
-1.109752655029296875e-01
-2.088217586278915405e-01
-1.930726021528244019e-01
-1.395966857671737671e-01
9.859430044889450073e-02
-8.916325867176055908e-02
-5.854888819158077240e-03
-1.326256990432739258e-01
-1.543965786695480347e-01
-8.810434490442276001e-02
-8.549729734659194946e-02
3.503296524286270142e-02
-4.002471640706062317e-02
-3.003104962408542633e-02
5.473207309842109680e-02
-1.705455183982849121e-01
-1.756878346204757690e-01
-2.494668401777744293e-02
2.188158184289932251e-01
1.111080348491668701e-01
3.927050530910491943e-02
-1.674475669860839844e-01
8.783169835805892944e-02
1.871179342269897461e-01
7.466505467891693115e-02
-1.187158972024917603e-01
5.103222094476222992e-03
-4.654806479811668396e-02
3.418640047311782837e-02
1.473197788000106812e-01
1.485456377267837524e-01
1.213574409484863281e-01
-1.793271601200103760e-01
-1.216023713350296021e-01
-2.012415230274200439e-01
-8.068420737981796265e-02
3.989540413022041321e-02
7.658021152019500732e-02
1.713815033435821533e-01
-1.472532749176025391e-01
-4.443194251507520676e-03
-6.893905252218246460e-02
-8.352334052324295044e-02
1.319310516119003296e-01
-8.164171874523162842e-02
2.161106765270233154e-01
1.179796978831291199e-01
-1.521269083023071289e-01
-1.240393966436386108e-01
1.742888242006301880e-02
2.024330496788024902e-01
-8.554358035326004028e-02
-2.015610933303833008e-01
-2.869847789406776428e-02
-4.301639646291732788e-02
-1.792419552803039551e-01
-1.704729795455932617e-01
-2.088843733072280884e-01
-9.000246226787567139e-02
-1.821517348289489746e-01
1.952970623970031738e-01
7.616100460290908813e-02
-3.637806745246052742e-03
-1.802271008491516113e-01
1.332826614379882812e-01
-6.185125932097434998e-02
-7.612144108861684799e-03
3.462382033467292786e-02
1.023957803845405579e-01
-8.079762756824493408e-02
1.036079153418540955e-01
-7.174172997474670410e-02
-6.261314451694488525e-02
3.523173183202743530e-02
-1.429318189620971680e-01
1.623765677213668823e-01
1.002173498272895813e-01
-1.495684534311294556e-01
6.499000638723373413e-02
-1.091037765145301819e-01
7.184059172868728638e-02
9.228156507015228271e-02
2.874644100666046143e-02
-1.562758237123489380e-01
1.384187340736389160e-01
1.752946674823760986e-01
9.185926057398319244e-03
1.596648842096328735e-01
1.372248232364654541e-01
1.953911632299423218e-01
1.955751143395900726e-02
-2.065482735633850098e-01
1.841802150011062622e-01
1.887248903512954712e-01
1.166120097041130066e-01
1.908076554536819458e-01
2.818973176181316376e-02
1.373146623373031616e-01
1.402091234922409058e-01
-1.290639042854309082e-01
3.181942552328109741e-02
-6.215446442365646362e-02
8.516304194927215576e-02
-1.856346279382705688e-01
-2.070745974779129028e-01
-1.020187810063362122e-01
1.908111153170466423e-03
-1.365898996591567993e-01
-1.401710361242294312e-01
-1.718705296516418457e-01
-1.944512575864791870e-01
1.588369309902191162e-01
2.754143066704273224e-02
2.272534370422363281e-02
-4.895807057619094849e-02
1.857347339391708374e-01
-1.730281710624694824e-01
1.512096971273422241e-01
-1.894585192203521729e-01
1.570117324590682983e-01
-2.005490958690643311e-01
1.687005013227462769e-01
1.167813837528228760e-01
1.173018366098403931e-01
9.593361988663673401e-03
6.237690523266792297e-02
-1.264081448316574097e-01
-3.801733255386352539e-02
1.716143637895584106e-02
9.873413294553756714e-02
-1.645060181617736816e-01
1.984440833330154419e-01
1.005040332674980164e-01
2.166952639818191528e-01
-1.851493418216705322e-01
1.214870661497116089e-01
3.486886620521545410e-02
-1.679727286100387573e-01
1.568689197301864624e-01
-8.633777499198913574e-02
2.637733891606330872e-02
1.032347530126571655e-01
1.070746332406997681e-01
-1.551220566034317017e-01
-1.408871561288833618e-01
-1.110051348805427551e-01
7.640086114406585693e-02
1.333936601877212524e-01
1.392594873905181885e-01
-7.280645519495010376e-02
-7.178615033626556396e-02
9.552104771137237549e-02
9.090161323547363281e-02
-1.733764857053756714e-01
-3.929170779883861542e-03
5.016203969717025757e-02
2.653153846040368080e-03
1.783177703619003296e-01
2.851554565131664276e-02
-1.058512255549430847e-01
-1.126952916383743286e-01
1.289891600608825684e-01
-8.864998072385787964e-02
1.691946089267730713e-01
1.473172754049301147e-01
-5.121983122080564499e-04
-1.116222664713859558e-01
1.116178780794143677e-01
1.469852626323699951e-01
-6.113602221012115479e-02
1.377503573894500732e-01
3.216661512851715088e-02
-1.244481578469276428e-01
-3.787737339735031128e-02
-7.534356415271759033e-02
4.273569211363792419e-02
-1.576951146125793457e-02
1.502227224409580231e-02
1.118186935782432556e-01
-8.351397514343261719e-02
5.186342075467109680e-02
-6.789828836917877197e-02
-1.100381240248680115e-01
-1.689890176057815552e-01
-1.912828236818313599e-01
-6.231674924492835999e-02
5.615790560841560364e-02
1.097304597496986389e-01
-1.125542595982551575e-01
2.058631777763366699e-01
-3.248989209532737732e-02
-1.492765843868255615e-01
-1.184674650430679321e-01
1.732078045606613159e-01
-6.105422973632812500e-02
1.475045830011367798e-01
-2.098416239023208618e-01
4.830092191696166992e-02
7.935678958892822266e-02
-6.151124462485313416e-02
-1.466868221759796143e-01
-1.711657792329788208e-01
1.108827665448188782e-01
1.655404567718505859e-01
-4.070547595620155334e-02
-1.843679845333099365e-01
