-2.181296497583389282e-01
3.588039278984069824e-01
-8.447399595752358437e-04
1.485513001680374146e-01
-2.384471446275711060e-01
4.996009469032287598e-01
-3.653712272644042969e-01
-7.391932010650634766e-01
-6.612109541893005371e-01
-1.579942405223846436e-01
-5.930154919624328613e-01
3.669259846210479736e-01
-2.445304207503795624e-02
-1.339466691017150879e+00
1.830450445413589478e-02
2.110290080308914185e-01
-1.090829148888587952e-01
1.091688990592956543e+00
-6.004005670547485352e-01
2.210339307785034180e-01
-9.925197064876556396e-02
8.355337381362915039e-02
1.022583916783332825e-01
1.575536131858825684e-01
-6.764262169599533081e-02
8.831938505172729492e-01
3.770384192466735840e-01
5.897222086787223816e-02
6.312086582183837891e-01
1.051600947976112366e-01
1.229123095981776714e-03
-4.204580485820770264e-01
4.880772531032562256e-01
2.813947200775146484e-01
-5.001734495162963867e-01
1.890196949243545532e-01
-2.469589374959468842e-02
5.908019542694091797e-01
5.549818277359008789e-01
2.132348120212554932e-01
-5.672186017036437988e-01
6.791501045227050781e-01
-3.413371145725250244e-01
6.758491396903991699e-01
-6.850444674491882324e-01
7.117770910263061523e-01
-5.312303900718688965e-01
6.479739546775817871e-01
3.460934758186340332e-02
-1.443757396191358566e-02
7.381930351257324219e-01
4.961194694042205811e-01
-1.016855359077453613e+00
3.177496492862701416e-01
-6.672618389129638672e-01
-3.276825249195098877e-01
-8.176606893539428711e-01
6.644245386123657227e-01
3.222107291221618652e-01
-8.423156738281250000e-01
2.721869349479675293e-01
-2.213694900274276733e-01
-5.704738572239875793e-02
-2.336657196283340454e-01
1.588880270719528198e-01
1.022983863949775696e-01
-2.655069530010223389e-01
-6.695803254842758179e-02
-7.598716299980878830e-03
9.821259975433349609e-02
-1.743555665016174316e-01
-4.631709679961204529e-02
3.010446429252624512e-01
-1.430586576461791992e-01
8.876637369394302368e-02
9.592878818511962891e-02
1.703165769577026367e-01
1.380155533552169800e-01
-3.156977938488125801e-03
3.032590746879577637e-01
1.591516844928264618e-02
-8.999975770711898804e-02
-2.199215888977050781e-01
-2.485568523406982422e-01
-2.032200992107391357e-01
-1.182317435741424561e-01
-5.217139050364494324e-02
1.722155958414077759e-01
9.870778024196624756e-02
5.582785233855247498e-02
1.122648343443870544e-01
1.229538097977638245e-01
4.984265565872192383e-02
9.010559320449829102e-02
3.072829358279705048e-02
-3.201864063739776611e-01
-4.648020118474960327e-02
1.815128028392791748e-01
-8.875422179698944092e-02
1.196048259735107422e-01
-2.291868329048156738e-01
1.623537689447402954e-01
-2.015239000320434570e-01
3.871129453182220459e-02
-3.080895841121673584e-01
-2.813246659934520721e-02
2.291728109121322632e-01
2.832214534282684326e-01
-9.740059822797775269e-02
-4.013198986649513245e-02
1.540372371673583984e-01
2.890006601810455322e-01
1.261642873287200928e-01
2.072082906961441040e-01
-1.322333365678787231e-01
8.043427020311355591e-02
-1.524727940559387207e-01
4.399926587939262390e-02
5.351947154849767685e-03
8.401104062795639038e-02
1.172518916428089142e-02
-1.958490759134292603e-01
1.734727174043655396e-01
1.378348767757415771e-01
1.171531006693840027e-01
1.716171950101852417e-01
2.318543046712875366e-01
2.278912365436553955e-01
-2.766953110694885254e-01
-1.288759410381317139e-01
-7.559576630592346191e-02
-8.939412655308842659e-04
7.096025347709655762e-02
-1.395878493785858154e-01
-2.877584286034107208e-02
1.266179531812667847e-01
-3.449976071715354919e-02
9.442722052335739136e-02
-1.030932366847991943e-01
-8.477281033992767334e-02
1.209833938628435135e-02
-1.530591249465942383e-01
1.558848619461059570e-01
-3.030267655849456787e-01
1.312066167593002319e-01
7.379373162984848022e-02
-2.884117066860198975e-01
1.484120488166809082e-01
3.297240734100341797e-01
2.544865710660815239e-04
-1.499039828777313232e-01
-1.455952674150466919e-01
-1.467475958634167910e-04
1.180322319269180298e-01
-2.913427352905273438e-02
-2.519188821315765381e-01
7.518758624792098999e-02
-3.910052403807640076e-02
3.125548064708709717e-01
2.048426866531372070e-01
-1.731360256671905518e-01
1.551872938871383667e-01
-4.034932255744934082e-01
1.026043668389320374e-02
8.135683834552764893e-02
1.421824656426906586e-02
4.490360021591186523e-01
-2.678948268294334412e-02
-3.422592878341674805e-01
-2.144932597875595093e-01
3.442967534065246582e-01
2.329263836145401001e-01
2.062017023563385010e-01
1.492099910974502563e-01
-1.711468845605850220e-01
2.047589719295501709e-01
2.113685607910156250e-01
-1.488795429468154907e-01
-1.693557649850845337e-01
1.554414778947830200e-01
1.276908218860626221e-01
-1.187556907534599304e-01
-1.187365055084228516e-01
-9.829460829496383667e-02
4.155812785029411316e-02
-2.583262138068675995e-02
2.704447209835052490e-01
-1.181548908352851868e-01
-1.821133941411972046e-01
3.146891593933105469e-01
2.478257119655609131e-01
-1.999480277299880981e-01
3.506089448928833008e-01
4.788276739418506622e-03
-1.001386567950248718e-01
-1.351321190595626831e-01
-1.386804133653640747e-01
1.704171746969223022e-01
-1.712227910757064819e-01
-7.955555617809295654e-02
1.178319081664085388e-01
2.462950646877288818e-01
-9.201585501432418823e-02
2.859769575297832489e-02
-2.169615030288696289e-01
3.219796344637870789e-02
3.032374978065490723e-01
1.564579755067825317e-01
-4.115094617009162903e-02
-1.467918902635574341e-01
1.307270377874374390e-01
3.346890807151794434e-01
1.559947282075881958e-01
6.530997157096862793e-02
-2.358563691377639771e-01
7.329729199409484863e-02
3.809247910976409912e-02
1.165858954191207886e-01
5.316931381821632385e-02
1.194308549165725708e-01
2.055018991231918335e-01
-1.081399321556091309e-01
3.600125908851623535e-01
2.120332866907119751e-01
2.789759039878845215e-01
-8.708678185939788818e-02
-3.329382240772247314e-01
-1.382068693637847900e-01
1.873060129582881927e-02
3.766991198062896729e-01
-1.325593292713165283e-01
4.116050153970718384e-02
6.926361471414566040e-02
-3.328179717063903809e-01
-1.533236652612686157e-01
-1.753287017345428467e-01
1.769565194845199585e-01
9.651415981352329254e-03
-9.534546732902526855e-02
3.883450105786323547e-02
-1.653808951377868652e-01
9.911304712295532227e-02
-1.806802451610565186e-01
2.855981513857841492e-02
-1.295882314443588257e-01
-5.738909542560577393e-02
-1.418115645647048950e-01
6.586737930774688721e-02
-2.819295823574066162e-01
-2.350501418113708496e-01
7.701846770942211151e-03
-2.164791822433471680e-01
1.731581985950469971e-01
-1.364587694406509399e-01
1.601586341857910156e-01
-5.369194224476814270e-02
1.285713911056518555e-01
1.307549774646759033e-01
-1.188616305589675903e-01
1.818358898162841797e-02
-1.893391832709312439e-02
-1.429886817932128906e-01
7.684300839900970459e-02
3.264696300029754639e-01
1.940706819295883179e-01
1.678299009799957275e-01
1.971293427050113678e-02
4.987033456563949585e-02
-1.221413537859916687e-01
6.768956035375595093e-02
-1.394224166870117188e-01
-1.508720368146896362e-01
-6.300090253353118896e-02
-4.918147921562194824e-01
-2.312132716178894043e-01
2.626233100891113281e-01
-1.525680422782897949e-01
2.264589220285415649e-01
-3.082860708236694336e-01
6.891332566738128662e-02
3.455705940723419189e-02
8.331599086523056030e-02
-1.364175677299499512e-01
3.112354278564453125e-01
-2.537867724895477295e-01
1.845006942749023438e-01
-2.036987245082855225e-01
-1.449410617351531982e-02
4.280900359153747559e-01
3.140200674533843994e-02
-2.324253618717193604e-01
-1.686049103736877441e-01
-6.037172079086303711e-01
-1.332048028707504272e-01
1.466127485036849976e-01
2.135681807994842529e-01
1.151231005787849426e-01
-2.684646099805831909e-02
2.194513082504272461e-01
-1.787286251783370972e-02
-2.346359044313430786e-01
-3.420138955116271973e-01
-1.826205849647521973e-01
3.115676343441009521e-01
-6.396543979644775391e-02
6.772357225418090820e-02
-5.600844621658325195e-01
-2.186822295188903809e-01
4.567750692367553711e-01
1.176889762282371521e-01
-3.079781532287597656e-01
-1.833800226449966431e-01
-6.508971452713012695e-01
-9.262243285775184631e-03
1.761957257986068726e-01
3.286892175674438477e-01
2.414376102387905121e-02
-1.354642361402511597e-01
-2.221971452236175537e-01
-1.216761842370033264e-01
-5.228674784302711487e-02
-1.593911275267601013e-02
8.488170057535171509e-02
-3.290427029132843018e-01
-1.892362833023071289e-01
3.469728827476501465e-01
-1.634212583303451538e-02
2.472074478864669800e-01
1.943013258278369904e-02
-3.366512805223464966e-02
-1.480709016323089600e-01
-3.062626346945762634e-02
2.914430499076843262e-01
8.045736700296401978e-02
-7.033273577690124512e-02
1.048926636576652527e-01
2.870232239365577698e-02
2.186202555894851685e-01
1.818418502807617188e-02
5.836367607116699219e-02
2.873403429985046387e-01
-7.315193116664886475e-02
-4.889329895377159119e-02
2.938859909772872925e-02
-4.765332490205764771e-02
-1.423687189817428589e-01
-1.698878407478332520e-01
-3.168933987617492676e-01
-4.329884424805641174e-02
-1.835747063159942627e-02
-1.737011075019836426e-01
-1.208420544862747192e-01
9.553719311952590942e-02
-1.232491508126258850e-01
1.582031100988388062e-01
-8.776746690273284912e-02
2.424441128969192505e-01
-1.054905261844396591e-02
1.337150186300277710e-01
-7.005599886178970337e-02
-1.005798205733299255e-01
-4.234089851379394531e-01
-2.505006790161132812e-01
1.893030554056167603e-01
-1.780082434415817261e-01
1.773788221180438995e-02
-5.920873880386352539e-01
-1.898379474878311157e-01
3.142782449722290039e-01
-9.746682643890380859e-02
-3.296935558319091797e-01
-1.557192653417587280e-01
-5.112867951393127441e-01
-6.983249634504318237e-02
1.605996042490005493e-01
2.916483394801616669e-02
-1.687032431364059448e-01
2.794792316854000092e-02
3.481017798185348511e-02
-1.238534972071647644e-01
1.069716662168502808e-01
-9.322099387645721436e-02
-6.604897975921630859e-02
-1.387812346220016479e-01
5.945902317762374878e-02
1.780310086905956268e-02
-5.059145092964172363e-01
-2.393287271261215210e-01
5.297960042953491211e-01
-2.410319596529006958e-01
-1.694804430007934570e-01
-5.399996042251586914e-02
-4.127082824707031250e-01
7.442049682140350342e-02
-2.066620439291000366e-02
-4.299414902925491333e-02
7.311232388019561768e-02
3.564459457993507385e-02
6.378176808357238770e-02
2.807430922985076904e-01
-1.490830779075622559e-01
4.649373516440391541e-02
-2.871794402599334717e-01
4.136714041233062744e-01
-4.558912292122840881e-02
-2.870177030563354492e-01
2.992486394941806793e-02
-2.044894546270370483e-01
-2.064950317144393921e-01
-1.884386315941810608e-02
1.867789924144744873e-01
-1.866455674171447754e-01
-4.410413205623626709e-01
1.650898754596710205e-01
-8.557525277137756348e-02
8.421060442924499512e-02
-2.716445177793502808e-02
-4.623892158269882202e-02
-3.318159878253936768e-01
-3.672672510147094727e-01
2.057617157697677612e-01
2.847830951213836670e-01
1.096770018339157104e-01
-1.702958494424819946e-01
4.380249977111816406e-02
8.750631660223007202e-02
4.337340295314788818e-01
3.173690438270568848e-01
-5.261724591255187988e-01
9.506284445524215698e-02
2.213410735130310059e-01
1.100725978612899780e-01
5.273184776306152344e-01
1.134632155299186707e-01
8.690296858549118042e-02
-3.464075922966003418e-01
2.185108959674835205e-01
5.247870087623596191e-02
1.294218599796295166e-01
-1.363153755664825439e-01
1.044940799474716187e-01
-2.843461334705352783e-01
-3.080805242061614990e-01
2.054546624422073364e-01
1.609582751989364624e-01
-2.113022059202194214e-01
-3.818045854568481445e-01
1.714778505265712738e-02
3.467875123023986816e-01
1.060739606618881226e-01
-1.768513768911361694e-02
-8.654057234525680542e-02
-2.381589114665985107e-01
1.293037682771682739e-01
1.264804881066083908e-02
1.449073851108551025e-02
2.512641996145248413e-02
5.116099119186401367e-02
8.830521255731582642e-03
-1.020808741450309753e-01
-2.222217470407485962e-01
1.328409910202026367e-01
2.869307994842529297e-02
1.121386587619781494e-01
-8.243393898010253906e-02
2.065593898296356201e-01
-1.092078164219856262e-01
1.738673597574234009e-01
-2.536780238151550293e-01
1.221885830163955688e-01
1.389405876398086548e-01
-1.739518940448760986e-01
-1.548038721084594727e-01
-1.397113054990768433e-01
-3.172289133071899414e-01
-2.645925283432006836e-01
-1.389566343277692795e-02
2.157126814126968384e-01
2.143294215202331543e-01
-1.305742412805557251e-01
-2.647899985313415527e-01
3.419131636619567871e-01
2.732361853122711182e-01
3.622014820575714111e-01
-1.357681751251220703e-01
4.377821385860443115e-01
5.678450316190719604e-02
1.848463416099548340e-01
-3.865013271570205688e-02
1.575717516243457794e-02
1.762031912803649902e-01
-3.648658692836761475e-01
-5.659209489822387695e-01
2.726383507251739502e-01
-2.141275703907012939e-01
-4.035678803920745850e-01
-4.680767655372619629e-03
-1.877563297748565674e-01
6.321061253547668457e-01
-3.465546667575836182e-01
-3.111848235130310059e-01
-2.306645959615707397e-01
1.021461412310600281e-01
-1.261442452669143677e-01
2.605333924293518066e-01
-3.197793364524841309e-01
-2.132692486047744751e-01
2.215100675821304321e-01
1.024228706955909729e-01
-1.464071124792098999e-01
-1.260940730571746826e-01
3.970681130886077881e-01
2.550739049911499023e-01
-1.684490591287612915e-02
-1.041247248649597168e-01
9.849654138088226318e-02
-1.261173039674758911e-01
1.825424581766128540e-01
2.362014725804328918e-02
2.438371181488037109e-01
-1.614452004432678223e-01
5.720821022987365723e-02
-1.083098258823156357e-02
-1.062281280755996704e-01
-7.912766188383102417e-02
-4.305881559848785400e-01
1.706049963831901550e-02
1.774616092443466187e-01
3.803459703922271729e-01
8.688393235206604004e-02
5.647720769047737122e-02
2.948892712593078613e-01
2.608841359615325928e-01
-9.207442402839660645e-02
-2.380825728178024292e-01
1.644944399595260620e-01
3.223046958446502686e-01
3.706544637680053711e-03
-1.597690433263778687e-01
1.390364468097686768e-01
-4.501816630363464355e-01
-8.969543129205703735e-02
4.261514842510223389e-01
3.155882358551025391e-01
-5.734658241271972656e-01
1.585910320281982422e-01
1.169479489326477051e-01
3.929413557052612305e-01
-2.498241513967514038e-01
2.666696906089782715e-01
8.572267740964889526e-02
-1.266179680824279785e-01
-4.552801847457885742e-01
-3.034560084342956543e-01
-2.826402187347412109e-01
-5.167237520217895508e-01
-4.164460301399230957e-01
2.903045415878295898e-01
5.222629904747009277e-01
-2.177073955535888672e-01
1.483646333217620850e-01
-1.889609694480895996e-01
-2.164300978183746338e-01
3.963752835988998413e-02
-2.184489816427230835e-01
4.997198879718780518e-01
1.266580969095230103e-01
-4.514063522219657898e-02
-1.759091913700103760e-01
-1.878395229578018188e-01
-2.330759167671203613e-02
-5.424906015396118164e-01
-4.542173147201538086e-01
-4.172895476222038269e-02
-1.091379001736640930e-01
-6.254612207412719727e-01
-3.983300328254699707e-01
-1.607479304075241089e-01
3.596122860908508301e-01
-4.799630641937255859e-01
-1.344538331031799316e-01
-2.036796510219573975e-01
-1.653883308172225952e-01
-1.589831858873367310e-01
-1.396321319043636322e-02
-2.851429879665374756e-01
8.312633633613586426e-02
-1.201209202408790588e-01
9.543929994106292725e-02
-1.709263473749160767e-01
6.721392273902893066e-02
1.614987105131149292e-01
-2.385338395833969116e-01
2.410145699977874756e-01
1.069564223289489746e-01
2.731869816780090332e-01
3.176403939723968506e-01
-1.244246661663055420e-01
3.778385743498802185e-02
2.010546922683715820e-01
7.272555958479642868e-03
1.902838349342346191e-01
1.944751143455505371e-01
-2.949687540531158447e-01
2.552820742130279541e-01
2.403944283723831177e-01
-2.441160231828689575e-01
3.127564787864685059e-01
-3.072860240936279297e-01
-7.411332428455352783e-02
-4.411038383841514587e-02
2.450227364897727966e-02
-1.834664344787597656e-01
-3.651650995016098022e-02
-1.082151532173156738e-01
-5.540366843342781067e-02
-8.685889095067977905e-02
1.770885661244392395e-02
1.528575867414474487e-01
-1.212833523750305176e-01
-2.283079624176025391e-01
1.723143905401229858e-01
-5.787318106740713120e-03
-1.112456992268562317e-01
2.314472571015357971e-02
-3.620599508285522461e-01
1.046638861298561096e-01
-1.251523289829492569e-02
3.385847210884094238e-01
4.616872221231460571e-02
1.955571174621582031e-01
3.196867406368255615e-01
2.216286361217498779e-01
1.061198711395263672e-01
-2.500873804092407227e-01
3.303638398647308350e-01
-1.055829133838415146e-02
1.755216419696807861e-01
-3.153536021709442139e-01
4.007176160812377930e-01
-1.671459972858428955e-01
3.522478640079498291e-01
3.486874699592590332e-01
-3.956615924835205078e-01
5.410715192556381226e-02
4.780069887638092041e-01
1.616728007793426514e-01
2.349205762147903442e-01
-4.447721540927886963e-01
-8.310833573341369629e-02
2.314397096633911133e-01
-1.770372688770294189e-01
-2.957630455493927002e-01
2.742533981800079346e-01
-2.088941633701324463e-01
-3.286637365818023682e-02
7.359173893928527832e-02
1.035184115171432495e-01
1.453675776720046997e-01
-1.821407228708267212e-01
-2.731572389602661133e-01
-1.537292599678039551e-01
2.030089646577835083e-01
-2.154165804386138916e-01
3.515717685222625732e-01
1.081891134381294250e-01
-1.390025913715362549e-01
1.104272305965423584e-01
1.526756435632705688e-01
-2.402545511722564697e-01
-2.072779983282089233e-01
-1.261215955018997192e-01
1.612887978553771973e-01
1.610060334205627441e-01
5.552062019705772400e-02
-1.103830561041831970e-01
2.158538550138473511e-01
1.988094002008438110e-01
-6.091757863759994507e-02
4.599219933152198792e-02
-1.662049889564514160e-01
-1.108362004160881042e-01
-5.627377703785896301e-02
-8.424924314022064209e-02
7.101249694824218750e-02
-2.690817415714263916e-01
5.710849910974502563e-02
-1.845028251409530640e-01
7.532173302024602890e-03
-2.627043426036834717e-02
2.326084822416305542e-01
2.602529525756835938e-01
-3.786636888980865479e-02
-2.881753742694854736e-01
-3.159389197826385498e-01
1.333388537168502808e-01
1.664412319660186768e-01
3.039214313030242920e-01
-1.802961155772209167e-02
-7.460141927003860474e-02
2.502822875976562500e-01
5.654202774167060852e-02
-2.035850584506988525e-01
-2.838253080844879150e-01
1.070976257324218750e-01
-4.876450598239898682e-01
-2.264991849660873413e-01
-3.029184639453887939e-01
4.394780099391937256e-01
6.687811762094497681e-02
-1.047030836343765259e-01
3.389543592929840088e-01
3.350430130958557129e-01
1.794912815093994141e-01
5.404983460903167725e-02
2.566512525081634521e-01
2.027327716350555420e-01
-2.110331654548645020e-01
-3.102806210517883301e-01
3.830085992813110352e-01
-1.781345903873443604e-01
-9.751491248607635498e-02
5.199727416038513184e-02
1.407983992248773575e-02
-2.340162992477416992e-01
2.464833855628967285e-01
-4.104218631982803345e-02
1.490351557731628418e-01
7.954552024602890015e-02
-6.621044594794511795e-03
8.087806403636932373e-02
-2.469839900732040405e-01
2.677276171743869781e-02
-2.216299027204513550e-01
1.056578680872917175e-01
9.451811201870441437e-03
-2.387564331293106079e-01
1.184490248560905457e-01
1.953309923410415649e-01
-1.271331906318664551e-01
1.449658870697021484e-01
3.655025959014892578e-01
1.303062438964843750e-01
6.463918834924697876e-02
1.775429993867874146e-01
1.626727404072880745e-03
1.986498013138771057e-02
2.945893704891204834e-01
1.096514165401458740e-01
2.514334954321384430e-02
-2.490008175373077393e-01
-1.625612527132034302e-01
-7.295715808868408203e-01
3.157773911952972412e-01
-7.922951132059097290e-03
-4.636888802051544189e-01
-1.783780902624130249e-01
-5.568478107452392578e-01
5.836468935012817383e-01
-2.791214585304260254e-01
-3.564849495887756348e-02
2.265035212039947510e-01
-2.267304807901382446e-01
-1.184367462992668152e-01
2.131328731775283813e-01
-2.953387796878814697e-01
-2.909191548824310303e-01
-2.660265658050775528e-03
3.117921587545424700e-04
1.020039319992065430e-01
-9.642836451530456543e-02
1.808143854141235352e-01
4.290339946746826172e-01
-2.378052324056625366e-01
-4.140758886933326721e-02
3.350608646869659424e-01
4.937143623828887939e-01
7.585668005049228668e-03
-1.758052855730056763e-01
1.788036525249481201e-01
2.429667413234710693e-01
9.481307119131088257e-02
2.038367986679077148e-01
-1.451695561408996582e-01
-7.709089666604995728e-02
5.985009670257568359e-02
-1.344112753868103027e-01
5.700486525893211365e-02
-2.480065226554870605e-01
7.898069918155670166e-02
-2.517250180244445801e-01
-1.227808073163032532e-01
7.331404089927673340e-02
-2.168610692024230957e-01
2.543535530567169189e-01
-8.308605849742889404e-02
-1.505466401576995850e-01
7.142224162817001343e-02
-6.195854023098945618e-02
1.114318817853927612e-01
2.791450321674346924e-01
2.350561916828155518e-01
-2.642374634742736816e-01
5.298115313053131104e-02
1.088993251323699951e-02
1.731207780539989471e-02
2.627929449081420898e-01
-3.076635599136352539e-01
8.624836802482604980e-02
4.276784509420394897e-02
-3.019194863736629486e-02
1.219600737094879150e-01
-2.963592410087585449e-01
-1.167354062199592590e-01
4.200972989201545715e-02
-1.487417519092559814e-01
-5.405288189649581909e-02
3.835530951619148254e-02
1.502776741981506348e-01
8.160959184169769287e-02
1.846640110015869141e-01
1.175346551463007927e-03
-6.610888987779617310e-02
-9.204713255167007446e-02
-1.053201556205749512e-01
3.641890287399291992e-01
3.206362724304199219e-01
1.886671991087496281e-03
5.987669155001640320e-02
5.776980146765708923e-02
-1.659564226865768433e-01
-4.424430727958679199e-01
-4.349589645862579346e-01
3.294130861759185791e-01
9.338677674531936646e-02
-5.915253162384033203e-01
-2.056192457675933838e-01
-1.979464441537857056e-01
2.006397247314453125e-01
-4.806837439537048340e-01
5.713520571589469910e-02
7.840687781572341919e-02
2.781349420547485352e-01
-8.748790621757507324e-02
2.265988588333129883e-01
-1.265497952699661255e-01
-3.004527091979980469e-01
-4.161658138036727905e-02
-4.641142785549163818e-01
3.160884380340576172e-01
-1.351381093263626099e-01
4.161638021469116211e-02
-2.573003806173801422e-02
2.378654927015304565e-01
-8.372296392917633057e-02
4.400997459888458252e-01
3.006825745105743408e-01
1.105668023228645325e-02
-2.633630931377410889e-01
-3.650816082954406738e-01
8.246805518865585327e-02
-1.098041906952857971e-01
-2.997810840606689453e-01
1.691724509000778198e-01
2.084680348634719849e-01
-5.328914150595664978e-02
-3.643738850951194763e-02
-2.406949549913406372e-01
-9.046322666108608246e-03
1.615719795227050781e-01
-1.907811313867568970e-01
-3.638775646686553955e-02
5.277706980705261230e-01
9.149428457021713257e-02
1.746205687522888184e-01
5.038577914237976074e-01
2.768707573413848877e-01
8.513510227203369141e-02
-5.686361789703369141e-01
1.632270812988281250e-01
2.161573171615600586e-01
2.058431655168533325e-01
-1.082119420170783997e-01
3.750547766685485840e-03
-1.855681836605072021e-01
-1.578647941350936890e-01
-1.336844712495803833e-01
1.131266951560974121e-01
8.105009049177169800e-02
8.330401964485645294e-03
1.515501290559768677e-01
-3.676940128207206726e-02
1.775896549224853516e-01
9.536381065845489502e-02
-6.802260130643844604e-02
-2.307659089565277100e-01
-1.154872402548789978e-01
-1.769263297319412231e-01
2.874658405780792236e-01
6.410177052021026611e-02
-8.081233501434326172e-02
7.149887830018997192e-02
5.200948938727378845e-02
-1.441805064678192139e-01
-5.342652201652526855e-01
1.206314861774444580e-01
-1.849146038293838501e-01
5.377567410469055176e-01
-2.546228170394897461e-01
-1.300980597734451294e-01
1.862734109163284302e-01
2.009788155555725098e-01
-1.794454902410507202e-01
-1.375781297683715820e-01
3.365788757801055908e-01
-3.415644764900207520e-01
5.656672641634941101e-02
-5.971963405609130859e-01
8.461444824934005737e-02
1.143110916018486023e-01
2.673432230949401855e-01
-1.119282022118568420e-01
-1.131850108504295349e-01
2.205655425786972046e-01
1.645538024604320526e-02
-2.301581501960754395e-01
3.816670272499322891e-03
-2.911115586757659912e-01
4.712899029254913330e-02
1.152670234441757202e-01
-1.578856110572814941e-01
-2.774241864681243896e-01
-2.714683115482330322e-02
2.832258045673370361e-01
-3.032836914062500000e-01
1.624777913093566895e-01
-1.013206765055656433e-01
4.683029353618621826e-01
-1.895840167999267578e-01
5.990956723690032959e-02
-1.076040118932723999e-01
1.930620521306991577e-01
4.495246708393096924e-02
-2.434814721345901489e-01
1.834442466497421265e-01
-1.512837409973144531e-01
1.067448034882545471e-01
2.409367449581623077e-02
9.678278863430023193e-02
-5.444795265793800354e-02
3.277383446693420410e-01
1.007766723632812500e-01
-8.440238237380981445e-02
-2.566275298595428467e-01
1.177568882703781128e-01
-2.329942584037780762e-01
-1.537918001413345337e-01
2.003273665904998779e-01
4.770163819193840027e-02
2.251213043928146362e-01
-3.784102797508239746e-01
4.378483444452285767e-02
2.952693700790405273e-01
-5.999113321304321289e-01
-5.039437413215637207e-01
3.724474906921386719e-01
-2.089701592922210693e-01
2.293894290924072266e-01
-5.691954493522644043e-01
-1.679116785526275635e-01
4.035092890262603760e-02
3.187066018581390381e-01
3.970328252762556076e-03
-7.517524063587188721e-02
4.021471738815307617e-01
-2.692421898245811462e-03
1.358397156000137329e-01
-6.314477920532226562e-01
1.260067522525787354e-01
3.834875822067260742e-01
-5.520651489496231079e-02
-3.119749724864959717e-01
1.478644181042909622e-02
1.587474942207336426e-01
3.909654542803764343e-02
9.940591454505920410e-02
-3.040572702884674072e-01
4.943193495273590088e-02
-2.236550487577915192e-02
-1.044896543025970459e-01
-3.674517571926116943e-02
-1.566701382398605347e-01
-1.299385279417037964e-01
-1.853891462087631226e-01
-8.864405751228332520e-02
2.833184301853179932e-01
3.681335747241973877e-01
-1.583851277828216553e-01
-5.984790623188018799e-02
-4.481261968612670898e-02
-4.550318419933319092e-01
-1.448270082473754883e-01
1.339389979839324951e-01
-4.270278811454772949e-01
-8.682722598314285278e-02
1.313393861055374146e-01
-3.409377038478851318e-01
1.893938183784484863e-01
-2.747321724891662598e-01
-6.598684121854603291e-04
-3.145952224731445312e-01
3.409673273563385010e-01
-5.537975206971168518e-02
-3.288246989250183105e-01
3.746842741966247559e-01
6.262360513210296631e-02
-1.250242143869400024e-01
-3.843192756175994873e-02
1.168422773480415344e-01
2.347353547811508179e-01
4.854255020618438721e-01
-1.834401935338973999e-01
-2.426705360412597656e-01
8.040603995323181152e-02
-1.611820906400680542e-01
-7.269023358821868896e-02
2.018773257732391357e-01
-2.656186819076538086e-01
2.795274257659912109e-01
-1.653585731983184814e-01
-2.922418713569641113e-01
-1.166889220476150513e-01
-3.172428905963897705e-02
3.578526377677917480e-01
1.717568784952163696e-01
6.388741731643676758e-02
-2.197023853659629822e-02
-1.334029287099838257e-01
2.217427939176559448e-01
-2.827920019626617432e-01
3.242442607879638672e-01
-4.036251902580261230e-01
-1.535298526287078857e-01
-2.489300966262817383e-01
1.064478904008865356e-01
-4.923070780932903290e-03
-2.049718350172042847e-01
-2.219693362712860107e-01
-2.286319248378276825e-02
-1.116653010249137878e-01
-3.750546872615814209e-01
2.557398378849029541e-01
-4.595323465764522552e-03
3.461276888847351074e-01
2.046528905630111694e-01
2.964329123497009277e-01
3.307160735130310059e-01
3.122712671756744385e-01
3.718568086624145508e-01
2.280848622322082520e-01
3.173802420496940613e-02
-1.873038262128829956e-01
-2.338868230581283569e-01
3.067639656364917755e-02
7.421239465475082397e-02
-1.426789164543151855e-01
3.101167380809783936e-01
-2.244294285774230957e-01
3.493621051311492920e-01
-1.576929241418838501e-01
-1.227864995598793030e-01
3.864980489015579224e-02
-1.079550385475158691e-01
6.346882134675979614e-02
-1.502800500020384789e-03
3.178548216819763184e-01
1.403893530368804932e-01
2.036102116107940674e-01
2.464208304882049561e-01
1.067216694355010986e-01
-3.367058932781219482e-01
2.943034172058105469e-01
3.366294503211975098e-01
7.848781347274780273e-02
-1.360042095184326172e-01
1.154433265328407288e-01
7.524376362562179565e-02
1.193623393774032593e-01
2.094534486532211304e-01
5.710117518901824951e-02
-1.167116239666938782e-01
-1.002494022250175476e-01
1.434963196516036987e-01
-4.239070415496826172e-01
2.499868907034397125e-02
1.602074205875396729e-01
-1.359645556658506393e-02
-4.723950326442718506e-01
3.360680043697357178e-01
1.273881196975708008e-01
2.897526025772094727e-01
-1.182601153850555420e-01
-6.852369010448455811e-02
5.007557943463325500e-02
3.548029661178588867e-01
-2.068007290363311768e-01
1.687413156032562256e-01
-4.206526577472686768e-01
-7.756128162145614624e-02
-7.508809119462966919e-02
-1.304929554462432861e-01
-2.456183284521102905e-01
1.854181438684463501e-01
4.467491507530212402e-01
-4.134717881679534912e-01
-2.178810387849807739e-01
1.681485176086425781e-01
4.213225245475769043e-01
-6.190024316310882568e-02
-2.098932862281799316e-01
3.678940236568450928e-01
2.610000371932983398e-01
-1.549191027879714966e-01
1.164778769016265869e-01
-2.658019587397575378e-02
-1.179502159357070923e-01
-1.628900170326232910e-01
-2.936403751373291016e-01
-1.671992242336273193e-02
-6.705874204635620117e-02
-1.458528358489274979e-02
-7.253437489271163940e-02
2.986729331314563751e-02
1.935650855302810669e-01
-3.273176550865173340e-01
-1.601056307554244995e-01
1.850050687789916992e-01
-1.191374212503433228e-01
-2.098303586244583130e-01
-4.281378984451293945e-01
1.881481856107711792e-01
-2.996843159198760986e-01
1.980123072862625122e-01
5.672582387924194336e-01
1.461773067712783813e-01
-2.404579818248748779e-01
-3.005560636520385742e-01
4.432852566242218018e-02
-2.735230624675750732e-01
-2.424780279397964478e-01
-1.591044068336486816e-01
-4.185499623417854309e-02
1.086816489696502686e-01
-2.042507678270339966e-01
-1.700378768146038055e-02
-1.461249142885208130e-01
9.070774912834167480e-02
-1.617362201213836670e-01
-1.801206320524215698e-01
-8.404667675495147705e-02
9.634292870759963989e-02
-2.111094295978546143e-01
5.620318651199340820e-02
4.820205271244049072e-01
-3.437525033950805664e-02
-9.566202014684677124e-02
-2.429909631609916687e-02
-2.463761717081069946e-01
7.670971751213073730e-02
-1.658367365598678589e-01
-7.763894647359848022e-02
6.092282012104988098e-02
-1.474858727306127548e-02
2.504578232765197754e-01
1.848367415368556976e-02
2.586114704608917236e-01
1.325328648090362549e-02
9.418282657861709595e-02
6.196184828877449036e-02
1.197136640548706055e-01
2.733070552349090576e-01
-2.671007812023162842e-01
-3.938859105110168457e-01
3.060280680656433105e-01
4.330801963806152344e-01
-4.844831228256225586e-01
2.116348445415496826e-01
-5.157601237297058105e-01
-5.506438761949539185e-02
-2.283314317464828491e-01
6.129291281104087830e-02
-4.905402660369873047e-01
1.730627715587615967e-01
1.505969911813735962e-01
-4.385744929313659668e-01
-8.359128981828689575e-02
-1.495846956968307495e-01
2.740364074707031250e-01
-2.898918390274047852e-01
-1.361444890499114990e-01
7.589023560285568237e-02
-1.883533298969268799e-01
-1.220556125044822693e-01
1.391960084438323975e-01
-4.278963059186935425e-02
4.962513223290443420e-03
1.731236279010772705e-01
-9.637316316366195679e-02
2.468058317899703979e-01
-3.229583054780960083e-02
-9.099376946687698364e-02
1.101539358496665955e-01
-3.579929471015930176e-02
4.305553436279296875e-01
-3.040723875164985657e-02
1.861641556024551392e-01
-2.952915616333484650e-02
5.158691480755805969e-02
-2.701067365705966949e-02
-3.549392521381378174e-01
-1.226352453231811523e-01
-4.357823729515075684e-02
-1.015614643692970276e-01
-2.269316315650939941e-01
1.147311329841613770e-01
-8.202169090509414673e-03
1.514407396316528320e-01
8.510892838239669800e-02
-3.558287397027015686e-02
2.800973057746887207e-01
9.203099459409713745e-02
7.070041447877883911e-02
-1.873807311058044434e-01
-3.389339894056320190e-02
1.484809368848800659e-01
-1.116773709654808044e-01
-1.020144373178482056e-01
-1.306373476982116699e-01
-7.362080365419387817e-02
-8.837837725877761841e-03
1.160082593560218811e-01
-5.047306418418884277e-01
2.105569839477539062e-01
1.507627591490745544e-02
4.564195871353149414e-01
6.289807707071304321e-02
-6.665228307247161865e-02
-1.968233287334442139e-01
8.498868346214294434e-02
-2.608370482921600342e-01
-3.131754100322723389e-01
-3.632418811321258545e-01
-2.149717062711715698e-01
3.541161715984344482e-01
-2.205582112073898315e-01
-5.280310288071632385e-02
4.944440722465515137e-01
2.392664551734924316e-01
1.355123966932296753e-01
1.966654658317565918e-01
-1.402434110641479492e-01
2.626693546772003174e-01
-1.306998282670974731e-01
-4.914018809795379639e-01
1.214921548962593079e-01
2.944208979606628418e-01
8.368980884552001953e-02
1.137351766228675842e-01
-7.588412612676620483e-02
2.609120607376098633e-01
2.253429740667343140e-01
2.382996678352355957e-01
-2.150512486696243286e-01
-1.182638704776763916e-01
-1.095028072595596313e-01
4.957141354680061340e-02
-2.498474717140197754e-01
1.990672647953033447e-01
1.891594566404819489e-02
-8.563353121280670166e-02
-3.543497622013092041e-01
1.318444013595581055e-01
-5.367236956954002380e-02
-4.909173250198364258e-01
2.080482840538024902e-01
-1.632986217737197876e-01
1.774746775627136230e-01
-1.519967168569564819e-01
-5.230984464287757874e-02
2.200155109167098999e-01
8.562836796045303345e-02
1.511697918176651001e-01
-1.394935399293899536e-01
-2.967973053455352783e-01
1.203663200139999390e-01
2.208961844444274902e-01
-2.852044403553009033e-01
8.544722944498062134e-02
1.188729256391525269e-01
5.256557837128639221e-02
-6.404785811901092529e-02
1.763875931501388550e-01
1.395315378904342651e-01
-1.233022734522819519e-01
1.121182441711425781e-01
-2.674092054367065430e-01
1.066280007362365723e-01
-7.223653048276901245e-02
2.851248020306229591e-03
9.345983713865280151e-02
-5.958042666316032410e-02
1.809444278478622437e-01
-1.873543858528137207e-01
-4.171575233340263367e-02
9.925880283117294312e-02
-2.158250510692596436e-01
3.001053929328918457e-01
-3.875605762004852295e-01
-6.667460501194000244e-02
9.771698713302612305e-02
-6.575561314821243286e-02
-2.133581489324569702e-01
1.622622758150100708e-01
-3.719684183597564697e-01
-1.817551255226135254e-01
-1.779197603464126587e-01
-1.650408059358596802e-01
-2.296270877122879028e-01
-4.842833429574966431e-02
6.251335740089416504e-01
3.704850375652313232e-01
-2.661166191101074219e-01
-1.176856309175491333e-01
-3.388916850090026855e-01
1.834286451339721680e-01
-1.385857760906219482e-01
-6.051570922136306763e-02
-1.412366479635238647e-01
7.952106744050979614e-02
-4.308217391371726990e-02
6.141356378793716431e-02
-1.704525500535964966e-01
-1.980359256267547607e-01
3.289289772510528564e-01
2.922344766557216644e-02
-2.686325013637542725e-01
4.186698794364929199e-01
1.818457841873168945e-01
3.609760999679565430e-01
1.314541250467300415e-01
-2.854490876197814941e-01
2.905742824077606201e-01
2.167761176824569702e-01
3.619155287742614746e-01
-3.981706872582435608e-02
2.670917809009552002e-01
-1.072763465344905853e-02
7.903956621885299683e-02
-4.154180884361267090e-01
-2.932292222976684570e-01
9.363569319248199463e-02
-2.286721467971801758e-01
-3.690393865108489990e-01
5.447409674525260925e-02
1.370437145233154297e-01
-3.947599232196807861e-01
3.128033280372619629e-01
7.949968427419662476e-02
1.299336403608322144e-01
9.009427577257156372e-02
-2.427286058664321899e-01
1.133840084075927734e-01
-3.881357610225677490e-02
4.390053451061248779e-01
-8.452204614877700806e-02
-5.113586783409118652e-02
-3.435811996459960938e-01
1.767033636569976807e-01
-1.006272137165069580e-01
-3.201829791069030762e-01
1.049906313419342041e-01
3.636741042137145996e-01
1.075638830661773682e-01
-4.330933094024658203e-02
4.034162685275077820e-02
-1.927820891141891479e-01
-3.330585062503814697e-01
5.534964799880981445e-01
-1.737129874527454376e-02
-2.307620644569396973e-01
4.448711127042770386e-02
-5.032832175493240356e-02
2.800472080707550049e-01
-3.454779088497161865e-02
2.647224962711334229e-01
2.996291816234588623e-01
-1.866204589605331421e-01
3.240802288055419922e-01
2.103865891695022583e-01
-1.873509585857391357e-01
-2.390206158161163330e-01
2.689257860183715820e-01
7.358511537313461304e-02
2.778733074665069580e-01
3.116520047187805176e-01
3.906060755252838135e-02
-3.300697728991508484e-02
-3.146765232086181641e-01
3.036877838894724846e-03
-2.449488034471869469e-03
5.980600416660308838e-02
2.285563647747039795e-01
2.173651754856109619e-02
-6.700265407562255859e-02
-2.359044402837753296e-01
3.123211860656738281e-01
4.175418987870216370e-02
2.563349902629852295e-01
-2.344283834099769592e-02
-2.620677277445793152e-02
-4.400724172592163086e-02
-3.898469209671020508e-01
-3.689186871051788330e-01
-2.267794162034988403e-01
1.035062819719314575e-01
2.017344981431961060e-01
4.251828193664550781e-01
4.005630910396575928e-01
8.336254209280014038e-02
3.165624439716339111e-01
4.562703892588615417e-02
-3.099575638771057129e-01
1.098413094878196716e-01
-1.310214586555957794e-02
-1.511642485857009888e-01
-4.457301646471023560e-02
-2.561966776847839355e-01
5.835897922515869141e-01
-1.480461061000823975e-01
-2.313471734523773193e-01
2.926493436098098755e-02
-7.354952394962310791e-02
9.929177165031433105e-02
-3.840218782424926758e-01
-3.082434237003326416e-01
5.058304592967033386e-02
1.458171308040618896e-01
2.022540383040904999e-02
2.782413363456726074e-01
1.661074459552764893e-01
-7.328300178050994873e-02
-4.354418516159057617e-01
-2.104199230670928955e-01
2.356356568634510040e-02
9.406940639019012451e-02
-7.190038263797760010e-02
7.904038578271865845e-02
-2.308901250362396240e-01
-3.298211097717285156e-01
3.839746415615081787e-01
1.017166152596473694e-01
-1.561983823776245117e-01
2.887540869414806366e-02
-3.189952969551086426e-01
2.653442882001399994e-02
6.717196106910705566e-02
-2.675359547138214111e-01
-1.011785268783569336e-01
-2.825909666717052460e-02
-5.229266881942749023e-01
1.150130704045295715e-01
-2.294895201921463013e-01
-1.207441687583923340e-01
-8.323115110397338867e-02
6.810130178928375244e-02
-2.811408936977386475e-01
2.213149815797805786e-01
-1.935452222824096680e-01
1.220189407467842102e-01
1.695658117532730103e-01
-2.849994301795959473e-01
2.274237573146820068e-01
4.346914887428283691e-01
-1.838160492479801178e-02
-5.172865837812423706e-02
-5.489472299814224243e-02
-3.579694330692291260e-01
-3.733951151371002197e-01
-2.967744469642639160e-01
1.208612471818923950e-01
6.184171512722969055e-02
-7.569079101085662842e-02
1.373567432165145874e-01
-4.343949556350708008e-01
6.431259214878082275e-02
1.851366311311721802e-01
2.199086695909500122e-01
1.516182124614715576e-01
1.926279664039611816e-01
3.377134799957275391e-01
1.301866918802261353e-01
-9.793436527252197266e-02
2.813053876161575317e-02
-2.934029698371887207e-01
-1.425408273935317993e-01
-1.559970229864120483e-01
2.788379192352294922e-01
-1.502017378807067871e-01
3.988442718982696533e-01
7.416513562202453613e-02
-1.285046190023422241e-01
-4.028488099575042725e-01
-3.460902273654937744e-01
2.698604464530944824e-01
-2.617843635380268097e-02
-8.038613200187683105e-02
1.306478399783372879e-02
-1.055456474423408508e-01
-3.796419799327850342e-01
3.486603796482086182e-01
1.625147312879562378e-01
-2.087341099977493286e-01
-2.460823506116867065e-01
-8.237937837839126587e-02
1.012566033750772476e-02
-2.676085233688354492e-01
5.392167344689369202e-02
6.302709132432937622e-02
3.845934569835662842e-01
1.959585696458816528e-01
1.577102392911911011e-02
-1.085970327258110046e-01
-2.579268813133239746e-02
3.561251237988471985e-02
-9.973718225955963135e-02
-8.342837542295455933e-02
-3.545574247837066650e-01
-1.725091040134429932e-01
-4.193827211856842041e-01
-2.278163135051727295e-01
3.557836115360260010e-01
-3.074437975883483887e-01
-3.012282550334930420e-01
2.785898745059967041e-01
-2.491925656795501709e-01
3.788669779896736145e-02
1.602048277854919434e-01
3.803219199180603027e-01
1.218196353875100613e-03
2.271888405084609985e-01
-2.359099984169006348e-01
-2.053692489862442017e-01
-3.248059153556823730e-01
2.913771867752075195e-01
-2.130287140607833862e-01
2.571504712104797363e-01
-1.256289035081863403e-01
-4.177347421646118164e-01
-7.675842195749282837e-02
-2.539968490600585938e-02
2.672950625419616699e-01
-3.560910224914550781e-01
-4.147785902023315430e-01
1.360632479190826416e-01
1.219277232885360718e-01
-1.962333768606185913e-01
3.137279709335416555e-04
3.388807177543640137e-01
2.506592273712158203e-01
7.352987676858901978e-02
-1.478677839040756226e-01
-9.736994653940200806e-02
-1.011075600981712341e-01
3.913612663745880127e-01
1.259101331233978271e-01
-1.310060322284698486e-01
-1.840227246284484863e-01
-1.596724428236484528e-02
-1.487404555082321167e-01
-1.638457030057907104e-01
-2.124757617712020874e-01
1.692351549863815308e-01
4.927909672260284424e-01
5.508535355329513550e-02
5.517201125621795654e-02
4.358513653278350830e-01
-1.650103181600570679e-01
-2.875020802021026611e-01
-1.946630924940109253e-01
-4.203373193740844727e-02
2.456168830394744873e-01
-6.704550981521606445e-02
-8.213666081428527832e-02
-6.262731552124023438e-02
1.749829202890396118e-01
-1.248394027352333069e-01
1.780619099736213684e-02
1.108789071440696716e-01
4.563789665699005127e-01
2.898830473423004150e-01
-2.908493280410766602e-01
2.165090143680572510e-01
3.612125813961029053e-01
1.726768761873245239e-01
2.428179979324340820e-01
-5.395285785198211670e-02
-4.449405372142791748e-01
-2.296782135963439941e-01
-4.422537684440612793e-01
-2.556512355804443359e-01
1.419942229986190796e-01
8.523078262805938721e-02
-4.455247521400451660e-02
-2.736971080303192139e-01
-1.393805444240570068e-01
-2.256874889135360718e-01
-6.244839727878570557e-02
-1.086761057376861572e-01
1.338789165019989014e-01
9.639393538236618042e-02
2.484758496284484863e-01
-3.210571706295013428e-01
-1.634965538978576660e-01
2.312850356101989746e-01
-1.042225509881973267e-01
-5.205579400062561035e-01
6.368812173604965210e-02
5.212426185607910156e-01
7.324863690882921219e-03
4.277638792991638184e-01
4.270008206367492676e-02
-1.052000559866428375e-03
8.825953304767608643e-02
-1.336299180984497070e-01
5.029505491256713867e-02
-5.447001457214355469e-01
-2.211730778217315674e-01
6.780142337083816528e-02
-4.073558747768402100e-01
5.863210558891296387e-02
1.138227581977844238e-01
-2.420144975185394287e-01
-3.050752580165863037e-01
2.254131436347961426e-02
-1.199235394597053528e-01
-6.184501200914382935e-02
5.270820111036300659e-02
2.450790256261825562e-01
1.261152625083923340e-01
6.865690648555755615e-02
-4.360805153846740723e-01
-1.193037629127502441e-01
-8.714425563812255859e-02
1.005519255995750427e-01
2.400009781122207642e-01
-3.958181478083133698e-03
-1.856066733598709106e-01
-2.516828477382659912e-01
-3.112273216247558594e-01
-2.674230039119720459e-01
9.442254155874252319e-02
9.714640676975250244e-02
1.313900202512741089e-01
1.394993662834167480e-01
2.668796181678771973e-01
4.349710345268249512e-01
-1.994934380054473877e-01
-3.404658734798431396e-01
2.555315010249614716e-02
2.266072332859039307e-01
1.404079794883728027e-01
1.529260305687785149e-03
4.192057251930236816e-01
1.556477546691894531e-01
-3.871825337409973145e-01
1.239297389984130859e-01
-2.247732579708099365e-01
3.084077835083007812e-01
-2.533523738384246826e-01
-7.989691942930221558e-02
2.594163417816162109e-01
-3.573680520057678223e-01
-3.425029814243316650e-01
-6.867595762014389038e-02
-4.547470808029174805e-02
-2.632725536823272705e-01
5.751136317849159241e-02
3.409716784954071045e-01
-2.323157526552677155e-02
-1.863288432359695435e-01
-8.242212235927581787e-02
-1.909496039152145386e-01
1.719215810298919678e-01
2.162017673254013062e-01
3.254570439457893372e-02
-1.335285753011703491e-01
-4.073844850063323975e-02
4.279514551162719727e-01
-4.008021652698516846e-01
-3.788968324661254883e-01
7.773002237081527710e-02
6.217686086893081665e-02
1.068541184067726135e-01
2.813650965690612793e-01
3.726194798946380615e-01
1.506776809692382812e-01
-3.436934649944305420e-01
-2.278354167938232422e-01
-2.626407444477081299e-01
1.472627967596054077e-01
-2.856692969799041748e-01
1.208408921957015991e-01
6.276797503232955933e-02
-3.324909508228302002e-01
-3.763359487056732178e-01
-1.052359491586685181e-01
6.270070374011993408e-02
-4.589496552944183350e-02
2.039876580238342285e-01
5.304701626300811768e-03
-7.329089939594268799e-02
1.164313405752182007e-01
-1.933197118341922760e-02
-2.108397036790847778e-01
-2.407095581293106079e-01
3.780851513147354126e-02
2.016115188598632812e-01
1.296798437833786011e-01
2.151704877614974976e-01
-1.952887978404760361e-03
4.183463379740715027e-02
1.201686486601829529e-01
-6.565151363611221313e-02
6.981819868087768555e-02
-1.676066815853118896e-01
2.829318940639495850e-01
-1.288034170866012573e-01
-2.005264721810817719e-02
9.614694863557815552e-03
9.484415873885154724e-03
3.153398633003234863e-02
-1.354767829179763794e-01
1.281348466873168945e-01
-9.592160582542419434e-03
-1.200455948710441589e-01
-2.044645845890045166e-01
7.990399003028869629e-02
1.675146818161010742e-02
-1.390457600355148315e-01
-2.139032334089279175e-01
1.472626626491546631e-01
-3.726592659950256348e-02
1.250900328159332275e-01
3.162410855293273926e-02
-1.422321200370788574e-01
4.523408412933349609e-02
-3.479142487049102783e-02
-1.197143420577049255e-01
-1.361819654703140259e-01
-1.309325993061065674e-01
-6.911486387252807617e-02
1.996202170848846436e-01
2.016175985336303711e-01
3.560802340507507324e-02
-2.194919288158416748e-01
-1.504456996917724609e-02
-3.965929150581359863e-03
1.386365592479705811e-01
1.866705119609832764e-01
-2.960194647312164307e-02
-3.776842355728149414e-02
-3.309053182601928711e-02
-1.508275270462036133e-01
-1.271333396434783936e-01
-1.410709172487258911e-01
-1.010909676551818848e-02
1.027711033821105957e-01
1.592062413692474365e-01
1.804238557815551758e-02
2.034189403057098389e-01
2.186228632926940918e-01
8.570668101310729980e-02
7.920566201210021973e-02
-2.202192395925521851e-01
-8.527371287345886230e-02
-1.312541514635086060e-01
4.513043165206909180e-02
1.138108968734741211e-01
2.231668531894683838e-01
-2.056274265050888062e-01
-1.775257885456085205e-01
3.866130113601684570e-02
-4.097636044025421143e-02
1.799954771995544434e-01
5.532199144363403320e-02
1.962492763996124268e-01
-2.126711905002593994e-01
6.164386868476867676e-03
1.387223005294799805e-01
-9.140349924564361572e-02
-1.406583487987518311e-01
-1.894205957651138306e-01
1.544959247112274170e-01
4.837593436241149902e-02
-1.306557953357696533e-01
6.493264436721801758e-02
9.903490543365478516e-02
-2.207973897457122803e-01
-2.218007147312164307e-01
-1.070278137922286987e-01
2.435764670372009277e-02
1.843626499176025391e-01
-1.243937760591506958e-01
1.896828413009643555e-01
1.009394824504852295e-01
-6.755338609218597412e-02
-1.922726035118103027e-01
1.770354211330413818e-01
2.092282474040985107e-01
2.052725255489349365e-01
1.696518063545227051e-01
2.007017433643341064e-01
8.470523357391357422e-02
9.394320845603942871e-02
-1.708467006683349609e-01
3.384619951248168945e-03
2.056273519992828369e-01
1.851671934127807617e-01
7.801100611686706543e-02
-1.136197894811630249e-01
-1.755073070526123047e-01
-2.140790075063705444e-01
1.831169724464416504e-01
-6.309479475021362305e-02
-8.832393586635589600e-02
2.126466333866119385e-01
1.260949671268463135e-02
6.534811854362487793e-02
1.743614971637725830e-01
9.226307272911071777e-02
-2.130611687898635864e-01
1.162206530570983887e-01
3.604504466056823730e-02
-1.510089486837387085e-01
2.029810845851898193e-01
7.743465900421142578e-02
-2.530364692211151123e-02
1.902679800987243652e-01
1.210547089576721191e-01
-1.632262766361236572e-01
1.774355173110961914e-01
1.140744686126708984e-01
1.499176025390625000e-02
2.046846151351928711e-01
3.205221891403198242e-02
-1.914674937725067139e-01
-9.490418434143066406e-02
-1.966116726398468018e-01
-1.246248334646224976e-01
1.400797069072723389e-02
-1.966077983379364014e-01
9.768843650817871094e-03
-1.043201535940170288e-01
2.212288975715637207e-02
-1.376478374004364014e-01
1.499429345130920410e-01
6.288671493530273438e-02
-1.645776480436325073e-01
2.090879678726196289e-01
9.060764312744140625e-02
1.770412027835845947e-01
-1.765061318874359131e-01
2.970424294471740723e-02
1.465078890323638916e-01
-1.056928932666778564e-02
1.555610001087188721e-01
-2.060320377349853516e-01
1.718178391456604004e-01
-1.163668781518936157e-01
-1.175531223416328430e-01
2.205360829830169678e-01
1.738850772380828857e-02
1.857417523860931396e-01
-3.584063053131103516e-02
1.022422909736633301e-01
2.148713767528533936e-01
-1.153128743171691895e-01
-1.550967693328857422e-01
-3.241005539894104004e-02
-8.044694364070892334e-02
-3.559857606887817383e-03
8.153957128524780273e-02
2.164533734321594238e-02
-2.065289020538330078e-02
1.398183405399322510e-01
2.211854159832000732e-01
6.777507066726684570e-02
-5.494248867034912109e-02
5.513775348663330078e-02
3.676712512969970703e-02
-2.704563736915588379e-02
-1.440007090568542480e-01
1.838499903678894043e-01
6.676986813545227051e-02
1.213935911655426025e-01
1.339818537235260010e-02
-1.353237777948379517e-01
-7.092155516147613525e-02
-4.352398216724395752e-02
1.008428931236267090e-01
-1.646090596914291382e-01
-8.912603557109832764e-02
1.876876652240753174e-01
-9.255951642990112305e-02
1.236357986927032471e-01
-1.180827245116233826e-01
8.511096239089965820e-02
9.796705842018127441e-02
8.697810769081115723e-02
7.807192206382751465e-02
1.761391460895538330e-01
2.354525029659271240e-02
-7.263281941413879395e-02
4.432466626167297363e-02
7.882979512214660645e-02
1.329393982887268066e-01
-5.458478629589080811e-02
1.744555830955505371e-01
1.584610939025878906e-01
4.410189390182495117e-02
2.183054983615875244e-01
1.525107026100158691e-02
-1.178565248847007751e-01
6.638866662979125977e-02
-1.442574858665466309e-01
1.723814606666564941e-01
1.834716200828552246e-01
1.625986397266387939e-02
1.960481703281402588e-01
-1.667391061782836914e-01
-1.699214577674865723e-01
1.594243347644805908e-01
-7.982894778251647949e-03
-9.524612128734588623e-02
1.880533993244171143e-02
-1.456747055053710938e-01
2.073948085308074951e-01
-1.058823019266128540e-01
1.766372323036193848e-01
-2.130678892135620117e-01
-5.726152658462524414e-02
-7.833670079708099365e-02
5.101785063743591309e-02
-1.118005961179733276e-01
1.081918478012084961e-01
1.838904023170471191e-01
-2.052769213914871216e-01
8.857846260070800781e-04
-1.707161962985992432e-02
1.870620846748352051e-01
1.609306931495666504e-01
7.360276579856872559e-02
-2.265757322311401367e-02
6.944602727890014648e-02
-1.799211502075195312e-01
1.140755712985992432e-01
-1.385702639818191528e-01
1.232971847057342529e-01
-2.124375551939010620e-01
-9.536729753017425537e-02
-2.197919189929962158e-01
-1.301697045564651489e-01
1.777710318565368652e-01
-2.230559289455413818e-02
9.416365623474121094e-02
3.839874267578125000e-02
-1.258671283721923828e-01
-7.386973500251770020e-02
-1.683728098869323730e-01
-2.101995199918746948e-01
-2.219375967979431152e-02
1.837863028049468994e-01
-1.514397859573364258e-01
1.961986124515533447e-01
-1.293834447860717773e-01
1.341228485107421875e-01
-2.134486436843872070e-01
-1.348274946212768555e-01
-8.021669089794158936e-02
-3.275726735591888428e-02
-2.021062672138214111e-01
-1.855025887489318848e-01
1.141265630722045898e-01
1.446115970611572266e-01
1.506800353527069092e-01
2.173450589179992676e-01
6.259372830390930176e-02
-1.999566853046417236e-01
3.490155935287475586e-02
1.002167165279388428e-01
3.132069110870361328e-02
-1.345542073249816895e-02
-3.164331614971160889e-02
1.000684499740600586e-01
-1.066637709736824036e-01
-1.945174634456634521e-01
-6.088078022003173828e-03
-1.711996197700500488e-01
-3.560125827789306641e-03
1.505406200885772705e-02
-1.973570287227630615e-01
2.079490125179290771e-01
-3.408463299274444580e-02
1.792654395103454590e-01
-1.154949590563774109e-01
1.893645524978637695e-02
-1.525636613368988037e-01
-9.102270007133483887e-02
-1.790443509817123413e-01
-1.375523209571838379e-01
-5.434077978134155273e-02
1.160598695278167725e-01
7.892656326293945312e-02
2.234594523906707764e-01
1.022368669509887695e-01
-1.493796706199645996e-03
1.284449100494384766e-01
8.721628785133361816e-02
3.832089900970458984e-02
4.730415344238281250e-02
1.345022320747375488e-01
2.187081575393676758e-01
1.080031692981719971e-01
2.194879949092864990e-02
1.698830127716064453e-01
2.088447809219360352e-01
-3.858433663845062256e-02
1.647017300128936768e-01
9.492808580398559570e-02
-2.087547630071640015e-01
-2.046657055616378784e-01
-1.631053686141967773e-01
-2.209166735410690308e-01
6.497624516487121582e-02
1.324467658996582031e-01
1.283676028251647949e-01
-1.945296823978424072e-01
-1.593175977468490601e-01
-1.665496677160263062e-01
-1.246507689356803894e-01
-5.608083307743072510e-02
4.399719834327697754e-02
-2.928791940212249756e-02
-4.991100728511810303e-02
9.945058822631835938e-02
-1.110730469226837158e-01
4.355147480964660645e-02
-2.318516373634338379e-03
1.507095992565155029e-02
-1.908574700355529785e-01
-7.400026917457580566e-02
-1.554326713085174561e-01
3.820732235908508301e-03
2.067034542560577393e-01
-2.219651043415069580e-01
-8.787973225116729736e-02
1.551466882228851318e-01
-9.267440438270568848e-02
1.768450438976287842e-01
-4.962937533855438232e-02
-1.341160982847213745e-01
-6.103409826755523682e-02
-1.390189379453659058e-01
-1.620340049266815186e-01
2.015918493270874023e-03
1.838853061199188232e-01
-4.169556498527526855e-02
2.178224325180053711e-01
-1.168154999613761902e-01
1.482461094856262207e-01
-1.633048802614212036e-01
8.634522557258605957e-02
1.797613501548767090e-01
-2.207235544919967651e-01
-1.777559071779251099e-01
6.827521324157714844e-02
2.908110618591308594e-02
-1.321585476398468018e-02
7.216736674308776855e-02
-1.678047329187393188e-01
1.520425975322723389e-01
5.805224180221557617e-03
1.797150373458862305e-01
7.117265462875366211e-02
2.950131893157958984e-03
-1.194351911544799805e-02
-1.253236532211303711e-01
1.409834325313568115e-01
1.099922657012939453e-01
-8.185374736785888672e-02
-1.653798967599868774e-01
4.973271489143371582e-02
-1.840175688266754150e-01
1.049941480159759521e-01
1.435006558895111084e-01
2.155828773975372314e-01
1.859531700611114502e-01
1.817008256912231445e-01
2.182859182357788086e-01
-9.208455681800842285e-02
-1.547885537147521973e-01
3.217598795890808105e-02
1.842080652713775635e-01
1.512195169925689697e-02
-1.858043670654296875e-01
1.111520528793334961e-01
-1.945030689239501953e-02
1.301476359367370605e-01
-2.336028218269348145e-02
-9.935279935598373413e-02
-1.586490273475646973e-01
2.218182384967803955e-02
-1.126870736479759216e-01
1.605688035488128662e-01
4.458737373352050781e-02
1.326851844787597656e-01
-1.450713574886322021e-01
-1.486606597900390625e-01
-1.969365328550338745e-01
-1.933005750179290771e-01
-7.156868278980255127e-02
-8.879688382148742676e-02
2.235557138919830322e-01
-2.016846835613250732e-01
-1.869750469923019409e-01
-5.788536369800567627e-02
8.204609155654907227e-02
-1.069950535893440247e-01
-3.436803817749023438e-02
1.427091062068939209e-01
-5.513781309127807617e-02
-1.166333258152008057e-02
1.698558628559112549e-01
2.962622046470642090e-02
-1.276706159114837646e-01
2.798452973365783691e-02
-3.919556736946105957e-03
-1.664238572120666504e-01
1.441270709037780762e-01
-6.569445133209228516e-02
2.213380634784698486e-01
7.147201895713806152e-02
-2.090200483798980713e-01
8.888763189315795898e-02
-1.941493451595306396e-01
-1.739388108253479004e-01
2.946996688842773438e-02
9.566506743431091309e-02
-1.587733626365661621e-02
-1.831520944833755493e-01
9.266726672649383545e-02
4.674449563026428223e-01
3.167900145053863525e-01
-2.036955207586288452e-01
-4.247771203517913818e-01
2.007447183132171631e-01
2.449324876070022583e-01
7.127384096384048462e-02
-4.043938815593719482e-01
3.900814652442932129e-01
6.653627753257751465e-01
5.013368725776672363e-01
3.782068192958831787e-01
-6.801676154136657715e-01
-4.606826305389404297e-01
4.851458370685577393e-01
4.135099351406097412e-01
-2.139405161142349243e-01
2.830664217472076416e-01
-3.711735308170318604e-01
-2.043021917343139648e-01
1.429227590560913086e-01
-2.731901705265045166e-01
-2.227366566658020020e-01
-1.112747192382812500e-01
-2.819327712059020996e-01
3.911403939127922058e-02
2.594183385372161865e-01
-3.723076879978179932e-01
2.533164061605930328e-02
-1.119778677821159363e-01
1.879048645496368408e-01
2.977251261472702026e-02
-3.057754598557949066e-02
-1.590773761272430420e-01
-4.987117648124694824e-01
2.945685684680938721e-01
3.324463367462158203e-01
-3.229525685310363770e-01
-1.228624954819679260e-01
1.896218657493591309e-01
2.914898693561553955e-01
8.018048852682113647e-02
-2.997638285160064697e-01
3.333267867565155029e-01
4.095090925693511963e-01
-3.109863027930259705e-02
-5.264903903007507324e-01
-1.541539728641510010e-01
1.421260535717010498e-01
-4.338758811354637146e-02
8.419637382030487061e-02
-1.602430492639541626e-01
7.788123935461044312e-02
-4.796118009835481644e-03
-1.655328720808029175e-01
-6.050342321395874023e-02
5.581073164939880371e-01
-1.874306648969650269e-01
-3.476496785879135132e-02
-7.223416119813919067e-02
1.086029931902885437e-01
-2.459557950496673584e-01
